#ifndef TCN_WEIGHTS_BIASES_FLOAT32_H
#define TCN_WEIGHTS_BIASES_FLOAT32_H

#include <stdint.h>

static const float TCN_WEIGHTS_BIASES[] = {
0.7571501731872559, 1.1833593845367432, 1.5520853996276855, 1.2824422121047974, -0.12412341684103012, -0.048465993255376816, -0.027344487607479095, -0.034956902265548706, 
    -5.074060440063477, -6.114900588989258, -4.548890113830566, -5.238235950469971, -0.036381881684064865, -0.0736037865281105, -0.08091764152050018, -0.05417575314640999, 
    -1.4103738069534302, -1.109532117843628, -0.902837872505188, -0.4693572521209717, 0.4583629369735718, 0.10599569231271744, 0.2298286110162735, -0.09807507693767548, 
    -1.7125977277755737, -2.614564895629883, -4.769672393798828, -6.673211574554443, 0.32472777366638184, -0.6581197381019592, 0.22966578602790833, -0.40202558040618896, 
    -0.22900176048278809, 0.11202428489923477, -0.006553560961037874, 0.10333691537380219, 0.009889092296361923, -0.002606091322377324, 0.00745480926707387, -0.03166792169213295, 
    -0.10367946326732635, 0.2866789400577545, -2.391610860824585, -0.011531064286828041, 0.0008075954974628985, 0.27045056223869324, -1.1273839473724365, 0.8628196716308594, 
    -1.0808240175247192, -1.1524525880813599, 1.1355026960372925, 0.9836035370826721, 0.09626556932926178, 0.060544703155756, -0.07317300140857697, -0.18815797567367554, 
    -1.1742080450057983, -1.2356289625167847, -0.5659851431846619, 1.364240288734436, 0.05686436966061592, 0.0783243179321289, -0.1866733282804489, 0.31179970502853394, 
    -1.8150839805603027, -1.0445971488952637, 0.7064126133918762, 1.0583910942077637, -0.21742303669452667, -0.051519718021154404, 0.1211051195859909, 0.2281816303730011, 
    -4.673742771148682, -12.215826034545898, -17.924585342407227, -20.238239288330078, -0.009203021414577961, -0.40944230556488037, 0.23181824386119843, 0.3230447769165039, 
    0.1885502189397812, 0.5951939821243286, 0.3509563207626343, -1.0176855325698853, -0.022576455026865005, -0.018790356814861298, 0.02116009034216404, 0.11840514838695526, 
    1.4718585014343262, 1.1809194087982178, 0.30926573276519775, 5.394061088562012, -0.20848779380321503, 0.06809722632169724, -0.5451000332832336, 0.7449795007705688, 
    -1.3390828371047974, -1.1520020961761475, -0.9463403820991516, 0.8556404709815979, -0.159230574965477, -0.009148773737251759, -0.1876404881477356, -0.42282432317733765, 
    -2.3292429447174072, -0.060150012373924255, -9.913115501403809, -19.741525650024414, -0.04421628639101982, 0.12065795809030533, -0.19898556172847748, 0.34922274947166443, 
    0.40670472383499146, 0.2884790301322937, -0.35744795203208923, -0.2834733724594116, -0.0038699961733072996, 0.05900907516479492, 0.015939950942993164, -0.07054168730974197, 
    -0.44003692269325256, -2.1452748775482178, 0.41386646032333374, 1.3432564735412598, -0.017843732610344887, -0.9940884709358215, 0.2464645951986313, 0.7688204050064087, 
    0.2507641613483429, 0.4380413591861725, -0.39758744835853577, -0.6710221767425537, -0.04822548106312752, -0.11835958808660507, 0.6171111464500427, 0.2632080912590027, 
    -1.615994930267334, 2.450288772583008, 2.813148021697998, 5.6703362464904785, -0.21704144775867462, -1.482621431350708, -0.11633917689323425, 0.19541393220424652, 
    0.8133682608604431, -0.039971400052309036, -1.4717947244644165, -2.205657958984375, 0.4434073567390442, 0.9652827382087708, -0.2499944567680359, -1.1001291275024414, 
    2.623584032058716, 3.090494394302368, -0.939799427986145, -0.7782952189445496, -0.14532053470611572, -0.15580709278583527, -0.017439156770706177, 0.3550270199775696, 
    0.6452958583831787, -0.06621751934289932, -2.117489814758301, -3.20426344871521, 0.07449129968881607, -0.04936404898762703, 0.1882617324590683, 0.09011398255825043, 
    2.9127299785614014, 0.7563530206680298, 1.0097037553787231, 2.7749431133270264, 0.014138322323560715, 0.11742044985294342, 0.07923945784568787, -0.002996870782226324, 
    -0.7682254314422607, 0.3411521315574646, 1.2858158349990845, 1.366787314414978, -0.026989096775650978, 0.01372451614588499, 0.11607323586940765, 0.10809867084026337, 
    2.0268092155456543, 2.1776633262634277, 1.7378735542297363, 1.5659153461456299, 0.00612606480717659, -0.045584868639707565, 0.09189994633197784, -0.096566341817379, 
    0.6940784454345703, -0.02746754325926304, -0.6501603722572327, -1.2295712232589722, -0.03775682672858238, 0.12752892076969147, -0.030368659645318985, -0.2140917330980301, 
    -4.616534233093262, -4.026491165161133, -1.1771191358566284, -2.4346024990081787, 0.3280602991580963, 0.32014504075050354, -0.09692799299955368, -0.3322327733039856, 
    0.21931025385856628, 0.09239529818296432, -0.6691293120384216, -0.4060288667678833, 0.126648411154747, 0.0374150350689888, -0.5773375630378723, 0.5102731585502625, 
    4.685835838317871, 2.288743019104004, 1.9430311918258667, 4.783771514892578, -0.03272055834531784, 0.5605908036231995, -0.9357420206069946, 0.1809491217136383, 
    -0.3640139102935791, 0.12982118129730225, -0.028456460684537888, 0.09687769412994385, 0.14968352019786835, 0.3496744930744171, -0.03726106137037277, 0.22323225438594818, 
    -1.6501270532608032, -1.226418137550354, 0.01644076220691204, 1.82414972782135, -0.0384599007666111, 0.15523074567317963, -0.04898596927523613, -0.5381910800933838, 
    -0.7830604910850525, -0.4229179322719574, 0.44746148586273193, 0.42959755659103394, 0.10478207468986511, -0.13732248544692993, 0.05068344995379448, -0.06946778297424316, 
    -1.0865141153335571, 1.460593342781067, 1.1544241905212402, 2.95395827293396, -0.4820556640625, 0.3662683069705963, -0.34925079345703125, 0.5274047255516052, 
    0.04455199092626572, 0.26664963364601135, -0.1938541680574417, -0.09153518825769424, -0.02890823408961296, 0.0842643529176712, 0.3846954107284546, -0.3012044429779053, 
    -0.22085407376289368, -0.10652968287467957, -0.3346249461174011, -1.7256217002868652, 0.0529019869863987, 0.09890682250261307, -0.0862383022904396, -0.055387068539857864, 
    -0.17420533299446106, -0.20557500422000885, -0.028493186458945274, 0.3413461744785309, 0.08694326132535934, -0.12283957749605179, -0.30027180910110474, 1.511080026626587, 
    0.17573581635951996, -0.24693290889263153, 0.23705896735191345, 0.21851983666419983, 0.08534511178731918, -0.006397913210093975, -0.23428180813789368, -0.8439766764640808, 
    -0.39919042587280273, 0.11759667843580246, -0.06769220530986786, -0.5495939254760742, -0.06462420523166656, 0.008090724237263203, 0.06927059590816498, 0.3425528109073639, 
    -0.3793179392814636, 0.12044665217399597, -0.21986663341522217, 0.1586856096982956, 0.14331062138080597, 0.20303457975387573, 0.5378509163856506, -0.9154002666473389, 
    0.0933191180229187, -0.18599864840507507, -0.2856663167476654, 0.5207502245903015, 0.05692584440112114, 0.24749015271663666, 0.20537637174129486, 0.7532662153244019, 
    -0.051786694675683975, -0.0881316214799881, -0.40008145570755005, 0.6031885147094727, -0.012810109183192253, 0.19900749623775482, -0.12028384953737259, 0.3600759506225586, 
    -0.041775211691856384, -0.07349218428134918, 0.07942233979701996, 0.4346870481967926, 0.15684156119823456, -0.2550342082977295, -0.26791074872016907, 0.8725714087486267, 
    -0.9699245691299438, -1.3076761960983276, -1.5153130292892456, -2.0307724475860596, -1.5660005807876587, -0.6301494836807251, -1.2825920581817627, 0.6652517318725586, 
    0.6969577670097351, -0.44836390018463135, 0.3113029897212982, 0.16473549604415894, 0.16759273409843445, 0.3623460829257965, -0.17459942400455475, 0.31718525290489197, 
    -0.4719099700450897, -0.8020653128623962, -2.4831342697143555, 2.247809886932373, -0.6305093765258789, -1.4768675565719604, -0.7240575551986694, -0.7581139802932739, 
    0.021860647946596146, 0.22816959023475647, 0.461032897233963, 0.5652309060096741, 0.46155691146850586, -0.030315984040498734, -0.31931063532829285, -0.8631852269172668, 
    0.2875042259693146, -0.006884646136313677, -0.6152608394622803, 0.40237700939178467, 0.7080779671669006, -0.24334654211997986, -0.7061435580253601, -0.39678242802619934, 
    -0.13950249552726746, -0.7368773818016052, -10.421025276184082, 0.24855971336364746, 0.5590887069702148, -0.07178205251693726, 0.06918889284133911, 0.2880249619483948, 
    0.8640607595443726, -0.18758012354373932, -0.8093271255493164, 0.160383939743042, -0.08789213001728058, 0.014910065568983555, -0.06844153255224228, 0.5814527273178101, 
    0.790428638458252, 0.6655290126800537, -0.6570811867713928, -1.0215299129486084, 0.09640625864267349, -0.0065626902505755424, -0.38738909363746643, -0.2709714472293854, 
    -0.08563169091939926, -0.500774085521698, -1.107811689376831, -1.2377969026565552, -0.3665213882923126, -0.6715731024742126, -1.467625617980957, -0.7728244066238403, 
    -0.5639809966087341, 0.23494578897953033, 0.3329932689666748, -0.07087023556232452, 0.26908695697784424, -0.30521005392074585, -0.17798581719398499, 0.5766981244087219, 
    -1.1402561664581299, -7.423900127410889, -0.4815414249897003, -3.643237829208374, 0.6962664723396301, 0.4155648946762085, 0.053610771894454956, -0.4125080704689026, 
    -0.6506901383399963, -0.2790695130825043, -0.051504261791706085, -0.11899945139884949, -0.7978199124336243, -1.8108386993408203, -0.05620773881673813, -0.38869020342826843, 
    0.4894710183143616, 0.14592944085597992, -0.256504088640213, -0.16157220304012299, -0.37391945719718933, -0.5157812237739563, 0.2535819709300995, 0.32650578022003174, 
    0.016807904466986656, -0.4575420618057251, -0.9697602391242981, -0.6551117300987244, -0.00571262976154685, 0.45796999335289, 0.548642635345459, 0.22459948062896729, 
    -0.1638195812702179, 0.1385738104581833, 0.5001845359802246, 0.2559669613838196, -0.32804593443870544, -0.2405780404806137, -0.3115380108356476, 1.2469162940979004, 
    -0.36893758177757263, -0.5728656053543091, -0.12945987284183502, 0.8348881006240845, -0.3763807713985443, 0.4404414892196655, -0.11425800621509552, -0.04296523705124855, 
    -0.31010693311691284, -0.11119360476732254, -0.05665237084031105, -0.6715530753135681, -0.169610396027565, 0.08177482336759567, -0.08529449254274368, 0.23682306706905365, 
    -0.21636992692947388, 0.2408892810344696, -0.2008448839187622, -0.47768110036849976, -0.03877340257167816, -0.01049641240388155, 0.0024265218526124954, 0.5316123366355896, 
    0.3503391742706299, -0.12909676134586334, -0.9767874479293823, 0.3710152804851532, 0.03872917592525482, -0.475164532661438, 0.22469983994960785, 0.14424681663513184, 
    -0.2975124716758728, -0.5019236207008362, 0.1371936947107315, 1.6053394079208374, 0.20500880479812622, 0.04536261036992073, 0.1294170618057251, 0.3062301278114319, 
    1.0614105463027954, -0.004693659953773022, -1.5303568840026855, 0.10570455342531204, -0.8937304019927979, -0.1250462383031845, 0.19027096033096313, 0.7023453712463379, 
    -0.1838383674621582, -0.2524685561656952, -0.640920877456665, -0.0351179763674736, 0.22145114839076996, -0.0024076446425169706, -0.3545662462711334, -0.042739350348711014, 
    -0.11516892910003662, -0.06662242114543915, -0.8266695141792297, -0.267346054315567, -0.07517041265964508, 0.1565980464220047, -0.11131283640861511, 0.09878338128328323, 
    -0.28739479184150696, -0.24173961579799652, 0.17426542937755585, 0.5234257578849792, 0.21270130574703217, -0.015550550073385239, -0.21809178590774536, -0.3595210313796997, 
    -0.026643957942724228, -0.022061089053750038, -0.8864253759384155, -1.52035653591156, -0.5257176756858826, -0.07953991740942001, 0.1690283715724945, 0.4038427174091339, 
    0.1476983278989792, 0.20482899248600006, -0.0023129843175411224, -0.13704131543636322, 0.07141243666410446, -0.09947195649147034, -0.01841960847377777, 0.7025400996208191, 
    0.4386218786239624, 0.23194819688796997, 0.027245651930570602, -0.5405319333076477, -0.05453214421868324, -0.12186310440301895, -0.509235143661499, -0.7284145355224609, 
    -0.10919003188610077, 0.1255781501531601, -0.0975881889462471, 0.3240301311016083, 0.07605232298374176, 0.15194569528102875, 0.056138571351766586, -0.18133655190467834, 
    0.5968537926673889, 0.47363990545272827, -0.14665818214416504, -1.1372005939483643, -0.6577095985412598, -0.1579650640487671, 0.15423321723937988, 0.4130355417728424, 
    0.19295941293239594, 0.20328770577907562, -0.10410535335540771, -0.34751054644584656, -4.0608101699035615e-05, -0.06518758088350296, 0.2264835238456726, -0.22223106026649475, 
    0.05478798225522041, 0.16245998442173004, -0.5233055353164673, 0.23490796983242035, -0.06832633912563324, 0.167425274848938, 0.09613019227981567, -0.04407334327697754, 
    -0.3821928799152374, 0.35634341835975647, 0.15802443027496338, 0.08338671922683716, 0.058145903050899506, 0.412514328956604, 0.13482211530208588, -0.22712339460849762, 
    -0.08369199186563492, -0.04430330917239189, -1.3282469511032104, -1.1205421686172485, 0.1780616044998169, 0.14070062339305878, -0.5437951683998108, -0.014162122271955013, 
    -0.1324576735496521, 0.040222570300102234, 0.20124377310276031, -1.8440861701965332, -0.18657788634300232, -0.008612343110144138, 0.29455676674842834, 0.5013045072555542, 
    0.1827698051929474, -0.03717619180679321, -0.7856614589691162, 0.19980008900165558, -0.10151652246713638, -0.18345771729946136, -1.241857886314392, -1.9243189096450806, 
    -0.2285122275352478, 0.17209918797016144, -1.098243236541748, 0.21279318630695343, 0.34661757946014404, 0.6029075980186462, -0.08070152997970581, -0.28571394085884094, 
    -0.3053167462348938, -0.38067492842674255, 0.407726913690567, 0.6815279126167297, 0.43915361166000366, 0.6358655691146851, 0.06851666420698166, -1.0036828517913818, 
    -0.17989122867584229, -0.09627585858106613, 0.41684502363204956, -0.379413902759552, -0.33980274200439453, -0.034583088010549545, 0.5579673647880554, -0.5154616236686707, 
    -0.47982949018478394, -0.025833625346422195, 0.9839743971824646, -0.561347246170044, 0.030811257660388947, 0.15733808279037476, -0.16247721016407013, -0.20856381952762604, 
    0.10751184821128845, -0.1747175008058548, 0.06626362353563309, 1.1699329614639282, -0.051869407296180725, 0.5082805752754211, -0.2254638820886612, 0.12012043595314026, 
    -0.6729257702827454, 0.11802592128515244, 0.9724827408790588, -1.2758564949035645, -0.42699527740478516, 0.2518218755722046, -0.38779953122138977, -1.0010236501693726, 
    -3.6624221801757812, -3.1191248893737793, -0.34135791659355164, 1.0244916677474976, 0.24549254775047302, -0.2557874619960785, -0.5412719249725342, -0.27257439494132996, 
    0.22851628065109253, -9.306468963623047, -5.153023719787598, -0.0630691647529602, -0.8602119088172913, -0.747302770614624, -0.2579772472381592, -0.43079233169555664, 
    -0.32872000336647034, 0.9846667647361755, 0.014388401992619038, 0.3394356966018677, 0.417953759431839, -0.0596252977848053, -1.004307508468628, -5.516937255859375, 
    0.634555995464325, 0.03112143836915493, -0.9013012647628784, -1.1556991338729858, 0.11357881128787994, -0.2733520269393921, -0.5372316241264343, 0.01416944433003664, 
    0.47424912452697754, -1.1933653354644775, -0.36223068833351135, 0.36308038234710693, 0.31479647755622864, -0.8680310249328613, -1.0238018035888672, 0.4909243881702423, 
    0.027362877503037453, -0.3496980667114258, 0.2929781377315521, 0.07067626714706421, 0.11812087148427963, 0.6006121039390564, -0.903028130531311, -1.3849208354949951, 
    -0.1242612972855568, 0.07639788091182709, 0.2761465609073639, -0.71996009349823, 0.13741445541381836, 0.5424245595932007, -0.7166216373443604, -0.14739103615283966, 
    0.046707842499017715, -0.3467917740345001, -0.33523982763290405, -0.7293943166732788, -0.3645963966846466, 0.19966430962085724, -0.052074234932661057, 0.23332996666431427, 
    -0.476671040058136, -0.42623522877693176, -0.9827156662940979, -0.07209053635597229, 0.15495777130126953, 0.008055060170590878, 0.058791354298591614, -0.006504327990114689, 
    -0.5640310049057007, -0.23412607610225677, 0.3170755207538605, 0.29280292987823486, -0.006151957903057337, -0.027020618319511414, 0.06232502683997154, -0.2324429601430893, 
    -0.35639065504074097, -0.18369171023368835, 0.12099254131317139, 0.15850217640399933, -0.006201302632689476, 0.2898581624031067, 0.33754703402519226, 0.373039186000824, 
    -0.1706162542104721, -0.0704372450709343, -0.12592364847660065, 0.5296890735626221, 0.6307483911514282, 0.36551234126091003, 0.040475986897945404, -0.8482968211174011, 
    -0.7072349190711975, -0.16286705434322357, 0.5184422135353088, 0.6165708303451538, 0.012805885635316372, 0.3358876705169678, -0.5425984263420105, 0.19251182675361633, 
    -0.012871463783085346, -0.21269242465496063, -0.20998463034629822, 0.4211777448654175, -0.09571455419063568, -0.004960241727530956, 0.15341763198375702, -0.029455985873937607, 
    -0.6669108867645264, 0.9202423691749573, -0.37444639205932617, -1.2879853248596191, -1.4759010076522827, -0.6527941823005676, 0.6420734524726868, -0.3699676990509033, 
    0.18948403000831604, 0.1991204470396042, -1.0407594442367554, -1.5956107378005981, -0.11946392804384232, 0.4415271580219269, -0.5427733063697815, -0.3609984517097473, 
    0.29693838953971863, 0.49707871675491333, -0.27525386214256287, -2.1444833278656006, 0.054517436772584915, 0.25243237614631653, 0.13135677576065063, 0.7393093109130859, 
    1.0003290176391602, -0.16224613785743713, -1.048538088798523, -5.959869384765625, 0.08598779141902924, -0.6396893262863159, -2.0167860984802246, -0.16215923428535461, 
    -0.43791431188583374, -1.5073906183242798, -1.917358160018921, -0.3162349462509155, -0.37392371892929077, -0.9801881909370422, -3.648162364959717, 0.4346291422843933, 
    -0.947172999382019, 0.839364767074585, 0.2333671748638153, -0.5477257370948792, -0.6478822827339172, -0.25665172934532166, 0.24752330780029297, 0.5628519654273987, 
    0.3351799249649048, 0.19987645745277405, -1.5699877738952637, -1.687402367591858, -0.3447767496109009, -0.7677003145217896, 0.38415950536727905, -0.6909586191177368, 
    0.32069191336631775, 0.32283511757850647, -0.2185080647468567, 0.18292993307113647, -0.5090885162353516, -0.747241199016571, 0.2568681538105011, 0.4467386305332184, 
    -0.5171753764152527, 0.45259103178977966, -0.5701726078987122, -0.16617639362812042, -2.6200709342956543, -0.04036421701312065, -0.17851218581199646, -2.1890437602996826, 
    0.5817710161209106, -0.8397116661071777, -0.07368461042642593, -5.0310564041137695, 0.2572643458843231, 0.06856057047843933, -0.5044772624969482, -0.9331932067871094, 
    -0.3371254503726959, -4.239312171936035, -3.9500629901885986, -1.245782494544983, -0.3677903711795807, -0.591132640838623, -0.1997377574443817, 0.6944981813430786, 
    -0.992222785949707, -0.9229485392570496, -1.0116331577301025, 0.7493701577186584, 0.3854151964187622, 0.40052494406700134, -0.21953143179416656, -2.3967978954315186, 
    -0.5996266603469849, -3.579392910003662, -0.2302735447883606, 1.0679253339767456, -0.31316202878952026, 0.9069511890411377, 0.658234715461731, 0.5505226850509644, 
    0.15641702711582184, -0.15429672598838806, -1.214117407798767, 1.1305323839187622, -0.06318268924951553, 0.20618319511413574, 0.6237339973449707, -1.1304802894592285, 
    0.14177997410297394, 0.4122302830219269, 0.4084774851799011, -0.8533905148506165, -1.1722267866134644, 0.6065974235534668, 0.23334553837776184, 0.7701563835144043, 
    0.19766488671302795, -0.017983656376600266, -0.26851165294647217, -0.5343307852745056, 0.4378310441970825, -0.770237386226654, -0.12058624625205994, -0.006290351040661335, 
    -0.007686787750571966, 0.21524059772491455, -0.6352756023406982, -0.29511207342147827, -0.94871985912323, -1.0235871076583862, 0.5416192412376404, -0.8283906579017639, 
    -0.012803124263882637, -0.2706277370452881, -0.3821730613708496, -1.0401281118392944, -0.7368468642234802, -0.0402739979326725, -0.1690501570701599, 0.4033997356891632, 
    -0.9196100234985352, -1.0364694595336914, -0.2472858428955078, -0.2114335000514984, -0.10103562474250793, -0.15634746849536896, 0.23867204785346985, 0.6685283184051514, 
    -3.2167513370513916, 1.3748420476913452, -2.054436206817627, -4.739396572113037, 0.7126527428627014, 0.26887455582618713, -0.3380340337753296, -0.8056661486625671, 
    -1.6185442209243774, -1.7536838054656982, -0.0029891175217926502, 0.13962924480438232, -1.8357146978378296, -0.947846531867981, -4.682436466217041, -0.015546203590929508, 
    0.5534040927886963, -1.2483625411987305, -0.002926768735051155, -1.9697356224060059, -0.2104479819536209, 0.04376104474067688, 0.023352904245257378, 0.5124136209487915, 
    -0.018312931060791016, -0.8398098349571228, 0.15518857538700104, -2.465407609939575, 0.08848079293966293, 0.40098699927330017, -1.472406268119812, -0.42502790689468384, 
    0.5057318806648254, 0.7844260334968567, -0.2904886305332184, -0.12939764559268951, -0.7753210067749023, 0.33096379041671753, -0.06698013842105865, 0.7861459255218506, 
    -0.7112925052642822, 0.10653773695230484, 0.983890175819397, 0.10872315615415573, 0.20744596421718597, 0.38922563195228577, 0.10685249418020248, -0.25497832894325256, 
    -0.28578951954841614, -0.33177080750465393, 1.0132215023040771, 0.13426083326339722, 0.16899694502353668, -0.20097552239894867, -0.5647632479667664, 0.2333102822303772, 
    -0.07326296716928482, -0.1225815862417221, -0.5034391283988953, 0.8385043740272522, -0.1278691291809082, -0.044312238693237305, -0.4096890985965729, 0.36287301778793335, 
    -0.09343268722295761, 0.7071893811225891, -0.6848729848861694, 1.2763532400131226, 0.30856651067733765, -0.11641982197761536, 0.10028596222400665, -0.19783388078212738, 
    -1.8512519598007202, 0.47639843821525574, -0.7766633629798889, -0.04759044572710991, 0.034368641674518585, 0.022478817030787468, -0.0121109988540411, 0.2407379448413849, 
    1.1401374340057373, -0.4111267626285553, -0.6060939431190491, -0.11010029911994934, -0.26976606249809265, -0.12102121859788895, 0.12158777564764023, -0.4232605993747711, 
    -0.07164735347032547, -0.3659476637840271, -0.5177595615386963, -1.063868522644043, 0.22085238993167877, 0.2570238411426544, -3.0373222827911377, -1.6782348155975342, 
    0.08869531750679016, 0.04472634196281433, 0.15140564739704132, 0.07492745667695999, 0.11800572276115417, 0.3518405854701996, 0.039457231760025024, -0.02562912553548813, 
    0.1078609973192215, 0.03782927989959717, -0.13044963777065277, 0.12672050297260284, 0.564030647277832, -0.13224613666534424, -0.3057437241077423, 0.07103703916072845, 
    0.0028957754839211702, -0.30405187606811523, -0.716434121131897, -1.6727291345596313, -0.42245054244995117, 0.0023457726929336786, 0.5549117922782898, -0.31834426522254944, 
    0.2241576761007309, -0.09350115060806274, -0.22694867849349976, -0.22686436772346497, 0.11630303412675858, -0.08567608147859573, 0.32180657982826233, 0.7456563711166382, 
    -0.6087183952331543, 0.6589388251304626, 0.026120051741600037, -0.6851997375488281, -0.26699966192245483, -0.008937198668718338, -0.2792118787765503, -0.2527765929698944, 
    0.041237443685531616, -0.372884601354599, 0.2043994665145874, -0.42558300495147705, 0.4164334833621979, 0.21794991195201874, 0.221992626786232, 0.3335038125514984, 
    -0.020912950858473778, 0.05110391974449158, -0.16791854798793793, 0.6666699051856995, -0.23097796738147736, -0.03496846929192543, -0.09469262510538101, -0.2842351794242859, 
    0.018830960616469383, 0.14490386843681335, -0.7042548656463623, 0.0409160815179348, 0.3029712736606598, 0.39093679189682007, -0.3515506982803345, -0.9117470383644104, 
    0.4279373288154602, -0.40832898020744324, 0.7306069135665894, -0.36479198932647705, -0.2087760716676712, 0.2905443012714386, -0.2332025170326233, 0.20376893877983093, 
    -2.7500693798065186, 0.14724820852279663, -0.4109351933002472, -2.672649621963501, 0.1332501322031021, -6.353575706481934, 0.4844253659248352, -0.7151459455490112, 
    0.004391996655613184, -0.008210291154682636, 0.6491127610206604, 0.6253271102905273, 0.5205261707305908, -0.25723856687545776, -0.003497898578643799, 0.1673031598329544, 
    -0.18881350755691528, -0.2657940983772278, -0.1274167001247406, -0.10691961646080017, -0.09410320222377777, 0.10153890401124954, -0.5984034538269043, -0.11634188890457153, 
    -0.9923834800720215, 0.5346088409423828, 0.6305123567581177, 0.17929941415786743, -0.011496860533952713, 0.14961457252502441, 0.03184660151600838, -0.1460483819246292, 
    0.23578166961669922, -0.744433581829071, -0.8691231608390808, -2.640279769897461, 0.22565795481204987, 0.052933819591999054, -0.036192893981933594, 0.008628036826848984, 
    -0.44234994053840637, 0.052104998379945755, 0.28669261932373047, -0.4518722891807556, 0.26225340366363525, 0.5933142304420471, 0.12587003409862518, -1.9805387258529663, 
    0.5632031559944153, 0.20252400636672974, 0.18095211684703827, -0.16164200007915497, -0.16377556324005127, 0.21490760147571564, -0.626946747303009, -1.2142976522445679, 
    0.5640902519226074, 0.4642617404460907, 0.28126534819602966, -0.43493330478668213, 0.2659837007522583, -0.5169169306755066, 0.2995436191558838, -0.26554208993911743, 
    0.30539101362228394, -0.1682872623205185, 0.008909224532544613, 0.10732973366975784, 0.13057929277420044, 0.3462812304496765, 0.2292146533727646, 0.1936044692993164, 
    -0.5149240493774414, -0.5828720331192017, 0.2906700074672699, 1.9540303945541382, 0.6843419075012207, 0.6305927634239197, -0.004546652548015118, -1.1385427713394165, 
    0.5138281583786011, 0.573928713798523, -0.16977238655090332, -0.7172494530677795, 0.5223329663276672, 0.4895853102207184, 0.04624802619218826, -1.4021155834197998, 
    0.09499399363994598, 0.1573641002178192, 0.05739844590425491, -0.2860899567604065, -0.19128365814685822, -0.15988153219223022, 0.3447192907333374, 0.25876784324645996, 
    -0.15438660979270935, 0.4405374526977539, -0.015625538304448128, -0.9807248115539551, 0.046121515333652496, 0.06873288750648499, -0.08886227756738663, -0.037012066692113876, 
    0.2981027662754059, -0.04020775109529495, -0.3324160575866699, -0.06524543464183807, 0.14427387714385986, 0.06438061594963074, -0.346328467130661, -0.1485266536474228, 
    0.49179500341415405, 0.13416796922683716, 0.032612334936857224, -0.24198126792907715, -0.014621270820498466, 0.14980219304561615, -0.08521348983049393, -0.5088383555412292, 
    0.12016536295413971, -0.6595919728279114, -0.2514933943748474, 1.0219087600708008, -0.09184756875038147, 0.16759565472602844, 0.23646049201488495, -0.6075959205627441, 
    0.3301098942756653, 0.31764596700668335, -0.11895442754030228, -0.897060751914978, 0.188673198223114, 0.3456447720527649, -0.6887048482894897, -0.05395347625017166, 
    0.07865253835916519, -0.32484522461891174, -4.890721321105957, -4.060810565948486, 0.4667986035346985, 0.13431812822818756, -0.04719823598861694, -0.12989942729473114, 
    -0.2234485000371933, 0.2892189919948578, 0.3365977704524994, 0.01974560134112835, -0.07140979915857315, -0.37942028045654297, 0.13886862993240356, 0.3508915901184082, 
    -0.29998624324798584, -0.10382746160030365, -0.063509002327919, 0.0388760045170784, -0.2946370840072632, -0.23554056882858276, -0.4309000074863434, -2.5810365676879883, 
    -0.6585633754730225, -0.4456850290298462, 0.13902130722999573, -0.5770294666290283, 0.030057284981012344, -0.08732949197292328, 0.1631167083978653, 0.25986745953559875, 
    -0.4503214955329895, -0.19704939424991608, 0.09804350137710571, 0.5025801062583923, -0.03154344856739044, 0.2502497434616089, -0.23915371298789978, -0.5569837689399719, 
    0.05166308954358101, 0.08957937359809875, 0.3216876983642578, -0.09313667565584183, 0.24442511796951294, 0.31155598163604736, 0.8307965397834778, -0.6891530156135559, 
    -0.08762607723474503, 0.48615214228630066, 0.20664717257022858, 0.6210097670555115, -0.4130243957042694, -0.384282648563385, -0.37806838750839233, 1.0264924764633179, 
    -0.004337340593338013, 0.03933260962367058, -0.13394023478031158, -0.10924781858921051, -0.4476633667945862, -0.9027087092399597, -0.03648226335644722, -1.2897297143936157, 
    0.13264445960521698, 0.3435807228088379, 0.22094415128231049, -0.8227837085723877, 0.10050900280475616, -0.08553346246480942, -0.37350907921791077, -0.5232065320014954, 
    -0.1310260146856308, -0.027772029861807823, 0.17378658056259155, -0.16824182868003845, 0.25948330760002136, 0.233404278755188, 0.10857097059488297, -0.03482259437441826, 
    -0.27783602476119995, -0.2251841127872467, 0.03672143816947937, 0.05988018214702606, -0.06764000654220581, 0.2610301375389099, 0.12260084599256516, -0.004223445896059275, 
    0.30722475051879883, 0.5003048777580261, 0.14296512305736542, 0.4019598960876465, 0.6365491151809692, 0.0629572868347168, -0.5269097685813904, -5.3547163009643555, 
    -0.7743273973464966, -0.11714407801628113, -0.8111615180969238, -1.9541879892349243, 0.08064968138933182, -0.23223696649074554, 0.04799962416291237, 0.10537614673376083, 
    0.017970239743590355, -0.18474116921424866, -0.13959620893001556, -0.0447746105492115, 0.0018241654615849257, -0.27379822731018066, -0.2661726772785187, 0.17056040465831757, 
    0.10632488876581192, -0.014350958168506622, -0.02716084010899067, -0.0639028325676918, 0.20686255395412445, -0.16281823813915253, 0.06851930916309357, 0.09487298130989075, 
    -0.11892199516296387, 0.4695464074611664, -0.3261553645133972, 0.22692404687404633, -0.578157365322113, 1.5475915670394897, -0.7559754252433777, -0.19765223562717438, 
    -0.16528300940990448, -0.0723850354552269, 0.7777515053749084, 0.18212874233722687, -0.08335617184638977, -0.2112036794424057, -0.8314052820205688, -0.1021355539560318, 
    0.04924902692437172, -0.35771411657333374, -0.038487911224365234, -0.6017705798149109, -0.8682963252067566, 0.00866377167403698, 0.19820429384708405, 0.23887018859386444, 
    -0.1040370762348175, 0.34651023149490356, 0.32639560103416443, 0.30103227496147156, 0.6395043134689331, -0.279053658246994, 0.058625318109989166, -0.18282343447208405, 
    -0.4859364926815033, -0.4313995838165283, -0.2746293842792511, 0.11360897868871689, -1.5693720579147339, -1.4941741228103638, 0.3912447988986969, -0.8478485345840454, 
    -0.13709795475006104, 0.29556572437286377, 0.1950712352991104, 0.05985913425683975, -0.19562998414039612, 0.014224528335034847, 0.028026454150676727, -6.950297392904758e-05, 
    0.07302717864513397, -0.4417015314102173, -0.5169351696968079, 0.3458966016769409, -0.3629855215549469, -0.05623041093349457, -2.02468204498291, -2.3290958404541016, 
    -0.1222245842218399, -0.22063155472278595, -0.2630363404750824, -0.04206807538866997, -0.03698756918311119, 0.19413328170776367, 0.3529055714607239, 0.31956052780151367, 
    -0.8490373492240906, -0.5761064887046814, 0.06658697873353958, -0.29491761326789856, -3.706533193588257, -0.5046232342720032, -0.19813457131385803, 1.1650465726852417, 
    -4.4368085861206055, 1.417189359664917, 0.5594382882118225, -3.4125924110412598, -0.10852126032114029, 1.08639657497406, 0.15830036997795105, 0.10239313542842865, 
    -2.4886093139648438, -3.285618305206299, -0.2270384281873703, -0.2327262908220291, -1.303092360496521, -0.09091216325759888, -2.867332696914673, -2.6091420650482178, 
    -1.4806703329086304, -2.4036669731140137, 0.24146129190921783, 0.11407998204231262, 0.4862029254436493, 0.7175610661506653, -0.5960534811019897, 0.11485879123210907, 
    0.35592249035835266, -1.068860650062561, 0.6835364699363708, 0.9329028129577637, -0.05704343318939209, 0.6795136332511902, -1.2504971027374268, -0.2437087744474411, 
    0.6157144904136658, -1.5139408111572266, -3.297602891921997, -0.7864261865615845, 0.04874129220843315, -1.855847954750061, 0.0226212739944458, 0.0608474500477314, 
    -1.2762068510055542, 0.10070624202489853, -0.009021480567753315, 0.38604801893234253, 0.45268768072128296, -1.776466965675354, 0.14211268723011017, -0.9536970257759094, 
    -0.6238043308258057, 0.061297059059143066, 0.06701042503118515, -4.030768871307373, -4.332021236419678, -2.767904043197632, -1.0858432054519653, 0.12399356812238693, 
    -0.245050847530365, -0.08960980921983719, -0.025814693421125412, 0.34255996346473694, -1.9570444822311401, 0.2923365831375122, 0.07370000332593918, -1.8225698471069336, 
    -0.765740692615509, 0.4574589431285858, -0.03414592146873474, -0.4337911605834961, -1.6400399208068848, -0.19143863022327423, -0.1166934221982956, 0.22826486825942993, 
    -0.5548460483551025, -0.4155369997024536, -1.1346070766448975, -0.22304941713809967, 0.2097264975309372, -1.1406266689300537, 0.27016618847846985, -0.049229156225919724, 
    0.8088729381561279, 0.8296636343002319, 0.22743970155715942, -2.65140700340271, 0.44167259335517883, 0.39280247688293457, 0.10852595418691635, 0.20874488353729248, 
    1.0666433572769165, 1.0543755292892456, 1.0670208930969238, 0.15169276297092438, 0.18450839817523956, -1.0710397958755493, 0.8156334161758423, 0.25194647908210754, 
    0.24534724652767181, -1.503108263015747, 0.18689417839050293, -3.088472366333008, -0.861591637134552, -0.4750489890575409, 0.12350404262542725, -0.21279925107955933, 
    -1.42130446434021, -0.6605120897293091, 0.06119159609079361, 0.5205410718917847, 0.7307851910591125, -0.49567678570747375, -0.33184587955474854, -0.135255366563797, 
    -0.07852548360824585, -0.1454785019159317, 0.019878799095749855, -0.654893696308136, 0.4484965205192566, 0.25120222568511963, -0.5473382472991943, -0.01791609823703766, 
    -0.3771432638168335, 0.08144178241491318, 0.3346500098705292, 0.09950064867734909, 0.6605637669563293, -0.18785828351974487, -0.620527446269989, 0.46425142884254456, 
    0.22254490852355957, -0.22444957494735718, -0.40356212854385376, -0.03244045004248619, -0.7484008073806763, -0.32718154788017273, -0.056106988340616226, -0.059334248304367065, 
    0.20767490565776825, -0.1533810794353485, -0.2670868933200836, 0.11783333867788315, 0.16965237259864807, -0.07583847641944885, -0.22625632584095, -0.2007918357849121, 
    0.08293279260396957, 0.4407076835632324, 0.051491815596818924, -1.523531436920166, -0.3590371310710907, -0.11076674610376358, -0.3282255232334137, -0.21497805416584015, 
    -0.04828636348247528, -5.009191036224365, 0.35396915674209595, 0.31355148553848267, -0.6965510249137878, -0.039082493633031845, -0.5663160681724548, 0.5855785012245178, 
    0.6543226838111877, -0.29202938079833984, 0.40893539786338806, -0.4386775493621826, -0.1544586718082428, 0.19558262825012207, -0.08975271880626678, -0.21975167095661163, 
    0.1562061607837677, 0.025067675858736038, 0.30672797560691833, -0.0813261941075325, -0.06872192770242691, 0.1261480301618576, -0.22147026658058167, -0.09139766544103622, 
    -0.09472443908452988, 0.08019764721393585, -0.07661999017000198, -0.19740688800811768, -0.29216620326042175, -0.3253168761730194, -0.198018416762352, 0.028649382293224335, 
    -0.31428399682044983, -0.2300514280796051, -0.1478724181652069, 0.5165268182754517, 0.0032541980035603046, -0.37176573276519775, -0.02917187660932541, 0.7453394532203674, 
    -0.11412493884563446, 0.9247495532035828, -0.34829673171043396, -0.38952675461769104, -0.0385361984372139, 0.509260892868042, 0.19803810119628906, -1.696508765220642, 
    0.02964254654943943, 0.09171602874994278, -0.08415703475475311, -0.28455865383148193, -0.15235482156276703, 0.01147379819303751, -0.8531496524810791, 0.06260859966278076, 
    -2.843684196472168, -0.087064228951931, -0.4087211489677429, 0.17353948950767517, 0.09693072736263275, 0.3072165548801422, 0.22912149131298065, -0.043723925948143005, 
    0.40949389338493347, -0.28014183044433594, -0.930691659450531, 0.5201705694198608, -1.713679552078247, -0.23156827688217163, -0.19632472097873688, 0.4804738163948059, 
    -0.21515841782093048, 0.03566998615860939, 0.29372796416282654, 0.8635433912277222, 0.13567258417606354, -0.18036013841629028, 0.02610103040933609, -0.22812144458293915, 
    0.08883265405893326, 0.086448073387146, -0.11690185219049454, -0.10064901411533356, 0.051919322460889816, -0.7751103639602661, -0.04918022081255913, -0.36038413643836975, 
    0.15018540620803833, 0.04095900431275368, -0.03793802484869957, -0.04891491308808327, -0.04649892449378967, -0.25194311141967773, 0.10968542844057083, -0.06277346611022949, 
    -0.6845844388008118, -0.2567945122718811, 0.22888241708278656, -1.2308025360107422, -0.466444730758667, 1.056416630744934, -0.20312725007534027, 0.3091517686843872, 
    0.0959266647696495, -0.5246289968490601, 0.22518806159496307, 0.44436025619506836, -0.5662233233451843, 0.49372145533561707, -0.10435597598552704, -0.8137761354446411, 
    -0.3534919321537018, -0.14253371953964233, -0.03690401464700699, 0.07568854093551636, -0.011624228209257126, 0.7428536415100098, 0.08351094275712967, -0.5891610383987427, 
    0.23025096952915192, 1.0028057098388672, -0.3066561222076416, 0.3981628119945526, 0.3743245601654053, -0.020406274124979973, 0.2286369502544403, -1.2956416606903076, 
    0.4675901532173157, -0.6227331161499023, 0.6251639723777771, -0.07132966816425323, 0.4737994372844696, 0.04411240667104721, -0.36901795864105225, -0.5910016298294067, 
    -0.61661696434021, 0.964268147945404, 0.2651554048061371, -1.0711172819137573, 0.06873732060194016, -0.814609706401825, -0.12672238051891327, -0.013751935213804245, 
    0.03241751343011856, -0.20249654352664948, 0.17052116990089417, -0.15826472640037537, 0.1867852360010147, 0.07682313770055771, -0.24666684865951538, -1.1511720418930054, 
    0.1352924257516861, 0.04067344218492508, -0.39958426356315613, -0.6981087923049927, 0.9276170134544373, 0.8636019825935364, -0.39669209718704224, 0.05249026417732239, 
    0.03627999499440193, -0.13374759256839752, -0.04917529970407486, 0.3261725604534149, -0.2098250687122345, -0.07179639488458633, 0.2154778093099594, 0.28814393281936646, 
    0.1509711593389511, 0.14393557608127594, 0.07484523206949234, 0.2198069840669632, -0.0921926498413086, -0.026582377031445503, 0.08404635637998581, -0.0019651572220027447, 
    -0.02756466157734394, 0.06015636771917343, 0.10046227276325226, 0.4841243624687195, 0.060404930263757706, -0.05813584849238396, 0.09418416768312454, 0.04154527187347412, 
    -0.014202188700437546, 0.029946573078632355, -0.09829255193471909, -0.16960901021957397, 0.011100834235548973, -0.013433758169412613, -0.09793981164693832, 0.0035914266481995583, 
    0.003990307450294495, -0.16441206634044647, 0.011149232275784016, 0.26302334666252136, 0.18675094842910767, -0.13930648565292358, -0.0735684484243393, 0.46206745505332947, 
    0.034056901931762695, -0.05503528192639351, -0.006741508841514587, 0.01927754655480385, 0.017961198464035988, 0.04843012988567352, -0.018381722271442413, -0.3546977937221527, 
    0.02083110809326172, -0.06590886414051056, 0.06224558874964714, 0.056780993938446045, 0.05258521810173988, -0.06043080613017082, 0.015963749960064888, -0.014749991707503796, 
    0.015661247074604034, 0.02099103294312954, -0.0735161155462265, -0.2848907709121704, 0.04379529878497124, -0.062120262533426285, 0.1307474970817566, 0.17826560139656067, 
    0.2940857410430908, -0.378724604845047, -0.7056577801704407, 0.5285558104515076, -0.00587419280782342, -0.28966742753982544, 0.15168261528015137, 0.8344194293022156, 
    -0.1297556459903717, 0.27711281180381775, 0.3448213040828705, -0.09999867528676987, 0.3108198344707489, 0.06402802467346191, -0.02651156485080719, 0.425933301448822, 
    -0.3610588610172272, -0.5271667838096619, 0.020558539777994156, -0.12565989792346954, 0.734911322593689, 0.33118849992752075, 0.03081674501299858, -0.857898473739624, 
    0.47037699818611145, -1.083541750907898, -0.13434463739395142, -1.8295323848724365, 0.18757720291614532, -0.21467119455337524, -0.2231430560350418, -1.2924836874008179, 
    -0.025654248893260956, -0.31508687138557434, 0.023252170532941818, 0.673057496547699, 0.4570193290710449, 0.6001058220863342, 0.7651475667953491, -0.20864972472190857, 
    0.0015944718616083264, 0.06058396026492119, -0.08723165094852448, 0.20412270724773407, -0.18625202775001526, -0.3249557316303253, 0.03745628148317337, -0.2635281980037689, 
    -0.62669837474823, 0.5772609710693359, -0.0014067695010453463, 0.11204095929861069, 0.0864701196551323, 0.1122933030128479, -0.4352900981903076, 0.2574408948421478, 
    -0.06314966827630997, -0.6008239984512329, -0.5717999339103699, 0.0016655110521242023, 0.03836381062865257, -0.3489636480808258, -0.2747543752193451, 0.44091805815696716, 
    0.42060279846191406, 0.1931922286748886, 0.1826888769865036, -0.2459573596715927, -0.1649988442659378, -0.04196513444185257, 0.22615009546279907, 0.1705232709646225, 
    -0.6280868649482727, 0.1748785525560379, 0.7866427302360535, 0.6399523019790649, -0.3369468152523041, 0.38999006152153015, 0.01739145815372467, 0.0901402160525322, 
    -0.15579071640968323, -0.4540966749191284, -0.36454707384109497, 0.4228150248527527, 0.14910142123699188, 0.19648534059524536, -0.17250166833400726, -0.025068728253245354, 
    -3.9058585166931152, -0.1001095175743103, 0.08475650101900101, 0.8056523203849792, 0.08938093483448029, -0.30563288927078247, -0.21369780600070953, -0.3502608835697174, 
    0.6811947226524353, 0.48233386874198914, -0.06388743966817856, 0.46393540501594543, -0.3403984010219574, -3.8102376461029053, 0.9218124747276306, 0.6570967435836792, 
    0.17281481623649597, -0.5826626420021057, -0.1975143402814865, -0.11760114878416061, -0.0612066350877285, -0.38065817952156067, -0.2939760088920593, -0.13037672638893127, 
    0.24782975018024445, -0.05971774831414223, -0.0810655727982521, -0.7199910879135132, -0.3582397401332855, 0.36670148372650146, -0.012303429655730724, -0.10482534766197205, 
    -0.14905014634132385, -0.00923654343932867, -0.5137110352516174, -0.27611005306243896, 0.11656346917152405, 0.020415347069501877, -0.18098613619804382, 0.13837294280529022, 
    0.10567330569028854, 0.030746767297387123, -0.08687128126621246, 0.2052386850118637, 0.5167171955108643, 0.25913846492767334, 0.036507848650217056, 0.3329780399799347, 
    0.11751202493906021, 0.34003129601478577, -0.041973382234573364, -0.530935525894165, 0.21176356077194214, -0.06190953031182289, -0.02031385526061058, 0.36958369612693787, 
    -0.1964840441942215, -0.1826915144920349, -0.09826602786779404, -0.14944687485694885, -0.11004676669836044, 0.029493063688278198, 0.0995093360543251, 0.32665038108825684, 
    0.3584055006504059, -0.054588038474321365, 0.19796104729175568, 0.2953869104385376, -0.11493074893951416, -0.0799625888466835, 0.24205264449119568, 0.15035594999790192, 
    0.014224548824131489, 0.6661775708198547, -0.2241208404302597, -0.0755939930677414, 0.36861661076545715, 0.08610036224126816, 0.03650001063942909, 0.2107636034488678, 
    -0.2285114973783493, -0.492468923330307, -0.4200231432914734, -0.31451332569122314, -0.09224833548069, -0.13298453390598297, -0.27652591466903687, -0.042319636791944504, 
    -0.07086654752492905, -0.10743681341409683, -0.02696002461016178, 0.26384907960891724, -0.1315416842699051, -0.2453453242778778, 0.10427573323249817, 0.13850922882556915, 
    -0.08945643901824951, -0.038288798183202744, 0.030362507328391075, 0.056309774518013, -0.053880803287029266, -0.21713301539421082, -0.03844946622848511, 0.20706862211227417, 
    0.1153450608253479, 0.3311486840248108, -0.1675894856452942, -0.8723499774932861, -1.9019428491592407, -1.8784897327423096, -0.4718921184539795, 0.38081616163253784, 
    -0.19446462392807007, 0.11865843832492828, 0.329685777425766, 0.4178219437599182, -0.46267274022102356, 0.4293045997619629, 0.011865341104567051, -0.009011337533593178, 
    0.324165016412735, 0.11566212028265, 0.17704498767852783, -0.8197858333587646, -0.15645046532154083, 0.26695743203163147, -0.21201887726783752, -0.6896913647651672, 
    0.4012974202632904, 0.128668874502182, -0.13615791499614716, 0.5083094239234924, 0.08359041810035706, -0.26623329520225525, 0.17315495014190674, 0.32694971561431885, 
    -0.33254605531692505, -0.6916043162345886, -2.775139093399048, -6.486955165863037, 0.1894012838602066, -0.9657273292541504, -3.190178394317627, -1.0203410387039185, 
    -1.2825592756271362, -0.3331652879714966, -1.6594593524932861, 0.19564299285411835, 0.14166326820850372, -0.5171429514884949, -0.1776619255542755, -0.07112738490104675, 
    -0.05254337191581726, 0.14570452272891998, -0.08068517595529556, 0.22248873114585876, 0.1340680718421936, -0.047210533171892166, -0.26531982421875, -0.16051620244979858, 
    -0.13765785098075867, -0.0840708389878273, 0.03566204011440277, 0.05197521299123764, 0.06316865980625153, -0.20836001634597778, 0.3098580241203308, -0.39628827571868896, 
    0.026753069832921028, 0.0003372505016159266, 0.023108283057808876, 0.015303971245884895, -1.1751728057861328, 0.4811474084854126, -0.024383381009101868, 0.3603954613208771, 
    -0.2580699622631073, -0.20796440541744232, 0.3199797570705414, -0.008671621792018414, 0.12843072414398193, 0.2075377255678177, 0.07755769044160843, 0.35600894689559937, 
    -0.08697503060102463, -0.12762944400310516, 0.08655409514904022, 0.5256730318069458, 0.11630898714065552, 0.32644733786582947, -0.19818392395973206, -0.4507840573787689, 
    -0.07091903686523438, -0.03126974403858185, 0.04469871148467064, 0.19312438368797302, 0.030883874744176865, -0.07561977207660675, 0.0721973329782486, 0.17467279732227325, 
    -0.09406572580337524, -0.23098726570606232, -0.17463846504688263, 0.4649445116519928, -0.034779444336891174, -0.5662433505058289, 0.7908589839935303, -0.37177690863609314, 
    0.1697334498167038, 0.10461859405040741, -0.14551062881946564, -0.3751344680786133, -0.07363111525774002, -0.15622194111347198, -0.21862933039665222, -1.585801124572754, 
    0.09734988212585449, 0.12969240546226501, -0.07258166372776031, -0.053636327385902405, -0.029899345710873604, 0.24377337098121643, 0.06737685948610306, -0.08428177982568741, 
    -0.025696193799376488, -0.03386515751481056, -0.7558224201202393, -0.7151969075202942, 0.034984003752470016, 0.11212882399559021, -0.04321577772498131, 0.17699503898620605, 
    -1.0246502161026, -0.2525118589401245, 0.12421734631061554, -0.5388228297233582, 0.23564262688159943, 0.21938519179821014, -0.009055630303919315, -0.7763052582740784, 
    -0.5066441893577576, -4.446241855621338, -0.806506872177124, 0.4411875605583191, -1.5170103311538696, 0.09536413103342056, 0.01780167780816555, 0.3057127892971039, 
    0.07339324057102203, 0.07135875523090363, 0.3236696124076843, 0.14163824915885925, -0.4914705455303192, 0.1903028041124344, -1.5567244291305542, -0.03327195718884468, 
    -0.6671656966209412, -0.00466739060357213, -1.1096111536026, 1.1991417407989502, -0.04935970902442932, -0.8582167029380798, -0.26362189650535583, 0.2149307131767273, 
    0.8806152939796448, 0.9775577187538147, -0.3118952214717865, 0.41188544034957886, -0.09344843775033951, -4.058360576629639, -4.55161190032959, 1.141059160232544, 
    0.3953947126865387, -0.2833435535430908, 0.32902488112449646, 0.7634254097938538, 0.03371743857860565, -0.3645342290401459, -0.008708941750228405, -0.2957756817340851, 
    0.3979511559009552, -0.060131341218948364, -0.2150835394859314, -0.04839129000902176, 0.2256568819284439, 0.6570056676864624, -1.5163601636886597, 0.2524013817310333, 
    -0.16869351267814636, -0.14272058010101318, -1.0201536417007446, -0.5930198431015015, -0.6291439533233643, -0.11688649654388428, -0.907166600227356, 0.3025248646736145, 
    -0.12141217291355133, -0.04055651277303696, 0.06491142511367798, -0.03245816007256508, -0.033093564212322235, -0.04875560104846954, 0.5924028754234314, 0.1173609122633934, 
    -2.0481820106506348, -0.2366679608821869, -0.007363138720393181, 0.5254220366477966, 0.15502315759658813, 0.35394221544265747, 0.04204016178846359, 0.29713472723960876, 
    0.29426005482673645, 0.1783541589975357, 0.08182211965322495, -0.2325732409954071, -0.32299110293388367, -0.03864550590515137, -0.1660407930612564, 0.10984692722558975, 
    -0.06359603255987167, 0.7936030626296997, -0.21415773034095764, -0.4651569426059723, -0.20591630041599274, -0.01671779528260231, -0.10161720961332321, 0.19112081825733185, 
    0.641575813293457, -0.9439316987991333, -0.0639568492770195, -0.459579199552536, -0.170377716422081, 0.689519464969635, 0.4229501485824585, 0.2066919505596161, 
    0.5860834717750549, 0.2715925872325897, -4.355916500091553, -2.7081897258758545, 0.007016012445092201, -0.9939471483230591, 0.02927340194582939, -0.1536354422569275, 
    -0.12569381296634674, -0.1258157640695572, -0.15495865046977997, -0.08189330250024796, 0.1452367603778839, 0.011018502525985241, -0.4292292892932892, -0.08643941581249237, 
    0.00019524306117091328, -0.0427638441324234, 0.10130666196346283, 0.09144662320613861, -0.021549982950091362, -0.003321785246953368, 0.0175506342202425, -0.216939777135849, 
    -0.11852722615003586, -0.025608863681554794, -0.10365959256887436, 0.018853945657610893, 0.23313941061496735, -0.6539802551269531, 0.08186221122741699, 0.29305317997932434, 
    -0.04900794476270676, 0.6898900270462036, -0.08864345401525497, -0.345097154378891, 0.4053611159324646, 0.04739206284284592, 0.08793029189109802, 0.2626098692417145, 
    -0.050493184477090836, 0.056534115225076675, -0.08072022348642349, 0.13407839834690094, 0.26010292768478394, -0.04515573009848595, 0.2803792953491211, 0.18498028814792633, 
    -1.2614322900772095, 0.041123539209365845, -1.7121084928512573, -1.0884023904800415, 0.1188947781920433, 0.19333253800868988, -0.03751150146126747, -0.5322033762931824, 
    0.6249762177467346, 0.23010070621967316, 0.06038675457239151, 0.17254409193992615, -2.6174099445343018, 1.4958076477050781, -1.7265825271606445, -1.3178385496139526, 
    -0.4294322431087494, -0.36864396929740906, -0.24711965024471283, 0.5358589887619019, 0.12591129541397095, -0.00814812071621418, -2.0754737854003906, -0.14313820004463196, 
    -0.1420651227235794, -0.1832991987466812, 0.12015743553638458, 0.04924404248595238, 0.3819928765296936, 0.35521945357322693, -0.0973520427942276, -1.1983325481414795, 
    -0.5344709157943726, -0.5321614146232605, -1.4560507535934448, -1.0552875995635986, 0.3573794364929199, 0.28256815671920776, 0.24648866057395935, 0.3609500229358673, 
    -0.021883636713027954, 0.061266470700502396, 0.018086876720190048, -0.03224003687500954, 0.010032683610916138, 0.04505354166030884, 0.02633175440132618, 0.06412373483181, 
    -0.034384146332740784, 0.017742473632097244, 0.10744645446538925, 0.20852012932300568, 0.009550780989229679, 0.00631650211289525, 0.0647154152393341, 0.08287665992975235, 
    0.02476208657026291, 0.0007970214355736971, -0.041639961302280426, -0.05619502440094948, -0.05826815217733383, -0.02700144611299038, -0.03847372904419899, -0.0040894243866205215, 
    0.547726571559906, 0.0014689472736790776, -0.03571788966655731, -0.039401013404130936, -0.018864084035158157, -0.016845956444740295, 0.005331171210855246, 0.1204618588089943, 
    0.013092363253235817, -0.004146536346524954, -0.04791095852851868, -0.0661361888051033, 0.013647587969899178, 0.015258978120982647, -0.05036123842000961, -0.06862136721611023, 
    0.013455661945044994, 0.020127933472394943, 0.026710882782936096, 0.07088951021432877, -0.010497150011360645, -0.013364318758249283, -0.015284683555364609, -0.05101742967963219, 
    0.012269520200788975, -0.005768428090959787, 0.023600643500685692, 0.08044631779193878, 0.019247809424996376, 0.19566968083381653, 0.07568389177322388, 0.1870584785938263, 
    -0.03837618976831436, 0.006318070460110903, 0.0372227281332016, 0.06647421419620514, 0.011941109783947468, 0.02207060344517231, 0.04442376270890236, 0.07302692532539368, 
    -0.8385776877403259, 6.017176151275635, -2.3878746032714844, -7.5648884773254395, -1.3459972143173218, 9.456658363342285, 3.5934622287750244, -5.594887733459473, 
    -0.20480993390083313, 0.9991654753684998, 0.25375011563301086, -9.261700630187988, -11.641806602478027, 0.7193484902381897, 0.3857244551181793, 3.8956990242004395, 
    -0.03166329115629196, 1.2616264820098877, 1.4160971641540527, 8.609658241271973, 13.118992805480957, 7.093972682952881, 3.3186676502227783, 5.6294426918029785, 
    4.501194000244141, 0.10850147902965546, -2.6190662384033203, -3.563047170639038, 4.990602970123291, 3.008673906326294, -7.245108127593994, 10.239343643188477, 
    9.394231796264648, 2.652578592300415, -5.1036505699157715, -3.678088903427124, 8.910598754882812, -5.449631214141846, -2.9252078533172607, 8.604796409606934, 
    -0.7308505177497864, -8.035910606384277, 1.2500940561294556, 2.013502836227417, 6.3057026863098145, 2.162593364715576, -1.0333856344223022, 0.8500168323516846, 
    6.159099578857422, 
};

#endif // TCN_WEIGHTS_BIASES_FLOAT32_H
