#ifndef WEIGHTS_BIAS_FLOAT32_H
#define WEIGHTS_BIAS_FLOAT32_H

#include <stdint.h>

static const float WEIGHTS[] = {
0.010644338093698025, -0.006607143208384514, 0.0047110808081924915, 0.08693292737007141, 0.08201632648706436, 0.055836133658885956, -0.0067555042915046215, 0.006910291500389576, 
    -0.004489636979997158, 0.05547630041837692, 0.03216089680790901, 0.007289444096386433, -0.006358727812767029, 0.002053714357316494, 0.006170947570353746, 0.055996134877204895, 
    0.03613177686929703, 0.047578051686286926, -0.007716021500527859, 0.006963708437979221, 0.007458715699613094, -0.02936069294810295, -0.02812458574771881, -0.0049475510604679585, 
    -0.005296778865158558, -0.005141290836036205, 0.003002227284014225, -0.041919611394405365, -0.025012021884322166, -0.01611563004553318, -0.0033477202523499727, -0.004558309447020292, 
    -0.0032832445576786995, 0.03288078308105469, 0.046957530081272125, 0.048773784190416336, 0.01397610642015934, -0.014910819008946419, -0.0040063876658678055, 0.012893407605588436, 
    -0.0006279526278376579, -0.0029649685602635145, -0.010549559257924557, 0.006426405161619186, 0.007060660049319267, 0.03633728250861168, 0.04892216622829437, 0.03593692183494568, 
    0.004392755217850208, 0.0017290274845436215, 0.00981871411204338, -0.03577154502272606, -0.03610023111104965, -0.02730395831167698, 0.00342579185962677, 0.0020580363925546408, 
    0.007912795059382915, 0.0013101014774292707, 0.003790812799707055, 0.02396617829799652, 0.0013474241131916642, -0.0011749400291591883, -0.003038985189050436, 0.03869809955358505, 
    0.039442580193281174, 0.04835266247391701, 0.0016130567528307438, -0.0011336832540109754, 0.008028061129152775, -0.005010111257433891, 0.001510197063907981, -0.006668429356068373, 
    0.0041530621238052845, 0.014641173183918, 0.014467206783592701, -0.03637528046965599, -0.03194035589694977, -0.02738027833402157, 0.0016113154124468565, 0.0014613415114581585, 
    0.0015727157006040215, -0.00012546761718112975, -0.005703705828636885, 0.0023811249993741512, 0.008284447714686394, -0.002413777867332101, -0.00941856112331152, -0.001377316191792488, 
    0.0023393419105559587, -0.007441867608577013, -0.006928286049515009, -0.0003003287420142442, -0.0019187842262908816, 0.0008316283929161727, -0.0006831034552305937, -0.0013040576595813036, 
    -0.005634851288050413, -0.00016739101556595415, 0.0015967898070812225, -0.04533447325229645, -0.04586462303996086, -0.0486687608063221, -0.002506476594135165, -0.0010754000395536423, 
    -0.0030883874278515577, -0.04532994329929352, -0.046366460621356964, -0.04048287123441696, 0.0023834342136979103, -0.0018102019093930721, -0.013318266719579697, -0.021666809916496277, 
    -0.027598392218351364, -0.01680881530046463, 0.0016261758282780647, 0.004763577599078417, -0.008841292932629585, 0.015084228478372097, 0.025148656219244003, 0.021700270473957062, 
    0.004889209289103746, 0.0007267254404723644, 0.0070912898518145084, 0.039585959166288376, 0.03384799137711525, 0.0496685616672039, -4.062955849803984e-05, 0.0026263168547302485, 
    -0.006670874077826738, -0.012369672767817974, -0.02104359120130539, -0.024790650233626366, -0.0004460431227926165, -0.0021077170968055725, -0.0037178355269134045, -0.008955835364758968, 
    -0.002442673547193408, -0.009346945211291313, 0.005158294457942247, -0.004697184544056654, -0.005302411038428545, 0.008319739252328873, -0.0024388437159359455, -0.002692423528060317, 
    0.008016100153326988, 0.007872795686125755, 0.0013886495726183057, 0.021690594032406807, 0.015088901855051517, 0.008298784494400024, -0.0032963231205940247, 0.0007855448639020324, 
    0.0018479470163583755, 0.0038464339450001717, -0.002175929257646203, -0.00418533431366086, -1.972150130313821e-05, -0.009435142390429974, -0.000781724345870316, 0.002942889928817749, 
    0.008066007867455482, 0.015327682718634605, 0.0027477899566292763, 0.005312825087457895, 0.002733333734795451, 0.004302439279854298, 0.011630111373960972, 0.01209296751767397, 
    0.0012449361383914948, 0.0018900258000940084, 0.0005763828521594405, -0.0048393867909908295, -0.0055116331204771996, -0.004684973508119583, -0.0013749549398198724, -0.005861189682036638, 
    -0.0027803638949990273, -0.0022237030789256096, -0.001192182069644332, -0.0006450182409025729, -0.012827694416046143, -0.01769445464015007, -0.008965722285211086, -0.024807985872030258, 
    -0.009078853763639927, -0.024165019392967224, -0.001784663530997932, 0.0011622569290921092, -0.00047202850691974163, -0.00016011165280360729, 0.0009283598628826439, 0.0012247673003003001, 
    -0.016593191772699356, -0.04744886979460716, 0.21174781024456024, 0.4058801233768463, -0.2377992570400238, -0.4217561185359955, 0.1555141806602478, 0.18654696643352509, 
    0.3900121748447418, -0.344705730676651, -0.03617091849446297, 0.05712803080677986, 0.1092350110411644, 0.11404139548540115, -0.5458820462226868, 0.3885541260242462, 
    0.181736022233963, -0.6879169940948486, -0.16745150089263916, 0.21246932446956635, 0.1045454666018486, 0.295980840921402, -0.022063665091991425, 0.20357508957386017, 
    0.056718144565820694, -0.21662713587284088, -0.4964301586151123, -0.35522860288619995, -0.13599306344985962, 0.22242428362369537, -0.08539878576993942, -0.45758256316185, 
    -0.6013942956924438, -0.17753966152668, 0.1005658209323883, 0.1843058168888092, 0.2278749644756317, 0.13361571729183197, -0.21477191150188446, 0.11606011539697647, 
    0.22463351488113403, -0.7527023553848267, 0.2791523337364197, -0.22860898077487946, -0.5443366169929504, -0.40174970030784607, 0.09379241615533829, 0.003097008680924773, 
    -0.04062559828162193, -0.010601580142974854, 0.0731707215309143, -0.042610686272382736, 0.043924469500780106, -0.11694266647100449, 0.0008569600759074092, -0.15858754515647888, 
    0.04636181890964508, 0.08696696907281876, 0.14453518390655518, -0.45928868651390076, 0.11481127887964249, -0.1018061414361, -0.2893301844596863, 0.022020945325493813, 
    0.11806149780750275, 0.023570097982883453, 0.09821820259094238, -0.00505164684727788, 0.10145695507526398, -0.12773363292217255, -0.5371305346488953, 0.06425236165523529, 
    -0.028821714222431183, 0.1208106055855751, -0.04693298414349556, -0.41620853543281555, 0.3396444320678711, -0.13256090879440308, 0.10341888666152954, 0.08112072199583054, 
    -0.1363498717546463, -0.2170209139585495, -0.14759773015975952, -0.13232609629631042, -0.06788717955350876, 0.04537971690297127, 0.1482914239168167, -0.15754304826259613, 
    0.026587245985865593, 0.09010425209999084, -0.03941964730620384, -0.1741991490125656, 0.04683602228760719, -0.24402810633182526, 0.0548546202480793, 0.6875614523887634, 
    0.23939922451972961, 0.14284604787826538, -0.2523077428340912, 0.10257770866155624, 0.3862687647342682, -0.08490868657827377, 0.3537682294845581, 0.2529878318309784, 
    -0.001541809644550085, 0.02003607153892517, -0.22816288471221924, -0.04308834671974182, -0.22196918725967407, 0.13433748483657837, 0.2708509862422943, 0.07157114893198013, 
    0.17691050469875336, 0.24710488319396973, 0.0829082578420639, 0.2705880105495453, -0.2136160433292389, -0.27558207511901855, 0.3597944378852844, 0.21007518470287323, 
    -0.6204663515090942, 0.1993406116962433, 0.34194815158843994, 0.1890345960855484, 0.011282112449407578, -0.24098016321659088, -0.12237264961004257, -0.041943710297346115, 
    0.04598548263311386, 0.020276661962270737, -0.22167719900608063, -0.12246698886156082, 0.16059857606887817, 0.1311909407377243, -0.4226658344268799, -0.08715121448040009, 
    0.09127110987901688, 0.2922378480434418, 0.05538571998476982, 0.33659809827804565, 0.08442466706037521, 0.2935332655906677, 0.20160545408725739, -0.26882752776145935, 
    0.048536837100982666, 0.10045994818210602, 0.16526250541210175, -0.14281947910785675, 0.11355479061603546, 0.14214974641799927, -0.02841709740459919, -0.37154147028923035, 
    -0.4757675230503082, -0.010834941640496254, -0.4501186013221741, -0.5035322904586792, 0.3193134069442749, -0.11399535089731216, -0.3463881313800812, 0.35344088077545166, 
    0.2097681164741516, 0.2953878939151764, 0.3215377926826477, -0.019112955778837204, -0.45266273617744446, 0.07177208364009857, 0.2228216826915741, 0.08101668208837509, 
    -0.1319468915462494, 0.13027240335941315, -0.05863765627145767, -0.24835874140262604, -0.17306311428546906, -0.04528285935521126, 0.08950365334749222, 0.1728753298521042, 
    0.18346062302589417, -0.44736817479133606, 0.05476657301187515, -0.16274669766426086, 0.254814088344574, -0.09192723035812378, -0.28798261284828186, 0.18715283274650574, 
    0.2185126096010208, 0.06434281170368195, 0.09149178117513657, -0.12294362485408783, 0.013673133216798306, -0.14221324026584625, -0.16765464842319489, -0.33787399530410767, 
    -0.28541743755340576, 0.21666914224624634, 0.06948239356279373, 0.2318391501903534, -0.19916023313999176, -0.59723961353302, 0.05779341980814934, -0.11974873393774033, 
    -0.10598301887512207, -0.022505871951580048, -0.02171582728624344, 0.4205797016620636, 0.12898533046245575, -0.2478034943342209, -0.5156605839729309, -0.15158993005752563, 
    0.2823704183101654, 0.21532709896564484, 0.38428449630737305, 0.04724549502134323, -0.17960231006145477, -0.43228933215141296, -0.21805867552757263, 0.21129348874092102, 
    -0.0033745195250958204, 0.09141555428504944, 0.389644056558609, -0.01871718466281891, -0.12243030220270157, 0.2803131639957428, -0.20433732867240906, 0.12658555805683136, 
    0.12330421805381775, -0.12527871131896973, 0.0602886937558651, -0.14025960862636566, -0.153795525431633, 0.09401684254407883, -0.18272818624973297, -0.4212305545806885, 
    0.33561083674430847, 0.4562719464302063, -0.69948810338974, 0.1941584050655365, 0.22190000116825104, -0.11542480438947678, 0.27559372782707214, 0.21342132985591888, 
    -0.11224983632564545, -0.10950277000665665, -0.2348109781742096, -0.19256946444511414, 0.024026287719607353, 0.04709313064813614, -0.321277379989624, -0.13364259898662567, 
    -0.23460806906223297, 0.06188370659947395, -0.1609618365764618, -0.09257108718156815, -0.3190261423587799, -0.06890010833740234, -0.06679005175828934, -0.26008424162864685, 
    -0.1468847095966339, 0.1654195338487625, -0.06358986347913742, -0.10251349955797195, -0.13618431985378265, -0.25720492005348206, 0.12071703374385834, -0.07398667186498642, 
    -0.03960959240794182, 0.18994951248168945, -0.04145950451493263, -0.46118393540382385, -0.32662543654441833, -0.22669433057308197, 0.05904269218444824, 0.25919875502586365, 
    0.3184729218482971, -0.06334824860095978, -0.17353074252605438, -0.10891439020633698, 0.06817504018545151, -0.02706301212310791, 0.060250844806432724, -0.4399387836456299, 
    -0.3027637302875519, 0.18785104155540466, -0.17002518475055695, 0.1216195747256279, 0.13143619894981384, 0.004066208843141794, -0.1546250581741333, 0.058959148824214935, 
    0.7087264060974121, -0.1958901435136795, 0.14185601472854614, 0.32477667927742004, 0.007221932522952557, -0.05668630450963974, -0.16384273767471313, -0.1935560256242752, 
    -0.3202219605445862, 0.29072150588035583, 0.08201378583908081, -0.21812358498573303, -0.05350952222943306, -0.10334468632936478, -0.2998920977115631, 0.28732332587242126, 
    0.13007739186286926, -0.25871074199676514, 0.46748086810112, -0.27313119173049927, 0.05608569085597992, 0.14162805676460266, 0.03481238707900047, -0.19740988314151764, 
    -0.11732330918312073, 0.014042012393474579, -0.2076745629310608, 0.14252741634845734, -0.04104452207684517, -0.04509366676211357, 0.08054307848215103, -0.03258028253912926, 
    -0.12104549258947372, 0.2448437213897705, -0.07885029911994934, 0.062431786209344864, 0.20558896660804749, -0.25022584199905396, -0.00481365667656064, -0.1832067370414734, 
    0.009833413176238537, -0.19649162888526917, -0.15808922052383423, -0.0011886509601026773, -0.1848233938217163, 0.39535075426101685, 0.08712439984083176, -0.2635984718799591, 
    -0.03537795692682266, -0.2479327917098999, 0.052166491746902466, -0.4198843240737915, -0.2689224183559418, -0.3960055112838745, -0.22307902574539185, -0.40263667702674866, 
    0.22457671165466309, 0.0322883240878582, -0.13197122514247894, 0.3807373642921448, 0.20842093229293823, -0.05058050528168678, -0.28866609930992126, -0.08578820526599884, 
    -0.6520786285400391, -0.7835972905158997, -0.19134804606437683, 0.3121741712093353, 0.30330976843833923, 0.16182219982147217, -0.24729502201080322, -0.13219326734542847, 
    0.24536757171154022, 0.14629009366035461, -0.034552328288555145, -0.01622384786605835, 0.03157205134630203, 0.15441322326660156, -0.05831604823470116, -0.08648636937141418, 
    -0.04762297868728638, -0.009128368459641933, -0.5448217391967773, -0.18712307512760162, -0.37890514731407166, 0.39753228425979614, 0.2864696979522705, -0.14940118789672852, 
    -0.13360372185707092, -0.24072881042957306, -0.19841201603412628, -0.3262740969657898, -0.14796319603919983, 0.13000620901584625, 0.07805966585874557, 0.43033578991889954, 
    -0.09937028586864471, -0.11914338171482086, 0.07568800449371338, -0.138290673494339, 0.1561867892742157, -0.10740730166435242, 0.18585394322872162, -0.0325540192425251, 
    0.23769035935401917, -0.026081888005137444, -0.14782065153121948, 0.0028103054501116276, -0.05293847620487213, 0.28544312715530396, 0.4080964922904968, 0.15743432939052582, 
    0.005026367958635092, 0.03393946960568428, -0.9917078614234924, -0.62054044008255, 0.010103746317327023, -0.09669480472803116, -0.020769739523530006, 0.19203756749629974, 
    -0.2982451915740967, 0.08737743645906448, 0.3426579535007477, -0.13504429161548615, 0.04131882265210152, -0.1885892003774643, 0.08192555606365204, -0.06184689700603485, 
    0.1943998634815216, 0.030713006854057312, 0.2245979607105255, 0.009340887889266014, -0.3775423765182495, -0.5720245838165283, 0.184555783867836, -0.005601963028311729, 
    -0.03597971051931381, -0.0374162420630455, -0.04837796837091446, 0.03804551064968109, 0.4042537808418274, -0.36083075404167175, -0.1686534285545349, -0.17635875940322876, 
    -0.007668185513466597, -0.03869294375181198, -0.10018988698720932, -0.0628429725766182, -0.029036760330200195, 0.23706156015396118, -0.16956008970737457, 0.09904321283102036, 
    -0.35731178522109985, -0.07841909676790237, -0.4549899101257324, 0.2652226984500885, -0.33420658111572266, -0.16066941618919373, -0.32507696747779846, -0.10382500290870667, 
    -0.048261500895023346, -0.03537219762802124, 0.37243497371673584, 0.17214183509349823, -0.2221093326807022, 0.05830034986138344, 0.17050066590309143, -0.06674370169639587, 
    -0.5681278705596924, 0.22888176143169403, -0.283314049243927, 0.08490722626447678, 0.4424407184123993, -0.30926647782325745, -0.10047433525323868, 0.1893255114555359, 
    -0.32583701610565186, -0.3102274239063263, 0.18760845065116882, -0.422505646944046, 0.23411908745765686, 0.09944695979356766, -0.09000921249389648, -0.043908506631851196, 
    -0.25693637132644653, -0.14732302725315094, 0.0415797159075737, 0.21160966157913208, -0.5067409873008728, 0.2582993805408478, 0.15936201810836792, -0.1020674780011177, 
    -0.19279220700263977, -0.3283630907535553, -0.15778881311416626, -0.12906582653522491, 0.12989763915538788, 0.09988915920257568, -0.13174298405647278, -0.23323550820350647, 
    -0.05373218655586243, -0.10931520164012909, -0.3566083610057831, -0.30369389057159424, -0.42504164576530457, -0.027108686044812202, -0.058127522468566895, -0.06567729264497757, 
    0.01663549616932869, 0.06625457853078842, -0.16177169978618622, -0.16327597200870514, 0.09150955826044083, -0.012557544745504856, -0.29925960302352905, 0.08827821165323257, 
    -0.2983381748199463, -0.3692528009414673, 0.03111926093697548, -0.041740041226148605, -0.007550899405032396, -0.23360206186771393, -0.34470275044441223, -0.00475759943947196, 
    0.18410000205039978, -0.1376773715019226, 0.06394673883914948, -0.05107605457305908, 0.09292474389076233, -0.2644211947917938, 0.01896022818982601, -0.1862303912639618, 
    0.14659807085990906, 0.15952396392822266, 0.05041513219475746, 0.027572084218263626, 0.15334823727607727, -0.003787979017943144, 0.279740571975708, -0.05120403319597244, 
    -0.10050766170024872, -0.12269114702939987, 0.04964829608798027, -0.18807247281074524, 0.020808324217796326, -0.04961773008108139, -0.05859500914812088, -0.34136533737182617, 
    0.06914861500263214, 0.10474605858325958, 0.06340989470481873, -0.11908473074436188, 0.11351332068443298, 0.33828166127204895, -0.4885329306125641, -0.0929981917142868, 
    0.17062702775001526, -0.027987811714410782, -0.3069603145122528, 0.05105284973978996, -0.22551055252552032, 0.1011303961277008, -0.30955448746681213, 0.010037500411272049, 
    0.2839834690093994, -0.3274212181568146, -0.17222537100315094, -0.26714205741882324, -0.2196827530860901, 0.2865931987762451, -0.13151344656944275, 0.0997503325343132, 
    0.03867414593696594, 0.11279524862766266, -0.12866035103797913, 0.4376294016838074, -0.37702393531799316, 0.08058271557092667, -0.1595991551876068, -0.149320587515831, 
    0.04849022999405861, -0.13214486837387085, -0.06146100535988808, -0.17069675028324127, 0.06957545876502991, -0.15412093698978424, -0.10105038434267044, 0.012570171616971493, 
    -0.4096616804599762, -0.4875223636627197, 0.16256292164325714, -0.27617305517196655, -0.005165941547602415, -0.18516835570335388, -0.24625788629055023, 0.06741347163915634, 
    0.49147751927375793, 0.04386061802506447, 0.3531184494495392, -0.35789111256599426, -0.07723457366228104, -0.284299373626709, 0.010009411722421646, -0.35402074456214905, 
    -0.0015050799120217562, -0.0012455001706257463, 0.37007084488868713, 0.07319197058677673, -0.06910820305347443, -0.26182910799980164, -0.0795782282948494, 0.14381471276283264, 
    -0.2952532470226288, 0.20729754865169525, 0.006922964006662369, 0.3544046878814697, -0.021321015432476997, -0.21690604090690613, -0.00416303426027298, 0.047304730862379074, 
    0.30334779620170593, -0.008094732649624348, -0.161621555685997, -0.17651128768920898, 0.17202959954738617, -0.07290946692228317, -0.3197610378265381, -0.3708113431930542, 
    0.29715240001678467, -0.02918217144906521, -0.9299663305282593, 0.03051011450588703, 0.024153901264071465, -0.27029815316200256, 0.40356147289276123, -0.33176639676094055, 
    -0.20278620719909668, 0.011611142195761204, -0.427239328622818, -0.1640745997428894, -0.40415120124816895, 0.07587483525276184, 0.3934400975704193, -0.28376534581184387, 
    -0.24701103568077087, 0.5750995874404907, 0.4402652680873871, -0.4233986735343933, -0.1621634066104889, 0.1338091492652893, 0.20511800050735474, -0.1791658252477646, 
    -0.032752588391304016, 0.10507325828075409, -0.2826443016529083, 0.07462597638368607, 0.34069913625717163, -0.199015811085701, -0.08524072915315628, 0.21101079881191254, 
    -0.3830448091030121, -0.20982906222343445, 0.13909174501895905, 0.37346169352531433, -0.06536982953548431, -0.39056938886642456, -0.10734599828720093, 0.12029397487640381, 
    0.03483201935887337, -0.04313777759671211, -0.3268926739692688, -0.1298052966594696, -0.4242032468318939, -0.2838470935821533, 0.3033393621444702, 0.2801295518875122, 
    0.09439124912023544, -0.0992976650595665, -0.07258116453886032, -0.2199350893497467, 0.07938835024833679, -0.2581155002117157, 0.015857694670557976, -0.18206021189689636, 
    0.14778408408164978, -0.23114509880542755, -0.1994307041168213, 0.21843577921390533, 0.031881965696811676, -0.384779155254364, 0.16752982139587402, 0.05370020493865013, 
    -0.15699248015880585, -0.20353126525878906, 0.009097730740904808, 0.12093053758144379, 0.20805630087852478, 0.24961762130260468, 0.2543505132198334, -0.3880404531955719, 
    -0.1612863838672638, -0.13101314008235931, -0.01421254314482212, 0.29526862502098083, 0.07646623253822327, -0.0963161364197731, -0.08637487888336182, -0.23541779816150665, 
    0.15188008546829224, 0.2580605745315552, -0.03191684931516647, 0.043226614594459534, -0.18057508766651154, 0.08413601666688919, -0.27274590730667114, -0.13513754308223724, 
    -0.07709162682294846, -0.10937708616256714, -0.4631407558917999, -0.1614302545785904, -0.027809401974081993, -0.06126796454191208, -0.08018360286951065, -0.5094990134239197, 
    -0.19897162914276123, 0.029597921296954155, -0.0759897232055664, -0.1174352765083313, -0.14471638202667236, 0.443562388420105, -0.44954338669776917, -0.1136949211359024, 
    -0.20165352523326874, -0.3776538074016571, -0.1191733106970787, 0.044244199991226196, 0.09005376696586609, 0.10622936487197876, 0.02838730812072754, -0.5207694172859192, 
    -0.20949234068393707, -0.24817964434623718, -0.17973864078521729, -0.025812409818172455, -0.0922943651676178, -0.2973758578300476, -0.1286279708147049, -0.2842443287372589, 
    -0.016080167144536972, -0.13166382908821106, 0.10190295428037643, -0.13871818780899048, -0.07951905578374863, -0.06729794293642044, -0.5170788764953613, -0.05938739329576492, 
    0.06849715113639832, -0.06757624447345734, 0.13491277396678925, -0.33218568563461304, 0.03685958683490753, -0.08932969719171524, 0.07675497233867645, 0.048282232135534286, 
    0.05201306939125061, -0.4241692125797272, -0.35382434725761414, 0.10392501950263977, 0.1801294982433319, -0.10537880659103394, 0.20767618715763092, -0.20814628899097443, 
    0.0460900142788887, -0.17459486424922943, 0.07297908514738083, -0.07826322317123413, -0.08672387152910233, 0.1443616896867752, -0.23953399062156677, -0.19122660160064697, 
    0.22765573859214783, -0.013292307034134865, -0.22027890384197235, -0.22715464234352112, -0.4381648302078247, -0.37272676825523376, 0.05951816588640213, 0.09577418118715286, 
    -0.33557119965553284, -0.3606616258621216, -0.024670729413628578, -0.011648171581327915, -0.07659125328063965, -0.3510977029800415, -0.14070427417755127, 0.09727972000837326, 
    -0.21226836740970612, -0.16201850771903992, -0.35098159313201904, -0.16756688058376312, 0.33430391550064087, 0.17519405484199524, 0.005966928321868181, -0.031772006303071976, 
    -0.00880751758813858, -0.0022480159532278776, 0.0741557702422142, 0.11652910709381104, -0.26109936833381653, -0.16027094423770905, 0.16730836033821106, -0.3616512417793274, 
    -0.11774075776338577, -0.030298030003905296, -0.40183722972869873, -0.5295813083648682, -0.19357608258724213, -0.07020603865385056, 0.35144755244255066, -0.1988796889781952, 
    -0.029951542615890503, -0.23296940326690674, 0.24438787996768951, 0.10888411849737167, -0.3875137269496918, -0.04858199134469032, 0.1568087786436081, 0.0548173226416111, 
    0.3417358994483948, -0.12283451855182648, -0.30157068371772766, -0.2566131353378296, 0.02454664744436741, -0.017613383010029793, 0.2891252934932709, -0.16023319959640503, 
    -0.5012131929397583, 0.17748527228832245, 0.1218654215335846, -0.1777769774198532, -0.13412036001682281, -0.07748313248157501, -0.31293991208076477, -0.03138712793588638, 
    -0.23056109249591827, -0.3040889501571655, 0.12454697489738464, -0.06352881342172623, -0.4301109313964844, 0.14548681676387787, 0.08357149362564087, -0.35151323676109314, 
    -0.3251338303089142, 0.086643747985363, 0.09517163783311844, 0.005215642042458057, 0.09419140964746475, -0.2288433164358139, -0.023490890860557556, 0.014235243201255798, 
    -0.18843106925487518, -0.1757972687482834, 0.20582075417041779, -0.019952908158302307, 0.1478889137506485, -0.19160111248493195, -0.4961046576499939, 0.18499019742012024, 
    -0.14917244017124176, -0.3378606140613556, 0.22567299008369446, -0.2781122326850891, -0.3564971089363098, -0.2072848379611969, -0.44951555132865906, -0.04795302823185921, 
    -0.2758016884326935, 0.09217943996191025, 0.011118985712528229, -0.08257878571748734, 0.16992232203483582, 0.2777451276779175, -0.05994081124663353, 0.09290819615125656, 
    -0.019590970128774643, 0.20863065123558044, 0.3411841094493866, -0.0640060231089592, -0.16156776249408722, 0.05257515609264374, -0.1614452451467514, -0.1547035127878189, 
    0.20178405940532684, 0.18711653351783752, -0.028864307329058647, 0.2664344310760498, 0.31580469012260437, -0.04733061045408249, -0.3997444808483124, 0.10011354833841324, 
    0.22009314596652985, -0.2334965467453003, 0.13153696060180664, 0.3610745668411255, -0.1945100724697113, 0.094792440533638, -0.13034920394420624, 0.02153116837143898, 
    0.41170671582221985, 0.17662003636360168, 0.09703485667705536, 0.1797546148300171, -0.16266272962093353, 0.02093333564698696, 0.2870425581932068, -0.4399397671222687, 
    -0.026020850986242294, -0.029100513085722923, -0.3986351788043976, -0.17617060244083405, 0.2768963873386383, 0.08129090815782547, -0.15810582041740417, -0.21192666888237, 
    -0.09263454377651215, 0.2607077360153198, 0.09337848424911499, 0.03798048943281174, -0.05999210476875305, -0.17359967529773712, -0.08429194241762161, -0.4443773627281189, 
    -0.07742094993591309, 0.19721655547618866, -0.2460198849439621, 0.1146012544631958, -0.3465031087398529, -0.6017213463783264, -0.2859901487827301, 0.09508037567138672, 
    0.2480737268924713, 0.18853133916854858, 0.053091127425432205, 0.3708796799182892, -0.02856844663619995, -0.27082058787345886, 0.19687624275684357, 0.1414441168308258, 
    0.0867462009191513, 0.36914947628974915, 0.08029906451702118, -0.04300319403409958, -0.01507140975445509, 0.017698993906378746, -0.0972667708992958, 0.3616730868816376, 
    0.23027564585208893, 0.1781250685453415, 0.08157511800527573, -0.10674671828746796, -0.001963453134521842, 0.319427490234375, -0.0998721644282341, 0.41301846504211426, 
    0.09686652570962906, 0.0961306020617485, 0.07699195295572281, -0.11174331605434418, -0.04886364936828613, 0.864037811756134, 0.48697391152381897, 0.4070998430252075, 
    0.04961581900715828, -0.01681426726281643, -0.2173566073179245, -0.0964043140411377, 0.08281280845403671, -0.26405343413352966, 0.26641783118247986, 0.06892931461334229, 
    0.04141131415963173, 0.17801620066165924, -0.39431336522102356, -0.23385652899742126, -0.3613053262233734, -0.019386105239391327, 0.09372728317975998, 0.06418491899967194, 
    -0.1135094091296196, -0.04651284217834473, 0.19969359040260315, 0.05111744627356529, -0.360595166683197, -0.096091128885746, -0.31498968601226807, -0.3126227557659149, 
    -0.051916878670454025, -0.5709131956100464, -0.2760118246078491, 0.022463146597146988, 0.027276771143078804, -0.20628337562084198, 0.18858416378498077, -0.23833760619163513, 
    -0.2479851394891739, -0.18909592926502228, -0.17023946344852448, -0.17180341482162476, 0.23467373847961426, 0.27904269099235535, -0.11043241620063782, 0.25221267342567444, 
    -0.15391336381435394, -0.11770454049110413, 0.2714120149612427, -0.21433094143867493, -0.2985880374908447, 0.1884232461452484, 0.22573281824588776, -0.33244505524635315, 
    0.01127441506832838, 0.16796517372131348, -0.07223179191350937, -0.1150476410984993, 0.15975186228752136, -0.1805630624294281, 0.09463521838188171, 0.019542649388313293, 
    -0.03537146747112274, 0.15778684616088867, 0.4359384775161743, 0.25337642431259155, -0.2370055913925171, -0.10137075185775757, -0.13924194872379303, -0.21830670535564423, 
    -0.25435417890548706, -0.2023043930530548, 0.002118126954883337, -0.03789617121219635, -0.1345004141330719, -0.007166098337620497, -0.14848485589027405, -0.4490334391593933, 
    0.36568722128868103, 0.27020546793937683, -0.2572040855884552, -0.22962938249111176, 0.17772240936756134, 0.20410706102848053, -0.11498686671257019, -0.040086060762405396, 
    -0.18711240589618683, -0.23588664829730988, 0.2167496383190155, 0.051211707293987274, 0.2262902408838272, 0.30736860632896423, -0.23095829784870148, -0.22711488604545593, 
    -0.04795793816447258, -0.020776690915226936, 0.12494494020938873, -0.11566624045372009, -0.6101529002189636, 0.18011315166950226, -0.1639001965522766, 0.4925326406955719, 
    -0.6189960241317749, 0.5823036432266235, 0.32845962047576904, 0.5154003500938416, -0.5001143217086792, -0.30026715993881226, -0.383160263299942, 0.24906697869300842, 
    -0.3869164288043976, -0.1802903562784195, 0.1699582040309906, 0.2786472737789154, 0.32540929317474365, 0.25622260570526123, -0.1854347437620163, 0.17655883729457855, 
    -0.37553951144218445, -0.0026386654935777187, 0.023492196574807167, -0.12758511304855347, -0.1350937932729721, -0.14417968690395355, 0.3944372832775116, 0.14417238533496857, 
    0.5092777013778687, -0.1080748438835144, -0.36237379908561707, 0.15809816122055054, -0.2613435685634613, -0.27300435304641724, 0.16987209022045135, 0.15627732872962952, 
    0.08015431463718414, -0.2957210838794708, -0.21643532812595367, 0.05280725285410881, -0.5064025521278381, 0.056445538997650146, -0.008825482800602913, 0.44953224062919617, 
    -0.009866961278021336, -0.24253718554973602, 0.049544308334589005, -0.11487318575382233, -0.4194068908691406, 0.4218403697013855, -0.35928818583488464, -0.23104846477508545, 
    -0.15335504710674286, -0.06143725663423538, -0.005211844574660063, -0.13795331120491028, -0.23246194422245026, 0.17408977448940277, -0.11372615396976471, 0.12621645629405975, 
    -0.23361781239509583, -0.35378605127334595, 0.06207365170121193, -0.3027762174606323, -0.1974625587463379, 0.05401773005723953, 0.16574501991271973, 0.16796840727329254, 
    0.02157442644238472, 0.28619053959846497, -0.12856866419315338, -0.4550973176956177, -0.3371146321296692, 0.24296835064888, 0.08304239064455032, -0.14188139140605927, 
    0.2743951380252838, 0.049395300447940826, 0.05921871215105057, -0.2238806039094925, -0.11417297273874283, -0.5569916367530823, 0.08595912903547287, 0.002295984188094735, 
    0.3629065454006195, -0.2416970431804657, -0.003789101494476199, -0.5791370272636414, 0.025814680382609367, -0.22772598266601562, -0.20042017102241516, 0.14847378432750702, 
    0.1160588189959526, 0.3492942750453949, 0.20396199822425842, 0.07233696430921555, 0.09182567894458771, 0.002021285006776452, 0.09338467568159103, -0.40759503841400146, 
    0.10785821080207825, -0.3071107268333435, -0.04887474700808525, -0.09415444731712341, 0.014376427046954632, 0.0994294211268425, 0.2511824369430542, 0.009320213459432125, 
    -0.2433537244796753, -0.012768675573170185, 0.11478521674871445, -0.2788427174091339, -0.35214874148368835, -0.04421302676200867, -0.06403166055679321, -0.21215534210205078, 
    0.08511436730623245, 0.2340019941329956, -0.12216303497552872, -0.07632285356521606, -0.08084557950496674, 0.3340584933757782, 0.002192488871514797, -0.2282271832227707, 
    0.11356518417596817, -0.3735596239566803, -0.3854179382324219, 0.16709299385547638, -0.019493335857987404, 0.09304151684045792, -0.1186259463429451, -0.4686323404312134, 
    0.10356512665748596, 0.1144200786948204, -0.39849936962127686, 0.13344067335128784, 0.12743304669857025, 0.1354065090417862, -0.147814080119133, -0.31173068284988403, 
    0.14707916975021362, 0.2371307909488678, 0.07968509197235107, -0.04347481206059456, -0.08539854735136032, 0.09956315904855728, 0.38528066873550415, -0.11753951758146286, 
    0.11974113434553146, -0.11965136975049973, -0.049271006137132645, -0.1944590061903, 0.0606963187456131, -0.1980946958065033, -0.031491704285144806, -0.05921998247504234, 
    -0.288413941860199, -0.16079631447792053, 0.10973339527845383, -0.09613227099180222, -0.05256044864654541, 0.1861225962638855, 0.11494334042072296, 0.07175050675868988, 
    0.23324157297611237, -0.18239036202430725, 0.12992510199546814, 0.023937825113534927, 0.21710900962352753, 0.13117918372154236, -0.1930336356163025, -0.1829942762851715, 
    0.20529167354106903, -0.12214885652065277, -0.09736668318510056, -0.35008642077445984, 0.024528659880161285, 0.029293032363057137, 0.22245651483535767, 0.14890021085739136, 
    0.02349885366857052, -0.036773186177015305, -0.31536638736724854, -0.3971501588821411, 0.18487124145030975, 0.17904935777187347, 0.14926810562610626, 0.09965239465236664, 
    0.21230913698673248, 0.07851022481918335, 0.14271274209022522, -0.17321892082691193, -0.3770321309566498, -0.12699134647846222, 0.0016744212480261922, 0.05939658731222153, 
    0.14552022516727448, -0.12834930419921875, -0.08402780443429947, -0.3570125997066498, -0.3368529677391052, 0.05914469435811043, -0.11198839545249939, 0.08380085229873657, 
    0.2915340065956116, -0.5285366177558899, -0.014215885661542416, 0.20928819477558136, -0.3971036970615387, -0.32567059993743896, 0.25728973746299744, -0.05625061318278313, 
    -0.22170062363147736, 0.302219420671463, -0.11531476676464081, -0.3965187966823578, -0.05231793224811554, 0.19150224328041077, 0.22091925144195557, 0.10750897973775864, 
    -0.03534573316574097, -0.11999335885047913, -0.09682650864124298, -0.018332721665501595, -0.00556683074682951, 0.1347609907388687, -0.17814387381076813, -0.28512850403785706, 
    -0.13664059340953827, 0.041685719043016434, -0.1467793583869934, 0.14759187400341034, -0.08975663036108017, -0.20358559489250183, 0.008309858851134777, 0.023976897820830345, 
    -0.16904962062835693, 0.10661549121141434, -0.07436009496450424, -0.12467114627361298, 0.11401356011629105, 0.00729350745677948, 0.3282445967197418, 0.09060727804899216, 
    0.2876034379005432, 0.15723499655723572, 0.012094232253730297, -0.22653090953826904, -0.03148454800248146, 0.2092757374048233, 0.15004518628120422, 0.311082124710083, 
    -0.3148064911365509, 0.11560729146003723, -0.2825790047645569, 0.09697410464286804, -0.11038719862699509, -0.20010533928871155, 0.12009212374687195, 0.08302690088748932, 
    -0.09881491214036942, 0.07192066311836243, 0.026133820414543152, -0.08993389457464218, -0.09279680252075195, -0.17788593471050262, 0.03719338774681091, -0.4783663749694824, 
    -0.008165000937879086, -0.2479742020368576, -0.07512914389371872, 0.06481970846652985, -0.2544519603252411, -0.18592838943004608, -0.05689986050128937, -0.47126567363739014, 
    -0.6900191903114319, -0.14970877766609192, -0.15254631638526917, -0.20160901546478271, -0.04365423694252968, -0.24511930346488953, 0.11751529574394226, -0.2531163692474365, 
    -0.28843778371810913, 0.037347640842199326, -0.20876014232635498, -0.07324264943599701, -0.1367015391588211, -0.32029497623443604, -0.0034353630617260933, 0.32927006483078003, 
    -0.5301490426063538, 0.20439404249191284, 0.1813066303730011, -0.3347213566303253, -0.4275558888912201, -0.26330915093421936, -0.12544956803321838, 0.04249051958322525, 
    0.222845658659935, -0.003736963728442788, -0.3213621973991394, -0.2579207718372345, 0.17177844047546387, -0.6550139784812927, -0.31467223167419434, 0.17068223655223846, 
    -0.04599655047059059, -0.22756463289260864, 0.08263365179300308, 0.19001451134681702, 0.3883841633796692, -0.057946428656578064, -0.22923985123634338, -0.019975867122411728, 
    -0.09350156784057617, -0.14934445917606354, -0.18450528383255005, 0.09948089718818665, -0.4946039319038391, -0.05000707134604454, -0.4704242944717407, -0.07125522196292877, 
    0.3284219801425934, -0.026009922847151756, -0.028794659301638603, 0.018707361072301865, -0.29864251613616943, -0.0867614895105362, 0.20954351127147675, 0.277373731136322, 
    0.1986287236213684, -0.2122056931257248, -0.4008404612541199, -0.0052377162501215935, 0.30168136954307556, 0.5880997776985168, -0.12550634145736694, -0.13380098342895508, 
    -0.050261203199625015, -0.32605624198913574, 0.0730220228433609, -0.1970810443162918, 0.04502234235405922, -0.14035187661647797, -0.17155897617340088, -0.2505446672439575, 
    0.5767102241516113, -0.16810205578804016, -0.21862851083278656, 0.0884256362915039, -0.4063003361225128, 0.19943702220916748, -0.258213609457016, -0.5544647574424744, 
    -0.45348936319351196, 0.6063464283943176, 0.2275482565164566, -0.12540318071842194, 0.1208895742893219, -0.709908664226532, 0.03344966471195221, 0.17068809270858765, 
    -0.3603346049785614, 0.021886004135012627, 0.01793130859732628, -0.08251289278268814, -0.20916706323623657, 0.17691287398338318, -0.33915215730667114, 0.40924105048179626, 
    -0.3772897720336914, -0.3326241672039032, -0.3535347878932953, 0.0009664382669143379, 0.15441027283668518, -0.14276961982250214, -0.28643766045570374, -0.40345317125320435, 
    -0.3844746947288513, 0.9821309447288513, -0.049257200211286545, 0.07688704133033752, 0.4132991135120392, 0.2437370866537094, -0.701090395450592, 0.607257068157196, 
    -0.07209227979183197, -0.44023218750953674, 0.16995662450790405, -0.06302419304847717, -0.0559612438082695, -0.26363348960876465, 0.1687552034854889, -0.2399509847164154, 
    0.21391642093658447, -0.03405671566724777, -0.04606418311595917, 0.14812035858631134, 0.08098446577787399, 0.028652969747781754, 0.264676570892334, -0.004396070726215839, 
    0.010303555056452751, -0.10593588650226593, 0.08160626143217087, -0.02135341614484787, 0.11904054135084152, 0.035823892802000046, -0.20098531246185303, -0.24743078649044037, 
    -0.0642477422952652, -0.13663838803768158, -0.35296520590782166, -0.04024672135710716, 0.05228148400783539, 0.18697306513786316, -0.25270316004753113, -0.25070980191230774, 
    0.022696180269122124, -0.375837117433548, -0.15540170669555664, -0.07102823257446289, 0.11652983725070953, -0.03481230139732361, -0.04943075403571129, 0.027585739269852638, 
    0.1462150514125824, 0.015274710953235626, 0.06742501258850098, -0.17315679788589478, -0.06716138124465942, -0.12942631542682648, 0.16053245961666107, -0.07990854978561401, 
    0.004279812797904015, -0.01199993398040533, 0.05467880889773369, 0.0389595590531826, 0.03093855082988739, -0.02288834936916828, 0.011787991970777512, 0.20022137463092804, 
    0.09771472215652466, 0.08893284201622009, 0.027490608394145966, -0.013810782693326473, 0.21570314466953278, 0.15001024305820465, 0.0667930617928505, 0.1690039485692978, 
    -0.022413499653339386, -0.12026907503604889, -0.26000353693962097, -0.03898664936423302, 0.2568182051181793, 0.4188743829727173, 0.3458305895328522, -0.04235607758164406, 
    0.3306165337562561, 0.24535579979419708, 0.0431056022644043, 0.012072509154677391, 0.08342558145523071, -0.024899709969758987, 0.25447288155555725, 0.057981960475444794, 
    -0.10611864179372787, -0.017233245074748993, 0.015380960889160633, -0.09181356430053711, -0.0810764878988266, 0.06475106626749039, 0.2268347144126892, 0.01569245010614395, 
    0.07270287722349167, 0.1264018714427948, 0.39577412605285645, 0.5608155727386475, 0.13752491772174835, 0.07037154585123062, 0.09668392688035965, -0.12996819615364075, 
    0.10223039239645004, 0.04744067043066025, -0.1843387633562088, -0.23546765744686127, -0.1289018988609314, -0.0649217963218689, 0.19969099760055542, -0.20369106531143188, 
    0.051261696964502335, -0.18374067544937134, -0.05041208863258362, 0.06821778416633606, -0.06964260339736938, -0.013083528727293015, -0.025967348366975784, -0.16672800481319427, 
    -0.03444705158472061, 0.12465266138315201, -0.09524909406900406, -0.2134767770767212, -0.1537589579820633, 0.029952429234981537, -0.21717530488967896, -0.039701785892248154, 
    0.04383152723312378, -0.29327189922332764, 0.13977007567882538, 0.08115962147712708, 0.20586499571800232, -0.046506114304065704, 0.18813583254814148, 0.04001650586724281, 
    0.058518100529909134, -0.023099929094314575, -0.25160112977027893, -0.30364498496055603, 0.027853284031152725, 0.04492313042283058, 0.07275259494781494, -0.04394301027059555, 
    -0.21390967071056366, 0.12875132262706757, -0.18301303684711456, -0.3952421545982361, -0.05218641832470894, 0.016140902414917946, 0.0895325243473053, -0.22655804455280304, 
    0.07609480619430542, -0.1719268262386322, 0.0854761153459549, 0.08758070319890976, -0.11071457713842392, -0.23945944011211395, -0.07258729636669159, 0.1462278515100479, 
    -0.02968243882060051, -0.1054774820804596, 0.018300384283065796, -0.14580495655536652, 0.03117159754037857, 0.05038191005587578, 0.07134687155485153, 0.19563573598861694, 
    0.04452591761946678, -0.22299644351005554, -0.41166794300079346, 0.06995125859975815, 0.07720951735973358, 0.21849028766155243, -0.18747301399707794, -0.19231341779232025, 
    0.10878568887710571, 0.09688980877399445, -0.051848072558641434, -0.21943356096744537, -0.27595746517181396, 0.20096957683563232, 0.1521744430065155, 0.10493256151676178, 
    0.03788018599152565, 0.04895223304629326, -0.08060779422521591, -0.09686397016048431, -0.23349323868751526, 0.07517541944980621, 0.18554577231407166, 0.15209271013736725, 
    0.03972519561648369, -0.19385842978954315, -0.34738677740097046, -0.12431667745113373, 0.049583323299884796, -0.05623701587319374, -0.15488344430923462, -0.09749017655849457, 
    -0.2826057970523834, -0.07614289224147797, 0.1930467188358307, 0.009731768630445004, 0.06756316125392914, -0.0008201436721719801, 0.15773089230060577, -0.012138654477894306, 
    0.08476966619491577, 0.1605384647846222, 0.36836886405944824, -0.1270494908094406, 0.16594991087913513, 0.08641785383224487, -0.1689908355474472, 0.25520873069763184, 
    -0.3456595540046692, 0.08295341581106186, -0.26889243721961975, -0.20788748562335968, 0.1711902618408203, -0.3246443271636963, 0.15685820579528809, 0.09435500204563141, 
    -0.07735578715801239, -0.04833004251122475, -0.3228169083595276, 0.008961346000432968, -0.11698310077190399, -0.07597248256206512, 0.17538711428642273, -0.22356225550174713, 
    -0.19846640527248383, -0.015180226415395737, -0.2432895302772522, -0.6434674859046936, -0.07708507031202316, 0.14543649554252625, 0.0552869588136673, 0.04909456893801689, 
    0.05953143537044525, 0.09781260043382645, -0.11327759921550751, 0.1382349580526352, 0.11535803228616714, 0.21562230587005615, -0.23649096488952637, 0.3213193118572235, 
    -0.068904347717762, 0.14322784543037415, -0.057901252061128616, -0.18294662237167358, -0.1763462871313095, -0.08787133544683456, -0.08947881311178207, -0.07054349780082703, 
    0.11104726046323776, 0.31978729367256165, 0.004846246913075447, 0.04365919530391693, -0.00816330686211586, -0.12461643666028976, -0.2284689098596573, 0.05721340328454971, 
    -0.07520605623722076, 0.024567337706685066, -0.057237450033426285, 0.059249717742204666, -0.45025160908699036, 0.11510948836803436, 0.09595831483602524, -0.1598585844039917, 
    0.029068654403090477, -0.11861144751310349, -0.31151342391967773, 0.07046367228031158, 0.05609859153628349, 0.2294805943965912, -0.1961859166622162, -0.16939377784729004, 
    -0.1384468972682953, -0.1987370252609253, 0.25895535945892334, -0.22614894807338715, -0.1682833433151245, 0.2025499790906906, 0.17169059813022614, 0.2941669523715973, 
    0.13566157221794128, 0.15318192541599274, 0.09850072860717773, 0.02733600325882435, 0.12944014370441437, 0.14631131291389465, -0.24886754155158997, 0.23466390371322632, 
    0.10002925992012024, -0.15287715196609497, 0.2395009547472, -0.1758432239294052, -0.019587161019444466, -0.01747114211320877, 0.03491827845573425, -0.21349754929542542, 
    -0.14732424914836884, 0.06547697633504868, -0.1616375744342804, -0.11052040755748749, 0.0090839434415102, 0.060225024819374084, 0.09499042481184006, 0.059588730335235596, 
    0.061623070389032364, -0.0857689380645752, -0.11731599271297455, -0.28545236587524414, 0.1300138682126999, -0.015151715837419033, -0.03920961916446686, 0.005574398208409548, 
    0.0017573063960298896, 0.07719071954488754, 0.17856083810329437, -0.08927568048238754, -0.19244053959846497, 0.02317475900053978, 0.1495254635810852, 0.19113528728485107, 
    -0.23062624037265778, -0.14027856290340424, -0.004831213504076004, 0.0015311563620343804, -0.10692329704761505, 0.11870656907558441, -0.05869254097342491, 0.21370317041873932, 
    -0.19371816515922546, 0.10422781109809875, 0.2050982415676117, -0.33545154333114624, 0.05909280106425285, 0.2180383950471878, 0.037792712450027466, -0.25227510929107666, 
    0.09678178280591965, -0.04921111464500427, 0.0346701554954052, 0.04553381726145744, 0.09750742465257645, -0.008521775715053082, 0.13811910152435303, -0.06638317555189133, 
    -0.01577441394329071, -0.007478462997823954, -0.09368104487657547, 0.2260759025812149, 0.048550404608249664, -0.11305788904428482, -0.17161472141742706, -0.1981377899646759, 
    0.0432741604745388, -0.04764046147465706, 0.176919624209404, 0.11821600049734116, -0.05671766772866249, 0.10044100135564804, -0.10033591836690903, -0.17691554129123688, 
    0.04729504510760307, -0.057789333164691925, 0.08085411041975021, 0.02664526179432869, -0.22712267935276031, -0.03208022564649582, -0.39195626974105835, 0.04362592101097107, 
    -0.2061062455177307, 0.13449817895889282, -0.11670687049627304, -0.14607776701450348, 0.08349084854125977, -0.015042759478092194, 0.19332338869571686, -0.08510787039995193, 
    0.018158093094825745, -0.02086355909705162, 0.028399711474776268, -0.06347670406103134, 0.1441676765680313, 9.689957369118929e-05, 0.03528345748782158, 0.02516019530594349, 
    -0.05666738376021385, -0.004631611052900553, -0.08353616297245026, -0.1441439390182495, -0.29414844512939453, 0.008058758452534676, -0.0642588809132576, -0.05307283252477646, 
    -0.03453918546438217, -0.124296173453331, -0.12968921661376953, 0.07562728226184845, -0.034970011562108994, 0.012277095578610897, -0.21038775146007538, 0.2186937928199768, 
    0.1567544788122177, 0.023373236879706383, 0.4152993857860565, -0.2810458540916443, -0.06351833790540695, 0.00023359415354207158, 0.1564251333475113, 0.19628949463367462, 
    -0.16753238439559937, -0.03699517622590065, 0.13907258212566376, -0.027598487213253975, 0.1523301601409912, -0.05678696185350418, -0.18501996994018555, 0.08728965371847153, 
    -0.0560063011944294, -0.023837359622120857, 0.13626880943775177, 0.0653020367026329, 0.2939234972000122, -0.18945150077342987, 0.1397678107023239, 0.20002201199531555, 
    -0.20016928017139435, 0.24620258808135986, -0.012533044442534447, -0.04092983528971672, -0.2116740196943283, 0.3742409646511078, 0.05473301187157631, 0.16291572153568268, 
    -0.2073826789855957, -0.05705852434039116, -0.0825580283999443, 0.02370477467775345, -0.08675125241279602, -0.07183641195297241, 0.18227392435073853, -0.41276031732559204, 
    0.028559040278196335, 0.11135955899953842, -0.22688768804073334, 0.2967083752155304, 0.1423305869102478, -0.11979852616786957, 0.03274764120578766, -0.08270247280597687, 
    0.17413321137428284, -0.017857594415545464, 0.3260805308818817, 0.10779319703578949, -0.1764100342988968, -0.2822961211204529, 0.24504002928733826, -0.19118919968605042, 
    0.07671528309583664, 0.02203252911567688, -0.036276113241910934, 0.031884562224149704, -0.1006665900349617, -0.30711087584495544, 0.014686317183077335, 0.13335373997688293, 
    0.14568157494068146, -0.09362992644309998, 0.1561899334192276, 0.023564549162983894, -0.011965502053499222, -0.03954852744936943, 0.3176213800907135, -0.0779133215546608, 
    0.3702288269996643, -0.08351870626211166, -0.02104048803448677, 0.0700252577662468, -0.29437604546546936, 0.08304688334465027, -0.09754973649978638, 0.028880633413791656, 
    0.1424117535352707, -0.1489303708076477, 0.022837894037365913, 0.13837994635105133, -0.08705927431583405, 0.16103573143482208, 0.01810584031045437, 0.0026322314515709877, 
    0.01474728062748909, 0.012950954027473927, 0.09954796731472015, 0.1279768943786621, 0.327333003282547, -0.0635618343949318, 0.06976602226495743, 0.021720442920923233, 
    -0.12014466524124146, -0.22412735223770142, 0.21541261672973633, 0.06881019473075867, 0.03348669409751892, -0.3899633288383484, 0.047210436314344406, 0.18544504046440125, 
    0.0012156167067587376, 0.03780548274517059, -0.20559470355510712, -0.12715767323970795, 0.1304071694612503, 0.19615069031715393, 0.08430469036102295, 0.09594312310218811, 
    -0.006247967015951872, -0.08441480994224548, -0.27514535188674927, 0.14681334793567657, -0.25855275988578796, 0.12085945159196854, -0.17207591235637665, -0.2172166258096695, 
    0.00914960727095604, -0.25380170345306396, -0.15798014402389526, 0.026062188670039177, 0.15712587535381317, -0.12144247442483902, -0.11465287953615189, 0.1845729798078537, 
    0.2628215551376343, 0.07995046675205231, -0.192382350564003, -0.14106085896492004, 0.22837147116661072, -0.319228857755661, 0.04463497921824455, -0.37188130617141724, 
    0.3525052070617676, 0.1649365872144699, -0.0877155065536499, 0.32702144980430603, -0.05438293144106865, 0.4429721236228943, 0.03672447428107262, -0.09720019996166229, 
    0.11658938229084015, -0.026438400149345398, -0.05539638549089432, -0.08127705752849579, 0.02738562971353531, -0.0944666787981987, 0.15333335101604462, -0.26696959137916565, 
    -0.06254007667303085, -0.07115146517753601, 0.1597461998462677, -0.09419260919094086, 0.03887781873345375, 0.10514950752258301, -0.2138565182685852, 0.09135419130325317, 
    -0.02720700576901436, 0.004835877567529678, 0.31593799591064453, 0.12316795438528061, 0.07325444370508194, -0.04067198559641838, 0.3337726294994354, 0.08419842272996902, 
    -0.0021218452602624893, 0.015565614216029644, -0.048963502049446106, 0.11342746764421463, 0.09539926052093506, 0.12691840529441833, 0.1219586506485939, 0.020943772047758102, 
    0.02340071089565754, 0.04730752483010292, -0.04800807684659958, 0.007093144580721855, -0.013575832359492779, -0.06626760214567184, -0.12467222660779953, -0.3236235976219177, 
    0.05936341732740402, 0.3455216586589813, -0.05500028654932976, -0.10789156705141068, -0.08400533348321915, -0.18369796872138977, 0.10654973983764648, -0.03293304890394211, 
    0.09187186509370804, -0.01286675687879324, -0.0288848914206028, 0.04900018870830536, 0.05973903834819794, 0.02527499943971634, 0.13777969777584076, -0.04391944035887718, 
    -0.18878816068172455, -0.01874256134033203, -0.16082720458507538, -0.09925062954425812, -0.31809738278388977, 0.09505298733711243, 0.06222783774137497, -0.06593585759401321, 
    0.25353315472602844, -0.20864666998386383, 0.17325781285762787, -0.12690326571464539, 0.052270811051130295, -0.12123595178127289, 0.16581477224826813, -0.47772252559661865, 
    0.17013557255268097, -0.05188416317105293, -0.1112813949584961, -0.2636139690876007, 0.14018933475017548, -0.09499993920326233, -0.15084423124790192, 0.17229601740837097, 
    -0.07686253637075424, 0.010207408107817173, -0.11888141185045242, 0.22129765152931213, -0.19706037640571594, 0.21124882996082306, -0.5828788876533508, -0.15294748544692993, 
    -0.0619007870554924, -0.3286565840244293, 0.03928721696138382, 0.1825835108757019, 0.10720736533403397, 0.03635913506150246, 0.2982986271381378, -0.06035814434289932, 
    0.22520683705806732, 0.11501401662826538, 0.07153783738613129, 0.06491660326719284, -0.032062165439128876, 0.17580315470695496, -0.21852566301822662, -0.17601677775382996, 
    -0.31235283613204956, 0.16124211251735687, 0.21374815702438354, 0.032223187386989594, -0.3863913118839264, 0.00653028441593051, -0.07853769510984421, -0.2436184287071228, 
    -0.18288148939609528, -0.004329659044742584, -0.27045223116874695, 0.12239822745323181, -0.253036767244339, 0.16796937584877014, 0.017753655090928078, 0.27313894033432007, 
    -0.017292844131588936, 0.07449954748153687, -0.0920027419924736, -0.25073614716529846, 0.2709483802318573, 0.10125171393156052, -0.03246448189020157, 0.11586965620517731, 
    -0.29590797424316406, 0.02820400521159172, -0.3507320284843445, -0.09902627766132355, -0.22604358196258545, 0.04717056453227997, 0.10315748304128647, -0.22559766471385956, 
    0.16724826395511627, 0.020953450351953506, -0.22418943047523499, -0.03249577805399895, 0.019786106422543526, 0.0016211152542382479, 0.21456731855869293, 0.05368247628211975, 
    0.014748579822480679, 0.15522773563861847, -0.058474548161029816, -0.04154980927705765, -0.1759009063243866, -0.056951142847537994, 0.08266197890043259, -0.2688800096511841, 
    0.08699120581150055, -0.05781056359410286, 0.07864545285701752, -0.1411837786436081, -0.027432756498456, -0.06537404656410217, -0.06755536049604416, 0.024152236059308052, 
    -0.05020378902554512, -0.07333388924598694, -0.3141774833202362, 0.012567752040922642, -0.338594913482666, -0.18648667633533478, 0.1803569495677948, -0.131349116563797, 
    0.1335335522890091, 0.13929800689220428, -0.3069077432155609, 0.16421903669834137, 0.007805809378623962, -0.18101440370082855, -0.0972282737493515, -0.06680423766374588, 
    0.24896381795406342, 0.05812816694378853, -0.27134665846824646, 0.07212550193071365, 0.12290259450674057, -0.15829165279865265, -0.2906970679759979, -0.13125349581241608, 
    0.01377031859010458, 0.16208384931087494, -0.11701568216085434, 0.15420176088809967, 0.06735148280858994, 0.22818154096603394, -0.1422327607870102, 0.12117669731378555, 
    0.04220946133136749, -0.2512524127960205, -0.011918789707124233, -0.392012357711792, -0.14400553703308105, -0.02222445234656334, 0.021842969581484795, -0.10451741516590118, 
    0.24105028808116913, -0.1402880847454071, -0.07966836541891098, -0.03535603731870651, 0.15003526210784912, -0.3841705024242401, 0.1306629478931427, -0.0029398680198937654, 
    -0.12755849957466125, -0.08715096861124039, 0.1658763885498047, -0.01026137638837099, 0.06582150608301163, -0.13341771066188812, -0.04227212443947792, -0.1904367059469223, 
    -0.02172013558447361, -0.01931595429778099, 0.01319141872227192, -0.0024641873314976692, -0.30879729986190796, 0.051403217017650604, 0.06812430173158646, -0.08657047897577286, 
    0.08091537654399872, 0.022873660549521446, -0.09640325605869293, 0.01739414781332016, 0.1939290314912796, -0.01466812938451767, 0.052655935287475586, 0.01972576230764389, 
    -0.015429990366101265, 0.21328549087047577, 0.0073518408462405205, -0.028816629201173782, -0.12824228405952454, 0.04141681641340256, -0.1591949462890625, -0.186122864484787, 
    0.13965824246406555, -0.5762161016464233, -0.02197095938026905, -0.09694985300302505, -0.02714914083480835, 0.02637910470366478, 0.32806500792503357, -0.2562943398952484, 
    0.06051843985915184, -0.5571122765541077, -0.2522154152393341, 0.002951273461803794, -0.3448261320590973, -0.1808769851922989, 0.03218471258878708, -0.11209490150213242, 
    0.09662836045026779, 0.23118218779563904, 0.12249775975942612, 0.06658082455396652, 0.08551043272018433, 0.03677454590797424, 0.09316276013851166, -0.16195939481258392, 
    -0.10511447489261627, 0.09750262647867203, -0.029916005209088326, 0.18671809136867523, 0.051625046879053116, -0.11747607588768005, -0.005507142283022404, -0.49748075008392334, 
    0.25252485275268555, 0.005892333574593067, -0.1319464147090912, -0.04364844039082527, 0.18459221720695496, -0.24094389379024506, 0.10225316882133484, 0.11745523661375046, 
    0.0024193674325942993, 0.15565739572048187, -0.49301671981811523, 0.11332396417856216, -0.11620495468378067, -0.30055347084999084, 0.006750201340764761, -0.11041263490915298, 
    0.053843822330236435, 0.017807859927415848, -0.026942146942019463, -0.23264054954051971, 0.0610106959939003, 0.13960932195186615, -0.0007307942141778767, -0.02179664559662342, 
    0.005762854591012001, 0.13769832253456116, 0.030759291723370552, 0.03158531337976456, 0.08391059190034866, -0.014675509184598923, 0.051281195133924484, -0.32866570353507996, 
    0.00012454084935598075, -0.06393275409936905, -0.1426950991153717, -0.007871372625231743, -0.33960163593292236, 0.15323421359062195, -0.023301171138882637, -0.03666459023952484, 
    0.13620497286319733, -0.058707427233457565, 0.25953108072280884, -0.1311226189136505, 0.028860725462436676, 0.18153180181980133, -0.24375246465206146, -0.09227161854505539, 
    0.0843656063079834, 0.24730241298675537, -0.37696829438209534, -0.24343831837177277, -0.044524241238832474, -0.045203499495983124, 0.04561261832714081, -0.11971724033355713, 
    0.13347582519054413, 0.15981361269950867, 0.08917806297540665, -0.09347884356975555, 0.054249849170446396, 0.2104317992925644, 0.057551585137844086, -0.0630011111497879, 
    -0.06495504826307297, 0.08522554486989975, 0.002241795416921377, 0.01726519875228405, -0.09959521889686584, -0.1520235240459442, 0.03030669502913952, 0.07166384160518646, 
    -0.09973715245723724, -0.05364234372973442, 0.12067820876836777, -0.0899847149848938, -0.3809431195259094, -0.04531441628932953, -0.006502784788608551, -0.2531124949455261, 
    -0.015034843236207962, -0.01617545634508133, -0.18805183470249176, -0.053780149668455124, 0.007064223755151033, 0.3242838680744171, 0.09672488272190094, -0.3129754364490509, 
    -0.1272059828042984, 0.2073713093996048, 0.06261330842971802, 0.29233044385910034, -0.004598639905452728, -0.489250123500824, -0.5228992700576782, 0.08320941030979156, 
    0.217651829123497, -0.11489572376012802, 0.10880960524082184, -0.11815480887889862, -0.07532452791929245, 0.061259251087903976, -0.1427994817495346, -0.0872199609875679, 
    0.19071093201637268, 0.34509119391441345, -0.2370203584432602, -0.28945761919021606, 0.07331380993127823, 0.04819164797663689, -0.039104778319597244, -0.10121060907840729, 
    0.011672507971525192, 0.04051446169614792, -0.15832485258579254, -0.2206108272075653, 0.15893051028251648, 0.06694922596216202, -0.10045336931943893, -0.011531440541148186, 
    -0.1972733438014984, -0.1902810037136078, -0.022824160754680634, 0.21392180025577545, 0.050385404378175735, -0.011226202361285686, -0.0066687557846307755, -0.021309107542037964, 
    -0.3818162679672241, -0.03209580108523369, 0.10630729794502258, -0.11043669283390045, -0.30912360548973083, -0.0429079644382, -0.05849398672580719, -0.2713976800441742, 
    0.19148090481758118, -0.039437420666217804, 0.3319612145423889, 0.029179969802498817, 0.2967459261417389, 0.24554385244846344, 0.07258173078298569, -0.08003252744674683, 
    0.12933200597763062, -0.03314286470413208, 0.015599600970745087, 0.04334431514143944, 0.09354455024003983, -0.006417637225240469, -0.06695050746202469, -0.4232063889503479, 
    -0.15966342389583588, -0.003937770612537861, 0.013054958544671535, -0.015531235374510288, 0.04274798929691315, 0.09801086038351059, -0.1641969531774521, 0.02617722563445568, 
    0.05885135382413864, 0.08141730725765228, -0.20387519896030426, -0.09850900620222092, 0.053705986589193344, 0.1574709415435791, -0.13680726289749146, 0.060097143054008484, 
    0.10643084347248077, -0.0005954891676083207, -0.3723287284374237, -0.04798993095755577, -0.20491968095302582, 0.0350634790956974, 0.2728399634361267, 0.11909331381320953, 
    -0.04828313738107681, 0.06522711366415024, 0.11276615411043167, -0.09441690891981125, 0.10250772535800934, -0.07029110938310623, 0.1482163667678833, 0.03169586881995201, 
    0.052099909633398056, 0.06975338608026505, -0.04224977269768715, -0.07889506220817566, 0.02510301023721695, 0.26314976811408997, -0.1237446516752243, 0.16306540369987488, 
    0.014519143849611282, 0.13651347160339355, 0.01822672225534916, -0.019705673679709435, -0.022617271170020103, -0.10955474525690079, -0.1949048638343811, -0.05717552453279495, 
    -0.025518272072076797, -0.0196936447173357, -0.16592803597450256, 0.11209259182214737, -0.09147680550813675, 0.0033727921545505524, 0.004842258524149656, -0.08614888787269592, 
    -0.19715936481952667, -0.16811996698379517, -0.25372859835624695, -0.17106527090072632, -0.011258193291723728, -0.18388454616069794, -0.055181920528411865, 0.07755929976701736, 
    -0.1774892807006836, 0.1293361932039261, 0.0890522375702858, -0.24172937870025635, 0.09461471438407898, -0.16942723095417023, 0.036487601697444916, -0.0447562113404274, 
    0.24906590580940247, -0.2099088728427887, 0.1054099053144455, 0.1023460179567337, -0.008434588089585304, -0.15385840833187103, 0.07183317840099335, 0.1052878275513649, 
    -0.1237836554646492, -0.07069101929664612, 0.09404870867729187, 0.15530279278755188, 0.03932730108499527, -0.17675858736038208, -0.034219466149806976, -0.0833016112446785, 
    0.3281765878200531, -0.08186399936676025, -0.09898780286312103, 0.12122039496898651, 0.18068434298038483, 0.203287735581398, 0.03165220469236374, -0.36038219928741455, 
    0.17296627163887024, 0.2830190658569336, 0.04823485389351845, 0.0516996793448925, -0.10112819820642471, 0.19474847614765167, -0.3888404965400696, 0.04581358656287193, 
    0.09941257536411285, 0.28384944796562195, -0.20340262353420258, 0.03654254972934723, 0.26066598296165466, 0.21705329418182373, -0.3101199269294739, 0.022934740409255028, 
    0.019179631024599075, 0.0543048195540905, -0.1743369996547699, 0.08290185779333115, 0.08517283201217651, 0.1666017323732376, 0.11614377796649933, -0.025178316980600357, 
    0.06829013675451279, 0.07368091493844986, 0.11855610460042953, -0.019070522859692574, 0.11698617041110992, -0.2296002209186554, -0.0008258589077740908, -0.39890366792678833, 
    0.05908754840493202, -0.028361424803733826, -0.06759244203567505, 0.04982013627886772, 0.15802893042564392, 0.3064635992050171, 0.11427122354507446, 0.1666036993265152, 
    -0.014964895322918892, 0.0910942405462265, 0.08627209812402725, -0.03745388612151146, -0.047878414392471313, 0.18990032374858856, -0.24124519526958466, -0.006199713796377182, 
    0.07134588807821274, 0.012736485339701176, -0.28140100836753845, -0.0970560759305954, -0.12837998569011688, -0.1319994330406189, 0.2083326280117035, 0.07225562632083893, 
    0.0030660913325846195, 0.17457787692546844, 0.06355153769254684, -0.039682116359472275, 0.00679309107363224, -0.09090396761894226, 0.051062408834695816, -0.06449519097805023, 
    0.15757803618907928, 0.1396460235118866, 0.18919652700424194, -0.0890251100063324, 0.21399283409118652, 0.11120603233575821, -0.054876454174518585, -0.2307736724615097, 
    0.20703284442424774, -0.028517423197627068, 0.08832929283380508, 0.07091686129570007, -0.04272056743502617, -0.16398127377033234, -0.0489494688808918, -0.14277826249599457, 
    0.14201763272285461, 0.079288549721241, -0.053153377026319504, 0.05658094957470894, -0.34676697850227356, -0.09813909232616425, -0.06903192400932312, -0.2416745126247406, 
    -0.377032071352005, 0.11997194588184357, -0.1506081223487854, 0.14021626114845276, -0.31606075167655945, -0.08010938763618469, -0.22962021827697754, 0.089168019592762, 
    -0.09597118198871613, 0.18627500534057617, -0.1197991669178009, -0.008283084258437157, 0.3079005181789398, -0.10261428356170654, -0.11990534514188766, 0.34861671924591064, 
    0.10412000864744186, 0.0017364807426929474, -0.1582057923078537, -0.034921906888484955, 0.02434215135872364, 0.08688594400882721, 0.07618585228919983, -0.12421043962240219, 
    0.03431754186749458, -0.1024411991238594, -0.3059605360031128, -0.28812357783317566, -0.1372849941253662, -0.06038026511669159, -0.364545613527298, -0.30565258860588074, 
    0.19269147515296936, -0.07332277297973633, -0.3679331839084625, -0.005615872796624899, -0.1284048855304718, -0.03107517957687378, -0.2314784675836563, 0.026004623621702194, 
    0.24291294813156128, 0.02130557969212532, 0.06942164897918701, 0.13589684665203094, -0.19629737734794617, -0.12261956185102463, 0.20693495869636536, -0.056392643600702286, 
    0.05193017050623894, 0.3136885166168213, -0.059676650911569595, 0.022776011377573013, 0.15831923484802246, -0.30920684337615967, 0.09979186207056046, -0.037653859704732895, 
    -0.4137386083602905, -0.10946310311555862, 0.16542382538318634, 0.07232286036014557, -0.2994832396507263, -0.024232659488916397, 0.1481470912694931, 0.06992871314287186, 
    0.15349270403385162, -0.0041854470036923885, 0.07516422122716904, 0.08652874827384949, -0.3413897752761841, -0.03439578041434288, -0.44101765751838684, -0.12633728981018066, 
    -0.3734661340713501, 0.06944623589515686, -0.024448314681649208, 0.018661782145500183, 0.12048713862895966, 0.014503379352390766, 0.19821195304393768, 0.10869500786066055, 
    -0.0460277795791626, 0.0018208292312920094, 0.026346368715167046, 0.00027511417283676565, 0.163070946931839, -0.1385187804698944, 0.04507875069975853, -0.07760711014270782, 
    -0.0055171954445540905, 0.05308084189891815, 0.20560342073440552, 0.019199173897504807, -0.06666626781225204, -0.02561110258102417, -0.0036524515599012375, -0.18713612854480743, 
    -0.03495381772518158, 0.03460998833179474, 0.225372314453125, 0.11171142011880875, -0.12375567853450775, 0.24350088834762573, 0.03849297761917114, 0.08536369353532791, 
    -0.00474456325173378, 0.12411731481552124, 0.16717344522476196, -0.1571507751941681, 0.16482561826705933, 0.21837154030799866, 0.30661168694496155, -0.041070714592933655, 
    -0.17732833325862885, -0.252312034368515, -0.15096373856067657, 0.022316347807645798, 0.1685466468334198, 0.11883147060871124, -0.046195775270462036, -0.19323840737342834, 
    -0.1263083964586258, -0.18907389044761658, 0.011281345970928669, -0.14278557896614075, -0.09537511318922043, -0.05880530923604965, -0.060663070529699326, 0.2643665671348572, 
    0.11165469139814377, -0.12034328281879425, -0.13580110669136047, 0.07566771656274796, -0.0286281518638134, 0.13358940184116364, 0.12147226929664612, 0.08157302439212799, 
    0.12155167758464813, 0.21879376471042633, 0.09743932634592056, -0.18855531513690948, -0.03531774878501892, 0.061804693192243576, -0.1528654545545578, -0.2061392068862915, 
    -0.2635776698589325, 0.02854771539568901, -0.15004609525203705, 0.0009523702901788056, -0.029935669153928757, -0.10771147161722183, -0.06846240162849426, 0.0027075347024947405, 
    0.03696935623884201, 0.07511983066797256, -0.16579781472682953, 0.14938218891620636, 0.20804840326309204, 0.13398149609565735, -0.02632012590765953, -0.019285008311271667, 
    -0.10579580068588257, -0.032840803265571594, -0.028507988899946213, 0.1183924674987793, -0.10021281987428665, 0.16634579002857208, 0.14744968712329865, -0.31347987055778503, 
    0.22729119658470154, -0.02746918797492981, -0.09025265276432037, 0.061020396649837494, -0.12442577630281448, -0.27953556180000305, -0.027821587398648262, 0.044606730341911316, 
    0.20119276642799377, 0.06665359437465668, -0.027737639844417572, 0.18628670275211334, 0.02399074286222458, 0.056283894926309586, 0.16564080119132996, -0.15389488637447357, 
    0.08914525806903839, 0.027696508914232254, 0.27200695872306824, 0.1298455148935318, 0.021986912935972214, -0.32923778891563416, 0.07223346829414368, 0.10415806621313095, 
    -0.05897047743201256, -0.1381773203611374, 0.2628414034843445, 0.07425187528133392, 0.1495881974697113, -0.18263578414916992, -0.03055981919169426, -0.09666943550109863, 
    0.0342828594148159, 0.20195578038692474, 0.1768559366464615, -0.03602565452456474, 0.30031919479370117, -0.19657497107982635, -0.09295502305030823, -0.04782729595899582, 
    0.08272351324558258, -0.06457673758268356, 0.04767870530486107, -0.21218855679035187, 0.03317372873425484, 0.17387324571609497, 0.04067730903625488, -0.08736920356750488, 
    -0.30957257747650146, -0.14871667325496674, 0.2815897762775421, -0.03942335769534111, 0.057618603110313416, 0.01021780725568533, 0.08112194389104843, 0.06560171395540237, 
    0.06818291544914246, -0.2984394133090973, 0.00804923940449953, 0.1252467781305313, -0.19846656918525696, 0.0799100250005722, -0.02494925446808338, -0.2167702615261078, 
    0.10378775745630264, 0.1934524029493332, -0.08833804726600647, 0.09820758551359177, -0.25054931640625, 0.006511177867650986, 0.3268658220767975, -0.09406302124261856, 
    0.05212722346186638, 0.04580206796526909, 0.10393032431602478, 0.006991065572947264, -0.07637296617031097, 0.1797470599412918, -0.12649650871753693, 0.1423356831073761, 
    0.054088931530714035, 0.15239691734313965, 0.10284072160720825, 0.04637598246335983, 0.11258244514465332, 0.022635433822870255, -0.08716562390327454, 0.16293096542358398, 
    0.10365178436040878, -0.05256666988134384, -0.22098127007484436, -0.06766816228628159, 0.12732553482055664, 0.12145260721445084, -0.09921824187040329, 0.0623624362051487, 
    0.11110123991966248, 0.024854768067598343, 0.05824705585837364, 0.26424986124038696, 0.04493303969502449, -0.0732869952917099, 0.19793608784675598, -0.24340182542800903, 
    0.36716917157173157, -0.21989509463310242, 0.21510496735572815, -0.004003545735031366, -0.04185599088668823, -0.17853949964046478, -0.1693916767835617, -0.0015356537187471986, 
    0.09083590656518936, 0.37051934003829956, 0.10531982779502869, 0.18952181935310364, 0.08715631812810898, -0.013644875027239323, 0.0074767558835446835, 0.0038056590128690004, 
    -0.06526744365692139, 0.21305115520954132, -0.06483630836009979, 0.12993837893009186, -0.28710395097732544, 0.23704402148723602, 0.0382259264588356, -0.18815435469150543, 
    0.0387057363986969, -0.12599331140518188, 0.22163546085357666, -0.12964840233325958, 0.01323997974395752, -0.2880323529243469, 0.14862661063671112, -0.12913517653942108, 
    0.24126628041267395, -0.17262029647827148, -0.22545786201953888, 0.2174154669046402, -0.01928677223622799, 0.32035031914711, 0.017870798707008362, -0.023000745102763176, 
    -0.2215101569890976, -0.1299375593662262, 0.3628102242946625, -0.0899830088019371, -0.005249048117548227, 0.025253532454371452, -0.06946724653244019, -0.0793510153889656, 
    0.1477421224117279, 0.05698626488447189, -0.06787300854921341, -0.17258797585964203, 0.004451317247003317, -0.18314975500106812, 0.10854322463274002, 0.18366895616054535, 
    0.0286264568567276, 0.39230090379714966, 0.06661343574523926, 0.09370537847280502, -0.10346590727567673, -0.09315498173236847, 0.4108727276325226, -0.0781269520521164, 
    0.16912783682346344, 0.04071613773703575, -0.03017885982990265, -0.04478447139263153, 0.027050558477640152, -0.05160181596875191, 0.10324669629335403, 0.27383020520210266, 
    0.23152056336402893, 0.11810988932847977, 0.20137661695480347, -0.001531393500044942, 0.00403014337643981, 0.11423663049936295, 0.02668965607881546, 0.1526402235031128, 
    -0.3007616102695465, -0.05064580962061882, -0.09993630647659302, 0.2542148232460022, 0.2063039243221283, 0.19641074538230896, -0.02640252374112606, 0.09607093036174774, 
    0.08051382005214691, -0.10537455976009369, -0.11415215581655502, -0.13049818575382233, -0.1891307830810547, 0.027446771040558815, -0.01195293664932251, -0.30917468667030334, 
    -0.13208496570587158, -0.046261295676231384, 0.023838238790631294, 0.0482318252325058, -0.12602010369300842, 0.12861278653144836, 0.19677269458770752, 0.06050341948866844, 
    -0.0641695037484169, -0.16028396785259247, -0.039946772158145905, -0.1268903613090515, -0.11736636608839035, 0.2154630869626999, -0.21890658140182495, -0.039576929062604904, 
    -0.19459179043769836, 0.09701281040906906, 0.11994211375713348, 0.08742653578519821, 0.022569457069039345, 0.01066338550299406, 0.09768886119127274, -0.22674165666103363, 
    0.11915169656276703, 0.05391378328204155, 0.07821888476610184, 0.4860951006412506, 0.06435845792293549, -0.24288101494312286, -0.017377033829689026, 0.19559228420257568, 
    -0.0028115587774664164, 0.058171845972537994, -0.040346115827560425, -0.0999976396560669, 0.15494565665721893, 0.1570197343826294, -0.14806437492370605, -0.3123186230659485, 
    0.0919792577624321, 0.21828806400299072, 0.09126461297273636, -0.04632134363055229, 0.03728460893034935, -0.07104246318340302, 0.29558584094047546, 0.40309450030326843, 
    0.263639897108078, -0.09555220603942871, -0.2802734375, -0.09465999156236649, -0.22826939821243286, -0.06472374498844147, -0.05817025899887085, 0.20576517283916473, 
    0.20168983936309814, -0.2515515983104706, -0.3064257800579071, -0.23248572647571564, 0.0680118054151535, 0.13591066002845764, 0.1805216372013092, 0.1328810155391693, 
    0.06878046691417694, -0.1468043327331543, -0.1753944307565689, 0.22091449797153473, 0.027413954958319664, 0.26579201221466064, -0.08179144561290741, 0.018662774935364723, 
    -0.262464314699173, -0.06030571833252907, -0.003261277684941888, 0.12926973402500153, 0.051418378949165344, 0.09290473163127899, 0.0435187853872776, -0.08278319984674454, 
    -0.03638404235243797, -0.15449875593185425, -0.008322450332343578, -0.15347270667552948, -0.10994361340999603, 0.12057112902402878, 0.14254190027713776, 0.10012143105268478, 
    -0.10694389790296555, 0.040906742215156555, 0.1954936385154724, -0.009574458003044128, 0.25578153133392334, -0.05905024707317352, -0.07466550916433334, -0.07871991395950317, 
    -0.09228330105543137, -0.3312651216983795, -0.09714911133050919, 0.04601982980966568, 0.01259128749370575, 0.22738465666770935, -0.20026946067810059, -0.1399746835231781, 
    -0.17850850522518158, -0.24840547144412994, 0.1597580462694168, 0.1436072438955307, -0.12626777589321136, 0.1661740094423294, -0.046714041382074356, -0.011759326793253422, 
    0.16418227553367615, -0.22192265093326569, 0.10025814920663834, 0.024064423516392708, -0.19688788056373596, -0.12922371923923492, 0.014852375723421574, -0.21471484005451202, 
    0.10160085558891296, -0.06979444622993469, -0.005611024331301451, 0.03356894105672836, -0.13702595233917236, -0.18847696483135223, -0.1283036321401596, 0.0771918073296547, 
    0.12612393498420715, 0.040567755699157715, -0.3828785717487335, -0.14787927269935608, -0.017787348479032516, -0.2905759811401367, 0.24977001547813416, 0.06361230462789536, 
    0.0827198401093483, -0.004294015932828188, 0.09081321209669113, 0.027109941467642784, -0.15865208208560944, 0.09354444593191147, -0.22488099336624146, -0.061998702585697174, 
    -0.1654522567987442, -0.0018496316624805331, -0.24489738047122955, 0.23663724958896637, 0.07412543147802353, 0.12068507820367813, -0.1380871683359146, 0.13294535875320435, 
    -0.329781711101532, -0.012081215158104897, -0.11464288830757141, -0.004133907146751881, -0.30063173174858093, 0.0022777202539145947, 0.028511036187410355, 0.038471855223178864, 
    0.08397890627384186, -0.14097699522972107, -0.10200564563274384, -0.09949054569005966, 0.12739107012748718, 0.07481999695301056, 0.03298110514879227, 0.13480018079280853, 
    0.0938929095864296, 0.0470634289085865, 0.26580965518951416, -0.38156813383102417, 0.07995811104774475, 0.01184882689267397, 0.005780944600701332, -0.446745902299881, 
    0.13252729177474976, -0.316028356552124, 0.23925267159938812, -0.15839672088623047, -0.0039004753343760967, -0.08691751956939697, -0.03939521685242653, -0.008856439031660557, 
    -0.16919289529323578, 0.04064503312110901, -0.3545461595058441, 0.21532750129699707, -0.03566128760576248, -0.40823274850845337, -0.3692518472671509, 0.22864669561386108, 
    -0.21609380841255188, 0.10309526324272156, -0.10031889379024506, 0.02124667353928089, -0.13897716999053955, 0.22573775053024292, 0.15943939983844757, 0.0954938530921936, 
    -0.27941063046455383, 0.1657920926809311, 0.05439169704914093, -0.16335761547088623, -0.13401146233081818, 0.18487930297851562, -0.0718173235654831, -0.3454743027687073, 
    0.20854732394218445, 0.14896975457668304, -0.27078932523727417, 0.18542391061782837, -0.0896470695734024, -0.25498148798942566, -0.0307207852602005, 0.20437628030776978, 
    -0.13567666709423065, -0.04113486781716347, 0.11508592218160629, -0.03838389739394188, -0.07722069323062897, -0.04002026841044426, -0.07597079873085022, -0.010395045392215252, 
    -0.1856946349143982, -0.2326045036315918, -0.08321990817785263, -0.2846983075141907, 0.004576241597533226, 0.09430285543203354, -0.05008810758590698, -0.28813380002975464, 
    -0.24002976715564728, 0.07973116636276245, 0.021130643784999847, -0.27702558040618896, 0.046578556299209595, -0.41052114963531494, 0.03197481855750084, 0.10214278846979141, 
    0.017042269930243492, -0.06975504010915756, 0.13608935475349426, -0.38738298416137695, 0.03080074116587639, -0.34777510166168213, -0.1854967474937439, 0.16088363528251648, 
    -0.045877210795879364, 0.0908907949924469, -0.07569456845521927, 0.23970907926559448, 0.04954031482338905, 0.043721817433834076, 0.015037130564451218, -0.37688907980918884, 
    0.15233318507671356, -0.04256110638380051, -0.22454681992530823, 0.14477580785751343, -0.06292255222797394, -0.14151981472969055, -0.0767333135008812, 0.09939894080162048, 
    -0.17199793457984924, 0.1662088930606842, -0.19668824970722198, -0.35170674324035645, -0.007789402734488249, 0.35620588064193726, -0.032238349318504333, 0.1123109683394432, 
    -0.15090243518352509, 0.04859524592757225, -0.08946622908115387, -0.2074676752090454, -0.019740812480449677, -0.0408940389752388, 0.18653252720832825, 0.10137859731912613, 
    -0.057211972773075104, 0.1706661432981491, -0.3002271056175232, 0.04343508183956146, 0.1588600128889084, 0.02552792802453041, 0.017130171880126, -0.22311745584011078, 
    -0.04022948443889618, -0.015558137558400631, 0.03195680305361748, 0.05051679536700249, -0.05506216362118721, -0.06820155680179596, 0.17789091169834137, -0.017046429216861725, 
    -0.02241375483572483, 0.3096468150615692, -0.06689153611660004, -0.026457419618964195, 0.003617440816015005, 0.12591026723384857, -0.06772278994321823, -0.10889104008674622, 
    0.15423178672790527, -0.0532841756939888, 0.052560631185770035, 0.12816382944583893, -0.00784377846866846, 0.02806335687637329, -0.054501086473464966, -0.049289919435977936, 
    -0.07750791311264038, 0.07092905044555664, -0.1734815090894699, -0.08298125863075256, 0.20560157299041748, -0.027145370841026306, 0.15542112290859222, 0.19466109573841095, 
    -0.07522587478160858, -0.07416161149740219, -0.2823709547519684, 0.04743809252977371, 0.1308780461549759, 0.14466828107833862, 0.06276970356702805, 0.05668148025870323, 
    0.02651664800941944, -0.05264507234096527, -0.052275918424129486, 0.044149406254291534, -0.0955718532204628, -0.31881260871887207, -0.33409062027931213, -0.2903226315975189, 
    0.053993403911590576, 0.09634701907634735, -0.11781469732522964, -0.08016255497932434, 0.08312975615262985, 0.25625908374786377, 0.15069818496704102, -0.1311752051115036, 
    -0.01562628336250782, -0.008473742753267288, 0.13049563765525818, 0.25507330894470215, -0.09408129751682281, 0.07147163152694702, 0.09645465761423111, -0.03439290076494217, 
    0.10726384818553925, -0.08300402015447617, 0.004870703909546137, 0.15728965401649475, -0.379240483045578, -0.042576711624860764, 0.09443441778421402, 0.1856267899274826, 
    -0.04973534122109413, -0.2661341726779938, 0.044726211577653885, 0.11494937539100647, 0.128422349691391, 0.32703447341918945, 0.0028045198414474726, -0.08400285243988037, 
    -0.09866296499967575, -0.061464905738830566, 0.14055654406547546, 0.039268046617507935, 0.19097580015659332, -0.01806804910302162, -0.06857556104660034, -0.1576746255159378, 
    -0.02599969692528248, -0.06060328707098961, -0.13067983090877533, 0.015327119268476963, -0.2024620622396469, -0.08440586179494858, 0.0035164454020559788, -0.2241450548171997, 
    -0.000702003831975162, -0.3763774633407593, 0.1671997308731079, -0.10977043211460114, 0.09559306502342224, 0.14469558000564575, -0.03176642954349518, 0.13620641827583313, 
    0.23634783923625946, 0.19646374881267548, -0.08300647139549255, -0.07775521278381348, -0.15468794107437134, 0.21154756844043732, 0.011221788823604584, 0.04477376490831375, 
    0.06823976337909698, 0.16869138181209564, -0.2125166356563568, -0.11676368117332458, 0.18417057394981384, 0.10710930824279785, -0.22080504894256592, -0.23218661546707153, 
    0.008309693075716496, -0.0003166605019941926, 0.31683629751205444, -0.1272805780172348, -0.10458081215620041, 0.04054608568549156, 0.1985730677843094, -0.033022426068782806, 
    0.08708718419075012, -0.12334706634283066, 0.1367848515510559, -0.35198265314102173, 0.12237012386322021, 0.11354778707027435, 0.13331888616085052, 0.14378461241722107, 
    0.11924073845148087, -0.06472332030534744, -0.19234462082386017, -0.00017651845701038837, -0.1830035150051117, -0.5693877935409546, 0.13323405385017395, 0.024675654247403145, 
    -0.23203612864017487, -0.0035072495229542255, 0.17553560435771942, -0.2900041937828064, -0.07939735054969788, 0.11904766410589218, -0.08382784575223923, 0.22844412922859192, 
    -0.08219949901103973, 0.06360859423875809, -0.4312068521976471, -0.008239859715104103, 0.1195935532450676, -0.3130761682987213, 0.006474591791629791, 0.14792336523532867, 
    0.07505224645137787, -0.08066479861736298, 0.0030576877761632204, -0.12242729216814041, -0.1631881445646286, -0.13198892772197723, -0.2249569296836853, 0.07103905826807022, 
    0.03994392976164818, 0.13580322265625, -0.07495687156915665, -0.048707008361816406, 0.016273776069283485, -0.16792625188827515, -0.28010404109954834, 0.04793794825673103, 
    -0.335721880197525, -0.10533826798200607, -0.14469151198863983, -0.04728908836841583, 0.05284729227423668, 0.23215007781982422, 0.2392343282699585, -0.03542720898985863, 
    0.32783037424087524, 0.18668228387832642, -0.26839950680732727, -0.024858206510543823, -0.17397914826869965, 0.18550333380699158, 0.1425439715385437, -0.06418705731630325, 
    -0.2109406739473343, 0.15253625810146332, 0.131745383143425, -0.179423987865448, 0.01821746677160263, 0.05869811028242111, -0.07822886109352112, 0.006231510546058416, 
    0.04300447180867195, 0.07470516860485077, 0.17823265492916107, 0.12768103182315826, 0.19354043900966644, 0.12314719706773758, 0.14597885310649872, 0.124748095870018, 
    0.06136626750230789, -0.00674558337777853, -0.08114421367645264, -0.16886630654335022, 0.11288214474916458, -0.08129088580608368, 0.05905074626207352, -0.014102695509791374, 
    -0.07490487396717072, 0.023187316954135895, -0.034900784492492676, -0.05938304215669632, -0.02706678956747055, -0.019359199330210686, 0.05040203407406807, 0.09492398798465729, 
    0.10392101109027863, -0.15712864696979523, -0.11126510053873062, -0.0867551863193512, -0.021468693390488625, 0.03807934373617172, 0.06484462320804596, -0.06532587110996246, 
    -0.07013940066099167, 0.007201341912150383, -0.23297818005084991, 0.19060704112052917, -0.0850294828414917, -0.14123214781284332, 0.08278265595436096, 0.2285706102848053, 
    -0.38907289505004883, -0.2232905775308609, 0.116276316344738, -0.033645275980234146, 0.01857222244143486, 0.230386421084404, 0.05612242966890335, 0.2608148753643036, 
    0.0360187329351902, -0.03888393193483353, -0.06891262531280518, 0.013075285591185093, 0.07052987813949585, -0.09770070761442184, 0.03690594807267189, -0.020727025344967842, 
    0.2153320610523224, 0.22341211140155792, -0.05638402700424194, 0.06304819136857986, -0.05206552892923355, 0.12904004752635956, 0.18512308597564697, 0.25067147612571716, 
    -0.035537704825401306, -0.06091531366109848, 0.1525459736585617, -0.2635044455528259, -0.044216033071279526, -0.1398332267999649, -0.11559035629034042, 0.08435231447219849, 
    0.01644255593419075, 0.11007987707853317, -0.15402689576148987, 0.007913795299828053, -0.008267002180218697, 0.14093054831027985, -0.09082599729299545, -0.10032918304204941, 
    0.15094467997550964, 0.15026234090328217, -0.20210574567317963, -0.013289320282638073, -0.27520936727523804, 0.08442244678735733, 0.1251462697982788, -0.1064283549785614, 
    -0.05442504584789276, 0.05057309567928314, 0.12730969488620758, -0.08376511931419373, 0.1435488760471344, 0.11803765594959259, -0.025551553815603256, 0.02916453219950199, 
    -0.06369729340076447, 0.07098162174224854, 0.058317869901657104, -0.21805238723754883, 0.07468676567077637, 0.23889361321926117, 0.0557534359395504, 0.022386489436030388, 
    0.058821264654397964, 0.08622060716152191, -0.33449581265449524, 0.3689122498035431, -0.24628199636936188, 0.17750310897827148, -0.1703801453113556, -0.1100255697965622, 
    0.14931069314479828, -0.17923708260059357, 0.12045658379793167, 0.04338150471448898, 0.09378267079591751, -0.4336429238319397, 0.1375691443681717, -0.18534278869628906, 
    0.19457636773586273, -0.09513339400291443, -0.01576770655810833, -0.12777918577194214, 0.010358663275837898, 0.30727511644363403, -0.19850245118141174, 0.13997291028499603, 
    -0.22144483029842377, 0.23328739404678345, -0.34858906269073486, 0.10550221800804138, -0.29059213399887085, -0.1754292994737625, -0.10182161629199982, 0.0601576566696167, 
    -0.16513098776340485, -0.0064019132405519485, 0.13765405118465424, -0.15076906979084015, -0.26972678303718567, -0.11363503336906433, 0.04995442181825638, 0.18083560466766357, 
    -0.09296862781047821, -0.03512520343065262, 0.26926106214523315, -0.14521639049053192, 0.33395493030548096, 0.12275674194097519, 0.01047138124704361, 0.18048879504203796, 
    -0.021246206015348434, 0.004546922165900469, -0.08833727985620499, -0.04414166882634163, 0.15750977396965027, -0.13161207735538483, -0.03288979455828667, 0.10778762400150299, 
    -0.10275861620903015, 0.20337164402008057, 0.08633891493082047, -0.09289906919002533, 0.02273712120950222, 0.30980393290519714, -0.021182643249630928, 0.18696945905685425, 
    -0.09493966400623322, 0.33752140402793884, 0.2644559144973755, -0.18490266799926758, -0.002300570486113429, -0.34051790833473206, 0.15446960926055908, 0.05206877365708351, 
    -0.0509762167930603, -0.23601536452770233, -0.15518680214881897, 0.05783059448003769, -0.10897814482450485, 0.1826184093952179, -0.0952620655298233, -0.026312602683901787, 
    -0.13226059079170227, 0.024676240980625153, 0.2010897845029831, -0.04060131311416626, -0.1366950124502182, -0.21539521217346191, -0.21652644872665405, 0.12831446528434753, 
    -0.39748793840408325, 0.36072319746017456, -0.0658092126250267, -0.11559952050447464, 0.25295206904411316, 0.02529684454202652, 0.2804921567440033, -0.02654765546321869, 
    -0.1468275934457779, 0.19059574604034424, 0.23891857266426086, 0.12586535513401031, -0.07094346731901169, 0.016406333073973656, -0.12474501878023148, -0.013060645200312138, 
    0.06493962556123734, 0.030261296778917313, -0.058890458196401596, 0.09530675411224365, 0.06886651366949081, -0.030539460480213165, -0.21614159643650055, 0.103498674929142, 
    0.008984273299574852, -0.03225289657711983, -0.09060602635145187, 0.06137135624885559, 0.2529709041118622, -0.0035770293325185776, 0.05772342160344124, -0.07508265972137451, 
    -0.0573747381567955, -0.08015884459018707, 0.14103105664253235, -0.10771053284406662, -0.18610529601573944, 0.29597002267837524, -0.13316790759563446, 0.229353129863739, 
    -0.09201326221227646, 0.17505715787410736, -0.053026892244815826, 0.24155189096927643, 0.21845969557762146, 0.02051244117319584, 0.03569600358605385, 0.014029872603714466, 
    0.08158650249242783, 0.06813128292560577, 0.325825959444046, 0.06345905363559723, -0.10183995217084885, 0.04056132957339287, 0.22891777753829956, -0.02378814108669758, 
    -0.11204325407743454, 0.1168845146894455, -0.05514063313603401, 0.13681545853614807, 0.2032097727060318, 0.16726219654083252, -0.16428954899311066, 0.12367334216833115, 
    -0.12360530346632004, -0.05320216342806816, 0.013325084000825882, 0.12959259748458862, 0.07358505576848984, 0.12827523052692413, -0.05681278184056282, 0.04347386956214905, 
    -0.13071060180664062, 0.105401910841465, -0.11144588142633438, -0.05644205957651138, -0.18564775586128235, 0.044443219900131226, -0.22641167044639587, -0.1589501053094864, 
    -0.0656752958893776, -0.04088904708623886, 0.2568070590496063, -0.08497011661529541, -0.17753355205059052, 0.11764953285455704, -0.4028572738170624, 0.021207552403211594, 
    0.22711986303329468, 0.2227313071489334, -0.01780618727207184, -0.06702414155006409, -0.22428317368030548, -0.03818546608090401, 0.08010420203208923, 0.16910779476165771, 
    0.0384228490293026, -0.15174409747123718, 0.1267298310995102, 0.07197561860084534, -0.22632358968257904, -0.25067177414894104, -0.34133580327033997, 0.2000252604484558, 
    -0.014614198356866837, 0.045685332268476486, -0.00611047213897109, -0.04556924104690552, 0.15415030717849731, -0.3122236132621765, -0.0053652198985219, -0.16072618961334229, 
    -0.5792003273963928, -0.00967506691813469, -0.05619538575410843, -0.23625728487968445, -0.09237536042928696, 0.01689109206199646, -0.34170567989349365, 0.06901553273200989, 
    0.00039593453402630985, -0.2893914580345154, 0.1447148472070694, -0.08776034414768219, -0.10122840106487274, -0.15467289090156555, 0.07304342091083527, 0.22313715517520905, 
    -0.0281694233417511, 0.163713738322258, 0.07466652244329453, -0.03938367962837219, -0.21218404173851013, -0.10552770644426346, -0.0797022357583046, -0.03748609498143196, 
    0.07405750453472137, 0.1067066639661789, -0.0728549063205719, -0.012654963880777359, -0.04891204461455345, 0.05149983987212181, -0.30796489119529724, 0.07051990926265717, 
    0.2211233675479889, -0.22585073113441467, 0.16454139351844788, 0.2916003465652466, 0.008816394954919815, 0.02138962782919407, -0.3333175480365753, -0.11250608414411545, 
    -0.04265647009015083, 0.18501101434230804, 0.17347128689289093, -0.134035125374794, 0.1339191347360611, -0.07569373399019241, -0.09176997095346451, -0.07525207847356796, 
    0.007459084969013929, 0.1809547394514084, 0.236134871840477, 0.2405308485031128, 0.16765685379505157, -0.10962194204330444, 0.14362488687038422, -0.10494735836982727, 
    -0.09668301790952682, 0.08885908126831055, -0.010580502450466156, 0.059910766780376434, -0.1389145851135254, -0.04676330089569092, -0.0005899342359043658, 0.10377652198076248, 
    -0.013765697367489338, -0.19357234239578247, -0.11468236893415451, 0.11049019545316696, 0.13605235517024994, -0.12849333882331848, -0.560447633266449, -0.11818072944879532, 
    0.03735750541090965, 0.14312897622585297, -0.38617247343063354, 0.11751963198184967, -0.09430748224258423, -0.04232671856880188, 0.019298270344734192, -0.11442585289478302, 
    -0.28159299492836, 0.05232083797454834, 0.044613100588321686, -0.09679337590932846, 0.1910414844751358, 0.027921995148062706, 0.03017577901482582, -0.07426109910011292, 
    -0.18510733544826508, 0.04759950563311577, 0.00015249635907821357, 0.04417857900261879, -0.06502239406108856, 0.029717696830630302, -0.06863871216773987, -0.0660795196890831, 
    -0.030696548521518707, 0.0367899164557457, 0.05284987762570381, 0.10467126965522766, -0.14144816994667053, -0.1891975849866867, -0.005362353753298521, -0.0050459313206374645, 
    0.06982364505529404, -0.19521170854568481, -0.010365767404437065, 0.12313510477542877, -0.06049670651555061, 0.057005465030670166, -0.01613372378051281, 0.11389380693435669, 
    0.03925609588623047, 0.11279196292161942, -0.15038266777992249, -0.0667693018913269, -0.23967696726322174, -0.0020564740989357233, 0.05914803594350815, 0.06309769302606583, 
    0.28297948837280273, -0.15151415765285492, -0.13792085647583008, -0.12490534782409668, -0.14403735101222992, -0.0697065070271492, -0.058898910880088806, -0.0732995793223381, 
    -0.20164409279823303, -0.15597020089626312, -0.22017715871334076, 0.04642869904637337, 0.11227922141551971, -0.007823904044926167, 0.1438751071691513, -0.12223120778799057, 
    -0.0339447557926178, 0.2131684273481369, 0.17162692546844482, -0.23951081931591034, -0.019789710640907288, -0.08586695790290833, 0.09639840573072433, -0.1545557826757431, 
    0.012327004224061966, 0.11679018288850784, -0.14287424087524414, -0.39066174626350403, -0.10928813368082047, 0.2285016030073166, -0.05926022678613663, 0.06477124989032745, 
    -0.07805955410003662, 0.052716854959726334, -0.07922085374593735, -0.1011885553598404, 0.056824374943971634, -0.2683272957801819, 0.09665239602327347, 0.15435652434825897, 
    -0.07759244740009308, 0.06590703129768372, -0.18669463694095612, 0.11468072235584259, 0.03291836008429527, 0.10604870319366455, 0.10236034542322159, 0.019085779786109924, 
    0.01772216334939003, -0.16959905624389648, -0.056919295340776443, 0.2788161337375641, 0.16295696794986725, 0.31513702869415283, -0.07290848344564438, -0.16298945248126984, 
    -0.019643766805529594, -0.05990633741021156, -0.2916089594364166, -0.09206707030534744, 0.1619865894317627, -0.002238818909972906, 0.11302626132965088, -0.05984099954366684, 
    -0.07677154988050461, 0.0448121577501297, 0.02545425109565258, 0.04974580183625221, -0.18313342332839966, 0.049840331077575684, -0.2111978381872177, 0.10416171699762344, 
    -0.06216239184141159, 0.21543820202350616, -0.3537338972091675, -0.015293053351342678, 0.04076765477657318, 0.0836474597454071, -0.133326917886734, -0.5685417056083679, 
    -0.038797639310359955, 0.2961961627006531, 0.10758589208126068, 0.2291620820760727, 0.08561496436595917, -0.23070454597473145, 0.06677256524562836, -0.33135849237442017, 
    -0.2030261605978012, -0.24058222770690918, 0.16069699823856354, 0.13441474735736847, -0.2580201327800751, 0.02819373644888401, 0.08413843810558319, 0.054415006190538406, 
    0.05904624983668327, 0.11960943788290024, -0.43449467420578003, -0.14405332505702972, 0.09057989716529846, -0.31839966773986816, 0.06815458834171295, -0.267092764377594, 
    0.14052614569664001, 0.2988252341747284, 0.19777289032936096, 0.3280453383922577, 0.12275294959545135, 0.05152646079659462, -0.09376049786806107, -0.22303326427936554, 
    0.04901617020368576, 0.3446896970272064, 0.10641894489526749, -0.2227630764245987, 0.02024768851697445, 0.19486293196678162, 0.14643234014511108, 0.046474386006593704, 
    -0.20428743958473206, 0.12985330820083618, 0.094745934009552, -0.2622615396976471, 0.4506379961967468, -0.17672976851463318, 0.2492281198501587, -0.12715519964694977, 
    -0.0901574194431305, 0.020827315747737885, -0.016705701127648354, -0.2869904041290283, -0.1945156306028366, -0.024952493607997894, -0.22145023941993713, 0.13058263063430786, 
    0.1071840301156044, -0.37820965051651, 0.258305162191391, -0.08983008563518524, -0.024010177701711655, 0.019503852352499962, -0.08920200169086456, 0.018297487869858742, 
    0.21451660990715027, 0.1380969136953354, 0.025202089920639992, 0.33918339014053345, 0.13200725615024567, 0.10765578597784042, -0.0908791720867157, -0.022940268740057945, 
    -0.05231251195073128, -0.32837098836898804, 0.3868820369243622, -0.329171746969223, 0.1343986541032791, -0.0804423913359642, -0.00615695072337985, 0.20430801808834076, 
    -0.12286031246185303, -0.025294914841651917, -0.20299308001995087, 0.05029116943478584, -0.10739769786596298, -0.1363697201013565, -0.08027949929237366, 0.2562553286552429, 
    0.0384155698120594, -0.24766932427883148, 0.028278086334466934, -0.021961664780974388, 0.08396343886852264, 0.03658076003193855, -0.10192766785621643, 0.18373960256576538, 
    -0.04053491726517677, 0.08587513118982315, -0.04645377770066261, 0.11650136858224869, 0.17827868461608887, 0.0036569489166140556, 0.1316145956516266, 0.10785119235515594, 
    0.038061708211898804, 0.052890844643116, 0.07191340625286102, -0.218569815158844, 0.2743050158023834, 0.21386262774467468, 0.10807091742753983, 0.13206033408641815, 
    0.09731362015008926, -0.004942306783050299, -0.06160976365208626, -0.09426600486040115, 0.2600749731063843, -0.06993629783391953, -0.05302177369594574, 0.23421518504619598, 
    0.07517225295305252, -0.028633765876293182, 0.11065942794084549, -0.03255018591880798, 0.13149422407150269, 0.26306939125061035, 0.09303539991378784, 0.040310088545084, 
    -0.22414807975292206, 0.05328875035047531, 0.020778877660632133, 0.11673542857170105, 0.163936048746109, -0.051181860268116, -0.14104144275188446, -0.10089584439992905, 
    0.008888095617294312, -0.10722474008798599, 0.08854132890701294, -0.040473271161317825, -0.029294950887560844, 0.1356576681137085, -0.037548553198575974, 0.04865102842450142, 
    -0.06760871410369873, 0.11032009869813919, 0.21583399176597595, 0.11079863458871841, -0.35503697395324707, -0.15729659795761108, -0.08660178631544113, -0.20438522100448608, 
    0.16336151957511902, 0.037259846925735474, -0.05549162998795509, -0.1175689697265625, 0.02460397779941559, 0.06481064110994339, 0.012646131217479706, -0.0831616222858429, 
    0.17599689960479736, 0.04155638441443443, -0.18990294635295868, 0.16652242839336395, -0.06124342232942581, 0.0261834803968668, 0.1755838543176651, 0.28015443682670593, 
    -0.1420067995786667, 0.07512868940830231, 0.03458278998732567, -0.021011754870414734, -0.38098272681236267, -0.08428370952606201, 0.0024782116524875164, 0.23360805213451385, 
    0.12887856364250183, -0.12317674607038498, -0.2059706151485443, -0.12998130917549133, -0.20626503229141235, -0.15912099182605743, 0.10588071495294571, -0.11043784767389297, 
    0.3316233456134796, -0.06832130998373032, -0.06163554638624191, 0.06965431571006775, -0.23878207802772522, 0.042353566735982895, 0.13413406908512115, -0.3301187753677368, 
    0.3023163974285126, -0.05539177358150482, -0.06296184659004211, -0.2585428059101105, -0.14290493726730347, -0.16334077715873718, -0.07275522500276566, -0.19274848699569702, 
    -0.1825443059206009, -0.0791214182972908, -0.3743508756160736, 0.30388304591178894, -0.16963623464107513, -0.013666702434420586, 0.17864304780960083, 0.04879314824938774, 
    -0.1970614641904831, -0.1948743760585785, 0.04184012487530708, -0.245986670255661, 0.06338299810886383, -0.2360631376504898, -0.17570240795612335, -0.24315080046653748, 
    -0.19416338205337524, 0.08421263098716736, 0.04336894303560257, 0.0024837516248226166, 0.05221239849925041, -0.14405609667301178, 0.01523087453097105, -0.15143568813800812, 
    -0.2313145399093628, 0.24309265613555908, 0.1098363995552063, 0.06577977538108826, 0.1142633855342865, -0.10899724066257477, -0.12793001532554626, -0.41870924830436707, 
    0.07851199060678482, 0.1846170425415039, -0.08906930685043335, 0.08009672164916992, 0.22672919929027557, -0.039887018501758575, 0.03880609571933746, 0.18950799107551575, 
    -0.01586359553039074, 0.143339142203331, 0.04396243765950203, -0.13853177428245544, -0.1455775797367096, 0.4304298758506775, -0.14537093043327332, -0.011847490444779396, 
    0.2538418471813202, -0.3324035704135895, 0.03689121454954147, 0.2528231143951416, 0.03512759879231453, -0.11248486489057541, -0.07034517079591751, -0.07389611750841141, 
    -0.1110985204577446, 0.2990347743034363, 0.00412867171689868, -0.19933007657527924, 0.07045602053403854, -0.1674336940050125, -0.1345818042755127, 0.03660639747977257, 
    0.2065138816833496, 0.3789524435997009, 0.053009118884801865, 0.2020338922739029, 0.08383429050445557, -0.1253904551267624, 0.13620741665363312, 0.2280234843492508, 
    -0.0447656624019146, -0.08646660298109055, 0.08691826462745667, -0.054638974368572235, 0.07258474081754684, -0.2877877354621887, -0.09746795147657394, -0.11444204300642014, 
    -0.019774824380874634, -0.06574241071939468, 0.1331874430179596, -0.13739854097366333, -0.037062592804431915, 0.11646496504545212, -0.062227874994277954, 0.05831427127122879, 
    -0.08321476727724075, 0.17577382922172546, 0.15184691548347473, -0.10936073213815689, 0.1154770627617836, 0.05967218801379204, -0.0796818733215332, 0.03550604730844498, 
    0.00444443617016077, 0.07246355712413788, 0.013631452806293964, -0.35727259516716003, -0.04971814900636673, 0.14586158096790314, 0.02347162924706936, 0.09966104477643967, 
    0.008364499546587467, -0.13417144119739532, -0.06173219904303551, -0.16629654169082642, 0.07060262560844421, 0.3389478027820587, 0.18093784153461456, 0.021852882578969002, 
    0.05749184638261795, 0.13028115034103394, -0.3338332772254944, 0.12857985496520996, -0.03819086402654648, -0.1879182904958725, 0.12324602156877518, 0.0578356496989727, 
    0.09307495504617691, -0.13887198269367218, 0.14569798111915588, 0.01443120464682579, 0.04479239881038666, 0.10910741239786148, -0.08555879443883896, -0.08238869905471802, 
    0.1565902829170227, -0.16353081166744232, 0.19731174409389496, 0.1000349149107933, -0.10454819351434708, 0.20816025137901306, -0.09031219035387039, -0.05382682383060455, 
    0.07887590676546097, 0.09917927533388138, 0.013579340651631355, -0.029881693422794342, -0.08116020262241364, -0.07440957427024841, -0.13089123368263245, -0.4205828309059143, 
    -0.07596995681524277, 0.1284719705581665, -0.17123834788799286, -0.296410471200943, 0.4783928096294403, -0.2650829255580902, -0.09822866320610046, 0.009845537133514881, 
    0.12407808750867844, -0.09281995892524719, -0.04925122857093811, -0.21694399416446686, -0.0016110598808154464, 0.23121653497219086, 0.2798873484134674, -0.08646021038293839, 
    -0.06893148273229599, 0.057118333876132965, -0.08458482474088669, 0.2671448290348053, -0.5021392703056335, -0.12279034405946732, -0.10199958831071854, 0.06716359406709671, 
    -0.22620317339897156, -0.10164764523506165, -0.16628772020339966, -0.05503581091761589, -0.05337217450141907, 0.012534942477941513, -0.27842000126838684, -0.1479516625404358, 
