#ifndef WEIGHTS_BIAS_FLOAT32_H
#define WEIGHTS_BIAS_FLOAT32_H

#include <stdint.h>

static const float WEIGHTS[] = {
-0.0003080547321587801, -0.002770960796624422, -0.004264704417437315, 0.02575540915131569, 0.03890987113118172, 0.07601065933704376, 0.012575706467032433, 0.0036016996018588543, 
    0.004951883107423782, -0.012341407127678394, -0.013514037244021893, -0.004630750510841608, -0.008500907570123672, -0.006883001886308193, -0.0016503572696819901, 0.006462133955210447, 
    -0.008709910325706005, 0.007648756727576256, -0.0023371893912553787, -0.009637703187763691, -0.0027534186374396086, 0.004193353466689587, 0.014743191190063953, 0.020286014303565025, 
    0.0009815195808187127, 0.0007650908664800227, 0.00387914152815938, -0.01663929969072342, -0.012348855845630169, -0.004397107753902674, 0.0005474319332279265, -0.008207660168409348, 
    -0.007809044793248177, 0.000675005023367703, 0.008361977525055408, -0.0008432887843810022, -0.007442438043653965, -0.00455473130568862, 0.0037426105700433254, 0.05997232720255852, 
    0.11019919067621231, 0.047779686748981476, 0.005429370794445276, -0.0117200817912817, 0.00529839564114809, 0.05331255495548248, 0.07288238406181335, 0.08266016095876694, 
    0.016285164281725883, 0.01696995086967945, 0.022389575839042664, -0.08461134135723114, -0.0719713494181633, -0.12019665539264679, -8.001588867045939e-05, 0.0032709287479519844, 
    0.004996672738343477, -0.00736751314252615, 0.004457874223589897, 0.02712119370698929, -0.007740549743175507, 0.007267291191965342, -0.0022286309394985437, 0.15432904660701752, 
    0.1491038054227829, 0.1590048223733902, -0.016263974830508232, 0.0035745096392929554, 0.012834128923714161, -0.006566822063177824, 0.018687108531594276, -0.018141336739063263, 
    0.002632456598803401, 0.008752449415624142, 0.0005517781828530133, -0.0805428996682167, -0.08070322871208191, -0.07372941821813583, -0.00836704857647419, -0.005285031162202358, 
    0.003935276530683041, 0.034111715853214264, 0.019402742385864258, 0.018033044412732124, 0.00017712663975544274, -0.009538578800857067, 0.011156998574733734, -0.10442308336496353, 
    -0.06300025433301926, -0.09054577350616455, 0.011649137362837791, -0.003870938206091523, 0.0028625978156924248, 0.07027959823608398, 0.06569472700357437, 0.057518426328897476, 
    0.009905672632157803, 0.0013948336709290743, 0.007022422272711992, -0.078086718916893, -0.05517102777957916, -0.02971002832055092, 0.006354989018291235, -0.009340491145849228, 
    0.0023771696723997593, -0.05722115933895111, -0.039341412484645844, -0.050588492304086685, -0.020411506295204163, -0.01929260976612568, -0.017865633592009544, -0.05517050623893738, 
    -0.03242793679237366, -0.0278435330837965, -0.004050763789564371, -0.0010395533172413707, -0.0030697407200932503, -0.0010313323000445962, 0.008922966197133064, 0.007826569490134716, 
    -0.01829567737877369, 0.004457662347704172, 0.02228463813662529, -0.03564581647515297, -0.023804042488336563, -0.01938951574265957, -0.0001957174827111885, -0.0018914344254881144, 
    0.0002888023154810071, -0.027902163565158844, -0.0008486129809170961, 0.019379472360014915, 0.006067096721380949, -0.002424261998385191, 0.0028509688563644886, 0.022152621299028397, 
    0.01202868577092886, 0.01846880093216896, -0.0076223681680858135, 0.005550190806388855, -0.0075848824344575405, -0.0612734854221344, -0.0716351568698883, -0.021188801154494286, 
    0.007044166326522827, -0.0464148111641407, -0.012080688029527664, -0.054464466869831085, 0.015400338917970657, 0.014213543385267258, -0.0018409392796456814, 0.001676349202170968, 
    0.00358013017103076, 0.014174837619066238, 0.015769384801387787, 0.0018953083781525493, 0.010227375663816929, -0.0011327009415253997, 0.005911990534514189, 0.08341944962739944, 
    0.07805512100458145, 0.09528235346078873, 0.009477313607931137, -0.0012162962229922414, -0.007397304754704237, -0.011228579096496105, 0.0061403317376971245, 0.02194458432495594, 
    0.026150494813919067, -0.01584300398826599, -0.029977060854434967, 0.0037144566886126995, -0.00024997946457006037, 0.03238297626376152, 0.0011225462658330798, 0.0013641660334542394, 
    -0.004087433218955994, 0.02934226766228676, 0.011092275381088257, -0.01447179913520813, 0.0038000200875103474, 0.00016788224456831813, 0.00934509839862585, 0.0023418839555233717, 
    0.00966651737689972, -0.00343847437761724, 0.010732044465839863, 0.0012324489653110504, 0.004141292069107294, -0.02994258888065815, -0.01614578627049923, -0.010062485001981258, 
    -0.01006352249532938, -0.12053131312131882, -0.20379947125911713, 0.07175911217927933, 0.028351513668894768, -0.2620226740837097, -0.18843944370746613, 0.14596720039844513, 
    -0.04974183440208435, -0.34290340542793274, 0.018201205879449844, 0.16058038175106049, -0.01042892038822174, 0.12315493822097778, 0.018656278029084206, -0.025052303448319435, 
    -0.019370296970009804, -0.15831319987773895, -0.339061975479126, -0.08039911836385727, 0.16941441595554352, -0.5931532979011536, 0.24006424844264984, 0.41580504179000854, 
    -0.33952075242996216, -0.1935628056526184, -0.05223863944411278, 0.5591554641723633, -0.30568161606788635, -0.633455216884613, 0.05810065194964409, 0.2846203148365021, 
    0.1960318237543106, -0.2673013210296631, 0.11088837683200836, 0.11254152655601501, 0.13634108006954193, -0.04945502057671547, 0.15965485572814941, -0.34340572357177734, 
    0.0894913524389267, -0.055824194103479385, 0.055949658155441284, -0.205265611410141, -0.046982623636722565, 0.07491840422153473, -0.15492397546768188, -0.12170201539993286, 
    0.08933012187480927, 0.1903056502342224, -0.47347357869148254, 0.12402905523777008, -0.0924086645245552, -0.04249785467982292, 0.06908165663480759, -0.4489940106868744, 
    -0.19328410923480988, -0.1071583479642868, -0.44378533959388733, 0.25296762585639954, 0.270418256521225, 0.19133290648460388, 0.3707761764526367, -0.005653567612171173, 
    -0.1385878473520279, -0.8566706776618958, 0.039132267236709595, 0.16109304130077362, -0.22656084597110748, -0.16607356071472168, 0.03077651374042034, 0.06184237450361252, 
    0.224598228931427, 0.1836683601140976, -0.23968079686164856, -0.16849377751350403, -0.26828423142433167, -0.27399370074272156, -0.078020378947258, -0.20990587770938873, 
    -0.12168138474225998, 0.15770398080348969, 0.0392305813729763, -0.1795690953731537, -0.2791889011859894, 0.199596107006073, -0.12993551790714264, -0.19707340002059937, 
    -0.2654680013656616, -0.18592162430286407, -0.12693627178668976, -0.0924074798822403, -0.027206307277083397, 0.25788193941116333, 0.28702396154403687, 0.12429152429103851, 
    0.23276114463806152, 0.3625868856906891, -0.01886163093149662, -0.17689262330532074, 0.2539658546447754, 0.355171263217926, -0.09060869365930557, 0.06539157778024673, 
    0.21461805701255798, 0.0047814869321882725, -0.342597097158432, 0.1693756878376007, -0.00631286483258009, 0.20997682213783264, 0.10097306966781616, -0.03569435700774193, 
    -0.1692684143781662, -0.1375403255224228, -0.0073385038413107395, -0.23456710577011108, 0.12252051383256912, 0.15610401332378387, 0.014525298960506916, -0.24938754737377167, 
    0.2710781991481781, -0.12249645590782166, -0.14488355815410614, 0.08693642914295197, 0.295326828956604, 0.420943945646286, -0.062056154012680054, -0.04242438077926636, 
    -0.1440061330795288, 0.08500442653894424, 0.05260591208934784, 0.01974785514175892, 0.10933264344930649, -0.09335894882678986, -0.12839855253696442, -0.29953429102897644, 
    -0.20391660928726196, 0.05501502379775047, -0.10909084230661392, 0.04065385460853577, 0.05326245725154877, -0.01083094347268343, 0.3242534101009369, 0.15494297444820404, 
    0.03576883673667908, -0.2564028203487396, 0.34190377593040466, 0.05197012424468994, 0.13831576704978943, 0.2650032043457031, 0.16326066851615906, -0.06776267290115356, 
    -0.38583850860595703, -0.08233930170536041, -0.3067266047000885, 0.22153234481811523, 0.4275496006011963, 0.012198335491120815, 0.10766289383172989, -0.07939071953296661, 
    -0.43126538395881653, -0.07155682146549225, 0.17052799463272095, 0.0592040941119194, -0.10478530824184418, 0.36590132117271423, -0.3879375457763672, 0.27187278866767883, 
    -0.007679026573896408, 0.048458341509103775, -0.345797598361969, -0.34884774684906006, 0.30134153366088867, 0.3780157268047333, 0.12558165192604065, -0.01272531971335411, 
    0.5853787064552307, 0.14522358775138855, -0.27614158391952515, -0.21919360756874084, -0.3179128170013428, 0.2668682336807251, 0.4666731655597687, -0.10209693014621735, 
    0.08821593225002289, -0.2637140154838562, -0.08952339738607407, 0.1236315369606018, 0.2358272224664688, -0.060705315321683884, 0.32322847843170166, -0.3593546748161316, 
    0.26446816325187683, 0.35802823305130005, 0.11905018985271454, -0.06557603180408478, 0.03138943389058113, -0.13004358112812042, -0.1094961166381836, -0.03050411492586136, 
    0.23377428948879242, -0.13604038953781128, -0.015344740822911263, 0.017985155805945396, -0.5191780924797058, -0.07310014218091965, 0.3088372051715851, 0.026961803436279297, 
    -0.23704396188259125, -0.3350975513458252, -0.12700338661670685, 0.1549820601940155, 0.44210100173950195, 0.1992773562669754, -0.04684212803840637, -0.5301489233970642, 
    0.3505065143108368, 0.06430796533823013, 0.0062994337640702724, 0.13200075924396515, 0.09601298719644547, -0.4769960343837738, -0.23997706174850464, 0.31048527359962463, 
    0.09248989075422287, 0.13733072578907013, 0.10895425826311111, -0.005435088649392128, 0.3204052150249481, 0.5118847489356995, -0.8727759122848511, 0.04290365055203438, 
    -0.181069478392601, 0.18424271047115326, 0.12192196398973465, 0.30969494581222534, -0.5321387648582458, 0.13402950763702393, -0.07377983629703522, -0.11974857747554779, 
    0.5818952322006226, 0.0758451297879219, -0.44465765357017517, 0.17840801179409027, 0.2539127469062805, -0.08785559982061386, 0.08080114424228668, -0.012934815138578415, 
    -0.43276017904281616, 0.10738207399845123, -0.1961454302072525, -0.1639147847890854, -0.47485268115997314, 0.017588721588253975, -0.09392789006233215, -0.09467684477567673, 
    0.129343643784523, -0.12260941416025162, -0.09001141041517258, -0.33899828791618347, -0.5655608177185059, 0.025232939049601555, -0.022108647972345352, -0.16974692046642303, 
    0.33215492963790894, 0.0758945494890213, 0.08616673946380615, -0.003873684676364064, 0.2185860574245453, 0.12783199548721313, -0.019625330343842506, -0.18501164019107819, 
    -0.4410308301448822, 0.20037882030010223, 0.1308807134628296, -0.17465315759181976, -0.2081432044506073, -0.05329296365380287, -0.12074590474367142, 0.005846159532666206, 
    -0.03627602383494377, 0.274626225233078, -0.30010494589805603, 0.11755604296922684, -0.10825216770172119, 0.4912949502468109, 0.15976649522781372, -0.3670662045478821, 
    0.06848280131816864, 0.017870133742690086, 0.014554215595126152, -0.3040810525417328, 0.022162744775414467, 0.05360947176814079, -0.19800950586795807, 0.08825837075710297, 
    0.042307477444410324, 0.23295897245407104, -0.6379863619804382, -0.1656152904033661, -0.017339693382382393, -0.11928083747625351, -0.47917449474334717, -0.2440023422241211, 
    -0.06503769010305405, -0.777754008769989, 0.22383786737918854, 0.13985827565193176, 0.021075228229165077, 0.166359081864357, -0.2578817307949066, -0.10700112581253052, 
    -0.35599803924560547, -0.21698839962482452, 0.03801523149013519, -0.07500220835208893, -0.03030385635793209, -0.17267084121704102, -0.17779426276683807, -0.06578678637742996, 
    -0.08874914795160294, -0.3130214512348175, -0.0015240778448060155, 0.09422218799591064, -0.21456557512283325, -0.3525502383708954, -0.0772307887673378, 0.3288995027542114, 
    -0.05125364288687706, -0.47382476925849915, -0.10994461178779602, -0.10226217657327652, 0.00021196492889430374, -0.0841515064239502, 0.1711948662996292, -0.010293563827872276, 
    -0.41597551107406616, 0.11359771341085434, 0.06934373825788498, -0.033656857907772064, -0.1956312209367752, -0.18752573430538177, -0.13870082795619965, 0.17941997945308685, 
    -0.02775861881673336, -0.41279861330986023, 0.06188918277621269, -0.03227760270237923, 0.17811326682567596, -0.2485581785440445, 0.01819370873272419, -0.24649032950401306, 
    -0.034552138298749924, -0.6234474778175354, -0.6421672701835632, -0.048843059688806534, 0.3003620505332947, -0.3439396023750305, -0.11795195937156677, 0.18094870448112488, 
    0.13143210113048553, 0.32884350419044495, -0.2507077157497406, 0.5544229745864868, 0.2105116993188858, -0.09670569747686386, -0.9260882139205933, 0.036609504371881485, 
    0.2703455984592438, -0.11811290681362152, -0.20031534135341644, -0.23382553458213806, 0.08674352616071701, 0.2691081464290619, -0.02701329067349434, -0.239451602101326, 
    -0.2883056104183197, -0.48875725269317627, -0.2618446350097656, -0.09695018827915192, 0.11964395642280579, -0.19910283386707306, 0.2287462055683136, 0.511116087436676, 
    0.04639441892504692, 0.11294334381818771, -0.3672567307949066, 0.36743003129959106, 0.27758854627609253, -0.4276747405529022, 0.31318366527557373, -0.0781644955277443, 
    -0.28043076395988464, -0.004658754914999008, 0.10424362123012543, 0.022636886686086655, -0.5566501021385193, -0.05154405161738396, 0.29210662841796875, -0.2694956958293915, 
    0.016295043751597404, -0.1462254673242569, 0.15282166004180908, 0.2734425663948059, -0.27321362495422363, -0.26070085167884827, 0.07375942170619965, -0.06512276828289032, 
    -0.6178903579711914, -0.04595259577035904, 0.1429184377193451, -0.14765694737434387, -0.15464147925376892, 0.12954315543174744, -0.048268817365169525, 0.21408936381340027, 
    0.15881530940532684, -0.21135392785072327, -0.14773251116275787, -0.40296658873558044, -0.39794525504112244, -0.3273727595806122, 0.13738130033016205, -0.1822529286146164, 
    -0.2652428448200226, -0.00873230304569006, 0.02794991433620453, -0.1645943522453308, 0.03990216925740242, -0.49214091897010803, 0.12117760628461838, -0.12222759425640106, 
    -0.12847186625003815, -0.22489982843399048, 0.1211964413523674, 0.050251878798007965, 0.03330626338720322, 0.2762145698070526, 0.10230859369039536, 0.0540182925760746, 
    -0.07134080678224564, 0.5715931057929993, -0.0995112806558609, -0.006299998145550489, 0.15668879449367523, -0.03583698719739914, -0.017149709165096283, -0.044960152357816696, 
    -0.04177430272102356, -0.107334665954113, -0.2042272388935089, 0.1344517320394516, 0.15877804160118103, 0.15041568875312805, -0.3219603896141052, -0.5715728402137756, 
    0.18579556047916412, 0.13469065725803375, -0.5560628175735474, 0.09947796165943146, -0.22107015550136566, -0.538091242313385, 0.21581566333770752, 0.10268277674913406, 
    -0.35153505206108093, 0.06563912332057953, -0.23818299174308777, -0.5073380470275879, -0.04679542034864426, -0.13372941315174103, -0.1862369328737259, -0.003572879359126091, 
    0.10954995453357697, 0.19651435315608978, -0.2099294513463974, -0.10317257791757584, -0.05362320691347122, 0.16490623354911804, 0.12398024648427963, -0.013517916202545166, 
    -0.06224599853157997, -0.2709282338619232, -0.06721538305282593, -0.18780741095542908, -0.21502377092838287, -0.015385694801807404, -0.4163147807121277, -0.011363780125975609, 
    -0.13021783530712128, 0.17019163072109222, 0.1518213003873825, -0.46616631746292114, 0.2606066167354584, 0.08342092484235764, -0.2887316942214966, -0.1376514434814453, 
    -0.5590949654579163, 0.17296384274959564, -0.2790790796279907, 0.0951753705739975, 0.05549206957221031, 0.12208183109760284, 0.315418541431427, -0.4683125913143158, 
    -0.0012585606891661882, -0.12930412590503693, 0.20773141086101532, 0.23624210059642792, -0.24358849227428436, 0.01036690641194582, -0.0437021404504776, 0.21286572515964508, 
    -0.20653842389583588, -0.12645836174488068, -0.14539958536624908, -0.16247902810573578, -0.09076252579689026, 0.062424156814813614, 0.032352250069379807, 0.06437560170888901, 
    0.0006323207635432482, -0.11044026166200638, 0.07493562996387482, 0.2027720957994461, 0.22656506299972534, 0.09529422968626022, -0.020852474495768547, -0.12749266624450684, 
    -0.4499113857746124, -0.4288986623287201, 0.2018982321023941, -0.2294580340385437, -0.00287975138053298, 0.16863934695720673, -0.13368980586528778, -0.1557377129793167, 
    -0.0012249195715412498, -0.4542291462421417, 0.08477787673473358, 0.24595871567726135, 0.10102139413356781, 0.2827562987804413, 0.02248315140604973, -0.02828439325094223, 
    0.009100223891437054, 0.13737370073795319, 0.06570083647966385, -0.3593931496143341, -0.004711514338850975, -0.20438088476657867, -0.24032281339168549, 0.24309521913528442, 
    -0.08740077912807465, -0.13232733309268951, -0.09216166287660599, -0.05935689061880112, -0.08577704429626465, 0.08376102894544601, -0.16553615033626556, -0.13959640264511108, 
    -0.3603645861148834, -0.3890872299671173, -0.22980880737304688, -0.17204804718494415, -0.27961573004722595, -0.06873060762882233, 0.16259527206420898, 0.015583832748234272, 
    -0.07068794220685959, -0.04119633883237839, -0.29508206248283386, -0.21333234012126923, 0.34933045506477356, -0.21233375370502472, 0.1842777132987976, 0.4185446798801422, 
    -0.2203289121389389, -0.19315017759799957, -0.4010844826698303, -0.18080958724021912, 0.08216232061386108, -0.20409224927425385, 0.2602018713951111, -0.443488210439682, 
    -0.19411759078502655, -0.15747790038585663, 0.19654178619384766, 0.1536882370710373, 0.42300915718078613, -0.05007193610072136, -0.06927858293056488, -0.18680129945278168, 
    0.18706107139587402, 0.07620685547590256, 0.13434313237667084, -0.4297278821468353, -0.10300508886575699, 0.20134055614471436, -0.02042854204773903, -0.3276844024658203, 
    -0.1135081946849823, -0.08172959089279175, 0.16398614645004272, 0.2986588478088379, 0.12664176523685455, -0.44790005683898926, -0.13650842010974884, -0.1533883810043335, 
    0.13517054915428162, 0.027895569801330566, -0.29605832695961, 0.3693338632583618, 0.2912818491458893, 0.21172218024730682, -0.1679070144891739, -0.18692155182361603, 
    0.10054922103881836, 0.4346861243247986, 0.26560890674591064, 0.0959489569067955, -0.012302949093282223, 0.06640053540468216, -0.015531874261796474, -0.27416911721229553, 
    0.07084333896636963, -0.02120150998234749, -0.24882915616035461, -0.07107210159301758, -0.17299650609493256, 0.06597592681646347, -0.22320079803466797, 0.4001671373844147, 
    -0.40962690114974976, -0.24565893411636353, 0.19281914830207825, -0.10781607776880264, -0.03862486407160759, -0.16534116864204407, -0.011186408810317516, 0.18843987584114075, 
    -0.19116556644439697, 0.174531489610672, 0.008911063894629478, 0.055937428027391434, -0.12036791443824768, -0.32727450132369995, -0.033756405115127563, 0.17062993347644806, 
    -0.5018961429595947, 0.3031597137451172, -0.3510374426841736, -0.05141828954219818, -0.17607718706130981, -0.0047970786690711975, 0.27480819821357727, 0.0012961947359144688, 
    -0.26203566789627075, -0.44495320320129395, 0.22036772966384888, -0.18794916570186615, -0.15525275468826294, 0.28741759061813354, -0.24315521121025085, -0.41719210147857666, 
    0.5522475242614746, -0.321914404630661, -0.6380196213722229, -0.33034148812294006, 0.39746856689453125, 0.022773731499910355, 0.19403879344463348, -0.5222488045692444, 
    -0.17099922895431519, -0.27135762572288513, 0.1157699003815651, 0.10869012773036957, 0.14812493324279785, 0.40989020466804504, -0.45223259925842285, -0.35443031787872314, 
    -0.11255732923746109, -0.09127968549728394, 0.05333922430872917, 0.3179997205734253, 0.275852233171463, -0.06998199969530106, -0.182668074965477, 0.19059765338897705, 
    0.61947101354599, 0.40195274353027344, -0.3464879095554352, -0.2124672830104828, 0.04458186402916908, 0.05784314498305321, 0.037530068308115005, 0.15615135431289673, 
    0.2133520245552063, -0.09541570395231247, -0.20393329858779907, 0.0011367998085916042, -0.005732556339353323, 0.04553040862083435, -0.3272082507610321, 0.31555163860321045, 
    0.18283048272132874, -0.24402382969856262, 0.17453795671463013, 0.06889437139034271, -0.2993481159210205, -0.2682476043701172, -0.24444109201431274, 0.031454406678676605, 
    -0.08340971916913986, -0.15493491291999817, -0.08601941168308258, 0.022701194509863853, -0.07060892879962921, 0.0785192996263504, -0.04817667976021767, 0.13724753260612488, 
    0.17773282527923584, -0.31927990913391113, -0.43415337800979614, 0.15552298724651337, -0.3651946187019348, -0.06494554132223129, 0.039044108241796494, 0.08374781161546707, 
    0.04557618126273155, 0.20053459703922272, 0.07386959344148636, 0.13439136743545532, 0.005469625350087881, -0.7546828985214233, -0.5161500573158264, 0.07754479348659515, 
    -0.252685010433197, -0.07595743983983994, 0.04851897060871124, -0.19776830077171326, -0.08511514216661453, -0.07650303840637207, 0.28265026211738586, 0.2818801999092102, 
    0.10597999393939972, -0.22915397584438324, -0.008385676890611649, -0.21003788709640503, -0.5332252383232117, -0.13273383677005768, 0.06832063943147659, -0.22529691457748413, 
    0.23467202484607697, 0.10787488520145416, -0.16175420582294464, 0.2657272219657898, 0.08446300029754639, -0.1591678261756897, -0.07281453162431717, 0.17708955705165863, 
    -0.309431791305542, 0.47653836011886597, 0.05941975489258766, -0.10219869762659073, 0.3992072343826294, 0.3466092646121979, -0.21579435467720032, -0.13403940200805664, 
    0.052744798362255096, 0.3768971562385559, 0.08368847519159317, 0.49303653836250305, 0.1076989471912384, -0.002579771913588047, 0.10574938356876373, 0.3679364025592804, 
    -0.24815115332603455, -0.34002408385276794, 0.051126282662153244, 0.21567295491695404, -0.02722269482910633, -0.1834097057580948, -0.10174872726202011, 0.15320689976215363, 
    -0.25912532210350037, 0.33614200353622437, 0.038213953375816345, 0.19004012644290924, 0.0009196109022013843, -0.06317076086997986, -0.04448534920811653, 0.2966376841068268, 
    0.0768914595246315, -0.19755838811397552, 0.09795688092708588, 0.04813035577535629, -0.09387443959712982, -0.3840378522872925, 0.2635640799999237, 0.06439943611621857, 
    -0.22635555267333984, 0.34845274686813354, -0.001702941139228642, 0.1517641246318817, 0.20392176508903503, 0.33020690083503723, -0.47889775037765503, -0.04831156134605408, 
    0.023946238681674004, -0.16137653589248657, -0.4287889301776886, 0.11082372069358826, 0.04643135890364647, 0.014444401487708092, 0.0987640917301178, 0.20945215225219727, 
    0.15204542875289917, -0.040520425885915756, -0.4215085804462433, -0.4435887336730957, -0.43287867307662964, -0.44823387265205383, -0.16425512731075287, -0.11804310977458954, 
    -0.14051154255867004, -0.345229834318161, -0.27437618374824524, -0.197957843542099, -0.0676824301481247, 0.0008171164663508534, 0.2600271701812744, 0.071515753865242, 
    -0.09641192108392715, 0.05753154307603836, 0.3270855247974396, -0.14124822616577148, -0.011390616185963154, 0.05576448515057564, -0.09837640076875687, -0.0019184800330549479, 
    -0.21571984887123108, -0.40425360202789307, 0.038307636976242065, -0.11500628292560577, 0.09880093485116959, 0.022014843299984932, -0.07069835066795349, 0.17656993865966797, 
    0.2180730700492859, -0.14461299777030945, -0.06021503359079361, -0.21173234283924103, 0.11186408251523972, 0.1128377616405487, 0.0734950453042984, -0.21395640075206757, 
    -0.007117598783224821, -0.013589218258857727, 0.11986254900693893, -0.015525917522609234, -0.37374311685562134, -0.10468006134033203, -0.3199143409729004, -0.08817721903324127, 
    -0.0013510400895029306, -0.09678499400615692, -0.5828357934951782, -0.14601710438728333, -0.36095744371414185, -0.03358786180615425, 0.18495245277881622, -0.1286066174507141, 
    -0.3181488811969757, -0.1821339726448059, -0.22527602314949036, 0.0897572934627533, -0.017940834164619446, 0.08326629549264908, -0.07532103359699249, -0.3774087727069855, 
    -0.02951187640428543, -0.1050453931093216, 0.11809087544679642, -0.17586611211299896, -0.32865720987319946, -0.4307011365890503, -0.08557559549808502, 0.10547849535942078, 
    0.21285681426525116, -0.07379650324583054, 0.006258547306060791, -0.14588190615177155, -0.10553988069295883, 0.07384990900754929, 0.17496895790100098, 0.08706997334957123, 
    -0.05209684371948242, 0.28490394353866577, 0.06085044890642166, -0.1745024025440216, 0.15207168459892273, 0.11491718888282776, -0.44804227352142334, -0.22471606731414795, 
    0.08406729251146317, 0.08118437975645065, -0.0894179567694664, -0.17911821603775024, 0.05395875871181488, -0.0712750181555748, -0.45060205459594727, -0.6662381887435913, 
    -0.08343172073364258, -0.22148677706718445, -0.0021871174685657024, -0.1977345198392868, -0.04775673896074295, 0.3311404883861542, -0.05729653313755989, 0.02011747658252716, 
    0.0990881621837616, 0.03799230605363846, 0.12579290568828583, -0.19610288739204407, 0.18708296120166779, 0.059454742819070816, -0.027243301272392273, -0.12843483686447144, 
    -0.047155965119600296, 0.045613788068294525, 0.04639846086502075, 0.2651112377643585, 0.1359904557466507, -0.15324358642101288, -0.09213967621326447, -0.46587932109832764, 
    -0.07273275405168533, -0.6680276989936829, 0.3317466378211975, 0.03322754427790642, -0.08476334810256958, 0.1127636656165123, -0.14755292236804962, -0.03980718553066254, 
    0.07446964085102081, -0.5080336928367615, -0.7143488526344299, 0.31170880794525146, -0.023598110303282738, -0.030169248580932617, 0.15721352398395538, 0.04139094427227974, 
    0.3291550278663635, 0.0305874515324831, 0.17705422639846802, 0.18343453109264374, -0.14219513535499573, -0.09471951425075531, -0.5207111835479736, -0.19042302668094635, 
    -0.15712687373161316, 0.07764832675457001, -0.06646549701690674, -0.32283592224121094, -0.2557636499404907, 0.046885281801223755, -0.13986152410507202, 0.03755069896578789, 
    0.1393081694841385, 0.2746826410293579, -0.07347540557384491, 0.11524149030447006, 0.3141976296901703, 0.2645791172981262, 0.22948665916919708, 0.11487621068954468, 
    -0.1484440267086029, -0.09972502291202545, -0.08882731199264526, -0.01644500344991684, 0.3790275454521179, 0.28436484932899475, -0.03145628049969673, 0.09043905138969421, 
    0.13861975073814392, 0.19050848484039307, 0.19845478236675262, 0.2789531350135803, -0.04839124158024788, 0.14635804295539856, -0.15162791311740875, 0.07210215926170349, 
    0.04218393564224243, 0.10788126289844513, 0.0038970450405031443, 0.24901902675628662, -0.17297112941741943, 0.20218925178050995, 0.2627779543399811, 0.36002761125564575, 
    -0.05258083716034889, 0.2638952136039734, 0.01922362670302391, -0.2462150901556015, 0.05219019949436188, -0.03966172784566879, -0.07874491810798645, -0.2623961865901947, 
    -0.24480751156806946, -0.07878459244966507, 0.10231517255306244, 0.3087688088417053, -0.34385329484939575, 0.1454041302204132, -0.09461318701505661, -0.45650598406791687, 
    0.3481864333152771, 0.02672555111348629, 0.13266350328922272, -0.16679291427135468, -0.09825274348258972, -0.24121898412704468, 0.2429019957780838, 0.19130805134773254, 
    0.14798100292682648, -0.17538997530937195, -0.16410300135612488, -0.4133930504322052, 0.21899034082889557, -0.10777471214532852, 0.20898661017417908, -0.2760525643825531, 
    0.1683763563632965, -0.09201202541589737, -0.05201447382569313, 0.36277905106544495, -0.19264847040176392, 0.1302548348903656, -0.023156875744462013, -0.1414164900779724, 
    0.31518852710723877, 0.22715066373348236, -0.1452353149652481, -0.026038235053420067, 0.17809878289699554, -0.2675985097885132, 0.01422860100865364, 0.20263659954071045, 
    -0.3529932498931885, 0.17263163626194, -0.13637571036815643, -0.20220844447612762, 0.07638193666934967, -0.15190216898918152, -0.13785652816295624, 0.4455556273460388, 
    0.1545546054840088, 0.26450076699256897, 0.23818343877792358, -0.09153978526592255, -0.14323899149894714, 0.17355580627918243, 0.15617530047893524, -0.10065659880638123, 
    -0.401517778635025, -0.20444655418395996, 0.24971528351306915, 0.12609292566776276, -0.1558804214000702, 0.20052938163280487, 0.1033690869808197, -0.26734545826911926, 
    0.17147521674633026, 0.3494965136051178, 0.22993873059749603, 0.28142496943473816, -0.017953652888536453, -0.13532522320747375, 0.13232439756393433, 0.24508212506771088, 
    0.07216206192970276, 0.08745035529136658, -0.08016001433134079, -0.08449425548315048, -0.0921308696269989, 0.374018132686615, 0.17062260210514069, 0.47748446464538574, 
    0.1272539347410202, 0.07099949568510056, -0.11652486026287079, -0.040713563561439514, 0.22448040544986725, 0.4151233732700348, 0.5038591623306274, 0.14816030859947205, 
    0.12358777225017548, -0.189711794257164, 0.14426155388355255, 0.07250408828258514, 0.23043830692768097, -0.060487911105155945, -0.09723930060863495, 0.002564625581726432, 
    -0.03698674961924553, 0.16625384986400604, 0.36128395795822144, -0.10051904618740082, 0.08308719843626022, -0.003288926789537072, -0.0004942698869854212, -0.13184963166713715, 
    0.14436666667461395, 0.16699956357479095, 0.022056087851524353, -0.20812436938285828, 0.07610511779785156, -0.15442270040512085, 0.1669338196516037, -0.5467885136604309, 
    -0.004779396578669548, -0.1445169746875763, 0.18004892766475677, 0.08955080807209015, -0.02917717583477497, 0.19063526391983032, 0.3132422864437103, -0.09159301966428757, 
    -0.3117138743400574, -0.054453037679195404, 0.3490042984485626, -0.09853987395763397, 0.06574255228042603, -0.24022099375724792, -0.01574156992137432, 0.2251274287700653, 
    0.369000643491745, -0.29609328508377075, 0.028251077979803085, 0.06178506091237068, -0.012451386079192162, -0.10052021592855453, 0.1069408506155014, -0.17908141016960144, 
    -0.24121952056884766, 0.14891599118709564, 0.06753725558519363, -0.05637975409626961, -0.12868152558803558, 0.0934014543890953, -0.04570160433650017, 0.6420459747314453, 
    -0.09039028733968735, -0.03621818125247955, 0.11845821887254715, -0.18041670322418213, 0.219695582985878, 0.07520569860935211, 0.05054435133934021, -0.03455956280231476, 
    -0.16472908854484558, 0.02731485292315483, 0.10511145740747452, 0.06659095734357834, 0.11830659210681915, 0.17296375334262848, 0.10334363579750061, -0.04099743440747261, 
    -0.1754489690065384, -0.18342673778533936, 0.09626959264278412, 0.05406074970960617, 0.22495782375335693, 0.16116251051425934, 0.178267702460289, 0.2262447327375412, 
    -0.42416849732398987, -0.3543018400669098, -0.40139856934547424, 0.1809886246919632, -0.008880533277988434, 0.04805535450577736, -0.26267004013061523, 0.05582408979535103, 
    -0.3541809618473053, -0.1866721659898758, -0.34618598222732544, -0.27279379963874817, 0.16911520063877106, 0.08411351591348648, 0.015326888300478458, -0.10707956552505493, 
    -0.1648111790418625, -0.14593306183815002, -0.3197489082813263, -0.005748416762799025, 0.16921889781951904, -0.1270626187324524, 0.1542297601699829, 0.0038390583358705044, 
    0.351993590593338, 0.3114859163761139, 0.09632720798254013, 0.07858745008707047, -0.1108681708574295, 0.30244001746177673, -0.008740883320569992, 0.03029157593846321, 
    0.3702470362186432, -0.41528841853141785, 0.1035781055688858, -0.3692408800125122, -0.22997041046619415, -0.13101337850093842, 0.2571057379245758, -0.12576095759868622, 
    0.09982643276453018, 0.02125495858490467, -0.11438976973295212, 0.1379145383834839, 0.2818712890148163, -0.3553093671798706, 0.10995878279209137, 0.03955061733722687, 
    -0.006337634287774563, 0.16962206363677979, 0.1748046576976776, 0.11865909397602081, -0.24165885150432587, 0.01194943767040968, 0.19229312241077423, 0.20009413361549377, 
    -0.051737427711486816, 0.02147291973233223, 0.30405738949775696, 0.7201502323150635, -0.00709719629958272, 0.22163304686546326, 0.06637100130319595, -0.21719159185886383, 
    -0.030876178294420242, -0.001433554687537253, -0.0418720468878746, -0.11883658170700073, 0.19358983635902405, 0.16433849930763245, 0.15749125182628632, -0.10387269407510757, 
    -0.1921187788248062, -0.25392138957977295, -0.0830022543668747, -0.05245646834373474, -0.01866590790450573, -0.1435542106628418, -0.5038337111473083, 0.1978224813938141, 
    -0.23878872394561768, 0.16457024216651917, -0.4553395211696625, 0.0428021214902401, -0.0322929248213768, 0.15366987884044647, 0.1304336041212082, 0.05398749187588692, 
    -0.06747239828109741, -0.12637540698051453, -0.19670234620571136, -0.08787516504526138, -0.16057252883911133, 0.12441250681877136, -0.10403390973806381, 0.059624914079904556, 
    0.4114515781402588, 0.14217302203178406, 0.43919673562049866, 0.10485976934432983, -0.27978643774986267, 0.03267323225736618, -0.013076717033982277, -0.2090683877468109, 
    0.01804857701063156, -0.09273933619260788, 0.17121614515781403, 0.3094640374183655, 0.6472156047821045, -0.519384503364563, 0.6914132237434387, -0.09262840449810028, 
    -0.12267547845840454, -0.4479951560497284, 0.6636730432510376, -0.4858061373233795, 0.5786209106445312, -0.009143452160060406, 0.2007051706314087, 0.08685935288667679, 
    -0.5194849967956543, -0.22662924230098724, 0.45704400539398193, -0.27254340052604675, 0.1337897628545761, 0.14940433204174042, -0.3634597659111023, 0.18674109876155853, 
    0.6088954210281372, 0.03456515073776245, -0.2827751934528351, -0.11880984902381897, -0.14624032378196716, 0.24381065368652344, -0.2234240621328354, -0.8347690105438232, 
    -0.24420423805713654, -0.07903073728084564, -0.5630074739456177, 0.024009859189391136, 0.03238716349005699, -0.2625923156738281, -0.2750551402568817, -0.4077174663543701, 
    0.3888484835624695, -0.04679842293262482, -0.2737583518028259, 0.06378544867038727, 0.20590288937091827, -0.16549400985240936, -0.2647818624973297, 0.0015166905941441655, 
    -0.13058702647686005, -0.49314048886299133, -0.010132374241948128, 0.10412468016147614, -0.02904377691447735, 0.27122774720191956, -0.034029826521873474, -0.09466966241598129, 
    0.07809077948331833, 0.006861780304461718, -0.231522336602211, -0.3306620121002197, -0.30810797214508057, -0.35062557458877563, -0.150972381234169, 0.19199161231517792, 
    0.04586964100599289, -0.18317295610904694, -0.1264640986919403, 0.27148449420928955, 0.3226654529571533, -0.13519473373889923, -0.04808133468031883, 0.05601457878947258, 
    -0.1898207664489746, 0.002398872748017311, 0.0956643596291542, 0.30580493807792664, -0.2712174355983734, -0.3340361714363098, -0.3137248158454895, -0.18191997706890106, 
    0.01779351569712162, 0.038193438202142715, -0.02897876501083374, -0.27009180188179016, -0.2112143188714981, 0.05516514554619789, 0.2816682457923889, 0.08047511428594589, 
    0.05406518653035164, 0.15902745723724365, 0.2770010232925415, 0.34400108456611633, 0.25417760014533997, -0.1679006665945053, -0.30567434430122375, -0.04717694967985153, 
    -0.231526717543602, -0.2384677678346634, 0.11881846934556961, 0.09658721089363098, 0.03665424883365631, -0.18153929710388184, -0.20759129524230957, -0.1198592334985733, 
    -0.08271726220846176, 0.15468278527259827, 0.020726926624774933, 0.09585140645503998, -0.3000853359699249, -0.059695541858673096, -0.05908799171447754, -0.2794758379459381, 
    -0.2201106995344162, -0.03670583665370941, 0.06297822296619415, 0.20893779397010803, 0.09733428806066513, -0.23962542414665222, -0.06473954766988754, 0.16607747972011566, 
    -0.07637746632099152, 0.21736761927604675, 0.08266566693782806, -0.18532243371009827, 0.24424900114536285, -0.044225238263607025, 0.012853902764618397, 0.0567915104329586, 
    -0.030992338433861732, -0.15616977214813232, -0.2677976191043854, 0.1883402317762375, -0.1714717447757721, 0.055722594261169434, -0.1994626373052597, 0.08982186019420624, 
    0.10361474007368088, 0.023679392412304878, -0.21638606488704681, 0.08360737562179565, 0.3789699077606201, 0.14813782274723053, 0.11291658133268356, -0.07835481315851212, 
    0.010742717422544956, -0.027413157746195793, 0.01413588784635067, -0.06509623676538467, 0.1867113709449768, 0.33613044023513794, -0.008272250182926655, 0.3436470627784729, 
    -0.17314274609088898, -0.3041866719722748, 0.35826459527015686, 0.07377304881811142, -0.40700003504753113, 0.22373472154140472, -0.009536908008158207, -0.2487284392118454, 
    0.1461630016565323, 0.11318377405405045, 0.2378709614276886, -0.1373966634273529, -0.16678203642368317, -0.1634751856327057, 0.2214607149362564, -0.11359655857086182, 
    -0.308292418718338, -0.2554747462272644, 0.212483212351799, -0.4916205108165741, 0.2083761841058731, 0.3282948136329651, -0.7451158165931702, -0.1577327847480774, 
    0.07886825501918793, -0.08640409260988235, 0.041721589863300323, 0.02541053108870983, -0.12533637881278992, -0.08540961891412735, 0.11619053781032562, -0.07465778291225433, 
    0.25823548436164856, 0.017835352569818497, -0.4100281894207001, 0.19217820465564728, -0.026938224211335182, -0.46771588921546936, 0.18572260439395905, -0.20390315353870392, 
    -0.26661714911460876, 0.21005074679851532, -0.09183358401060104, -0.020108235999941826, 0.21433521807193756, -0.041591204702854156, -0.33758828043937683, -0.011837920174002647, 
    -0.07156434655189514, -0.051349446177482605, 0.05082329735159874, 0.03416119143366814, 0.08535871654748917, -0.24400117993354797, 0.20451374351978302, -0.09015380591154099, 
    -0.0711238756775856, 4.9171092541655526e-05, 0.22038473188877106, 0.2303970605134964, 0.13901612162590027, 0.15063507854938507, 0.27849316596984863, 0.35994771122932434, 
    0.2952791154384613, 0.0459822416305542, -0.041159093379974365, -0.31633761525154114, -0.09308243542909622, 0.4082566797733307, -0.13104559481143951, -0.49589115381240845, 
    -0.11428716033697128, -0.1978236734867096, 0.31430524587631226, 0.32410478591918945, 0.34842419624328613, 0.06048482656478882, 0.15571533143520355, -0.11010650545358658, 
    0.022812020033597946, -0.06853616237640381, -0.166325181722641, -0.11555228382349014, -0.044091735035181046, 0.07251490652561188, 0.18326197564601898, 0.05612889677286148, 
    -0.3642716109752655, 0.04644723981618881, 0.1385210007429123, 0.06930916011333466, -0.08277155458927155, -0.10569878667593002, 0.1468372493982315, -0.062399376183748245, 
    0.14155960083007812, -0.33082398772239685, -0.09142625331878662, 0.19903068244457245, 0.05344501510262489, 0.012424077838659286, -0.05084889754652977, 0.02106798253953457, 
    -0.010039430111646652, 0.003608508501201868, 0.045411866158246994, 0.19373789429664612, 0.14947833120822906, 0.07590951025485992, -0.044675685465335846, -0.20936866104602814, 
    -0.6323859691619873, -0.1513441652059555, -0.04206552729010582, 0.12385404855012894, -0.022941863164305687, -0.23065315186977386, -0.1286042481660843, -0.0790472999215126, 
    -0.2251836359500885, -0.0974956527352333, -0.14645656943321228, 0.16693519055843353, 0.1801188588142395, 0.05702786520123482, 0.29016730189323425, -0.15786677598953247, 
    0.13680122792720795, 0.08878495544195175, -0.09099610149860382, 0.006090820301324129, -0.054924461990594864, 0.00528038339689374, 0.10198723524808884, -0.14635328948497772, 
    0.20902155339717865, 0.012697375379502773, 0.029499270021915436, 0.235344797372818, 0.10254043340682983, -0.1651332974433899, 0.021840428933501244, 0.013214513659477234, 
    -0.46228674054145813, 0.1612905114889145, -0.03528938069939613, -0.32595205307006836, 0.22328774631023407, -0.11177384853363037, 0.25135624408721924, 0.2452823519706726, 
    0.08461359143257141, -0.13415510952472687, 0.1640830785036087, -0.09059227257966995, -0.07144739478826523, -0.07366584986448288, -0.21097907423973083, -0.16925211250782013, 
    0.23851656913757324, 0.026888076215982437, -0.032806944102048874, 0.3126167953014374, 0.002633607480674982, -0.33754268288612366, 0.2749912738800049, 0.038846272975206375, 
    0.19553853571414948, -0.002335967030376196, -0.1491255909204483, -0.11153260618448257, 0.167963907122612, 0.040255121886730194, -0.1098574697971344, -0.17381365597248077, 
    -0.3093830943107605, 0.06052016839385033, 0.1438969075679779, 0.1359940767288208, -0.03854512795805931, -0.07855518907308578, -0.006393946707248688, -0.02428721822798252, 
    -0.012456171214580536, 0.1102365031838417, 0.15386518836021423, 0.05976803973317146, -0.12855325639247894, 0.25754866003990173, 0.12230639904737473, 0.11615584790706635, 
    -0.016169317066669464, -0.2005540132522583, 0.056065578013658524, 0.007472815457731485, -0.21019431948661804, 0.26436254382133484, -0.32180479168891907, 0.02930757962167263, 
    0.18706592917442322, -0.21866561472415924, -0.14404146373271942, 0.09112901240587234, -0.0829617902636528, -0.13500288128852844, 0.19507791101932526, -0.17574696242809296, 
    -0.06008452549576759, -0.07845302671194077, -0.020515548065304756, 0.05137743055820465, 0.05140618234872818, -0.19571436941623688, -0.18040545284748077, 0.09591880440711975, 
    -0.013057109899818897, 0.14940223097801208, 0.035957224667072296, 0.10184726119041443, 0.07726013660430908, 0.04377374053001404, 0.1293966919183731, -0.45317932963371277, 
    -0.18518342077732086, -0.04534178599715233, 0.0661705806851387, -0.12733200192451477, -0.16060388088226318, 0.026459623128175735, -0.3445090055465698, -0.18172010779380798, 
    0.4203852117061615, 0.05989473685622215, -0.13786445558071136, -0.20928075909614563, -0.3964847922325134, -0.05263147130608559, -0.006778329610824585, 0.05082538351416588, 
    -0.28138768672943115, 0.008086205460131168, 0.024686742573976517, -0.1418169140815735, 0.09298782795667648, 0.13120919466018677, -0.007439521607011557, 0.10919646173715591, 
    0.005181746557354927, -0.10027745366096497, 0.1610097885131836, 0.1920449137687683, 0.20579715073108673, 0.0004986757412552834, 0.17342384159564972, -0.05887836590409279, 
    0.012792370282113552, -0.026166900992393494, -0.055467575788497925, 0.06105634570121765, 0.0326397642493248, -0.038042809814214706, 0.009498204104602337, -0.22052428126335144, 
    0.05228918790817261, -0.10340569913387299, 0.03542138636112213, 0.014958483166992664, -0.08164544403553009, -0.15451346337795258, -0.07165259122848511, 0.2032664269208908, 
    0.12285064160823822, -0.1254582703113556, 0.016025105491280556, 0.15084949135780334, 0.09944114089012146, -0.10866079479455948, -0.20504643023014069, 0.016882920637726784, 
    -0.08509568870067596, 0.004096117336302996, 0.0032391399145126343, -0.264689564704895, -0.18709328770637512, -0.1144784465432167, 0.00801452063024044, -0.12113624066114426, 
    0.031400807201862335, -0.1913750171661377, 0.05804504454135895, -0.14379502832889557, 0.09292779117822647, -0.004719745367765427, -0.5442323684692383, 0.026480097323656082, 
    0.07918684929609299, 0.05670689791440964, 0.07453486323356628, 0.10289651155471802, -0.05216524004936218, -0.02038208767771721, -0.14186470210552216, -0.15259665250778198, 
    0.3098141849040985, 0.007566906977444887, -0.18490378558635712, -0.11125623434782028, 0.027936873957514763, -0.3272552490234375, 0.07444178313016891, -0.30022183060646057, 
    0.11750160157680511, -0.19688433408737183, -0.27233055233955383, -0.06525902450084686, -0.1363140195608139, 0.24902179837226868, -0.06529588252305984, 0.07332294434309006, 
    -0.08965849876403809, 0.15212537348270416, 0.29612404108047485, -0.10894125699996948, -0.15754078328609467, -0.16414277255535126, 0.021806370466947556, -0.03924759849905968, 
    0.0200871042907238, -0.2754629850387573, 0.1454472541809082, 0.03906284272670746, 0.03972380608320236, -0.2313581109046936, -0.04367860406637192, 0.1762901097536087, 
    -0.2743980586528778, 0.08998678624629974, -0.03477231413125992, 0.33023425936698914, 0.11596754193305969, -0.2689899504184723, 0.2524906396865845, 0.10938320308923721, 
    0.18036694824695587, -0.07884609699249268, -0.06017129495739937, 0.22777332365512848, -0.1892349272966385, -0.5666682720184326, -0.043532200157642365, 0.28585532307624817, 
    -0.06599679589271545, 0.09684698283672333, 0.10033044219017029, -0.12406431883573532, -0.1911999136209488, -0.21196866035461426, 0.1902260035276413, -0.07429169863462448, 
    0.026628179475665092, 0.13611403107643127, 0.14414894580841064, -0.08082757890224457, -0.06199884042143822, 0.12240029126405716, 0.04642278701066971, 0.02435537427663803, 
    -0.15552470088005066, -0.126797154545784, 0.16926394402980804, 0.06704630702733994, -0.16887617111206055, -0.04979616403579712, 0.0831277146935463, 0.043253179639577866, 
    -0.09118267893791199, 0.24171222746372223, -0.048744525760412216, -0.129048153758049, -0.27644458413124084, -0.11851035803556442, 0.10960841923952103, 0.09106171131134033, 
    -0.051189012825489044, 0.2347739338874817, 0.15781059861183167, 0.04580696299672127, 0.1418524831533432, 0.16370317339897156, -0.5896669626235962, 0.26927241683006287, 
    -0.15802457928657532, -0.029852239415049553, -0.21213507652282715, 0.18712301552295685, -0.031196385622024536, 0.07051767408847809, -0.34828639030456543, 0.05505947023630142, 
    -0.09673120081424713, -0.027276141569018364, 0.1395278126001358, -0.1000882163643837, -0.035487718880176544, -0.18466109037399292, -0.1610260009765625, 0.25952059030532837, 
    0.10463467240333557, 0.14342999458312988, -0.03400949388742447, -0.07082150876522064, -0.05698179081082344, -0.20422165095806122, 0.04212459549307823, -0.1346544772386551, 
    0.04108431190252304, 0.019065452739596367, -0.06016533449292183, -0.12004745006561279, 0.06337837874889374, -0.14753223955631256, -0.05014455318450928, -0.06829135119915009, 
    0.08529839664697647, -0.3409954011440277, 0.021715926006436348, -0.2702234983444214, 0.06273455917835236, -0.2635614275932312, 0.01183339860290289, -0.12554064393043518, 
    -0.11676951497793198, -0.0405716635286808, -0.1908143162727356, 0.07914377003908157, 0.06389608979225159, -0.1180630475282669, -0.14062048494815826, 0.13323760032653809, 
    -0.179346963763237, 0.11826957017183304, -0.0026929774321615696, 0.12478023022413254, -0.1458754688501358, 0.04710438847541809, 0.1852325052022934, -0.14317312836647034, 
    0.14103557169437408, -0.020590251311659813, -0.14852963387966156, 0.1641974300146103, 0.012106247246265411, 0.06758550554513931, 0.06587734818458557, -0.19158226251602173, 
    0.040465209633111954, -0.0031344781164079905, 0.013383699581027031, 0.04548466205596924, 0.14749403297901154, -0.246622696518898, -0.03965448588132858, 0.00912923738360405, 
    0.004521602299064398, 0.20042762160301208, -0.056604694575071335, -0.11447000503540039, -0.10462591052055359, 0.04618721082806587, -0.03975764289498329, -0.1501866579055786, 
    -0.12848025560379028, -0.09306187927722931, -0.1585312932729721, 0.04196562618017197, 0.053026147186756134, -0.19877880811691284, 0.012073982506990433, 0.07401450723409653, 
    0.19901645183563232, -0.04627039283514023, -0.09982703626155853, 0.28191834688186646, 0.06206873431801796, 0.110615573823452, 0.18913204967975616, 0.1418721079826355, 
    0.11055745929479599, 0.07359086722135544, 0.11591409891843796, -0.20550578832626343, -0.23155871033668518, -0.07365451753139496, -0.24788740277290344, -0.09108788520097733, 
    0.17602838575839996, -0.02008366584777832, 0.18616823852062225, -0.07187040895223618, -0.10741500556468964, 0.16019421815872192, -0.3048304319381714, 0.14017340540885925, 
    0.03391435369849205, -0.05908277630805969, 0.0331246592104435, -0.13529692590236664, 0.06506778299808502, -0.12995436787605286, 0.2432229220867157, -0.20665901899337769, 
    0.11782288551330566, 0.1776413917541504, 0.013832404278218746, 0.1483267843723297, -0.09689229726791382, 0.001935718348249793, 0.1257072538137436, -0.04793218895792961, 
    -0.07395587861537933, -0.04202757775783539, -0.15681885182857513, -0.0438263826072216, 0.09697923809289932, -0.2234395444393158, -0.07430792599916458, 0.11464740335941315, 
    -0.0732494667172432, 0.10404238104820251, 0.008494235575199127, -0.2999648451805115, -0.07880087941884995, 0.15572132170200348, -0.2330944538116455, 0.21395675837993622, 
    -0.3304426670074463, -0.1494193971157074, -0.1492234319448471, 0.1409035623073578, -0.029334206134080887, -0.18252448737621307, 0.10464289039373398, 0.023142416030168533, 
    0.044351883232593536, -0.07735075056552887, 0.043537285178899765, 0.09006423503160477, -0.26678621768951416, -0.15069341659545898, 0.06420151144266129, -0.02203458920121193, 
    -0.11174597591161728, -0.019007526338100433, 0.08174753189086914, 0.03588937222957611, -0.009112007915973663, -0.033275097608566284, -0.07959844917058945, 0.08095675706863403, 
    -0.004900381434708834, 0.07732517272233963, 0.0863257497549057, -0.12680116295814514, -0.08571181446313858, -0.17348910868167877, 0.06576242297887802, 0.3858031928539276, 
    -0.5234689712524414, -0.04321485757827759, -0.3604050576686859, -0.03980354219675064, 0.006505236495286226, 0.08146454393863678, 0.13254064321517944, -0.028581153601408005, 
    -0.19006125628948212, -0.2476753294467926, 0.24530747532844543, 0.1421436220407486, -0.2618865370750427, -0.07800144702196121, 0.06662989407777786, 0.09941050410270691, 
    -0.1724531650543213, -0.09893013536930084, 0.03895081207156181, 0.30293944478034973, -0.2809661626815796, -0.13337725400924683, -0.045344334095716476, 0.03860188648104668, 
    0.15715953707695007, -0.29226216673851013, -0.040326204150915146, 0.01588202826678753, 0.20321422815322876, -0.048467475920915604, 0.09493627399206161, -0.1123562902212143, 
    0.1591845005750656, 0.05830499529838562, 0.15689757466316223, -0.01088542677462101, 0.3242374360561371, -0.0703810453414917, -0.22052739560604095, 0.042226579040288925, 
    0.18826250731945038, 0.15481750667095184, -0.07166870683431625, -0.09790295362472534, 0.047532349824905396, -0.1531914323568344, -0.010618910193443298, -0.09466155618429184, 
    -0.033727824687957764, -0.14389295876026154, 0.21838465332984924, -0.1652999222278595, -0.442764550447464, -0.11052731424570084, 0.16769087314605713, -0.24980667233467102, 
    -0.17068898677825928, 0.034164853394031525, -0.13943076133728027, -0.3306896686553955, 0.17339998483657837, -0.05403520539402962, -0.28988635540008545, 0.0041207545436918736, 
    -0.003559388453140855, -0.15045326948165894, -0.5087475180625916, 0.006190469488501549, 0.061018846929073334, 0.18489320576190948, 0.09513067454099655, 0.0031896878499537706, 
    0.23762668669223785, 0.008880162611603737, 0.07925184071063995, 0.18475304543972015, -0.18220140039920807, 0.05797436088323593, -0.02764584682881832, -0.27490952610969543, 
    0.02895236387848854, -0.09205155074596405, -0.10481393337249756, -0.19967564940452576, -0.07693512737751007, 0.22678010165691376, 0.07577329874038696, -0.1285812258720398, 
    0.33387500047683716, 0.3479555547237396, -0.06106165796518326, -0.031116005033254623, -0.020002270117402077, -0.5179880261421204, 0.10575654357671738, -0.09590377658605576, 
    0.21161116659641266, 0.0733441486954689, 0.05264417827129364, -0.20531931519508362, 0.2177707701921463, 0.006377246230840683, -0.01616346649825573, 0.020274566486477852, 
    0.17728497087955475, -0.03176112845540047, -0.04015127196907997, -0.3058367371559143, -0.0848279520869255, 0.004343243315815926, 0.19311657547950745, -0.08768267929553986, 
    -0.006239151116460562, -0.11081323772668839, -0.027101274579763412, 0.04203164950013161, 0.016154859215021133, 0.2204679697751999, -0.06802331656217575, 0.0015344497514888644, 
    -0.051217518746852875, 0.05552338808774948, -0.1791929006576538, 0.07398346066474915, 0.217710942029953, 0.3042973577976227, -0.021668648347258568, 0.29996412992477417, 
    0.19719679653644562, 0.05643831193447113, -0.0807499811053276, -0.08122336119413376, -0.08520862460136414, -0.16447347402572632, -0.13036291301250458, -0.02579122968018055, 
    -0.01478581689298153, 0.10258273780345917, 0.1927010715007782, 0.1447124183177948, -0.024983663111925125, 0.0449388287961483, -0.008013981394469738, 0.36864522099494934, 
    0.07728802412748337, -0.08960951864719391, 0.0008941650739870965, 0.09223412722349167, -0.061131373047828674, 0.004710891284048557, 0.25528988242149353, -0.09227563440799713, 
    0.047683872282505035, -0.015121285803616047, 0.14238424599170685, -0.05428384616971016, 0.17292778193950653, 0.180192768573761, 0.05789434537291527, 0.08696435391902924, 
    0.0014898002846166492, -0.29994890093803406, -0.1470397561788559, -0.18010523915290833, 0.200993612408638, 0.02064371667802334, -0.3530711829662323, 0.02987649291753769, 
    0.009238243103027344, -0.21991130709648132, 0.08662861585617065, -0.05473999306559563, 0.22974149882793427, -0.21048814058303833, -0.297824889421463, 0.06176213175058365, 
    0.020855963230133057, -0.17581437528133392, 0.13184449076652527, 0.04950369521975517, -0.38716861605644226, -0.09603124111890793, -0.13664935529232025, -0.15431931614875793, 
    0.14944037795066833, -0.06905912607908249, -0.10078294575214386, 0.10638510435819626, -0.037811409682035446, 0.20475620031356812, 0.16537868976593018, 0.23757702112197876, 
    0.027105793356895447, -0.29724183678627014, 0.07537815719842911, -0.09854186326265335, -0.08287997543811798, 0.06369275599718094, 0.14891377091407776, 0.21418818831443787, 
    0.05229282006621361, 0.170866459608078, 0.1777980923652649, -0.09721187502145767, -0.02515619993209839, 0.09014274924993515, -0.06835273653268814, -0.07127810269594193, 
    -0.03545471653342247, 0.20535987615585327, -0.0038609199691563845, 0.10279525816440582, -0.07014985382556915, -0.29340654611587524, 0.06365397572517395, -0.18228399753570557, 
    -0.3119681775569916, -0.00544259836897254, -0.014972803182899952, -0.16189879179000854, 0.014110561460256577, -0.10882271826267242, 0.05666123703122139, -0.1060529500246048, 
    -0.23451465368270874, 0.07651382684707642, -0.34659138321876526, 0.34329426288604736, -0.22262854874134064, 0.07683726400136948, -0.026052415370941162, 0.37393853068351746, 
    0.0992748886346817, -0.29389849305152893, 0.0809643343091011, -0.05615249648690224, -0.24460110068321228, 0.30851006507873535, -0.15189121663570404, 0.22032952308654785, 
    0.023412689566612244, -0.3056451976299286, -0.19928954541683197, -0.31711962819099426, 0.06292582303285599, 0.15269190073013306, -0.3681001663208008, -0.045092858374118805, 
    -0.04357648268342018, -0.05630867928266525, -0.11629436910152435, -0.06313987076282501, -0.10977964103221893, 0.11808451265096664, -0.13988392055034637, 0.16413339972496033, 
    0.009037087671458721, 0.05458582192659378, -0.08152629435062408, 0.0018949555233120918, 0.20859092473983765, 0.02677936665713787, 0.1935800462961197, 0.07954646646976471, 
    -0.028709154576063156, 0.19150228798389435, -0.05265487730503082, 0.10261264443397522, -0.07860033214092255, -0.05761433765292168, 0.11177722364664078, -0.31746238470077515, 
    -0.049584176391363144, -0.047195225954055786, -0.03477237746119499, 0.06068650633096695, 0.057662274688482285, 0.2763356566429138, 0.11577428132295609, -0.505378782749176, 
    0.04033408313989639, -0.08668090403079987, 0.08527965843677521, -0.2840632498264313, -0.1732989400625229, -0.22659917175769806, -0.20050212740898132, 0.08586358278989792, 
    -0.2110023945569992, -0.08011258393526077, 0.24192126095294952, -0.07016277313232422, 0.10268575698137283, -0.22008000314235687, 0.0008713321876712143, 0.03192882984876633, 
    -0.2824060618877411, -0.17204643785953522, -0.2500622570514679, 0.2674296200275421, -0.01702791452407837, 0.191500723361969, -0.18279734253883362, 0.09178534895181656, 
    -0.13803954422473907, -0.15695153176784515, -0.3207797110080719, 0.2669168710708618, 0.08056004345417023, 0.17368759214878082, 0.0343865342438221, 0.09669256955385208, 
    -0.03251540660858154, -0.10595524311065674, -0.33828914165496826, -0.17198069393634796, -0.26153460144996643, -0.07379061728715897, -0.282166987657547, -0.06623148918151855, 
    0.0830778107047081, -0.21094463765621185, -0.2090686708688736, -0.08667730540037155, 0.04368716850876808, 0.2666171193122864, -0.01750531978905201, 0.15098774433135986, 
    -0.23468352854251862, 0.09638626128435135, -0.17647434771060944, -0.2828257977962494, 0.19079084694385529, -0.0258039440959692, 0.3368372619152069, -0.2942124605178833, 
    0.00206135050393641, 0.15778134763240814, -0.06704511493444443, 0.0007625314174219966, -0.09618151932954788, -0.1524132937192917, -0.011733398772776127, 0.3537277281284332, 
    -0.1713154911994934, -0.24434635043144226, -0.020212413743138313, -0.04384947568178177, 0.012119549326598644, -0.2871917188167572, -0.06852491199970245, 0.015598468482494354, 
    -0.13448655605316162, -0.09782097488641739, 0.06305690854787827, 0.16676035523414612, -0.12192361056804657, -0.06355086714029312, 0.07510275393724442, 0.11140124499797821, 
    -0.010060708969831467, 0.1906288117170334, -0.22298389673233032, -0.1062227115035057, -0.40379589796066284, -0.10614891350269318, 0.19996550679206848, 0.01819443330168724, 
    -0.07258125394582748, 0.1271301805973053, 0.2667798697948456, -0.05719052255153656, 0.04940371960401535, -0.2102656364440918, -0.39542874693870544, 0.003904597833752632, 
    0.3142695426940918, -0.11681734770536423, -0.28580427169799805, -0.03518686071038246, 0.09156785905361176, -0.03864280506968498, 0.20121195912361145, -0.0014001140370965004, 
    0.006576411426067352, -0.17409087717533112, -0.0016502680955454707, 0.1617964208126068, -0.09273926168680191, -0.05097940191626549, 0.09139532595872879, 0.23462645709514618, 
    -0.13915325701236725, 0.115970179438591, 0.004801458679139614, -0.08736587315797806, 0.1139359325170517, -0.373199999332428, 0.12489470094442368, -0.06369442492723465, 
    -0.002757062204182148, -0.18517495691776276, -0.045097772032022476, 0.07143136113882065, -0.07745600491762161, 0.026431649923324585, -0.307227224111557, -0.1845235973596573, 
    -0.18156300485134125, 0.09196293354034424, 0.0001638373505556956, 0.05818541347980499, -0.23872560262680054, -0.12567344307899475, -0.13089099526405334, -0.16087846457958221, 
    -0.08160758763551712, -0.26549220085144043, -0.13744021952152252, 0.0928143709897995, 0.019464386627078056, 0.18363551795482635, -0.047136157751083374, -0.24301819503307343, 
    0.11531684547662735, -0.18967509269714355, 0.051265984773635864, 0.16805891692638397, -0.13062641024589539, 0.027806155383586884, 0.14520765841007233, -0.059792112559080124, 
    -0.11371877789497375, 0.08017624169588089, 0.15561921894550323, -0.00573967769742012, 0.1364736407995224, -0.4154541790485382, -0.0009205971728079021, 0.04565593600273132, 
    0.1932481825351715, -0.12357385456562042, -0.05270512402057648, -0.10117850452661514, 0.058472611010074615, -0.34928005933761597, 0.18341393768787384, -0.1514611840248108, 
    0.12124573439359665, -0.18341250717639923, -0.07326585799455643, 0.08132203668355942, 0.009055795148015022, -0.298132061958313, 0.1489247828722, -0.19732172787189484, 
    0.0039531211368739605, 0.14074201881885529, -0.13206572830677032, 0.12608644366264343, 0.04961596429347992, 0.0020910408347845078, -0.03297169879078865, -0.22950923442840576, 
    -0.07223793119192123, -0.1373259574174881, -0.06994668394327164, -0.04478706046938896, 0.11833176016807556, -0.06626797467470169, 0.0039307414554059505, -0.15372471511363983, 
    -0.015668749809265137, 0.0990750715136528, 0.023526528850197792, 0.05398405343294144, 0.05726848915219307, -0.020644210278987885, 0.0633462443947792, -0.13399463891983032, 
    -0.0733073279261589, -0.022653501480817795, -0.00884951651096344, -0.06732336431741714, -0.054159827530384064, 0.023411136120557785, -0.05557958781719208, -0.007936138659715652, 
    -0.06597652286291122, -0.0834222361445427, 0.05286945402622223, 0.03478768467903137, -0.24693797528743744, -0.04698486998677254, 0.019652293995022774, 0.006371597293764353, 
    0.18937018513679504, 0.11409645527601242, -0.33890360593795776, -0.20762425661087036, -0.16659708321094513, 0.04981701076030731, -0.219232439994812, -0.06074156612157822, 
    0.2411690503358841, 0.1831200271844864, -0.08211899548768997, -0.04557511582970619, -0.2903054654598236, 0.17801803350448608, -0.32302114367485046, 0.0771789401769638, 
    0.19998285174369812, 0.10535990446805954, -0.13367092609405518, -0.2956470549106598, 0.13017158210277557, -0.012439139187335968, 0.033703502267599106, 0.27354466915130615, 
    0.0950392559170723, 0.24127215147018433, -0.004450699780136347, 0.00937767792493105, -0.07864843308925629, -0.1325843185186386, -0.15370266139507294, -0.08185048401355743, 
    0.10983681678771973, -0.2445572465658188, -0.08567386865615845, 0.03458498790860176, 0.16450773179531097, 0.0845705196261406, 0.1334499716758728, 0.04590668901801109, 
    -0.22128525376319885, -0.11444985866546631, -0.11169575154781342, 0.0758960172533989, 0.11644557118415833, -0.10281617939472198, -0.19791963696479797, -0.31555435061454773, 
    0.07518167793750763, 0.05355990305542946, -0.1739761382341385, 0.21768733859062195, -0.12910787761211395, -0.009456787258386612, 0.31318265199661255, -0.04522267356514931, 
    0.07512529194355011, 0.12913863360881805, -0.06617208570241928, 0.066977858543396, 0.012331821955740452, 0.16794420778751373, 0.023335741832852364, -0.1332901567220688, 
    0.20871689915657043, 0.062275368720293045, -0.041433800011873245, 0.04328443109989166, 0.10943219810724258, 0.15719768404960632, -0.06350995600223541, -0.0873018428683281, 
    -0.1586698293685913, 0.04703309386968613, -0.280291885137558, 0.15096816420555115, -0.26578524708747864, -0.04901266098022461, 0.08230433613061905, -0.07573982328176498, 
    0.16223850846290588, -0.17951209843158722, -0.03426595777273178, 0.0857309103012085, -0.19880475103855133, -0.04550197720527649, 0.03262932971119881, -0.08984611183404922, 
    0.09862501174211502, 0.0697600245475769, 0.18795569241046906, 0.12013328820466995, 0.1842154860496521, 0.16734559834003448, 0.0721847340464592, 0.058422237634658813, 
    -0.2525533437728882, 0.2907440662384033, 0.1819867640733719, 0.05643818899989128, -0.05851025506854057, 0.35984933376312256, 0.05171797424554825, 0.07301883399486542, 
    -0.15848799049854279, -0.031111380085349083, 0.11211346089839935, 0.3539515733718872, -0.046348001807928085, -0.022880952805280685, -0.38009804487228394, -0.09030823409557343, 
    -0.013882456347346306, 0.09638615697622299, 0.2048734575510025, 0.22009795904159546, -0.009205292910337448, 0.061911892145872116, 0.1402233988046646, 0.03770922124385834, 
    0.0477849543094635, -0.07087015360593796, -0.05801433324813843, 0.30042412877082825, -0.3337078094482422, -0.5640066266059875, 0.30697107315063477, 0.3258689045906067, 
    -0.08926636725664139, 0.21824942529201508, -0.10109315812587738, 0.009518766775727272, -0.00627475418150425, -0.12755359709262848, -0.05739980563521385, -0.1359572410583496, 
    0.03108183667063713, -0.21131563186645508, 0.010850162245333195, -0.03640841320157051, 0.11115588247776031, 0.0019738595001399517, -0.09775184839963913, -0.18726439774036407, 
    -0.03552240505814552, 0.009366007521748543, 0.13583046197891235, 0.12470836937427521, 0.2599632143974304, -0.3317086696624756, -0.194626122713089, 0.08298861235380173, 
    -0.25722426176071167, 0.10303883999586105, -0.38177546858787537, 0.20499765872955322, 0.2079448103904724, 0.2030523121356964, -0.3385295867919922, 0.040613073855638504, 
    -0.013779114000499249, 0.12376885861158371, -0.0924162045121193, -0.026388060301542282, 0.11617252230644226, 0.045162808150053024, 0.11236105859279633, -0.008523058146238327, 
    0.14598670601844788, -0.3163190484046936, 0.3079536557197571, 0.4509637653827667, 0.1425718069076538, 0.17044343054294586, -0.08781834691762924, -0.31316545605659485, 
    -0.036924514919519424, -0.024205490946769714, -0.0059531196020543575, -0.14321263134479523, 0.27303871512413025, -0.10311845690011978, 0.09481754899024963, 0.0638590157032013, 
    -0.3675507605075836, 0.22544808685779572, -0.09420973807573318, 0.0585879422724247, 0.10946759581565857, 0.07281351089477539, 0.04299362748861313, -0.049314867705106735, 
    -0.03416935354471207, -0.1731538474559784, 0.18767885863780975, 0.20868390798568726, -0.21989573538303375, 0.14136415719985962, -0.04610808193683624, 0.017508957535028458, 
    -0.12413287907838821, 0.0741012766957283, -0.37894901633262634, 0.02404124103486538, -0.10750594735145569, 0.05243542417883873, 0.14306874573230743, -0.07822445780038834, 
    -0.14213304221630096, -0.161119744181633, 0.06980498135089874, 0.05268816277384758, -0.14143559336662292, -0.04500902071595192, 0.07070160657167435, 0.12568604946136475, 
    -0.09767082333564758, -0.07321512699127197, 0.20402096211910248, 0.07926066219806671, -0.12082724273204803, -0.0028537281323224306, 0.0529414601624012, -0.06759986281394958, 
    -0.12837368249893188, 0.1552627980709076, -0.12113659828901291, -0.008017645217478275, 0.02644927240908146, 0.08210445195436478, 0.0893884226679802, -0.1802222579717636, 
    -0.026188915595412254, -0.047713156789541245, 0.023715222254395485, -0.3233097791671753, 0.02834288589656353, -0.001621547038666904, 0.09728892147541046, -0.18888433277606964, 
    0.03960666432976723, -0.06275546550750732, -0.06354731321334839, -0.043967824429273605, 0.10005272179841995, 0.19985856115818024, -0.06448764353990555, 0.14881612360477448, 
    -0.05485907569527626, 0.07011326402425766, -0.018111079931259155, -0.21498209238052368, 0.09970338642597198, -0.11503997445106506, 0.13031606376171112, 0.0578274242579937, 
    -0.03394560515880585, 0.08602476865053177, 0.1742488443851471, 0.06094466894865036, -0.2112405002117157, 0.14665070176124573, -0.05481060594320297, 0.2146862894296646, 
    0.15872357785701752, -0.18219158053398132, -0.010576278902590275, 0.13153217732906342, 0.053995851427316666, 0.07356049120426178, 0.06998616456985474, 0.0402369350194931, 
    -0.11237650364637375, 0.0768657922744751, 0.17533251643180847, -0.11792715638875961, -0.029407434165477753, -0.04379448667168617, -0.0976104810833931, 0.021663781255483627, 
    0.023745473474264145, -0.23704224824905396, -0.046284839510917664, -0.021676406264305115, 0.04801638424396515, 0.044181372970342636, -0.15484677255153656, 0.02973950281739235, 
    0.06995443254709244, -0.11279569566249847, 0.26416081190109253, -0.037391871213912964, -0.04812158644199371, 0.16183625161647797, -0.14927048981189728, 0.10045134276151657, 
    -0.07859630882740021, 0.2371452897787094, -0.10939307510852814, 0.21369604766368866, -0.08157597482204437, 0.09992394596338272, 0.15382705628871918, -0.3565219044685364, 
    0.18892167508602142, 0.12111607193946838, 0.0676172524690628, -0.12363968789577484, -0.5273898839950562, -0.06088772788643837, 0.11379081755876541, -0.11895564943552017, 
    -0.050561994314193726, 0.12981858849525452, 0.25502830743789673, 0.10881998389959335, 0.07781723886728287, 0.03083859384059906, 0.011527921073138714, -0.2031787484884262, 
    0.03017466329038143, 0.07254697382450104, 0.1428588479757309, -0.19337309896945953, 0.1337188333272934, 0.0013690936611965299, 0.21923618018627167, -0.10932274162769318, 
    -0.005133520811796188, -0.3173917531967163, -0.31680387258529663, 0.27799278497695923, -0.10003474354743958, 0.20130635797977448, -0.01585976593196392, 0.07016099989414215, 
    0.08703769743442535, -0.1390356421470642, -0.03705229237675667, 0.004636910744011402, 0.05386669933795929, 0.0002578216081019491, -0.09487923979759216, -0.1702018529176712, 
    -0.13649339973926544, -0.11330614238977432, 0.0694543793797493, 0.097012460231781, -0.17630329728126526, 0.1865563690662384, -0.1993369460105896, -0.04796995595097542, 
    0.07955877482891083, -0.006316305138170719, -0.24556128680706024, 0.0768599733710289, 0.1705562174320221, 0.03267945349216461, -0.0478513240814209, -0.1982404589653015, 
    0.3994900584220886, -0.047587309032678604, 0.15255531668663025, 0.10183998942375183, 0.02116881124675274, -0.06696110218763351, -0.14228512346744537, 0.10156199336051941, 
    -0.15502813458442688, 0.14135749638080597, -0.09658023715019226, -0.3382796049118042, 0.15835648775100708, -0.12659643590450287, 0.3101709485054016, -0.08112362772226334, 
    0.0772140696644783, -0.06022528558969498, -0.12001818418502808, 0.20444470643997192, -0.23429246246814728, 0.05855781212449074, 0.19829265773296356, -0.10159905254840851, 
    -0.06355403363704681, -0.040063921362161636, -0.12107256799936295, -0.09430251270532608, 0.1272607445716858, -0.07217960059642792, 0.036926690489053726, -0.0195853840559721, 
    -0.03504098579287529, 0.30033060908317566, 0.0871400311589241, -0.2588120698928833, 0.015284702181816101, 0.06756158918142319, -0.4705948531627655, -0.24502457678318024, 
    -0.04969879984855652, -0.18843333423137665, 0.2760578691959381, -0.30081313848495483, 0.0699557363986969, 0.07306229323148727, -0.2107013463973999, -0.008221135474741459, 
    -0.13663209974765778, 0.04584150388836861, 0.1998593956232071, 0.005174382124096155, 0.07876148074865341, -0.2631649076938629, 0.33170515298843384, -0.14482569694519043, 
    -0.2793336808681488, -0.0559704527258873, -0.2022671401500702, -0.13678337633609772, 0.39111703634262085, 0.05248897150158882, 0.1373698115348816, 0.057739488780498505, 
    -0.14383691549301147, -0.35458827018737793, 0.03651959449052811, -0.26427382230758667, -0.007307746913284063, -0.1268281787633896, -0.08055471628904343, -0.1626746654510498, 
    0.1943819522857666, -0.5643070936203003, 0.017760179936885834, -0.39652490615844727, 0.26864930987358093, -0.12362290918827057, 0.050248872488737106, 0.20985393226146698, 
    -0.44185173511505127, -0.1271679699420929, 0.13842976093292236, 0.17715269327163696, 0.08115086704492569, -0.02759239822626114, -0.05879049375653267, -0.050704874098300934, 
    -0.025928033515810966, 0.053451959043741226, -0.2713996171951294, 0.0028471036348491907, 0.2027006447315216, 0.11074259877204895, 0.14357736706733704, 0.07855121791362762, 
    -0.016916928812861443, -0.07535918056964874, 0.00024117197608575225, 0.1921701729297638, -0.23432359099388123, 0.03294806927442551, -0.12238389998674393, -0.12392456829547882, 
    0.05506790429353714, 0.22320853173732758, -0.005147586110979319, 0.07035928219556808, -0.01082606241106987, 0.039971742779016495, 0.14593681693077087, -0.07085150480270386, 
    -0.17377740144729614, 0.23521174490451813, -0.20066890120506287, -0.3355511724948883, -0.09867390245199203, -0.02136433683335781, -0.3304131031036377, 0.025084776803851128, 
    -0.2956254482269287, 0.36007726192474365, 0.07084885239601135, 0.11263453215360641, 0.04168771207332611, -0.1574014276266098, 0.315845251083374, -0.13911332190036774, 
    0.09368859976530075, -0.17335550487041473, -0.07348738610744476, 0.1770395189523697, -0.578925609588623, 0.19440317153930664, 0.23046262562274933, -0.03395931422710419, 
    0.2601497769355774, -0.07104778289794922, 0.2747664451599121, -0.13960769772529602, 0.012137719430029392, -0.07505002617835999, 0.007595628499984741, 0.007381614297628403, 
    0.2394743114709854, -0.2499854415655136, -0.0004033063305541873, -0.053203266113996506, -0.15327097475528717, 0.2291456162929535, 0.018501773476600647, 0.2010153830051422, 
    0.0844828337430954, -0.11562077701091766, -0.297024130821228, 0.24012665450572968, 0.14654774963855743, 0.09270505607128143, -0.24187332391738892, 0.060811445116996765, 
    0.15950758755207062, 0.11458049714565277, -0.043330322951078415, 0.08347169309854507, 0.009521274827420712, -0.10185464471578598, 0.1453462541103363, 0.13553689420223236, 
    -0.263123095035553, 0.12901045382022858, 0.002792832674458623, 0.16974197328090668, 0.06424025446176529, -0.09017732739448547, 0.11238066107034683, 0.00914069078862667, 
    -0.17094719409942627, 0.030599158257246017, 0.10169035196304321, 0.009639554657042027, 0.23602193593978882, -0.1156371608376503, -0.10719753801822662, 0.06610193848609924, 
    -0.28215479850769043, 0.28744396567344666, -0.08040773868560791, -0.29714930057525635, 0.010436762124300003, -0.07580945640802383, 0.02346971444785595, 0.06525327265262604, 
    -0.13521002233028412, -0.12297272682189941, -0.2503056526184082, -0.18228040635585785, -0.4172990322113037, 0.3651043772697449, -0.15778082609176636, -0.2061208039522171, 
    0.03957486152648926, -0.12927240133285522, -0.32376548647880554, 0.35860106348991394, 0.17471125721931458, -0.1794288456439972, -0.14655564725399017, 0.043818943202495575, 
    -0.2620178461074829, 0.11860314011573792, -0.11791286617517471, 0.21366384625434875, -0.029309427365660667, -0.24962720274925232, 0.1690213829278946, 0.02094333991408348, 
    -0.042724382132291794, -0.014778573997318745, 0.05956102907657623, -0.08953874558210373, 0.28386691212654114, 0.05215802788734436, 0.1904185265302658, 0.2511079013347626, 
    -0.0679268166422844, -0.023006998002529144, 0.017859749495983124, 0.021407540887594223, 0.06961578130722046, 0.07893844693899155, -0.030610566958785057, 0.08664107322692871, 
    -0.21395979821681976, 0.1019006073474884, 0.04148365557193756, 0.05330128222703934, 0.24040007591247559, -0.11290743201971054, 0.16453805565834045, -0.13030658662319183, 
    -0.007814563810825348, -0.03539230674505234, -0.2313481718301773, 0.21047058701515198, -0.045172691345214844, 0.10963188856840134, -0.006626037415117025, -0.04915617033839226, 
    0.024747882038354874, 0.1724563091993332, -0.19509263336658478, 0.12780489027500153, 0.13928666710853577, 0.12890271842479706, -0.1012951135635376, 0.27845481038093567, 
    -0.09918133169412613, 0.07625465095043182, 0.10434889048337936, -0.08471627533435822, -0.06171519681811333, 0.09458949416875839, 0.1897357702255249, 0.20230156183242798, 
    -0.23828846216201782, 0.18614889681339264, 0.004267031792551279, 0.06956929713487625, 0.04645563289523125, 0.18582142889499664, 0.09427617490291595, -0.10206907242536545, 
    0.027783339843153954, 0.434867799282074, -0.20687639713287354, 0.20119382441043854, -0.14911232888698578, 0.0525469034910202, 0.041013140231370926, -0.17214523255825043, 
    0.15217691659927368, 0.16707271337509155, -0.18290966749191284, -0.10054013133049011, 0.25855594873428345, -0.12448357790708542, 0.07300911098718643, -0.2831456661224365, 
    -0.30498361587524414, 0.28036952018737793, -0.259134441614151, -0.0036267535760998726, 0.17061172425746918, -0.004791270010173321, -0.24659569561481476, -0.019325843080878258, 
    0.08582980930805206, 0.13081060349941254, 0.13866281509399414, 0.1828177571296692, 0.22375565767288208, 0.11783795803785324, -0.07489757239818573, 0.14564791321754456, 
    -0.03714181110262871, 0.017751913517713547, 0.17936663329601288, -0.07409767806529999, 0.010917932726442814, -0.0406806543469429, 0.09173937141895294, -0.014602381736040115, 
    -0.03230011463165283, -0.10049362480640411, 0.02064485475420952, 0.2212926149368286, -0.17670725286006927, 0.049977876245975494, -0.18188564479351044, 0.08636009693145752, 
    0.09510624408721924, 0.1899903416633606, 0.10903418809175491, -0.15750661492347717, -0.34433513879776, -0.13706755638122559, 0.1191224679350853, -0.16347655653953552, 
    0.17669279873371124, 0.2865920662879944, 0.08399734646081924, -0.021578725427389145, -0.17820709943771362, -0.21852128207683563, 0.09570226818323135, -0.14985236525535583, 
    0.2112940400838852, 0.15092182159423828, 0.04041963815689087, 0.012707062996923923, 0.007622964680194855, 0.12673500180244446, -0.10674144327640533, -0.1805841028690338, 
    0.08599687367677689, 0.05450350418686867, 0.0769735798239708, -0.05516214668750763, 0.013021525926887989, -0.3674390912055969, 0.06363602727651596, -0.5042422413825989, 
    0.1481672078371048, 0.14380250871181488, -0.11705813556909561, 0.0690632089972496, 0.15555459260940552, -0.034813281148672104, 0.11870643496513367, 0.23709344863891602, 
    -0.07649383693933487, -0.11887644976377487, -0.22599628567695618, 0.19309695065021515, 0.12935394048690796, 0.08892080187797546, -0.10732198506593704, 0.2474987655878067, 
    -0.24474413692951202, -0.12736082077026367, 0.05570313334465027, 0.19139821827411652, -0.3607069253921509, -0.0212839487940073, -0.1378982961177826, 0.05919962003827095, 
    -0.21003074944019318, 0.004570161923766136, 0.06730088591575623, -0.06624229997396469, 0.11482473462820053, -0.1752825379371643, 0.08332735300064087, -0.16559001803398132, 
    0.24583657085895538, -0.0813790038228035, 0.06805584579706192, -0.38602113723754883, 0.2811277210712433, 0.22099140286445618, -0.20296984910964966, 0.1321210414171219, 
    -0.022957738488912582, -0.30399495363235474, 0.36271846294403076, -0.018809745088219643, 0.008536668494343758, -0.041724253445863724, 0.13581719994544983, -0.17628338932991028, 
    -0.04758615791797638, 0.10383331775665283, 0.037807803601026535, -0.16429634392261505, -0.11002207547426224, -0.4243628978729248, 0.24848316609859467, 0.21248723566532135, 
    0.1722438931465149, 0.061941128224134445, 0.21151871979236603, -0.1288406401872635, 0.0255900751799345, 0.21613521873950958, -0.1261359602212906, -0.21001610159873962, 
    0.11031381785869598, -0.08017310500144958, -0.18158473074436188, 0.032395366579294205, 0.05428352952003479, 0.11040816456079483, 0.10165424644947052, -0.006460694596171379, 
    -0.41043663024902344, -0.09253565967082977, -0.006781091447919607, -0.17278937995433807, 0.0017838948406279087, 0.4182426929473877, 0.39736130833625793, -0.22173184156417847, 
    -0.03012731298804283, -0.16942381858825684, -0.000299213919788599, -0.04693441465497017, 0.015310840681195259, 0.2066263109445572, -0.3085881173610687, -0.08504143357276917, 
    -0.0461190827190876, -0.18663112819194794, 0.0285369623452425, 0.2222721427679062, 0.1260831207036972, 0.07078225165605545, 0.08230631053447723, -0.06428273767232895, 
    -0.45031169056892395, 0.2938042879104614, 0.10183025896549225, -0.025079207494854927, 0.1712501049041748, 0.007418266963213682, -0.13456770777702332, -0.0004932328592985868, 
    0.029881713911890984, 0.1827339082956314, -0.07710839062929153, -0.026347192004323006, 0.03121388703584671, 0.0012440306600183249, 0.10614171624183655, 0.023893052712082863, 
    -0.15606246888637543, -0.05148161202669144, 0.09410865604877472, -0.06515785306692123, 0.10503323376178741, 0.11850953102111816, 0.34783580899238586, -0.10239148885011673, 
    0.12812910974025726, -0.08078458905220032, 0.21197324991226196, 0.08658576756715775, 0.15835382044315338, 0.11309473216533661, -0.21439416706562042, -0.014285181649029255, 
    -0.03834666684269905, 0.21562471985816956, -0.4572308361530304, -0.05956955999135971, 0.025527039542794228, -0.03990786522626877, -0.2561515271663666, -0.24324969947338104, 
    -0.04460855573415756, -0.019135719165205956, 0.2618454098701477, 0.1466628462076187, 0.004007543437182903, 0.15811346471309662, -0.24245218932628632, -0.4161607623100281, 
    0.09360680729150772, 0.14137038588523865, -0.007047895807772875, -0.12108685821294785, -0.17951254546642303, -0.26182320713996887, 0.20164239406585693, -0.047300584614276886, 
    0.07280398160219193, -0.014563522301614285, -0.02882973663508892, -0.00445858808234334, 0.03271222114562988, 0.014294429682195187, 0.19483035802841187, -0.013333076611161232, 
    0.08367079496383667, 0.06255830079317093, 0.07922372221946716, -0.19911639392375946, -0.07217846810817719, 0.18224464356899261, -0.142506405711174, 0.22887198626995087, 
    -0.07642300426959991, 0.09176363795995712, 0.07661978900432587, 0.05299602076411247, 0.05524187535047531, 0.0046403249725699425, 0.08234965801239014, -0.11639437824487686, 
    -0.12844446301460266, 0.11228243261575699, -0.04670511558651924, 0.14344029128551483, -0.17151662707328796, 0.006829556077718735, 0.06195025518536568, 0.14067716896533966, 
    -0.014286680147051811, -0.11565865576267242, 0.1986285150051117, -0.08948933333158493, -0.03763365373015404, -0.057085875421762466, -0.11044777929782867, 0.15655118227005005, 
    -0.06581965833902359, -0.0980122908949852, -0.047438185662031174, -0.17665261030197144, -0.09860396385192871, 0.011263486929237843, -0.16378594934940338, -0.005949439015239477, 
    -0.05537136644124985, -0.02754027023911476, -0.20519880950450897, 0.10872312635183334, 0.2416418194770813, 0.1712539941072464, 0.1300920844078064, 0.09763526171445847, 
    0.04319420084357262, 0.035387761890888214, -0.23798219859600067, -0.3356921970844269, 0.1457758992910385, 0.14298643171787262, -0.30296024680137634, -0.167371466755867, 
    -0.0846438854932785, -0.08746933192014694, -0.04829922690987587, 0.08720351755619049, -0.07186085730791092, -0.034896574914455414, 0.052444227039813995, -0.27575019001960754, 
    0.04747388884425163, 0.2326720803976059, -0.10953783988952637, 0.0970076471567154, 0.12150824815034866, 0.24301376938819885, 0.06223243102431297, -0.0423913411796093, 
    0.03825325891375542, -0.0444418229162693, -0.1992737501859665, -0.018481431528925896, 0.03574741259217262, -0.02210296504199505, 0.015483803115785122, -0.07787931710481644, 
    -0.11545925587415695, 0.05859674513339996, -0.0448259562253952, 0.019460931420326233, -0.15804830193519592, 0.05849679559469223, 0.22880761325359344, -0.17456631362438202, 
    -0.053175874054431915, -0.003191258991137147, 0.0926554948091507, 0.20728501677513123, 0.023516301065683365, -0.0073343198746442795, 0.12827202677726746, 0.17551128566265106, 
    -0.1368989795446396, 0.05961144343018532, -0.009480924345552921, -0.04329843074083328, 0.2843784689903259, -0.0764784887433052, -0.22591273486614227, 0.18635734915733337, 
    0.2567577660083771, 0.07549898326396942, 0.3651463985443115, -0.23688873648643494, -0.27967625856399536, -0.07298868894577026, 0.08076512068510056, 0.22396299242973328, 
    -0.3385898470878601, -0.2728422284126282, -0.011162501759827137, -0.010609551332890987, 0.07933079451322556, -0.09326820075511932, 0.0006381129496730864, 0.0841824933886528, 
    -0.17293336987495422, 0.2824733853340149, 0.041504185646772385, 0.11320506781339645, 0.15765142440795898, 0.1834939420223236, 0.16580630838871002, -0.2640361785888672, 
    -0.11230628937482834, -0.019385745748877525, -0.14878015220165253, -0.052981916815042496, -0.08101008087396622, 0.0036373003385961056, -0.4262877106666565, 0.13771988451480865, 
    -0.2379807084798813, -0.24380290508270264, -0.13965624570846558, -0.0016854379791766405, 0.22886717319488525, -0.24094745516777039, 0.15531884133815765, -0.18506614863872528, 
    0.022389085963368416, -0.14162398874759674, -0.2989739775657654, -0.24279500544071198, 0.1626535952091217, 0.05056503787636757, 0.2019059807062149, -0.11935564130544662, 
    0.1318587362766266, 0.24448901414871216, -0.13877679407596588, -0.014794506132602692, 0.08869261294603348, -0.11310223489999771, 0.049544863402843475, 0.15701636672019958, 
    0.0036573652178049088, 0.020120158791542053, -0.021486276760697365, 0.29823195934295654, -0.00838247500360012, -0.28746145963668823, 0.1775902658700943, -0.3256814181804657, 
    -0.09913051128387451, 0.09065350890159607, -0.10260330140590668, -0.06565170735120773, 0.18386268615722656, -0.03730253130197525, -0.21136099100112915, -0.13716143369674683, 
    -0.20641446113586426, -0.16431306302547455, -0.04117186367511749, 0.0074616544879972935, -0.23009946942329407, 0.02110033854842186, 0.08031748980283737, 0.13852718472480774, 
    0.29544955492019653, -0.008133897557854652, 0.143856018781662, 0.16302846372127533, -0.10366825759410858, 0.009965223260223866, -0.0170596931129694, 0.14775343239307404, 
    -0.09253817051649094, 0.2037516087293625, 0.018895117565989494, 0.058314405381679535, -0.174125075340271, -0.15575085580348969, -0.05915103480219841, 0.28650903701782227, 
    0.03678649291396141, 0.20984627306461334, 0.2825886309146881, 0.09618570655584335, 0.14318284392356873, -0.2822302579879761, -0.03349166736006737, 0.008630420081317425, 
    0.2644910514354706, -0.11900512129068375, -0.11655370146036148, 0.07513787597417831, -0.14717572927474976, 0.1992739737033844, 0.17849916219711304, 0.012096277438104153, 
    0.31631502509117126, -0.12878933548927307, -0.3816527724266052, 0.24242402613162994, -0.13315097987651825, -0.08673833310604095, -0.04504440724849701, -0.4421631395816803, 
    0.19727714359760284, 0.1643962562084198, 0.104580819606781, 0.05694860965013504, -0.13004614412784576, -0.0390981025993824, 0.07932298630475998, 0.18503637611865997, 
    0.07598290592432022, 0.06771824508905411, -0.4155816435813904, -0.2811661660671234, 0.2680004835128784, -0.07616900652647018, -0.04143502190709114, 0.07820169627666473, 
    -0.4004868268966675, 0.1623162478208542, -0.13157309591770172, 0.16980764269828796, 0.05037496238946915, -0.014755165204405785, 0.061497826129198074, -0.2931939661502838, 
    -0.06031698361039162, -0.1745157241821289, -0.1076451912522316, -0.09078370779752731, -0.07779756933450699, 0.004710125736892223, -0.20472632348537445, 0.25865232944488525, 
    0.07355572283267975, 0.007971975021064281, 0.05315014347434044, -0.1797836422920227, 0.2955506443977356, -0.3094220459461212, 0.14813223481178284, -0.24950185418128967, 
    0.13672667741775513, -0.3557237684726715, -0.06399581581354141, -0.3344050645828247, 0.09790327399969101, -0.05468491092324257, -0.27072206139564514, 0.09193961322307587, 
    0.13114605844020844, -0.22009733319282532, 0.0008940069237723947, -0.013439668342471123, 0.007074994500726461, 0.005426115356385708, 0.07307007163763046, -0.1053566038608551, 
    -0.04566626250743866, -0.30079424381256104, -0.002288992051035166, 0.0420251227915287, 0.06707495450973511, 0.0032552769407629967, 0.05887231230735779, -0.2700807750225067, 
    0.21065549552440643, -0.0237710140645504, 0.04262730851769447, -0.008071281015872955, 0.12888754904270172, 0.07700294256210327, 0.08051814883947372, -0.17708009481430054, 
    0.1276361495256424, -0.05400494113564491, 0.10848034173250198, 0.25077149271965027, 0.02807885780930519, 0.2152673304080963, -0.17806211113929749, -0.15054728090763092, 
    -0.23129115998744965, 0.20880091190338135, 0.2419244796037674, -0.1646602898836136, 0.11963092535734177, 0.17765933275222778, -0.06298892945051193, 0.19255870580673218, 
    0.0705656111240387, 0.05996930971741676, 0.1456010788679123, -0.22236938774585724, -0.04329945519566536, 0.01351605262607336, -0.0419732928276062, 0.2231200784444809, 
    0.17831923067569733, 0.007422987371683121, -0.047631267458200455, 0.04593746364116669, 0.24183736741542816, 0.11043555289506912, -0.2378655970096588, 0.013897653669118881, 
    0.021235385909676552, 0.13473057746887207, -0.10268537700176239, 0.06704576313495636, 0.21372047066688538, 0.09807783365249634, 0.2203182429075241, -0.08157958090305328, 
    -0.0511121042072773, -0.5893206000328064, 0.16389772295951843, 0.025265444070100784, 0.04149430990219116, -0.16823710501194, -0.1315220594406128, -0.036631789058446884, 
    -0.003169297007843852, 0.14150376617908478, -0.29592183232307434, 0.07461118698120117, -0.07516131550073624, 0.008892450481653214, 0.008603818714618683, 0.12365972250699997, 
    0.03964250534772873, -0.2354276478290558, -0.20285408198833466, 0.038993824273347855, 0.06920996308326721, -0.17755284905433655, -0.2779337167739868, 0.04588369280099869, 
    0.29656654596328735, -0.30193036794662476, 0.1074015349149704, -0.204522043466568, -0.06977932155132294, 0.26908281445503235, -0.11032944917678833, -0.1443120688199997, 
    -0.11362457275390625, -0.056516651064157486, 0.11022645980119705, 0.00735422782599926, 0.3244171142578125, 0.20284150540828705, -0.3319181501865387, 0.1934240609407425, 
    -0.22668544948101044, -0.11745038628578186, -0.042054250836372375, -0.017293881624937057, -0.26340770721435547, 0.10977104306221008, -0.05435549095273018, -0.20628903806209564, 
    -0.20461124181747437, -0.17871838808059692, -0.06355650722980499, -0.025135742500424385, -0.08119736611843109, -0.12475370615720749, 0.06805472075939178, 0.16144029796123505, 
    0.16232340037822723, 0.08207204192876816, 0.06258488446474075, -0.007941992953419685, 0.19123592972755432, 0.1503317952156067, 0.10827981680631638, 0.06341226398944855, 
    0.10535908490419388, -0.0023577071260660887, -0.3270074427127838, -0.08274337649345398, 0.07952997088432312, 0.004985187202692032, -0.17939549684524536, 0.1261138767004013, 
    -0.057677969336509705, -0.16283966600894928, -0.06628793478012085, 0.17234638333320618, -0.061144255101680756, -0.024598032236099243, 0.03372586891055107, 0.06570662558078766, 
    -0.11860030889511108, 0.01395744550973177, 0.14007976651191711, -0.056720491498708725, -0.05309007316827774, 0.6543315052986145, -0.24751901626586914, -0.1007516011595726, 
    0.15251465141773224, 0.050514329224824905, -0.0016500074416399002, -0.06959249824285507, -0.1353461742401123, 0.07920121401548386, -0.3101041913032532, 0.007685444317758083, 
    -0.09579282999038696, 0.18928465247154236, -0.05529022589325905, -0.4783884286880493, -0.3479487895965576, 0.2811776399612427, 0.09570415318012238, 0.19437332451343536, 
    0.1019538938999176, -0.03857004642486572, 0.056219883263111115, 0.09730551391839981, -0.21938897669315338, -0.08818253129720688, 0.03641723096370697, -0.0008307261159643531, 
    -0.04778004437685013, 0.17846499383449554, -0.15565244853496552, -0.4153061807155609, 0.10196521133184433, 0.14265406131744385, -0.08842606097459793, 0.08401904255151749, 
    0.08993912488222122, -0.1673087328672409, 0.056095995008945465, 0.0034804546739906073, 0.1788705736398697, 0.163293719291687, -0.35193899273872375, -0.11899538338184357, 
    0.044640883803367615, -0.11533074826002121, 0.15093906223773956, 0.14711444079875946, -0.002147258259356022, -0.09417401254177094, 0.16232585906982422, 0.01062050275504589, 
    -0.15880803763866425, 0.22662542760372162, 0.32716599106788635, -0.04000342637300491, 0.14379431307315826, -0.011825941503047943, 0.12153846770524979, 0.11394014954566956, 
    0.1625967174768448, -0.008047886192798615, -0.057989444583654404, 0.08699245005846024, 0.09846432507038116, 0.1776476800441742, 0.19754400849342346, -0.0011840841034427285, 
    0.30927222967147827, 0.06623971462249756, 0.13595913350582123, 0.24388599395751953, 0.010651958175003529, 0.05941392481327057, -0.018569976091384888, 0.010499099269509315, 
    -0.14146509766578674, 0.1804008185863495, 0.039270102977752686, 0.17605452239513397, -0.01728190667927265, -0.06775100529193878, 0.09202788770198822, 0.04367005452513695, 
    0.0707317367196083, -0.026191679760813713, 0.2346339225769043, 0.18653182685375214, -0.06472722440958023, -0.038426294922828674, -0.1282813996076584, -2.921906707342714e-05, 
    -0.07998891174793243, -0.17329852283000946, -0.1367967277765274, -0.12132805585861206, 0.2519369125366211, 0.011621826328337193, -0.10633964836597443, -0.031075652688741684, 
    0.06243635341525078, 0.0025047690141946077, -0.08570295572280884, 0.23294971883296967, 0.12584994733333588, -0.4278050363063812, 0.2603718042373657, 0.16390129923820496, 
    -0.45925435423851013, -0.3145986497402191, 0.04398601874709129, 0.20631329715251923, 0.025040991604328156, 0.2637465298175812, -0.019231751561164856, -0.1256256252527237, 
    -0.08066066354513168, -0.07793373614549637, -0.010885072872042656, -0.09870213270187378, 0.04125940427184105, 0.2129601240158081, -0.10699529945850372, -0.03785017877817154, 
    0.12634895741939545, 0.11828324943780899, 0.18306845426559448, 0.28465476632118225, -0.1726497858762741, -0.24978065490722656, 0.19395983219146729, 0.18963588774204254, 
    0.2355668842792511, -0.13837946951389313, 0.2610611617565155, -0.26285773515701294, -0.11804007738828659, -0.05018573999404907, 0.16388891637325287, -0.08770449459552765, 
    -0.004376749508082867, 0.11800353229045868, 0.19543667137622833, -0.007353398948907852, 0.12551245093345642, -0.16572745144367218, 0.06196059286594391, -0.08100925385951996, 
    -0.025752447545528412, -0.34364792704582214, 0.1908135861158371, 0.3158271014690399, -0.3332386612892151, 0.004073519725352526, 0.0009457526612095535, -0.15153641998767853, 
    0.34447193145751953, -0.1745353490114212, 0.14812423288822174, -0.14681760966777802, 0.07369129359722137, -0.041453760117292404, 0.09765231609344482, -0.007551549468189478, 
    -0.36035043001174927, 0.040632762014865875, 0.24271072447299957, -0.24000278115272522, -0.11723849177360535, -0.05787593498826027, 0.1270681619644165, 0.0834328681230545, 
    0.010869239456951618, 0.05882353335618973, 0.08921079337596893, -0.17403581738471985, 0.01397183071821928, -0.08145973086357117, -0.11049274355173111, 0.009046338498592377, 
    -0.015976494178175926, -0.10081551969051361, -0.18841120600700378, -0.1001076027750969, 0.2200981080532074, 0.28863638639450073, -0.17359112203121185, -0.2690812647342682, 
    -0.28001827001571655, 0.21368879079818726, 0.02910420298576355, 0.08612095564603806, 0.06580491364002228, -0.005434883292764425, -0.14575956761837006, -0.0666554868221283, 
    0.14951375126838684, 0.016261223703622818, -0.3051620125770569, 0.12383411824703217, 0.2372656911611557, 0.003924491815268993, 0.18385612964630127, -0.39517533779144287, 
    0.2307080179452896, 0.0338657908141613, -0.17298980057239532, 0.043888676911592484, -0.12103058397769928, 0.026349393650889397, -0.19162927567958832, -0.19909945130348206, 
    0.09855273365974426, 0.26686331629753113, -0.18599946796894073, 0.18645651638507843, -0.10933057963848114, -0.05970463156700134, -0.1380927860736847, 0.14048393070697784, 
    -0.011145127937197685, 0.18654535710811615, -0.27787235379219055, -0.13755421340465546, -0.072886623442173, 0.15842808783054352, -0.0004392990958876908, 0.25894832611083984, 
    -0.0982561707496643, -0.13216085731983185, -0.1967344433069229, 0.11104030907154083, -0.06755819916725159, 0.31134653091430664, -0.18371401727199554, -0.07076352834701538, 
    -0.009530534036457539, 0.11194802820682526, 0.11260619014501572, -0.3181850016117096, 0.10528673976659775, -0.1637250930070877, -0.10273076593875885, 0.008389350026845932, 
    0.08961270749568939, -0.14790579676628113, -0.04393872991204262, 0.011735708452761173, 0.3037891387939453, 0.02340276725590229, 0.10160406678915024, 0.10440799593925476, 
    -0.05828230082988739, 0.04109124839305878, 0.17630711197853088, -0.16658775508403778, 0.14441801607608795, -0.11749651283025742, 0.3738255500793457, -0.08753472566604614, 
    -0.16151656210422516, 0.17539849877357483, 0.1858474165201187, 0.005047531332820654, -0.34269291162490845, -0.08602611720561981, 0.007464467082172632, -0.1122380942106247, 
    -0.005239994265139103, -0.063423752784729, 0.12086948752403259, -0.10568518191576004, 0.0549551285803318, 0.23620440065860748, -0.039259813725948334, 0.08708002418279648, 
    0.004133273381739855, -0.2725149393081665, 0.18611234426498413, -0.2138586789369583, 0.04563909024000168, 0.11227594316005707, -0.15213124454021454, 0.08415955305099487, 
    -0.1982911378145218, -0.2031194567680359, 0.006613315548747778, 0.16160109639167786, -0.21647880971431732, -0.04362157732248306, 0.15287227928638458, 0.010992322117090225, 
    0.01443491317331791, -0.14493095874786377, -0.030642757192254066, -0.2812003493309021, -0.18917179107666016, 0.029968060553073883, 0.15832827985286713, -0.2455717921257019, 
    0.052555713802576065, -0.09730637818574905, 0.15427939593791962, -0.04473919793963432, 0.056849610060453415, 0.13068191707134247, -0.32901740074157715, -0.23785901069641113, 
    -0.10560834407806396, 0.07540208846330643, 0.04415480047464371, -0.14057756960391998, -0.17063674330711365, 0.02018485590815544, -0.06379179656505585, 0.23218359053134918, 
    0.06471569836139679, 0.07549384981393814, 0.07344658672809601, 0.08441805839538574, 0.0686715617775917, 0.1444278508424759, -0.20968490839004517, 0.025508247315883636, 
    -0.10312377661466599, 0.10832435637712479, 0.1189965009689331, -0.15200917422771454, -0.11000362783670425, 0.21406084299087524, 0.04478174075484276, 0.24083413183689117, 
    -0.27373337745666504, -0.12691907584667206, -0.027690259739756584, 0.10739327222108841, -0.036509402096271515, 0.16483621299266815, -0.07477390021085739, 0.0020069244783371687, 
    -0.06261610239744186, -0.04146099463105202, 0.17440761625766754, 0.0586581751704216, 0.0810122936964035, -0.14921392500400543, -0.06259511411190033, -0.06265965849161148, 
    -0.28565168380737305, -0.10628224909305573, -0.032635994255542755, -0.18829487264156342, 0.2880799174308777, 0.07629211246967316, 0.15930072963237762, -0.14794357120990753, 
    0.13604101538658142, 0.04082830622792244, -0.14099569618701935, 0.03313428908586502, -0.19774721562862396, -0.12640516459941864, -0.16694776713848114, -0.42967531085014343, 
    -0.261353075504303, 0.23591157793998718, -0.021579649299383163, 0.006195086520165205, -0.05667964369058609, -0.06117943674325943, -0.03171528875827789, -0.1208876445889473, 
    -0.13923241198062897, 0.1501890867948532, -0.11898690462112427, -0.1834568828344345, -0.19205567240715027, -0.07173026353120804, 0.23827381432056427, 0.049024224281311035, 
    -0.05358966067433357, 0.08622625470161438, -0.027688028290867805, -0.050768401473760605, 0.04634469747543335, 0.19752025604248047, 0.047658078372478485, 0.11708688735961914, 
    -0.2751917243003845, -0.0631975457072258, -0.17396637797355652, -0.08657681196928024, 0.07621406763792038, -0.08112107962369919, 0.0692875012755394, 0.010656433179974556, 
    0.04091117903590202, 0.022315435111522675, 0.002146119251847267, 0.003046463243663311, -0.10072021186351776, -0.05000552535057068, 0.002924422500655055, 0.158639058470726, 
    -0.024049660190939903, 0.10023069381713867, -0.10167700052261353, -0.23755306005477905, -0.26157036423683167, 0.053124330937862396, -0.1822301596403122, -0.08229009062051773, 
    -0.02375788241624832, 0.09120211005210876, -0.26687362790107727, 0.006151319481432438, -0.149997740983963, -0.040302153676748276, 0.24567142128944397, -0.1367306262254715, 
    -0.15443745255470276, 0.026050815358757973, -0.012327082455158234, -0.11162273585796356, -0.1328863650560379, 0.07367036491632462, -0.0720243826508522, -0.058229222893714905, 
    -0.12267136573791504, -0.1734856218099594, -0.11277240514755249, -0.021366393193602562, 0.1729729026556015, -0.02266513742506504, 0.06036844849586487, -0.009769631549715996, 
    0.12237602472305298, 0.06323418766260147, -0.08771325647830963, 0.011822372674942017, 0.03333829715847969, 0.16330987215042114, -0.023539485409855843, 0.17059947550296783, 
    -0.06861630827188492, 0.14710363745689392, -0.09238778799772263, 0.19725099205970764, -0.258604496717453, 0.15680252015590668, 0.2077653855085373, -0.010985330678522587, 
    0.026033585891127586, -0.0810159221291542, -0.11231008172035217, 0.12850837409496307, -0.08895839005708694, -0.18500450253486633, 0.0831274539232254, 0.05980369821190834, 
    0.03139575570821762, 0.22011320292949677, -0.17372456192970276, 0.004679488949477673, -0.21773900091648102, 0.2175707072019577, 0.17023727297782898, -0.20343463122844696, 
    -0.16490891575813293, 0.1146177276968956, 0.18131117522716522, -0.012804683297872543, 0.06476029753684998, 0.10871412605047226, 0.00999678485095501, -0.16930827498435974, 
    0.08510036021471024, 0.040091726928949356, -0.12391829490661621, 0.1178332269191742, 0.11560633778572083, 0.07791723310947418, 0.009629455395042896, -0.0330682210624218, 
    0.32298150658607483, -0.22735118865966797, -0.1876169890165329, -0.08746641129255295, 0.17017056047916412, -0.1947389841079712, 0.11535555124282837, 0.07727467268705368, 
    -0.09455019235610962, 0.014546483755111694, 0.15638990700244904, -0.03321950510144234, -0.17194285988807678, -0.014677265658974648, 0.10255895555019379, 0.42061513662338257, 
    -0.03265819698572159, -0.08504816889762878, -0.02292652055621147, 0.13890144228935242, -0.09066826105117798, -0.0066703734919428825, 0.19667018949985504, -0.1344403326511383, 
    0.10979495942592621, 0.033958982676267624, -0.007302084472030401, -0.47786515951156616, -0.2301786243915558, 0.051779747009277344, 0.08777519315481186, -0.11446257680654526, 
    0.05388491228222847, -0.21172583103179932, 0.32775798439979553, 0.1077318787574768, -0.18805108964443207, -0.12454359978437424, 0.01925506256520748, 0.0018063243478536606, 
    0.17562386393547058, -0.09673702716827393, 0.1389114409685135, -0.11116144061088562, -0.011309554800391197, -0.11560964584350586, -0.048850979655981064, -0.003769157687202096, 
    0.33458229899406433, 0.21502463519573212, -0.31338971853256226, -0.014556428417563438, 0.33272039890289307, -0.27283230423927307, 0.1936333328485489, 0.31561949849128723, 
