#ifndef WEIGHTS_BIAS_FLOAT32_H
#define WEIGHTS_BIAS_FLOAT32_H

#include <stdint.h>

static const float WEIGHTS[] = {
-0.0021190226543694735, 0.003608637722209096, 0.01115192286670208, -0.006369416601955891, -0.006999765522778034, -0.003568078391253948, -0.0133427195250988, 0.012105376459658146, 
    -0.0039058758411556482, 0.0021865093149244785, 0.04216478392481804, 0.05963432416319847, -0.0010520986979827285, -0.003562710713595152, -0.003833856899291277, -0.0292724147439003, 
    0.10696158558130264, 1.2494691610336304, -0.39777255058288574, -1.2011377811431885, -0.21255053579807281, 0.6254542469978333, -0.48198485374450684, 0.472554087638855, 
    -3.801065444946289, 5.095900535583496, -8.352034568786621, -6.542778015136719, 1.6699162721633911, 2.7786974906921387, -0.5834853649139404, 0.4202900528907776, 
    2.0069589614868164, 1.084763526916504, 1.70169997215271, 1.504036784172058, 0.719214677810669, -3.807400941848755, 3.8460803031921387, 2.341653823852539
};

static const float BIASES[] = {
2.0121591091156006, 2.357804298400879, 1.3509058952331543, -0.9196159839630127, -3.148458957672119, -2.567891836166382, -0.6442450284957886, 3.676215648651123
};

#endif // WEIGHTS_BIAS_FLOAT32_H
