#ifndef WEIGHTS_BIAS_FLOAT32_H
#define WEIGHTS_BIAS_FLOAT32_H

#include <stdint.h>

static const float __attribute__((section(".xheep_data_flash_only"))) WEIGHTS[] = {
-0.012256252579391003, -0.00698825204744935, 0.0004656836681533605, -0.06592371314764023, -0.00282403570599854, -0.01271603163331747, 0.005738438107073307, 0.0010427895467728376, 
    0.0014999622944742441, -0.04059398174285889, -0.042067382484674454, -0.011084276251494884, -0.022250531241297722, 0.012615579180419445, -0.005560823250561953, -0.07285448163747787, 
    -0.04826197773218155, -0.030631085857748985, 0.0010249862680211663, -0.00018808226741384715, -0.005160977598279715, 0.0008417913340963423, 0.03704046830534935, 0.02687487192451954, 
    0.00268542324192822, 0.006128947716206312, 0.0021214215084910393, -0.008292239159345627, -0.008259101770818233, 0.010425545275211334, 0.00026546098524704576, -0.002446266822516918, 
    -0.0054361820220947266, -0.014680962078273296, -0.0018665181705728173, -0.0037927180528640747, -0.0019069664413109422, -0.008450699970126152, 0.011038617230951786, -0.020128536969423294, 
    -0.024998245760798454, -0.013890893198549747, 0.0006019974825903773, -0.007888288237154484, 0.000433742708992213, -0.007013441063463688, 0.004932017531245947, 0.006537324748933315, 
    0.005829718895256519, 0.004659155383706093, 0.017704620957374573, -0.0702877938747406, -0.06957339495420456, -0.06970291584730148, 0.002626921981573105, 0.00297530903480947, 
    -0.002187463454902172, -0.0006959412130527198, 0.001342938863672316, 0.012439938262104988, -0.009150730445981026, 0.012197320349514484, -0.0007523223757743835, 0.023652922362089157, 
    -0.005531704984605312, 0.011242683976888657, -0.009853041730821133, 0.0035652490332722664, 0.0035991333425045013, -0.021451715379953384, -0.012187594547867775, -0.029874449595808983, 
    0.016989978030323982, 0.0039497618563473225, -0.0006051906384527683, 0.058321285992860794, 0.05515025928616524, 0.061382897198200226, -9.748386946739629e-05, -0.0022978775668889284, 
    0.0017652643145993352, -0.010863502509891987, -0.05404617637395859, -0.06170598417520523, -0.010407653637230396, -0.026051288470625877, 0.023613056167960167, -0.12660329043865204, 
    -0.11698461323976517, -0.006630545482039452, 0.005289936438202858, -0.0012863045558333397, 2.070204027404543e-05, 0.021726258099079132, 0.06425822526216507, 0.05305982008576393, 
    0.0047924937680363655, -0.0032825435046106577, 0.005027497187256813, 0.08495068550109863, 0.04991035535931587, -0.0010854873107746243, 0.009372271597385406, -0.009151753969490528, 
    0.00014198261487763375, 0.02830168977379799, 0.012361421249806881, -0.023394344374537468, -0.0218959953635931, -0.004686092492192984, -0.0026047888677567244, 0.03189895302057266, 
    -0.031395770609378815, -0.039689499884843826, -0.007581934332847595, -0.00036980921868234873, 0.0041272141970694065, -0.01017624232918024, 0.02032596617937088, 0.012991733849048615, 
    -0.02535809390246868, 0.010514307767152786, 0.015814226120710373, -0.1239377036690712, -0.09900671243667603, -0.057935137301683426, 0.003591128159314394, -0.002943289466202259, 
    -0.0037079141475260258, -0.04959976673126221, -0.032872915267944336, 0.014490781351923943, 0.01196630485355854, -0.012072435580193996, -0.0015964690828695893, -0.038582492619752884, 
    -0.06497431546449661, -0.028030462563037872, -0.0028619044460356236, 0.0037078105378896, -0.0023649747017771006, -0.052553534507751465, -0.05583526939153671, -0.01559897605329752, 
    -0.0016586427809670568, -0.03347235918045044, 0.006238405127078295, -0.02753443829715252, -0.0026454078033566475, -0.028179781511425972, -0.002736460417509079, 0.0017821963410824537, 
    0.0035175371449440718, 0.010516993701457977, 0.01173119992017746, 0.0012960429303348064, 0.0014433516189455986, 0.0033155789133161306, 0.0033325813710689545, -0.01961326226592064, 
    -0.030002687126398087, -0.015362260863184929, 0.00838636327534914, -2.0820472855120897e-05, -0.010804561898112297, -0.04540247097611427, 0.0031563297379761934, 0.009090110659599304, 
    0.012053507380187511, -0.006488027982413769, -0.03037148341536522, -0.10975416749715805, 0.06322407722473145, 0.12256746739149094, 0.005449008662253618, 0.003922711126506329, 
    -0.008627229370176792, 0.053721025586128235, 0.025558266788721085, -0.0426289364695549, 0.0114991944283247, -0.001609794795513153, -0.004965797998011112, 0.05549290031194687, 
    0.07707523554563522, 0.05321553722023964, 0.009018720127642155, 0.000927474582567811, -0.0023060194216668606, 0.0024759573861956596, 0.004278999753296375, 0.020799411460757256, 
    0.025526555255055428, -0.0034945011138916016, -0.03193991258740425, -0.008133523166179657, 0.039008889347314835, -0.020572002977132797, -0.0002665762440301478, -0.0056030405685305595, 
    0.002932376693934202, 0.004947548266500235, -0.005074569955468178, 0.022090595215559006, 0.0014544184086844325, 0.006263782735913992, 0.009556135162711143, 0.0027451927307993174, 
    0.004790326114743948, -0.005694061517715454, -0.00529438816010952, 0.0006501696188934147, -6.369776383507997e-05, 0.0011842625681310892, -0.004158610478043556, -0.00395021541044116, 
    0.0004982046084478498, -0.002869101706892252, 0.011289856396615505, 0.1791079044342041, 0.23165851831436157, 0.2113814800977707, -0.0025773532688617706, 0.01544321421533823, 
    -0.009061213582754135, 0.027314960956573486, 0.0038854749873280525, 0.049377378076314926, -0.012285941280424595, -0.00601222412660718, 0.028258327394723892, -0.0014160063583403826, 
    0.010398352518677711, 0.007286469917744398, -0.000291194737656042, 0.004329561721533537, -0.00022585377155337483, 0.003131425241008401, -0.010466990061104298, -0.002329544397071004, 
    0.005224955268204212, 5.42779489478562e-05, -0.002234361134469509, 0.15211732685565948, 0.09628157317638397, 0.08596968650817871, -0.004666382912546396, -0.006540176924318075, 
    0.011555684730410576, 0.0034032827243208885, 0.00509989820420742, -0.018429700285196304, -2.1751528038294055e-05, -0.0058831339702010155, -0.006336489226669073, -0.03354795649647713, 
    -0.04028494656085968, -0.034774232655763626, -0.0006928617367520928, -0.007566170301288366, -0.007003347855061293, 0.029060615226626396, 0.04109050706028938, 0.005140402354300022, 
    0.005483304150402546, -0.011056956835091114, -0.03265007957816124, -0.05268203839659691, 0.006331218872219324, 0.04339223727583885, -0.0007931580767035484, 0.0003312851767987013, 
    -0.00010056698374683037, 0.005910257808864117, 0.002060958184301853, 0.004630141891539097, 0.004455728456377983, 0.004393470007926226, -0.01398451253771782, -0.024608101695775986, 
    -0.024947017431259155, 0.005157597362995148, -0.005023107398301363, -0.0016928265104070306, 0.011574435979127884, 0.013277336023747921, 0.06862887740135193, 0.06506002694368362, 
    0.010896359570324421, 5.921897536609322e-05, 0.0017735036090016365, 0.012550033628940582, 0.009052957408130169, 0.0022861245088279247, -0.004094036296010017, -0.0009242389933206141, 
    -0.0008680173195898533, 0.005857514217495918, 0.02575487643480301, 0.039534635841846466, 0.009951015003025532, 0.013096323236823082, 0.0008489451138302684, -0.06943261623382568, 
    -0.09534713625907898, -0.05722693353891373, -0.003711749566718936, 0.0013655046932399273, 0.006671834737062454, -0.006742250174283981, 0.008731038309633732, 0.03725969046354294, 
    -0.0033115840051323175, 0.0004994652117602527, -0.004566363990306854, 0.02251434326171875, -0.021498315036296844, -0.031002787873148918, -0.010931992903351784, 0.005392034538090229, 
    -0.00044962306856177747, 0.04071412608027458, 0.030892955139279366, 0.017806215211749077, 0.0021557093132287264, 0.001491157105192542, 0.004369152709841728, 0.0007045918609946966, 
    -0.003883986733853817, -0.012734172865748405, 0.0029291349928826094, 0.006247992627322674, 0.00653438875451684, -0.008588620461523533, -0.004244209732860327, 0.0002851171011570841, 
    -0.0038373025599867105, -0.008669144473969936, -0.006790383718907833, 0.0671440064907074, 0.03338601440191269, -0.007216353435069323, 0.007663265336304903, -0.005231986753642559, 
    -0.00583617715165019, 0.0010699358535930514, -0.03372638300061226, -0.04950963705778122, -0.006694757845252752, 0.002602091757580638, 0.00930857378989458, -0.09407695382833481, 
    -0.0540800541639328, -0.05919581279158592, 0.007412454579025507, 0.003334751818329096, -0.0013547700364142656, 0.02832108549773693, -0.004889345727860928, -0.0494343601167202, 
    -0.014714467339217663, 0.006329736672341824, -0.0003512167895678431, 0.039941683411598206, -0.005222599022090435, -0.008888366632163525, 0.0009721232927404344, 0.008638200350105762, 
    -0.003103561932221055, -0.01861552707850933, -0.005718949716538191, 0.01679140515625477, -0.0016912251012399793, 0.00027165462961420417, -0.0023239925503730774, -0.005677655339241028, 
    -0.006795124150812626, -0.0032452219165861607, -0.008128538727760315, -0.004795764107257128, 0.0019020732725039124, -0.0036322756204754114, -0.008993575349450111, 0.0015672724694013596, 
    0.28692159056663513, -0.05902375653386116, -0.15882301330566406, 0.15833629667758942, 0.2535106837749481, -0.09700816869735718, 0.0041942591778934, -0.0026619487907737494, 
    0.07872210443019867, -0.000285556074231863, -0.05925959721207619, 0.16822992265224457, 0.2757676839828491, -0.05101174861192703, 0.2762373685836792, -0.11087676137685776, 
    -0.1391478031873703, 0.0810011550784111, -0.04380777105689049, -0.009248420596122742, 0.011781294830143452, -0.032763976603746414, -0.020670725032687187, 0.16777896881103516, 
    0.013898641802370548, 0.22696809470653534, -0.1800600290298462, -0.03319980949163437, 0.09539563953876495, -0.4431092441082001, -0.17631857097148895, -0.05228596553206444, 
    0.27256911993026733, -0.10343650728464127, 0.010113371536135674, 0.01401043962687254, 0.046327143907547, 0.0044283135794103146, 0.03709917515516281, -0.06819053739309311, 
    -0.07103627920150757, 0.10258888453245163, -0.16629208624362946, -0.27320176362991333, 0.12743504345417023, -0.25350382924079895, -0.23971807956695557, -0.21349263191223145, 
    0.14851053059101105, 0.24880948662757874, -0.04732959717512131, 0.1999480426311493, -0.13055874407291412, 0.13725095987319946, 0.05176333710551262, -0.20993271470069885, 
    0.003828813321888447, 0.2617843449115753, -0.2090800553560257, 0.13348938524723053, -0.002860316075384617, 0.08464222401380539, -0.010377597063779831, 0.04531750828027725, 
    0.005836182739585638, -0.13167808949947357, 0.21272797882556915, -0.2480475902557373, 0.24870452284812927, -0.1197221651673317, 0.20722651481628418, 0.14007827639579773, 
    0.17386528849601746, -0.1271253526210785, -0.2284647822380066, 0.13336904346942902, -0.13806527853012085, 0.07742353528738022, 0.06735806167125702, 0.08333690464496613, 
    -0.0304906964302063, -0.33612146973609924, -0.24388433992862701, -0.08840736001729965, -0.08205526322126389, 0.06744687259197235, -0.023744188249111176, -0.2550199031829834, 
    -0.3932551443576813, -0.17737740278244019, -0.18698152899742126, -0.06896203011274338, 0.13229787349700928, -0.0888536274433136, -0.10239491611719131, -0.12007098644971848, 
    -0.040508706122636795, -0.11858683079481125, -0.097195103764534, -0.5847780704498291, 0.05810149759054184, 0.18713811039924622, 0.20629732310771942, -0.05847933515906334, 
    -0.07436032593250275, 0.10849138349294662, -0.09892395883798599, -0.04632585495710373, 0.34607717394828796, -0.04626946151256561, -0.12403953820466995, 0.06918050348758698, 
    -0.11274691671133041, -0.36600491404533386, -0.14372575283050537, -0.18679173290729523, -0.3504965901374817, -0.21822220087051392, -0.050462983548641205, 0.06237063929438591, 
    0.09008018672466278, -0.1189500167965889, -0.32759422063827515, 0.012785703875124454, -0.03001810982823372, -0.14942994713783264, -0.009105073288083076, -0.09692506492137909, 
    -0.035724226385354996, 0.05070819333195686, -0.07134826481342316, -0.5544859766960144, 0.04918760806322098, 0.06154899671673775, -0.043696340173482895, 0.20422936975955963, 
    -0.18172872066497803, 0.018029242753982544, -0.1870047152042389, -0.20363493263721466, 0.019755080342292786, -0.04063849523663521, -0.0028256664518266916, -0.256197452545166, 
    0.135270893573761, 0.01840059645473957, 0.1759772151708603, 0.10553453117609024, -0.12359514087438583, 0.0017195277614519, 0.06994456052780151, -0.11446823179721832, 
    0.015541579574346542, 0.001224227831698954, 0.0018507112981751561, 0.09473935514688492, -0.08067861944437027, -0.2591371536254883, 0.023492442443966866, -0.3256377875804901, 
    -0.01849023811519146, 0.17559576034545898, -0.06703073531389236, -0.32023289799690247, -0.13066403567790985, -0.0032902935054153204, -0.33157023787498474, 0.15676593780517578, 
    -0.06315281242132187, -0.11441903561353683, 0.17381398379802704, 0.019874021410942078, 0.026843106374144554, 0.08572071045637131, -0.29420894384384155, 0.052705857902765274, 
    0.07046928256750107, 0.018457939848303795, 0.020938076078891754, 0.22596317529678345, 0.04959817975759506, 0.1823200285434723, -0.5007229447364807, -0.12344719469547272, 
    0.2597113251686096, -0.03669758886098862, -0.19209636747837067, -0.27750149369239807, -0.2376718372106552, -0.018237067386507988, 0.0984022468328476, 0.08529186248779297, 
    0.38307350873947144, -0.19008536636829376, -0.026318108662962914, 0.11525998264551163, -0.024966850876808167, -0.08205937594175339, -0.023075373843312263, 0.20391081273555756, 
    -0.34631386399269104, -0.21654276549816132, -0.14631851017475128, -0.08309104293584824, 0.09435111284255981, 0.24888278543949127, -0.08786919713020325, 0.009442387148737907, 
    -0.18892015516757965, -0.2877424359321594, 0.04175792261958122, -0.02621922269463539, -0.08328484743833542, -0.09686116874217987, -0.1747867316007614, 0.06320790946483612, 
    -0.1523207128047943, 0.24685737490653992, -0.11401239037513733, -0.3252744972705841, -0.09179359674453735, 0.21764306724071503, 0.0583881177008152, 0.2262793630361557, 
    -0.2932339608669281, 0.07505430281162262, -0.06672634929418564, -0.30318644642829895, 0.09299031645059586, 0.05911586433649063, 0.252423495054245, -0.11731002479791641, 
    -0.008991639129817486, -0.11101008206605911, -0.1408608853816986, 0.17270025610923767, 0.2250063419342041, 0.09243297576904297, -0.0993223711848259, 0.20979541540145874, 
    -0.3873741328716278, -0.051297351717948914, 0.12826617062091827, 0.07267656922340393, 0.24112127721309662, -0.22455260157585144, -0.15260863304138184, -0.06912502646446228, 
    -0.044405195862054825, 0.08052852749824524, 0.09711992740631104, -0.07774493843317032, 0.11721721291542053, -0.4372340142726898, 0.00576056120917201, 0.011026552878320217, 
    -0.06015786901116371, 0.09054646641016006, 0.01897202804684639, 0.07388479262590408, 0.06184646487236023, -0.056486696004867554, 0.020395120605826378, 0.012948495335876942, 
    -0.15872855484485626, 0.3081992566585541, -0.2675507068634033, 0.06747874617576599, 0.10551031678915024, -0.03651953488588333, -0.05864530801773071, -0.11991849541664124, 
    -0.3445549011230469, 0.08465902507305145, -0.3687949478626251, -0.0445941761136055, 0.22181205451488495, -0.17371489107608795, -0.10556909441947937, 0.07414772361516953, 
    -0.16161110997200012, -0.25662872195243835, 0.3586984872817993, -0.16702796518802643, -0.07605309784412384, 0.010181671939790249, -0.4462825059890747, 0.13565173745155334, 
    -0.1384529173374176, -0.07730232179164886, -0.027305345982313156, -0.1678745299577713, 0.04103129729628563, -0.058253515511751175, -0.03321538120508194, -0.16152866184711456, 
    -0.12449787557125092, -0.060853127390146255, -0.07490907609462738, 0.14819660782814026, -0.019145552068948746, -0.11526410281658173, -0.06204472482204437, -0.09485626220703125, 
    -0.01295712124556303, -0.138881653547287, -0.28920310735702515, 0.1546860933303833, -0.23855511844158173, -0.39521080255508423, 0.010637233033776283, -0.04261808842420578, 
    0.050917115062475204, -0.048548247665166855, 0.010947441682219505, 0.2358980029821396, -0.096638523042202, -0.3845440149307251, -0.10405866801738739, -0.05892445147037506, 
    0.11613727360963821, -0.07079029083251953, -0.0057721128687262535, 0.011409097351133823, 0.00692585576325655, 0.005643059499561787, -0.13092340528964996, -0.02053879387676716, 
    -0.24387812614440918, 0.047448672354221344, 0.1103440448641777, -0.4092271625995636, 0.006656610406935215, 0.07350148260593414, -0.1441420018672943, 0.13706715404987335, 
    -0.16309942305088043, -0.10483761876821518, -0.016315635293722153, -0.0654887929558754, -0.04198991879820824, -0.054982054978609085, 0.16836759448051453, -0.021155010908842087, 
    0.0854557529091835, -0.1717686504125595, 0.018599316477775574, -0.0389857143163681, -0.15529075264930725, 0.09498506039381027, 0.038878943771123886, 0.017713677138090134, 
    -0.12338599562644958, 0.02877597138285637, 0.20107045769691467, -0.030691122636198997, -0.1576472520828247, -0.1488496959209442, 0.08294736593961716, -0.06236793473362923, 
    0.16538242995738983, -0.12528914213180542, 0.05127474665641785, -0.11779220402240753, 0.11351322382688522, -0.07255137711763382, -0.2334747165441513, -0.09617524594068527, 
    -0.06611999124288559, 0.16999401152133942, -0.14280186593532562, 0.05133439227938652, -0.03406279906630516, 0.0220976360142231, -0.014917979016900063, 0.023694021627306938, 
    -0.28641173243522644, -0.08008139580488205, -0.00943660270422697, 0.11970531195402145, 0.17465302348136902, -0.12459439039230347, -0.07215719670057297, 0.0001264503225684166, 
    0.17363137006759644, 0.07599961757659912, 0.01560344360768795, -0.09293690323829651, 0.2692227065563202, -0.03328223153948784, 0.09626971185207367, -0.3031162917613983, 
    0.16743482649326324, 0.07607506215572357, 0.19773992896080017, -0.34897780418395996, 0.15071150660514832, 0.1228509172797203, -0.1796833723783493, 0.11465897411108017, 
    0.10282005369663239, -0.4269200265407562, -0.15222786366939545, 0.13001404702663422, 0.09076379239559174, -0.08357540518045425, -0.0364389568567276, 0.27155056595802307, 
    0.09896297752857208, 0.24482831358909607, -0.15506933629512787, 0.008725736290216446, -0.1571999043226242, -0.21112561225891113, 0.15515634417533875, -0.01072726584970951, 
    0.010572182014584541, 0.04024645686149597, -0.10899797081947327, 0.11105858534574509, 0.04224897548556328, -0.02161336876451969, 0.07098054885864258, -0.03593716025352478, 
    -0.1720312535762787, -0.332023948431015, -0.13990925252437592, -0.21543829143047333, 0.2682562470436096, -0.541566789150238, 0.21060217916965485, -0.027240432798862457, 
    -0.2394428551197052, -0.007131598889827728, 0.01659119501709938, 0.1497100591659546, 0.27808627486228943, -0.07270693778991699, 0.1124604195356369, 0.09100186079740524, 
    -0.320507287979126, 0.012842143885791302, 0.07424850761890411, 0.06160255894064903, 0.13507752120494843, 0.12548533082008362, -0.5301209688186646, -0.08027949184179306, 
    -0.20206551253795624, 0.11728636920452118, 0.16121603548526764, 0.1727985441684723, 0.01690852828323841, 0.12136700749397278, -0.2519293427467346, 0.025315456092357635, 
    0.19462910294532776, -0.17828400433063507, 0.05292399227619171, -0.08392360061407089, 0.1486465185880661, -0.09470309317111969, 0.12374699860811234, -0.2658056914806366, 
    0.04904891923069954, -0.20121853053569794, 0.26742637157440186, -0.0078011248260736465, 0.13952748477458954, -0.10956398397684097, -0.037617508322000504, -0.09287810325622559, 
    0.010563699528574944, -0.004724890924990177, -0.12167399376630783, 0.013350723311305046, 0.022897059097886086, -0.023030977696180344, 0.06352252513170242, 0.026686184108257294, 
    0.1478487253189087, 0.07297492027282715, 0.05509931594133377, -0.00663855392485857, -0.242460697889328, -0.1392165869474411, -0.6843706369400024, 0.017047060653567314, 
    0.04192940890789032, -0.2736812233924866, 0.07634857296943665, 0.0799700915813446, 0.10299867391586304, 0.1202365830540657, -0.06762783229351044, 0.29823294281959534, 
    -0.15208707749843597, -0.14090941846370697, 0.15709243714809418, 0.04041068255901337, 0.05065550282597542, 0.11476057022809982, -0.04371435195207596, -0.0626707673072815, 
    -0.17654897272586823, -0.24964268505573273, -0.07596234232187271, 0.06031771004199982, -0.07363613694906235, -0.113878533244133, -0.39506641030311584, 0.11920470744371414, 
    0.019322749227285385, 0.002491208491846919, -0.03619483485817909, 0.1990130990743637, 0.2783872187137604, 0.085361547768116, -0.245228111743927, -0.028127411380410194, 
    -0.008347206749022007, 0.1607692390680313, 0.21980640292167664, 0.07775422930717468, -0.3628903031349182, -0.15922874212265015, 0.07297361642122269, -0.17165794968605042, 
    -0.09128410369157791, -0.07980292290449142, 0.0750163346529007, -0.07045696675777435, 0.04917063191533089, -0.005706294439733028, -0.32550039887428284, -0.15893982350826263, 
    0.21079103648662567, 0.11133868992328644, -0.15446338057518005, -0.04356210306286812, -0.48822176456451416, -0.08075859397649765, 0.033697228878736496, -0.45935797691345215, 
    0.0797114148736, 0.279666006565094, 0.1890665888786316, 0.020476985722780228, -0.18330471217632294, -0.2629845142364502, 0.30152443051338196, 0.1295996606349945, 
    -0.4755820035934448, 0.20900966227054596, -0.19261762499809265, 0.20820505917072296, 0.10430064052343369, -0.08627399802207947, 0.049700140953063965, -0.19128461182117462, 
    -0.14019469916820526, -0.16783364117145538, 0.002455751411616802, 0.32278385758399963, -0.023382671177387238, -0.3563680350780487, 0.01158082578331232, -0.10558526962995529, 
    -0.05358946695923805, -0.15135043859481812, 0.062491584569215775, -0.017242785543203354, -0.04263309761881828, -0.2935194671154022, 0.027640724554657936, -0.025736451148986816, 
    0.12619903683662415, 0.1594197154045105, 0.12029200792312622, 0.08645204454660416, -0.2895967662334442, -0.0643620491027832, 0.16646267473697662, 0.13893452286720276, 
    0.0703754648566246, 0.1521804928779602, 0.09896138310432434, 0.002247920725494623, 0.023022590205073357, -0.27720513939857483, -0.1525699347257614, -0.0636073425412178, 
    -0.052306365221738815, -0.001829323242418468, 0.1393594741821289, 0.0049607716500759125, -0.12226170301437378, 0.006747898645699024, -0.009908273816108704, 0.1560693383216858, 
    0.021402278915047646, -0.21071657538414001, -0.11731959879398346, -0.12273945659399033, 0.03780126944184303, -0.06431979686021805, -0.1343328207731247, -0.019130054861307144, 
    -0.04931662231683731, 0.05368950590491295, -0.0299205482006073, -0.08205962926149368, -0.058499954640865326, 0.1408410519361496, 0.023813892155885696, 0.050503190606832504, 
    -0.135453999042511, -0.3967862129211426, -0.033249761909246445, 0.08173345774412155, 0.013678093440830708, -0.16190727055072784, -0.10492806881666183, 0.023360349237918854, 
    -0.15873487293720245, 0.060247719287872314, -0.12000718712806702, 0.1742345690727234, -0.00024220856721512973, 0.012274517677724361, -0.12203598767518997, -0.3241742253303528, 
    0.08242170512676239, 0.03828173503279686, -0.06619774550199509, -0.014184060506522655, -0.09050628542900085, 0.09348920732736588, -0.07292362302541733, 0.13506537675857544, 
    0.07658064365386963, -0.06916885077953339, 0.026833759620785713, -0.06283911317586899, -0.18958431482315063, -0.22278158366680145, 0.011842991225421429, 0.151935875415802, 
    0.1567334681749344, -0.09296603500843048, 0.12215851992368698, -0.019937509670853615, -0.21869947016239166, 0.06415077298879623, 0.17661844193935394, -0.34401676058769226, 
    -0.037293802946805954, -0.06498275697231293, 0.08492125570774078, -0.1035313606262207, 0.008679494261741638, 0.018377099186182022, -0.0644555389881134, 0.00499911792576313, 
    -0.1821204572916031, -0.10052336007356644, 0.1984366774559021, 0.027652719989418983, 0.06577118486166, 0.1003156527876854, 0.07774796336889267, -0.08934556692838669, 
    -0.13984841108322144, -0.02535199373960495, -0.06900722533464432, 0.08946174383163452, -0.1943170130252838, -0.1080935150384903, -0.04338693246245384, -0.2902763783931732, 
    -0.17940817773342133, -0.356168270111084, -0.24997438490390778, -0.11272747814655304, 0.09019800275564194, 0.07822009176015854, 0.15551140904426575, -0.2776370346546173, 
    -0.3683379590511322, -0.047688763588666916, -0.14402472972869873, -0.34325268864631653, -0.12770798802375793, -0.24086906015872955, -0.22298982739448547, -0.17286688089370728, 
    -0.04618135839700699, 0.13709421455860138, 0.01840907707810402, 0.039934828877449036, 0.10730089247226715, 0.14893385767936707, 0.06344117969274521, -0.11997964233160019, 
    0.002984976163133979, 0.08703146874904633, -0.24945463240146637, 0.20690056681632996, -0.06161884218454361, 0.0639343336224556, 0.21883250772953033, -0.0908927246928215, 
    0.016844013705849648, 0.017403561621904373, -0.06133761629462242, 0.04922017827630043, 0.10712916404008865, -0.06756749004125595, 0.059700798243284225, -0.02994438074529171, 
    0.1393662840127945, -0.14540493488311768, 0.10087286680936813, 0.012122955173254013, -0.26393964886665344, -0.12779372930526733, 0.14413675665855408, 0.08679283410310745, 
    -0.039049893617630005, -0.056388381868600845, -0.08779745548963547, 0.00829560961574316, 0.18498773872852325, -0.049227479845285416, -0.10113430768251419, 0.05931971222162247, 
    -0.06989677250385284, 0.023358050733804703, -0.03595366328954697, 0.11979840695858002, 0.08826355636119843, -0.002418885938823223, 0.068142831325531, -0.15314558148384094, 
    0.07094048708677292, -0.014106957241892815, 0.11239954829216003, 0.1772456169128418, -0.04995664954185486, -0.04056204855442047, 0.007477475330233574, -0.026894159615039825, 
    -0.2937317192554474, -0.032260023057460785, 0.00726889306679368, -0.11282691359519958, 0.19665251672267914, -0.2958124577999115, 0.10854998230934143, -0.09395734965801239, 
    -0.0037952845450490713, 0.10840263962745667, -0.41698938608169556, -0.16434188187122345, -0.011279087513685226, -0.24775101244449615, -0.14129848778247833, 0.10706337541341782, 
    0.13076545298099518, -0.0003486003843136132, -0.2708839774131775, 0.038009148091077805, -0.08011337369680405, -0.030300602316856384, 0.0571826696395874, 0.048978015780448914, 
    -0.02402857504785061, 0.09020058810710907, 0.016191013157367706, 0.04897848144173622, -0.04847358539700508, -0.055703818798065186, 0.06199602410197258, 0.008237963542342186, 
    -0.1582762449979782, -0.30009377002716064, -0.06694404780864716, -0.1204376071691513, -0.18925929069519043, 0.11177881062030792, -0.20041748881340027, 0.10962950438261032, 
    -0.07052340358495712, -0.14878349006175995, 0.006539558060467243, -0.15606582164764404, 0.10664062201976776, 0.061388302594423294, 0.1250915676355362, -0.18658868968486786, 
    -0.05965035781264305, -0.08452190458774567, -0.1008576974272728, -0.05147654935717583, 0.12717804312705994, 0.06129349023103714, -0.004513447638601065, -0.05105838179588318, 
    -0.15092352032661438, -0.04424722492694855, 0.06682195514440536, -0.1519114375114441, -0.034870635718107224, -0.024441231042146683, -0.33335641026496887, -0.12750454246997833, 
    0.04009052738547325, 0.0200880728662014, 0.036245424300432205, 0.004566248506307602, -0.006711408030241728, -0.029280440881848335, -0.23676829040050507, -0.308137446641922, 
    -0.0668877586722374, -0.02966449223458767, 0.0015980711905285716, -0.006080924067646265, -0.1345912218093872, -0.14794501662254333, -0.2229219675064087, -0.0012675392208620906, 
    0.12626855075359344, -0.006132780574262142, 0.13007831573486328, 0.09008300304412842, 0.04398656263947487, -0.09839362651109695, -0.09617909789085388, 0.0122517766430974, 
    0.032617613673210144, 0.09263421595096588, 0.09789453446865082, -0.09922716021537781, -0.17416618764400482, 0.024409344419836998, 0.22111430764198303, 0.1251075267791748, 
    -0.04998287931084633, 0.0389055535197258, 0.15078967809677124, -0.004076008219271898, -0.09214641153812408, -0.24390481412410736, 0.04768304526805878, 0.1687142699956894, 
    0.1319020688533783, -0.3020448386669159, -0.04172847047448158, -0.16946330666542053, -0.3535751402378082, 0.08381211757659912, 0.016765892505645752, 0.013195754028856754, 
    0.1498652547597885, 0.11956541985273361, -0.20946061611175537, 0.012116831727325916, -0.07380688190460205, 0.2908063232898712, 0.326342910528183, 0.14952947199344635, 
    -0.39532384276390076, 0.28821370005607605, 0.09528214484453201, -0.3794904053211212, -0.5388304591178894, -0.03195996955037117, -0.049242693930864334, -0.03967347741127014, 
    0.17751553654670715, 0.12941734492778778, -0.03843434527516365, 0.06334728002548218, -0.2153214067220688, 0.06939946860074997, 0.025455569848418236, -0.06362175941467285, 
    -0.1939145028591156, -0.1824282556772232, 0.18674583733081818, -0.0714280754327774, 0.023715859279036522, 0.14274610579013824, 0.0362902469933033, -0.135071262717247, 
    -0.2110293060541153, 0.14137858152389526, 0.013433083891868591, -0.12593550980091095, 0.015427852049469948, -0.011280808597803116, 0.1003967821598053, 0.07158172130584717, 
    -0.04540611058473587, 0.042027831077575684, 0.012032254599034786, 0.1555730253458023, -0.12174363434314728, -0.0684308409690857, 0.09125314652919769, -0.09742693603038788, 
    0.12327012419700623, -0.15997633337974548, 0.029279373586177826, 0.12174274027347565, 0.17891408503055573, -0.4019851088523865, 0.20626088976860046, -0.06595868617296219, 
    0.04202546179294586, -0.10903925448656082, -0.04456796869635582, 0.007997329346835613, -0.06485489755868912, 0.01661885902285576, 0.16181907057762146, 0.06345152854919434, 
    0.1081172525882721, -0.0656343474984169, -0.0006486590718850493, 0.09298229962587357, -0.12532703578472137, 0.23525278270244598, 0.008745046332478523, -0.16337409615516663, 
    0.005187996197491884, 0.2484889030456543, -0.03551805764436722, -0.05891256779432297, 0.03814782574772835, -0.10417145490646362, 0.12075015902519226, 0.07329513132572174, 
    0.04243793338537216, -0.07735330611467361, 0.24495424330234528, -0.049401383846998215, 0.0010353276738896966, -0.07348010689020157, 0.14637215435504913, -0.20612485706806183, 
    0.08943913131952286, 0.07332005351781845, 0.029396066442131996, -0.04992329329252243, -0.20047920942306519, 0.17457878589630127, 0.12267071008682251, -0.22066253423690796, 
    -0.13085629045963287, 0.0975736528635025, 0.07989084720611572, 0.2684772312641144, -0.13713505864143372, 0.08218114078044891, -0.16379216313362122, -0.04896564781665802, 
    0.09982419013977051, -0.011321422643959522, -0.13653415441513062, -0.12883533537387848, -0.13162735104560852, 0.003460113424807787, 0.049208737909793854, -0.2690418064594269, 
    -0.21519675850868225, -0.10253029316663742, -0.08541259169578552, -0.3054949939250946, 0.017084790393710136, 0.13322760164737701, -0.1297178864479065, 0.03318510577082634, 
    0.016332576051354408, -0.07794159650802612, 0.03275110200047493, -0.16115030646324158, 0.13002483546733856, -0.2511186897754669, -0.41031500697135925, -0.023271964862942696, 
    0.1792142242193222, -0.3011046350002289, 0.1745958924293518, 0.13178345561027527, 0.060179948806762695, 0.1619693785905838, -0.19808749854564667, -0.2030133605003357, 
    0.1173194944858551, 0.056651610881090164, 0.020694298669695854, -0.14858046174049377, -0.2119636982679367, 0.07037803530693054, -0.1243990957736969, -0.054344139993190765, 
    0.005782776046544313, 0.08350653201341629, 0.008534574881196022, -0.03083532489836216, -0.28185921907424927, -0.10730727761983871, -0.014250940643250942, 0.12856805324554443, 
    0.031925708055496216, -0.36751747131347656, 0.1567418873310089, 0.1781359761953354, 0.02489934302866459, 0.1494612842798233, -0.2941736578941345, 0.20909856259822845, 
    0.14945067465305328, -0.061796557158231735, 0.011698183603584766, 0.012119467370212078, -0.06421481817960739, 0.1763227880001068, -0.02615826018154621, 0.019915133714675903, 
    -0.05219338834285736, 0.025744834914803505, 0.013000290840864182, -0.009456983767449856, -0.0056219459511339664, -0.0026827198453247547, 0.1488170027732849, -0.012898511253297329, 
    0.16625119745731354, -0.010429141111671925, 0.050811849534511566, 0.013080455362796783, -0.11687730252742767, 0.1673053652048111, -0.12992708384990692, -0.04648081958293915, 
    0.063543401658535, -0.06396479159593582, -0.2813999354839325, 0.0232483372092247, -0.18690739572048187, 0.0181854497641325, -0.03840825706720352, -0.21193699538707733, 
    0.23595021665096283, -0.02645832672715187, -0.0164746455848217, -0.035652872174978256, 0.1286141276359558, 0.053847845643758774, 0.042804963886737823, -0.04788205027580261, 
    0.11550763994455338, 0.18340709805488586, 0.03844508156180382, -0.01034911721944809, 0.040852345526218414, 0.04946824535727501, -0.09964718669652939, -0.030406789854168892, 
    -0.19944646954536438, -0.19679032266139984, 0.04351317510008812, -0.03797575831413269, 0.19664062559604645, 0.04892841726541519, 0.14049939811229706, 0.0622212216258049, 
    0.2092873901128769, -0.13668958842754364, 0.04530608281493187, -0.1363902986049652, -0.27729594707489014, 0.009126270189881325, 0.06990065425634384, -0.04735516756772995, 
    0.06216582655906677, -0.07020758092403412, -0.36451607942581177, -0.0035676374100148678, -0.09132776409387589, 0.0697774589061737, 0.06366126239299774, -0.16968980431556702, 
    -0.23978546261787415, -0.10859052836894989, 0.13755135238170624, 0.07582971453666687, -0.11332095414400101, -0.014894460327923298, 0.07978691905736923, -0.18932035565376282, 
    0.16423803567886353, -0.3239448368549347, 0.014664454385638237, -0.01000251155346632, 0.20060153305530548, 0.0758141428232193, -0.15574926137924194, -0.16779887676239014, 
    0.17431913316249847, -0.10693167895078659, -0.06862740218639374, -0.0819169282913208, 0.07880418002605438, -0.31819939613342285, 0.09652280807495117, 0.022845281288027763, 
    -0.023707663640379906, -0.3031560778617859, 0.0035790028050541878, 0.044734351336956024, 0.11228089034557343, 0.13155853748321533, -0.3272371292114258, 0.01566125638782978, 
    0.0759686678647995, 0.04698235169053078, 0.1412745863199234, 0.20276331901550293, -0.047762759029865265, -0.10586812347173691, 0.14195047318935394, -0.06815842539072037, 
    -0.30808112025260925, 0.14704182744026184, -0.09125268459320068, -0.552503228187561, -0.05128832533955574, -0.23196326196193695, 0.04437796026468277, 0.14161282777786255, 
    -0.10567161440849304, -0.341028094291687, 0.05706192925572395, -0.04567026346921921, -0.06358258426189423, 0.025562364608049393, -0.3199387788772583, -0.23946571350097656, 
    0.16276457905769348, -0.10045356303453445, 0.10013521462678909, 0.057310666888952255, 0.15872246026992798, -0.0977189913392067, -0.012053972110152245, 0.10415810346603394, 
    -0.092588409781456, 0.012608660385012627, -0.05678056925535202, 0.17802566289901733, 0.1657087653875351, 0.12182771414518356, -0.1597573459148407, 0.33918941020965576, 
    0.055384404957294464, -0.13493967056274414, -0.12258504331111908, -0.09756980091333389, -0.6005101203918457, 0.05788762867450714, 0.0018771248869597912, 0.11603041738271713, 
    -0.37302693724632263, 0.10979171842336655, -0.32915520668029785, 0.010574675165116787, -0.04796701669692993, 0.09719614684581757, 0.1456480771303177, 0.23665794730186462, 
    0.4405841529369354, 0.14559262990951538, 0.014138552360236645, 0.01268153265118599, -0.1928955763578415, -0.11804120987653732, 0.1228347048163414, 0.13634562492370605, 
    0.001623503747396171, -0.029913414269685745, 0.1938466876745224, 0.141959547996521, -0.03279606252908707, -0.05581285431981087, 0.07257191091775894, -0.05592786520719528, 
    0.14245925843715668, -0.4333725571632385, -0.06408366560935974, -0.24278661608695984, 0.23307406902313232, -0.0006228533457033336, -0.20267550647258759, -0.04444889724254608, 
    -0.18635526299476624, 0.002371331909671426, -0.0790497362613678, -0.2729681730270386, -0.04367149621248245, 0.19085530936717987, -0.19394250214099884, -0.001180772902444005, 
    -0.4312852919101715, 0.20597489178180695, 0.34493711590766907, 0.30814215540885925, 0.06516923755407333, -0.40623679757118225, 0.10949418693780899, 0.38444626331329346, 
    0.007902461104094982, 0.2135690599679947, -0.09984108805656433, 0.11981477588415146, 0.2739693224430084, 0.04380972683429718, -0.08065866678953171, -0.01660274714231491, 
    -0.20792976021766663, -0.09065265208482742, 0.0042884256690740585, 0.3397672176361084, 0.2590664029121399, -0.26220816373825073, -0.08841700106859207, -0.06059276685118675, 
    -0.2659224569797516, -0.2538613975048065, 0.17928864061832428, -0.051109109073877335, -0.012349124066531658, 0.1547171026468277, -0.16954144835472107, 0.009698675945401192, 
    0.23488160967826843, -0.4564207196235657, -0.2476574182510376, -0.25379449129104614, -0.1736532598733902, 0.055061087012290955, 0.11317556351423264, -0.1921948492527008, 
    0.21205554902553558, 0.06768503785133362, -0.20533540844917297, 0.23718421161174774, -0.17651647329330444, -0.4587060213088989, -0.041424401104450226, 0.07625513523817062, 
    -0.03253437206149101, -0.2039908915758133, -0.141727477312088, -0.2746899127960205, -0.05295955017209053, 0.104543536901474, -0.09280626475811005, -0.06906479597091675, 
    -0.24151164293289185, 0.15178409218788147, 0.1460927575826645, -0.2607548236846924, -0.07494711875915527, 0.05316992476582527, 0.07654651254415512, 0.016467390581965446, 
    0.270644873380661, -0.04705630987882614, 0.06350116431713104, -0.2098308950662613, -0.11081302911043167, -0.07203523069620132, 0.04730507358908653, -0.33878466486930847, 
    0.1277587115764618, 0.1656997948884964, -0.015038016252219677, -0.12627854943275452, 0.06760162115097046, 0.06605356931686401, -0.1792740523815155, 0.13616731762886047, 
    0.20637214183807373, -0.07329752296209335, 0.00561603344976902, 0.16783522069454193, -0.4693519175052643, 0.18835987150669098, -0.15437069535255432, 0.30918237566947937, 
    0.04738666117191315, 0.31502145528793335, -0.34250661730766296, -0.24634914100170135, -0.370149165391922, 0.2207992672920227, 0.14252030849456787, -0.12121950834989548, 
    -0.28742921352386475, 0.11270931363105774, -0.05683918669819832, -0.3403482735157013, 0.03300698101520538, 0.15957915782928467, 0.11008606106042862, 0.0751907229423523, 
    0.31209680438041687, -0.4203703701496124, 0.2862722873687744, -0.1862676590681076, -0.3050689995288849, -0.19749046862125397, -0.03543137013912201, 0.04994936287403107, 
    0.052322398871183395, 0.0418916791677475, -0.13836562633514404, 0.04820531979203224, -0.15600372850894928, 0.04185933247208595, -0.002307215239852667, 0.1648739129304886, 
    -0.44600629806518555, 0.07175636291503906, 0.2361123263835907, -0.08455023169517517, -0.07194312661886215, 0.09758982062339783, -0.16770993173122406, 0.13983456790447235, 
    0.11955512315034866, -0.2367303967475891, 0.31235578656196594, 0.16486351191997528, 0.18266290426254272, -0.4365438222885132, 0.1333092600107193, -0.15140818059444427, 
    0.12764813005924225, 0.2821594476699829, -0.47424963116645813, 0.026662565767765045, -0.5690100193023682, 0.08912420272827148, -0.09684212505817413, -0.002766817109659314, 
    -0.027727819979190826, -0.10801468044519424, 0.3857456147670746, -0.024053364992141724, 0.056119173765182495, 0.322903573513031, 0.19784364104270935, -0.3976573646068573, 
    0.06392395496368408, -0.060477208346128464, 0.14073748886585236, -0.010929552838206291, 0.08270984888076782, -0.03895120695233345, -0.06667502224445343, -0.024185460060834885, 
    0.0038692548405379057, -0.0914977639913559, 0.08362506330013275, 0.09719633311033249, -0.005573740229010582, 0.04172311723232269, 0.20689642429351807, 0.03441303223371506, 
    0.060239147394895554, 0.06997315585613251, 0.09938742220401764, -0.1975453644990921, -0.37968313694000244, 0.1737217903137207, -0.08293777704238892, -0.24611452221870422, 
    -0.21780581772327423, -0.17354249954223633, -0.04677063226699829, 0.14016927778720856, -0.09043552726507187, 0.08996891230344772, -0.09651853889226913, 0.019163955003023148, 
    -0.36805659532546997, -0.10840654373168945, 0.13827617466449738, -0.22817030549049377, 0.18257974088191986, 0.09214307367801666, -0.2929079234600067, 0.24350187182426453, 
    -0.05332430452108383, 0.025237074121832848, 0.07048247754573822, -0.2461874634027481, 0.02819913811981678, 0.03331916406750679, 0.26424527168273926, 0.032262686640024185, 
    0.1562711000442505, -0.1562930941581726, 0.07723531872034073, -0.34911787509918213, -0.09383546561002731, -0.3814595341682434, 0.13209600746631622, -0.4296928644180298, 
    -0.20744198560714722, 0.16812707483768463, 0.007825487293303013, 0.04321454092860222, -0.1663830280303955, -0.08306440711021423, -0.1039399728178978, -0.06338605284690857, 
    -0.14503000676631927, 0.11947505921125412, 0.13830693066120148, 0.06678949296474457, 0.07211409509181976, 0.013898433186113834, -0.1302129179239273, 0.11853484064340591, 
    -0.007016479969024658, -0.10366002470254898, 0.04762229695916176, 0.013655431568622589, -0.11821334809064865, 0.09683990478515625, 0.005463347304612398, -0.12840726971626282, 
    -0.27224060893058777, -0.1840139478445053, 0.11490147560834885, -0.4142947793006897, 0.28116628527641296, 0.0035734621342271566, 0.03143695741891861, 0.04398278892040253, 
    -0.14358696341514587, -0.019058790057897568, 0.07392720878124237, 0.11198753863573074, -0.2746834456920624, -0.1332339644432068, -0.07121395319700241, 0.1248391717672348, 
    -0.07343143224716187, -0.14875417947769165, 0.32080724835395813, 0.07177750021219254, -0.30050885677337646, 0.3350381851196289, -0.001288198633119464, -0.12435529381036758, 
    -0.32944875955581665, -0.06716437637805939, 0.18184849619865417, -0.10547804087400436, 0.15718266367912292, -0.14297547936439514, 0.11049484461545944, -0.212966188788414, 
    0.09110595285892487, 0.09434907883405685, 0.2982281744480133, 0.07889547944068909, -0.30811670422554016, -0.16689971089363098, 0.029998362064361572, -0.1584707647562027, 
    0.08034037798643112, -0.279366672039032, 0.044717300683259964, 0.0828137993812561, -0.1392236053943634, -0.009246467612683773, -0.34093615412712097, 0.11311494559049606, 
    0.26257258653640747, 0.12068427354097366, -0.12447203695774078, -0.21009530127048492, -0.18403032422065735, 0.06379532068967819, 0.09215452522039413, -0.14441518485546112, 
    0.011318080127239227, -0.3084842562675476, 0.167090505361557, -0.12606166303157806, 0.12225308269262314, -0.21270516514778137, -0.014931793324649334, -0.08222953975200653, 
    -0.03239664435386658, 0.08805447816848755, 0.1972004771232605, 0.10695986449718475, 0.005480360705405474, 0.17733392119407654, 0.07560189068317413, -0.07743991166353226, 
    -0.06883864849805832, -0.13437215983867645, 0.1536434441804886, -0.9060459136962891, -0.23226496577262878, 0.2807021737098694, 0.14716137945652008, 0.08468252420425415, 
    0.039714738726615906, -0.36968642473220825, -0.4107974171638489, 0.15266013145446777, -0.14542780816555023, -0.07319854199886322, 0.09317702054977417, -0.37847962975502014, 
    -0.1030431017279625, -0.05286698788404465, -0.11577197909355164, -0.0011969447368755937, 0.23345515131950378, -0.10544348508119583, -0.2671233117580414, -0.15376615524291992, 
    -0.23496267199516296, -0.20095109939575195, -0.25060659646987915, 0.02908068709075451, 0.16003821790218353, -0.01856827177107334, -0.10849682986736298, 0.181235209107399, 
    0.04596180096268654, -0.22432281076908112, -0.1252327859401703, 0.1437327265739441, 0.11518347263336182, -0.12332449108362198, 0.10612204670906067, -0.16924230754375458, 
    0.16484124958515167, 0.1201983317732811, 0.1633220911026001, 0.12852279841899872, -0.03700872138142586, -0.01613958738744259, -0.03468184173107147, -0.4147391617298126, 
    0.024939164519309998, -0.22577300667762756, -0.17736950516700745, 0.22508709132671356, -0.1099841296672821, 0.08781430125236511, -0.14685726165771484, -0.08458555489778519, 
    -0.26458102464675903, 0.021970339119434357, -0.03755806386470795, -0.15800221264362335, -0.231375589966774, 0.0676390752196312, -0.12144477665424347, 0.0970071405172348, 
    0.08090469241142273, -0.0415380634367466, -0.0055221859365701675, -0.1932699978351593, 0.08296006172895432, -0.10240809619426727, 0.01958773098886013, -0.12463817000389099, 
    -0.08817349374294281, 0.05179609730839729, 0.024952180683612823, 0.17377524077892303, -0.07659351825714111, 0.10592954605817795, 0.14671224355697632, -0.24745705723762512, 
    0.06900407373905182, -0.011433817446231842, 0.003867431776598096, 0.034883297979831696, -0.17835576832294464, 0.01009481493383646, -0.27537041902542114, -0.22045305371284485, 
    -0.06507910788059235, 0.15140002965927124, 0.06429146975278854, 0.024274442344903946, -0.026105131953954697, -0.22470036149024963, 0.14484186470508575, 0.1372724175453186, 
    -0.14250804483890533, -0.14857660233974457, -0.24554330110549927, 0.14225755631923676, -0.5601633191108704, 0.24715454876422882, 0.11056112498044968, -0.12041087448596954, 
    -0.15415270626544952, -0.0059836613945662975, 0.10458224266767502, -0.0291461069136858, -0.1945701241493225, 0.10881266742944717, -0.054921019822359085, -0.08208160102367401, 
    0.014435471035540104, -0.27931126952171326, 0.020831488072872162, 0.04096297174692154, 0.1610298603773117, -0.022979695349931717, -0.3014625608921051, -0.24529929459095, 
    -0.2846830189228058, -0.09672874212265015, -0.1271272599697113, -0.2613023519515991, -0.01148013211786747, -0.0210757777094841, -0.1196938008069992, 0.14154265820980072, 
    -0.2756528854370117, -0.2678367793560028, -0.4463914632797241, -0.44994446635246277, -0.1349581927061081, 0.2035963386297226, -0.02725229784846306, 0.12468867003917694, 
    0.14359150826931, -0.0812768042087555, -0.04337436333298683, -0.27079400420188904, -0.03800414875149727, -0.009986546821892262, -0.03906945511698723, 0.4418131411075592, 
    -0.1605140119791031, 0.3440055251121521, 0.09034857898950577, 0.030803952366113663, -0.028819460421800613, -0.18013915419578552, 0.3199591338634491, -0.32316651940345764, 
    -0.09902213513851166, 0.07953015714883804, -0.33010292053222656, 0.1275242269039154, -0.00826521497219801, -0.09620483964681625, -0.0858563557267189, 0.062075186520814896, 
    0.22016176581382751, 0.13425667583942413, 0.06327221542596817, 0.2639075219631195, 0.16755139827728271, 0.04388457164168358, 0.02163260616362095, -0.0673823133111, 
    0.1726018488407135, 0.07135776430368423, -0.0035565197467803955, -0.1001424714922905, -0.056899093091487885, -0.031048960983753204, 0.1563495397567749, -0.13663850724697113, 
    -0.15632688999176025, 0.4037669897079468, -0.12988461554050446, 0.12016475200653076, -0.07278542965650558, -0.08044058084487915, 0.263077974319458, 0.026174625381827354, 
    0.116695336997509, 0.22196829319000244, -0.23364609479904175, 0.09303797781467438, 0.07912500202655792, 0.08303248137235641, -0.17940202355384827, -0.053544510155916214, 
    -0.28452977538108826, -0.013660324737429619, -0.12749071419239044, 0.5609361529350281, 0.16286660730838776, -0.27242568135261536, 0.028124630451202393, 0.2092990130186081, 
    -0.028978833928704262, -0.10257532447576523, -0.03988853842020035, -0.16778934001922607, -0.13363073766231537, -0.15254375338554382, -0.13006319105625153, 0.08401212841272354, 
    0.06343411654233932, 0.041067786514759064, -0.32609009742736816, 0.014978027902543545, 0.057378970086574554, -0.0541808046400547, -0.062232792377471924, 0.07966727763414383, 
    0.11410307139158249, -0.1169949397444725, 0.15952107310295105, 0.052398681640625, 0.07910299301147461, -0.1320720613002777, 0.23816727101802826, 0.1455221325159073, 
    -0.029416117817163467, 0.04901786148548126, -0.10503231734037399, 0.011360921896994114, 0.1677168309688568, -0.08084402978420258, 0.028459414839744568, 0.08150199055671692, 
    -0.008710335940122604, -0.09474922716617584, 0.18949684500694275, -0.07167349755764008, 0.1033063754439354, 0.0061774724163115025, -0.047581084072589874, 0.01911097578704357, 
    0.045064520090818405, -0.005152610130608082, 0.0037867259234189987, -0.07469072192907333, -0.015272663906216621, -0.14363957941532135, -0.08025919646024704, 0.15220214426517487, 
    -0.04105387628078461, 0.12283988296985626, 0.07364501804113388, 0.15857337415218353, -0.18830619752407074, -0.18862906098365784, 0.1657269299030304, 0.10472635179758072, 
    -0.2319972664117813, 0.22452448308467865, -0.13854776322841644, 0.15577252209186554, -0.09087662398815155, 0.03534639999270439, -0.33032023906707764, 0.032441191375255585, 
    0.03028167597949505, 0.22960318624973297, -0.2686888873577118, 0.09133107960224152, -0.10826927423477173, 0.010627208277583122, 0.03356586769223213, 0.07012175768613815, 
    0.1993052065372467, 0.042359475046396255, 0.42413198947906494, 0.0593368224799633, -0.08529554307460785, -0.24382030963897705, -0.007003964856266975, 0.005117171909660101, 
    -0.3071657717227936, 0.08695940673351288, -0.03420643508434296, -0.016070034354925156, 0.17155873775482178, 0.04520316421985626, -0.3244647681713104, -0.011241604574024677, 
    -0.11093533039093018, -0.008239190094172955, 0.19385933876037598, -0.04477095231413841, 0.27115756273269653, 0.0627659484744072, -0.33402764797210693, 0.0382307767868042, 
    0.006216092966496944, -0.14731910824775696, -0.03849109262228012, 0.045671217143535614, -0.11526304483413696, -0.20947979390621185, 0.2085399329662323, -0.0017310219118371606, 
    0.06944003701210022, 0.33066192269325256, -0.11555709689855576, -0.0874815583229065, 0.1718595325946808, -0.05847056955099106, 0.17862215638160706, 0.06851085275411606, 
    -0.16401901841163635, -0.06573311239480972, 0.12782222032546997, -0.05519527569413185, -0.00118122564163059, -0.1488034725189209, 0.2882792055606842, 0.16210097074508667, 
    -0.02597363293170929, -0.28360074758529663, 0.0004930297727696598, 0.05134467035531998, -0.02364777959883213, -0.10016012191772461, 0.06551766395568848, 0.04417484998703003, 
    -0.091651551425457, -0.2874205708503723, -0.26219233870506287, 0.003665535943582654, 0.13950961828231812, -0.3737701177597046, -0.003371460596099496, 0.05598002299666405, 
    0.057088978588581085, 0.1625613421201706, 0.10852624475955963, -0.06651902198791504, -0.03097839280962944, -0.14845548570156097, -0.16271628439426422, 0.00019760911527555436, 
    -0.44584953784942627, -0.23620246350765228, -0.02637558802962303, -0.009970529936254025, 0.10899803042411804, 0.005249913781881332, -0.2204083353281021, -0.05392342805862427, 
    -0.05627314746379852, 0.04390624910593033, -0.041564542800188065, -0.228944793343544, -0.09769400954246521, 0.1323866993188858, -0.05472736433148384, -0.29069945216178894, 
    -0.02786276303231716, -0.08172570168972015, 0.11093728989362717, 0.04739686846733093, -0.010961035266518593, -0.14949621260166168, 0.04089454934000969, 0.09489031881093979, 
    -0.020076965913176537, -0.12089138478040695, -0.2205711454153061, -0.005696041975170374, 0.20373709499835968, 0.045942872762680054, -0.04238997772336006, 0.2693771719932556, 
    0.16267149150371552, 0.13774962723255157, -0.21175865828990936, -0.08357261121273041, -0.026343587785959244, 0.10415194928646088, 0.1849176287651062, 0.05047282576560974, 
    -0.25104546546936035, 0.18634018301963806, -0.27243009209632874, 0.07709052413702011, 0.10742947459220886, 0.18405622243881226, -0.4060174524784088, 0.13556258380413055, 
    -0.11837970465421677, 0.04122469946742058, 0.07080255448818207, -0.02619560807943344, -0.08265794813632965, -0.2531835436820984, -0.038660820573568344, -0.3281823396682739, 
    0.12954087555408478, 0.024626461789011955, -0.049873124808073044, 0.1235387846827507, -0.07036866992712021, 0.12995469570159912, 0.015636496245861053, -0.03364231437444687, 
    0.03656122460961342, -0.10171226412057877, -0.22383366525173187, -0.002968181623145938, 0.07748433202505112, 0.1316552460193634, 0.03135179355740547, 0.010988010093569756, 
    0.01231129840016365, -0.13412967324256897, 0.03429235517978668, 0.14795951545238495, 0.29718947410583496, -0.048861563205718994, 0.056394077837467194, 0.030725473538041115, 
    -0.08706679940223694, -0.018620159476995468, 0.10203315317630768, -0.0017026528948917985, 0.023754209280014038, 0.0267877746373415, 0.018168898299336433, 0.026823392137885094, 
    0.2842271029949188, -0.14946524798870087, 0.05134524405002594, 0.04526655003428459, 0.200485497713089, 0.4060368835926056, 0.21777208149433136, 0.05635084584355354, 
    -0.010690145194530487, -0.018072744831442833, 0.17741209268569946, 0.06586367636919022, 0.07774807512760162, 0.1383087933063507, 0.02191222831606865, 0.06035628542304039, 
    -0.020384952425956726, 0.14688532054424286, -0.06639297306537628, 0.02048529125750065, -0.059421975165605545, 0.11698198318481445, -0.43701815605163574, -0.13620787858963013, 
    -0.18361254036426544, -0.16459819674491882, 0.19382250308990479, -0.05050099268555641, -0.12621165812015533, -0.275009423494339, -0.09804678708314896, -0.16602809727191925, 
    -0.2587880790233612, -0.1127723678946495, 0.19659607112407684, 0.28777414560317993, 0.18902535736560822, 0.07717867195606232, 0.012101612985134125, 0.05608370155096054, 
    -0.14779028296470642, -0.001061003073118627, 0.1922949254512787, -0.006914536468684673, 0.05390810966491699, -0.025698421522974968, 0.13992196321487427, -0.03936653584241867, 
    -0.23992682993412018, -0.05851200595498085, -0.0019403321202844381, -0.08786546438932419, -0.09273189306259155, -0.06565510481595993, -0.06122686713933945, -0.19281402230262756, 
    0.055073194205760956, -0.06147455424070358, 0.0010903027141466737, -0.01659328117966652, 0.029409125447273254, -0.056424763053655624, -0.01252015307545662, -0.027660373598337173, 
    -0.05370159074664116, -0.07260479032993317, 0.1330643743276596, 0.11788278073072433, -0.007238084450364113, -0.42183443903923035, -0.3651464581489563, -0.009960141032934189, 
    0.16387701034545898, 0.0937197282910347, -0.13109265267848969, -0.023900380358099937, 0.24633510410785675, 0.07868819683790207, -0.23091600835323334, 0.07337867468595505, 
    -0.1520572453737259, 0.20745672285556793, -0.22661906480789185, -0.25056174397468567, 0.14562729001045227, -0.06075720861554146, 0.21417689323425293, -0.06071315333247185, 
    0.06002787873148918, 0.007959788665175438, 0.25489652156829834, 0.06255099922418594, 0.17291052639484406, -0.04247435927391052, -0.002276059240102768, 0.056766070425510406, 
    -0.12151182442903519, -0.011339173652231693, -0.09340456128120422, 0.017932575196027756, -0.4801925718784332, 0.4041355848312378, 0.09391961991786957, -0.0071138907223939896, 
    0.06124577298760414, 0.05419745668768883, -0.0996999442577362, 0.018858660012483597, -0.36394599080085754, -0.13277651369571686, 0.09660939127206802, -0.14290396869182587, 
    -0.023062560707330704, -0.02372211031615734, -0.5009762048721313, -0.1368817836046219, -0.11126076430082321, 0.137543722987175, 0.011429465375840664, 0.12715820968151093, 
    -0.07074111700057983, 0.15321597456932068, -0.3406931459903717, -0.008402515202760696, -0.1856897622346878, -0.2720887064933777, 0.09801022708415985, 0.06682739406824112, 
    0.0724140927195549, 0.13863715529441833, -0.16773518919944763, 0.34473544359207153, -0.2651979625225067, 0.13451147079467773, 0.2605595290660858, -0.3034701645374298, 
    -0.008478501811623573, 0.15531520545482635, 0.1283697932958603, 0.3320556879043579, -0.192485049366951, -0.41126254200935364, -0.06908122450113297, 0.2604597210884094, 
    -0.034155651926994324, -0.06869406998157501, -0.05380728840827942, 0.04179052636027336, -0.008455229923129082, -0.3979243040084839, -0.12459111958742142, 0.03044607676565647, 
    -0.18699905276298523, -0.01882297173142433, -0.1166587620973587, -0.4924512505531311, 0.11844965070486069, 0.07856842875480652, 0.10432171076536179, 0.1345958709716797, 
    0.19646212458610535, 0.12258219718933105, -0.24447329342365265, -0.07918354868888855, -0.08864528685808182, 0.20933954417705536, 0.03644320368766785, 0.02179119549691677, 
    0.09152020514011383, -0.1591186225414276, -0.117807537317276, -0.10163205862045288, 0.04575187340378761, -0.05522977188229561, -0.06029202416539192, -0.24977222084999084, 
    -0.2944636940956116, 0.08097714185714722, -0.1638553887605667, 0.1638820618391037, 0.030532561242580414, 0.10791201889514923, -0.35142838954925537, 0.37339654564857483, 
    0.04088987037539482, 0.10035695880651474, -0.17751532793045044, -0.10711636394262314, -0.2215723842382431, -0.03171766176819801, 0.19392232596874237, -0.1677749752998352, 
    0.06737089157104492, 0.15425269305706024, -0.1929018497467041, -0.10298512130975723, 0.07557733356952667, -0.02353554405272007, -0.006160958670079708, 0.06382273882627487, 
    -0.07798834145069122, -0.02166750282049179, 0.027606770396232605, 0.0970027819275856, -0.33951839804649353, -0.18570742011070251, 0.2200816571712494, 0.029431277886033058, 
    0.14125998318195343, -0.0005167763447389007, -0.012181077152490616, 0.04028622806072235, 0.05283072590827942, 0.0023022755049169064, 0.1588972508907318, 0.3174508512020111, 
    -0.10845230519771576, 0.32361820340156555, -0.03980336710810661, 0.1853572577238083, 0.040907200425863266, -0.021977825090289116, 0.05326957628130913, -0.02926742099225521, 
    0.11938556283712387, 0.13535533845424652, 0.21085944771766663, 0.19882036745548248, -0.1714436262845993, 0.027001727372407913, -0.2036314159631729, 0.011454520747065544, 
    0.030573755502700806, -0.002838772488757968, 0.014229699969291687, -0.33604979515075684, -0.24122776091098785, 0.015584208071231842, 0.18520966172218323, -0.10942128300666809, 
    -0.0905684158205986, -0.4482288360595703, 0.2236868292093277, -0.06666028499603271, -0.03336641937494278, -0.3075815737247467, 0.035089507699012756, -0.01583293080329895, 
    0.022103894501924515, -0.07446478307247162, 0.01523454487323761, -0.2583317160606384, -0.16799546778202057, -0.4871535897254944, 0.04748091846704483, -0.06720904260873795, 
    0.12914977967739105, -0.11204077303409576, 0.0033224988728761673, 0.07952313125133514, -0.10320558398962021, 0.05046728998422623, 0.10591712594032288, -0.35541772842407227, 
    -0.1969209909439087, 0.23706857860088348, -0.38429659605026245, -0.012558755464851856, 0.005195386242121458, -0.1992613971233368, -0.1831226497888565, -0.00415531313046813, 
    -0.12358270585536957, 0.019759397953748703, 0.07751627266407013, 0.06438812613487244, -0.06297669559717178, 0.18119366466999054, -0.2711283564567566, -0.06973372399806976, 
    -0.04792199656367302, 0.10226164013147354, -0.12559916079044342, -0.05023849755525589, -0.3702203631401062, 0.08348292112350464, 0.1604563146829605, -0.2500234544277191, 
    0.1558896154165268, -0.21956391632556915, 0.027960166335105896, 0.2082621157169342, 0.03424663096666336, -0.10298759490251541, 0.13542361557483673, -0.18316152691841125, 
    0.20390495657920837, 0.08174542337656021, 0.07639535516500473, -0.0016114604659378529, 0.022444870322942734, 0.21084532141685486, -0.12670645117759705, -0.02008628100156784, 
    -0.19280056655406952, 0.01750919036567211, -0.14779242873191833, 0.16175533831119537, -0.13886092603206635, -0.3262518644332886, 0.029668906703591347, -0.05993857607245445, 
    -0.05961744114756584, 0.10413120687007904, -0.08111265301704407, -0.47501620650291443, -0.0610819086432457, 0.14126509428024292, -0.18315258622169495, 0.06299114227294922, 
    -0.3568197190761566, -0.09648221731185913, -0.017338111996650696, 0.06557045131921768, -0.009545520879328251, 0.07265324890613556, 0.006755070295184851, -0.4160546064376831, 
    0.05849425122141838, -0.032535940408706665, -0.2150065004825592, 0.14211638271808624, -0.13518674671649933, 0.03234834596514702, -0.030007677152752876, -0.02158997394144535, 
    0.12645336985588074, 0.23687031865119934, -0.07855474203824997, 0.001818274613469839, 0.04336600750684738, -0.0207192562520504, 0.10995755344629288, -0.1792963594198227, 
    -0.022345859557390213, -0.2032209038734436, -0.026050522923469543, 0.014618875458836555, -0.052169594913721085, 0.09971579164266586, -0.318476140499115, 0.05966276675462723, 
    0.09997199475765228, 0.041257344186306, -0.13153411448001862, 0.23760251700878143, -0.11990629881620407, -0.018199488520622253, -0.015601417981088161, 0.133630633354187, 
    0.0535019189119339, 0.10343912988901138, -0.1776641309261322, -0.02928594872355461, -0.11230308562517166, 0.149727925658226, -0.2113582193851471, 0.09937787801027298, 
    -0.17154046893119812, 0.0042977891862392426, -0.10179036855697632, 0.0235239677131176, 0.1297660917043686, 0.23175261914730072, -0.0028211185708642006, -0.30923542380332947, 
    -0.17774975299835205, 0.10427121073007584, -0.15761835873126984, 0.2029978185892105, -0.12153210490942001, -0.03808117285370827, 0.08668830990791321, -0.0035457052290439606, 
    0.0638851597905159, -0.023636845871806145, -0.02658972516655922, 0.04520215839147568, 0.26549452543258667, 0.053393635898828506, -0.12792903184890747, -0.23993051052093506, 
    0.19463899731636047, 0.023617057129740715, 0.009515192359685898, 0.08083362877368927, -0.10585833340883255, -0.07796701788902283, 0.022575533017516136, -0.18003268539905548, 
    0.06676184386014938, -0.06870876997709274, 0.08599159121513367, 0.053618211299180984, 0.03573932871222496, 0.12080750614404678, -0.03162577375769615, 0.02494233101606369, 
    -0.35247674584388733, 0.23852308094501495, -0.0992174744606018, -0.06723535060882568, -0.1355498880147934, 0.0525057390332222, 0.07279843837022781, -0.0350884310901165, 
    0.02133692055940628, 0.21854999661445618, 0.14518097043037415, -0.2164863795042038, -0.0013459951151162386, 0.0860259085893631, 0.05579468235373497, -0.0514243021607399, 
    -0.0033372866455465555, -0.08148720115423203, 0.05622128024697304, 0.06451168656349182, 0.11335138976573944, -0.29362940788269043, 0.020883509889245033, -0.10084554553031921, 
    0.20663979649543762, -0.2636520564556122, 0.07848367840051651, -0.025482282042503357, -0.052264127880334854, -0.21905653178691864, -0.08403871953487396, -0.06255755573511124, 
    0.17544612288475037, 0.024849839508533478, 0.006352659314870834, -0.07350466400384903, 0.06853029131889343, 0.053143613040447235, -0.28393086791038513, 0.07155602425336838, 
    -0.012733329087495804, 0.34282186627388, -0.3554021120071411, -0.07029073685407639, -0.053916361182928085, -0.002978527219966054, -0.06922121345996857, -0.08378978073596954, 
    0.13934989273548126, -0.08191631734371185, 0.046468645334243774, -0.18250848352909088, -0.07511657476425171, -0.036633025854825974, -0.06192168593406677, -0.09481395781040192, 
    -0.04902201518416405, -0.08716776221990585, -0.051229383796453476, 0.26907140016555786, 0.049243368208408356, -0.058746449649333954, 0.08281942456960678, -0.11443088948726654, 
    -0.0216281246393919, -0.1008283942937851, 0.040131498128175735, 0.03136115148663521, -0.018268095329403877, -0.2565501034259796, -0.220230832695961, 0.06983823329210281, 
    -0.1901443898677826, -0.28606167435646057, 0.051771122962236404, -0.044480279088020325, 0.12383335083723068, -0.07653943449258804, -0.17177043855190277, 0.1726478785276413, 
    -0.1748620569705963, -0.043942954391241074, 0.016384419053792953, -0.17056895792484283, 0.08005229383707047, -0.2986350655555725, -0.027465064078569412, -0.2992604374885559, 
    -0.09605901688337326, -0.11542239040136337, 0.24826526641845703, -0.051854126155376434, 0.17627276480197906, 0.0427912138402462, -0.30627042055130005, -0.31244394183158875, 
    0.06767572462558746, -0.007650893647223711, 0.12320590019226074, 0.07430259883403778, -0.06952440738677979, -0.034366969019174576, -0.0030820860993117094, 0.06180807203054428, 
    -0.0009049250511452556, -0.1274794638156891, 0.15288938581943512, 0.046477898955345154, -0.10795830935239792, -0.19606254994869232, -0.23832683265209198, 0.07232200354337692, 
    -0.17271772027015686, 0.1323753148317337, -0.015970323234796524, -0.05265481770038605, 0.09808016568422318, -0.18651394546031952, 0.12240763753652573, 0.20853100717067719, 
    -0.13849101960659027, -0.10788100212812424, 0.1334870308637619, -0.4944591820240021, 0.06341955065727234, -0.050229914486408234, 0.01741771027445793, -0.005994108505547047, 
    0.08711585402488708, -0.10001484304666519, -0.1790999174118042, 0.13924486935138702, -0.08535560220479965, 0.0493609793484211, 0.16775307059288025, -0.154574915766716, 
    -0.32570090889930725, -0.09897463768720627, 0.23122015595436096, -0.12635883688926697, -0.07895983010530472, -0.0943543091416359, 0.006635781843215227, -0.001705123228020966, 
    -0.1706474870443344, -0.05590837448835373, -0.22247713804244995, -0.026186153292655945, 0.1384272277355194, 0.05858679488301277, 0.052722785621881485, -0.006540680769830942, 
    0.20150937139987946, -0.11591984331607819, -0.11680430173873901, -0.14881375432014465, -0.19642792642116547, -0.09596356004476547, -0.11748717725276947, -0.07904825359582901, 
    0.0881483405828476, -0.0904698371887207, 0.008363245986402035, -0.3751741945743561, 0.06381011754274368, -0.017147384583950043, -0.04327604919672012, 0.2050601691007614, 
    -0.11475612223148346, 0.1122894436120987, 0.004025101661682129, 0.10167905688285828, 0.07838693261146545, -0.25285235047340393, 0.31022021174430847, 0.07019398361444473, 
    -0.0705985426902771, -0.025778351351618767, -0.37828826904296875, -0.10041497647762299, 0.04819269850850105, -0.2857292592525482, 0.1376279890537262, -0.01990029215812683, 
    -0.12085859477519989, -0.0026609478518366814, 0.09145773202180862, -0.12353915721178055, 0.02781619317829609, 0.037729717791080475, 0.08298267424106598, -0.07880047708749771, 
    0.16385109722614288, 0.12077274918556213, 0.050713714212179184, -0.05559772253036499, -0.195001021027565, 0.038211021572351456, -0.03201154246926308, -0.262314110994339, 
    0.15401549637317657, 0.13549567759037018, -0.3729079067707062, 0.1553747057914734, -0.09069236367940903, 0.003533068113029003, 0.019123941659927368, -0.2236577272415161, 
    0.0748320072889328, -0.03066844493150711, 0.2308090776205063, 0.022434478625655174, 0.22588229179382324, 0.018181491643190384, -0.33875149488449097, -0.12548892199993134, 
    -0.10112232714891434, -0.11610058695077896, 0.09134066104888916, -0.17125946283340454, 0.0050467015244066715, 0.04590952396392822, 0.11778140813112259, -0.0736476331949234, 
    -0.07570663839578629, -0.14736153185367584, 0.18507201969623566, -0.0724080353975296, 0.0919823944568634, -0.6029635667800903, 0.1102130338549614, -0.12062890827655792, 
    0.11461787670850754, 0.25291067361831665, 0.041006382554769516, -0.00691676139831543, -0.07519938796758652, 0.1673031747341156, 0.16609787940979004, -0.40172871947288513, 
    -0.2870083451271057, -0.11591596901416779, -0.05775836482644081, 0.04570804163813591, 0.0342094711959362, 0.24456001818180084, -0.07089678943157196, 0.044418107718229294, 
    -0.030050015076994896, -0.23037198185920715, 0.1729317605495453, -0.15145832300186157, 0.08194184303283691, 0.15268661081790924, -0.18978539109230042, 0.12390153855085373, 
    0.009639927186071873, 0.05958634987473488, -0.06575760245323181, 0.0539909303188324, -0.0031952373683452606, -0.16596640646457672, 0.03721095249056816, 0.16362252831459045, 
    0.09649442136287689, -0.20167523622512817, 0.14103253185749054, -0.05762480944395065, 0.15609657764434814, -0.19449976086616516, -0.14317484200000763, -0.26559796929359436, 
    -0.1066162958741188, -0.14825579524040222, 0.13212572038173676, 0.04885872080922127, 0.14132817089557648, 0.2036455273628235, -0.08725615590810776, -0.307646781206131, 
    -0.20246538519859314, -0.20755895972251892, -0.00698422733694315, -0.005861359648406506, -0.0693226158618927, 0.0548960380256176, 0.12477714568376541, -0.1163540706038475, 
    0.038020726293325424, 0.125334233045578, 0.05476360395550728, 0.08643121272325516, -0.11579637229442596, 0.0744953528046608, 0.1712135374546051, 0.06006547436118126, 
    -0.027606844902038574, 0.10938676446676254, 0.24507181346416473, -0.06149228289723396, -0.045251622796058655, 0.07648268342018127, -0.09180869162082672, -0.3963606655597687, 
    -0.04672035574913025, 0.05880662798881531, -0.10286679118871689, -0.16575807332992554, -0.1342821568250656, 0.3469206392765045, 0.12700168788433075, -0.03999496251344681, 
    -0.0523468442261219, 0.13142433762550354, -0.14285589754581451, -0.5018861293792725, -0.049531444907188416, 0.08810403943061829, 0.2739967405796051, 0.04976184293627739, 
    -0.10097993165254593, 0.04172057658433914, -0.034175943583250046, 0.0433778241276741, 0.04283373802900314, -0.01957392320036888, 0.08304900676012039, -0.28402984142303467, 
    0.04501601681113243, 0.1512613147497177, 0.05289424583315849, 0.053738463670015335, 0.12944817543029785, 0.06449909508228302, 0.13981837034225464, -0.06815875321626663, 
    0.02675752528011799, 0.28118205070495605, 0.041308414191007614, -0.018386757001280785, -0.05695542320609093, 0.01260913722217083, 0.16954471170902252, 0.014616623520851135, 
    0.15138965845108032, 0.029153939336538315, 0.017582228407263756, 0.12062996625900269, 0.256352037191391, -0.02754889242351055, -0.050656501203775406, 0.1485934555530548, 
    -0.07572628557682037, 2.2057987735024653e-05, 0.025619132444262505, 0.013694382272660732, 0.010947972536087036, -0.09698782116174698, 0.016379695385694504, 0.04566016420722008, 
    0.11292431503534317, -0.11662479490041733, 0.14675402641296387, -0.11442132294178009, 0.0641867071390152, -0.22941561043262482, -0.016582081094384193, 0.03401986137032509, 
    0.007869064807891846, 0.13576827943325043, -0.0038900375366210938, 0.05252902954816818, 0.07598455995321274, 0.08210153877735138, 0.08977449685335159, 0.06346286833286285, 
    -0.23899245262145996, -0.06523963809013367, -0.23330193758010864, -0.03611423075199127, 0.019599638879299164, 0.30216968059539795, -0.1614096462726593, -0.010200670920312405, 
    0.16522473096847534, -0.1535361409187317, -0.016798054799437523, -0.01813030242919922, 0.01679636538028717, 0.033122558146715164, -0.12440530210733414, 0.19567888975143433, 
    -0.026844054460525513, -0.05055619403719902, 0.009496527723968029, -0.0006187019171193242, -0.019428763538599014, -0.05661337822675705, 0.017379004508256912, 0.17084088921546936, 
    -0.05863717198371887, -0.09028933197259903, 0.24538205564022064, -0.27515992522239685, 0.04782872274518013, 0.13389712572097778, 0.0384649783372879, 0.1286373734474182, 
    0.14691214263439178, 0.305952250957489, 0.03177964687347412, -0.12795686721801758, 0.011436891742050648, 0.10131300985813141, 0.02656853199005127, 0.1348702609539032, 
    0.02177492342889309, -0.015840837731957436, 0.12423448264598846, -0.008513142354786396, -0.013330272398889065, 0.21285685896873474, 0.10536076128482819, -0.09321866929531097, 
    -0.45964235067367554, -0.1657484918832779, -0.15103067457675934, -0.03795420005917549, 0.03431102633476257, 0.0962691530585289, -0.1832001656293869, -0.07502371817827225, 
    -0.09963066875934601, 0.07218105345964432, -0.3969652056694031, 0.18823568522930145, 0.32690727710723877, -0.10233809798955917, 0.11819025874137878, 0.31010398268699646, 
    -0.2522343397140503, -0.17582380771636963, 0.16110992431640625, 0.10100894421339035, -0.22100883722305298, -0.19915185868740082, 0.06421595811843872, 0.18830174207687378, 
    0.06421192735433578, 0.12254061549901962, -0.015460388734936714, 0.3667137622833252, 0.12488103657960892, 0.2480962872505188, -0.05483933165669441, -0.17758634686470032, 
    0.11012399196624756, 0.15732116997241974, 0.0851331427693367, -0.09293609112501144, 0.22939364612102509, 0.04054178297519684, 0.1035715714097023, 0.05546363815665245, 
    -0.12750466167926788, 0.16604271531105042, 0.32149919867515564, 0.15692488849163055, -0.19721898436546326, 0.12003456801176071, -0.25627392530441284, -0.09148463606834412, 
    -0.16262216866016388, 0.009298442862927914, 0.054832786321640015, 0.0027531988453119993, -0.0003130430995952338, -0.031915247440338135, -0.16797347366809845, -0.020423373207449913, 
    0.05747680366039276, 0.18721434473991394, -0.1803523451089859, -0.11068138480186462, 0.06660184264183044, 0.1085783839225769, -0.11636290699243546, -0.2962179183959961, 
    0.20222899317741394, 0.2986779808998108, 0.038287464529275894, -0.0952225774526596, -0.1301455944776535, -0.07638639956712723, -0.21702829003334045, -0.015827065333724022, 
    -0.043965667486190796, 0.019148867577314377, 0.09015937149524689, 0.14867089688777924, -0.2009253203868866, 0.038088005036115646, -0.09229958802461624, -0.09956828504800797, 
    0.08085022121667862, -0.0321091003715992, -0.17677785456180573, 0.20933513343334198, -0.058904848992824554, -0.08370611816644669, -0.15794719755649567, 0.06498655676841736, 
    -0.07181542366743088, -0.013097543269395828, -0.2831348776817322, -0.07378603518009186, -0.13500256836414337, -0.03386109694838524, -0.34476569294929504, 0.21574606001377106, 
    -0.2768383324146271, 0.22458422183990479, 0.11424610018730164, 0.1384359449148178, 0.02845856547355652, -0.2104935199022293, -0.0127540472894907, 0.09477920085191727, 
    0.17279842495918274, 0.0497606098651886, -0.09492138028144836, -0.29178377985954285, -0.1305343210697174, -0.17016513645648956, -0.1010768860578537, -0.09039023518562317, 
    0.06011692062020302, -0.1781684309244156, -0.16109108924865723, -0.41717249155044556, 0.1350705772638321, -0.18301457166671753, 0.1523684710264206, -0.05060634762048721, 
    -0.09593047946691513, 0.028447970747947693, -0.4103856384754181, 0.19520896673202515, -0.07491132616996765, -0.22560924291610718, 0.10516528785228729, -0.1030615046620369, 
    0.05153441056609154, 0.1275484263896942, -0.16671690344810486, -0.133074089884758, 0.08212922513484955, 0.02815728634595871, -0.224892258644104, 0.2971123158931732, 
    0.0513029471039772, -0.052583638578653336, -0.31402209401130676, 0.19190669059753418, -0.015803523361682892, -0.3297407031059265, 0.1800812929868698, -0.09733757376670837, 
    -0.2583843469619751, 0.15114180743694305, 0.1616188883781433, -0.1466313749551773, 0.05996738001704216, 0.1047288104891777, -0.22713613510131836, 0.03793955221772194, 
    0.18741446733474731, -0.07153462618589401, -0.0414341576397419, 0.1988660991191864, 0.04586658254265785, -0.029520152136683464, 0.1912519335746765, -0.08604332059621811, 
    -0.101010262966156, 3.23998938256409e-05, -0.33241456747055054, 0.15103337168693542, -0.15283498167991638, 0.06061409041285515, -0.03856571018695831, -0.20611555874347687, 
    -0.26184263825416565, 0.12150009721517563, -0.20859085023403168, 0.037343718111515045, 0.062316976487636566, -0.08560612052679062, -0.47449541091918945, 0.23014670610427856, 
    -0.022998562082648277, 0.12886594235897064, -0.05143691971898079, 0.24459686875343323, 0.05989386513829231, 0.0837942361831665, -0.22762055695056915, -0.624861478805542, 
    -0.16334927082061768, 0.1905067414045334, -0.5422330498695374, -0.2883276641368866, 0.276791512966156, -0.5007962584495544, -0.051902156323194504, 0.0014818900963291526, 
    0.25257644057273865, 0.1608583778142929, -0.1650969386100769, -0.06904110312461853, -0.20852452516555786, -0.04081287607550621, 0.0017719813622534275, 0.05442243441939354, 
    0.2022404968738556, 0.13626231253147125, -0.08551792800426483, -0.00701396819204092, 0.13307924568653107, 0.0854412317276001, 0.09861283004283905, 0.12125889956951141, 
    -0.13136008381843567, -0.13048173487186432, 0.06814326345920563, 0.10518229752779007, -0.20192301273345947, -0.03036324493587017, 0.021649952977895737, 0.1521456390619278, 
    -0.014136437326669693, 0.18484392762184143, -0.027419742196798325, -0.1746673434972763, 0.10433538258075714, -0.4089325964450836, 0.22117435932159424, -0.3609219789505005, 
    -0.16205503046512604, 0.06371422111988068, -0.006576403044164181, 0.06517253816127777, -0.019730690866708755, 0.03641160577535629, -0.1275084763765335, 0.03947063162922859, 
    0.06666519492864609, 0.26188531517982483, -0.31348851323127747, 0.006934217177331448, 0.02879662811756134, -0.22830429673194885, -0.07238096743822098, -0.06696557253599167, 
    -0.07983666658401489, -0.10008160769939423, -0.3286895751953125, 0.15287041664123535, -0.012273149564862251, 0.07768111675977707, 0.004166926257312298, 0.026233021169900894, 
    0.009039039723575115, 0.09620747715234756, -0.1936708390712738, -0.037948254495859146, 0.013004595413804054, -0.10004851222038269, -0.07377947866916656, -0.09849908202886581, 
    -0.1681809276342392, 0.1623014360666275, -0.16204886138439178, 0.33322227001190186, -0.028626928105950356, -0.041468698531389236, -0.04095298796892166, 0.18361951410770416, 
    -0.029173707589507103, 0.021073689684271812, 0.11657354235649109, 0.14520859718322754, 0.044568613171577454, 0.16980823874473572, -0.0769663006067276, 0.03111208789050579, 
    0.06412981450557709, -0.06793087720870972, -0.04435638710856438, 0.13200588524341583, -0.00571706285700202, 0.03201601281762123, -0.12316412478685379, 0.06349320709705353, 
    -0.0669129341840744, -0.008053906261920929, 0.17929108440876007, -0.3158913254737854, -0.07215679436922073, 0.009924350306391716, -0.17529301345348358, -0.1571034938097, 
    -0.0073485588654875755, -0.11150971800088882, 0.06544627249240875, 0.2146931141614914, -0.04698915034532547, 0.07842761278152466, -0.06480605900287628, -0.08416574448347092, 
    -0.08999572694301605, -0.0033865831792354584, -0.09370483458042145, -0.016513871029019356, 0.17706052958965302, -0.013540469110012054, 0.04539850726723671, 0.07894942909479141, 
    -0.05527554824948311, 0.01958995871245861, 0.10882289707660675, 0.023234885185956955, -0.24895592033863068, 0.3053019642829895, 0.1520048826932907, -0.1426457017660141, 
    -0.01577024906873703, -0.08990142494440079, 0.11368264257907867, -0.045940183103084564, 0.1556221842765808, 0.05455814301967621, -0.1797310709953308, -0.07083699107170105, 
    -0.15219615399837494, 0.14851133525371552, 0.19718721508979797, -0.259057879447937, -0.037151530385017395, -0.005439876113086939, -0.1584344357252121, -0.07586842775344849, 
    0.23684263229370117, -0.10546783357858658, -0.46164682507514954, -0.031103024259209633, 0.027057643979787827, -0.1442391276359558, -0.13713960349559784, 0.0006401737337000668, 
    -0.1830533742904663, 0.13967305421829224, 0.10308625549077988, 0.21666309237480164, -0.06148163974285126, -0.21639452874660492, -0.0026052286848425865, -0.6022818088531494, 
    -0.13717079162597656, -0.0423903614282608, 0.18075783550739288, 0.13480819761753082, -0.3114813566207886, -0.4431118071079254, 0.138479545712471, 0.19956214725971222, 
    -0.14459897577762604, -0.1534310132265091, -0.5064985156059265, 0.009980806149542332, -0.012343624606728554, 0.07236324995756149, -0.29469045996665955, 0.11549988389015198, 
    0.2486010044813156, -0.17155048251152039, -0.11414342373609543, -0.012584646232426167, -0.1471559852361679, 0.05257732421159744, 0.08953814953565598, -0.07899453490972519, 
    0.13120992481708527, 0.00393334636464715, 0.033652473241090775, 0.012033872306346893, 0.02508588507771492, -0.0036126745399087667, 0.15409721434116364, 0.2227398306131363, 
    -0.18710815906524658, 0.26905009150505066, -0.10927999764680862, -0.34280356764793396, 0.05256878212094307, -0.15189707279205322, -0.25680142641067505, -0.08148125559091568, 
    -0.19960229098796844, -0.051519375294446945, 0.1481187790632248, 0.3242051601409912, -0.26716485619544983, 0.0038867658004164696, -0.04886298626661301, -0.03837768733501434, 
    0.10472728312015533, -0.21159406006336212, -0.07358773052692413, -0.012377479113638401, 0.09328485280275345, 0.0034064338542521, 0.1770276427268982, -0.037480756640434265, 
    -0.05449474975466728, 0.036198101937770844, 0.05486789718270302, -0.005499925930052996, 0.30264317989349365, 0.14803002774715424, 0.1400878131389618, 0.06660477817058563, 
    0.032433364540338516, -0.3287551701068878, 0.011917266994714737, 0.01916111633181572, -0.1860026717185974, 0.1065608561038971, -0.38619810342788696, 0.0844777524471283, 
    -0.07558561116456985, 0.10820632427930832, -0.02081177569925785, 0.2778666615486145, 0.010679323226213455, -0.14554031193256378, 0.08510827273130417, 0.006485227029770613, 
    0.2524344325065613, -0.26519832015037537, -0.16532453894615173, -0.43603700399398804, -0.09918708354234695, -0.03960598260164261, -0.33027058839797974, 0.2784042954444885, 
    0.2189868688583374, 0.04462530463933945, 0.1954253613948822, -0.008870226331055164, -0.17869146168231964, 0.12418888509273529, 0.04129466414451599, -0.22863923013210297, 
    -0.08167532831430435, -0.05231581628322601, 0.1658521443605423, -0.181411013007164, 0.11685556173324585, 0.06740058213472366, -0.030070969834923744, -0.05085566267371178, 
    -0.4735616445541382, 0.10321421176195145, -0.1988857239484787, -0.0159663837403059, 0.16204632818698883, 0.020196642726659775, 0.15195819735527039, -0.3295418918132782, 
    -0.06275133043527603, -0.28595271706581116, -0.027640707790851593, -0.026336969807744026, -0.19779860973358154, 0.22366558015346527, 0.066651351749897, 0.005306478124111891, 
    0.007894364185631275, -0.05536339804530144, 0.10044272243976593, 0.2215687781572342, 0.031936515122652054, -0.29086679220199585, -0.1041070818901062, 0.04263361915946007, 
    -0.1375371664762497, -0.10430259257555008, 0.01107809878885746, -0.33987995982170105, 0.04890569671988487, -0.06278648972511292, -0.2983194887638092, 0.0974426120519638, 
    -0.09641887247562408, 0.15434810519218445, -0.3415486514568329, 0.12628546357154846, -0.15385328233242035, 0.2101524919271469, -0.21333840489387512, 0.02228434756398201, 
    0.22817853093147278, -0.003243860090151429, 0.029394183307886124, -0.14664293825626373, 0.0900321677327156, 0.15809687972068787, -0.06809403747320175, 0.13879482448101044, 
    -0.0289345383644104, -0.13096725940704346, -0.11680613458156586, 0.13002915680408478, 0.016027336940169334, -0.37207040190696716, 0.13757266104221344, -0.041581135243177414, 
    0.015480057336390018, 0.14251932501792908, 0.011263255029916763, 0.0545428991317749, 0.06519526243209839, -0.04750657454133034, -0.17046914994716644, -0.04981740564107895, 
    0.13432016968727112, -0.06388963013887405, -0.030917776748538017, 0.04326365888118744, -0.153380885720253, 0.1855224221944809, -0.10974754393100739, 0.16292549669742584, 
    -0.053721219301223755, 0.11071974039077759, 0.07486081123352051, -0.03993877023458481, -0.3032275140285492, -0.11582396179437637, 0.013460367918014526, -0.28392547369003296, 
    -0.03499654680490494, -0.12140683829784393, -0.026740185916423798, -0.17997099459171295, -0.17066732048988342, -0.08275961875915527, 0.07826357334852219, -0.16931279003620148, 
    0.08900187909603119, -0.11522264778614044, 0.003169737756252289, 0.10583147406578064, -0.056544553488492966, 0.015390107408165932, -0.6446859836578369, 0.03092816099524498, 
    -0.06426654011011124, 0.11729821562767029, -0.1131676733493805, 0.17546136677265167, -0.5250853300094604, -0.13789992034435272, 0.06069786101579666, 0.16836361587047577, 
    -0.5229175090789795, -0.03801555931568146, 0.229640930891037, 0.16606147587299347, -0.33718985319137573, -0.24271899461746216, 0.08200697600841522, 0.0052611553110182285, 
    0.25196748971939087, 0.001117355888709426, -0.007411436177790165, -0.15565282106399536, 0.1618250012397766, -0.07814183086156845, 0.08270133286714554, -0.013782628811895847, 
    0.21110093593597412, 0.12264665216207504, 0.2132539600133896, 0.12189505994319916, -0.10889045149087906, -0.21214920282363892, -0.034708596765995026, 0.1585799753665924, 
    -0.11526965349912643, 0.0636451244354248, 0.14672522246837616, 0.09299151599407196, -0.13557906448841095, 0.038713403046131134, 0.1669866442680359, -0.04104229435324669, 
    0.017230654135346413, 0.15909643471240997, -0.0660720095038414, -0.025694560259580612, 0.155960813164711, -0.07993946969509125, 0.07920686155557632, -0.182010680437088, 
    -0.21674883365631104, 0.054629892110824585, -0.04333100840449333, -0.18663054704666138, 0.07299188524484634, -0.02172127738595009, -0.10153955966234207, -0.012082882225513458, 
    0.07560353726148605, 0.1348184198141098, -0.19837798178195953, 0.009067474864423275, 0.15516790747642517, -0.07089714705944061, -0.2000870555639267, -0.5132384300231934, 
    -0.04068811237812042, 0.010471547022461891, -0.07674680650234222, -0.017167577520012856, 0.001085604657419026, 0.20068134367465973, 0.056443605571985245, 0.002247840166091919, 
    0.1487554907798767, -0.09194209426641464, 0.13527259230613708, 0.1516612023115158, -0.5917360186576843, 0.2704424262046814, -0.09579620510339737, -0.09312303364276886, 
    0.028933200985193253, -0.052746474742889404, -0.1015450730919838, 0.17026108503341675, -0.23384685814380646, 0.056361109018325806, 0.12239065766334534, -0.1409081369638443, 
    -0.31023702025413513, -0.07727088779211044, -0.2334231287240982, -0.016082612797617912, -0.18647028505802155, -0.0820372924208641, -0.09750786423683167, 0.10880928486585617, 
    -0.3924529552459717, 0.06348655372858047, -0.03363749757409096, 0.07565221935510635, 0.021696511656045914, -0.1848677545785904, 0.10287748277187347, -0.16380415856838226, 
    0.17486988008022308, 0.06852290779352188, 0.26738855242729187, 0.014027997851371765, 0.0437391959130764, 0.12765203416347504, 0.03423634544014931, -0.3895723521709442, 
    0.026252297684550285, 0.1583266407251358, -0.09153351932764053, 0.08822609484195709, -0.16199472546577454, -0.07037729769945145, -0.3087538480758667, 0.1427256315946579, 
    -0.2424336075782776, 0.005605507176369429, 0.010531865060329437, -0.16355246305465698, 0.21135233342647552, 0.09614482522010803, -0.3848818242549896, -0.007861788384616375, 
    -0.11364690214395523, -0.33844414353370667, 0.05485837161540985, 0.007779722101986408, -0.03890298679471016, 0.11740942299365997, -0.004975898656994104, -0.01544010080397129, 
    0.004457032307982445, -0.10825658589601517, 0.028236016631126404, -0.11245221644639969, -0.03464299812912941, 0.11875256150960922, 0.2622881233692169, 0.1345745176076889, 
    -0.07174519449472427, 0.09828860312700272, 0.1156550943851471, -0.12408673763275146, 0.015688877552747726, -0.08714122325181961, -0.16788357496261597, 0.0353207103908062, 
    0.0879080519080162, -0.0975138247013092, -0.083724245429039, -0.14131733775138855, 0.17801660299301147, 0.0824599638581276, -0.19255773723125458, -0.05784279853105545, 
    0.2617638409137726, 0.3118572235107422, -0.05743146687746048, -0.15576912462711334, -0.019536767154932022, 0.1439434438943863, -0.06517721712589264, -0.055751342326402664, 
    0.03176143020391464, -0.13201510906219482, 0.22956432402133942, -0.036986093968153, -0.2038314938545227, -0.09625869244337082, -0.03784127160906792, -0.024790657684206963, 
    0.14161507785320282, -0.031708791851997375, 0.18271474540233612, 0.20306847989559174, -0.05256650596857071, 0.06437676399946213, -0.0836075097322464, -0.15712039172649384, 
    0.04807590693235397, 0.13028281927108765, 0.1525062471628189, 0.22242090106010437, 0.06179288029670715, -0.14029018580913544, -0.06801217049360275, -0.03637976944446564, 
    -0.12893356382846832, -0.1744118481874466, 0.01722366362810135, 0.005692390725016594, 0.020567143335938454, -0.1352337896823883, 0.06682329624891281, 0.09253418445587158, 
    0.02340828813612461, -0.11483341455459595, -0.09131910651922226, -0.13267189264297485, 0.061841536313295364, 0.03111492469906807, 0.022925369441509247, -0.42477914690971375, 
    -0.1981736719608307, -0.024606285616755486, 0.12844930589199066, -0.2594412565231323, 0.05155671387910843, -0.04672916978597641, -0.02849140763282776, 0.020731627941131592, 
    0.10883180052042007, -0.26319876313209534, -0.059764474630355835, -0.22342811524868011, -0.3149758577346802, -0.1562408208847046, -0.02986106649041176, 0.1046125590801239, 
    -0.11375889182090759, 0.1301192194223404, -0.265253484249115, 0.0870814099907875, 0.14906761050224304, -0.20686714351177216, -0.04013986140489578, 0.17791038751602173, 
    0.11053865402936935, 0.012684335932135582, -0.03783794119954109, -0.14683009684085846, 0.13568703830242157, -0.26811349391937256, -0.4349452257156372, 0.006108456756919622, 
    -0.09818419069051743, -0.19016659259796143, 0.1423298716545105, 0.2985898554325104, -0.10771889984607697, 0.05640104040503502, 0.03751002624630928, 0.1973058432340622, 
    -0.08588823676109314, -0.31555941700935364, -0.14271233975887299, -0.17722909152507782, 0.12415763735771179, -0.2729688286781311, 0.28066593408584595, -0.2375728189945221, 
    0.010237173177301884, 0.12845399975776672, 0.18388964235782623, -0.21785393357276917, 0.02131076157093048, 0.16387486457824707, 0.24322520196437836, -0.21172451972961426, 
    -0.13143938779830933, -0.22343730926513672, -0.038199543952941895, 0.051979731768369675, -0.058693692088127136, -0.1375458538532257, -0.0029131348710507154, -0.026632660999894142, 
    0.048967644572257996, 0.16941221058368683, 0.16611681878566742, 0.07144077867269516, 0.1876073181629181, -0.02730017527937889, 0.17439232766628265, -0.13092562556266785, 
    0.24636416137218475, 0.08743302524089813, -0.13442611694335938, 0.04286152496933937, -0.20775575935840607, -0.15749087929725647, 0.23401205241680145, -0.07979486137628555, 
    0.3442181944847107, 0.22456367313861847, 0.026208875700831413, -0.029970983043313026, 0.07723690569400787, -0.10191687196493149, -0.08316850662231445, 0.2123384028673172, 
    -0.2954704463481903, 0.17162397503852844, -0.12939272820949554, -0.0004931261646561325, -0.06032055243849754, -0.43834248185157776, -0.09162292629480362, 0.007174389436841011, 
    -0.2627885341644287, -0.25785523653030396, 0.3376601040363312, 0.23639044165611267, -0.09736474603414536, -0.15063326060771942, -0.05050979182124138, -0.44101762771606445, 
    0.0003305069403722882, 0.054481979459524155, -0.26001814007759094, 0.32432499527931213, -0.3200685679912567, -0.2503774166107178, 0.05344931408762932, -0.15113598108291626, 
    -0.1320928931236267, 0.10583222657442093, 0.07364290207624435, -0.5235825777053833, 0.28951892256736755, -0.11991891264915466, -0.2627567648887634, 0.08672425150871277, 
    -0.20083360373973846, -0.05335325747728348, 0.2357206791639328, -0.15904906392097473, 0.03873826935887337, 0.12487982958555222, -0.02990136854350567, 0.002940010279417038, 
    -0.19595518708229065, 0.15555071830749512, 0.03563862666487694, -0.01412404328584671, 0.15050417184829712, -0.36391088366508484, 0.42086896300315857, -0.237390398979187, 
    -0.11255273222923279, -0.18581785261631012, 0.18435941636562347, -0.2891322076320648, 0.03227031230926514, -0.1176261231303215, 0.20371830463409424, -0.008129465393722057, 
    -0.24363510310649872, -0.18363654613494873, -0.21440981328487396, 0.19510836899280548, -0.0344422310590744, -0.113397017121315, -0.15244899690151215, 0.14499831199645996, 
    -0.0042852917686104774, -0.22871313989162445, -0.11610900610685349, -0.0871238112449646, 0.12208858877420425, 0.013373533263802528, 0.09939240664243698, -0.0998033881187439, 
    0.06096108630299568, -0.14157558977603912, -0.1305786669254303, -0.173951655626297, 0.1710761934518814, -0.01519149262458086, 0.11149562895298004, -0.008442403748631477, 
    -0.05202162265777588, 0.15052476525306702, -0.05724024772644043, -0.23399166762828827, 0.1890745609998703, -0.274180144071579, -0.1619335561990738, -0.29574424028396606, 
    0.4614187180995941, -0.051711808890104294, 0.03944459557533264, -0.11507417261600494, 0.11411524564027786, 0.07283515483140945, 0.08037995547056198, -0.38556763529777527, 
    -0.29545095562934875, 0.20536695420742035, -0.20603066682815552, 0.041814930737018585, 0.1449335217475891, -0.1640045940876007, -0.22320914268493652, 0.22375287115573883, 
    0.10081797093153, 0.15501458942890167, 0.019367225468158722, -0.07459764182567596, -0.012660374864935875, -0.05568183586001396, 0.21266767382621765, 0.00882665254175663, 
    -0.009935496374964714, 0.24851073324680328, 0.03248419985175133, 0.031197408214211464, -0.1424657255411148, -0.0009029913926497102, 0.12141697853803635, -0.08633203059434891, 
    0.07178995758295059, -0.2237393856048584, -0.037119731307029724, -0.06319330632686615, -0.02330060489475727, -0.07040483504533768, -0.11063912510871887, 0.3832617998123169, 
    -0.03005867637693882, -0.26199424266815186, 0.10645189881324768, -0.025256536900997162, 0.1305253952741623, -0.0692320317029953, -0.017337309196591377, 0.07385767996311188, 
    0.08793852478265762, 0.03793399780988693, -0.0009181493078358471, 0.22280961275100708, -0.024257216602563858, 0.0775613859295845, -0.06256092339754105, 0.023863010108470917, 
    0.02207409217953682, -0.07171095907688141, -0.3771352469921112, 0.25858548283576965, -0.3580096662044525, -0.07909625768661499, -0.06764527410268784, 0.0533432811498642, 
    0.002598164137452841, -0.01736394502222538, 0.08693352341651917, -0.17531123757362366, 0.2617796063423157, -0.14072690904140472, -0.08040481060743332, -0.05196904018521309, 
    0.2661929726600647, -0.4841727018356323, 0.04020954295992851, -0.28372201323509216, 0.22751185297966003, 0.03510057181119919, -0.037093643099069595, 0.01406081486493349, 
    -0.025744915008544922, -0.0488785058259964, -0.128399059176445, -0.14418210089206696, 0.03244854509830475, 0.24978938698768616, 0.02103102020919323, 0.029233291745185852, 
    -0.005425563082098961, 0.029530778527259827, -0.03281589224934578, -0.06316810846328735, -0.3115231990814209, -0.020645426586270332, -0.16643773019313812, -0.0916115790605545, 
    0.2701757252216339, -0.046958718448877335, 0.03683323785662651, -0.30236899852752686, 0.19361001253128052, -0.0713689923286438, -0.15091833472251892, -0.08490100502967834, 
    -0.2729261517524719, -0.04669201001524925, -0.04520247131586075, 0.06188350170850754, -0.11691761761903763, 0.07190195471048355, 0.016899114474654198, 0.17323395609855652, 
    -0.17347392439842224, -0.04438525438308716, 0.08798611909151077, -0.2580219507217407, 0.05871528014540672, -0.0030847243033349514, 0.04029874876141548, -0.0026952819898724556, 
    0.2744300067424774, -0.12671028077602386, -0.17899136245250702, -0.03410039097070694, -0.11399286240339279, -0.13645708560943604, 0.17388173937797546, 0.255691260099411, 
    0.055713266134262085, 0.05496668443083763, -0.005363890901207924, 0.2023516595363617, -0.30537742376327515, 0.11562765389680862, -0.16555623710155487, 0.07184949517250061, 
    0.027804560959339142, -0.23212678730487823, -0.1073346808552742, -0.12992149591445923, 0.27653589844703674, -0.01968865655362606, -0.023374872282147408, -0.23677244782447815, 
    -0.00433834083378315, -0.2905479073524475, -0.16616098582744598, -0.06713662296533585, 0.09479779005050659, -0.390267550945282, 0.02623986080288887, 0.06525497138500214, 
    0.11391516774892807, -0.21905536949634552, 0.09429686516523361, 0.011798953637480736, -0.24489019811153412, 0.09991307556629181, -0.02481757663190365, 0.2247508317232132, 
    0.04061305150389671, 0.15604150295257568, 0.02344183251261711, -0.10549469292163849, 0.0825219452381134, -0.34883907437324524, 0.1416058987379074, -0.014400353655219078, 
    -0.15594299137592316, 0.07150797545909882, -0.018846172839403152, -0.04978485777974129, 0.08111607283353806, 0.03885381296277046, 0.04200902208685875, 0.07729708403348923, 
    -0.168779656291008, 0.11602610349655151, 0.002954288152977824, -0.10588573664426804, 0.012954523786902428, 0.1357303410768509, -0.13104063272476196, -0.1326288878917694, 
    0.027392348274588585, 0.12283339351415634, -0.044198788702487946, 0.05886584892868996, -0.05433603376150131, -0.11489249020814896, -0.033094070851802826, -0.15409345924854279, 
    -0.09874569624662399, -0.28543075919151306, -0.08125286549329758, -0.44925808906555176, -0.01193926576524973, -0.2619050443172455, -0.0920209288597107, -0.27541032433509827, 
    -0.31541454792022705, -0.04469053074717522, 0.13945716619491577, 0.19540482759475708, 0.00927652046084404, -0.3017200231552124, 0.10408256947994232, -0.3264968693256378, 
    -0.23299291729927063, 0.10179773718118668, 0.09414337575435638, 0.005971693899482489, 0.014250018633902073, 0.03962774574756622, -0.147530198097229, 0.27967071533203125, 
    0.054694365710020065, 0.0009517278522253036, 0.024242699146270752, -0.17217010259628296, -0.06933560967445374, 0.132961705327034, 0.21902024745941162, -0.20836564898490906, 
    0.12976711988449097, 0.1137019693851471, 0.1834825575351715, 0.12438216060400009, -0.06529078632593155, -0.024456864222884178, 0.03314554691314697, 0.05193717032670975, 
    -0.22341963648796082, -0.10708890855312347, -0.08886484801769257, -0.2439618855714798, -0.16768987476825714, 0.16171887516975403, -0.5468177795410156, 0.10536051541566849, 
    -0.04197680577635765, 0.3671249747276306, -0.25426530838012695, -0.03713991492986679, -0.1351826936006546, 0.22147521376609802, -0.1909118890762329, -0.168656125664711, 
    -0.12981773912906647, -0.04790450632572174, 0.13168074190616608, -0.0732078105211258, -0.11721213907003403, -0.2736259698867798, -0.08561384677886963, -0.08255387097597122, 
    0.03566330298781395, 0.16803593933582306, -0.08298157900571823, 0.12510369718074799, -0.31635788083076477, -0.088426873087883, -0.4099128842353821, -0.08364962041378021, 
    -0.12794490158557892, -0.32701176404953003, -0.0012536769500002265, -0.21038690209388733, 0.0019204247510060668, 0.06209835782647133, -0.06067568436264992, 0.3224954605102539, 
    0.04329832270741463, 0.04336501285433769, -0.3742336630821228, -0.06288596242666245, 0.0883866399526596, -0.10595055669546127, -0.02969951741397381, 0.07095086574554443, 
    -0.22326339781284332, -0.055172160267829895, 0.1816996932029724, -0.35007351636886597, 0.027753733098506927, 0.13153018057346344, -0.08011610060930252, -0.0770343691110611, 
    0.09185753762722015, -0.18764665722846985, -0.27435103058815, -0.05523201823234558, -0.5162973403930664, 0.10437505692243576, 0.14622272551059723, -0.07425685971975327, 
    -0.1359543651342392, 0.24014338850975037, -0.0011385235702618957, -0.2312461882829666, 0.030661538243293762, -0.19584950804710388, -0.02700488455593586, 0.07106955349445343, 
    0.40040212869644165, -0.017070556059479713, 0.014422580599784851, -0.18859270215034485, 0.06974754482507706, 0.24720965325832367, 0.10327638685703278, 0.2805246114730835, 
    0.12412372976541519, 0.10530078411102295, 0.08250149339437485, -0.21882116794586182, 0.11589919775724411, -0.04206341505050659, 0.030349787324666977, -0.21055354177951813, 
    0.017047671601176262, 0.06320735812187195, -0.0463746152818203, 0.05326256528496742, -0.16026656329631805, -0.23436513543128967, 0.05377735570073128, 0.0691228061914444, 
    -0.02474549412727356, 0.02801131270825863, 0.01128162071108818, -0.07023864984512329, 0.0532015860080719, 0.11795753240585327, 0.008853500708937645, -0.05292298644781113, 
    0.18723368644714355, -0.18924281001091003, -0.03168531879782677, -0.03489747643470764, 0.06013055890798569, 0.1751640886068344, -0.04119762033224106, -0.33610013127326965, 
    -0.32632505893707275, 0.11959511786699295, 0.33633437752723694, -0.13487333059310913, -0.0071366773918271065, 0.0009042213787324727, -0.09212680906057358, -0.10117503255605698, 
    0.0681396946310997, 0.08277321606874466, -0.28169795870780945, 0.22326530516147614, 0.02707032673060894, 0.03846030309796333, 0.1764303743839264, 0.08114780485630035, 
    -0.14127399027347565, 0.07328111678361893, -0.06616862863302231, 0.026773639023303986, -0.15510094165802002, -0.03327381983399391, 0.39505234360694885, -0.5140302181243896, 
    -0.06466418504714966, 0.2950612008571625, 0.02489134483039379, 0.10505836457014084, -0.027303533628582954, -0.006114112213253975, 0.030729170888662338, 0.036390937864780426, 
    -0.19817081093788147, 0.026636335998773575, 0.1515893191099167, 0.1053239181637764, -0.054675523191690445, -0.020205754786729813, 0.05041857808828354, -0.1335323601961136, 
    0.16951261460781097, -0.08891581743955612, -0.06407397985458374, 0.10062983632087708, 0.25992628931999207, 0.03033503331243992, -0.3613974452018738, -0.0454665832221508, 
    -0.2314211130142212, 0.1254139244556427, -0.10972452163696289, 0.0001485172106185928, -0.14891189336776733, 0.06364886462688446, 0.07980489730834961, 0.2308172583580017, 
