#ifndef TCN_WEIGHTS_BIASES_FLOAT32_H
#define TCN_WEIGHTS_BIASES_FLOAT32_H

#include <stdint.h>

static const float TCN_WEIGHTS_BIASES[] = {
    0.3974906802177429, -0.2686353027820587, -0.03334610164165497, -0.007135441061109304, -0.013004438020288944, 0.01746397651731968, -1.2961177825927734, -0.47186145186424255, 
    -2.510993480682373, 0.004319598898291588, 0.6882020831108093, -0.6930055022239685, 1.0399147272109985, -0.616750955581665, -0.28433728218078613, -0.01591620407998562, 
    0.005735177546739578, -0.012615821324288845, -1.3419444561004639, -1.757885456085205, -2.405543327331543, 0.020740294829010963, -0.642845630645752, 0.6091529726982117, 
    0.00016145019617397338, -0.07304733246564865, -0.21406643092632294, -0.0030390419997274876, -0.07376658916473389, -0.13198697566986084, -0.15556763112545013, -0.36351561546325684, 
    -0.3044200539588928, -0.16929565370082855, -0.3117739260196686, -0.28595447540283203, 0.07125552743673325, 0.21289785206317902, 1.725064754486084, -0.20322269201278687, 
    0.5976938009262085, 1.4930810928344727, -0.967950701713562, 3.28410267829895, 4.028345584869385, 2.552760362625122, 5.829719543457031
};

#endif // TCN_WEIGHTS_BIASES_FLOAT32_H
