#ifndef TCN_WEIGHTS_BIASES_INT32_H
#define TCN_WEIGHTS_BIASES_INT32_H

#include <stdint.h>

static const int32_t TCN_WEIGHTS_BIASES[] = {
3101, 4847, 6357, 5252, -508, -198, -112, -143, 
    -20783, -25046, -18632, -21455, -149, -301, -331, -221, 
    -5776, -4544, -3698, -1922, 1877, 434, 941, -401, 
    -7014, -10709, -19536, -27333, 1330, -2695, 940, -1646, 
    -937, 458, -26, 423, 40, -10, 30, -129, 
    -424, 1174, -9796, -47, 3, 1107, -4617, 3534, 
    -4427, -4720, 4651, 4028, 394, 247, -299, -770, 
    -4809, -5061, -2318, 5587, 232, 320, -764, 1277, 
    -7434, -4278, 2893, 4335, -890, -211, 496, 934, 
    -19143, -50036, -73419, -82895, -37, -1677, 949, 1323, 
    772, 2437, 1437, -4168, -92, -76, 86, 484, 
    6028, 4837, 1266, 22094, -853, 278, -2232, 3051, 
    -5484, -4718, -3876, 3504, -652, -37, -768, -1731, 
    -9540, -246, -40604, -80861, -181, 494, -815, 1430, 
    1665, 1181, -1464, -1161, -15, 241, 65, -288, 
    -1802, -8787, 1695, 5501, -73, -4071, 1009, 3149, 
    1027, 1794, -1628, -2748, -197, -484, 2527, 1078, 
    -6619, 10036, 11522, 23225, -889, -6072, -476, 800, 
    3331, -163, -6028, -9034, 1816, 3953, -1023, -4506, 
    10746, 12658, -3849, -3187, -595, -638, -71, 1454, 
    2643, -271, -8673, -13124, 305, -202, 771, 369, 
    11930, 3098, 4135, 11366, 57, 480, 324, -12, 
    -3146, 1397, 5266, 5598, -110, 56, 475, 442, 
    8301, 8919, 7118, 6413, 25, -186, 376, -395, 
    2842, -112, -2663, -5036, -154, 522, -124, -876, 
    -18909, -16492, -4821, -9972, 1343, 1311, -397, -1360, 
    898, 378, -2740, -1663, 518, 153, -2364, 2090, 
    19193, 9374, 7958, 19594, -134, 2296, -3832, 741, 
    -1491, 531, -116, 396, 613, 1432, -152, 914, 
    -6758, -5023, 67, 7471, -157, 635, -200, -2204, 
    -3207, -1732, 1832, 1759, 429, -562, 207, -284, 
    -4450, 5982, 4728, 12099, -1974, 1500, -1430, 2160, 
    182, 1092, -794, -374, -118, 345, 1575, -1233, 
    -904, -436, -1370, -7068, 216, 405, -353, -226, 
    -713, -842, -116, 1398, 356, -503, -1229, 6189, 
    719, -1011, 970, 895, 349, -26, -959, -3456, 
    -1635, 481, -277, -2251, -264, 33, 283, 1403, 
    -1553, 493, -900, 649, 587, 831, 2203, -3749, 
    382, -761, -1170, 2132, 233, 1013, 841, 3085, 
    -212, -360, -1638, 2470, -52, 815, -492, 1474, 
    -171, -301, 325, 1780, 642, -1044, -1097, 3574, 
    -3972, -5356, -6206, -8318, -6414, -2581, -5253, 2724, 
    2854, -1836, 1275, 674, 686, 1484, -715, 1299, 
    -1932, -3285, -10170, 9207, -2582, -6049, -2965, -3105, 
    89, 934, 1888, 2315, 1890, -124, -1307, -3535, 
    1177, -28, -2520, 1648, 2900, -996, -2892, -1625, 
    -571, -3018, -42684, 1018, 2290, -294, 283, 1179, 
    3539, -768, -3315, 656, -360, 61, -280, 2381, 
    3237, 2726, -2691, -4184, 394, -26, -1586, -1109, 
    -350, -2051, -4537, -5070, -1501, -2750, -6011, -3165, 
    -2310, 962, 1363, -290, 1102, -1250, -729, 2362, 
    -4670, -30408, -1972, -14922, 2851, 1702, 219, -1689, 
    -2665, -1143, -210, -487, -3267, -7417, -230, -1592, 
    2004, 597, -1050, -661, -1531, -2112, 1038, 1337, 
    68, -1874, -3972, -2683, -23, 1875, 2247, 919, 
    -671, 567, 2048, 1048, -1343, -985, -1276, 5107, 
    -1511, -2346, -530, 3419, -1541, 1804, -468, -175, 
    -1270, -455, -232, -2750, -694, 334, -349, 970, 
    -886, 986, -822, -1956, -158, -42, 9, 2177, 
    1434, -528, -4000, 1519, 158, -1946, 920, 590, 
    -1218, -2055, 561, 6575, 839, 185, 530, 1254, 
    4347, -19, -6268, 432, -3660, -512, 779, 2876, 
    -753, -1034, -2625, -143, 907, -9, -1452, -175, 
    -471, -272, -3386, -1095, -307, 641, -455, 404, 
    -1177, -990, 713, 2143, 871, -63, -893, -1472, 
    -109, -90, -3630, -6227, -2153, -325, 692, 1654, 
    604, 838, -9, -561, 292, -407, -75, 2877, 
    1796, 950, 111, -2214, -223, -499, -2085, -2983, 
    -447, 514, -399, 1327, 311, 622, 229, -742, 
    2444, 1940, -600, -4657, -2693, -647, 631, 1691, 
    790, 832, -426, -1423, 0, -267, 927, -910, 
    224, 665, -2143, 962, -279, 685, 393, -180, 
    -1565, 1459, 647, 341, 238, 1689, 552, -930, 
    -342, -181, -5440, -4589, 729, 576, -2227, -58, 
    -542, 164, 824, -7553, -764, -35, 1206, 2053, 
    748, -152, -3218, 818, -415, -751, -5086, -7882, 
    -935, 704, -4498, 871, 1419, 2469, -330, -1170, 
    -1250, -1559, 1670, 2791, 1798, 2604, 280, -4111, 
    -736, -394, 1707, -1554, -1391, -141, 2285, -2111, 
    -1965, -105, 4030, -2299, 126, 644, -665, -854, 
    440, -715, 271, 4792, -212, 2081, -923, 492, 
    -2756, 483, 3983, -5225, -1748, 1031, -1588, -4100, 
    -15001, -12775, -1398, 4196, 1005, -1047, -2217, -1116, 
    936, -38119, -21106, -258, -3523, -3060, -1056, -1764, 
    -1346, 4033, 58, 1390, 1711, -244, -4113, -22597, 
    2599, 127, -3691, -4733, 465, -1119, -2200, 58, 
    1942, -4888, -1483, 1487, 1289, -3555, -4193, 2010, 
    112, -1432, 1200, 289, 483, 2460, -3698, -5672, 
    -508, 312, 1131, -2948, 562, 2221, -2935, -603, 
    191, -1420, -1373, -2987, -1493, 817, -213, 955, 
    -1952, -1745, -4025, -295, 634, 32, 240, -26, 
    -2310, -958, 1298, 1199, -25, -110, 255, -952, 
    -1459, -752, 495, 649, -25, 1187, 1382, 1527, 
    -698, -288, -515, 2169, 2583, 1497, 165, -3474, 
    -2896, -667, 2123, 2525, 52, 1375, -2222, 788, 
    -52, -871, -860, 1725, -392, -20, 628, -120, 
    -2731, 3769, -1533, -5275, -6045, -2673, 2629, -1515, 
    776, 815, -4262, -6535, -489, 1808, -2223, -1478, 
    1216, 2036, -1127, -8783, 223, 1033, 538, 3028, 
    4097, -664, -4294, -24411, 352, -2620, -8260, -664, 
    -1793, -6174, -7853, -1295, -1531, -4014, -14942, 1780, 
    -3879, 3438, 955, -2243, -2653, -1051, 1013, 2305, 
    1372, 818, -6430, -6911, -1412, -3144, 1573, -2830, 
    1313, 1322, -895, 749, -2085, -3060, 1052, 1829, 
    -2118, 1853, -2335, -680, -10731, -165, -731, -8966, 
    2382, -3439, -301, -20607, 1053, 280, -2066, -3822, 
    -1380, -17364, -16179, -5102, -1506, -2421, -818, 2844, 
    -4064, -3780, -4143, 3069, 1578, 1640, -899, -9817, 
    -2456, -14661, -943, 4374, -1282, 3714, 2696, 2254, 
    640, -631, -4973, 4630, -258, 844, 2554, -4630, 
    580, 1688, 1673, -3495, -4801, 2484, 955, 3154, 
    809, -73, -1099, -2188, 1793, -3154, -493, -25, 
    -31, 881, -2602, -1208, -3885, -4192, 2218, -3393, 
    -52, -1108, -1565, -4260, -3018, -164, -692, 1652, 
    -3766, -4245, -1012, -866, -413, -640, 977, 2738, 
    -13175, 5631, -8414, -19412, 2919, 1101, -1384, -3300, 
    -6629, -7183, -12, 571, -7519, -3882, -19179, -63, 
    2266, -5113, -11, -8068, -861, 179, 95, 2098, 
    -75, -3439, 635, -10098, 362, 1642, -6030, -1740, 
    2071, 3213, -1189, -530, -3175, 1355, -274, 3220, 
    -2913, 436, 4030, 445, 849, 1594, 437, -1044, 
    -1170, -1358, 4150, 549, 692, -823, -2313, 955, 
    -300, -502, -2062, 3434, -523, -181, -1678, 1486, 
    -382, 2896, -2805, 5227, 1263, -476, 410, -810, 
    -7582, 1951, -3181, -194, 140, 92, -49, 986, 
    4670, -1683, -2482, -450, -1104, -495, 498, -1733, 
    -293, -1498, -2120, -4357, 904, 1052, -12440, -6874, 
    363, 183, 620, 306, 483, 1441, 161, -104, 
    441, 154, -534, 519, 2310, -541, -1252, 290, 
    11, -1245, -2934, -6851, -1730, 9, 2272, -1303, 
    918, -382, -929, -929, 476, -350, 1318, 3054, 
    -2493, 2699, 106, -2806, -1093, -36, -1143, -1035, 
    168, -1527, 837, -1743, 1705, 892, 909, 1366, 
    -85, 209, -687, 2730, -946, -143, -387, -1164, 
    77, 593, -2884, 167, 1240, 1601, -1439, -3734, 
    1752, -1672, 2992, -1494, -855, 1190, -955, 834, 
    -11264, 603, -1683, -10947, 545, -26024, 1984, -2929, 
    17, -33, 2658, 2561, 2132, -1053, -14, 685, 
    -773, -1088, -521, -437, -385, 415, -2451, -476, 
    -4064, 2189, 2582, 734, -47, 612, 130, -598, 
    965, -3049, -3559, -10814, 924, 216, -148, 35, 
    -1811, 213, 1174, -1850, 1074, 2430, 515, -8112, 
    2306, 829, 741, -662, -670, 880, -2567, -4973, 
    2310, 1901, 1152, -1781, 1089, -2117, 1226, -1087, 
    1250, -689, 36, 439, 534, 1418, 938, 793, 
    -2109, -2387, 1190, 8003, 2803, 2582, -18, -4663, 
    2104, 2350, -695, -2937, 2139, 2005, 189, -5743, 
    389, 644, 235, -1171, -783, -654, 1411, 1059, 
    -632, 1804, -64, -4017, 188, 281, -363, -151, 
    1221, -164, -1361, -267, 590, 263, -1418, -608, 
    2014, 549, 133, -991, -59, 613, -349, -2084, 
    492, -2701, -1030, 4185, -376, 686, 968, -2488, 
    1352, 1301, -487, -3674, 772, 1415, -2820, -220, 
    322, -1330, -20032, -16633, 1912, 550, -193, -532, 
    -915, 1184, 1378, 80, -292, -1554, 568, 1437, 
    -1228, -425, -260, 159, -1206, -964, -1764, -10571, 
    -2697, -1825, 569, -2363, 123, -357, 668, 1064, 
    -1844, -807, 401, 2058, -129, 1025, -979, -2281, 
    211, 366, 1317, -381, 1001, 1276, 3402, -2822, 
    -358, 1991, 846, 2543, -1691, -1574, -1548, 4204, 
    -17, 161, -548, -447, -1833, -3697, -149, -5282, 
    543, 1407, 904, -3370, 411, -350, -1529, -2143, 
    -536, -113, 711, -689, 1062, 956, 444, -142, 
    -1138, -922, 150, 245, -277, 1069, 502, -17, 
    1258, 2049, 585, 1646, 2607, 257, -2158, -21932, 
    -3171, -479, -3322, -8004, 330, -951, 196, 431, 
    73, -756, -571, -183, 7, -1121, -1090, 698, 
    435, -58, -111, -261, 847, -666, 280, 388, 
    -487, 1923, -1335, 929, -2368, 6338, -3096, -809, 
    -676, -296, 3185, 745, -341, -865, -3405, -418, 
    201, -1465, -157, -2464, -3556, 35, 811, 978, 
    -426, 1419, 1336, 1233, 2619, -1143, 240, -748, 
    -1990, -1767, -1124, 465, -6428, -6120, 1602, -3472, 
    -561, 1210, 799, 245, -801, 58, 114, 0, 
    299, -1809, -2117, 1416, -1486, -230, -8293, -9539, 
    -500, -903, -1077, -172, -151, 795, 1445, 1308, 
    -3477, -2359, 272, -1207, -15181, -2066, -811, 4772, 
    -18173, 5804, 2291, -13977, -444, 4449, 648, 419, 
    -10193, -13457, -929, -953, -5337, -372, -11744, -10687, 
    -6064, -9845, 989, 467, 1991, 2939, -2441, 470, 
    1457, -4378, 2799, 3821, -233, 2783, -5122, -998, 
    2521, -6201, -13506, -3221, 199, -7601, 92, 249, 
    -5227, 412, -36, 1581, 1854, -7276, 582, -3906, 
    -2555, 251, 274, -16510, -17743, -11337, -4447, 507, 
    -1003, -367, -105, 1403, -8016, 1197, 301, -7465, 
    -3136, 1873, -139, -1776, -6717, -784, -477, 934, 
    -2272, -1702, -4647, -913, 859, -4672, 1106, -201, 
    3313, 3398, 931, -10860, 1809, 1608, 444, 855, 
    4368, 4318, 4370, 621, 755, -4386, 3340, 1031, 
    1004, -6156, 765, -12650, -3529, -1945, 505, -871, 
    -5821, -2705, 250, 2132, 2993, -2030, -1359, -554, 
    -321, -595, 81, -2682, 1837, 1028, -2241, -73, 
    -1544, 333, 1370, 407, 2705, -769, -2541, 1901, 
    911, -919, -1652, -132, -3065, -1340, -229, -243, 
    850, -628, -1093, 482, 694, -310, -926, -822, 
    339, 1805, 210, -6240, -1470, -453, -1344, -880, 
    -197, -20517, 1449, 1284, -2853, -160, -2319, 2398, 
    2680, -1196, 1674, -1796, -632, 801, -367, -900, 
    639, 102, 1256, -333, -281, 516, -907, -374, 
    -387, 328, -313, -808, -1196, -1332, -811, 117, 
    -1287, -942, -605, 2115, 13, -1522, -119, 3052, 
    -467, 3787, -1426, -1595, -157, 2085, 811, -6948, 
    121, 375, -344, -1165, -624, 46, -3494, 256, 
    -11647, -356, -1674, 710, 397, 1258, 938, -179, 
    1677, -1147, -3812, 2130, -7019, -948, -804, 1968, 
    -881, 146, 1203, 3537, 555, -738, 106, -934, 
    363, 354, -478, -412, 212, -3174, -201, -1476, 
    615, 167, -155, -200, -190, -1031, 449, -257, 
    -2804, -1051, 937, -5041, -1910, 4327, -832, 1266, 
    392, -2148, 922, 1820, -2319, 2022, -427, -3333, 
    -1447, -583, -151, 310, -47, 3042, 342, -2413, 
    943, 4107, -1256, 1630, 1533, -83, 936, -5306, 
    1915, -2550, 2560, -292, 1940, 180, -1511, -2420, 
    -2525, 3949, 1086, -4387, 281, -3336, -519, -56, 
    132, -829, 698, -648, 765, 314, -1010, -4715, 
    554, 166, -1636, -2859, 3799, 3537, -1624, 215, 
    148, -547, -201, 1336, -859, -294, 882, 1180, 
    618, 589, 306, 900, -377, -108, 344, -8, 
    -112, 246, 411, 1982, 247, -238, 385, 170, 
    -58, 122, -402, -694, 45, -55, -401, 14, 
    16, -673, 45, 1077, 764, -570, -301, 1892, 
    139, -225, -27, 78, 73, 198, -75, -1452, 
    85, -269, 254, 232, 215, -247, 65, -60, 
    64, 85, -301, -1166, 179, -254, 535, 730, 
    1204, -1551, -2890, 2164, -24, -1186, 621, 3417, 
    -531, 1135, 1412, -409, 1273, 262, -108, 1744, 
    -1478, -2159, 84, -514, 3010, 1356, 126, -3513, 
    1926, -4438, -550, -7493, 768, -879, -913, -5294, 
    -105, -1290, 95, 2756, 1871, 2458, 3134, -854, 
    6, 248, -357, 836, -762, -1331, 153, -1079, 
    -2566, 2364, -5, 458, 354, 459, -1782, 1054, 
    -258, -2460, -2342, 6, 157, -1429, -1125, 1806, 
    1722, 791, 748, -1007, -675, -171, 926, 698, 
    -2572, 716, 3222, 2621, -1380, 1597, 71, 369, 
    -638, -1859, -1493, 1731, 610, 804, -706, -102, 
    -15998, -410, 347, 3299, 366, -1251, -875, -1434, 
    2790, 1975, -261, 1900, -1394, -15606, 3775, 2691, 
    707, -2386, -809, -481, -250, -1559, -1204, -534, 
    1015, -244, -332, -2949, -1467, 1502, -50, -429, 
    -610, -37, -2104, -1130, 477, 83, -741, 566, 
    432, 125, -355, 840, 2116, 1061, 149, 1363, 
    481, 1392, -171, -2174, 867, -253, -83, 1513, 
    -804, -748, -402, -612, -450, 120, 407, 1337, 
    1468, -223, 810, 1209, -470, -327, 991, 615, 
    58, 2728, -917, -309, 1509, 352, 149, 863, 
    -935, -2017, -1720, -1288, -377, -544, -1132, -173, 
    -290, -440, -110, 1080, -538, -1004, 427, 567, 
    -366, -156, 124, 230, -220, -889, -157, 848, 
    472, 1356, -686, -3573, -7790, -7694, -1932, 1559, 
    -796, 486, 1350, 1711, -1895, 1758, 48, -36, 
    1327, 473, 725, -3357, -640, 1093, -868, -2824, 
    1643, 527, -557, 2082, 342, -1090, 709, 1339, 
    -1362, -2832, -11366, -26570, 775, -3955, -13066, -4179, 
    -5253, -1364, -6797, 801, 580, -2118, -727, -291, 
    -215, 596, -330, 911, 549, -193, -1086, -657, 
    -563, -344, 146, 212, 258, -853, 1269, -1623, 
    109, 1, 94, 62, -4813, 1970, -99, 1476, 
    -1057, -851, 1310, -35, 526, 850, 317, 1458, 
    -356, -522, 354, 2153, 476, 1337, -811, -1846, 
    -290, -128, 183, 791, 126, -309, 295, 715, 
    -385, -946, -715, 1904, -142, -2319, 3239, -1522, 
    695, 428, -596, -1536, -301, -639, -895, -6495, 
    398, 531, -297, -219, -122, 998, 275, -345, 
    -105, -138, -3095, -2929, 143, 459, -177, 724, 
    -4196, -1034, 508, -2207, 965, 898, -37, -3179, 
    -2075, -18211, -3303, 1807, -6213, 390, 72, 1252, 
    300, 292, 1325, 580, -2013, 779, -6376, -136, 
    -2732, -19, -4544, 4911, -202, -3515, -1079, 880, 
    3607, 4004, -1277, 1687, -382, -16623, -18643, 4673, 
    1619, -1160, 1347, 3126, 138, -1493, -35, -1211, 
    1630, -246, -880, -198, 924, 2691, -6211, 1033, 
    -690, -584, -4178, -2429, -2576, -478, -3715, 1239, 
    -497, -166, 265, -132, -135, -199, 2426, 480, 
    -8389, -969, -30, 2152, 634, 1449, 172, 1217, 
    1205, 730, 335, -952, -1322, -158, -680, 449, 
    -260, 3250, -877, -1905, -843, -68, -416, 782, 
    2627, -3866, -261, -1882, -697, 2824, 1732, 846, 
    2400, 1112, -17841, -11092, 28, -4071, 119, -629, 
    -514, -515, -634, -335, 594, 45, -1758, -354, 
    0, -175, 414, 374, -88, -13, 71, -888, 
    -485, -104, -424, 77, 954, -2678, 335, 1200, 
    -200, 2825, -363, -1413, 1660, 194, 360, 1075, 
    -206, 231, -330, 549, 1065, -184, 1148, 757, 
    -5166, 168, -7012, -4458, 486, 791, -153, -2179, 
    2559, 942, 247, 706, -10720, 6126, -7072, -5397, 
    -1758, -1509, -1012, 2194, 515, -33, -8501, -586, 
    -581, -750, 492, 201, 1564, 1454, -398, -4908, 
    -2189, -2179, -5963, -4322, 1463, 1157, 1009, 1478, 
    -89, 250, 74, -132, 41, 184, 107, 262, 
    -140, 72, 440, 854, 39, 25, 265, 339, 
    101, 3, -170, -230, -238, -110, -157, -16, 
    2243, 6, -146, -161, -77, -69, 21, 493, 
    53, -16, -196, -270, 55, 62, -206, -281, 
    55, 82, 109, 290, -42, -54, -62, -208, 
    50, -23, 96, 329, 78, 801, 310, 766, 
    -157, 25, 152, 272, 48, 90, 181, 299, 
    -3434, 24646, -9780, -30985, -5513, 38734, 14718, -22916, 
    -838, 4092, 1039, -37935, -47684, 2946, 1579, 15956, 
    -129, 5167, 5800, 35265, 53735, 29056, 13593, 23058, 
    18436, 444, -10727, -14594, 20441, 12323, -29675, 41940, 
    38478, 10864, -20904, -15065, 36497, -22321, -11981, 35245, 
    -2993, -32915, 5120, 8247, 25828, 8857, -4232, 3481, 
    25227, 
};

#endif // TCN_WEIGHTS_BIASES_INT32_H
