#ifndef WEIGHTS_BIAS_INT32_H
#define WEIGHTS_BIAS_INT32_H

#include <stdint.h>

static const int32_t WEIGHTS[] = {
5, -2, 18, 65, 107, 105, 104, 34, 
    -30, -31, -23, -40, -2, 30, 22, -154, 
    -154, -155, -13, -7, 16, 33, 40, 37, 
    68, -8, -80, 270, 85, -114, -83, 35, 
    78, -218, -186, -72, 0, -13, 51, 23, 
    -50, -42, 23, -61, 55, -28, 38, 52, 
    -36, -8, 18, -248, -260, -259, -77, 42, 
    -22, 78, 195, 181, 1, 0, 0, -3, 
    -3, -2, 1, -1, 0, -1, 1, 1, 
    14, -11, -32, -6, 66, 77, 43, 24, 
    -9, -24, 9, -2, 181, 102, -155, -600, 
    -557, -451, 70, -19, -14, 159, 279, 163, 
    1, -4, -10, 11, 20, 23, -13, 13, 
    55, -16, 14, 14, -58, 123, -163, -513, 
    -417, -362, 18, -36, 5, 52, 776, 563, 
    -60, -8, 113, -161, -61, 48, 5, -23, 
    27, -167, -168, -91, -266, -74, 275, -503, 
    -556, 51, 8, -18, -26, -259, 108, 254, 
    25, 24, 23, -156, -112, -68, 24, 41, 
    8, -52, 26, 45, 13, 59, 25, -216, 
    -254, -256, 34, -28, -6, 10, 49, 49, 
    1, -1, 1, -43, -29, -6, 4, 17, 
    9, -6, 10, 8, -3, -22, -18, 19, 
    57, 71, -37, -40, -1, 9, 30, 40, 
    -132, -58, 105, -121, -77, 147, 25, 15, 
    2, 64, 132, 132, -36, -95, -29, 94, 
    102, 78, 7, 4, 3, 20, 7, -1, 
    53, 47, -44, 540, 543, 379, 102, -14, 
    -87, -50, -256, -208, 65, 23, -91, 284, 
    37, -130, -50, 62, 15, -215, -229, -183, 
    22, 155, 140, -178, -173, -186, -1, -3, 
    12, -31, -16, -2, 97, 106, -126, 397, 
    218, -62, 91, -99, 16, -85, -52, 27, 
    -36, 76, 25, -212, -250, -247, 27, -12, 
    -6, 0, 52, 7, -3, -7, -24, 60, 
    134, 177, -24, -47, -29, -66, -83, -80, 
    1, 1, 2, -8, -8, -5, 3, 0, 
    0, -2, 1, -1, 10, -5, -5, 51, 
    113, 111, -66, -76, 11, -50, -38, -9, 
    -54, -263, -88, 141, 77, -48, -5, 7, 
    -13, 30, 3, -2, 33, 52, 29, -184, 
    -131, -66, 30, 43, 42, -74, 47, 41, 
    -5, -5, 4, -1, 2, 2, -2, -3, 
    1, 2, 10, 10, -35, -18, 15, -117, 
    -47, 47, 7, 43, 41, -39, 55, 62, 
    60, -7, -71, 645, 448, 263, -95, 71, 
    -7, -247, -222, -213, 0, 1, 0, 0, 
    0, 0, 0, 0, 1, -1, -1, 0, 
    131, 11, 101, -273, -142, 44, 442, -200, 
    -357, 320, -332, -400, 414, -297, -426, -206, 
    30, 111, -14, -233, 335, -1447, -57, 378, 
    25, 352, -43, -98, 457, -449, 621, 286, 
    -346, 736, 717, 132, -188, 40, 319, -880, 
    276, 375, -15, 269, 205, -352, -671, -197, 
    625, 407, 350, -287, -755, -936, -375, 459, 
    418, 552, -185, -235, -308, 381, 499, -690, 
    446, -221, -756, 759, 429, -303, -26, 107, 
    -163, 59, 29, -254, -480, 131, 10, -968, 
    -1264, -281, 108, 364, -117, -247, -274, 218, 
    475, 168, 694, -431, -121, -104, -12, 60, 
    278, 131, -200, -596, -467, 64, -429, -553, 
    -19, 156, -394, -47, 211, -153, -313, 132, 
    -146, -84, -404, -164, -298, -249, -581, -472, 
    90, -133, 183, -262, -875, -688, 87, -13, 
    162, 649, 465, 5, -64, -261, -597, -115, 
    92, 491, 5, -94, -279, -362, -357, 33, 
    123, -10, -809, -271, -358, 77, 251, 763, 
    1196, -88, -111, -181, -412, -15, 645, 122, 
    -268, 93, 67, 250, 552, -152, 84, 651, 
    109, 65, 70, -586, -420, 148, 184, -141, 
    -134, -93, -497, -635, 454, -10, -182, -96, 
    -369, -338, 236, -12, -14, -43, -112, -129, 
    531, -279, -628, 128, 166, 80, -521, -1217, 
    13, 135, 1310, -1082, 167, 242, 394, 99, 
    185, -236, 712, -146, -189, 785, 166, -294, 
    -303, -426, 2, 478, 619, 72, 68, 499, 
    -1114, -28, -118, -301, 139, -607, -1018, 38, 
    650, -23, -104, -180, -339, -276, -287, -145, 
    206, 282, -16, 166, 462, 336, 472, 130, 
    88, 93, -1201, 202, 387, 276, 137, 156, 
    981, -1063, -173, 165, 9, -614, -563, -226, 
    80, -98, -309, -354, -629, -585, 59, 395, 
    485, -201, -708, -973, -107, -102, 34, -109, 
    -39, -223, 19, -509, 313, -76, -68, -185, 
    -23, -20, -563, 569, 416, -86, -349, 269, 
    1214, -16, 1315, -673, -338, -411, 229, -420, 
    -188, 39, 630, 440, -721, -388, -78, -233, 
    -84, -409, 9, -1015, -693, -827, -730, 748, 
    -299, -991, 413, 405, -819, -506, -81, -126, 
    -532, -336, 161, -413, -342, -543, 352, -1255, 
    651, 734, -48, 1473, 463, -679, 151, -278, 
    -994, -517, 78, 1543, 519, 256, 168, -929, 
    1091, 106, -472, -993, -252, -451, -140, -1315, 
    -387, -287, 9, 13, 717, -1262, 327, 105, 
    -276, -1058, -490, 223, -893, 445, -794, 412, 
    -283, -317, -409, 202, 1155, -231, 6, 112, 
    -40, 47, 131, -10, 42, 62, 42, -162, 
    -347, -325, -38, -149, -94, -12, 47, 13, 
    42, 7, 198, 230, 195, 250, 67, -97, 
    277, 186, 63, 424, 179, -53, 9, -68, 
    -324, -138, -191, -141, 145, 141, 55, -126, 
    0, -92, 169, 205, 72, 145, 207, 103, 
    -70, 210, 417, 98, 307, 270, -373, -269, 
    43, -48, -189, -219, -179, 15, -47, -55, 
    -149, -257, 89, -8, 31, 116, 126, -21, 
    4, 25, 28, -51, 3, -65, -40, 124, 
    67, 175, 113, 15, -58, -34, 6, 240, 
    240, 157, -178, -205, -65, 24, 4, -18, 
    122, 429, 151, 57, -745, -978, 400, 850, 
    369, 52, 93, -491, 399, -359, 117, 226, 
    -73, -137, 67, 305, 150, 943, 398, -1258, 
    282, 127, -441, 106, -639, -772, -500, -679, 
    -169, -250, -1092, 168, 51, -68, -396, -173, 
    -729, -615, -4, -100, -164, -160, 66, -296, 
    -310, -320, -76, -399, -232, 206, 264, 561, 
    232, 553, 1068, 383, -243, -1517, -1249, 593, 
    358, -31, -312, -719, -442, -554, -339, -482, 
    69, -46, -20, -369, -76, -665, -685, -278, 
    402, 233, -202, -611, -6, -31, -57, -286, 
    -445, -286, 229, 292, 221, 36, 32, -23, 
    299, 129, 51, 180, 658, 505, 241, -171, 
    -306, 359, 247, 522, 150, 266, 23, -65, 
    65, 21, 129, 308, 269, -627, -400, 529, 
    535, -57, -679, -261, -801, -389, 422, 182, 
    -271, -150, -563, -1175, -195, 8, -13, 390, 
    905, 603, 316, 138, -455, -317, -113, -138, 
    396, 209, 49, -2, 105, 13, -2, 93, 
    259, 213, -78, -173, 902, 2137, 1024, 28, 
    -101, 296, 169, 367, 138, -253, -110, -237, 
    30, 146, 44, -51, 151, 108, -386, -68, 
    -209, -240, -67, -110, -521, -212, -393, 486, 
    249, -483, -299, -60, 158, -4, 2, -26, 
    1567, 1207, 39, -200, -383, -258, -353, -1228, 
    -323, 185, 80, -57, -662, -576, -310, 128, 
    -37, -187, 408, 243, -436, 114, -295, -218, 
    272, -959, -1670, 247, -730, -607, -147, -323, 
    -73, 70, 414, -12, 679, 81, -690, -374, 
    -219, -62, 444, -286, -972, -852, -590, -398, 
    639, 396, -362, 359, -79, -141, 173, 560, 
    497, 135, -369, -364, -67, -124, -107, -177, 
    -38, 388, -85, -44, 0, -755, -549, -511, 
    100, 9, 26, -45, -172, -469, 86, -137, 
    -415, 463, -184, -920, -252, -59, -370, 481, 
    -376, -1192, -560, -628, -160, 53, -118, -74, 
    -642, -697, -549, -141, -181, -42, 98, 372, 
    738, -225, -686, 326, -71, -529, -644, -171, 
    -271, -55, -633, -273, -433, 78, -391, -494, 
    -374, -226, 230, -526, -534, -210, 62, -209, 
    459, 234, -45, -42, -822, -530, -154, -412, 
    -672, -213, -600, -273, 136, -223, -361, -172, 
    -217, -245, -80, -205, -290, -265, 318, 142, 
    -191, 141, 197, 304, -306, -170, 87, 203, 
    -393, -236, -368, -280, -52, -174, -200, -48, 
    -124, -229, -35, -266, -314, -98, -279, -340, 
    -53, -686, -399, 65, -270, -363, -147, -608, 
    -433, 216, 356, 3, -110, -30, -9, 54, 
    -283, -257, 125, -777, -544, -328, -197, 72, 
    -49, -473, -316, 352, -755, -519, -349, -232, 
    -42, 48, -389, -339, -182, -63, -88, 35, 
    -408, -122, 105, 4, 458, 190, -431, -216, 
    562, -306, -62, 451, -427, -330, -152, -512, 
    -233, -467, -276, -95, -12, -596, -531, -402, 
    -123, 207, 665, 162, 218, 66, -138, -469, 
    -93, -268, -56, -308, -142, 193, -142, -792, 
    -423, -312, -1012, -216, -251, -273, -486, -383, 
    -226, -160, 119, -453, -441, -75, 701, 753, 
    474, -430, -351, -250, -560, -386, -23, -235, 
    -5, 81, 32, 93, 100, -55, -41, -56, 
    188, 172, 138, 287, 112, -130, 70, 9, 
    108, 812, 496, 147, 40, 380, 322, 181, 
    196, 41, -186, -84, 130, -345, 349, 845, 
    -22, -127, -64, -25, 170, 284, 639, 161, 
    -292, -147, -166, -604, 284, 277, 149, 333, 
    515, 206, 88, 12, -104, -304, -579, -235, 
    -96, -416, -720, -94, -361, -203, 53, 230, 
    216, -13, 329, 588, 619, 307, -227, 212, 
    771, 628, 325, 281, -60, -699, -699, -263, 
    117, 83, 22, -354, -714, -414, -85, -445, 
    -225, 320, 324, 82, 289, 36, 72, -200, 
    -323, -376, 159, 347, 220, 15, 32, -18, 
    130, 826, 1393, -65, -153, -422, 582, 331, 
    -295, 97, 346, -403, -63, 37, 333, -48, 
    144, 41, 419, 1167, 1457, -295, 179, 198, 
    1749, 1290, 341, -333, -129, -70, 477, 320, 
    -309, -38, -40, 174, 276, 718, 311, -247, 
    -146, -151, 911, 1439, 484, 81, 456, 571, 
    -159, -53, 415, -207, -57, 96, -253, 206, 
    368, 490, 126, -147, 262, 182, -21, 77, 
    129, -132, -353, -120, -6, 320, 585, 363, 
    4, 107, 112, -1, 443, 502, -144, 24, 
    216, 592, 621, 98, -192, 30, 493, 1063, 
    1097, 445, -262, -416, 383, 112, 86, 56, 
    82, 26, 156, 158, 118, -17, 145, -4, 
    34, 63, 183, -226, 129, -25, 163, 129, 
    185, -1, 63, 153, 319, 315, 362, 259, 
    225, 169, 95, -21, 74, 93, -47, 54, 
    -336, -129, 127, 61, 455, 528, 269, 281, 
    163, -77, 241, 340, 136, -27, 18, 74, 
    -92, -48, 9, -179, -149, -19, -95, -193, 
    -54, -52, -95, 126, 170, 39, -64, 18, 
    185, 58, 71, 65, -6, -29, 17, -6, 
    60, 46, 6, -95, -45, -13, -88, -97, 
    58, 549, 538, 169, -233, -85, -15, 63, 
    120, 27, 1, -213, 173, 25, 38, 4, 
    509, 217, 259, 83, 201, -79, 393, 14, 
    -258, -562, -168, -61, 53, 291, 490, 123, 
    3, -8, 578, 680, 525, 467, 489, 126, 
    523, 631, 241, 154, 900, 533, -97, -203, 
    -369, 273, -224, 112, 409, 156, 98, 186, 
    -223, -162, 433, 408, 215, 38, 410, 418, 
    -205, 41, 579, -158, 117, 267, 230, -66, 
    -247, 267, 33, -302, -247, -434, -460, 446, 
    186, -220, 268, -137, -233, -106, 168, 40, 
    61, -15, 2, -278, 169, 151, -208, 224, 
    530, 298, 184, 33, -176, 32, 339, 356, 
    484, 351, -444, -467, -249, 7, 19, -23, 
    98, 289, 203, 166, 432, 496, -218, 63, 
    182, -99, -382, -30, -55, 589, 116, -79, 
    -164, -1, 24, 333, 86, -32, -288, -223, 
    299, -239, -360, -5, -31, -223, 277, -11, 
    131, -50, -386, -49, -15, 88, 136, 254, 
    -54, 100, 132, 86, -93, 672, 1151, 180, 
    69, -81, 89, 161, -31, -496, 332, -102, 
    -640, -529, 268, 138, 241, 147, 131, -63, 
    38, -102, 334, -453, -177, 1102, 824, -216, 
    -4, -40, -6, 1203, 3089, 783, -37, -163, 
    -406, -20, 56, 78, 102, 36, -60, 292, 
    -29, -309, -69, 411, -10, 34, -34, -9, 
    124, 65, -47, -244, -388, -54, -900, -648, 
    220, -194, -204, 479, -140, -224, -425, -76, 
    -126, -186, 204, -6, -298, 171, -446, -527, 
    -460, -468, 40, 290, 2, -364, -447, -489, 
    601, -282, -317, 317, 15, -114, -269, -171, 
    -21, -432, 100, -86, -235, -115, -122, -165, 
    86, 92, 99, 619, 684, 141, -639, -259, 
    -131, -414, -155, 40, 255, 274, -24, -696, 
    -530, -906, -724, -432, -804, 198, -40, -248, 
    -40, -60, -110, 28, -131, -31, 931, 1195, 
    391, 8, -175, -301, -139, -42, 61, 31, 
    -94, -178, -326, -201, -311, -4, 4, -5, 
    14, 42, 240, -596, -180, -61, -37, -260, 
    -109, -512, 79, 49, -313, -69, 84, -28, 
    -4, 71, -169, -142, 0, -166, 42, 20, 
    -118, 355, 470, 363, 987, 387, -426, 140, 
    103, 227, 340, -76, 98, 127, 265, -243, 
    -305, -373, -100, 133, 360, -186, 73, 29, 
    65, 555, 504, -278, -80, -63, -834, -742, 
    -496, -111, -363, -297, -609, -492, -212, 48, 
    38, -209, -50, 167, 172, -134, -11, -143, 
    -77, -71, 20, -277, -40, -148, 119, -27, 
    -258, 77, 171, 349, 1, 192, 154, 83, 
    442, 560, -438, -664, -362, -28, 21, 66, 
    1066, 687, -245, -41, 15, -249, -276, -1052, 
    -72, 12, 100, -356, -282, -427, -26, 189, 
    59, -127, 430, 239, -376, 174, -138, -137, 
    378, -808, -1113, 369, -608, -457, 189, -79, 
    -477, -238, -341, -428, 432, -3, -779, 147, 
    284, 181, 377, -228, -898, -1077, -353, -64, 
    308, 170, -602, 369, 272, 246, 410, 706, 
    442, 105, -444, 14, 206, 175, -38, -241, 
    173, 347, 253, 45, -249, -660, -197, -1, 
    176, 110, -29, -546, -221, -323, 126, 121, 
    105, 353, -309, -975, -923, -450, -242, 386, 
    -448, -1061, -133, -196, 154, 21, -35, -40, 
    -239, -1051, -1203, 126, 284, 303, -444, 200, 
    242, -48, -526, 34, 458, 404, 111, 84, 
    -249, -232, 480, 173, 200, 442, 8, -207, 
    -365, -124, 230, 489, 292, -32, -297, -243, 
    -53, 249, 78, -277, -601, -963, -789, 229, 
    130, 56, 65, -77, 151, -72, -72, -172, 
    738, -49, -233, -38, -423, -268, 293, -416, 
    -190, 0, 290, 103, -32, 52, 332, 863, 
    2, -658, 100, 324, 172, -288, -370, -431, 
    68, -89, -127, -256, -331, -380, -81, -273, 
    -47, -773, -952, -669, -9, -42, -106, 305, 
    36, 263, -163, -208, -501, -151, -108, -14, 
    123, -62, -58, -239, -123, 63, 187, -526, 
    -454, -268, 44, -353, 49, -37, -71, -79, 
    -56, -98, 195, -175, -41, -125, -26, 16, 
    -90, -105, 138, 267, 478, 297, 420, 500, 
    -145, 337, 822, 112, -113, -76, -66, -629, 
    -329, -210, -40, 17, -14, -54, -200, -501, 
    328, 703, 449, -179, -286, -390, -164, -498, 
    -82, 285, -901, -641, -593, -161, 180, -84, 
    -493, -278, -530, 99, 358, -94, -319, -586, 
    -91, -112, -52, 221, 22, -359, -43, -290, 
    -546, -256, -140, 53, -124, -16, -128, 68, 
    208, 71, 290, -285, -796, -54, -23, -30, 
    225, 40, 117, 420, -207, -617, 371, 751, 
    -16, 909, -13, -32, 704, 670, 35, 292, 
    -83, -163, 156, 104, 196, 887, 1037, 112, 
    -275, 284, -22, 510, 218, 104, 844, -325, 
    -239, 1026, -453, 467, 281, -138, -355, 587, 
    -238, -589, 16, -233, -133, 460, 68, -115, 
    -395, -633, 514, -246, -33, 424, 539, 477, 
    -115, 141, 694, -176, 246, -765, -1332, 1130, 
    928, 228, 724, -533, -697, -4, -475, -511, 
    173, -16, -91, 313, -346, -344, -166, 313, 
    752, 208, -140, -496, 489, -268, 121, -562, 
    -461, -164, 320, 629, -496, 43, 9, -9, 
    -458, 151, 877, 87, -7, -37, 1239, 931, 
    -176, -22, 333, -662, -48, -15, -1104, -308, 
    8, 24, -602, 58, 221, -231, -388, -373, 
    248, 394, 417, -602, -339, -497, 22, -199, 
    137, -377, 40, 914, -803, -223, 332, -167, 
    346, 206, -416, 227, 617, -268, -924, -1018, 
    177, 439, 1278, 920, 1028, 674, -306, -218, 
    152, 1044, 1004, -455, 40, -51, 18, 165, 
    363, -132, -612, -297, 115, -405, -420, -64, 
    -385, -114, -50, 225, -142, -112, 909, 835, 
    138, -784, -201, 263, -5, -510, -669, 29, 
    737, 1098, 928, 886, -560, -67, -61, 73, 
    -203, -260, -104, 172, 278, 163, -43, -406, 
    -4, -170, -511, -371, 320, 404, 203, 37, 
    26, -3, -238, -213, 147, -202, 219, 396, 
    -333, -115, 54, 416, 881, 251, -248, -158, 
    -154, 430, 230, -308, -4, 12, 3, -22, 
    -63, -60, -74, 17, 19, 39, 6, -107, 
    247, 88, -269, -341, -416, -167, -758, -945, 
    -37, -127, -515, 49, -113, -144, -26, -239, 
    -348, -169, -6, 202, 67, -225, -360, -428, 
    12, 11, -29, -98, -222, -368, -287, -472, 
    -389, -32, 74, 81, 303, 202, -126, 4, 
    80, 51, -126, -850, -1125, 46, 14, 1, 
    -122, 0, 45, -24, 73, 481, 84, -260, 
    -217, 40, -283, 310, -347, -233, -293, -29, 
    18, 31, 17, 50, 70, 409, -31, -184, 
    135, 138, 173, 120, -97, -14, 202, 44, 
    829, -627, 78, 634, -30, -9, 127, 337, 
    297, -314, -50, 110, 132, -308, -225, 120, 
    -321, 109, 347, 891, 2010, 952, -486, -200, 
    -346, 38, -180, -469, 386, 436, 389, 124, 
    -3, -456, -53, 333, -233, -323, -41, -1, 
    -76, -97, -76, -315, -187, 309, 392, 1163, 
    525, 24, 76, 97, -339, -191, 181, -15, 
    188, 218, 95, 53, -126, -3, -32, -21, 
    -186, 58, -35, 50, -98, 59, 135, -254, 
    -819, 186, -229, 443, -126, 319, -158, 45, 
    44, 7, -130, 124, -201, 124, -267, -246, 
    67, -203, -228, -7, -47, 419, 383, -586, 
    254, -455, 247, 297, 3, 89, -34, 135, 
    63, 146, 64, 18, 31, 123, 125, 155, 
    -341, 58, 219, 686, 1397, 1137, -275, -67, 
    -66, 62, 56, -764, 324, 227, 78, 203, 
    -138, 46, -18, 134, -86, 199, 224, 281, 
    -78, 58, 71, 362, 158, 262, 447, 2004, 
    1128, 183, 154, 34, -188, 1, 240, 42, 
    24, 64, 185, 387, -317, 56, 49, -17, 
    -105, -237, -201, 533, 789, 464, -214, -358, 
    -145, -174, 81, 69, 321, 208, 142, 4, 
    77, -26, -196, -224, -206, 151, 299, 337, 
    -239, -245, -340, 229, 75, -63, -503, -142, 
    -307, 37, -141, -364, -147, -102, -72, 620, 
    883, 189, -52, -111, -230, -107, -69, -15, 
    31, 40, -81, -165, -85, -395, -96, -262, 
    -218, 61, -634, -74, 721, 641, 390, -306, 
    -54, -360, 595, 461, 231, -186, -121, -90, 
    -39, -2, -106, -44, 34, 34, 42, -104, 
    -512, -174, -123, -76, 54, 46, -186, -176, 
    -229, -338, -66, -626, 35, -49, -30, -33, 
    -107, -57, -145, -347, 0, 278, 90, 58, 
    -435, 574, -174, 422, 45, 945, 558, 46, 
    -137, -119, -224, -142, -301, 101, 184, 4, 
    -49, 165, -361, 524, 385, 41, 222, 664, 
    1291, 364, 721, 1462, -158, -259, -296, 180, 
    -248, 31, -206, -381, -362, 377, 303, 136, 
    -161, 132, 388, 234, 281, -120, -441, -920, 
    -540, 392, 227, -541, -658, -495, 114, 682, 
    -208, -60, 462, 36, 78, 120, -25, -131, 
    -78, -23, 36, 292, 155, 64, 632, 760, 
    159, 25, -247, -289, 385, 575, 659, -410, 
    -438, -527, 150, 138, -526, -15, -1, -102, 
    110, -77, 69, 215, 365, 36, -52, -69, 
    59, 803, 521, 83, 298, 221, 14, 78, 
    33, -27, -60, -10, 300, -441, 386, 939, 
    -60, 164, 322, -192, 502, -39, 811, 131, 
    -473, 850, 634, -799, 111, 99, 58, 143, 
    458, 293, 100, 123, 6, -266, -642, -266, 
    809, 239, -969, -2, -464, -81, -225, 446, 
    394, -166, 66, 257, 333, 415, 189, -198, 
    787, 380, 13, 970, 59, -499, -271, -109, 
    12, 99, 55, -262, -871, -287, 186, -820, 
    -155, 56, 152, 79, 242, 80, 106, 155, 
    166, -113, 421, 318, 434, -46, 57, 1, 
    715, 708, 125, -82, 44, -57, 188, -299, 
    -294, 50, -20, -281, -50, 88, 101, 102, 
    9, -82, 1123, 988, -58, 51, -177, -392, 
    600, -219, -589, -163, -344, -409, -178, -64, 
    -399, -190, -184, -42, 450, 169, -100, -163, 
    8, 48, 744, 175, -251, 187, 72, -37, 
    19, 138, 112, 206, 218, 124, -131, 22, 
    -64, 185, 87, 62, -177, -48, -90, -13, 
    -200, -50, -187, -254, -154, 192, 23, -149, 
    104, 61, -13, 205, 171, -72, 55, 204, 
    129, 468, 73, -161, -76, -30, -99, 739, 
    118, -237, -233, 36, 22, 67, 9, -23, 
    -370, -115, 263, 301, 8, 32, 799, 327, 
    221, -417, -572, -267, 484, -110, -640, -247, 
    51, -20, -742, -560, -10, -615, -183, 73, 
    -225, -233, -251, -435, -518, -423, 368, 125, 
    114, 487, 148, 90, -254, 244, 578, -570, 
    -61, -111, -305, 39, 89, 261, -478, -15, 
    -4, -332, 3, -162, -233, -154, -1179, -524, 
    92, 599, 548, 409, -68, 252, 105, -767, 
    271, -173, -281, 303, 113, 197, -199, 107, 
    -183, 14, 21, 249, -438, 237, -218, -544, 
    -371, -108, 496, 693, 247, -395, 33, -232, 
    -33, -80, 675, -126, -453, 2, 32, 98, 
    160, 85, 30, -113, -273, -156, -160, 235, 
    188, 535, -93, 25, -361, -7, -142, 35, 
    -32, 65, -195, -165, -183, -116, -304, 38, 
    92, -58, -45, -307, -458, -247, 222, -177, 
    -94, -91, -313, -270, -69, -57, -106, 19, 
    -113, 212, -80, -215, -239, -320, -156, -47, 
    -53, -168, -296, -52, -102, 87, 70, 229, 
    368, -147, 339, 89, -60, -66, -48, 284, 
    -56, 378, -86, -58, 260, -395, -126, 71, 
    -1, 8, 84, -203, -163, -89, -101, 25, 
    166, -63, -129, -119, -171, -95, -22, -121, 
    -388, -361, -270, 465, 164, -15, 2, -9, 
    90, 96, 252, -107, 64, 78, 93, 150, 
    41, 363, -80, 115, -244, 633, 172, -71, 
    -21, 89, -79, -210, 74, -60, -173, -71, 
    85, 4, -90, 74, 166, 125, 388, 8, 
    214, 174, 21, 84, 79, 132, 283, 118, 
    -101, -72, -146, -16, 67, 560, 630, 412, 
    -39, -203, -276, 17, 15, -178, 314, 252, 
    -37, -306, 314, 18, 58, 53, 9, 148, 
    403, 141, 177, -317, -140, 729, 632, 264, 
    14, 77, 47, 801, 866, 660, 243, 174, 
    25, 11, 231, 238, 237, 134, 245, -86, 
    -61, -188, 118, 617, 104, -7, 28, 22, 
    361, 271, 145, 118, 24, -29, 12, -31, 
    -116, -97, 215, 139, 163, 221, 210, 234, 
    7, -242, -110, 3, -181, -72, 11, 1, 
    -6, -2, 71, 113, 103, 158, 107, 155, 
    127, 46, -68, 59, 157, 192, 159, 205, 
    13, -54, -121, -148, -281, -285, -378, -234, 
    -138, -59, 277, 251, 238, 226, 199, 508, 
    400, 306, 204, 76, 355, 309, 333, 331, 
    262, -50, 107, 225, 280, 317, 72, 122, 
    124, 223, 242, -130, -166, -39, 58, 167, 
    -130, -126, -112, -109, -42, -40, 63, 142, 
    152, 178, 78, 3, -116, -106, -144, -155, 
    -137, -106, -51, 115, 320, 395, 297, 201, 
    250, 124, -9, -62, -41, -74, -103, -106, 
    -133, -178, -194, -119, -105, 53, 92, 133, 
    73, 146, 231, 267, 244, -229, -363, -342, 
    -278, -407, 247, 277, 293, 254, 263, 221, 
    179, 182, 232, 194, -121, -42, 91, 84, 
    81, 453, 259, 120, 125, -4, -49, 30, 
    -64, -193, -9, 127, 236, 227, 276, 291, 
    66, 129, 128, 103, 52, 143, 117, 262, 
    321, 398, -88, 51, 96, 83, 146, 87, 
    21, -95, -102, 119, -86, 55, 177, 199, 
    226, -351, -239, -257, -187, -159, -158, -63, 
    -9, 91, 146, -345, -271, -96, 38, 110, 
    151, 180, 256, 222, 177, 58, -47, -70, 
    -52, -60, 38, -9, -64, -15, 55, 148, 
    193, 142, 222, 197, 188, 217, 214, 257, 
    266, 135, 232, 246, 174, 152, -296, -336, 
    -363, -381, -224, -249, -241, -157, -16, 31, 
    288, 301, 308, 248, 187, -404, -315, -83, 
    144, 266, 15, 137, 224, 278, 259, 216, 
    190, 181, 137, 68, -72, 101, 110, 70, 
    72, -202, -250, -295, -270, -299, 119, 239, 
    252, 197, 153, -278, -232, -109, -35, 6, 
    -172, -124, -67, 2, 72, -280, -209, -137, 
    -70, 22, 181, 181, 200, 187, 151, 160, 
    106, 121, 120, 172, -85, -34, -12, 24, 
    51, -83, -43, -67, -56, -162, -353, -65, 
    58, 86, 54, -123, -120, -189, -179, -58, 
    -192, -167, -293, -301, -205, -169, -205, -338, 
    -200, -87, 142, 323, 363, 455, 344, -354, 
    -393, -242, 133, 164, -102, -27, 33, 57, 
    64, -10, -17, -135, -58, 32, -89, -132, 
    -146, -141, -92, 75, 72, -84, -93, -79, 
    -149, -195, -165, -66, 31, 17, 68, 137, 
    174, 201, 88, 70, 85, 107, 77, -375, 
    -416, -343, -306, -292, -15, -37, -38, -43, 
    -52, 70, 91, 47, 17, -41, -132, -178, 
    -116, -114, -138, -189, -69, 69, 168, 243, 
    127, 110, 74, 14, -41, 232, 251, 92, 
    76, 37, -101, -33, 70, 173, 161, 28, 
    56, 74, 125, 140, 110, 80, -20, 30, 
    22, -243, -247, -231, -227, -228, 178, 204, 
    200, 186, 163, -77, 19, 71, 109, 103, 
    -28, 47, 112, 121, 90, 28, 66, 81, 
    79, 86, -145, -8, 170, 258, 319, -75, 
    -21, -11, -10, -5, -226, -217, -275, -256, 
    -209, -324, -294, -201, -176, 12, 76, -49, 
    -202, -40, 56, -119, -105, -16, -69, -84, 
    -194, -159, -97, -287, -230, 91, 117, 72, 
    23, 74, 217, 178, 68, -43, -75, 58, 
    71, 46, 134, 76, -59, -109, -133, -119, 
    -89, 235, 259, 191, 117, 38, -61, -48, 
    -46, -94, -101, -5, -66, -74, -120, -91, 
    278, 418, 560, 558, 359, 21, 42, 134, 
    187, 266, 126, 19, -11, -91, -140, -393, 
    -270, -89, -102, -80, -213, -207, -179, -251, 
    -235, -173, -286, -331, -357, -256, -259, -460, 
    -558, -362, -347, 36, 77, 80, 61, 73, 
    -499, -513, -465, -342, -223, 69, 84, 8, 
    -1, 63, 383, 318, 274, 223, 107, 55, 
    -61, -134, -251, -320, 322, 144, -47, -278, 
    -253, -39, 14, 143, 134, 183, -76, -115, 
    -87, -133, -204, -96, -55, -39, 19, 63, 
    -149, -220, -161, -45, 92, -27, -63, -115, 
    -164, -221, -53, -287, -464, -484, -417, -55, 
    -120, -157, -315, -342, -233, -259, -219, -133, 
    -19, 52, 51, 143, 79, 63, 186, 170, 
    82, 94, 153, -101, -326, -473, -304, -252, 
    119, 120, 13, 32, 37, -181, -272, -370, 
    -259, -75, -73, -16, 120, 206, 76, 317, 
    315, 310, 184, -320, -249, -201, -82, 20, 
    174, -532, -446, -255, 34, 394, 152, 176, 
    29, -87, -231, -217, -189, -207, -280, -204, 
    104, -55, -185, -134, -24, -74, -279, -420, 
    -251, -122, -34, 173, 292, 406, 284, 119, 
    56, 46, 77, 135, 39, 115, 237, 311, 
    280, -304, -154, -10, 71, 191, -433, -360, 
    -244, -368, -405, -188, -327, -442, -237, -67, 
    113, 96, 134, 99, 62, -339, -253, -245, 
    -231, -221, 132, 177, 147, 167, 158, 39, 
    -13, -61, -57, -87, -468, -345, -160, 45, 
    337, -61, -199, -417, -440, -219, 27, 242, 
    356, 364, 247, -20, -206, -396, -269, -100, 
    129, 5, -100, -197, -139, 193, 246, 227, 
    227, 87, 2, 141, 196, 148, 57, -35, 
    235, 338, 409, 320, 36, 21, 94, 63, 
    148, -88, -69, -55, 79, 223, -103, -102, 
    -166, -197, -111, -550, -387, -146, -156, -63, 
    147, 306, 476, 525, 632, 68, 213, 398, 
    494, 444, 363, 388, 131, -278, -412, -332, 
    -193, 211, 277, 281, 276, 362, 182, 137, 
    66, 359, 177, -124, -582, -507, -461, -293, 
    -45, 263, 452, -37, 24, 68, 184, 264, 
    116, 254, 319, 467, 546, 30, 28, -104, 
    -173, -562, 128, -108, -42, -98, 103, 14, 
    10, 69, 28, -42, 116, 170, 217, 159, 
    156, 327, 209, -81, -112, -142, -31, -28, 
    -136, -256, -336, -77, -4, -127, -205, -518, 
    -46, -92, -39, -62, -116, -12, 67, 96, 
    139, 188, 184, 307, 449, 421, 338, 222, 
    355, 496, 554, 382, 446, 419, 187, -351, 
    -224, 294, 146, 130, -67, -456, -96, -52, 
    32, 42, 105, 7, 87, -29, -17, -176, 
    -204, -199, -293, -197, -254, -188, -60, 95, 
    209, 297, 378, 334, 251, 144, -139, 324, 
    53, 169, 292, 589, 223, 185, 80, 66, 
    39, 261, 293, 349, 256, 308, -101, -255, 
    -22, 59, 16, 179, 121, -124, -242, -249, 
    -56, 36, 141, 142, 152, 209, 149, 200, 
    230, 190, 92, -43, -157, -223, -218, 241, 
    403, 327, 125, -245, 27, 30, 4, 46, 
    125, 208, 154, 105, 73, 35, -58, -36, 
    8, 31, 91, 185, 144, 147, 91, 73, 
    213, 198, 114, 79, -12, 212, 189, 132, 
    119, 84, 102, 78, 125, 154, 183, -313, 
    -343, -159, -100, 62, -90, -136, -148, -239, 
    -80, -228, -266, -184, -140, -47, -8, 36, 
    21, -57, -46, 191, 115, 29, -9, -49, 
    35, -16, -86, -96, -81, 153, 70, 79, 
    60, 54, -89, -121, -211, -251, -297, 138, 
    48, -119, -202, -247, 208, 104, -9, 24, 
    -6, -16, 68, 172, 249, 226, -92, -65, 
    -62, -113, -194, 69, 38, -12, 27, 30, 
    -160, -127, -53, 41, 84, -184, -127, -78, 
    -60, -146, 29, 0, -82, -59, -112, 67, 
    79, 114, 128, 72, -230, -238, -220, -185, 
    -104, -43, 71, 221, 276, 286, 334, 242, 
    191, 196, 200, -70, 0, 48, 55, 85, 
    -356, -268, -23, 58, 140, -75, -23, -79, 
    -197, -354, 74, 46, -122, -176, -197, -61, 
    21, -1, 126, 297, 70, -63, -156, -163, 
    -170, -42, -56, -109, -109, -49, -141, -61, 
    41, 51, 101, 53, 4, -135, -263, -307, 
    -12, 24, 148, 184, 65, -39, 63, 122, 
    154, 193, -436, -375, -348, -424, -295, -113, 
    -103, -167, -290, -248, -135, -141, -117, -221, 
    -133, -59, -177, -304, -376, -364, -69, -173, 
    -257, -156, -87, 69, 147, 117, 97, 74, 
    -8, 30, 129, 166, 135, -218, -89, -142, 
    -241, -229, 203, 131, 15, -80, -230, -47, 
    -76, -26, 52, 61, -246, -300, -433, -327, 
    -369, -371, -391, -290, -212, -213, 72, 17, 
    76, 20, -6, -309, -255, -435, -453, -342, 
    -516, -514, -613, -677, -557, -140, -133, -99, 
    -101, -75, -201, -240, -379, -460, -467, -290, 
    -336, -197, -194, -86, 73, 13, -81, -103, 
    -92, -71, -125, 126, 164, 254, -471, -274, 
    -175, -86, 12, -225, -290, -361, -200, -123, 
    -11, -282, -98, 158, 238, 143, -106, -269, 
    -380, -367, 113, -52, 67, 402, 366, 274, 
    277, 255, 232, -54, -235, -221, -64, -25, 
    38, -173, -104, 30, 40, -3, -50, -180, 
    -198, -216, -135, -55, -32, -55, -118, -133, 
    249, 118, 46, 53, 52, 96, -140, -182, 
    -138, 13, 277, 254, 185, 123, 101, 133, 
    7, 44, -6, 49, 165, -16, -11, -13, 
    42, 91, 175, 224, 243, 241, 357, 551, 
    521, 344, 222, 44, -98, -208, -127, 34, 
    -163, -157, -81, -3, 168, 163, 115, 99, 
    83, -95, -19, -17, -10, 13, 146, -152, 
    -113, 46, 139, 244, 62, 127, 170, 118, 
    44, -100, -13, 178, 193, 201, -197, -127, 
    2, 105, 190, -5, -139, -99, -53, 60, 
    41, 11, -3, -27, 68, 16, -133, -111, 
    -84, -4, 168, 179, 162, 185, 181, 329, 
    108, -62, 4, 50, -153, -81, 84, 28, 
    48, -152, -126, 102, 401, 513, 55, 118, 
    155, -67, -153, 432, 687, 595, 438, 285, 
    191, 219, 82, -68, -280, 19, 68, 13, 
    -80, -226, -10, -164, -179, -211, -256, -203, 
    -68, 112, 206, 231, -27, -106, -173, -303, 
    -477, 10, 20, 64, 7, -25, -120, -24, 
    83, 89, 62, -42, -38, 9, 84, 76, 
    -102, 21, 96, 83, 65, -279, -191, -159, 
    -113, -97, -68, -67, 23, 126, 245, -111, 
    -76, -90, -166, -271, -43, -81, -138, -202, 
    -247, -69, -191, -277, -472, -412, -6, -27, 
    -16, 16, 56, -309, -280, -264, -246, -209, 
    104, -10, -157, -292, -357, -147, -120, -26, 
    53, 82, 82, 14, -33, -131, -215, 164, 
    78, -108, -231, -331, 24, -78, -136, -212, 
    -158, -159, -130, -194, -208, -173, 161, 80, 
    7, -52, -62, -243, -198, -176, -173, -190, 
    -199, -197, -294, -339, -371, -114, -85, -40, 
    -71, -85, 117, -21, -131, -140, -73, 72, 
    -6, -34, -14, 32, -98, -109, -86, -14, 
    -19, 293, 248, 170, 105, 80, -103, -46, 
    112, 278, 309, 69, -38, -111, -64, 31, 
    -118, -239, -305, -299, -147, -194, -40, -36, 
    74, 123, 285, 339, 421, 415, 382, -74, 
    -51, 165, 257, 192, -50, -29, 1, 2, 
    24, 104, -80, -245, -367, -318, 95, 157, 
    128, 27, 17, -132, -30, -61, -48, -31, 
    64, 74, 140, 269, 257, 296, 509, 617, 
    651, 586, 0, 49, 114, 26, -41, -93, 
    -86, -64, -66, -30, 199, 134, 70, -17, 
    -88, -26, -35, -40, -78, -43, -224, -245, 
    -149, -29, -60, 139, 293, 382, 441, 428, 
    6, 88, 137, 160, 179, -53, 37, -3, 
    12, 3, -45, 38, 134, 242, 244, 24, 
    108, 150, 200, 262, 121, -6, 5, -145, 
    2, 3, 53, 46, 37, 75, -102, -13, 
    67, 110, 65, 130, 248, 246, 186, 73, 
    55, 108, 106, 0, -92, -87, -23, 4, 
    -45, -125, 151, 257, 314, 351, 290, 143, 
    119, 95, -35, -59, -295, -196, -190, -177, 
    -197, -44, -87, -117, -57, 107, -217, -139, 
    -167, -187, -102, -239, -258, -206, -136, -22, 
    1, 111, 80, 119, 135, -353, -323, -266, 
    -64, -37, 13, 66, 95, -39, -48, 240, 
    50, -93, -4, 82, 3, 33, 5, -64, 
    -146, 95, 208, 213, 225, 266, 54, 74, 
    85, 144, 149, -165, -49, 92, 338, 424, 
    -44, -127, -51, -43, -84, -120, -112, -94, 
    -136, -180, -111, -44, -26, 60, 103, 303, 
    410, 447, 374, 384, -18, 35, 104, 178, 
    243, -83, -92, -46, -87, -86, 95, 36, 
    9, -76, -80, 10, -2, -11, -67, -88, 
    18, -14, -31, -139, -169, -426, -226, -49, 
    175, 278, 114, 141, 207, 179, 165, -254, 
    -204, -155, -175, -113, -115, -117, -59, -21, 
    70, 370, 317, 204, 172, 157, -201, -198, 
    -174, -119, -115, -32, -136, -162, -161, -169, 
    -44, -122, -135, -44, -51, 251, 168, 117, 
    165, 122, -206, -121, -21, 59, 19, -149, 
    -73, -19, 51, 71, 181, 243, 322, 376, 
    382, 367, 335, 276, 205, 197, 12, -4, 
    -53, 8, 106, 4, 50, 42, -121, -161, 
    -146, -95, -145, -190, -252, -144, -126, -203, 
    -53, -103, -119, -60, 72, 171, 290, 24, 
    -155, -77, -57, 101, 208, 238, 191, 147, 
    42, -39, 59, 115, 124, 67, 3, 68, 
    52, 27, -54, -64, 37, 79, 149, 149, 
    39, -13, 6, 15, 105, -144, -59, 12, 
    108, 185, 66, 73, 72, 31, -26, 149, 
    133, 105, 59, 2, 281, 203, 104, 20, 
    -83, 143, 99, 76, 35, -21, 192, 108, 
    18, -78, -106, 9, 125, 243, 335, 377, 
    23, -24, -34, -79, -101, -48, 49, 120, 
    170, 144, 111, 66, -42, -82, 12, -132, 
    -126, -102, -19, 149, 171, 219, 118, -13, 
    -69, 14, 23, -30, -10, 16, 8, -80, 
    -135, -196, -174, 103, 175, 279, 415, 315, 
    187, 303, 409, 493, 340, 213, 129, 68, 
    80, 154, 116, 129, 90, 84, 126, -73, 
    -114, -95, -93, -133, 13, 63, 118, 142, 
    105, -159, -60, -116, -198, -230, -74, 19, 
    -29, 62, 25, 147, 72, -31, -144, -156, 
    -468, -955, -683, -354, -23, -210, -226, 2, 
    -145, 6, 41, -299, 108, 117, 116, 102, 
    202, 51, 61, -80, -8, -91, -384, -275, 
    -52, -383, -244, 3, 173, 58, 83, -104, 
    -296, -570, -503, 244, 26, -211, -448, -855, 
    -63, 235, 355, 191, 131, -280, -157, 16, 
    112, 205, 259, 328, 462, 241, 70, 67, 
    326, 130, 187, 186, 280, 391, 417, 450, 
    376, -412, -366, -286, -94, 65, -201, -60, 
    -209, -120, 1, 98, 136, 133, 134, 159, 
    -571, -455, -319, -155, 68, 269, 71, 35, 
    -252, -769, -100, -44, 37, 11, 299, -650, 
    -539, -303, -169, -18, -428, -497, -195, -225, 
    39, -542, -560, -495, -421, -331, -707, -529, 
    -297, -100, 0, 141, 46, 30, 6, 108, 
    391, 254, 160, 198, 114, -124, -397, -487, 
    -755, -791, 130, 308, 416, 615, 868, 34, 
    -301, -26, -9, 22, 170, 129, 7, 46, 
    -295, -226, -161, -127, -54, -114, -173, 50, 
    256, 44, 60, -135, -226, -249, -149, -37, 
    -92, 55, 278, 145, 69, 215, 392, 599, 
    609, 592, 179, 146, -5, -215, -139, -276, 
    8, 107, -41, 24, 174, 129, -24, -112, 
    -66, 204, 131, 41, 45, -66, -74, -63, 
    18, 16, 56, 282, 243, 203, 116, -33, 
    -275, -173, -34, 169, 384, 15, 69, 11, 
    12, -32, 77, 51, 75, -50, -80, -86, 
    -18, 4, -36, -81, -162, -91, -54, -210, 
    -144, -38, -221, -402, -414, -352, -419, -367, 
    -278, -147, -85, 103, 66, -21, -2, -10, 
    80, -102, -193, -296, -308, 188, 201, 187, 
    130, 63, -138, -59, 55, 197, 241, 120, 
    -12, -118, -265, -306, 192, -146, -305, -258, 
    -334, -164, -173, -166, -8, -9, 7, -73, 
    -104, -183, -202, -50, -191, -315, -264, -230, 
    -91, -47, -80, -68, -277, -191, -118, -82, 
    -27, 24, 69, -96, -189, -21, -18, -8, 
    7, 58, -165, -196, 38, 31, -63, -16, 
    -52, 3, -89, -112, -215, -111, 261, 243, 
    330, 501, 469, 47, 42, -107, -95, -48, 
    -251, -175, -148, -127, 5, 56, 218, 327, 
    310, 262, -67, -106, -19, 40, 0, -75, 
    138, 149, 105, 156, -13, 20, 102, 174, 
    189, -22, 5, -40, -76, -7, -61, -114, 
    -89, -63, 1, -427, -569, -481, -308, -117, 
    -48, 66, 118, 114, 67, -3, 76, 90, 
    82, 59, -63, -87, -115, -114, -131, -25, 
    50, 158, 263, 368, 122, 104, 84, 31, 
    -56, 51, 113, 191, 225, 212, -201, -140, 
    -70, 36, 199, -96, -84, -71, -17, -7, 
    62, 59, 97, 136, 133, -195, -297, -253, 
    -207, -98, 25, 20, -58, -201, -244, -254, 
    -263, -158, -62, 70, 88, 41, -97, -90, 
    -68, -19, 122, 169, 352, 480, -126, -198, 
    -239, -289, -327, 120, 213, 223, 269, 278, 
    -113, 10, 19, 141, 250, -90, -98, -11, 
    -94, -108, -57, -60, -146, -79, -23, -306, 
    -382, -284, -237, -240, -137, -81, 6, 142, 
    274, -213, -84, 57, 206, 231, -31, 80, 
    115, 145, 146, -378, -391, -314, -61, 166, 
    -86, 8, 67, -92, -220, 74, 19, 31, 
    32, -72, -185, -139, -120, -123, -42, 362, 
    228, 114, -46, -97, -303, -268, -81, -130, 
    -71, 42, 317, 441, 445, 339, -269, -303, 
    -357, -399, -406, -214, -192, -49, 126, 239, 
    258, 184, 65, 79, 90, 51, -4, -37, 
    -60, -30, 187, 215, 154, 141, 18, -454, 
    -239, 19, 8, 38, -158, -131, -8, -64, 
    -42, -503, -328, -51, -21, 15, 104, 143, 
    168, 123, 94, 45, -98, -175, -221, -206, 
    -193, -380, -400, -357, -204, -191, -105, -12, 
    127, 201, -191, -238, -231, -120, 39, 119, 
    -143, -235, -389, -220, 69, 138, 185, 228, 
    149, 139, 198, 357, 419, 364, -100, -111, 
    -157, -311, -304, 268, 156, 92, -23, -52, 
    163, 136, 166, 165, 204, -165, -252, -269, 
    -246, -347, 263, 176, 130, 87, 44, 64, 
    134, 102, -34, -240, -598, -469, -258, -98, 
    119, 163, 248, 219, 60, -58, 353, 373, 
    121, 97, 70, 95, 140, 179, 146, 98, 
    -219, -167, -188, -191, -119, 200, 129, -17, 
    -120, -193, 30, 11, 1, -74, -138, 22, 
    68, 152, 108, 0, 344, 283, 240, 192, 
    131, -38, -39, -48, -26, -43, 176, 147, 
    104, 17, 86, -3, -102, -87, -27, 92, 
    -187, -125, -12, 62, 72, 120, 125, 87, 
    120, 154, 55, 62, 50, -1, -5, 33, 
    35, 39, 69, 107, 139, 125, 101, 64, 
    52, 154, 130, 153, 130, 101, -136, -44, 
    64, 56, -16, 343, 345, 312, 279, 228, 
    198, 124, 80, 43, 7, 153, 26, -54, 
    -38, -12, 30, -47, -79, -109, -214, -187, 
    -213, -151, -20, 124, -217, -266, -354, -454, 
    -415, 3, 106, 187, 324, 422, 72, -29, 
    -101, -141, -125, 521, 543, 494, 349, 171, 
    316, 380, 436, 413, 310, 250, 306, 346, 
    369, 373, -41, -69, -98, -127, -185, -90, 
    27, 26, -265, -279, 213, 184, 184, 180, 
    148, -382, -164, -39, 6, 60, 132, 96, 
    -47, -161, -178, -275, -188, -98, -75, -140, 
    449, 55, -65, -4, 161, -369, -195, -36, 
    36, 21, -749, -570, -507, -219, 54, -594, 
    -500, -161, -87, 221, 329, 229, -33, -179, 
    -174, 151, 326, 349, 467, 494, -87, -134, 
    -188, -248, -253, 408, 476, 445, 282, 157, 
    350, 223, 41, -114, -147, -61, -160, -452, 
    -479, -472, -30, -36, -34, -145, -105, 205, 
    -66, -183, -318, -319, 324, 150, 34, -62, 
    -99, 63, 106, 47, 31, 49, 89, -16, 
    7, -97, -244, -193, -363, -528, -425, -411, 
    349, 165, 48, -45, -26, 62, 223, 218, 
    111, 32, -96, -217, -278, -274, -375, 655, 
    463, 394, 237, 99, -26, 154, 53, 177, 
    191, -26, -399, -559, -505, -472, 376, 332, 
    272, 56, -45, -9, -163, -207, -34, -68, 
    46, 31, -89, 29, -78, -286, -294, -302, 
    -280, -219, -61, -65, -220, -180, -206, 384, 
    202, 127, 54, 124, 105, 201, 185, 27, 
    -23, 176, -148, -210, -38, 264, -592, -266, 
    -4, -53, -196, -51, -17, -46, 31, -45, 
    -85, -314, -269, -41, 142, 33, -1, -119, 
    -183, -78, 407, 220, 178, 148, 49, 208, 
    297, 465, 420, 231, 233, 200, 73, -111, 
    -235, 22, 109, 227, 206, 290, 385, 314, 
    215, 108, 15, -56, -36, 30, -63, -22, 
    82, 116, 199, 271, 202, -176, -357, -462, 
    -399, -348, 32, -47, 98, 141, 156, 251, 
    72, -46, -150, -172, 138, -19, -77, -219, 
    -291, 87, 82, -21, -165, -174, -24, 52, 
    61, 40, -119, -383, -377, -309, -92, -93, 
    80, 64, -2, -90, -160, 145, 168, 135, 
    -8, 6, 229, 309, 269, 175, 47, -249, 
    -118, -96, 130, 299, 131, 159, 158, 81, 
    180, -94, -149, -11, 103, 160, -332, -300, 
    -217, -194, -182, -106, -152, 0, 83, -81, 
    -188, -94, 11, 76, -30, 287, 247, 211, 
    146, 16, -391, -294, -138, 12, 27, -18, 
    -93, -40, -68, -85, 201, 220, 285, 182, 
    95, -62, -180, -19, 198, 329, 176, 370, 
    351, 196, 277, -171, -95, -169, -128, -121, 
    -25, -4, 42, 12, 65, -70, -74, 34, 
    73, 58, -153, -176, -133, -67, 18, -280, 
    -310, -100, -119, -117, 21, 159, 184, 196, 
    204, -101, -72, -107, -129, -91, -227, -230, 
    -210, -220, -190, -252, -301, -198, -84, -36, 
    -142, -181, -107, -116, -99, -126, -64, -30, 
    12, 27, -20, -106, -105, -143, -76, 95, 
    156, 148, 180, 257, 100, 93, 87, 98, 
    133, 268, 277, 210, 203, 210, 83, 107, 
    89, 97, 66, -227, -129, -30, 54, 82, 
    213, 231, 253, 269, 209, -174, -235, -158, 
    -87, -116, 76, 115, 129, 128, 90, 14, 
    50, 92, 67, 11, 68, 70, 33, -118, 
    -110, -44, 16, -10, -5, -14, 267, 281, 
    287, 251, 179, -119, -27, 15, 119, 122, 
    -67, 43, 76, 137, 123, -54, -46, -5, 
    11, 20, 59, 68, 61, 51, -1, -94, 
    -159, -112, -161, -112, -128, -59, -7, 78, 
    102, -82, -117, -130, -68, 58, 14, 79, 
    126, 58, -34, -19, 1, -20, -11, 13, 
    -46, -197, -164, -2, 41, 238, 120, 206, 
    235, 370, -58, 101, 227, 117, -8, 101, 
    142, 20, -172, -479, 262, 258, 167, 74, 
    85, -92, -134, -153, -103, 3, 540, 342, 
    205, 86, 28, 194, 92, 87, -71, -134, 
    -272, -162, -194, -204, -253, -197, -178, -240, 
    -270, -343, 347, 382, 441, 433, 335, -356, 
    -420, -361, -270, -159, 62, 67, 128, 133, 
    98, 18, -56, 0, 28, 113, -98, -131, 
    -184, -179, -102, -263, -136, -55, -48, -139, 
    69, 94, 121, 135, 97, 383, 328, 376, 
    172, 142, -258, -229, -170, -94, -55, -284, 
    -240, -116, 46, 8, -334, -205, -142, 20, 
    105, -2, 113, -37, -37, -135, -16, -12, 
    35, 53, 73, -1, 125, 94, 39, 73, 
    200, 231, 139, 86, 57, 366, 392, 375, 
    258, 200, -367, -70, -102, 12, 17, 128, 
    83, 58, 79, 168, -183, -249, -217, -417, 
    -444, -105, -116, -149, -24, -135, 595, 452, 
    226, 144, 158, -92, -43, -196, -153, -31, 
    -113, -45, -26, -98, -65, -61, -103, -52, 
    -17, 129, 372, 357, 398, 338, 233, -150, 
    -221, -71, -7, -93, -77, -5, 66, 97, 
    56, 154, -10, -94, -146, -57, 75, 65, 
    48, 36, 34, 30, -151, -195, -227, -126, 
    104, 94, 97, 78, 139, -22, 26, 48, 
    57, 76, -64, -103, -80, -66, -102, 109, 
    5, -4, -8, -30, -15, -61, -75, -117, 
    -188, 217, 168, 82, 4, -95, -88, -73, 
    -135, -97, -145, -181, -138, -52, 61, 127, 
    182, 164, 160, 116, 36, 283, 135, 61, 
    -22, 12, 273, 442, 512, 579, 569, 269, 
    245, 210, 124, 83, 178, 115, 20, -16, 
    -9, -415, -360, -295, -327, -266, 160, 342, 
    434, 393, 236, -169, -128, -99, -58, -20, 
    -64, -49, -7, 29, 34, 133, 224, 232, 
    249, 204, 61, 169, 202, 215, 207, -13, 
    -1, -26, -72, -184, 36, -42, 9, 10, 
    24, -402, -255, -134, -183, -168, 104, -110, 
    -124, -132, 91, -37, -12, -109, -85, -116, 
    115, -3, -96, 61, 20, 30, 2, -143, 
    -195, -228, 119, 163, 207, 481, 367, -14, 
    104, 112, 294, 81, -549, -402, -99, 34, 
    215, 50, 69, 298, 313, 364, 289, 130, 
    -152, -393, -471, 146, 60, -83, -214, -255, 
    -10, -137, -299, -466, -567, -562, -449, -243, 
    -73, 108, 682, 521, 252, 73, -305, 27, 
    -185, -192, -254, -255, 386, 295, 239, 75, 
    -164, -192, 55, 287, 302, 343, -212, -219, 
    24, -115, -89, -630, -594, -430, -126, 171, 
    -276, -187, -134, -41, 51, 392, 272, 127, 
    -37, -241, -33, 36, 189, 245, 177, -176, 
    -34, -76, 58, 190, 212, 448, 801, 919, 
    573, 209, 139, 60, 68, 171, 25, 113, 
    107, 58, -56, -186, -49, 176, 228, 365, 
    -34, 10, 64, 188, 403, 93, 85, 42, 
    27, -52, 300, 279, 363, 352, 436, 500, 
    291, 61, -30, -348, -34, -104, -211, -285, 
    -111, 253, 148, -76, -104, -56, 433, 283, 
    78, -105, -186, -46, -30, 105, 28, 99, 
    42, 4, -4, -75, -165, 170, 120, 12, 
    -87, -188, -149, -226, -196, -145, -212, 64, 
    87, 183, 228, 146, 14, -16, -22, -71, 
    -64, -189, -139, -19, 7, 71, -84, -61, 
    -4, 24, 59, -242, -226, -217, -239, -157, 
    191, 263, 273, 229, 165, 47, -101, -199, 
    -234, -231, -166, -148, -74, -26, 28, -17, 
    -8, 70, 62, 2, -63, -53, -41, -47, 
    -60, 97, 38, 18, 23, 14, 143, 156, 
    124, 104, 49, 39, -54, -152, -210, -260, 
    13, -61, -192, -306, -373, -219, -170, -142, 
    -174, -132, 253, 155, 120, 102, 69, 51, 
    -28, -119, -127, -176, -256, -297, -279, -195, 
    -115, -91, -46, 23, 9, 58, 130, 112, 
    100, 66, 41, -57, -40, -70, -228, -267, 
    -157, -120, -134, -229, -223, -1, 6, 50, 
    67, 84, 88, 52, 12, -8, -27, -2, 
    -122, -135, -110, -119, -120, -16, 10, 24, 
    99, 76, 118, 144, 150, 185, 34, -13, 
    26, -8, 93, 52, 19, -64, -93, -102, 
    -8, 9, 64, 86, 191, -240, -177, -28, 
    109, 239, 59, -77, -221, -366, -334, 72, 
    123, 223, 242, 32, 165, 52, -45, -122, 
    -160, 190, 11, -130, -302, -184, -140, -394, 
    -291, -301, -168, 300, 246, 281, 249, 228, 
    -113, -198, -273, -81, 107, 397, 354, 182, 
    83, -48, -165, -103, 71, -25, -55, -229, 
    -405, -466, -518, -525, -277, -199, -151, -131, 
    -240, 45, -61, -174, -200, -252, 178, 209, 
    179, 175, 50, 428, 288, 112, 6, -78, 
    64, 116, 145, 191, 154, 293, 163, 103, 
    -44, -71, -247, -248, -155, 114, 268, -54, 
    169, 326, 345, 280, -30, -143, -157, -161, 
    25, 374, 305, 143, -51, -287, -320, -117, 
    96, 350, 478, 207, 188, 5, -148, -289, 
    116, 12, -80, -171, -343, -366, -496, -462, 
    -408, -256, 50, 136, 134, 218, 172, -45, 
    -61, 229, 172, 160, 114, -61, -122, -224, 
    -306, -197, -201, -213, -65, 115, -161, -398, 
    -305, -241, -31, 76, 124, 67, 94, -8, 
    275, 407, 492, 366, 99, 380, 356, 355, 
    326, 296, 41, 179, 368, 300, 140, 251, 
    87, -273, -468, -534, -9, 77, -51, -74, 
    -79, -245, -371, -471, -602, -545, 65, 191, 
    284, 404, 465, 127, 88, -30, -4, -104, 
    -166, -69, 12, -38, -29, -117, -96, -70, 
    9, 15, 149, 201, 313, 355, 379, 1, 
    101, 90, 160, 185, -317, -135, -72, 10, 
    131, -222, -271, -256, -160, -157, 92, 65, 
    27, 97, 238, -109, 17, 196, 308, 401, 
    113, 27, -99, -193, -229, -41, 38, 70, 
    135, 119, -161, -138, -43, -2, 51, 91, 
    135, 37, -14, -122, 98, -70, -139, -100, 
    -180, 258, 196, 70, -69, -254, -345, -296, 
    -309, -346, -375, -150, 27, 220, 260, 247, 
    370, 393, 394, 328, 225, -158, -94, -73, 
    -17, 37, 337, 282, 340, 360, 279, 316, 
    370, 403, 385, 336, -81, -78, -60, -17, 
    -132, 246, 212, 225, 88, -21, 328, 140, 
    33, 187, 155, 383, 286, 223, 277, 305, 
    237, 225, -117, -169, -266, -123, -406, -592, 
    -611, -331, -229, 15, -241, -406, -571, -50, 
    -261, -225, -356, -349, -107, -153, -182, -313, 
    -195, -311, -84, 195, 386, 445, 251, 214, 
    -44, -223, -346, 74, -125, -124, -183, -54, 
    -108, -138, -109, -75, -193, -721, -646, -332, 
    -220, -209, 304, 395, 248, 252, 42, -290, 
    -310, -188, -106, 9, -61, -44, 25, 54, 
    -11, -403, -432, -198, -79, 65, -302, -491, 
    -582, -682, -289, -622, -602, -474, -317, -235, 
    -369, -350, -238, -122, 13, 38, -18, -37, 
    -188, -170, -369, -483, -451, -449, -541, -208, 
    -189, -240, -415, -168, -20, -167, -208, -155, 
    7, 99, 27, -136, -36, 150, 57, 37, 
    16, -53, -94, -287, -31, 12, -44, -31, 
    186, 31, -170, -375, -181, 56, 48, 7, 
    27, -137, 159, 159, 207, -69, 103, -30, 
    131, -62, -96, -199, -308, -445, -154, -144, 
    29, 562, 714, 351, 250, 107, -84, -218, 
    -179, -34, 189, 11, -39, -227, -502, -148, 
    112, 292, 295, 515, 411, 4, -114, -182, 
    -287, -338, -446, -201, -3, -190, -308, 4, 
    97, 359, 356, -47, -59, 150, 271, 199, 
    135, 243, -18, -191, -470, -209, -214, -9, 
    136, 282, 277, -400, -214, -143, -20, 91, 
    660, 459, 293, 193, 97, 299, 323, 202, 
    126, -21, -436, -390, -53, 206, 473, -90, 
    -45, 20, 119, 34, -333, -336, -213, -56, 
    -4, 70, 109, 127, 22, 28, 93, 122, 
    105, 37, -10, -153, -44, -96, -135, -211, 
    152, 333, 380, 393, 330, -764, -601, -383, 
    -170, 92, -65, -153, -70, -143, -218, 37, 
    338, 357, 477, 144, 235, -93, -235, -404, 
    -61, 456, 328, -24, -186, -263, -384, -288, 
    -51, 215, 349, 76, 269, 172, 177, 147, 
    -355, -142, -72, 63, 190, -364, -316, -122, 
    -14, -4, 67, 66, -128, -259, -396, -258, 
    -152, 61, 439, 695, -241, -138, -46, -109, 
    -103, 486, 381, 95, 249, 357, -209, -201, 
    106, 95, 188, -124, -83, -86, -65, 117, 
    -10, 35, 141, 86, 201, -55, -51, 36, 
    31, 55, 156, 112, -136, -161, -154, -10, 
    117, -190, -420, -391, -167, -311, -393, -179, 
    26, 222, 357, 356, 296, 84, -444, -538, 
    -570, -612, -487, 239, 67, -101, -258, -310, 
    236, 352, 432, 190, -219, -222, -175, 60, 
    215, 268, 34, -81, -259, -493, -651, -824, 
    -693, -333, -197, 201, -520, -525, -469, -444, 
    -86, -278, -255, -155, -113, -18, -105, -64, 
    -140, -160, -172, -82, -138, -243, -285, -410, 
    -205, -154, -42, 146, 394, 139, 49, -132, 
    -283, -359, 167, 94, 132, 86, 23, 61, 
    -130, -256, -159, 92, 302, 252, 190, 115, 
    -86, -402, -352, 7, 277, 390, 2, -49, 
    -2, -39, 16, -751, -656, -461, -244, -166, 
    -900, -730, -614, -342, -133, -116, -208, -314, 
    -419, -473, -282, -165, -95, -125, -219, -46, 
    -79, -140, -140, -225, -161, -353, -498, -464, 
    -228, 3, -36, 147, 57, -48, 93, -12, 
    -163, -232, -367, -159, -166, -263, -141, -212, 
    -283, -330, -147, -225, -247, -3, -128, -166, 
    -298, -200, 216, 56, 28, -44, 29, -103, 
    -144, -168, 108, 203, -115, -150, -156, -118, 
    -93, -208, -189, -102, -130, -128, 175, 154, 
    129, 88, 95, 112, -53, -45, -59, -89, 
    -203, -99, -131, -119, -6, -51, -81, -110, 
    -116, -152, -73, -177, -95, -102, -59, 145, 
    112, 31, -24, -119, -141, -205, -220, -208, 
    -255, 180, 163, 138, 115, 86, 226, 298, 
    196, 227, 151, 66, 24, -9, -23, -27, 
    -16, -30, -63, -46, -63, 231, 58, 44, 
    -58, -80, 329, 386, 298, 263, 314, -92, 
    -63, -73, -127, -98, -25, 9, 86, -68, 
    -109, -19, -81, -60, -133, -224, -24, 100, 
    192, 224, 209, -15, -44, -86, -134, -84, 
    -17, -47, -38, -24, 13, 164, 147, 167, 
    176, 201, 43, 69, 102, 151, 182, -239, 
    -351, -185, -315, -426, 286, 165, 143, 151, 
    49, -201, -28, 49, 52, 40, 55, -49, 
    21, -74, -60, 61, 94, 37, 27, -65, 
    53, 25, -55, -88, -70, 410, 249, 152, 
    -34, -123, 317, 346, 315, 6, 27, -224, 
    -153, 262, 268, 303, 460, 344, 68, -207, 
    -416, 343, 279, 141, 134, 27, 109, 46, 
    26, -11, -134, 1084, 827, 493, 107, -451, 
    -132, 163, 249, 393, 523, 138, 119, 44, 
    41, 125, 28, -64, 44, -232, -275, 399, 
    288, -103, -240, -566, 33, -75, -111, -217, 
    -171, 227, 131, -79, -90, -117, -238, -53, 
    20, 149, 44, 63, 99, 160, 152, 163, 
    105, -63, -212, -277, -238, 1011, 1148, 689, 
    86, -486, -234, -26, 150, 374, 507, 115, 
    66, 97, 9, -13, -109, -193, -240, -328, 
    -173, 47, -43, -245, -121, -15, -247, -268, 
    -88, 35, 176, 102, 4, -5, 61, 2, 
    22, -8, -49, -33, -313, -104, -50, 50, 
    187, 262, -341, -165, 51, 211, 277, 7, 
    -28, -15, -231, -165, 343, 309, 232, 108, 
    -256, -92, -109, -380, -226, 175, 309, 107, 
    92, -3, -247, -46, 104, 45, 23, 8, 
    12, -104, -235, 599, -516, -372, -334, 232, 
    57, -342, -105, 126, 11, 185, 704, 452, 
    -351, -1295, 139, 231, -548, -454, 366, 479, 
    33, 339, -972, 604, -395, 321, -586, -1049, 
    -268, 311, -38, -94, -190, -915, -299, -590, 
    -32, 1325, 409, -575, -75, -434, -32, -407, 
    -245, 433, -80, 43, 71, -720, 333, -147, 
    58, -232, 235, -46, 416, -349, -619, 195, 
    429, -243, -51, 461, 102, 123, -49, -114, 
    336, 148, 16, -728, -413, -1320, 675, -901, 
    -988, -318, -485, 660, 525, -534, -1264, -494, 
    317, 654, -371, 566, -419, -87, -145, -490, 
    -674, -178, 258, -206, 321, 376, -243, 20, 
    276, -28, 222, -699, -133, 278, 540, -133, 
    -178, 283, -672, -331, 532, 486, -143, -368, 
    31, -730, 55, 426, -76, -491, -602, -313, 
    261, -187, 45, -15, 393, -266, -65, -423, 
    -96, 304, -317, -77, -489, 354, -253, 72, 
    -488, -181, 279, 540, -62, -83, 248, -31, 
    120, 224, 146, 68, 191, 62, 32, -174, 
    320, 312, -345, -304, 150, -16, 132, 511, 
    445, -300, -286, -353, -86, -120, -855, 21, 
    623, -246, 115, 136, -253, 89, 229, -256, 
    -407, -66, 190, -334, -476, -164, -67, -507, 
    723, 289, -205, 255, -232, 786, -30, -277, 
    -162, 630, 48, -236, 147, 246, 531, 368, 
    -268, 1092, -100, -425, 265, 511, 227, 148, 
    -354, 172, 124, 486, -585, -147, 458, -113, 
    -8, 584, -228, -221, -561, 23, 30, 70, 
    183, -129, 462, -470, 127, 48, -469, 285, 
    95, 207, -176, -147, -170, 251, -486, -174, 
    43, 544, -61, -1139, -435, -289, 411, 626, 
    55, -604, 436, -123, 166, 266, 674, -93, 
    188, -341, 557, -491, 60, 151, 948, 21, 
    249, 282, 676, -914, -183, -37, 508, 236, 
    654, -226, 514, 84, 371, 360, -93, -165, 
    339, -746, -809, -551, 827, -493, 228, 536, 
    -149, 20, 56, -15, -150, 228, 7, -675, 
    458, -1086, -55, -671, 585, -917, 660, -216, 
    -292, -693, 305, 42, -37, -101, 1194, 192, 
    51, 136, -800, -475, 178, 158, -106, 230, 
    383, -376, 426, 159, 112, -251, -442, 321, 
    -377, -569, 45, -48, -217, 251, 224, 635, 
    -2, 244, -508, 163, -108, 431, 12, 488, 
    156, 661, -134, 117, -604, 100, -668, -343, 
    -1224, -154, -212, -252, -352, -196, 248, -290, 
    531, 741, 220, 222, -218, 449, -332, -378, 
    878, -408, -464, -462, -24, 693, -674, 139, 
    -352, 423, 92, 448, -151, -474, 311, -647, 
    -691, 363, 157, -197, 52, -427, -315, -591, 
    -306, -517, 185, 306, -193, -5, 671, -332, 
    -548, -274, 259, -246, 58, 291, 649, -9, 
    -388, -723, -5, 588, -465, 105, 631, 694, 
    -134, 570, 179, 382, 5, 121, 265, 431, 
    -189, 7, 216, -299, -87, 843, 807, -31, 
    -101, -974, -652, 101, -357, 566, 641, -597, 
    -56, -122, -149, -504, -612, -431, 28, -505, 
    -488, 280, 709, 989, -359, -978, 202, -62, 
    -165, -362, 11, 673, 298, 404, -275, 377, 
    221, 582, -1257, 235, -43, -91, -108, -163, 
    544, 618, 10, -46, 669, 501, 318, 501, 
    -1814, -546, -944, -517, -210, 663, 851, 286, 
    491, 748, 290, 349, -652, -884, -164, 127, 
    469, 374, -597, -1361, -311, 64, 566, 136, 
    -2404, 983, 17, 784, 40, 467, -867, -21, 
    -741, -1587, 14, -457, 321, 88, 602, -1018, 
    890, 187, -605, 764, 545, -855, -712, -140, 
    504, 31, 340, -1177, -476, 702, -580, -171, 
    -949, -424, 324, 763, -143, 60, 545, -1617, 
    -23, 439, -744, 631, -393, 640, -471, -1291, 
    132, -186, 356, -120, 106, -485, 999, -44, 
    -173, -190, 160, -384, -680, 469, -115, 416, 
    -139, 153, -672, -106, 265, -19, 224, -23, 
    -611, 769, -54, -104, -11, 228, -545, 5, 
    -340, 89, 146, 51, -248, 529, 368, 111, 
    -331, -273, -487, 23, -229, -343, -39, 152, 
    -308, 25, 303, 33, -46, 87, 49, 457, 
    -518, 50, 150, -65, -9, 90, -3, 404, 
    148, 215, -236, -148, 14, 345, -5, 41, 
    -215, -176, -73, -91, -262, 225, 453, -357, 
    -32, 145, 87, -10, -990, -48, -235, -723, 
    162, -324, -1117, -429, 199, -229, 30, -810, 
    -23, -5, 139, 131, -516, -91, 316, 676, 
    -185, 311, -358, 525, -687, 236, -21, -348, 
    34, 52, 405, 366, 44, 222, 1210, -248, 
    -566, 536, 623, -171, 447, 35, 727, -671, 
    107, -140, -126, 637, -175, -165, 513, -787, 
    -138, 243, 45, -1291, 335, 0, 615, 275, 
    -856, -322, -498, 532, 467, -1042, 134, -144, 
    108, -415, -62, 441, -273, -423, 23, 430, 
    114, -95, -22, -30, -269, 61, -486, -424, 
    -557, 465, 165, -502, -18, -203, 246, -142, 
    235, 913, 992, -367, -575, 298, -51, -34, 
    -566, 172, -308, 293, 423, -532, -435, 290, 
    679, -1153, 241, 1013, -740, 217, 247, -153, 
    320, 15, 328, -418, -949, 717, 686, -240, 
    -621, -209, 492, -683, 385, -362, 53, 638, 
    272, -625, -910, -902, -957, 1078, -1025, -707, 
    -593, -283, -481, -362, -852, 80, 445, 97, 
    -573, -2, -45, -318, 592, -25, 96, -438, 
    316, 142, -756, 1133, -191, -466, 729, 126, 
    822, 404, -697, -210, -680, -932, 24, 316, 
    -1110, -140, -769, -219, -572, 638, 53, 325, 
    258, -529, -1522, -230, -124, -155, 646, -1632, 
    292, -593, -640, 468, -132, -180, -164, -518, 
    -568, 951, 848, 941, -461, 0, -972, 175, 
    363, -331, 192, -1025, -311, -258, 388, 687, 
    919, -65, 223, 743, 210, -747, 27, -184, 
    296, -213, 304, 636, -69, 81, 275, 230, 
    35, 208, 507, -116, 0, -249, -39, 1212, 
    -446, -300, 51, -173, -120, 427, 48, -315, 
    100, -232, 284, -366, -155, -1052, -92, 369, 
    450, 364, -91, -265, 108, 278, 527, -83, 
    627, 475, -383, -114, -984, 22, 162, 414, 
    310, 160, 396, -552, 328, 378, 331, 279, 
    -427, 421, 23, 322, 262, 121, -94, -291, 
    22, -485, 286, -84, 66, 446, -221, 191, 
    -128, -308, -185, 130, 276, 525, 356, -32, 
    -25, -53, -47, -588, 748, 98, -705, 368, 
    258, -452, 73, 215, -42, 476, 209, -270, 
    -974, -31, 1, -447, -18, -1474, 101, 343, 
    261, -490, 377, -530, -594, 541, -1592, 200, 
    -360, -479, -190, 259, 82, -1144, 891, -424, 
    78, -1246, 758, -635, -895, 719, 500, 703, 
    -262, -78, 189, -1151, -417, -695, -753, -745, 
    547, 85, -726, -681, 608, -1068, 1018, -1000, 
    -545, 735, 90, 72, -72, -1045, -1210, -765, 
    205, -1249, -593, 345, -501, -1568, -265, -416, 
    424, 714, -69, 149, -75, -1475, -36, -141, 
    -81, -797, 57, 999, 790, -95, -91, -229, 
    1435, -45, 236, -1509, 258, 567, -533, -301, 
    1019, -766, -407, -339, 1024, 5, -662, 995, 
    -558, -1231, -1889, -710, -72, -451, -605, 263, 
    523, -556, -117, -91, -446, -53, 139, -307, 
    -340, 783, 3, -717, -63, -196, -565, -356, 
    330, -715, -527, 638, 776, -785, -57, -327, 
    165, -513, -1439, -552, 740, -564, -541, -486, 
    -83, 210, 429, -521, -656, 11, -655, -145, 
    -14, 176, -590, 1006, -201, 158, -420, 865, 
    -572, 387, 125, -717, 560, -330, -204, 564, 
    804, 56, -312, -616, 334, -806, -8, 221, 
    335, -345, -660, 449, -605, 317, 442, -247, 
    -499, -419, 766, 793, -177, -123, 326, -1243, 
    -221, 550, 267, -145, 273, 104, 17, -667, 
    323, 357, -919, -178, 56, -276, 367, -162, 
    -453, -495, 270, 1030, -211, 469, -1111, 348, 
    949, -128, 313, 637, 1058, -605, 120, -213, 
    613, 246, -850, -16, 1089, 350, -40, 914, 
    -339, -47, 192, 54, -198, 557, -1760, 172, 
    -178, 124, 53, -204, 1816, 283, -125, -266, 
    -178, 686, 253, -539, 371, -770, 99, 294, 
    -130, -209, 554, -271, 221, -1061, 121, -556, 
    236, 276, 68, -150, 164, 238, -318, -1242, 
    60, 1022, -1252, 883, 379, -846, 671, -117, 
    349, -551, 943, 201, 1053, 492, -1168, -400, 
    239, 894, 743, 167, -376, 143, -230, 807, 
    -865, 294, 593, -324, -332, -222, 172, 266, 
    308, 495, 318, -153, -854, -440, -956, -84, 
    45, 52, -668, 857, -177, 310, 69, 192, 
    -287, 410, 573, 15, 166, -297, 168, 432, 
    -73, -552, 480, -238, 331, 208, -417, 32, 
    -135, 563, -515, 432, -246, 210, 341, -1125, 
    -54, 321, 251, 203, 281, -919, 329, -229, 
    258, -950, 261, -302, -326, -3, 121, -398, 
    486, -267, 18, -687, 271, -869, -55, 161, 
    -196, 2, 110, -330, 434, 669, 203, 667, 
    -105, -352, -108, -213, 327, 296, -478, 602, 
    -214, 680, -566, -367, 553, -417, 203, 231, 
    17, -1604, -15, -368, -204, -57, -1523, -503, 
    723, 554, -938, -388, -1292, -697, 738, 270, 
    -1019, 187, 877, -1064, -340, -84, 4, 103, 
    -38, 59, 50, -254, -243, 603, -535, -597, 
    565, -185, -101, 168, -1029, -958, 376, -49, 
    -1077, 186, -33, -1389, 169, -179, -44, -180, 
    1171, -593, -1333, -1303, -267, 26, -130, -169, 
    691, -772, -176, 553, -746, 261, -280, -752, 
    -975, 386, -212, -622, 67, -83, -512, 78, 
    318, 22, -302, -31, -32, 29, 187, -504, 
    306, -44, -56, 699, -188, 227, 295, 851, 
    -338, -1021, -42, 322, -161, -192, -575, 297, 
    -217, -251, 243, 9, 241, 167, 0, -153, 
    -249, 207, -127, -118, -358, -262, 213, -240, 
    148, -142, 674, 48, -100, -208, 553, 349, 
    -432, 140, 526, -490, 0, 426, 61, -369, 
    -356, 482, -229, -371, 613, -306, 321, -403, 
    -294, -399, 444, 43, -699, 971, -738, -317, 
    1046, -566, -130, 916, -162, -53, -904, -280, 
    -23, 293, 75, 470, -440, -195, 355, 467, 
    -43, -321, -564, -175, -398, -42, -200, 67, 
    -277, 222, 441, -151, 352, -146, 425, 558, 
    223, -716, -4, 615, -401, 491, 249, 148, 
    95, 99, -564, 547, -25, 511, 366, -374, 
    -977, -205, -415, 944, -159, -283, -987, -1047, 
    555, 387, 276, 425, 222, -196, -582, 150, 
    -282, -1834, -213, -10, 258, -30, -387, 610, 
    -907, -349, 59, 70, 36, 721, -954, -690, 
    139, -775, 43, -676, -70, 240, 411, -1410, 
    -796, 498, 334, 407, -19, 68, -466, -573, 
    -323, 95, 52, 300, 333, 206, 905, -16, 
    -469, -688, 41, 312, 616, -84, 180, -54, 
    395, -784, -200, -626, 295, -463, -903, 69, 
    216, 250, 777, -532, 27, 104, -280, -104, 
    -616, -812, -757, -489, 1006, -642, -537, 234, 
    -704, -332, 33, -227, 749, -275, 261, 446, 
    -106, 535, -333, -135, -500, -69, -708, -131, 
    -126, 350, -33, 741, -17, 118, 324, -228, 
    -1030, -213, -266, -925, 572, -156, 633, 337, 
    -1140, 231, 60, -94, 178, 816, -694, -1275, 
    69, 376, 694, -139, 357, 357, -720, -298, 
    491, 403, 35, 187, -459, 766, 303, 41, 
    -124, -359, 753, 323, 249, -667, 461, 524, 
    -84, -20, -192, 192, 693, 114, -202, 240, 
    -209, -143, -328, 233, 177, -68, 47, -161, 
    25, 387, 639, -1275, 62, -237, -683, -499, 
    53, 494, 613, 435, 141, -804, 399, 486, 
    -42, 924, 279, 573, -102, -412, 713, -591, 
    207, 154, 165, -176, 78, -501, -13, 149, 
    395, 165, 702, -441, 696, 170, -119, -496, 
    154, -475, 201, 240, -93, -445, 656, 95, 
    -403, -213, 174, 720, 6, -75, -213, -989, 
    102, 610, 251, -99, -736, -55, 617, -766, 
    50, -587, -149, 241, -307, -700, -262, 574, 
    445, 265, -699, -420, -519, 669, 57, -200, 
    -267, -77, 686, -50, -573, -138, 740, 232, 
    166, -140, 294, 589, 456, -410, 257, -181, 
    194, -193, 217, -707, -1131, 262, -362, -121, 
    -93, 1241, 167, -459, -440, -752, 614, 89, 
    458, -830, 773, 68, 796, -723, 89, -359, 
    -203, 42, 687, -168, 728, 133, -235, -145, 
    -416, 90, -709, -301, -572, 216, 167, -494, 
    193, 369, 5, -189, 95, -161, -635, -657, 
    292, 148, 463, 281, -461, -374, -51, -57, 
    -514, -311, 93, 564, -369, 270, 25, 128, 
    -40, 516, -502, -425, 873, 61, 541, -979, 
    98, 313, 130, -25, 118, -240, -119, 44, 
    306, -148, -577, -194, 242, 546, -56, -533, 
    -728, -123, -829, 263, -580, -436, 125, -590, 
    446, -96, -458, -490, 323, 23, -171, -550, 
    851, -65, -386, -4, 247, 177, -100, 304, 
    -754, -72, 115, 158, -320, -604, -327, 778, 
    843, 196, -78, 1005, 11, -156, 25, -402, 
    302, -588, 567, 231, 1660, -305, 524, -722, 
    647, 198, -565, -83, 274, 535, 1308, -95, 
    383, -417, -479, -24, 406, -53, -361, 330, 
    -252, 308, -185, -426, -728, 95, 113, 226, 
    -303, 103, -1065, -261, 329, -993, -116, 579, 
    -518, 112, 685, -1254, 115, 364, -40, -122, 
    318, 306, 253, 259, 276, -323, 116, 481, 
    -1011, 391, 933, -471, 68, 106, -237, 614, 
    453, 462, -875, 512, 280, 126, 34, -793, 
    -1429, 216, -1410, 794, -430, 621, -403, -540, 
    154, 613, 839, 203, -448, -117, 276, 843, 
    -38, 23, 83, 362, -327, 306, -443, 181, 
    335, -824, 710, 506, -91, -449, -104, 343, 
    536, -305, -355, 573, -474, -887, 470, 673, 
    -358, -270, 241, -373, 139, -425, -529, 162, 
    606, 791, 320, -1782, 221, -261, -403, -1710, 
    -100, 667, -171, 447, -86, -3, 50, -715, 
    -235, 318, 638, 233, 118, -652, 94, 217, 
    -1564, -479, -700, -959, 477, -995, 213, -968, 
    -355, 309, -688, -25, 491, -120, -522, -568, 
    -1104, -183, -132, -591, 584, 601, -551, 161, 
    -24, -517, 92, -251, 249, -13, -863, -824, 
    233, 157, -672, -993, 773, -313, 600, -558, 
    404, 134, -925, 637, -32, -134, 371, 123, 
    162, -848, -618, 1985, 470, -24, -518, 68, 
    153, 81, -293, -81, 706, -680, 90, 1143, 
    135, 141, -1364, -37, 410, -197, 183, 538, 
    -146, 196, -217, -116, 371, 239, -881, -530, 
    -255, 511, -50, -55, 138, 296, -824, 183, 
    288, -313, 176, -268, -76, -593, 419, 298, 
    -817, 592, -176, 207, 281, -819, -188, 397, 
    -418, -803, 470, -30, -23, 1111, 271, -1160, 
    -162, 269, -80, -136, 838, -573, -94, 468, 
    -636, 166, 462, 78, -475, 332, -256, -424, 
    -299, 1679, 284, 441, -751, -377, 81, 522, 
    446, 166, -55, -478, 37, 592, -411, 473, 
    265, 548, 72, -520, -162, 35, 399, 718, 
    -13, 66, 444, -555, -396, 283, 457, -567, 
    768, 249, -109, 685, -274, -1475, -804, 112, 
    648, 277, 244, 172, 136, -299, 457, -290, 
    642, 355, 531, -394, -1134, -176, -551, 682, 
    356, -282, -325, -578, -863, 570, 306, 315, 
    86, 1290, -307, -348, -116, -422, 618, 212, 
    28, -357, 316, 136, 381, 200, -71, -160, 
    160, -150, -821, -146, 178, 546, 430, 213, 
    -154, -279, 57, 69, 392, 213, 360, 416, 
    446, 97, 566, 93, 214, 451, -315, -995, 
    -1058, 294, -884, 612, 45, -334, 460, -192, 
    -633, 814, -341, -336, 416, 108, -267, 62, 
    -59, 82, -869, -721, -41, 379, -204, 170, 
    -801, -907, 692, -504, -797, 909, -344, -267, 
    -846, -448, -115, -332, -747, -220, -226, -779, 
    336, -1026, -299, 133, -526, -1261, 242, 152, 
    -252, -346, 60, -403, -67, -19, -55, 484, 
    -606, -151, -88, 1042, -59, -5, 232, 15, 
    845, 25, 571, 95, -477, -395, 150, -744, 
    -275, -633, 1093, -631, -339, -611, -602, 178, 
    77, -384, 398, -592, -129, -965, 729, 825, 
    -234, -1113, -121, 16, 606, -32, 226, -596, 
    84, -442, -515, 702, -179, 461, 325, 335, 
    -459, 310, 442, 385, 112, 69, -1300, 31, 
    -191, -378, -243, 152, -88, 674, -423, 321, 
    -227, -636, -728, 542, 746, -389, 87, 862, 
    -530, -834, -437, -82, 535, -185, 425, -92, 
    117, -154, 515, -52, 184, 132, -263, 359, 
    -312, 735, -17, -29, 137, 702, 848, 156, 
    109, 201, 449, -587, 614, 76, 360, 496, 
    602, -122, 85, 94, -695, 815, -265, -585, 
    93, -58, -361, -630, -7, 131, -465, 63, 
    -78, 6, 1042, -394, -460, 321, 211, 387, 
    -78, -10, -469, 49, -180, 39, 22, -93, 
    882, -391, 90, -130, 829, -264, -509, 325, 
    872, 342, 137, 223, -1148, 33, -535, -19, 
    1104, 305, 72, -194, -465, 197, -335, -1135, 
    865, 547, 45, 570, 634, -669, -83, 327, 
    882, 221, -205, -980, 268, -144, 745, 324, 
    -367, 314, 509, -379, -980, 542, -420, 166, 
    -463, -525, 242, 310, -92, 415, 276, 370, 
    344, -1140, 576, 321, 528, 513, -202, -541, 
    -37, 130, -1082, 145, 263, -350, 228, 1161, 
    579, 616, -223, 709, 344, 251, 642, 441, 
    -931, -929, -74, 40, -610, 970, -429, 346, 
    -1385, -30, 994, 293, -158, 294, 510, -194, 
    169, 391, 192, -45, -364, -649, -234, 24, 
    -563, 251, -339, 172, 75, 550, -1076, 104, 
    -765, -336, 736, -919, 599, -771, 219, -378, 
    760, 52, 173, 610, -91, -618, -135, -435, 
    509, -98, 92, 343, -229, -86, 49, 392, 
    13, 41, -313, -340, 253, -151, -1017, 659, 
    657, 27, 1007, 235, -274, 312, -119, 822, 
    214, 597, -930, 177, -102, 395, -1086, 547, 
    56, -649, 83, -240, -716, 505, -382, 111, 
    361, -239, -437, -869, 437, -362, 687, 252, 
    -576, 273, 969, -391, 289, 168, -1001, 340, 
    137, 475, -239, 1111, -331, -662, -771, 248, 
    1006, -506, 1145, -131, -369, -534, -240, -573, 
    -128, 216, 16, -1240, 400, -238, 326, -95, 
    -362, -309, -1145, -1432, -475, 911, 144, -1014, 
    33, -22, 622, 72, 319, -855, -124, 115, 
    321, 116, 506, 1594, 117, 76, -458, -427, 
    -38, 287, 68, -76, 298, -461, 313, 147, 
    -356, -260, 53, -666, -149, -871, 572, -310, 
    -394, -539, -960, -704, -994, -129, -339, 607, 
    -102, -410, 368, -517, -804, 705, -440, 108, 
    -182, 200, -777, -279, -402, 35, -316, -971, 
    555, 811, 293, 1067, 211, -435, -394, -557, 
    -524, 5, 673, 711, -598, 1051, 258, 246, 
    -70, -87, -618, 621, 646, -733, 468, 73, 
    73, 818, -232, 256, -62, -49, -267, 275, 
    758, -440, 178, -427, -721, 148, 154, 464, 
    -50, 213, -24, -760, 202, 215, 699, 41, 
    44, -1035, -429, -186, -185, 254, -186, 477, 
    334, 44, 61, 101, -628, -183, -242, -1517, 
    340, -511, -569, -311, -40, -424, -128, -493, 
    -896, -1071, -692, 226, -17, -295, -393, -955, 
    -514, -294, 352, 154, 334, 225, -64, -293, 
    -662, 365, 541, 623, -17, 8, 94, 519, 
    164, -483, -259, -213, -163, 90, -152, 447, 
    -170, -410, -51, -2, 503, -228, -272, -228, 
    2, -315, -671, -426, 192, -591, -357, -132, 
    154, 752, -176, -628, -545, 634, -935, -439, 
    -529, -128, -187, 38, -384, 762, 38, -121, 
    -245, -492, -429, 610, -162, 593, -164, -148, 
    219, -79, -1070, -149, -979, -194, 218, 1268, 
    -340, -462, 887, 512, 303, -114, -154, -142, 
    -59, -48, -539, -718, 157, 333, -373, 719, 
    664, -276, 301, -482, -488, 354, -534, 414, 
    608, -690, -684, -701, -591, 299, 499, -603, 
    -543, -363, -525, -311, 103, -38, 311, 196, 
    483, 537, 93, -39, -900, 829, -548, 655, 
    -292, -373, -145, -625, 230, 758, 9, 22, 
    -456, 286, 559, 400, -257, -396, 816, -144, 
    -772, -51, 362, 196, 439, 315, -637, -541, 
    -9, -305, -649, 104, 167, 143, 42, -438, 
    -219, 95, 307, -169, -60, 173, 317, -354, 
    -86, -72, 846, 677, -164, 445, -127, -763, 
    107, -1449, -21, -126, 1111, 479, 350, 198, 
    103, 196, 495, 274, 508, 187, -142, -589, 
    -332, 184, -422, 43, 282, 337, 193, 786, 
    101, 838, 1271, 143, -754, 317, -259, -414, 
    40, 356, -519, -1314, -714, -242, -698, -100, 
    887, -528, 626, -1, -471, 256, -225, -887, 
    -774, -632, 942, 415, -157, 111, -516, 280, 
    209, -369, -55, -198, -46, -593, -239, -114, 
    180, 52, -73, 338, 594, 192, -1112, -412, 
    -242, -662, -638, -486, 249, 665, -189, 77, 
    -248, -467, 109, 97, -115, -157, 278, -467, 
    -210, 420, 36, -462, 78, -36, -209, -74, 
    -112, 601, -769, -472, -74, -264, -212, 378, 
    -423, 300, 674, 309, -12, 171, -289, 342, 
    -631, 22, -342, -183, -181, -406, -518, 413, 
    -267, -686, 267, 162, -127, -532, -127, 12, 
    487, -88, -127, 232, -322, -357, 7, -787, 
    -269, 276, 11, -761, 174, -43, -648, -492, 
    11, 588, 445, 157, -238, -426, -79, 351, 
    -1078, -773, 231, -721, 162, 643, -1458, -802, 
    1230, 522, 88, -986, 41, 154, 760, 182, 
    -598, 156, 578, -581, 920, 262, -291, -188, 
    -850, -217, 931, 505, -167, -808, -782, -466, 
    820, -462, -375, 22, -21, 580, -204, -599, 
    889, 230, 545, -88, 23, -396, 117, -370, 
    -345, -200, -787, 446, 541, -923, -559, -860, 
    180, 447, -305, -5, -1832, 114, 1170, 1225, 
    143, 137, -815, -971, 1749, 75, -806, 561, 
    -995, -140, 367, 385, 310, 1135, 706, 52, 
    488, 947, 278, -1012, -203, -906, 639, 243, 
    632, -681, -790, 470, 1705, 25, 335, -30, 
    311, -424, 1041, 786, -513, -498, 473, 310, 
    -22, -667, 463, -1193, 266, -310, -322, 385, 
    -530, -428, -264, 550, -299, 80, -378, -159, 
    265, 476, 730, 108, -172, 405, 751, 84, 
    -632, 235, -315, -358, 538, -218, -185, -480, 
    -280, -139, -185, -442, -157, 535, -7, -681, 
    -22, 418, 289, 777, 140, -467, 276, -595, 
    991, -500, 727, 180, 730, 82, -121, -396, 
    14, 78, 551, 233, -57, 261, 529, 987, 
    -73, 424, 756, 96, -520, -325, -460, -904, 
    143, -47, -233, -114, 196, 399, -324, -152, 
    350, 80, 305, 540, 566, -483, 558, 670, 
    296, -319, -12, 94, 273, -87, -737, 393, 
    -346, -453, 577, 882, 463, -248, -188, 148, 
    323, -883, -772, 200, 266, -62, 331, 39, 
    -497, -168, -165, 7, 310, -301, 55, -819, 
    77, 896, -286, -54, -134, 472, -72, 185, 
    240, 412, -3, 371, -190, 462, -15, 587, 
    -51, -78, 1127, 83, 272, 89, 210, 582, 
    -737, -790, 358, -156, -593, 558, -409, 569, 
    170, -256, -297, 566, -162, -701, 389, 396, 
    357, 286, -288, 164, -611, -161, 506, -1114, 
    -89, 853, -681, -21, 698, -292, -637, -331, 
    514, 621, 526, -5, -507, -101, 438, -615, 
    79, 104, 197, 856, 139, 492, 1295, -1190, 
    968, -1265, -564, 191, -866, -208, 560, 910, 
    134, 451, -20, -277, -704, -467, 190, 790, 
    -621, -129, -20, -309, 755, 605, 906, -318, 
    16, 902, -177, 1002, 605, -746, -388, -971, 
    -140, -901, 907, -297, -684, 807, -280, -69, 
    -783, 291, -854, 1208, -110, -1113, -183, 846, 
    236, -827, 852, 629, 682, -876, 711, 52, 
    -880, 683, 692, -759, 821, 134, -118, -395, 
    156, 294, 81, 323, 211, -777, 1212, -710, 
    -1, -236, -293, 208, 429, 41, 524, 182, 
    529, -1256, -358, 276, 245, 728, -242, -300, 
    199, -132, 623, 619, 502, -249, 456, -3, 
    326, -574, 22, -490, 129, -110, -72, -353, 
    165, -260, -938, -252, -591, -226, -60, -418, 
    7, -122, 417, -470, -24, -901, -308, -298, 
    70, 161, 279, 431, 556, -123, 276, 242, 
    54, 553, 18, -577, -455, 339, 22, -99, 
    134, 291, 243, 115, -144, -179, 1142, 92, 
    463, -417, -188, -169, 497, 203, 13, -78, 
    -571, 73, 618, 9, -102, 185, -98, 314, 
    29, 84, -260, -374, -372, 340, -202, -18, 
    355, -413, -592, 71, -100, 616, -230, -302, 
    68, -321, 457, 298, 229, 589, -734, -168, 
    -660, 839, 115, -415, -268, -201, -945, -159, 
    -808, -49, -773, 95, -897, 106, 230, 267, 
    262, 896, 411, -565, 637, 203, -394, 570, 
    140, 210, -377, -36, -304, 387, 59, -734, 
    310, -438, 620, -482, 217, 230, -170, -396, 
    -495, -398, 615, -740, -452, 923, -300, -5, 
    -662, 133, -28, 844, 337, -165, -703, 395, 
    765, -176, -414, 130, 241, -135, -365, 306, 
    5, -307, -871, -561, -742, -960, 954, 548, 
    -1, -822, -2, 696, 97, 684, -201, 144, 
    -67, -1510, 576, 399, -428, 391, 1402, 99, 
    357, -169, 116, -447, -712, 769, 59, -1419, 
    -363, -246, 98, -336, 86, 49, -299, 190, 
    -983, -171, -51, 477, -236, 38, 214, -356, 
    -397, 465, -390, -154, 221, 37, -24, 156, 
    -1166, 56, 109, -197, 17, 168, -453, 65, 
    -400, 151, 36, -215, 442, -355, -387, -73, 
    -133, 599, -52, -252, -123, 437, -78, 70, 
    -329, 77, 240, 306, -161, -251, -523, -145, 
    -298, -107, 507, 243, 3, -91, -762, 594, 
    -29, -299, 36, 220, -804, -243, -2, -122, 
    -566, 151, 113, -320, -276, -102, -86, -270, 
    454, -66, 182, 442, -686, 3, 434, -515, 
    -467, 637, -8, 38, -242, -427, 170, -245, 
    -696, 446, -551, -113, -289, 421, -360, -221, 
    -45, -175, -225, -233, -1278, 194, 636, 632, 
    -169, -612, 452, -516, -45, 185, 269, -368, 
    -305, -103, 544, 355, 116, -257, -150, -407, 
    -145, -593, 28, -139, -267, 291, -255, -916, 
    -577, -158, 507, -646, -1057, -693, -157, -5, 
    -119, -17, 590, -181, 249, -37, 1191, 566, 
    -271, -1011, -39, 531, -803, -451, 869, -1440, 
    -253, 286, -642, 220, 180, -273, 768, -322, 
    -145, 194, 438, 385, -850, 921, -381, 69, 
    -157, -133, 724, -49, 421, -344, 481, 765, 
    -613, -277, 225, 599, 227, 398, -431, -336, 
    69, 220, 118, 476, 709, 155, 350, 973, 
    -822, -129, -700, 901, 75, 405, 217, -354, 
    -584, 379, 25, -393, 1193, -387, -183, 1703, 
    -631, 132, -472, 977, -1023, 984, 1146, 239, 
    -1802, 435, 178, -61, 662, -238, -608, -30, 
    441, -244, 473, -355, 534, 225, -573, -167, 
    -1337, 59, 226, 473, -604, -1659, -582, 933, 
    548, 699, -423, 246, 566, -145, -404, 569, 
    188, -1137, -74, 422, -135, -81, 390, -1065, 
    -186, -892, 335, -852, 518, -1151, 910, -79, 
    -54, 401, 326, -13, 5, -93, -268, -765, 
    634, 607, -350, -44, -718, -37, -347, 258, 
    -519, 668, 611, 0, -966, 1551, 139, 275, 
    -344, -230, 788, 330, 693, -816, -2, -556, 
    -880, 2035, -107, 552, -1134, 1100, 166, 260, 
    -526, 1188, -488, 162, 987, 278, 483, -49, 
    -497, -733, -233, 371, -226, 140, 615, 434, 
    516, -1599, -1929, 656, 1033, 299, 267, -511, 
    -602, 999, -1204, 411, -431, 294, -590, 149, 
    840, 771, 405, 426, -433, -219, 721, -251, 
    144, -248, -346, -582, 511, -72, 764, 265, 
    178, 1014, 738, 416, -463, -282, -1220, 94, 
    409, -449, 656, -805, 233, -78, 972, 105, 
    708, -203, -436, 78, -538, -1420, 1572, 595, 
    144, 375, -1310, -680, -535, 739, -672, -534, 
    1427, 166, -314, 230, -542, 772, 159, -93, 
    -135, 594, 41, 262, 83, 8, -276, 263, 
    612, 283, -1879, -680, -177, 41, -172, -663, 
    919, 729, 524, 204, -614, 34, -233, -236, 
    -155, 262, -992, -639, 688, 517, 353, -797, 
    820, 862, -1544, -598, 299, -267, -927, 378, 
    -116, 540, 749, -781, -349, -414, -415, -477, 
    250, -334, 24, -606, 1141, -234, 577, -2118, 
    821, 330, -1429, -667, 319, 234, -62, -907, 
    -191, -429, 848, 11, 103, 292, -560, -211, 
    -25, 411, 1157, -212, -806, 35, -136, 649, 
    -907, -293, 80, -576, 302, 254, -86, 287, 
    76, -420, 230, -735, -199, 288, 418, -281, 
    -80, 157, -473, -90, -214, 481, 389, -1105, 
    37, -615, -21, -53, 322, -913, -813, -24, 
    -59, -549, -147, -517, -583, -185, 251, -1103, 
    406, 154, -194, -194, -373, -976, -842, 258, 
    -657, -305, -3, -316, -156, 316, 217, -236, 
    66, -100, -196, -680, -418, -207, 172, -232, 
    559, 383, -313, -334, -376, -469, -417, 504, 
    -49, -92, -213, -117, 134, 356, -555, 183, 
    101, -293, 254, 57, -196, -20, -55, 38, 
    -38, -503, 395, -280, -402, -55, 157, -481, 
    -353, -109, 117, -116, 191, 781, -206, 299, 
    476, 115, 170, -774, -104, 732, 495, 358, 
    -149, -216, 149, -280, 301, 653, -432, -314, 
    292, -1139, -187, 206, 399, -1303, -166, 419, 
    419, -188, -117, -130, 280, -283, 259, 183, 
    918, 43, -354, -262, -771, -458, -1049, 504, 
    -324, 31, 409, 449, 4, 247, 286, 714, 
    596, -389, 479, -129, -208, -323, 591, -384, 
    680, 580, -154, 88, 229, -449, 290, 1033, 
    144, -648, -562, -42, 591, -368, -65, -324, 
    -375, -573, 657, 13, 270, -64, -302, 498, 
    -189, -184, 92, 294, 20, 70, 271, -627, 
    863, -97, 643, -57, -52, -1062, -718, 506, 
    -58, -127, 389, 359, 420, -354, 577, -556, 
    713, -1066, 552, -12, 522, -516, 214, 58, 
    -356, -115, 919, 273, -57, -1205, -368, 504, 
    -427, -298, 379, 251, 352, 145, -222, 368, 
    -902, 400, 914, 273, -94, -305, -395, 918, 
    665, -652, 997, 538, -291, -741, 1407, -341, 
    -264, 482, 80, -75, -787, -792, -602, 1049, 
    -515, 186, -705, 498, 281, 771, -626, 906, 
    -525, 292, -348, -554, 1080, -479, -483, -84, 
    -94, 1152, -1191, 886, 9, -81, -17, 19, 
    -170, 1422, 153, 598, -1218, 858, 492, 67, 
    751, 367, -959, -122, 402, 37, 309, 4, 
    344, -141, 179, 338, 96, 361, -585, 1252, 
    51, -40, -266, -647, 227, 586, -427, -578, 
    475, 235, -1408, -487, -123, -594, -510, -117, 
    1224, 419, -556, -616, -205, -328, 926, 37, 
    -64, 249, 131, -822, 145, -615, 247, 146, 
    375, 277, -79, -837, -173, 1155, 649, -390, 
    -280, 364, -144, -696, -1213, 212, -530, -446, 
    -530, -749, -324, -81, -255, 857, 448, -1067, 
    -208, 56, -739, 353, 499, 408, 182, 378, 
    -350, -70, 48, -868, 320, 232, -797, 657, 
    -158, -369, -657, 295, -1023, 533, -500, 342, 
    154, -323, -609, 145, -590, -41, 520, 272, 
    -648, -467, 0, 113, -77, -327, -232, 418, 
    -1467, -339, -686, 328, -122, -249, -736, 678, 
    15, 200, -442, 374, -593, -144, -387, 461, 
    -76, -103, -240, -227, -334, -129, -1582, -200, 
    402, -584, 38, -613, 87, -1135, 103, -230, 
    399, 807, -883, -962, 257, -625, 708, -519, 
    -498, 7, 146, -415, -148, -208, 354, 342, 
    -56, -1631, 654, -395, -481, 420, 398, -699, 
    793, -412, 266, -776, 125, 481, 491, -31, 
    -748, 50, -87, -253, -248, -951, 645, -344, 
    391, 323, 191, -269, 315, -312, -729, -255, 
    647, 258, -687, -716, 233, -654, -648, -266, 
    -62, -950, 118, -889, 167, 503, -364, 51, 
    412, -89, -367, -301, 403, -278, -71, -714, 
    -96, 29, 840, 20, 97, -162, -525, -1083, 
    -63, 1246, -120, -808, -62, 369, 715, -179, 
    -134, 45, 22, -16, -298, -143, 89, 520, 
    -11, -103, -505, -423, -136, 994, 192, 499, 
    -1428, 48, -382, 170, -962, 99, 1459, -496, 
    275, 117, 9, 337, 69, 208, 41, -556, 
    218, 21, 313, -132, -1280, 545, 847, 372, 
    548, 291, 79, -216, 667, 447, 380, -379, 
    117, -650, 367, 414, 1067, 506, -518, -196, 
    -327, -892, 30, 757, -275, 37, 41, -90, 
    -270, 294, -3, 333, 200, -477, -376, 227, 
    -784, 242, -330, -819, 1136, 749, -348, -461, 
    -513, -676, 565, -333, 354, -201, -25, 180, 
    592, -479, -952, 266, -1483, -276, -531, -582, 
    -66, 388, -349, 16, -383, -1242, 443, 927, 
    -391, -443, 822, -1996, 216, 249, 113, -52, 
    -702, 49, 69, 64, -7, -754, 769, -243, 
    299, -1120, 429, -442, -881, -57, 90, -21, 
    -279, -129, 530, -233, -381, 959, -1087, 250, 
    66, -1521, -358, 542, 163, -1320, 966, 548, 
    -790, 381, 10, -403, -462, 86, -673, -382, 
    -497, 76, -60, 563, -183, 109, -321, -227, 
    435, 343, -243, 18, 81, -236, 77, 193, 
    -217, -834, 280, -102, -146, -62, -607, -107, 
    -257, 261, -415, -16, -110, -408, 310, -337, 
    437, -13, 83, 375, -461, -35, 410, 318, 
    -157, 560, -190, -313, -743, 45, -195, 331, 
    422, 64, 300, -136, -18, 202, 123, 400, 
    -431, -395, -548, 190, 62, 18, -172, -259, 
    27, -305, -331, -700, 366, -57, -195, -663, 
    -246, 149, -325, 115, 2, 244, -257, -203, 
    -127, 26, -307, 188, 437, -333, -721, 309, 
    -291, -67, -357, 106, 104, -476, -241, -35, 
    -257, -600, -214, -614, -407, -586, 84, 239, 
    -714, -500, -70, -337, 259, -297, 481, 12, 
    -137, -23, -603, 548, 58, -979, -377, -594, 
    -436, -269, 681, 17, -825, -29, -141, 640, 
    -142, 222, -377, -1239, 478, -23, -331, -403, 
    -307, 305, -333, 119, -483, -220, 111, 38, 
    -483, 276, 329, 626, 183, 302, -444, 335, 
    53, -1162, -345, -698, -694, -1, -555, 362, 
    -41, 805, -872, -268, -726, 67, -398, -55, 
    39, -530, -44, 94, 638, 267, -41, -255, 
    850, 700, -557, 516, -501, 309, -53, -376, 
    235, -139, -223, -194, 519, 385, 258, -290, 
    249, -423, -402, 255, -956, 738, -908, -285, 
    199, -174, -523, -186, 219, -503, 1122, -572, 
    136, -248, 201, -333, -400, -844, -1116, 401, 
    279, 369, -668, -401, 278, -121, -124, -21, 
    -83, -478, -599, -345, -27, 1090, -1384, 553, 
    221, -50, -750, 375, -291, 515, -399, -929, 
    976, 127, -1336, 19, 783, -1209, 263, 720, 
    -253, 73, -676, 252, -11, 216, -139, -859, 
    -314, 678, -1208, -1101, 751, 589, -322, 226, 
    -176, 229, 517, -196, 179, 384, 26, 366, 
    -441, 390, 660, -130, -169, -914, 361, 596, 
    -708, -303, -220, 96, -201, 7, 628, -652, 
    -216, -4, 13, -225, 1118, -138, -1955, -402, 
    303, 1158, -411, 471, -745, -41, 455, 231, 
    104, -521, 507, -797, -372, 236, -218, 639, 
    -536, 437, -1099, 1294, -954, -228, -552, -740, 
    21, -399, -837, 667, 350, -232, 6, -534, 
    -329, 654, 523, -406, 227, 484, 460, 170, 
    951, -414, -638, 142, -80, 420, 351, 85, 
    -922, 70, -500, 374, -553, 1639, 153, -376, 
    -892, 429, -1441, -398, 677, 277, 59, -1073, 
    501, -743, -61, -895, 60, -651, -720, 574, 
    82, 657, -744, 152, 362, 438, -1268, 497, 
    265, 531, -1466, 426, 48, -1576, -848, 741, 
    -434, -642, -454, -1101, -99, -642, 473, 487, 
    -186, -395, 299, -449, -1168, -114, -19, -570, 
    274, 117, -279, -712, -390, 199, -432, -751, 
    447, -29, -25, 535, -58, -584, 650, 584, 
    206, -241, -655, 531, -208, -372, 386, 752, 
    -702, -104, -888, -698, -681, -151, 408, 325, 
    -318, -780, -133, 192, 368, 824, -836, -486, 
    -608, -627, 152, 168, 20, 407, -34, -635, 
    -195, 428, -211, 375, -346, -438, 91, -439, 
    1204, 158, -516, 183, -508, 244, 242, -969, 
    -119, -102, 24, 580, -67, -104, -198, 455, 
    284, -360, 401, 259, -277, -761, -583, -316, 
    -113, -348, -139, -74, 52, -11, 164, 1048, 
    -890, 190, 4, 749, -237, 148, 279, -1193, 
    154, -220, -308, -747, -330, -604, 480, 1578, 
    54, 616, -1238, -768, -344, 543, 386, 771, 
    -973, -439, -158, 750, -926, 925, 230, 34, 
    938, 90, 430, -164, 451, -937, 438, 747, 
    274, -347, -631, -763, 638, 274, -718, 79, 
    -408, 788, -129, 364, -368, 74, 88, 878, 
    -521, 49, -47, 654, -640, 124, -233, -859, 
    -1011, 426, 482, -94, 570, -1168, 475, -22, 
    -688, -918, -917, -181, -1176, -315, -107, -764, 
    -241, -94, -179, 519, -162, 354, -174, 52, 
    -25, -107, 63, 306, -125, -390, -205, 718, 
    118, 135, -267, 70, 12, 174, 107, 355, 
    -511, 60, -55, 77, 727, 239, -237, 317, 
    -571, 390, 168, 288, -252, 294, -315, 412, 
    -414, -199, -540, -357, 554, -208, -142, -682, 
    35, -417, 281, -13, 94, 211, -662, 82, 
    -45, -384, 299, 504, -185, -618, 584, -174, 
    -602, -434, -78, 776, -22, 265, -714, -8, 
    294, 94, -495, 420, 270, 271, 234, 366, 
    28, -535, 668, -359, 833, -618, 181, -5, 
    41, -156, -360, -858, -209, -135, 325, 141, 
    -493, 62, -637, 282, 317, 374, 72, 725, 
    -562, -896, -838, 112, 107, -549, -310, 392, 
    -26, 224, 365, -537, 403, 344, -653, 86, 
    264, 303, -72, 45, 740, 565, -141, -484, 
    484, 68, 139, 384, 226, 20, -58, 413, 
    -96, -851, -849, -287, -782, 232, -914, 659, 
    113, -577, -788, -294, 597, 176, 169, -456, 
    391, 289, 541, -627, 600, -230, -100, 470, 
    229, 406, -245, -631, -204, -42, -196, -367, 
    -16, 233, 204, -200, -747, -39, 180, -113, 
    1018, -6, -1122, -164, -17, 638, -133, -1157, 
    196, -283, 57, 387, -103, 471, 142, 493, 
    300, 178, 271, -601, -617, -684, -156, 255, 
    148, 139, -677, 317, -413, -22, -669, 218, 
    366, -701, -156, 247, 130, 280, 285, 289, 
    366, 30, -36, 30, -886, -953, -451, 929, 
    651, -958, -1336, -64, -470, -123, -652, -566, 
    45, 362, 430, 10, -933, -477, 190, -39, 
    -580, 38, -642, 297, -302, 372, -12, 260, 
    665, 35, -317, -432, -586, 15, 29, 404, 
    -607, -421, -257, -159, 78, -706, -332, -342, 
    365, -154, -49, 293, 521, 55, -19, -105, 
    436, -1005, -124, -250, -24, -196, -142, -233, 
    -294, 57, 202, 23, 381, -404, -93, -178, 
    -28, 438, 244, -41, -154, -825, 239, -635, 
    -99, 176, 681, 392, -297, -108, -536, -100, 
    383, 785, 118, -669, -571, -436, 626, 480, 
    182, -552, 697, 166, -636, 817, -101, -213, 
    -310, -21, -579, 440, 144, -476, -469, 32, 
    189, 201, 566, -34, -801, -779, 204, -125, 
    122, 97, 622, -521, -175, -113, 35, 132, 
    83, -277, -422, -529, -401, 120, -138, -492, 
    902, -285, 77, 377, -815, -393, 471, -989, 
    -629, 126, -466, -83, 585, -620, -529, 989, 
    145, 13, 39, -71, 380, -566, 66, 251, 
    -490, -678, 522, 263, 446, 64, -481, 470, 
    529, -721, -664, 755, 795, 108, -435, 3, 
    -507, -25, -405, -614, -1190, -844, -783, 627, 
    286, 65, -712, -148, 578, -887, -657, -825, 
    540, -1279, 938, -697, -1178, -67, 101, -200, 
    157, 12, -279, 784, -451, -778, -330, -169, 
    -11, 118, -38, -184, -1390, -927, -353, -533, 
    -683, -5, 946, 122, -811, 836, -965, 468, 
    160, -877, 275, 291, -766, 496, -780, 219, 
    468, 291, -728, -1494, -566, -776, -727, 677, 
    -57, -988, -119, -54, 63, 344, -234, -130, 
    144, -67, -493, -325, -93, -214, -145, 68, 
    -872, 471, 156, 270, 20, 413, -1604, -49, 
    891, 282, -333, 246, 109, -1291, 1178, -1054, 
    -1410, 177, 693, 642, 867, -669, -23, -47, 
    -175, 125, -570, -887, 606, 465, 266, 246, 
    -180, 147, 314, -175, -477, 457, -103, -653, 
    -535, -993, 122, 257, -7, -344, -219, 128, 
    410, 265, 357, 250, -212, 258, -336, -751, 
    492, 228, -866, 83, -231, 234, 468, -876, 
    199, -242, -381, 29, 117, -547, -162, -199, 
    402, -222, -886, 30, 499, 657, -629, -467, 
    287, 184, 212, -456, -342, -1079, -247, 214, 
    91, -598, -352, -218, -1097, 130, -1056, 201, 
    805, 437, 29, 306, 529, -290, -38, 743, 
    365, -1322, 319, -1019, 57, -275, 32, -234, 
    -758, -498, 1025, 710, -573, 1174, 319, 280, 
    -157, -1323, 419, 565, -916, 105, 42, -783, 
    62, 477, -592, -154, 88, -365, 656, 843, 
    168, -924, -174, 813, 960, 444, 856, 276, 
    264, -722, -210, 1012, 241, -270, 164, 800, 
    626, -626, -654, -562, 126, 698, -257, -204, 
    -405, -774, 512, 227, -509, -406, -424, -584, 
    541, -167, -495, 128, 356, -143, -260, -450, 
    114, -814, -712, 86, 524, -616, -85, 276, 
    364, 144, 1022, 130, 560, 46, 490, 317, 
    627, 170, 896, -259, 124, 527, 352, -706, 
    529, 515, -83, -227, 694, -1055, -939, -233, 
    -311, -103, 302, 351, -504, 183, 811, -362, 
    69, 294, 530, -166, -492, 105, -326, 139, 
    -958, 80, 156, -624, -535, 130, 176, 18, 
    -94, -326, 428, -432, 183, 72, -405, 472, 
    -165, 389, 82, 224, -194, -491, -366, -171, 
    9, 145, -476, -3, 43, -300, 343, 228, 
    360, -277, 79, 452, -504, 371, 406, 97, 
    3, 24, -39, -253, -943, 664, -269, -7, 
    -106, 181, 85, -789, 148, 363, 4, 11, 
    202, -65, 210, 303, -584, -374, -19, 86, 
    619, 32, -222, -312, -207, 377, 282, -92, 
    -130, 89, 168, 43, -33, 488, -66, -193, 
    535, -193, 74, 170, 237, 276, 104, 197, 
    136, 33, 247, 427, 201, 420, -229, -343, 
    168, -374, 110, -130, 297, -250, -788, 396, 
    235, 0, 367, 384, -161, 90, 287, -102, 
    132, 443, -162, -259, -18, -246, 392, 4, 
    36, 661, -285, 435, 501, -271, -119, -240, 
    665, -326, 223, 145, 288, 83, -807, -228, 
    454, 18, -260, -122, 337, 478, 257, -29, 
    -374, -6, -394, 99, -417, -276, 229, 420, 
    -339, -295, 147, 336, 173, 533, -443, -145, 
    -241, -4, -562, 326, -355, 38, 271, 517, 
    -304, 660, 19, -203, 263, -214, -570, 50, 
    414, 302, 637, -351, 157, 517, 349, 34, 
    408, -205, 189, 365, 23, -783, -625, -56, 
    197, -180, 273, -913, -284, -114, 101, -786, 
    171, -407, 327, 682, -153, 387, 35, -161, 
    -164, -167, -27, 309, 51, -179, -642, -89, 
    526, -542, 79, -103, -354, -41, -166, -536, 
    345, -59, -90, 438, 155, -201, 218, -325, 
    -64, -606, 270, -616, 660, 131, -756, 748, 
    -348, -52, -178, -174, -552, 160, 50, 935, 
    304, -184, -370, 39, 64, -204, -428, -151, 
    401, -245, 340, -333, 743, -74, 444, -877, 
    -141, 228, -369, 158, -753, 378, 41, -349, 
    -264, -35, 68, 513, 65, 483, 707, 82, 
    -149, 79, -609, -322, 312, 268, 182, 562, 
    280, 101, -20, 281, 160, 103, -418, -731, 
    -36, 494, -227, 1, 27, -346, 280, 315, 
    191, -531, 571, -235, -102, -225, 257, -730, 
    122, 773, 406, -47, -496, 306, -74, -104, 
    -298, -369, 435, 422, -545, 225, 409, -574, 
    120, 551, 19, -247, -290, -125, -236, 339, 
    -62, 282, -178, 520, 21, -383, -176, 262, 
    -89, 162, -390, -125, 153, -493, -9, -8, 
    277, 502, -94, 477, 31, 319, 238, -87, 
    564, -22, 44, -633, 102, 503, -335, 247, 
    39, -272, -781, 415, -157, 103, -219, 370, 
    233, -1027, -13, -262, 74, -216, -315, -147, 
    824, -805, -223, 1163, 209, -280, -37, 391, 
    394, 534, -148, 594, -68, -382, -524, -19, 
    -49, -69, 594, -373, 886, -1040, 244, -696, 
    -155, 73, -222, 609, 854, -1055, 1, 535, 
    198, 72, 118, 47, 328, -150, 53, 568, 
    -38, -362, 647, 179, 957, -457, -609, -428, 
    401, 744, 345, 420, -1262, 129, 472, 289, 
    -134, 442, 425, 539, 370, -484, 3, 150, 
    -207, -131, 404, -195, -652, -657, 217, -60, 
    99, -314, 220, 166, -58, 274, 556, 649, 
    509, 91, 43, -1126, 419, 728, -227, 293, 
    260, 491, 746, -40, -464, -421, 225, -15, 
    334, 31, -1445, -554, -99, -763, 344, -88, 
    17, 46, 461, -368, -179, -883, 346, -383, 
    -719, 408, -182, -279, 268, 110, 68, 369, 
    179, -148, -246, 571, -427, 360, -529, -764, 
    307, 634, 157, -40, -39, 423, 73, 504, 
    -212, -305, 318, 293, -1729, 366, -152, -202, 
    -110, 177, 199, 616, -770, 518, 442, -196, 
    -215, -492, -107, -629, 10, 25, 1261, 490, 
    -621, -463, 64, 330, 220, 215, -203, -833, 
    848, 319, 231, 976, -289, 430, -582, 116, 
    -525, -204, -108, 377, -466, -1, -228, -715, 
    -310, 8, 155, 604, -52, 372, -702, -554, 
    266, -396, 144, 361, -77, -128, 36, 111, 
    410, 8, 99, -558, 10, 31, 541, 128, 
    621, -131, 175, -43, -611, -271, 15, 575, 
    676, 10, 242, -198, 3, -453, 102, 322, 
    235, -396, 476, 556, 274, -47, 298, 45, 
    188, 193, 149, -280, -185, -492, -1006, 828, 
    727, -458, 114, 391, -1057, -631, -16, -503, 
    404, -483, 780, -171, -326, -552, -396, -125, 
    -521, -239, -700, -262, -83, 153, 341, -298, 
    -107, 399, 141, -9, 41, 618, 10, 374, 
    532, -273, -843, 102, 117, 632, -262, 286, 
    58, 27, 122, -914, -932, -514, 384, -792, 
    -318, 161, -321, -503, 77, 137, 488, -478, 
    99, 75, 671, 112, -7, -548, 463, 295, 
    358, 481, -351, -1176, 259, 256, -86, -247, 
    -565, -573, 283, 386, -243, -910, -77, -140, 
    -279, -1275, 361, -403, 62, 454, 430, -327, 
    513, -159, 617, -353, 568, 456, -163, 225, 
    269, -169, 289, -5, -211, -617, -110, -358, 
    -468, -473, -347, 10, 135, 521, 651, -1035, 
    -26, 369, 490, -160, 40, 148, 334, -50, 
    109, -383, 334, 16, 263, 286, -446, -382, 
    -237, -162, -539, -24, -1142, 340, 587, -224, 
    -117, 166, 739, -524, 464, 573, -451, 109, 
    288, -276, 89, 416, -36, 278, -420, -705, 
    -440, -452, -535, 30, 451, 127, 710, 26, 
    -91, 216, -1049, 22, 516, -146, -960, 631, 
    78, 441, -787, 87, -666, -93, -6, -116, 
    -670, 842, 80, -902, -226, 423, 11, 124, 
    -192, -20, 117, -43, -90, -167, -315, -715, 
    -548, 225, -221, -1275, 37, 645, -71, 197, 
    170, 729, -965, -244, 119, -319, -738, 384, 
    464, 0, -260, -210, -849, 158, -214, 340, 
    361, -205, 288, -206, 118, 402, 557, -396, 
    230, -148, 501, -1289, -465, 298, -272, 199, 
    785, -490, -287, 161, -503, -29, -19, 202, 
    303, 536, 432, -512, 498, -500, -1186, 467, 
    297, -161, 332, -96, -192, -577, -490, 122, 
    699, 168, 246, -307, -246, -532, -280, -373, 
    -244, -391, -1233, 40, 223, 60, 110, 821, 
    -307, 18, 223, 644, 461, 203, 186, 99, 
    -499, 27, 365, -215, -41, -381, 460, -745, 
    -83, 417, 73, -4, -314, 816, -146, -291, 
    187, 101, -279, -577, 92, -163, 872, -646, 
    -41, 47, -61, 22, -923, -165, -316, 530, 
    159, 244, -486, 52, -76, 182, -511, -189, 
    371, -750, 203, -49, 121, -486, -221, 213, 
    -474, 536, 37, -178, 22, 40, -567, 201, 
    -159, -1011, -187, 164, -179, -722, -524, -192, 
    -552, 23, -582, 2, -52, 48, -95, 800, 
    -108, 391, 482, -67, 190, -291, 62, -550, 
    209, 638, -1066, -197, 254, -526, -820, 314, 
    -258, 201, 446, 213, -867, 193, -156, 93, 
    -382, -636, 326, -158, 312, -221, 514, -144, 
    321, 570, 5, -362, 181, -230, 409, -66, 
    -728, 226, -606, -150, 212, -170, -45, -260, 
    -273, -356, -203, -104, 37, -523, 314, -58, 
    177, -66, -570, 382, -49, -437, -9, -289, 
    110, 407, 79, -189, -108, 183, -436, 538, 
    340, 603, -328, 180, 18, -581, -761, -388, 
    590, 93, -413, 4, -81, -293, 134, 264, 
    -675, 447, -88, 138, -556, -194, -42, 70, 
    -217, 191, -252, 554, -225, 376, -180, -89, 
    89, 231, 63, -226, 173, -487, -189, 533, 
    -101, 35, -856, 289, -536, -732, -164, 57, 
    73, 108, -172, 453, 278, 440, 451, 51, 
    -322, 141, 149, -99, 321, 546, -119, -170, 
    -519, -342, -652, -647, -488, 98, 117, 85, 
    -389, 748, -295, 387, -538, -680, 234, 210, 
    133, 641, 40, 212, -547, 439, -479, 19, 
    982, 665, -392, 289, 606, 83, -324, -233, 
    715, -131, 163, -25, 66, -628, 290, -482, 
    -331, -216, -1021, -344, 20, -337, -23, -232, 
    18, 190, 540, -160, 355, 587, -453, 352, 
    175, 568, -634, 290, -325, 172, 543, -684, 
    -23, 26, 52, -141, -53, -246, -540, -33, 
    1122, -60, -282, -122, 27, -563, 193, 586, 
    -186, 43, 329, 1010, -704, 106, -72, -448, 
    373, -18, 239, 121, -612, -162, 247, 910, 
    469, 173, -66, -669, -68, 420, 494, -400, 
    -673, -624, -1409, -92, -260, 835, -141, 69, 
    -251, 236, -260, -304, 492, -209, 404, 313, 
    353, -695, -598, -133, 226, 477, 257, 400, 
    -252, -118, 435, -90, 156, 268, -434, 198, 
    222, 857, -61, -307, 363, 232, 385, -519, 
    160, 121, 506, 521, 221, -762, -283, 539, 
    -344, 201, -451, 190, 7, 930, 337, 55, 
    61, 88, -185, 253, -167, -190, 217, 312, 
    443, -211, -811, 144, 239, 37, 41, 280, 
    -237, -20, -617, 196, -473, 197, -3, -865, 
    -691, -753, 201, -227, 267, -66, -280, 521, 
    163, 402, -453, 947, -55, -498, -865, -585, 
    355, 898, -638, -585, 230, 362, -400, 1002, 
    -18, -538, 142, 457, 67, -265, 444, -1018, 
    -1054, -781, -86, -332, 127, 442, 274, -540, 
    305, 328, -5, 61, 569, 301, -609, -302, 
    -151, 247, 438, 446, -285, 723, 126, -685, 
    534, -143, -162, -662, -623, -864, 517, -84, 
    -91, -67, -218, 711, -678, 399, -200, 204, 
    -60, -420, -240, 484, -243, -287, 102, -112, 
    -923, -504, 47, -273, 144, -335, 2, -1102, 
    -125, 26, 288, 242, -130, -882, 29, -63, 
    64, -324, -276, -645, -579, -402, -608, -464, 
    430, -295, 330, 459, -224, 436, -457, -575, 
    544, -650, -566, -422, 403, -369, -484, 169, 
    -346, -567, -225, 455, 73, 298, 309, -102, 
    17, -52, -92, 566, 159, 47, -82, -163, 
    3, -932, -256, -622, -234, -586, -14, -349, 
    66, 129, -8, 479, 618, -385, -432, 106, 
    79, 263, 269, -160, -49, 476, 117, -11, 
    -113, -1063, -326, 120, 142, 145, 484, -460, 
    144, 113, -313, -896, -895, -294, -693, -752, 
    161, -673, 106, -378, -452, 272, 157, -266, 
    163, 72, -225, -315, 439, 10, 275, -366, 
    251, 308, -129, -12, -23, 452, 350, -265, 
    157, -854, 122, -459, -393, 780, -469, 484, 
    279, -1650, -481, 244, -72, 215, -492, -577, 
    -671, -209, -151, 85, 210, 259, -88, -141, 
    244, 387, 444, -194, -117, 98, 367, 725, 
    487, -183, -988, 22, -572, 175, -636, 36, 
    599, 902, -695, -528, -248, 281, 702, 436, 
    -682, -166, 120, 312, 24, -237, -368, -783, 
    -259, -401, 218, -534, 394, 260, -1038, -1048, 
    -388, -74, -691, -687, 923, -182, -541, 28, 
    592, -386, 30, -236, 1, -327, 469, 311, 
    -527, -1181, -310, 403, 280, 255, 253, -5, 
    -707, -471, 146, 629, -427, -115, 1011, 345, 
    454, 341, 57, -136, -129, -1005, 558, 311, 
    600, 196, -344, -129, 417, -1023, 834, -1032, 
    504, 109, -696, 414, -213, 396, -136, 124, 
    317, 363, -113, -850, 639, -4, -95, -272, 
    161, 269, 126, 78, 94, -775, -220, 132, 
    123, 443, -834, -222, -570, -652, 264, -514, 
    -849, 196, -406, 120, 555, -12, 364, 85, 
    514, -400, 111, -369, 375, -192, 252, 239, 
    34, 512, 1210, -711, 149, 328, 162, -536, 
    727, 317, 66, -42, 227, -855, -512, -96, 
    -579, -832, -722, -1487, -192, -1127, 539, 816, 
    -380, 515, 257, -285, 763, -386, -762, -1141, 
    240, 257, -598, 556, -169, -380, 873, -2, 
    -172, 624, -229, -182, -216, 4, 858, -673, 
    -255, -874, 534, -565, 133, -200, 62, 6, 
    76, -436, -843, 236, 111, 519, -494, 195, 
    -512, -99, 311, -205, -269, -110, 126, -552, 
    215, 634, 247, -285, -1134, -189, -14, 474, 
    -356, 995, 425, 624, -11, 243, -610, 248, 
    413, 153, 528, -589, 176, 451, -254, -86, 
    -556, -378, 13, 157, -288, -90, 101, 221, 
    808, -238, -279, -298, -185, 283, -3, -6, 
    -991, -203, 446, 496, 518, -126, -149, -262, 
    -244, 345, -402, 54, -408, -89, -556, -433, 
    298, 677, -24, -573, 308, -253, -161, -247, 
    -1063, -299, -425, -120, -191, -263, 349, 307, 
    468, -185, 268, 3, 201, -305, -364, 421, 
    -571, 174, -782, 192, 492, -599, 901, -213, 
    -384, -278, -242, -679, 364, -361, 209, 924, 
    186, 356, -1311, 7, 24, -591, 532, 378, 
    -427, -264, -700, 60, 908, 227, -608, -571, 
    222, -528, -154, -270, 645, 438, 25, 702, 
    238, -456, -741, -216, -484, -427, 395, -41, 
    526, -469, -381, -804, -164, -973, 44, 158, 
    209, 304, -112, -133, -468, 4, 367, 220, 
    -735, 630, -304, -546, -603, -462, 454, -293, 
    -168, -447, -271, 60, -7, -15, 798, 19, 
    221, -359, -670, -127, -617, -126, -546, -197, 
    184, -776, 364, 1011, 617, -199, 33, 475, 
    -96, 351, 699, -328, 108, -737, -134, -96, 
    -802, 356, -109, 97, 715, 89, -62, 266, 
    191, -830, 57, -587, 17, 405, 157, -568, 
    421, 105, 8, -89, 354, 121, -152, -114, 
    -481, -462, 646, 760, -332, -428, -21, 56, 
    -308, -708, 179, -767, 84, 28, -257, -509, 
    651, 24, -183, -13, 546, 1031, -61, -613, 
    69, 115, -194, -535, 115, -121, 542, 165, 
    -173, 222, -553, -154, 1028, 42, -584, -269, 
    282, -165, -214, -153, -902, 767, -583, -91, 
    -219, -344, 255, 297, 216, 154, 750, -55, 
    -335, -844, 336, -428, 691, -733, 248, -478, 
    -106, 28, 639, -314, -208, -228, -387, 297, 
    -963, -268, 454, 619, -148, 50, -642, -73, 
    -281, -393, -236, 573, -155, -163, 433, 524, 
    189, -192, -471, 173, 157, 621, -319, 103, 
    221, -997, -36, 359, 175, 66, -549, -302, 
    25, -195, 71, 350, 711, 263, 5, 387, 
    -748, 134, 24, 6, -120, -1139, -106, 232, 
    -52, 369, 200, 101, 110, 391, -216, 253, 
    190, -1050, -46, -711, 554, 335, -62, -87, 
    464, 88, -2, 3, 45, 199, -556, -394, 
    668, 218, -24, -37, 646, -246, 24, -390, 
    350, 652, -114, 198, -182, 246, 83, 320, 
    131, -94, -29, 557, -568, 214, 117, 56, 
    464, 258, -512, 720, 97, 476, 330, 290, 
    60, -17, 481, 322, 22, -251, -204, 174, 
    148, -305, -1008, 514, 396, 275, 413, 23, 
    -227, 204, -86, -241, 125, -241, -400, 192, 
    639, -15, 381, -444, -117, -679, 399, 747, 
    42, 301, 12, -185, 77, -798, 174, 40, 
    -27, 890, 99, 228, -551, 35, -613, 150, 
    -181, 10, -712, -206, 62, 227, -501, 161, 
    256, 458, -110, 648, 437, -218, 201, -368, 
    -441, 173, -157, 540, -221, -796, -241, -472, 
    140, 584, 290, -77, -195, 121, 333, -150, 
    -452, -388, -311, 0, -530, 318, -53, 366, 
    -244, -138, 5, -741, -758, -283, 540, 369, 
    499, 610, -454, 367, -212, 205, 121, -410, 
    11, -252, -130, -37, -356, 87, -330, 34, 
    -314, 81, -214, -125, 458, -666, -576, 314, 
    -447, -129, -6, -304, -404, 319, -512, 142, 
    -393, -191, 454, -299, -250, 826, 507, -95, 
    110, 249, 677, 388, 159, -90, 473, -122, 
    103, 537, 522, -586, -268, -367, -584, -332, 
    -323, -213, 588, 232, 148, -263, 412, -13, 
    -403, -321, 292, -17, -368, -335, -450, -340, 
    184, -216, 637, 156, -238, -280, -662, -397, 
    186, 114, -71, -222, 6, 902, 556, 45, 
    324, -23, 216, -522, 106, 241, 60, -233, 
    -77, 112, 487, 937, 13, -86, 278, 613, 
    -499, -236, 579, -803, -202, -540, 379, -122, 
