#ifndef WEIGHTS_BIAS_INT32_H
#define WEIGHTS_BIAS_INT32_H

#include <stdint.h>

static const int32_t WEIGHTS_BIAS[] = {
-8, 7, 7, 0, 0, -8, 2, -6, 
    14, -8, 0, 7, 7, 30, 55, -101, 
    1, -7, -3, 6, -6, -4, -9, 5, 
    -34, -50, -37, -40, -51, -4, -15, 5, 
    5, 6, -1, 0, 9, 4, 7, 6, 
    0, -1, 1, 23, -6, -5, -9, 7, 
    6, -7, -8, -2, -2, -4, 4, 5, 
    22, -29, 6, 27, 127, 48, 44, 132, 
    4, -2, 3, 1, -1, -1, -2, 4, 
    7, -25, -25, -12, 5, 7, 5, 5, 
    1, 3, -1, 3, 3, 1, 0, 1, 
    66, 36, 19, 73, 124, 107, -3, 69, 
    0, -1, 1, 1, 0, -1, -1, 3, 
    -4, 4, -3, 11, -1, -7, 39, -3, 
    -3, 0, 0, 0, -1, -1, 0, 0, 
    15, -12, -17, 11, 16, 5, -30, -40, 
    2, 0, 1, -1, 1, -2, 0, 2, 
    7, 18, -8, 2, 7, 13, -13, 2, 
    2, -2, -2, 2, 2, 1, 1, 0, 
    59, 56, 69, -34, -18, -9, -28, 4, 
    2, 2, 0, 0, 2, 0, 1, 1, 
    0, 2, -10, -10, -8, -7, 5, 6, 
    -1, 0, 0, 1, 2, 3, 0, 0, 
    -22, -23, -35, -2, 6, -22, -8, 17, 
    0, 4, -4, 1, -1, 4, -4, 3, 
    13, -1, 7, 8, 0, -7, 2, 49, 
    2, -1, 3, 4, 1, 3, 0, -2, 
    -150, -98, -18, -26, -18, -73, -77, -160, 
    -3, 4, -3, -3, -2, 2, 3, 4, 
    6, 1, 7, 3, 1, -2, 10, -11, 
    -4, 4, -3, 3, 4, 3, 1, 3, 
    63, 18, 5, 29, 12, 30, 33, 56, 
    1, 3, -3, -3, 3, 1, -1, 0, 
    12, 0, 12, 7, -19, 29, -12, 17, 
    -1, -2, 4, 2, 3, 2, 3, 0, 
    156, 148, 103, 84, 92, 79, 121, 187, 
    1, -1, -3, 2, 1, 4, 1, -4, 
    -1, -1, 0, 12, 10, 7, 6, 2, 
    0, 2, 2, 0, 2, -3, 0, 3, 
    3, -18, -26, -39, -26, 8, 26, -12, 
    -1, 2, 1, 0, -3, 3, 0, 0, 
    15, 0, -12, -2, -6, -19, -10, 15, 
    1, 3, -3, -3, -3, -3, 3, 0, 
    -5, -15, 35, 39, 46, 33, 26, 86, 
    2, 2, -2, 2, 2, -3, -2, 0, 
    6, 9, 3, 0, 6, -17, -7, -9, 
    3, 0, -2, 0, -1, 3, 3, -2, 
    37, 31, -6, -2, -2, 11, 38, 37, 
    -2, -2, -7, 2, 0, -6, 4, -5, 
    7, -13, 44, 1, 66, -22, -86, -2, 
    0, -4, -3, -7, 7, 4, 7, -7, 
    -111, -65, -33, -104, -257, -136, -200, -425, 
    2, -7, -1, 2, 6, -6, 7, 6, 
    4, 3, -3, 3, -4, 1, 0, 9, 
    -4, -6, 3, -2, -6, 3, 2, -2, 
    6, -7, 28, 13, -1, 33, 66, 30, 
    -1, 3, 2, 4, -2, 0, -6, -5, 
    -26, -11, 5, 2, 21, 7, 22, 55, 
    -2, 0, 0, 0, 1, 0, 3, 4, 
    -316, -149, -127, -99, -131, -170, -135, -175, 
    2, 5, -5, -3, -5, 2, 3, 1, 
    17, -12, 0, 11, -1, -6, 4, 7, 
    0, -1, 0, 4, -4, 2, -2, 3, 
    61, -9, 25, -4, -39, -35, -2, 15, 
    -5, 3, -1, -3, 0, 5, 3, -1, 
    3, 6, 14, 2, 10, 2, -3, 0, 
    2, 4, -1, 2, 2, 1, -1, 5, 
    -178, -107, -138, -110, -164, -104, -86, -197, 
    0, 2, -4, -5, 2, -3, 0, 5, 
    7, 11, 4, 4, -3, 12, -13, 5, 
    4, 4, -2, -4, 2, 1, 1, -1, 
    64, 17, -3, 4, 5, -5, 0, 148, 
    -3, -2, 2, -3, 2, 0, -3, -1, 
    -4, 2, 5, -9, 4, 1, -3, 0, 
    1, -3, 2, 3, -4, 0, 1, 0, 
    14, 4, -4, -14, -23, -52, -64, -49, 
    3, -3, 0, 2, 2, 3, 3, -3, 
    7, 2, -6, -4, -5, -22, -3, -5, 
    1, 1, 3, -2, 3, 2, -3, -3, 
    -17, -18, -7, 30, 25, 18, 21, 94, 
    0, 0, -2, 0, 1, 0, 3, 1, 
    2, 14, 3, -3, 25, -1, -10, -26, 
    2, 0, 0, -3, 0, -2, 3, 0, 
    -97, -68, -39, -48, -84, -91, -78, -32, 
    -3, -2, 0, 3, 2, -3, 0, -3, 
    9, 7, 0, 0, 0, 4, -2, -21, 
    -1, 0, -1, 0, 0, 0, 1, -1, 
    35, 5, 14, 21, -15, 5, 32, 69, 
    1, 0, 1, 0, 0, 0, 0, 0, 
    -31, -9, 5, 2, -1, -2, 8, 9, 
    -2, -2, 0, 2, 0, -2, 0, 1, 
    3, -23, -64, -45, -35, -26, -57, -10, 
    -2, 2, 0, 1, 2, 1, 0, 0, 
    -3, -1, 1, -3, 0, -5, -7, -10, 
    2, -1, -1, -2, 2, 2, 2, -2, 
    -6, -24, -33, -18, -18, -9, -13, 13, 
    3, -5, 6, -2, 1, 4, -1, 1, 
    28, 13, 16, 1, 8, 18, -9, 7, 
    -5, -8, -8, 0, 5, 1, -8, 8, 
    -147, -4, 138, 169, 234, 188, 222, 283, 
    -3, -5, -7, 8, -5, 4, -2, 7, 
    -4, -6, 0, -20, 3, 14, -11, 17, 
    -4, 6, 8, 4, -4, -8, -8, 1, 
    -120, -44, -45, -5, -33, 9, 55, 228, 
    3, -2, -1, -1, -2, -1, 2, -3, 
    2, 6, 8, 17, 5, -13, -14, 28, 
    -4, 1, -2, -1, 4, 2, -1, -4, 
    58, 16, -100, -78, -91, -31, -65, -2, 
    0, -4, 1, 0, -2, -4, 3, -1, 
    -8, -2, 7, -14, -16, 0, 6, -6, 
    1, 0, -1, 2, 1, -2, 1, -2, 
    -9, -53, -13, 8, 3, 7, -50, -85, 
    3, -2, -4, 2, 3, 0, -1, 2, 
    12, -14, -26, 12, 5, 10, 2, -5, 
    -2, -2, -4, -2, -1, 0, 3, 1, 
    54, 39, -12, -83, -128, -120, -133, -109, 
    0, -3, -4, -1, 1, 0, 0, -1, 
    0, -19, -15, 0, 9, 1, -3, -5, 
    1, -3, 1, 1, -3, 2, -2, 0, 
    -17, -99, -75, -3, 36, 13, -29, 15, 
    0, -4, 1, 5, -1, -2, 4, 0, 
    5, -2, 10, 0, 37, -259, 8, -9, 
    3, -4, 0, 2, -1, 3, 1, -2, 
    -216, -186, -125, -180, -131, -208, -232, -196, 
    0, 0, 0, -2, 0, 1, -5, -2, 
    -2, 1, -2, 4, -2, 1, 0, -1, 
    -1, -1, -1, -1, 3, -1, 3, -2, 
    12, -9, 2, 11, -3, 54, 19, -28, 
    -6, -2, -7, -7, 0, -4, 0, 7, 
    50, 14, -4, -17, 1, 4, 7, 16, 
    7, 0, 0, -2, -3, -5, -5, -1, 
    -1, -148, -97, -140, -218, -239, -261, -344, 
    7, 7, -5, 3, -6, -1, 6, -6, 
    -20, -1, 8, -16, 16, 0, 3, 10, 
    -6, -1, 0, 3, -4, 0, 6, 6, 
    -7, 118, 68, 58, 78, 4, -45, 12, 
    -1, 3, 4, -3, 4, 1, 0, -4, 
    17, -5, -8, 15, -17, -4, -11, -14, 
    2, 2, 0, 2, -4, -3, 1, 2, 
    196, 237, 187, 169, 106, 147, 142, 139, 
    5, -2, 3, 0, -5, 1, -4, 3, 
    17, -4, 3, 3, -2, -5, 0, 17, 
    -4, 5, 4, -4, 3, -5, -3, 4, 
    -25, -3, 15, 17, 16, -8, -3, 131, 
    0, -3, 1, 0, 0, 1, 2, -2, 
    6, 0, -1, -5, 20, 1, 0, 3, 
    0, 2, 2, -3, -1, 1, -1, 0, 
    31, 16, 109, 82, 96, 68, 70, 147, 
    2, 0, 3, 0, 1, 0, 0, 0, 
    7, 13, 2, 0, -4, 1, 0, -17, 
    0, -2, 2, -1, 2, 0, 0, -3, 
    42, 23, -10, 10, 35, 51, 24, 25, 
    -3, 2, 0, -3, 0, 3, 2, 2, 
    10, 9, 0, 9, 5, 0, 6, 8, 
    -2, 3, 1, 0, 0, 3, -1, 3, 
    -30, -10, -41, -103, -107, -175, -177, -230, 
    -2, 2, 3, 1, 2, 2, 1, -4, 
    0, -1, -1, -3, -6, 19, 7, 11, 
    0, -3, -2, 0, -3, 3, 2, 0, 
    47, 34, 26, 23, 29, 18, -22, 6, 
    -148, -110, 292, -111, 235, 155, 78, -178, 
    -93, -225, 257, 202, 184, 38, 1151, -414, 
    -263, 212, 210, 102, 103, 77, 152, 128, 
    -47, 25, 41, 145, -50, 127, 1376, -329, 
    -101, 73, 298, -225, 34, 79, 10, -164, 
    -256, 70, -74, 249, -204, 132, -810, -1013, 
    236, 296, 199, -193, 166, -274, -135, 292, 
    -68, 40, 213, -63, -152, 252, -802, -366, 
    290, 130, -107, 64, 255, -147, 221, 66, 
    271, -226, 287, -244, 71, -297, -6224, 442, 
    151, -261, 266, -217, -183, -154, -21, -96, 
    278, 0, 35, -126, 220, 63, -714, -5478, 
    -143, 285, -151, -284, 137, 242, -45, 38, 
    -177, 163, -43, 45, 225, 82, 4312, 599, 
    67, 52, -231, 280, 68, -227, -3, 53, 
    68, -17, 126, -274, 262, -79, 2064, 1033, 
    -281, 30, 201, -201, -140, -173, 211, 90, 
    251, -229, 136, -223, -259, -99, 1097, 1292, 
    -288, 24, -252, -243, -146, -23, 80, 95, 
    157, 56, 96, 265, -102, -43, 3655, 2649, 
    228, 209, -159, 36, -234, -217, 106, -138, 
    -92, -83, -37, 159, -171, 211, 6008, -6808, 
    28, -294, 31, 54, 136, 250, -131, 66, 
    -130, -104, 262, 230, 259, 288, 408, -5263, 
    -14, -260, 259, -15, 222, -294, -240, -21, 
    238, -40, -63, 256, 17, -75, 602, 198, 
    232, 171, 51, 47, -262, 92, 268, 199, 
    286, 187, 221, 283, -27, -260, -3078, -2922, 
    -55, -68, 222, -57, 197, -34, 85, 88, 
    85, -241, -211, -121, -125, -206, 2158, -557, 
    -2, 268, -261, -122, 137, -282, 157, 95, 
    11, 73, -188, -168, 242, 123, -1706, -550, 
    -18, -298, 225, -275, 259, -181, -29, 289, 
    102, 246, -271, 168, -198, -291, -1443, 1014, 
    201, -199, 185, 36, 36, 278, -224, -9, 
    74, -167, 281, -14, 276, 89, 3021, -1046, 
    168, 158, -200, 152, 199, -271, 130, 161, 
    212, 137, 146, 15, -254, 134, 2062, -1466, 
    -236, 169, 239, 105, -223, 117, 137, 91, 
    78, -141, -133, 228, 156, -275, -19, -877, 
    -111, -53, -10, -20, 51, -50, -43, 11, 
    -6, 108, -132, 129, 9, 136, -97, 51, 
    120, 20, -152, 109, -22, 18, 160, 138, 
    -140, -59, 75, -41, -82, 25, -849, -1755, 
    -52, -150, -135, -31, 135, -4, 118, 106, 
    -129, 30, 144, -138, -106, 2, -733, 1395, 
    155, -144, -109, 106, -1, -105, 130, 88, 
    15, 126, 139, -149, 152, -117, 3, 1800, 
    125, 144, 54, 105, 31, -92, -149, 109, 
    13, -91, -148, -104, -69, -30, -633, -1126, 
    -42, -92, -144, 94, 55, -50, -41, -134, 
    3, 79, -117, 32, 109, -135, -4029, -369, 
    -104, 10, -56, -144, 81, -35, 110, -127, 
    -102, 52, -159, 3, -25, -136, 1089, 456, 
    41, 55, -147, -91, 138, 73, -34, 42, 
    -108, -4, -59, 38, 5, 43, 1322, -250, 
    61, 81, -59, 60, 54, -53, 91, 120, 
    87, -88, 143, -36, 124, -95, -1124, 1507, 
    -149, 88, 72, -13, -91, -101, 95, 67, 
    63, -27, 149, -160, 27, 142, 621, 386, 
    -153, -71, -2, 69, -43, 35, -8, 53, 
    -148, 7, -154, -146, -110, 111, -3754, -5, 
    27, 32, -29, 90, 8, -152, 47, -45, 
    -31, -33, -117, -142, -89, 105, 461, -1037, 
    155, 59, -75, 30, 40, 5, -42, -142, 
    149, 89, 120, 148, 47, -99, 627, 1465, 
    93, -10, 101, -126, 52, -133, 3, 135, 
    153, 111, -139, -149, -85, -37, -1524, -958, 
    -37, 63, -23, 98, -52, -85, 132, 144, 
    -123, 34, 109, -150, 129, -23, 1017, -2319, 
    -128, -33, -118, -160, 117, -32, 22, 24, 
    -13, 107, 148, -60, 26, 137, 676, -489, 
    -101, -124, 124, 25, -11, -62, 49, 119, 
    14, -98, -71, 138, -150, -128, 1547, 1614, 
    -22, 123, 99, -79, 74, 145, 132, 137, 
    -135, -146, -103, 0, -6, 75, -2001, -42, 
    -131, 17, 146, 129, -133, -66, -27, -108, 
    -140, 139, 143, -139, -67, -102, 472, 125, 
    94, 25, -22, 159, 96, 73, 65, -159, 
    64, 67, 145, 43, -8, 27, 841, 147, 
    69, -104, -220, 231, -133, -172, -199, -97, 
    224, 134, -105, 228, -63, -5, 2574, -4106, 
    -97, -164, 179, 81, -43, 247, 18, 146, 
    -144, -205, 205, -213, 58, -178, 660, -660, 
    204, -220, -11, 128, 250, 34, -71, 145, 
    29, -216, 217, 133, -60, 235, -330, 769, 
    -100, -213, -62, 171, 31, 183, -200, -142, 
    -175, 36, 174, 162, 244, 192, -3551, 2883, 
    -204, 81, 42, -166, -154, -41, 109, 43, 
    103, -250, 165, 237, 196, -19, -3550, 314, 
    141, 246, -221, 42, 73, 128, -149, 191, 
    -117, -109, -152, -31, 240, 58, -683, 240, 
    212, 223, 159, 91, -203, -150, 136, -46, 
    90, 143, 146, 22, -173, 107, 1589, -498, 
    211, 193, -200, 18, 188, 33, -6, 67, 
    -86, -133, 66, 248, 99, 219, 872, 1906, 
    -52, -83, -198, 143, -118, 246, -109, 88, 
    74, -21, -221, 142, 96, 110, -4104, 1673, 
    128, -169, -27, 47, -64, -47, 192, 35, 
    -6, -194, 142, -75, 0, -214, 443, 2250, 
    -213, -140, 70, -202, -202, 14, 44, 165, 
    106, -59, 187, -121, -49, -47, -4333, -2499, 
    -129, -56, 218, -125, -108, 42, -195, 96, 
    241, -142, 33, -209, -16, -144, -16, 2892, 
    -114, 27, 194, 228, 129, 97, 231, 137, 
    -89, -224, -32, -160, 1, -116, 881, 2574, 
    53, -165, 109, -1, 223, 124, 109, -195, 
    40, 15, -97, 52, 1, -59, 332, 101, 
    131, 249, 203, -92, 35, -172, -29, -231, 
    15, -7, 120, -178, 29, -27, -517, -916, 
    -177, 189, 43, 101, -193, -159, -244, -59, 
    116, 131, 156, 13, 203, 225, 1757, 214, 
    -89, 221, -82, -110, -98, -100, -87, -178, 
    -6, 208, 138, -6, -188, 219, 18, 221, 
    -91, -194, -71, -188, 128, 139, 247, 81, 
    -72, -16, 14, 142, -141, -179, -313, -1060, 
    115, 114, 74, 102, 66, -80, -192, 159, 
    -143, -248, 108, -10, 130, 149, -286, 671, 
    156, 87, -62, -19, -67, 105, -58, 54, 
    71, 111, 32, -200, -30, 8, 54, 1861, 
    -145, -108, 41, 178, -14, 196, -295, 291, 
    -141, 153, 19, 30, 118, -148, -4407, 3903, 
    54, -216, 43, 50, -91, -136, 249, 233, 
    22, 309, -194, -92, 218, 76, -556, -2098, 
    144, 109, -87, 289, 106, -311, 145, -167, 
    -127, 36, 53, -8, 304, -64, 748, 3548, 
    -93, 245, -194, -208, 306, 46, -111, -158, 
    -290, -130, -281, 90, 78, 171, 437, -1775, 
    40, -72, -285, -252, -275, 264, 135, -281, 
    -224, 76, 103, 0, -223, -15, -1566, 142, 
    -164, -71, -124, -205, 74, 60, -3, -172, 
    -276, 158, -93, 58, -98, -105, -3861, -2849, 
    -62, 74, 37, 251, 99, 88, -188, -173, 
    -78, -30, -177, -81, 65, 75, 1742, 1345, 
    -219, -58, -143, -39, -141, 242, -153, 251, 
    282, 297, -73, -166, -37, 155, -4141, 2910, 
    168, 148, -52, 135, 128, -147, -173, 308, 
    152, 52, 288, 50, -111, -183, -6473, 2462, 
    -153, -300, -128, 148, 183, 238, 249, 41, 
    -227, 72, 210, -283, -31, -52, -408, 1520, 
    279, 22, -175, -124, 82, 28, -103, 195, 
    -40, 291, -290, 301, 3, -63, 1280, 1308, 
    -301, 142, -2, -305, 285, 202, -85, 187, 
    36, 241, -81, 316, -228, 28, 1146, -878, 
    46, -186, -229, -3, 180, 163, 85, -111, 
    105, 51, 225, -40, -152, 313, -2755, 465, 
    195, -280, 137, -266, 169, -159, 304, 223, 
    65, -102, 308, -308, -140, 33, 1548, -2424, 
    -113, 65, 141, 26, 104, -310, -4, -139, 
    272, -107, 37, -39, -263, 88, 237, -1738, 
    -39, 115, 190, -50, 22, -91, 91, 154, 
    242, -187, 314, -276, -232, -165, 1951, 183, 
    224, -90, 86, 43, 90, -18, 248, 255, 
    84, -136, -269, 33, -69, -119, -1028, 2251, 
    -231, 113, 299, -145, 139, -63, -260, -209, 
    -269, 0, -207, -230, -81, 267, -1441, 2470, 
    -111, 265, 84, -113, -179, 155, 119, 81, 
    91, -131, -216, -135, 117, -9, -143, -1006, 
    304, 221, 314, -100, -247, -312, -203, 47, 
    265, -118, -81, -280, -96, 105, 3220, 1069, 
    125, -242, 28, -155, 210, 97, -108, -11, 
    177, -123, -7, -182, 246, -211, -3743, 101, 
    141, 36, -253, 174, 43, 41, 17, -76, 
    -113, 69, -178, 193, -236, 77, -459, -2616, 
    -252, -103, 180, -257, 225, 135, -153, -158, 
    170, 227, -184, -166, -121, -18, -23, 3812, 
    -97, -201, -173, 42, 74, 96, 188, 22, 
    -140, -218, -11, 154, 216, 16, 360, -6, 
    196, -73, -152, 29, 33, 173, 73, -15, 
    -20, 240, 99, 122, -128, 196, 2671, 1227, 
    -139, -35, 36, -162, 146, 193, -99, -161, 
    -160, -142, 191, -57, 170, -142, 2675, 95, 
    178, 1, -85, -181, 52, 110, 163, 195, 
    -186, -257, 67, 121, 155, -108, 572, -1768, 
    -245, -53, -200, 101, -216, -181, 188, 196, 
    -51, -33, 240, -40, 202, 222, -2697, -99, 
    114, -232, 109, -174, -153, -20, 209, -214, 
    -244, -160, 45, -80, 176, -24, 576, -151, 
    117, -10, -249, 158, -145, 170, -154, -136, 
    -236, -160, -251, -133, -101, 232, -1220, 3384, 
    -157, -84, 255, -123, 184, -125, 239, 77, 
    193, 4, 110, -239, 157, 257, 2987, -805, 
    -139, 242, -104, 139, 58, 9, 237, 4, 
    101, -212, -113, 229, -159, 77, -2463, 2262, 
    35, -132, -107, 108, 203, -31, -200, -66, 
    170, 130, 155, 170, 137, -125, 1027, 481, 
    -149, 258, 96, -28, -123, -52, 67, 107, 
    -115, 153, -9, -141, -178, -208, -96, -331, 
    170, 114, 111, 225, 234, -96, 141, -239, 
    208, 43, 44, -241, 258, -122, -3443, 888, 
    211, 210, -58, 170, 44, 158, -230, 39, 
    -222, -140, 227, 237, -258, 130, -2432, -382, 
    192, -228, -50, 103, -44, -91, -164, 258, 
    238, 32, -153, -175, 159, 118, 1829, -7, 
    -190, -243, -6, -203, -198, 256, -2, 60, 
    -220, 127, 108, 104, 29, 23, 403, -261, 
    19, -151, 26, -166, 82, -65, 96, -60, 
    142, -205, 117, -170, 36, -231, -199, -30, 
    16, 188, 238, 218, 110, 251, 89, 44, 
    245, 191, -207, -23, 86, -203, 3173, -4341, 
    -18, 53, -83, 107, -153, -137, 9, 68, 
    4, 57, -97, 136, -4, 105, -865, -228, 
    137, -97, 70, 104, -74, -125, -31, 73, 
    93, 12, -125, -119, -120, -112, -52, -818, 
    136, 134, 39, -120, -111, 7, -88, -48, 
    58, 102, 76, 63, 31, 0, 493, 1139, 
    -47, -40, 49, -78, 114, -36, -120, 133, 
    58, 110, -37, -40, -117, -14, -1835, 206, 
    59, 135, 117, -152, 136, 157, -105, -111, 
    -41, -44, 138, 15, 2, 136, -1545, 143, 
    -63, -101, -53, -133, -140, 131, 64, 52, 
    58, 50, 157, 35, -102, 105, 734, 403, 
    -38, -1, 134, -24, 68, 30, -10, 118, 
    112, -126, 13, -125, -132, -71, -670, 197, 
    145, -6, -75, 72, 68, -157, -115, -85, 
    -46, 59, -61, 2, -129, -21, -4462, 497, 
    135, -50, 63, 109, -111, -77, -98, -96, 
    71, 142, -61, 142, -86, 50, 344, -551, 
    29, -54, -108, -11, -105, -130, 77, -106, 
    -115, -143, -20, 19, 55, 92, 1013, 453, 
    17, 116, 36, 87, -145, 59, -62, -29, 
    55, 97, -46, 44, -116, 10, 1151, 672, 
    62, 70, 158, 115, -74, -2, -81, 56, 
    90, 117, -47, -2, -35, 112, 49, -726, 
    8, -143, -151, 133, 53, -19, 125, -17, 
    -35, -139, 62, 151, 153, 55, 908, -1743, 
    -158, 49, -133, -112, -5, 98, -9, -132, 
    96, -122, -122, -151, 147, -41, 448, -1639, 
    -129, 129, -141, 28, 23, -138, 106, 55, 
    -21, -65, -74, -38, 126, 142, 215, -1131, 
    30, 97, -36, -4, 149, 141, -34, 157, 
    -64, -17, 46, 2, 154, 138, -463, 6498, 
    93, 5, 128, -107, 145, -52, -109, 83, 
    55, 158, -82, -35, -81, 77, 7, -1097, 
    -90, 157, -119, 157, -116, 149, 143, 79, 
    -44, 67, 106, -105, 28, -37, -249, -247, 
    -67, 54, -74, 156, 111, -48, 73, 47, 
    -114, 90, 88, -65, -4, -9, -2179, 456, 
    8, 29, 10, -148, 112, 10, -100, 136, 
    38, 57, -101, 127, 64, 35, -380, -95, 
    107, -39, 190, -137, -184, -88, -51, -67, 
    80, 15, -164, 176, 47, 160, -1368, -493, 
    179, -23, 102, 153, -110, 114, -103, 95, 
    61, 98, -101, -150, 74, 144, -2036, 1492, 
    -41, 97, -70, 86, 106, -161, 53, 110, 
    -58, -183, -109, -126, -187, 48, 248, 52, 
    75, -54, -178, -175, 180, 122, 122, 177, 
    -113, 50, -94, 72, 122, 174, 592, -1372, 
    163, 163, 160, 94, -133, -60, 91, -127, 
    137, -135, 102, 154, 185, 149, 664, -909, 
    -190, 29, 108, -102, -17, -13, -66, 15, 
    -94, -174, -13, 130, 118, 147, -83, 492, 
    -73, -180, -112, -182, -93, 81, 97, 113, 
    -116, -18, 90, -73, 33, 156, -1499, 199, 
    -26, -68, 29, -94, -196, 71, -29, 174, 
    -50, -55, -133, 196, 159, -142, 953, -177, 
    -23, 30, 30, -72, -141, 10, -111, -73, 
    20, -189, 139, 146, 12, -105, 3109, -727, 
    102, 195, -56, -155, 158, -42, -60, -122, 
    -92, 7, 82, -59, 75, -89, 435, -1558, 
    192, -157, 99, 189, 191, 39, -178, -16, 
    -102, 174, -89, 161, -86, 153, 1290, 199, 
    46, 194, 189, 151, -53, 86, 80, -15, 
    123, -20, 47, -139, 184, 35, -371, 1674, 
    168, -153, -107, -171, -73, 8, -77, 34, 
    -80, -23, 185, -12, -33, 186, -678, 283, 
    94, 135, 155, 186, -87, 193, -145, -141, 
    101, 171, -35, -117, 89, 184, 20, -1634, 
    43, 80, 102, -4, 80, 113, 60, -86, 
    62, -56, 142, 193, -39, 88, 45, -1370, 
    155, -46, 25, 21, -12, -95, 136, -108, 
    2, 80, 35, 56, 155, 39, 6739, -629, 
    -133, 27, -23, -95, -50, 193, 123, 51, 
    4, -75, -103, -74, 191, -6, 372, 945, 
    116, -88, -94, 62, -147, 173, 35, 173, 
    37, -79, -1, 144, -103, 166, 643, -272, 
    -153, 24, 142, 88, 118, -166, -49, -164, 
    133, -104, 41, 185, -82, 185, -1180, 471, 
    -72, 107, -154, -196, -175, 152, -115, 50, 
    197, 171, -180, -177, 137, -140, 818, 657, 
    -82, 89, -12, -199, 67, -105, 176, 124, 
    61, -194, -165, 155, -114, 176, -612, -1694, 
    -154, -84, -14, 20, 24, 87, 115, -133, 
    22, 106, 38, -134, 146, -157, 458, 4635, 
    137, -53, -120, -140, -96, -124, 28, 132, 
    191, 20, 69, -31, -152, -107, 255, 1014, 
    105, -136, -163, 54, 207, 171, 72, 34, 
    -189, -129, 34, 33, 66, 80, -3588, -1933, 
    -182, -119, -42, -46, -8, 135, -205, -162, 
    -185, -57, 182, -141, 212, -162, -1114, -243, 
    -14, -99, -157, -9, 17, 47, -85, 164, 
    -169, 159, -4, -198, 1, -212, -986, 340, 
    -125, -13, -2, 58, 16, 140, -116, 79, 
    119, -204, 162, 158, 15, -127, -340, -1872, 
    94, -59, -121, -47, 206, 39, -82, -124, 
    -141, 90, 143, 144, 193, 27, -74, 6, 
    58, -131, -206, 10, 110, 161, 121, 207, 
    -162, -88, -159, -196, 137, 64, 800, -1093, 
    -103, -117, -107, 53, 163, -145, 50, -104, 
    42, 27, 186, 188, -191, 1, 158, 663, 
    -133, 147, 96, 159, 125, 143, -165, -78, 
    -122, -67, 141, 28, -86, 166, 2627, -891, 
    -161, 80, -80, -77, -138, -69, -38, -152, 
    -79, -71, -177, 33, 72, -171, -359, -781, 
    -68, -155, 111, -21, 35, -114, -151, 109, 
    42, -50, -212, 6, -202, 89, -649, -510, 
    118, 37, 185, -13, 176, 145, -171, 159, 
    -138, 193, -71, -153, -76, 104, 452, 292, 
    44, 194, 167, -79, 51, -42, -107, -161, 
    -35, -66, -171, -168, 45, 11, 120, -238, 
    -119, -153, 163, -96, 208, 212, -45, 15, 
    -201, 43, -177, -137, -105, 92, 961, -2517, 
    74, 174, -19, -164, 160, 152, 122, 180, 
    -34, 35, -159, 6, 35, 200, 842, -131, 
    -101, 77, -114, 47, 75, -118, -122, -15, 
    32, -197, 62, -197, 163, -193, -267, 951, 
    7, -175, -66, -164, -32, 102, 142, -118, 
    88, 50, 64, -195, -107, -163, 509, -2310, 
    -144, -182, -65, 45, 9, -100, -21, -21, 
    -97, -140, 154, 70, 70, -196, -898, 612, 
    134, -93, -186, 95, 107, 140, -89, -130, 
    -63, 135, 79, 98, 14, 56, -173, -588, 
    85, -191, 138, -100, -47, 152, -170, 170, 
    138, 130, 87, -141, 123, -198, -227, 1007, 
    21, -80, -125, -4, 188, -26, -209, 181, 
    25, 77, -206, -155, -15, -145, -1981, -2389, 
    -97, -84, 63, -172, 117, 177, -165, -215, 
    -173, 142, -138, 118, -92, 160, 661, 1235, 
    -69, -45, 123, -143, 159, 189, 200, 215, 
    -56, -163, 181, 6, 104, 148, -833, -1048, 
    -90, 60, -156, -208, -88, -33, 22, 21, 
    -24, -58, -16, -155, 118, -177, 3414, 624, 
    57, 212, 162, 211, -43, 113, -218, 104, 
    33, -176, -81, -17, 59, 10, 1053, 378, 
    -13, 132, -92, 186, 32, -116, -78, 105, 
    9, 146, -184, -28, -176, -150, 811, 1120, 
    133, -91, 13, -65, -98, -5, 144, -10, 
    173, 201, -68, 82, 38, -194, 2397, -96, 
    139, -175, 190, 195, 98, 49, 105, 13, 
    83, 85, -131, -103, -180, 130, 1490, 351, 
    147, -169, -174, -46, 35, -117, -109, 26, 
    67, 134, -140, 129, 70, 64, -514, 4073, 
    17, -191, 117, 160, 16, -136, -107, -155, 
    -59, 15, -46, 169, 4, 165, 41, -1128, 
    -148, -183, 103, -101, 204, 17, 67, 188, 
    -73, 217, 50, 44, 135, -139, -502, 2413, 
    -199, -36, -11, -12, -199, -8, 183, -192, 
    -24, -20, -195, -185, 111, -171, 2446, -1964, 
    -61, -51, 193, 108, -25, -12, 56, -193, 
    150, 142, 50, -82, 80, -81, -793, -1856, 
    -202, -82, -67, 84, 21, -34, -213, 82, 
    -50, -181, -148, 43, 195, -149, 1242, 176, 
    -87, -152, -104, 188, 177, -7, 27, 211, 
    -190, 157, 134, 205, 179, 138, 2121, 438, 
    36, 79, -31, 204, -102, -126, -165, 141, 
    -125, 210, -55, -121, -50, 72, -25, -1685, 
    113, -89, -114, 197, -190, -59, 108, -123, 
    159, -12, 200, 156, 131, -159, 1571, 2829, 
    -124, 219, 81, 179, -169, 178, -116, 89, 
    -217, -56, -142, 0, -47, 173, 252, -718, 
    133, 189, 173, 0, -7, -130, 99, -135, 
    -178, 82, -133, 131, 165, 138, 1475, 367, 
    -174, -54, 0, -165, -41, -168, -25, 55, 
    -184, 0, 143, -204, -161, -83, 711, -134, 
    -20, 73, -72, 148, -57, -12, 149, 77, 
    -184, -206, -41, -1, 118, 204, -715, 857, 
    175, 204, 84, -40, -104, 1, -50, 10, 
    -190, -71, -86, -83, -69, -65, 799, -973, 
    -188, 83, -104, -72, -69, 155, 51, -158, 
    88, 134, -110, -49, 78, -94, 697, 1894, 
    52, -155, -77, 121, 132, 204, -106, -49, 
    -135, -14, -105, -137, -172, 184, -1769, -1693, 
    157, 201, 34, 171, 7, 177, 3, -77, 
    184, -172, 20, 102, -184, -88, -598, 921, 
    -1, 159, 149, 173, 176, -146, -94, 16, 
    -134, -96, 149, -178, 170, 80, 569, -963, 
    -164, 65, 132, 179, -39, -184, -118, -185, 
    61, -5, 196, 141, 68, -142, -4427, -2980, 
    91, -42, 44, -179, 66, 154, 90, -107, 
    -55, -107, 176, -3, 131, 26, -250, 455, 
    84, -95, -77, -129, 24, 17, 27, -21, 
    -170, -81, -65, -137, -82, 109, -2473, -3383, 
    148, 64, 189, 149, -134, 24, 3, -78, 
    -103, -121, 41, -83, -15, 153, 11, -112, 
    156, 8, 32, -158, -45, -4, 122, 199, 
    -149, -109, 110, 131, -203, -75, -996, -3658, 
    99, -26, -107, 129, 113, -49, 55, 111, 
    16, 43, -150, -29, -136, 6, 1972, 461, 
    -23, 162, 6, 13, 134, 34, -79, -198, 
    -86, 22, 125, 94, -192, -13, -1631, 2362, 
    -197, 22, 46, -50, -152, -151, -37, 47, 
    141, -97, 67, 66, -33, -96, -276, 620, 
    -110, -142, 33, -21, -69, 21, -108, 156, 
    -68, -166, 32, 75, 34, 57, 1373, 168, 
    59, 41, -154, -36, -79, -131, -161, 45, 
    151, 47, -169, 61, 138, -129, -747, -2364, 
    23, 30, 90, -190, 84, -46, 102, 41, 
    133, 64, 107, 8, -106, -127, 2172, -1831, 
    -160, 158, -192, -69, -97, 85, -64, -9, 
    95, 149, -129, -140, -112, 75, -157, -517, 
    -9, 172, -2, -35, -147, -139, -156, 9, 
    -89, -52, 207, 132, -123, 23, 569, 1201, 
    -6, 41, 209, 154, 64, 23, -123, 63, 
    -1, 45, 72, -62, 102, 147, -917, -833, 
    138, 133, 53, -144, 15, -99, 26, -213, 
    151, 132, 127, 42, 41, -162, 265, 1281, 
    133, 88, 7, 135, -194, -169, -99, 21, 
    -98, -4, 196, 130, 118, -137, -2144, -760, 
    -121, -7, 65, -56, 190, 16, -196, 24, 
    -17, 207, 142, -145, 96, -124, 720, 1540, 
    200, 90, 79, -66, -100, -181, -176, 84, 
    -109, -80, 178, 96, 191, 101, -617, 1116, 
    138, -16, 33, -171, -127, -78, 103, -137, 
    19, -179, 66, 150, 37, 211, -63, 1490, 
    -112, -6, -139, 121, 147, 99, 59, 170, 
    58, 147, -155, -177, 46, 74, -1495, 134, 
    -210, -121, 191, 168, -15, -66, -21, 107, 
    -180, 110, 185, -91, -137, 126, -581, 204, 
    -127, -90, 127, -106, 86, 8, -103, -59, 
    -206, 138, -190, -197, -174, 174, 806, -161, 
    66, -40, -182, -24, 204, 183, -142, 57, 
    -72, 154, -83, 138, 143, -88, 568, 1877, 
    -30, -31, 47, 67, -191, 204, 45, -173, 
    -151, 103, 45, 186, 192, -113, 1843, -3162, 
    21, -21, -154, 85, -119, 0, 31, -23, 
    211, -155, 214, -13, 110, 115, -95, 2208, 
    -142, 122, 134, -122, 61, -119, -175, -149, 
    78, -158, -144, 45, 162, 63, 529, -2224, 
    -187, -91, -46, 204, 73, 135, -48, 106, 
    -154, 159, 178, -77, -104, 89, -538, 165, 
    -9, 27, -152, -196, -143, 18, 26, -151, 
    -146, -42, -85, -116, -39, 38, -3343, 2936, 
    46, -90, 80, 44, 59, -65, -20, -37, 
    -34, 153, -46, 128, -134, 82, -1873, -1, 
    97, -14, 117, 158, -115, 165, 162, 31, 
    -93, -156, 168, -175, -66, 190, 56, 1378, 
    -82, 37, -191, -63, -199, 168, 39, -64, 
    -175, 207, 126, -22, -163, -5, 1580, -953, 
    -89, -149, 209, 68, 173, -160, -188, -165, 
    -189, 148, -62, -85, 82, -185, 1368, 396, 
    -180, 71, 127, -211, 93, -30, 36, 49, 
    4, 26, 217, -95, 241, -37, 1657, -745, 
    159, -215, 206, -128, 43, -152, 208, 139, 
    66, -110, -202, -128, -221, -5, 1516, -1750, 
    -164, -117, 198, 219, -243, -84, -68, 87, 
    20, -10, 20, -6, -200, 78, -2431, 977, 
    45, -115, 153, -113, 83, -187, -39, 131, 
    142, 96, -48, -141, 200, 115, -1671, 243, 
    -164, 141, 206, 99, -199, -91, -187, -53, 
    184, 145, 106, -112, -119, 148, -1009, -2821, 
    172, -145, -168, 179, 73, 134, -64, 236, 
    -206, 85, -14, -234, 147, 238, 614, -411, 
    88, -71, 236, -201, -87, 177, 143, 225, 
    110, -176, 42, 188, -13, -109, 667, -2856, 
    133, -214, -6, -140, 43, 75, -197, 244, 
    167, 112, -101, -201, 96, -89, 850, 908, 
    -22, 102, 0, 135, -131, 77, -172, -91, 
    -182, 223, -103, 96, 231, 151, -2255, 123, 
    212, 64, 207, 68, 62, 62, 42, 191, 
    -192, -80, 105, -132, 103, 92, -1299, 2449, 
    -139, -83, 103, -90, 40, 12, -56, 33, 
    -194, -35, -195, 161, -19, -147, -3182, 560, 
    109, 46, -181, -218, 63, 156, -190, -147, 
    -60, 195, 125, 149, 19, 235, -1288, 1405, 
    -91, -236, 235, 196, 111, 205, 26, -22, 
    2, -163, 7, 109, -61, -100, 495, 2581, 
    10, -186, 54, -137, 122, 170, -76, -187, 
    -143, -123, -30, 138, -217, -127, -1318, 42, 
    213, -201, -180, 221, 51, 76, 181, -35, 
    163, 40, -119, 226, 192, -74, -525, -1879, 
    -13, 96, -181, 111, -221, -130, -91, -107, 
    152, 45, 23, -65, -173, -234, -73, -2923, 
    -159, -149, 188, -158, 73, 35, 122, 170, 
    25, -64, -161, 219, 37, -33, 2754, -1388, 
    -49, 118, 23, -94, 130, 137, -23, 113, 
    -100, -13, -70, -64, -128, 114, 3055, -2244, 
    161, 138, -45, 198, 152, 133, 136, -177, 
    216, 137, 61, 192, -143, -69, -2339, -320, 
    -199, -5, 142, 206, -128, 154, 193, 198, 
    146, 202, -7, 171, 173, 48, 1157, -2785, 
    120, 17, 33, 190, -96, -184, -115, -112, 
    180, 108, -62, -180, -110, -175, 3921, 1097, 
    0, -34, -25, 84, 183, -124, 50, 65, 
    -212, -29, 103, 90, -11, 147, -2862, -1523, 
    31, -18, 166, 182, -100, 198, 0, -204, 
    -133, -8, -61, 142, 99, 176, -2512, 1912, 
    -40, 121, -203, -71, -124, -111, -124, 81, 
    -109, 102, -152, -182, -79, -98, 854, -1840, 
    -128, 154, 129, -156, 109, -70, 27, 149, 
    112, 182, 140, 56, 185, -59, -1100, 578, 
    103, -37, 45, -210, -175, 119, 164, 134, 
    127, 16, 129, 71, -161, -6, 851, 206, 
    -77, 138, 49, 169, -13, 44, -62, 71, 
    71, 136, 49, 5, 27, 151, -23, 942, 
    -138, 23, -16, -186, 13, -65, -198, -108, 
    194, 55, 15, 177, -209, 72, 327, -271, 
    175, -201, -15, 27, 55, 87, 92, -175, 
    14, -7, 126, 130, 53, 139, -335, -1099, 
    209, -41, -8, 170, -9, -176, 23, -149, 
    160, -94, 176, -136, -104, 152, -266, 2515, 
    -81, -21, -44, 201, 78, 49, -13, -115, 
    -105, -104, -170, 18, 201, -81, 2551, -2362, 
    -126, -39, 87, -105, 135, 114, -114, -92, 
    -56, 89, -136, 45, -158, 160, -506, 335, 
    146, 176, -159, -68, 146, -190, 9, -119, 
    23, -140, -110, 194, 181, 106, 362, -1714, 
    132, 135, -52, 145, 104, -14, 23, 4, 
    62, 84, 74, 67, 147, -199, -1238, -501, 
    139, 138, -162, 42, 183, -89, 207, 171, 
    -204, -189, -64, -97, 15, 44, -733, 1864, 
    177, -34, 11, -10, -1, -142, -144, 73, 
    -113, -58, 70, 141, 131, 180, 1165, -674, 
    147, 144, -28, 7, 82, -44, 66, 129, 
    -141, -211, 150, -199, -201, 103, 1612, -2681, 
    -97, -159, -178, -131, -74, 0, -161, 114, 
    -147, -209, -27, 158, 84, -51, -1938, -404, 
    207, 202, -159, 183, 83, -173, 129, -39, 
    24, 3, 134, 107, -76, 9, 368, -946, 
    -137, -57, -123, 4, -24, -116, 66, -84, 
    135, -50, 79, -17, 76, 46, 2827, -1292, 
    -162, -9, -109, 130, -186, 176, -72, 12, 
    -53, -74, 3, -20, -112, 24, -1488, -1265, 
    -108, 165, -40, -80, 82, -161, -48, 123, 
    61, -19, 165, 163, -123, -190, -724, 1996, 
    53, 35, 167, -146, 95, -120, 10, -126, 
    181, -189, -60, -43, -54, -30, 27, -168, 
    171, -161, 96, -189, 89, 198, 133, 137, 
    176, 187, -4, 14, 82, 150, -1320, 363, 
    -105, -77, -90, -83, 144, -123, 190, -111, 
    -38, -196, 6, -122, 86, -42, -1960, 1336, 
    -149, 125, -74, 105, 5, -116, 139, -28, 
    193, -68, -104, 145, -140, -21, -1039, -1570, 
    70, 120, 36, 189, -157, 48, -82, -107, 
    -165, -1, -21, -159, -157, 167, 742, 1798, 
    -11, 11, -109, -145, -84, -46, -188, -163, 
    -65, -188, -33, 132, -67, 122, -2713, 1172, 
    -148, 127, -132, -133, -142, 148, 67, -177, 
    56, -38, 147, -152, 35, -176, -3718, -806, 
    -79, 174, -192, 51, 75, -36, -16, -83, 
    -8, -169, -60, 163, -145, -178, -999, 937, 
    19, 192, 74, -156, 19, 29, -68, 147, 
    72, 160, -54, -109, 186, -131, -1748, -1015, 
    -46, -64, -138, 16, 187, 163, 181, -31, 
    115, 166, -41, 195, -189, -10, -1379, -748, 
    55, -6, -151, 84, 54, 183, -89, 39, 
    -55, -8, 106, -29, -169, 189, -70, -1727, 
    -118, 179, -133, -51, -64, -65, -15, 145, 
    153, -135, -173, 172, 4, -64, 454, -547, 
    -49, 160, 171, -29, 100, -164, -196, 192, 
    113, 167, 90, 190, 18, 43, -1078, -1677, 
    76, -108, 22, 4, 13, 24, -172, 142, 
    178, 80, -173, 53, 175, -153, 1735, 4563, 
    -176, -185, -142, 106, 26, -134, 15, 189, 
    -36, 151, -166, -34, -184, 163, 164, -44, 
    -90, -151, -72, 115, -32, 187, -105, 170, 
    8, 193, -95, -68, -163, -27, -835, -202, 
    0, -164, -74, -134, -180, 8, -78, 40, 
    -120, -125, -24, 15, -163, 68, 570, 304, 
    105, -50, -136, -181, -184, 176, 119, -160, 
    100, 92, -156, 155, -194, -153, -621, -1152, 
    153, 39, 83, -164, -121, -170, -95, -91, 
    -108, 144, -118, -18, 103, -110, 2853, 1452, 
    127, 93, -3, -26, -15, -48, 123, 188, 
    -145, 22, 17, 75, -16, -181, -1163, 298, 
    -118, 43, 156, 116, -114, -33, -181, 148, 
    -119, 110, -150, -69, -49, -183, -713, -2234, 
    -27, -14, 40, 175, 8, -112, -80, 113, 
    173, 135, 131, -17, -171, -153, 1902, -29, 
    46, 136, 162, -165, 91, -120, -174, -185, 
    73, 95, -178, -2, -69, 116, -789, -963, 
    127, -29, 94, -11, -111, 4, -15, -146, 
    -21, -1, -186, 104, -129, -94, 1589, 1185, 
    78, -120, -99, -26, -133, 13, 131, 187, 
    -34, -141, -16, -141, 7, 45, 1664, 221, 
    2, -8, -110, -25, 119, 69, 9, -68, 
    -22, -43, 40, -43, 12, -168, -353, -723, 
    117, -15, 115, 106, 119, -101, 146, -186, 
    -32, -58, -168, 82, 4, -150, -908, -879, 
    -52, 27, -165, 169, -180, 4, -83, 15, 
    -13, 46, -8, -159, -77, -182, 1164, 831, 
    -5, 66, -37, 179, -112, 144, -60, -31, 
    -115, 168, -175, -131, 97, -9, 931, 634, 
    6, -188, -33, -84, -32, -118, 77, -188, 
    -17, 18, -91, 177, 12, 117, -301, -1220, 
    -42, 80, -113, -140, 60, 93, -82, -148, 
    -110, -185, 109, 145, -182, 60, -172, -1463, 
    -152, -101, -133, -57, 60, -12, 30, -179, 
    -40, 136, 163, -22, 28, -76, -651, -3808, 
    38, -75, 30, 69, 114, -11, 84, -48, 
    26, -138, 119, 97, 45, -53, 30, -2798, 
    -8, -181, 72, 131, 119, -39, -62, -89, 
    6, 142, 79, -80, -161, 3, 1072, 817, 
    120, -26, 98, -19, -30, 137, -111, 33, 
    -184, -98, 14, -14, 171, -140, -1883, -941, 
    91, 163, -186, 33, -43, 24, -49, -104, 
    -119, -127, -156, 4, 124, 131, 1448, -889, 
    -187, -142, 181, 33, -85, 47, 176, -21, 
    73, 31, 137, 0, -182, 143, -1247, 701, 
    168, 66, -83, 91, -45, 117, 162, 61, 
    -158, -170, -175, -159, -19, -23, -503, -2705, 
    -57, -193, -188, -178, -75, -127, -112, -29, 
    196, -33, 147, 103, 146, 4, -3475, 675, 
    117, 23, 0, 178, -246, 189, -69, -32, 
    19, 22, 248, 101, 182, -224, 641, -485, 
    101, -198, -214, 158, 172, 129, 96, 66, 
    -197, 65, -150, 214, 219, 209, 396, 256, 
    182, -75, 67, -130, -205, -15, -151, -119, 
    79, 183, -107, 95, 224, 49, -804, 669, 
    -159, -192, -217, -35, 170, -153, -229, -73, 
    232, -184, 116, 53, -155, -38, -1416, 3421, 
    51, -163, -50, -43, -253, -238, -219, -256, 
    -110, -19, -238, -213, 108, 242, -1320, 455, 
    207, 2, -223, 54, -244, 87, 170, 219, 
    -233, 241, 31, 171, -28, 108, -2372, -594, 
    86, -196, 56, -47, -227, -156, 28, 44, 
    -116, 150, 211, -172, 100, -174, 141, 17, 
    -87, 238, 166, 85, 13, -206, -13, -234, 
    107, 44, -74, -186, 187, -225, 1954, -391, 
    -117, -187, -101, 86, -249, -56, -11, -229, 
    -95, -119, -127, 253, -174, -139, -2703, -1002, 
    233, 246, -255, -197, -142, 192, -48, 167, 
    250, 132, -31, 68, -157, 25, 1866, 574, 
    58, 20, 185, -169, 210, 38, -244, 129, 
    211, -144, -122, -49, -217, -214, 597, -2636, 
    52, -59, 253, -215, 122, -58, 11, 131, 
    -252, 107, -210, 186, 0, 73, 2858, 964, 
    30, -132, 65, -76, -106, 10, -143, -140, 
    53, -156, -112, -233, -14, -120, -240, 271, 
    26, -238, -16, 95, -159, -175, 100, -126, 
    98, 145, 90, -177, 45, 30, -815, -2600, 
    105, -6, -91, -214, -140, 159, 183, 4, 
    -232, -33, -114, -62, -21, 83, -188, 465, 
    177, 5, -167, 0, -62, -146, 38, -2, 
    164, 0, -116, -64, 106, -54, -1553, -1784, 
    153, 80, 50, -255, 221, -110, 105, 20, 
    242, 96, 146, -136, 74, 105, 365, 3168, 
    -186, -156, -44, 116, 59, -144, 227, 230, 
    192, -52, -210, -207, 54, -194, -4631, 2710, 
    83, 204, -150, 165, -251, 56, 130, -145, 
    -104, 218, -112, 1, 106, 247, -3706, 497, 
    -287, -290, 241, -27, -248, -292, 202, -258, 
    280, -115, -209, -188, -289, -85, -59, -1116, 
    -188, 259, 289, -271, 249, -199, 108, -274, 
    -193, 174, -275, -10, -300, -218, 105, 43, 
    232, 305, -92, -99, 94, -186, 2, 257, 
    -236, 151, -61, -284, -286, 57, 74, -405, 
    178, 0, 0, 135, -78, 113, 138, 142, 
    179, 265, -111, 258, 219, 84, 18, -524, 
    153, 289, 102, 102, -157, 84, 263, 206, 
    171, -256, 254, 283, -159, 19, -232, -3007, 
    149, -255, 290, -167, -222, 294, 41, -55, 
    87, 101, -240, -252, 288, -249, -81, 3336, 
    -16, -167, -268, -40, -47, -119, 256, 141, 
    -60, -126, -19, -9, 172, -258, 205, -299, 
    201, 125, -123, 39, -33, -220, -302, 270, 
    -296, -220, 2, -188, 294, 195, -36, -2406, 
    275, -108, -1, -125, 201, 298, -229, 290, 
    95, -29, 38, -251, 231, -239, -72, -736, 
    -275, 142, 27, -115, -11, -204, -34, 70, 
    -51, 95, 13, -140, -254, 217, -37, -1907, 
    290, -264, 82, 158, -113, 57, -271, 222, 
    20, -223, -197, 136, 37, 161, 198, 411, 
    -196, -230, -223, -50, -193, 270, 196, -55, 
    -289, 86, -140, -33, -189, 92, 221, 3481, 
    6, -172, -204, -222, -290, 0, 153, -82, 
    183, 143, 158, 13, 233, 168, 141, -5091, 
    -246, 102, -53, -112, 108, -86, -129, 302, 
    69, 253, -193, 2, -83, 183, 104, -580, 
    56, 5, -240, 58, -183, -48, 231, 88, 
    151, -289, 167, 270, -281, -104, 252, 2807, 
    -280, 260, -198, -155, -124, 95, 93, 72, 
    -208, -203, 299, -182, -252, -132, -105, -569, 
    162, -36, 166, 101, -99, 164, -254, 66, 
    244, -142, 120, 261, -175, -16, 221, -711, 
    -135, -50, -152, -192, 247, -205, 262, 68, 
    -215, 128, -43, 243, -145, -134, -15, -4039, 
    -14, 47, 193, 69, -81, -263, 206, -77, 
    -233, 238, -223, 104, 49, -215, 115, 485, 
    -93, 224, -170, 115, 199, 199, 199, 190, 
    129, -26, 235, -172, -146, -102, 139, 595, 
    243, -83, -177, 198, 171, -69, -232, 86, 
    -68, -64, -261, -1, -108, 97, -189, 2250, 
    223, -107, -76, -196, 62, -55, 218, 225, 
    205, 213, -180, 136, 18, -184, -43, 1627, 
    86, -193, -203, -7, -85, -154, 179, -69, 
    -136, -31, 211, 35, -247, -259, -222, -3893, 
    -167, -104, 148, 228, -263, -67, 35, -196, 
    132, -94, -177, -127, -207, -182, 13, -173, 
    -219, -30, 121, 113, 153, -27, 111, 152, 
    132, -192, 110, 267, -255, -67, -246, -2655, 
    84, 15, 9, -37, -154, 188, 242, -27, 
    103, -211, -255, 197, -65, -75, -34, -1222, 
    249, -223, 160, 154, -126, 260, 69, 203, 
    152, 8, -101, -251, 95, 119, -185, 2540, 
    247, 86, 227, -120, -251, 55, 153, 69, 
    215, 3, -129, 218, 194, 156, 176, 1647, 
    -105, 169, 151, -229, 169, -101, -161, -140, 
    107, -108, 90, 155, -258, 34, -267, -1087, 
    -144, -73, 130, -27, -258, -174, -58, 35, 
    -126, -217, -146, -54, 33, 149, 136, -316, 
    -253, 159, -259, 214, 192, -65, 84, 110, 
    -65, 187, 89, -32, -147, -67, 4, -1170, 
    2, 18, 121, 129, 255, -32, 187, -34, 
    38, -80, -269, 31, 52, 205, -110, -882, 
    45, 387, -94, -12, -378, 76, 92, 97, 
    254, -263, 337, 185, 21, 414, 92, -2625, 
    -183, 173, 128, 27, 250, 408, -404, 103, 
    336, 181, -3, 299, 152, 206, 215, 1283, 
    -301, 40, -412, -329, -102, -237, -418, -320, 
    -243, 414, 64, -332, 283, 17, -93, 866, 
    -302, 167, 166, -389, 408, 185, -166, 18, 
    -146, -403, 29, 13, 190, 150, 124, 3292, 
    42, 235, 21, -162, -36, 1, -95, 266, 
    -171, -197, 267, 173, 242, 115, -105, -2214, 
    409, 62, -417, -286, 369, -61, -191, 159, 
    233, 284, 306, -126, -399, -421, 221, -223, 
    -406, -309, 379, -206, -213, 402, 5, -191, 
    -30, 177, 51, -387, 142, 155, 203, 5454, 
    406, -203, -129, 176, -12, 221, -48, -86, 
    -220, -140, 56, -249, -270, -127, 136, -1743, 
    317, -240, -232, 313, -415, -349, 76, 173, 
    324, -413, -7, -317, -77, -43, 343, 226, 
    106, 56, 107, 36, -345, 184, -415, -33, 
    -27, 164, 286, 82, -204, -314, -304, -3339, 
    -411, 380, -60, 254, -169, -188, -410, -8, 
    248, -136, -91, -118, -146, -406, -298, 2161, 
    -153, -132, 398, -10, -310, 157, 202, 125, 
    290, -215, 91, -404, 146, 363, 140, 3294, 
    221, 234, 283, -114, -106, 19, 167, 213, 
    58, 3, 269, 252, -111, -249, -249, -246, 
    -15, -244, 347, -187, 131, -390, 193, -238, 
    205, -325, 253, -344, -96, 100, 263, 714, 
    360, 83, -121, -27, -102, -204, 178, -218, 
    355, -44, 19, -311, -53, 184, 249, 2341, 
    423, 379, -339, -211, 214, 156, 196, -258, 
    413, 80, 364, 352, 149, 216, 308, -3829, 
    -86, -97, 231, 84, -36, 93, -11, 115, 
    102, 85, -31, 283, -298, 108, 0, -2635, 
    -212, 12, 103, 190, -56, 291, -36, 2, 
    -20, -223, -69, 224, 4, -51, 180, -3349, 
    -295, 281, -210, 288, -137, -287, 24, 271, 
    121, 206, -108, -60, 180, 105, 204, 2042, 
    -209, 62, -179, -228, -281, 103, -207, -210, 
    -165, -126, -214, 176, 278, 119, 143, 1346, 
    298, -289, -273, 234, -102, 281, 275, 109, 
    3, -38, -66, -179, -266, -175, 94, 697, 
    286, -85, 161, 78, -75, 262, -277, 274, 
    -188, 203, -287, -269, -202, 31, 102, 601, 
    53, -123, 19, 263, -132, 262, -6, -178, 
    190, 276, 130, 252, -256, -293, 57, 822, 
    -22, -185, 84, -282, -290, -140, 126, 44, 
    -134, 260, -231, -29, 126, -8, 208, 1277, 
    269, -36, -230, -125, 174, 9, -146, 244, 
    -54, 0, -22, 96, 286, -22, 63, -2689, 
    131, -96, 115, 264, -94, -263, 2, 108, 
    106, -72, 176, 41, 111, -6, 290, 168, 
    -36, 278, 14, 179, 150, -164, 103, 166, 
    -7, 132, -274, -124, 231, 221, -266, -678, 
    -149, -275, -3, 116, 247, -175, 250, -44, 
    162, 166, 146, 215, -107, 269, 203, 3082, 
    -50, -271, 249, -117, -231, 192, 12, 20, 
    110, -10, 55, 80, 81, 260, -120, 2829, 
    -174, -79, -25, -64, -269, -46, -110, 302, 
    52, -9, 262, 178, -303, 54, 214, -1718, 
    -258, 256, -116, -255, 164, -38, -203, 218, 
    -232, 285, 223, -252, 51, -169, 162, -817, 
    161, -86, -150, 297, -82, 288, 300, -59, 
    -50, -93, 124, -86, 29, -163, -165, -458, 
    -77, -99, 131, -64, -148, -52, 76, 16, 
    149, -139, -139, 112, -64, -37, 23, 262, 
    -19, 4, -132, -4, -72, -109, 105, -78, 
    88, -17, 132, -15, -43, 93, 130, 943, 
    5, 107, 64, 18, -19, -150, -93, 67, 
    -125, 147, -93, 82, -59, 134, -15, 963, 
    11, -13, 120, 89, 116, -151, -14, -105, 
    53, 105, 150, -23, 5, 139, -39, 551, 
    40, -68, -99, -46, 116, 1, 5, 78, 
    65, 54, 106, 92, 139, 29, -114, -1467, 
    138, 0, 29, 107, 129, -29, 48, 129, 
    -29, 99, -74, -150, 147, 101, 121, 851, 
    -59, 140, -114, -19, 31, 132, -21, 133, 
    88, 134, 42, -75, -94, -85, -152, 643, 
    143, -87, 20, -125, 23, 16, -71, 84, 
    44, -123, -6, -102, 148, -114, 31, -984, 
    -93, 98, -82, -37, -65, -48, 0, -14, 
    -57, 18, -95, 76, 91, 47, 12, 433, 
    -15, 52, -131, -74, 53, 50, 126, 7, 
    -134, 143, -139, -64, 60, 120, -137, -1904, 
    -27, 72, -145, 145, -131, -103, -151, 88, 
    -57, 132, 118, 101, -126, -152, -91, 868, 
    -132, 73, -15, 105, -152, -109, -74, -47, 
    100, -33, 36, -101, -137, -121, 0, 459, 
    -89, 17, -114, 96, 142, -83, 122, -76, 
    110, -118, -20, -25, 65, -124, -149, -697, 
    -89, 1, 7, -99, -129, -142, -39, 108, 
    -70, -108, 82, 22, 119, -82, 142, 898, 
    -9, 123, -73, -140, -111, 81, 140, 53, 
    39, 112, 123, 2, 36, 79, -130, 830, 
    50, -115, 91, 121, -130, 50, 76, -76, 
    -89, 59, 19, 45, -47, -7, -45, -1084, 
    217, 191, -265, 372, 185, -194, 31, -226, 
    -166, -8, 219, 366, -101, 94, -152, 2356, 
    378, -37, 274, -222, -185, 28, -171, 385, 
    -377, 188, 212, -336, 121, -206, 10, -5645, 
    376, 176, -159, 38, 151, -295, -395, 100, 
    -281, 56, -307, -274, -239, -192, -41, 24, 
    -246, -403, 321, 30, -288, -146, 32, 280, 
    -85, 313, 189, -146, -173, 313, -292, 1310, 
    -288, -115, 48, 197, -132, 197, -202, -79, 
    150, 383, -371, -42, 244, -264, 327, 2138, 
    298, 86, -1, -187, 17, -88, -310, -10, 
    398, 290, 224, -240, 155, -200, -298, 724, 
    -80, 344, 168, 207, 322, -186, 278, -260, 
    109, -118, -51, -113, 137, -62, 388, -3735, 
    222, 384, 344, 14, 304, 107, 33, 227, 
    -92, 1, 244, 329, -163, 363, 0, -4793, 
    322, -202, 217, 37, 118, -347, 230, -147, 
    -173, 284, -57, 238, 231, 45, -279, 1206, 
    164, -274, -252, -320, -118, 279, 123, -204, 
    -106, 382, -345, 104, 211, -79, -212, -569, 
    -91, -80, -62, 29, -230, 117, 158, 102, 
    -59, 145, -342, -376, -277, -13, -303, 1326, 
    329, 149, 78, -206, 146, 207, -348, -250, 
    -184, 293, -256, 211, 121, -349, -190, 3790, 
    -214, 378, -92, 345, 68, -22, 21, 331, 
    271, 12, 9, 115, 70, -185, -294, -1543, 
    -13, -286, -324, -248, -142, 114, -404, -28, 
    -340, -324, -285, -45, -362, -324, 238, 1074, 
    -2, 54, 169, 75, 404, -308, -261, -65, 
    -227, 212, -316, -246, 333, -169, 123, 2984, 
    -150, 128, -75, -22, 12, 268, -32, 66, 
    275, -290, -34, 138, 104, -218, -231, -451, 
    -8, -4, 120, -132, 210, 21, -221, -144, 
    -4, -175, 185, -199, -9, 195, 186, 523, 
    -63, 25, 69, 67, 82, -155, -42, -38, 
    49, -195, -49, -21, 140, -199, -99, 767, 
    -207, -6, -88, 142, -145, 76, 125, -151, 
    7, -7, 65, -33, 214, -197, 155, 505, 
    50, -190, -5, 39, 62, -156, 128, -60, 
    109, 61, -55, -78, 16, 224, 120, 328, 
    110, 166, 109, -94, -18, 25, 132, -67, 
    38, 104, 206, 220, 12, -131, -129, 450, 
    -22, 68, -49, -54, 119, -210, -158, 73, 
    -189, 117, 214, -95, -193, 92, -180, 1219, 
    -81, 165, -160, 84, -38, -118, 167, 5, 
    94, -190, -137, -201, -178, 173, 140, 1585, 
    -144, -78, -22, -68, -127, 18, 94, 146, 
    8, 30, 78, -165, 152, -183, 212, -536, 
    -120, 25, 117, 29, 200, -15, -153, -105, 
    3, -16, -176, 59, -44, -163, -167, -64, 
    -76, -161, -54, 80, -139, -196, -148, -170, 
    -80, 13, -149, -76, -75, 192, 51, -1727, 
    152, 99, -180, 164, 224, 161, 48, 24, 
    -30, 62, 139, -109, 223, 16, -138, 69, 
    64, -198, -49, -71, 219, -60, -176, -7, 
    58, -196, 129, -111, -16, 148, 218, 3072, 
    138, -70, 170, -94, 108, 8, -151, 213, 
    -201, 62, 212, -207, -143, -51, -63, -5795, 
    -49, 150, 1, 17, 114, 79, 185, -112, 
    27, -12, 14, 62, 34, -96, 178, -571, 
    123, -112, -136, 209, 49, -44, 215, 41, 
    -151, -156, 132, 45, -58, -142, 165, 1374, 
    -186, 85, -117, 146, -207, -179, -60, -169, 
    -94, 86, -16, 213, 59, 224, 102, -316, 
    -38, 34, -162, 257, -213, 118, 178, 226, 
    7, 195, 270, 47, 149, 18, -159, 3524, 
    277, -233, 35, -226, 196, -55, -72, -29, 
    169, -245, 34, -207, 210, -27, -98, 419, 
    -224, 66, -52, 132, -30, 185, 97, -111, 
    -258, -59, -61, 95, -180, 125, -206, -731, 
    178, -89, -183, 260, -128, 20, 208, -160, 
    -179, 147, -2, 104, 142, 240, -179, -1113, 
    -120, -54, 180, -215, 146, -112, -114, -63, 
    267, 215, 122, -201, -253, -116, 144, -1471, 
    282, -92, 132, 224, -193, -3, -151, -7, 
    115, 152, -252, -101, -29, -271, 82, 1871, 
    282, -120, -273, 121, -150, 224, -143, 96, 
    -18, -189, -193, -162, -63, -103, 42, -5757, 
    51, 234, 78, -152, 272, 181, -38, -92, 
    -61, -267, -215, -55, 52, 257, -208, 966, 
    -245, -113, 25, 141, 259, 22, -46, -162, 
    -12, 219, 96, 267, -31, -200, 47, -1188, 
    -187, -147, -91, 98, -181, -153, 178, 161, 
    24, 210, 111, -153, -114, -56, -262, 1620, 
    -116, -57, -162, 103, 62, 65, 41, -40, 
    -201, -190, 241, -2, -176, 236, 178, 987, 
    63, -243, -109, -16, 134, 210, 20, -265, 
    152, -21, -102, 30, -46, -209, -182, -1484, 
    188, 166, 93, 37, -92, -154, -211, 3, 
    164, 208, 213, -217, 159, 164, -294, 408, 
    101, -42, 264, -231, 53, 196, -239, 239, 
    -71, 27, 191, 286, 190, 170, 280, 341, 
    60, -7, 86, -285, 167, -198, -23, 235, 
    -219, -127, -105, 259, 129, 11, -231, -1303, 
    -271, 224, 0, 9, 15, 48, 246, -127, 
    -195, 69, -225, -138, 291, 179, -69, 1643, 
    218, 3, -109, 77, 292, -171, 4, 111, 
    142, -143, 312, -191, 265, 308, 176, -314, 
    -181, -76, 21, -79, 230, -271, -3, -237, 
    318, 279, 131, 270, -22, 206, 150, 201, 
    223, -40, 201, -327, -12, 321, -166, 260, 
    -107, -94, 34, 192, -249, -220, 49, -425, 
    -252, 46, -319, -157, 123, -41, 56, 80, 
    -67, -278, 100, -177, 154, -239, 295, -41, 
    311, 228, -302, -159, -123, 296, -118, -31, 
    94, -139, 204, 76, 268, 291, -234, 409, 
    133, -268, -84, -198, -203, 105, -174, -208, 
    113, 12, -179, -47, 105, 62, 189, 7468, 
    71, -214, -63, 56, -56, 266, 245, 133, 
    189, 287, -23, -213, 77, 113, -61, 1720, 
    -324, 161, 87, -231, 87, -149, 301, -13, 
    -106, 127, -254, 169, 21, 293, -118, -1790, 
    -96, -27, -270, 155, -43, -271, 6, 158, 
    -297, -62, -49, -4, 41, 78, -261, -37, 
    -115, 45, -25, -276, -245, 297, 166, 152, 
    266, -325, 106, 103, 273, -327, 185, 76, 
    103, 277, 285, -5, -66, -63, -61, 290, 
    8, -38, 297, -281, -145, 66, 99, -512, 
    307, 261, 67, 253, 49, 96, 103, -271, 
    87, -193, -313, -72, 274, 251, 286, -1720, 
    192, -282, 169, 327, -111, 118, -202, 296, 
    195, -313, -285, -150, 296, -128, 310, -231, 
    -50, -259, -194, 88, 33, 48, -24, 198, 
    -291, -130, -154, -296, -236, 61, 55, 3745, 
    239, -40, 213, 92, 16, -197, -228, 305, 
    185, 3, -265, 214, -8, 94, -268, -1386, 
    -9, 202, 25, 305, 212, 180, -87, 146, 
    -181, 186, 302, -303, -10, 79, -252, 729, 
    -302, 129, -212, -152, -53, -23, 130, -317, 
    -34, -58, 182, -325, -328, 363, -76, 2406, 
    -312, 137, 121, -214, -191, 202, 242, -55, 
    -266, -97, -10, -75, -374, -247, 195, -2973, 
    -280, 147, -19, -300, 340, -151, -298, -162, 
    -124, -149, 184, 242, -299, -46, -46, 2205, 
    -286, -208, -319, -330, 260, 30, -152, -267, 
    -151, 360, -123, 276, -84, 285, 363, 448, 
    -289, 293, -252, 279, 323, 221, -329, -207, 
    -137, 270, 119, -95, 199, 214, 281, 560, 
    -268, -187, 164, 258, 25, -52, 180, -270, 
    -42, -121, -242, 294, -253, -183, -102, 4827, 
    -74, 75, 156, -1, 107, -132, -46, -291, 
    130, 108, 310, 126, 88, 308, 235, -5580, 
    228, 77, -272, -154, -279, 339, 190, -158, 
    -334, 63, -59, -306, 338, -179, 34, -3076, 
    -141, 166, -331, 20, 321, 11, 183, 184, 
    -98, -32, -47, -371, -372, -328, -271, -1768, 
    129, -145, -10, 65, 306, 369, 236, -143, 
    -372, 150, -235, 147, 55, 260, -279, 2370, 
    -295, -9, -341, -254, 374, -207, 192, -121, 
    165, -170, 258, 290, 140, -114, -135, 842, 
    364, -210, 267, -349, -151, 35, -56, 315, 
    -223, 327, 155, 310, 33, -72, -221, -1240, 
    98, 248, 212, -23, 97, 314, -105, -145, 
    -2, -104, 133, -91, 368, -149, 108, 2157, 
    344, -291, -331, -198, 221, -349, 170, 205, 
    -187, -344, -338, 337, -35, -180, 1, 2171, 
    102, 335, 115, 220, -210, -151, -302, 246, 
    10, 142, 271, 212, 180, 101, 338, 537, 
    -203, -256, 231, 361, 135, 277, -360, 255, 
    -177, 97, -134, -110, -105, 265, 27, 190, 
    54, -68, 90, -13, -100, -194, 221, -198, 
    274, 73, -214, 153, -33, -177, -185, 328, 
    -235, -125, 277, -162, -222, 229, 266, 118, 
    121, 146, 43, -218, -138, -30, 52, 1757, 
    36, -59, -238, 73, 111, -51, -125, -169, 
    24, -244, 175, -259, -35, -222, 77, 486, 
    137, -270, -49, -179, -249, 19, 70, -103, 
    119, -62, 186, 124, 263, -83, 224, -1575, 
    -183, 30, 162, -120, 95, 70, 176, -1, 
    135, -178, -229, 35, 116, -270, 82, -2646, 
    -136, 146, 276, 180, 11, -48, -191, -67, 
    -152, 70, -185, 1, 147, -227, -10, 1238, 
    147, -266, -203, 205, 116, 140, -187, 165, 
    -155, 122, -184, -28, 30, 1, -123, 1399, 
    -216, 35, -244, -58, -160, -34, -261, 138, 
    -248, 263, 275, -114, -229, 259, -119, 2531, 
    -264, 42, 36, -220, 109, -118, 107, -244, 
    106, -174, -66, 118, 178, 262, 207, 1170, 
    -159, -246, 141, 205, -274, 213, 163, 275, 
    -223, -29, -266, -145, 216, -55, -73, -2344, 
    -120, -77, -174, -51, -88, 212, 28, 31, 
    -77, -82, -55, 205, -274, -15, -192, 13, 
    -267, -128, 89, 34, 257, 182, 134, 93, 
    -68, -21, -110, 86, 151, -85, 142, 2318, 
    -2, -184, -75, -81, -173, -276, 104, -120, 
    -61, -266, -263, -151, -220, -60, -127, -1004, 
    221, -12, -260, -146, -20, -172, 154, -155, 
    148, -2, 55, 146, -139, -203, -71, -3252, 
    -74, 262, 176, 193, -203, 32, 270, -238, 
    22, 154, -136, -62, 79, 277, 98, 666, 
    -90, -206, 140, 200, -113, -132, 223, -176, 
    259, 75, -29, 141, 204, 225, 118, -475, 
    -81, 24, 206, 204, -330, 176, -53, 201, 
    -236, -256, 121, -82, -261, 306, -191, 962, 
    187, -87, 149, -276, -322, -291, -153, 148, 
    202, 160, -13, 122, -11, 342, 3, 1167, 
    105, -146, 328, 41, -158, 246, 268, -167, 
    39, 204, 271, -131, 223, 43, 116, 1891, 
    38, -285, -121, 129, 18, 25, 74, -215, 
    231, 57, -311, 45, 128, -13, -5, 3285, 
    184, -166, 181, 273, 20, 256, 79, 117, 
    -292, -226, -78, 122, 225, 62, 24, -905, 
    180, 38, -41, 41, 288, -317, -19, -302, 
    -186, 309, 226, 43, 165, 32, 127, -1222, 
    189, -213, 142, -166, -235, 302, -316, 309, 
    -223, -280, -103, 210, -83, -304, 266, 2128, 
    -26, -4, 7, 292, 101, 241, 320, -212, 
    54, -129, 327, -253, -95, 90, 15, 1272, 
    235, 47, -140, 199, 99, -300, 195, -190, 
    -165, 89, 186, 44, 302, -147, -287, -4190, 
    179, -225, -213, -102, 58, -62, 185, 271, 
    24, 85, 27, -227, 96, -49, -244, -2001, 
    93, -168, -213, -67, -6, -23, 340, 265, 
    -297, -161, -43, 215, 13, 294, -68, 1316, 
    -33, -298, -225, -190, 98, 283, -141, 285, 
    195, -318, 18, -221, -333, -23, -340, -2519, 
    91, -328, 80, -216, -325, 226, 53, -101, 
    -292, 8, -333, -299, -294, -253, 239, -827, 
    156, 152, 80, 48, 304, -254, -183, -101, 
    338, -123, -47, 103, 228, -292, -55, 2038, 
    -157, -292, 221, -50, -238, -100, 72, 43, 
    -272, 108, -279, -25, -276, 40, -254, 86, 
    -203, -5, 302, -178, -135, -267, -49, 116, 
    273, 198, 340, -307, 47, -189, 61, -202, 
    -187, 262, 106, -283, 35, 209, 251, -162, 
    -188, 41, 272, 141, -255, -94, 214, 2488, 
    96, -45, 167, 195, 209, -182, 1, -208, 
    176, 84, -188, -185, 169, 118, -17, -3478, 
    -27, -265, 59, 273, 286, 162, -205, -64, 
    -64, -13, -278, -172, 50, 70, -158, -2447, 
    52, 279, 68, -74, 61, 212, -177, -94, 
    -282, 57, -233, 221, -288, 257, -117, -1487, 
    -208, 40, 216, 216, 13, 69, 147, -174, 
    -170, -77, 219, 279, -155, 244, 181, -785, 
    -147, -85, -98, 233, -34, 82, -242, -3, 
    -173, 263, -125, 36, 240, 113, -43, -1035, 
    171, 279, -164, 157, 106, -46, -77, -139, 
    193, -208, 232, -19, -197, 204, -160, -2071, 
    -79, 282, -66, 201, 195, 132, -2, 135, 
    -78, 204, 150, -137, 218, -230, 91, 487, 
    -173, -185, 109, -209, -248, -63, -169, -90, 
    -140, 107, -150, 279, -54, 72, 46, 477, 
    96, 265, -34, -161, 256, 224, -131, -45, 
    193, 101, 293, 276, -69, 211, 10, 1258, 
    -244, 264, -25, 185, -161, -83, -82, -154, 
    153, -110, 289, 98, 8, 134, 201, 1850, 
    66, -104, 96, 15, 179, -269, -33, -251, 
    -145, -232, -285, -143, 240, -123, -179, -123, 
    133, 233, 2, 143, 133, -248, -41, 206, 
    -102, -91, -255, -207, 29, -33, -214, 10, 
    -6, 20, 147, 65, 220, -139, 164, 255, 
    -115, -11, -276, -88, 286, -68, -214, 3195, 
    41, 265, -221, -263, -84, -145, -1, -171, 
    -159, -66, 199, 39, 197, 19, 109, -544, 
    -133, 236, 173, 136, -251, 224, 189, 287, 
    42, 126, 191, 213, 49, -228, 82, -1632, 
    -211, -105, 36, -18, 144, 267, -209, 283, 
    296, 98, -252, -54, -190, 49, -1, 922, 
    -1, 41, -3, 206, -160, 54, -201, -57, 
    -177, -146, -194, -32, -123, 189, 153, -186, 
    222, 54, -248, 194, 167, 274, -298, 105, 
    -102, -200, -11, 214, -78, -285, -135, 1142, 
    -18, -2, -256, 327, 62, -210, -275, 307, 
    254, -250, 27, 116, 41, 256, -107, -2191, 
    33, 183, -77, 301, 177, 104, -207, -51, 
    -197, 0, 275, 4, 286, -171, -80, -3690, 
    191, -71, -245, -325, -267, -61, 44, -296, 
    -50, -314, -284, -77, 197, -301, -297, 335, 
    212, 62, 277, 159, -183, 87, -115, -228, 
    286, -33, -254, -62, -285, -180, -295, 1781, 
    -55, -157, 325, -11, -120, 53, 244, -14, 
    145, 136, 17, 232, 139, -183, -48, -1067, 
    -141, 285, 62, -291, 297, -160, -159, 169, 
    285, -314, 13, -1, 108, 246, -205, 893, 
    -24, -144, -254, 272, 69, 239, 1, -118, 
    130, 255, -180, -17, -279, -230, -152, -2259, 
    210, -303, -69, -262, -146, -175, -104, 112, 
    80, -20, -209, 4, -208, 124, -60, 3061, 
    -12, 150, 186, -196, -47, 31, 325, -136, 
    -119, -286, -130, -272, 220, -277, 216, 1299, 
    -328, 254, -318, 236, 216, 312, 6, 327, 
    -216, -235, 176, -13, 233, 287, 318, -1817, 
    -269, -194, -17, -111, 287, 79, 190, -5, 
    107, -269, -170, 75, 312, -147, -313, -1529, 
    -88, 236, -45, -321, -217, 56, 76, -234, 
    -44, 20, -218, -18, -89, -40, -297, 643, 
    -204, -305, 292, -21, 179, 188, -183, 69, 
    48, 129, -103, 124, -286, 189, -319, -4130, 
    -140, 213, -97, -27, -8, 142, 98, 86, 
    -67, 125, -61, -116, 77, -141, 117, 3508, 
    21, 138, -228, 193, 200, -25, -184, 29, 
    136, 231, 49, 47, -119, 233, -61, -345, 
    37, 115, 25, 227, 168, -175, -241, -153, 
    -179, 56, 166, 236, 18, -156, 114, -111, 
    12, -86, 146, 235, -160, -48, 67, -111, 
    -185, -4, -5, 231, -153, 226, 150, 654, 
    -231, 88, 16, -222, -129, -203, -206, 15, 
    211, 235, 120, -217, 207, 50, 235, -625, 
    201, 140, 76, -62, 221, 222, 237, -65, 
    83, -146, 24, -242, 210, -51, -62, 1207, 
    165, 83, 177, -49, 217, -77, -10, -192, 
    -103, 69, -138, 126, 87, 137, 192, -251, 
    -127, 31, 204, -188, 9, 234, 77, -201, 
    11, -23, 203, -99, -176, -76, -196, -1044, 
    -228, -47, 55, 41, -26, 107, 36, 200, 
    139, -178, 147, 158, -121, -29, -168, -740, 
    -14, 188, 54, -229, -151, -149, -147, 60, 
    163, 140, -57, 36, 111, -102, 207, 445, 
    -3, 79, 1, -175, -238, 95, 0, -193, 
    -198, 225, 2, -113, -44, -16, 155, -408, 
    68, -192, -172, 118, 52, -215, 136, -115, 
    -177, -136, -141, -135, 17, 169, -182, 1037, 
    -174, 80, -107, -77, -39, -10, 237, -163, 
    -153, -203, -25, 60, -50, 9, -99, -228, 
    -178, -219, 39, 169, -17, 79, 188, -127, 
    -65, -67, 186, -70, -56, 145, -40, 1140, 
    29, -100, -100, -158, 113, 78, 217, -222, 
    233, 5, 214, 130, -226, 226, -54, 1869, 
    155, -60, -94, -189, 115, 146, -213, 158, 
    -53, -188, -176, -108, -179, -201, 154, 1956, 
    -169, -47, -38, -311, -26, -67, -6, 110, 
    295, -55, 106, -58, 312, -292, 132, -702, 
    -65, -106, 258, 289, 145, -213, 193, 72, 
    -273, 85, -293, 183, 283, -64, 148, 856, 
    236, 243, 1, -14, 302, -237, 249, -187, 
    281, -199, -300, -295, 64, -301, 157, 3000, 
    107, -161, -158, -144, 182, -83, -205, 65, 
    -271, -119, 4, -121, 216, 179, 27, 2143, 
    294, 118, 280, 197, -266, -182, 1, 34, 
    -178, 304, 215, -321, -110, -295, -268, -1331, 
    -85, 27, 209, 224, -315, -140, -315, -44, 
    -202, -281, 188, 167, -16, 199, -249, 2115, 
    324, 249, -329, 146, 23, 164, 317, 40, 
    -16, 204, 117, -95, 129, 127, 316, 3280, 
    119, 13, 47, 251, -285, -152, -304, 147, 
    -226, -51, -291, -89, -78, -207, 173, 240, 
    284, -93, -15, -193, -88, 208, -245, -150, 
    -108, 293, -224, 207, 61, -30, 260, 2590, 
    35, -244, 4, -232, -135, -48, -101, -264, 
    272, 153, 207, -66, 246, -196, 85, 1408, 
    -307, 12, 74, -158, -70, 166, 269, -73, 
    -4, -79, -231, -68, -326, 312, 241, 1730, 
    -198, -210, 50, -328, 224, -26, -34, -213, 
    -137, 189, -43, 115, 55, -161, -173, 2532, 
    278, -29, 190, -121, 254, 160, 276, 268, 
    266, -255, 212, 224, 218, -236, 152, -807, 
    -47, -46, -320, -162, -139, -207, 261, 151, 
    1, 239, -248, 140, 60, 95, -253, -18, 
    -145, 156, 3, 225, 18, 0, -307, -63, 
    -238, 108, -105, -98, -106, -195, 267, 2026, 
    -220, 95, -192, -34, 297, -142, -132, 267, 
    84, -121, -235, -189, 182, 55, -97, 1186, 
    -73, -14, 124, 107, -74, -75, 43, -137, 
    -130, -149, -110, 4, -35, -15, 45, -346, 
    -10, 5, 143, -107, -102, 79, -33, -49, 
    -57, 79, 140, 103, 2, -76, 113, 1104, 
    -77, 151, 17, 60, 29, -131, -55, 5, 
    35, 148, -33, 5, 113, -54, -150, -798, 
    -22, -1, 65, -79, -12, -66, 135, 57, 
    -2, -42, 95, -24, -125, 15, 103, -438, 
    69, -154, -53, 69, 24, -125, -59, -39, 
    66, -33, 66, 152, -66, -37, 38, -671, 
    74, 138, 60, -24, -150, -83, 7, 155, 
    -99, -116, -65, -94, -118, 39, 65, 935, 
    78, 120, 63, 104, -39, -70, -52, -22, 
    121, -143, 71, -90, 71, -91, 105, -1890, 
    -123, -45, 84, 108, 63, -99, 116, -81, 
    -8, -53, 111, -98, 22, -138, 144, -589, 
    60, -91, -143, 31, 14, -46, 12, -84, 
    -138, 96, -71, -1, 154, 37, 19, 931, 
    44, 143, -102, 68, 72, -12, -143, 108, 
    -49, 79, -79, -60, 5, 77, -117, 640, 
    -71, -35, 9, -117, 145, -26, 103, 32, 
    51, -139, -83, 83, -149, -70, 39, 1049, 
    -140, -10, 42, 86, -98, -89, 7, -32, 
    -1, -76, -145, -74, 139, 54, -33, -2239, 
    -72, -45, -64, 53, 139, -146, -4, -3, 
    141, -42, 85, 57, -91, -151, -97, -396, 
    -118, 31, 130, 132, 40, -79, -135, 81, 
    74, -114, -51, -141, -155, 79, 130, 188, 
    -128, 143, -126, -49, -123, -86, -89, -124, 
    -36, 3, -29, 58, -18, 95, -35, -597, 
    1, 36, 97, 138, -80, 77, -147, 15, 
    -96, -51, -19, 10, 123, 58, -23, -1053, 
    -152, -23, -96, -105, 219, -210, 173, 258, 
    -190, -211, 56, 89, 223, -205, 87, -1585, 
    -66, -39, 219, 95, -213, 42, -6, 101, 
    -48, 0, -121, -181, 238, 235, -156, 1079, 
    7, 224, 39, 89, 73, -12, -13, -60, 
    80, 204, 185, -115, 85, 60, -173, -824, 
    103, -128, 188, 0, -130, -137, -219, -143, 
    7, 14, 205, 98, -33, 222, 249, 618, 
    -37, 129, 166, -254, -93, 87, 90, -15, 
    -110, 76, 198, -231, 136, -39, -79, -3674, 
    73, 4, -34, -214, -235, -209, 129, 96, 
    187, 151, 188, -221, 133, 147, 16, -76, 
    188, -37, -62, 201, -169, 164, -1, -3, 
    36, 6, -47, -234, -150, -154, 99, -1699, 
    -261, -99, 210, 176, -66, 245, -190, -37, 
    -159, 134, 1, 202, 133, -1, 194, 1164, 
    -160, 145, 86, 251, 261, 194, 49, -103, 
    78, 3, 98, -211, 72, -144, 163, 457, 
    -200, 219, 185, -65, 71, 118, -74, 118, 
    152, -79, 199, -100, -99, 0, 237, 618, 
    -243, 210, 248, 112, -149, -13, 210, -256, 
    248, -170, 220, -252, -198, -96, -165, 2403, 
    223, 252, 47, 64, -210, -22, -196, 126, 
    154, -139, 211, -132, 130, -233, 232, -635, 
    51, 138, -222, 178, 2, 227, -161, 52, 
    -66, -176, -196, 21, -134, 240, 17, -1982, 
    74, 143, -248, 119, 243, 155, -190, 192, 
    173, -45, -141, -94, -124, -69, -16, -2537, 
    170, 57, 228, 78, 212, -49, 193, 145, 
    -67, 10, 76, -224, 231, 74, 187, -23, 
    108, -131, 176, -169, -157, 112, 210, -2, 
    -219, -102, 193, -43, -67, 170, -65, 293, 
    -102, 165, -22, 136, -83, 30, 145, 96, 
    -36, 6, 178, -91, 60, 32, -79, 1851, 
    -27, 101, 66, -136, 169, -135, 114, -170, 
    177, -42, -11, -162, -153, -182, 28, 216, 
    -1, 180, -87, 184, -146, 40, 120, 136, 
    147, -112, 80, 155, 34, 165, -167, 903, 
    -178, -19, -64, 1, 158, -34, -159, -95, 
    -90, -37, 169, 113, 54, -89, 189, 252, 
    63, 35, -153, 3, -4, -146, -186, 192, 
    129, 108, 127, -95, 110, -117, 177, 759, 
    -13, 93, -24, -11, -160, -92, -38, -48, 
    62, 147, 118, 42, 161, 112, 32, 3494, 
    -28, -39, 141, 9, 153, -81, -155, 129, 
    -39, 191, 127, 129, -20, 48, 112, -385, 
    45, 121, 8, 76, -32, -2, 138, 167, 
    -159, 59, 177, 152, 64, -37, 169, 870, 
    6, 117, 11, -89, 149, -134, 171, -123, 
    78, -49, -21, 188, -75, 61, 118, 1009, 
    -48, 70, -89, -148, -166, -191, -128, -116, 
    78, 143, -169, 53, -67, -75, -115, 380, 
    -75, -72, 117, -126, -140, 84, -12, -29, 
    -37, -115, 161, 91, 163, 171, -149, -929, 
    104, 123, 129, 115, -45, 169, -70, -62, 
    50, -99, -56, -68, -18, 81, -107, 287, 
    2, -177, -123, -188, 191, -21, -165, -161, 
    -120, -114, -139, -70, -172, -44, -70, 148, 
    -1, -185, -102, 182, 103, 80, -82, -43, 
    101, 72, 36, -25, 119, 55, -34, 1125, 
    172, 47, -161, -99, -96, -21, -100, -95, 
    -73, 57, 77, -74, 176, 148, -93, 1052, 
    -129, -142, -35, -30, -146, 122, 173, 170, 
    -64, -128, -131, -85, 188, -51, -163, -662, 
    -349, -143, 183, -28, -265, 161, -204, 38, 
    -84, -120, 5, 96, -316, -74, 202, 240, 
    -291, 75, -300, -150, 123, -76, 194, 36, 
    -332, -152, -175, -181, -276, -55, -181, 2494, 
    272, -260, 17, -204, -217, 119, -19, -76, 
    -336, -193, -133, 13, 335, -53, 141, 920, 
    -40, -334, 77, -332, 262, -308, -136, 231, 
    250, -85, -23, 172, 129, -345, -43, 1765, 
    -248, -141, 83, -28, -113, 39, -9, -44, 
    311, -318, 130, 316, -66, 97, -6, -2807, 
    -282, 11, -194, 275, 354, 340, 337, 274, 
    -308, -259, 343, 317, 152, 292, 212, 1326, 
    4, -209, 253, 22, 239, -49, 43, 176, 
    -29, 64, -210, -180, -259, -153, 11, -845, 
    344, 185, 257, 0, -352, -244, -60, -121, 
    -142, -316, 79, 295, -144, -178, -130, 1288, 
    255, -355, 41, 196, -176, 164, 206, 344, 
    54, -30, 203, 12, 157, 31, -89, -387, 
    -114, 339, 235, 242, -235, 217, 98, 315, 
    299, -306, 144, -301, 122, 112, 345, 1465, 
    -66, -253, 334, 208, -333, 71, 269, -173, 
    7, 326, -273, 16, 181, -193, -6, 3472, 
    120, 186, 265, -81, -167, -113, 130, 226, 
    -261, -59, -194, 52, 137, 79, -248, 751, 
    -48, -28, -154, -173, 58, -75, 143, 86, 
    81, -180, -91, 44, -274, 112, -49, -1669, 
    -123, 149, -169, 131, -306, 9, 339, 353, 
    82, 325, -96, -279, 137, 247, 179, -3592, 
    192, 308, 154, 279, -259, -223, 351, -86, 
    -22, 46, -27, -297, 102, 10, 251, -836, 
    31, 121, -267, 272, 280, -3, 188, -292, 
    -334, -215, -71, 81, 4, 320, -40, -2733, 
    -201, -78, -112, 417, -402, -252, -158, -386, 
    -74, -50, -125, 102, -91, 334, 137, 1966, 
    142, -165, 331, 87, -96, 130, -279, -316, 
    -185, 273, -189, 43, 29, 382, 408, -1007, 
    -122, -379, 270, -269, -202, -86, 395, 278, 
    300, 75, 213, 102, 136, 273, -103, 599, 
    -324, 89, 97, -250, 248, 335, 284, 235, 
    -264, -371, -312, -93, -129, 398, -1, -4300, 
    64, 131, -212, 411, 320, 135, 335, 278, 
    15, 308, 270, -59, -397, -75, 25, 493, 
    8, -360, -402, 339, -111, -278, 218, 191, 
    -340, -371, -158, -48, -102, -118, -146, 1473, 
    -53, 110, 420, 106, 289, 349, 1, 111, 
    -243, 36, 77, 137, 355, -183, 101, -2155, 
    418, 380, -86, -143, -179, -358, -235, -346, 
    354, 156, 216, -62, -235, -49, 150, -274, 
    379, -253, 384, -205, 253, 311, 219, -317, 
    330, -246, 313, -349, -37, -209, 21, -3665, 
    147, 118, 364, 284, -383, -108, -49, 17, 
    289, 218, -174, -194, -157, -325, -328, -3608, 
    208, -31, -130, 254, 388, -391, 348, -331, 
    -103, -301, 144, -195, -76, -87, -402, -3370, 
    -414, -195, -88, 201, -217, -335, -299, -169, 
    370, -167, -286, -149, 309, 96, -59, -1380, 
    -213, -411, 101, 98, -237, 76, -423, -285, 
    -330, 396, -215, 73, 123, 360, 143, 2710, 
    137, -192, -303, 318, -410, 122, -259, 66, 
    375, -62, 334, -95, 275, -356, 366, -1740, 
    -324, -291, -268, 84, -151, 188, -256, 116, 
    -342, 158, -294, 369, -1, -113, 329, 1607, 
    266, 105, 243, -217, 213, 247, 212, -166, 
    -279, 327, -78, 42, -418, 61, -346, -6260, 
    253, 184, 176, 122, -255, -95, 235, -247, 
    67, 114, -32, -6, -186, 3, 140, -2325, 
    110, 158, 93, -124, -203, 194, 67, 116, 
    177, 34, 67, -250, 223, -88, -281, -2123, 
    -209, 281, 6, -101, 133, 277, 230, 284, 
    150, -133, -30, 181, 66, 129, 82, -3070, 
    -9, -121, 98, -183, 89, 72, 227, -192, 
    -9, -289, -210, 129, -96, -40, 15, 1354, 
    -288, 58, 150, 190, 102, -236, 13, 50, 
    -167, 127, 56, -51, -86, -4, -31, -1905, 
    -142, 261, 132, 115, -198, -13, 124, -33, 
    -146, 42, -249, 145, 204, 75, 144, -279, 
    120, 98, 16, 198, -9, 51, -104, 180, 
    115, 107, 42, -115, -109, -139, 165, -153, 
    188, -237, -82, -158, 197, -220, 137, 106, 
    -120, -239, -22, -289, -143, -199, -203, 4159, 
    -106, -24, 231, -110, -278, 169, 107, 81, 
    -36, 263, 97, 142, 246, 178, -172, -36, 
    191, -137, -251, -126, -151, 87, -39, -200, 
    257, 34, -204, -245, -92, 231, 176, 637, 
    122, -145, 267, 264, 260, -12, -201, -220, 
    -40, 6, -13, -190, -49, 202, 244, 1905, 
    -97, -77, -40, 50, -290, 30, -53, -76, 
    81, -56, -255, 83, 193, 232, -261, -775, 
    -261, -151, -200, 235, -126, 241, 27, 132, 
    -15, -10, 44, -71, -18, -206, -234, 456, 
    -140, -78, -211, 68, -17, 116, -27, -266, 
    -220, 291, 121, 79, -20, 176, -100, 244, 
    233, 212, -13, 159, -8, 200, 67, -176, 
    221, -85, 44, 226, 74, 38, -87, 2086, 
    79, -146, 193, -283, -266, 209, -18, -143, 
    -2, 189, 100, -76, 233, -125, -214, 972, 
    147, 43, 90, -68, 13, -21, -122, -5, 
    -69, -107, 30, -143, -100, -19, 126, 7, 
    -1, -149, 35, 52, -58, 117, 58, 70, 
    44, -146, -111, -103, -81, 37, 17, 505, 
    90, -123, -94, -28, -97, -29, -24, 28, 
    100, 35, -18, 62, 28, -128, -51, -819, 
    -21, 50, -55, -17, -96, 28, -2, 36, 
    -26, 95, -97, -31, -45, 5, 63, 569, 
    -114, 36, 70, -81, -128, 64, -118, 116, 
    -131, 37, 142, 34, 127, 68, -87, 66, 
    -137, 62, -66, 93, 46, 123, 90, 15, 
    -145, 52, -19, 11, -98, 95, -102, 577, 
    -122, -37, 144, -65, 0, 15, 46, 40, 
    -27, 9, 68, 25, -47, 48, 128, -1045, 
    -103, -9, 74, -75, 88, -101, -134, -123, 
    -87, -84, 26, -25, -121, 48, 101, 1674, 
    -27, 142, 103, -121, -132, -91, -24, -127, 
    47, 140, -137, 144, -148, -53, -70, 985, 
    2, 5, -59, 8, -31, 67, 88, 29, 
    -46, 45, 21, -13, 78, -28, 91, 2143, 
    -28, 54, 145, -16, -35, -22, -76, -113, 
    49, -80, -140, 93, -66, -73, -134, -893, 
    -59, 81, 111, -106, -87, 146, 116, -36, 
    82, -57, -103, 12, -69, 128, 73, 701, 
    1, -70, 88, 107, -119, -146, 148, -84, 
    -33, 69, -97, -60, -21, 126, -23, -320, 
    -18, 119, 140, -91, -46, -109, -104, 116, 
    -142, 19, -26, -107, 144, 121, -39, -673, 
    -51, 6, 120, 80, -62, 112, -121, 23, 
    122, -28, 96, -136, 137, 25, 55, 1269, 
    -12, -123, 58, 120, -88, 92, -5, 79, 
    -25, 114, 51, -113, 46, -24, -24, 120, 
    -192, 214, -105, 55, -2, -176, 163, 20, 
    -72, 60, 104, -132, 47, 106, 61, 2177, 
    51, 56, 203, -121, 180, -177, 192, -77, 
    -18, -131, -57, -87, -220, -21, 83, -1581, 
    78, 133, 100, -2, 108, -179, -41, -43, 
    172, -195, 8, -195, -143, -216, -38, 91, 
    -111, -61, -62, -202, -183, -24, 140, -111, 
    35, -211, 31, 161, 174, 28, 73, -2850, 
    188, 8, 160, 69, -63, 71, -170, 74, 
    -71, -189, -52, 49, -75, 64, -125, -343, 
    -65, 40, -138, 28, 4, -207, 154, 88, 
    -197, 183, -185, -95, 220, 207, 89, -3463, 
    -80, 211, 100, 197, -111, 173, 186, -201, 
    39, 93, -119, 91, -148, 45, -128, 1950, 
    196, -16, -117, 55, 101, 154, 183, -134, 
    -168, 199, 143, -41, -162, 138, -56, 75, 
    0, 149, 39, 88, -217, -114, 134, 189, 
    12, -196, -26, -41, -161, 47, 184, 882, 
    -124, -218, 209, 135, 99, -224, -197, -88, 
    -158, -61, 202, 157, 182, -133, 121, -1268, 
    205, 215, -158, 63, 98, -225, 128, 137, 
    -91, 116, -53, 40, -97, 159, -109, 433, 
    205, 74, 138, -87, -194, 16, -12, -53, 
    -70, 144, 39, 155, 23, -160, 222, 1609, 
    -139, 58, -45, 218, -30, 98, -136, -34, 
    63, 186, 121, 205, -29, 102, -53, -951, 
    -185, -57, -143, -155, 107, 158, -144, -184, 
    -136, 30, -15, 49, 97, -93, -112, 472, 
    -161, 158, 154, -174, -71, 35, 10, -191, 
    -41, -163, 53, -127, 197, 36, -12, 147, 
    -42, 114, -214, -220, -188, -178, -17, -67, 
    92, 224, -5, 10, -36, -23, -212, 249, 
    25, 42, 15, -19, -147, 134, -25, 90, 
    -122, 94, -40, -164, -41, 50, -82, -509, 
    -17, -153, -79, -146, -72, 65, 0, -54, 
    -24, -177, -20, -141, -142, 123, 21, 223, 
    13, -67, -155, -146, 168, -114, 84, 126, 
    -16, -8, 61, 59, -151, -109, -64, 1013, 
    164, -166, -101, -175, 171, -179, -155, 44, 
    -18, -98, 11, -59, -166, -36, -83, -146, 
    140, 146, 159, 10, 134, 104, 87, 46, 
    132, 160, -142, -166, -165, 177, 91, 243, 
    -174, -129, -146, -66, 55, 12, 23, 114, 
    -74, -48, 34, -22, 71, 92, 145, -273, 
    -134, -104, -17, 63, -86, -60, -2, -151, 
    20, -174, -150, 72, 68, 99, 154, -157, 
    177, 75, -19, -138, -141, 112, 82, -20, 
    60, 145, 113, -117, 97, 76, -65, -2125, 
    -60, -183, -62, 176, -57, -129, 12, -90, 
    25, 173, 131, 27, -81, 39, 30, 976, 
    84, 99, -112, 161, -112, -112, -60, 174, 
    -104, 29, 58, 154, -70, -92, 12, 1231, 
    -72, 113, -169, -131, 168, -37, -12, -44, 
    -14, -18, -76, 58, 39, 0, -123, 564, 
    -10, 3, -133, 133, 171, -83, -179, -31, 
    -166, 75, 3, -43, 11, -165, -115, 562, 
    -16, 127, -86, 66, -13, -8, 40, -140, 
    116, 156, -25, 129, -159, -74, 106, -3925, 
    -2, -82, -84, 120, -16, 90, 95, -98, 
    160, 1, -70, -42, 131, -59, -92, 796, 
    -121, 160, 97, 157, 91, -133, 134, -173, 
    -161, -3, -69, 5, 1, 92, -26, -3292, 
    114, -137, 146, -70, -22, -122, 64, 148, 
    154, -62, 60, -100, -137, -69, 174, 1017, 
    -194, 137, 157, 222, 21, -111, -155, 6, 
    219, 83, 70, -181, 1, 144, -70, 349, 
    -148, -95, -202, 57, 98, 221, 43, -205, 
    200, 120, -214, 184, 205, -9, -228, 155, 
    44, 61, -135, -51, -120, 212, 99, 90, 
    111, 208, 110, 2, 94, -158, 51, 2596, 
    -69, 71, 93, -221, -173, -66, 23, 88, 
    -216, 213, -159, 127, -42, 68, 83, -1445, 
    189, 72, -176, -197, -114, 61, -89, -196, 
    206, 195, 208, -187, 227, 228, 98, 936, 
    31, 220, 106, -81, 28, -81, 66, -158, 
    204, 72, 210, 0, 185, 166, 194, -617, 
    153, 228, 28, -179, -226, 224, 19, -190, 
    -10, -40, 64, 60, 15, 234, 132, 506, 
    140, -162, -33, 134, -205, 131, 104, 35, 
    -81, -135, -10, 46, 163, -1, -109, 1075, 
    138, -111, -35, -53, 63, 11, -203, -218, 
    -95, -182, -49, 29, -197, -119, -189, 1459, 
    -61, 205, 34, -68, -216, 208, 87, 84, 
    -131, 158, -87, 46, -203, 196, -119, 1359, 
    47, 232, -6, 61, -18, 123, -131, -10, 
    25, -130, -91, -1, -110, -70, -47, -188, 
    77, -150, -142, 23, 209, -62, -234, 92, 
    127, 226, -10, 87, 72, -225, 81, 1577, 
    -129, 124, 143, 3, 32, 50, -5, -9, 
    -48, 9, -206, -67, -159, 109, 33, -1622, 
    155, -114, 210, -131, -166, -194, 220, 30, 
    -203, 175, -42, -22, -48, 35, 101, 2149, 
    171, -150, 204, -76, 191, 78, -82, -69, 
    191, 153, -43, -42, 128, -164, -67, -195, 
    -40, -87, 56, -159, 128, 77, -19, -82, 
    155, 12, -218, 165, 110, -215, -157, 1374, 
    -49, 65, 176, 18, -223, 160, 75, 164, 
    223, 39, -72, -84, -104, 156, -7, 980, 
    248, -101, 185, -225, -66, -190, -142, 137, 
    81, -103, 178, -46, 73, 208, 60, 108, 
    -153, -201, 70, 135, 134, 73, -11, -62, 
    109, -168, 120, 133, -25, 153, 81, 3073, 
    -29, 110, 191, 159, -150, 0, 194, 141, 
    -141, -127, 10, -97, 1, 213, 80, -221, 
    2, -79, -174, 47, 150, 112, 234, -212, 
    -233, -218, 180, 8, 119, -209, 25, 1597, 
    -159, 250, 73, -83, 96, -1, -101, 167, 
    -218, -29, -99, 147, 112, -243, 109, 1069, 
    39, 80, 65, -129, 208, 202, 154, -163, 
    157, 27, -187, 202, -222, 133, -54, -421, 
    -17, -12, 70, -48, 49, -225, 168, 44, 
    -42, -224, 156, -29, 175, -237, -38, 1706, 
    -61, 85, -112, -99, 81, -185, 244, -242, 
    -139, 160, 227, 4, -207, -32, -114, 3733, 
    -61, -2, 221, -156, 65, 142, -179, -189, 
    -119, -235, 217, 80, -220, -204, 56, 1480, 
    -153, 252, -154, 43, -204, -58, -220, -83, 
    239, 168, 163, 235, 142, 37, -238, -255, 
    -40, -80, 194, -91, -48, -31, -37, -125, 
    -122, 55, 49, 33, -80, 35, 137, 164, 
    -67, 146, -117, -187, 24, -147, 117, 103, 
    235, -164, -52, 99, 111, 91, 209, -607, 
    -181, 43, -122, -172, -225, 75, 83, 216, 
    105, -35, 53, 199, 10, -53, -152, 1661, 
    210, -48, -93, 206, 43, -120, -22, -31, 
    -192, 27, 46, -101, -101, -80, -12, 876, 
    241, 230, -153, 28, 27, 123, -192, 151, 
    -187, 51, -154, 14, 50, -31, -228, -732, 
    -10, -142, -245, 80, -32, -129, -28, 102, 
    88, -85, -139, -295, -207, -315, -12, 197, 
    179, -319, -272, -112, -244, 260, -1, 167, 
    8, -185, -284, -9, 310, 287, -28, -2576, 
    -138, -3, 75, -327, -253, -278, -5, -5, 
    332, 273, -53, -15, 198, -197, -281, -1593, 
    -162, 49, -174, -142, 263, 152, -255, -187, 
    -187, 23, -10, 332, -112, 14, 324, 1366, 
    -152, -240, -314, -135, 262, 158, 123, 29, 
    -259, 238, -98, 47, -57, 258, -255, -877, 
    306, 207, -281, 120, -56, 310, -19, 99, 
    53, 224, 14, 326, 55, -215, 302, 745, 
    -222, 111, -175, -1, 175, -121, 137, 40, 
    87, 169, -147, 213, 266, 160, -140, -1334, 
    319, -252, -117, 10, 48, -292, -12, -135, 
    -157, 66, 52, 315, -3, -280, -15, 2586, 
    7, -272, -316, 303, 67, 85, -4, 109, 
    101, -66, 217, -190, 76, -275, -301, 3402, 
    326, -153, -176, 137, -100, -92, 140, 171, 
    144, -73, -81, 279, -17, -147, 69, 1816, 
    -231, -76, -281, 112, -36, 16, -223, 46, 
    202, -69, -101, 172, 301, 221, -218, 473, 
    190, 142, -106, -93, 297, 95, -72, -235, 
    -142, -83, 311, -188, -33, 217, 156, -4478, 
    204, -35, -136, -53, 158, 102, 303, 167, 
    -151, -218, 38, 2, 121, -17, -278, 1583, 
    92, 242, 227, 318, -230, -167, -267, -322, 
    293, 292, 52, -90, -144, -65, 99, -526, 
    -287, -114, -135, -69, 332, 298, 210, -136, 
    244, 142, -147, 333, 256, 173, -59, 1530, 
    128, 316, -60, -122, 315, 97, 316, -124, 
    -40, -75, 220, 48, -64, 183, -316, 2327, 
    -29, -141, 94, 227, -114, 253, 190, -116, 
    -255, 192, -229, 250, 15, 246, 120, 608, 
    -65, -7, 66, -77, -145, 184, -120, 172, 
    -20, 245, 81, -141, 193, 62, 79, 2656, 
    214, 239, -259, 101, -118, 73, -233, 118, 
    15, -13, 45, -156, -222, 96, -20, -1368, 
    -134, -198, -175, -60, -130, 234, 188, 204, 
    156, -182, -93, 84, -216, -189, -104, -594, 
    248, 22, 172, 97, 119, -18, 144, 14, 
    1, 108, -161, -242, -6, 89, -129, -727, 
    -230, 22, 101, 33, 66, 202, 222, 146, 
    171, 190, 204, 109, -124, -121, -216, 1450, 
    -21, -213, -43, -21, -180, 137, -56, -157, 
    -261, -84, -113, -225, 42, -258, -114, -1842, 
    155, 181, -238, -225, 48, 151, 235, -73, 
    258, 50, -82, -34, -200, 37, -192, 254, 
    -59, -17, 193, -47, -36, -170, 131, -229, 
    156, 82, -84, -184, 169, -19, 80, 940, 
    -216, 24, -206, -146, -235, 37, 85, -103, 
    -68, -100, -81, 116, -58, 0, 0, 2526, 
    151, 77, -126, 18, 214, 55, 5, -11, 
    -77, -98, -110, -131, -109, 156, -183, -1698, 
    -98, 57, 250, -66, 172, -250, -31, 158, 
    151, 27, -238, 62, -55, 56, -226, -1597, 
    21, 53, -259, 34, -215, -47, 193, 219, 
    -229, -180, 141, 137, 67, 240, 78, 977, 
    58, -13, 191, 4, 9, -103, 21, -53, 
    -194, -158, -70, -67, 55, -40, 241, -1870, 
    -161, 209, -123, 208, -111, -34, -41, 34, 
    -34, -104, -240, -232, 111, 123, -4, -493, 
    85, 210, -9, -83, 22, -92, -43, 202, 
    -59, 78, 221, 242, 192, -2, 42, -206, 
    -138, 105, 105, 9, 168, 29, 28, 39, 
    -161, 40, -75, 119, 111, -104, -88, 1290, 
    -98, 138, -37, 59, -20, -39, -100, -148, 
    -86, -139, 111, -84, 168, -46, 95, -44, 
    -21, -120, -8, 90, 52, -141, 9, 34, 
    49, 122, -108, -27, 76, -14, 168, -284, 
    -16, 10, -54, -48, 172, -91, -2, -14, 
    150, 65, -65, -23, 132, -140, 143, 472, 
    -130, -131, -63, 117, 163, 55, -54, -63, 
    -85, 128, -169, -97, 101, -32, 110, 606, 
    138, 105, 39, -129, -14, -3, -20, -172, 
    93, 155, -45, 87, -22, -96, -172, -996, 
    96, -154, -80, 139, 126, 21, -68, 63, 
    144, -138, -12, -135, 56, 94, 16, 3174, 
    -150, -157, -154, -138, 159, -174, 38, -165, 
    171, -140, 123, -169, 120, 128, -9, 1021, 
    163, 139, -139, 76, 129, -133, -81, -14, 
    171, 65, 28, -54, 20, -68, -10, 502, 
    168, -112, -168, -106, 141, 164, 158, -110, 
    49, 18, 33, 73, -56, 120, -147, -577, 
    86, -33, -24, -91, -75, -125, 93, -32, 
    164, 48, -106, 158, -176, 54, 58, 784, 
    143, -171, 134, -121, 157, 13, 165, 6, 
    75, -89, 126, 42, -65, 117, -140, 772, 
    82, -19, -150, -165, -101, -80, 23, 171, 
    -123, 137, 33, -20, -146, -172, 156, 289, 
    -120, 83, -47, 144, -41, 43, 99, 96, 
    112, -45, 153, -82, 12, 59, -49, 1135, 
    -1, 131, 127, -100, -68, 125, -154, 126, 
    -99, -83, -47, 144, 20, -160, 96, 312, 
    31, -131, -22, -85, -156, -78, -175, -120, 
    -148, -123, -18, -119, -64, -102, 82, 1741, 
    -10, 29, 15, -37, 162, -64, 25, -22, 
    78, 146, 160, -144, -51, -33, -88, -546, 
    -96, 129, -103, 122, 108, 159, -33, 137, 
    -157, 35, 67, 65, -78, 171, -24, 2423, 
    165, -168, -95, -13, -89, -14, -130, 12, 
    27, -150, -11, 53, 92, -18, 53, -1348, 
    -77, -145, 119, -172, -112, 101, -100, 117, 
    129, -174, -91, -148, 67, 113, -45, 461, 
    79, 92, 116, 78, -19, 58, 92, -174, 
    -111, 60, 38, 181, 45, -91, -118, -1267, 
    -62, 50, 112, 81, 16, -65, -25, -2, 
    -89, -39, -146, 53, 70, -69, -147, 194, 
    166, -168, -86, 2, 165, 32, -90, 33, 
    2, 114, 21, 94, -175, 137, -17, -1115, 
    -102, -175, -170, 128, -48, -88, -160, -160, 
    -140, -155, 96, 23, -88, -4, 34, -866, 
    118, -84, 50, -15, 138, -174, -122, 24, 
    21, 132, 59, -39, -16, -142, -21, -95, 
    33, -83, 131, 100, -163, 167, -176, 24, 
    -175, -77, 48, 47, -73, 88, 84, 1113, 
    80, -72, 3, -163, -112, -30, -88, 127, 
    -25, -158, -105, 52, -1, 43, -87, 865, 
    -26, -172, -13, 149, 36, 54, -158, 95, 
    -131, 27, -7, 178, 38, 113, -16, -681, 
    23, -9, 34, -3, -79, -177, -24, -76, 
    -135, -150, -10, 37, 121, -89, 167, -212, 
    -95, -20, -80, -175, 158, 163, 2, 82, 
    43, -11, 62, -62, -116, 34, -155, -1494, 
    -79, -142, 70, 152, 4, -127, 12, 44, 
    -86, 3, 78, 33, 72, -39, -175, -1471, 
    -58, -172, 122, 52, 134, 115, 58, -100, 
    -107, 169, -144, -110, -31, 10, -165, -428, 
    -70, 0, -131, 150, -160, -22, 77, -168, 
    -105, 21, 109, -27, -161, -174, 130, -1767, 
    97, -20, 188, 110, 53, 169, 60, -55, 
    109, 123, -159, 172, -137, 72, -50, 158, 
    -45, -167, 120, -113, 67, -192, 169, -123, 
    10, -21, 84, 65, -64, 59, 46, 314, 
    48, 187, 74, 115, 54, 61, -101, 39, 
    78, 43, -179, 153, 9, -128, -125, -666, 
    32, -115, -15, 122, -50, -119, 149, -8, 
    -64, 51, -55, -6, -92, -161, 81, -357, 
    172, -109, 6, 55, 13, 101, -138, -41, 
    168, 126, 59, 127, 67, -59, -54, 497, 
    36, -150, 191, -90, -175, 49, -154, -155, 
    153, -39, -65, 104, 147, -75, -168, -246, 
    53, 65, -8, 187, 43, -164, -58, -163, 
    45, 38, -68, 0, -133, 51, 65, -69, 
    84, -163, 75, -192, 45, 26, 149, -119, 
    82, 145, -134, 91, 60, 123, 10, 1126, 
    -144, -120, -112, -73, 179, 157, 29, -111, 
    -115, 121, -136, -96, -89, 169, 106, -1072, 
    36, -86, 96, -39, 27, -160, -53, 109, 
    89, -179, 182, -93, -173, -135, 19, 430, 
    155, -115, -149, 112, 60, -105, 169, 139, 
    -8, 5, -33, 18, 6, 12, -172, 4290, 
    -68, -83, -61, 59, 140, 8, -160, 151, 
    -147, 28, 80, 187, -86, 138, 163, -241, 
    -145, 95, 125, -163, -124, -29, -129, 150, 
    -42, -105, -176, 57, -107, -127, 162, -826, 
    90, -74, 2, 98, 33, -185, 46, 176, 
    -26, 164, -12, 137, -180, 120, -84, 938, 
    110, -173, -118, 70, 175, 180, 157, 166, 
    23, 39, 124, 99, -91, 49, -23, -524, 
    -70, 240, -270, -109, 119, -97, -234, 277, 
    136, -97, 204, 85, -263, 163, 242, -985, 
    131, -241, -152, 281, -166, 287, -243, -65, 
    89, 107, 155, -166, -34, -175, -93, -273, 
    33, 159, 14, 147, 64, 194, 9, 147, 
    -238, 128, 28, -236, 287, -29, -253, 2340, 
    -251, -32, 252, 143, -81, -141, -76, -6, 
    -169, 35, -149, 201, -130, 114, -7, 1584, 
    18, 231, 44, 172, 215, -175, -172, 267, 
    36, -146, -214, 52, 233, -154, 90, 1289, 
    -66, -225, 14, 28, 67, 83, -236, 261, 
    45, -264, -159, 199, -191, -127, -241, 2052, 
    71, -136, 285, -166, 231, -149, 217, -231, 
    -278, -239, -196, 94, -171, 89, 95, 23, 
    -235, 182, -232, -34, 240, -160, 134, 272, 
    -90, -98, 116, 51, 284, -108, 11, -1524, 
    -35, 85, -151, -13, 68, -215, -69, 111, 
    -188, 61, 238, 29, -234, 73, 195, -260, 
    -281, 154, 252, -49, 85, -127, 118, 61, 
    285, 95, -86, -54, 196, -99, -57, 244, 
    -273, -36, -130, -23, 61, 86, 212, 228, 
    213, 83, 283, -59, -39, -216, -195, 2107, 
    -41, -86, 44, -60, -111, 178, -288, -63, 
    270, 200, 170, -60, 121, 38, -172, 3300, 
    255, 174, -58, 150, -222, -102, 216, 181, 
    89, 12, 48, 247, 126, 79, -84, -1496, 
    0, 39, 62, 96, -164, 35, 53, -35, 
    250, 62, 125, -209, -70, 166, -16, -1995, 
    -16, 164, -159, -162, 138, -24, -227, -5, 
    82, 260, 159, 194, -106, -119, -63, -616, 
    170, -24, -152, -73, 183, -193, 273, -286, 
    -245, -276, 85, -20, -193, -28, -94, -2449, 
    140, 249, 166, 172, 57, 69, -184, 189, 
    179, -3, 108, -130, 55, -266, -18, -267, 
    146, -202, 107, -56, 2, 152, 133, 143, 
    71, -165, -101, 255, 36, -165, -179, -508, 
    -31, 19, -115, 167, -78, 265, 96, -133, 
    -123, 29, 54, -145, -201, -177, 241, -1022, 
    232, 137, 110, 30, 157, 213, -36, -160, 
    -14, 15, -138, -75, -159, -22, -83, -1502, 
    -14, -262, 44, 86, 231, -82, 220, -154, 
    117, -84, 11, -250, 232, -134, -82, 3819, 
    -32, 78, 110, 172, -268, -239, 4, -59, 
    -251, 53, 9, 142, -53, -250, 225, -330, 
    -25, 256, -225, -206, -125, -94, -212, -234, 
    230, 236, 267, 173, -183, -151, 56, -234, 
    -218, 21, -167, 164, -89, -4, 123, 38, 
    -194, 40, -58, -156, -147, -2, -127, 642, 
    -250, 237, 199, -229, 0, -1, 165, -33, 
    49, -16, 167, 58, -240, -20, -137, -1327, 
    46, -148, 169, 181, -203, 3, 76, -146, 
    162, 28, -191, -202, 26, -43, 113, -1042, 
    31, 148, 250, 210, 33, -19, -259, 78, 
    -164, -158, -55, -180, 149, -26, -54, -1245, 
    142, -138, -27, -145, 123, 187, 159, -191, 
    136, 243, 0, -102, -99, -35, 129, -1207, 
    -223, 218, -50, -204, 220, -190, 204, -18, 
    255, 268, -3, -221, -79, 141, -178, -2055, 
    -164, -137, 44, -31, -237, 1, -173, -30, 
    159, -39, 265, -229, 84, 264, -99, -1384, 
    89, -180, 114, -146, 158, -230, 158, -263, 
    -148, 11, 232, 179, -9, 91, 177, -1194, 
    -2, -51, 123, 216, -190, -73, -106, -139, 
    -105, -215, -162, 13, 29, 235, -35, -652, 
    177, -139, -28, 27, 332, 189, -248, -183, 
    295, 144, -210, -275, -160, 89, -141, -3994, 
    -226, 148, 75, -152, 235, -310, 46, 5, 
    64, -263, -279, 84, -215, 187, -347, 438, 
    -353, -127, 92, -225, -296, 153, 314, -320, 
    117, -252, -88, 247, -17, 25, -307, 2451, 
    213, 104, 263, -3, -82, 241, -90, 309, 
    290, 61, 227, -3, 140, -173, 83, 215, 
    171, -341, 92, -273, 122, -327, -75, 223, 
    -169, -275, 122, 110, -138, 278, -335, -124, 
    -250, 251, 28, 308, -162, -267, -240, 313, 
    -142, -351, 340, -62, -107, 285, 59, 3233, 
    87, -287, 208, -259, 248, -179, 248, -223, 
    -164, -93, -184, -37, -104, 331, -102, 1441, 
    -186, 339, 303, 218, 241, -39, 161, -75, 
    196, 270, -69, -180, 182, 86, -198, -3845, 
    -324, -251, 356, 351, -13, -44, 256, 10, 
    -286, 102, 213, -349, -50, 100, 40, -524, 
    -43, 71, 80, -124, -302, 80, -94, -231, 
    -33, 250, -81, 311, 29, 303, 213, -44, 
    -70, 209, 29, -239, 51, 357, -20, -229, 
    300, -166, 21, -104, -137, 287, 83, 1584, 
    -69, 137, -141, 360, 204, 306, -339, -118, 
    -176, 35, 319, 298, -21, 30, 242, 104, 
    87, -10, -113, -312, 23, -101, 191, 136, 
    -61, 335, -7, 320, 122, 324, -123, -2913, 
    -341, -199, 245, 278, -135, 11, 279, -287, 
    43, -110, -243, 44, 150, -184, -286, -4458, 
    -87, 97, -335, -32, -258, 128, 248, -185, 
    195, -10, -99, -309, 330, 231, -229, -2385, 
    -144, 280, 0, -195, 217, -80, -302, -184, 
    190, 314, 32, -219, 135, 170, 24, 0, 
    -76, -3, 122, -119, -43, 0, -14, -28, 
    -5, 90, 98, 78, -24, 99, -43, 608, 
    -85, 87, -115, 60, 100, -29, 69, 101, 
    89, 8, 57, 79, 101, -8, -10, 984, 
    105, -60, -6, 41, -31, 54, -89, 80, 
    21, 35, 50, 32, -80, -34, -96, 67, 
    -114, -33, 24, -90, -49, 24, 119, -114, 
    99, -39, 72, 81, 105, 60, 97, 1541, 
    -102, 113, -88, 50, 73, 105, 91, 86, 
    -21, -67, -104, 93, 87, -25, 108, -124, 
    -20, -95, 62, -20, 44, -16, 96, -50, 
    -117, 11, -12, -105, -48, 102, 52, -168, 
    -12, -64, -4, -54, 64, 45, 106, -71, 
    71, -109, 7, -97, -47, 16, 74, 696, 
    -97, -40, -98, 124, 79, -23, -54, -20, 
    91, 55, -28, -2, 0, -3, 0, 471, 
    -96, 84, 56, 23, -20, 82, -15, 48, 
    -11, -71, -31, 61, -76, -90, -76, -180, 
    -111, -93, 64, 20, -5, -83, 117, 52, 
    -14, 58, -56, 33, 59, -96, -52, -564, 
    37, -67, 93, 106, -107, -4, -121, 96, 
    84, 92, 102, 82, -92, 51, 89, -1191, 
    -65, 28, -122, 100, 5, -114, -1, 116, 
    106, -102, 4, -10, -112, 5, -45, 420, 
    13, -34, -4, 30, 4, -71, 8, -13, 
    41, 71, -17, -33, -27, 35, -18, 950, 
    -30, 101, 14, 121, 104, 17, 80, 30, 
    92, -85, 105, -34, -94, -125, 38, -378, 
    -39, 54, 12, 15, -28, -123, -111, 74, 
    -42, -50, -92, -18, 81, -65, -11, 1047, 
    109, -8, -2, 25, 88, -58, 15, -35, 
    -64, 4, 7, 91, 29, 0, 26, -196, 
    17, -43, 129, 20, -100, 37, 41, 64, 
    -6, -66, 17, 101, -104, -51, 0, 509, 
    126, 113, 88, -43, 7, 15, -111, 113, 
    -7, -106, -60, -48, 119, -68, 44, 882, 
    -121, -18, -78, -109, 97, 42, -114, -13, 
    111, -99, 61, -99, -61, 14, 112, 344, 
    -28, 103, 82, 120, -68, 24, -125, -114, 
    94, -43, -128, -125, 85, 56, 34, 1666, 
    43, -25, 109, 57, -57, -54, -40, 27, 
    -53, -86, -34, -102, 100, 58, -3, 63, 
    49, 80, -107, -97, 11, -26, 116, 57, 
    -18, 32, 20, -10, 10, -71, 7, -338, 
    89, 45, -120, 44, 37, 89, 116, 102, 
    119, 16, -39, 109, -24, 3, 93, 957, 
    -35, -19, 10, -40, -39, -34, 2, -92, 
    -12, 124, -84, 52, -76, 101, -32, 160, 
    26, 43, -23, -91, 4, 31, 24, -34, 
    -121, -35, 61, 56, -29, 10, -66, -136, 
    29, 97, -7, -98, 88, 105, -90, 39, 
    -122, -86, -102, -72, 103, -117, 29, -374, 
    59, -108, 22, -25, 25, 56, 8, -4, 
    9, 44, 3, -59, 87, 37, -46, -627, 
    -25, -13, 65, 121, -124, 40, -121, -68, 
    74, 102, -7, -97, -120, 77, 96, 269, 
    75, 11, -8, 81, -2, -85, -13, 65, 
    -43, -82, 3, -86, -9, 89, 88, 1520, 
    -121, 81, 28, -14, -56, -10, -5, 17, 
    -122, 102, -120, 116, 12, -38, -128, -302, 
    -125, 11, -111, -13, -23, 3, -26, -61, 
    45, 64, -41, 16, -41, -127, 100, 1753, 
    51, 120, 107, 34, 44, 51, 62, -68, 
    94, -86, 123, -32, 83, -89, -48, -164, 
    45, 154, -171, 64, 87, 84, -27, -114, 
    -28, -152, 192, 20, -186, 82, -155, -623, 
    -7, 161, 37, 79, -151, -72, 65, -171, 
    -131, -127, -80, 55, -167, 43, 94, -360, 
    54, 35, -164, -36, 61, 161, -142, 139, 
    99, 161, 135, -52, 113, -82, 101, 2229, 
    -129, -117, 171, 88, -166, -47, 19, -100, 
    -136, 136, 2, 57, -74, -124, 114, 561, 
    139, -176, -52, 7, -94, 100, -63, 126, 
    171, -19, 53, 126, 30, -162, -175, -971, 
    33, 82, 179, 179, 97, -43, 154, -140, 
    192, 111, 51, -175, 27, -14, 66, -419, 
    -71, -39, -38, 22, -170, 60, -64, -157, 
    10, -11, 25, 189, 91, 111, -86, 2812, 
    170, 125, 193, -129, -37, 53, 133, -87, 
    -152, 39, -67, -25, -46, 106, 116, -1035, 
    28, 32, 166, -105, -95, 19, 0, -74, 
    -149, 2, -68, -6, -193, -104, -11, -1066, 
    -165, -141, 182, -172, 13, 66, 121, -140, 
    -105, -50, -186, -108, -31, -117, 81, -237, 
    -66, -89, 91, 29, 103, -127, 106, 155, 
    -174, -139, 35, 82, -80, -21, -149, 518, 
    88, 165, 148, 60, 166, -125, 38, -30, 
    142, -52, 157, 113, -71, 153, 137, 1442, 
    96, -140, -155, -118, -182, 124, -136, 188, 
    -74, -80, -19, -109, 100, -52, -59, 252, 
    154, 128, 37, 156, 39, -124, -192, -148, 
    -89, 31, -140, 131, 32, -154, -123, -132, 
    -49, 123, 179, -69, -107, 64, 104, 76, 
    179, 66, -156, -96, 182, -112, -102, -15, 
    -81, 91, -44, -167, -58, 185, 107, -151, 
    100, 135, 139, 156, -149, -40, 173, 2075, 
    -29, -13, -78, -17, -102, -90, -9, 7, 
    59, -77, -34, 67, 119, 172, 65, 946, 
    -106, -27, -136, -101, 169, -51, 149, 57, 
    -81, -151, 92, -166, 119, -3, 131, 1428, 
    -50, -97, -64, 58, -104, -19, -22, -113, 
    -167, 137, -90, -98, -61, -108, 45, -67, 
    35, 31, -104, 80, -103, 140, 175, 52, 
    -115, 108, -148, -161, -136, 130, -24, 2003, 
    65, -25, 0, -54, 21, 161, 139, 141, 
    -81, -54, 119, 44, -8, 40, 34, 50, 
    -168, -120, 45, 95, 50, -159, 145, 154, 
    154, 8, -120, -138, 77, 107, 76, -737, 
    -55, 134, 30, 91, 46, -140, 166, -156, 
    70, -31, -40, -101, 175, -117, -46, 1065, 
    122, -131, 54, -91, 46, 106, -21, 106, 
    68, 157, -171, -87, 56, -48, -109, 527, 
    118, -40, 170, 41, -48, -49, -151, -81, 
    159, 84, 95, -56, -105, -46, 3, -210, 
    -35, 109, 36, 170, -138, 97, -102, 161, 
    29, 120, 12, 9, 74, 140, 156, -546, 
    52, 37, 93, 87, -148, 14, -164, -113, 
    131, -121, 141, -92, -91, 157, -67, -1762, 
    142, 102, 98, 131, 123, 150, -104, 20, 
    -118, 121, 128, 14, 43, 81, 7, 982, 
    -5, 173, 84, -66, -62, 107, -136, 39, 
    -151, -40, 18, 146, 16, -82, -83, 1027, 
    -65, 156, 42, -83, -121, -118, 157, 67, 
    87, 129, 46, 150, -112, 23, -18, -230, 
    145, 59, 18, 61, -62, -126, 115, -42, 
    -108, 68, 92, -164, -105, -66, -90, 1628, 
    -52, -42, -165, 167, 119, -83, 78, 133, 
    127, -174, -145, 4, 47, -44, -171, 308, 
    64, 97, -81, -26, 73, -102, -6, 40, 
    102, 11, -92, 0, 50, 10, 17, -544, 
    0, 22, 106, -71, 79, 10, 85, -84, 
    -78, 28, -51, -93, 37, -22, 75, -1444, 
    2, -16, -43, 55, 89, 21, 73, -111, 
    51, 66, -8, -46, 70, 73, 43, -157, 
    -18, -65, 46, -109, 55, -40, 60, 44, 
    -17, 0, 110, -57, -44, -67, -98, -1035, 
    -65, 76, 28, -64, 80, 47, 40, 23, 
    -80, 65, -7, -7, -43, 74, 104, -325, 
    76, -113, -47, 112, -50, 43, -100, 101, 
    -73, 38, 63, 69, 32, 41, 2, 13, 
    -10, -37, 3, -94, -81, -112, -104, 68, 
    13, 95, -42, -74, -60, 83, 74, 459, 
    54, 78, 103, -104, -16, 58, -21, -30, 
    -28, -10, -93, 66, 26, -99, -95, 708, 
    20, 49, 65, 101, 99, -56, 26, 0, 
    -61, 84, 86, -43, 30, 29, -19, 605, 
    69, -100, 77, -5, 38, -67, -31, -36, 
    -66, 54, 57, 6, -111, -39, -49, 1844, 
    -89, 53, 77, -17, -25, -34, 71, -37, 
    -29, -72, -56, 39, 18, -17, 38, 651, 
    -22, 46, 10, -59, -19, -27, -29, -30, 
    -92, -61, 59, -89, -40, -56, -74, -253, 
    106, -42, 82, -90, 3, 4, 47, 70, 
    -67, -66, 94, -65, 49, -109, -37, -117, 
    -31, 54, -56, -47, 37, -49, -37, -28, 
    -26, -9, 28, -24, -45, 49, -20, 413, 
    15, 89, 23, 109, -50, -57, -85, -26, 
    103, 95, -46, -9, 56, -93, -74, -467, 
    -16, 77, -91, 90, -82, -21, 49, -103, 
    85, -112, 48, -2, -39, -72, 104, 217, 
    122, -93, -80, 47, -42, -145, 129, -98, 
    168, -140, -14, -128, -87, 79, 92, -711, 
    -162, -107, -44, -173, 77, -154, 147, -20, 
    -141, -47, 33, -73, 31, -132, -49, -1482, 
    -5, 107, 165, -153, -123, -97, 78, 89, 
    98, -121, 148, 19, 20, 84, -127, -1866, 
    71, 117, 78, 115, -56, 7, 19, 131, 
    -15, -148, 97, -42, 97, -35, -162, -1257, 
    37, 83, -124, 73, 144, 143, -18, -87, 
    146, 19, -61, -112, -120, -156, 116, -910, 
    86, 45, 59, 131, 148, -18, 135, -34, 
    16, 20, -51, -12, 52, 153, -5, 496, 
    78, 158, -32, -78, -22, -14, 21, 146, 
    114, -133, 19, -144, 152, -140, 29, 1365, 
    -31, -160, -39, 46, -93, -14, 69, -65, 
    51, -101, -54, 161, 80, 66, -22, 3214, 
    -136, -108, 57, -100, -29, -17, 146, -88, 
    -135, -104, -90, -124, -4, 133, 35, -148, 
    158, -28, -28, -83, 88, -1, -109, 105, 
    90, 131, -2, 160, 103, -118, 15, 171, 
    41, -29, 160, -159, 161, -126, 77, -142, 
    -125, 1, 121, 25, -54, 27, 41, 78, 
    92, 79, 20, -43, 137, 81, 42, 82, 
    119, 49, -145, -124, -87, 90, -67, -12, 
    173, -163, 39, -156, 20, 141, -143, -170, 
    103, 11, -164, 113, -47, -22, -70, -428, 
    14, -75, 150, -75, 102, -129, 6, 118, 
    -81, 141, 3, 1, -63, -159, -129, 992, 
    -132, 135, 170, 34, 36, -37, 86, -95, 
    156, 87, 140, 73, 57, -100, 83, -384, 
    -45, 161, -157, 173, 141, 127, 0, 142, 
    17, -114, -13, 20, -7, 126, 22, 1102, 
    -36, 145, 35, -171, -68, 41, -75, 88, 
    155, -40, 81, -20, -21, -227, -92, -239, 
    90, -126, 203, 143, -129, 19, -140, -113, 
    -64, 221, 110, -21, 11, -57, -122, -712, 
    -114, 46, 19, -175, -145, 109, -182, 52, 
    -223, -187, 61, -159, 119, 195, 150, -175, 
    -60, -100, 39, -181, -3, 200, -181, 192, 
    -67, 170, -34, -200, 145, 121, -15, -1153, 
    115, 42, -67, -116, -155, -225, -79, -139, 
    178, 27, -191, -10, 201, -47, 160, 793, 
    34, 40, -107, -215, 159, 54, 161, -164, 
    13, 96, 32, 117, -54, -148, -56, -1466, 
    -114, 113, 74, 111, 134, 22, -175, 53, 
    1, 8, -100, 23, -57, -65, 221, 1838, 
    -33, -208, -150, 133, 132, 56, -109, 100, 
    172, -41, 45, 11, -189, 10, 125, 830, 
    167, 210, -105, 76, -33, 32, -83, -199, 
    155, -119, 61, -132, -169, 133, -146, 1500, 
    121, 120, 212, -36, 20, -134, -62, 189, 
    -134, -87, -192, -16, 129, -156, -71, -1366, 
    129, -41, 26, 29, 70, -100, 38, -133, 
    186, 26, -129, -60, 209, 41, 84, -4104, 
    -120, 4, -213, 168, 65, 192, 231, -68, 
    -120, 176, 57, -150, 8, 229, 219, 281, 
    149, 106, 170, -169, -1, 156, 154, 188, 
    -9, 45, -124, -34, 22, 52, 154, -779, 
    176, -115, -94, -156, 190, 204, -112, -8, 
    -17, 83, 96, 64, -136, -106, 84, 1572, 
    92, 200, -11, 192, -131, 196, -165, -196, 
    138, 54, -70, -28, 163, 225, -196, -632, 
    -56, 123, -190, -133, 5, -194, 224, -140, 
    3, 93, 107, 123, -30, 77, 143, -1581, 
    -35, 160, -233, 207, 22, -125, -16, 195, 
    154, -99, 107, 110, 126, -161, 56, -934, 
    30, -221, 153, -180, -86, 5, 107, -16, 
    114, 46, -9, 194, 78, 65, 98, -708, 
    98, -62, 10, -94, 107, -136, -80, -133, 
    164, 124, -247, 218, -214, 168, 136, 252, 
    8, 43, -223, 170, 0, -162, -157, 183, 
    -50, 110, -167, 113, 205, -14, -132, -686, 
    -141, 116, -217, -108, 137, 181, -112, -37, 
    -81, 173, -204, -213, -75, -128, -77, 1587, 
    158, 206, -75, -14, -240, 198, -220, 173, 
    72, 83, 215, -145, 164, 78, 14, -2302, 
    -9, -213, -215, 177, 159, -149, 2, 51, 
    -54, -32, -26, 214, -239, -204, -61, -2832, 
    158, -163, -241, -71, -159, -20, 4, -105, 
    -10, -212, 151, -199, 118, -119, -198, -305, 
    -141, -213, -122, 145, 190, -30, 113, -168, 
    25, 238, -39, 30, -85, 28, -158, 1998, 
    -56, -43, 96, -192, -124, 159, -153, -174, 
    238, -204, -108, -161, -247, 77, 17, 1742, 
    -2, 37, 160, -230, 11, 214, 35, -177, 
    -187, -106, 17, -31, 246, -1, -1, 1069, 
    117, 127, -119, 26, -87, 38, -128, -81, 
    223, 116, -158, -86, 126, 229, 242, -2891, 
    15, 132, -228, -11, 229, -48, -65, -235, 
    230, -193, 183, 36, 15, -38, -53, -949, 
    -72, 177, -2, -164, 158, -107, 233, 123, 
    -29, -32, 160, 245, -55, -199, 184, -26, 
    -189, 42, -17, 164, -25, 23, -27, 150, 
    -230, -198, 50, 2, 149, 233, 154, -724, 
    80, 163, 202, 207, -174, 4, 78, -13, 
    247, 154, 27, 230, -207, 139, 16, -724, 
    -15, 68, 1, 27, 50, 68, -26, 72, 
    14, 15, 61, 14, 70, -26, -21, 321, 
    -50, 47, -61, 32, -17, -2, 18, -42, 
    69, -38, 64, 18, 11, 21, 59, 140, 
    42, 29, -46, -50, 14, -7, -71, -47, 
    4, 3, -53, 19, 3, -72, -3, 298, 
    -65, 55, -14, 43, -36, 37, -46, -15, 
    -18, 61, 47, -15, -63, -12, 13, 684, 
    45, 57, 19, 16, -13, -14, 56, -14, 
    -45, -11, -49, -47, -69, 27, -71, -191, 
    -48, 42, -6, 13, 57, 24, 70, 62, 
    5, 35, -8, -34, -17, 71, -57, 124, 
    -14, 14, -20, -62, 15, -10, 22, 12, 
    28, 37, 17, -10, 48, -52, 2, 753, 
    -57, -23, -70, -33, -4, 51, 39, -67, 
    -38, 53, -44, 33, 50, 49, -17, 241, 
    -7, -67, -23, -21, 38, 56, 16, -47, 
    -28, 48, -25, 73, 18, -66, 35, -499, 
    40, 9, -49, -7, -51, -8, -57, 17, 
    61, -40, -1, -15, -63, 50, 73, -424, 
    -36, -6, 9, -58, 22, -73, -65, 41, 
    56, -54, -52, 58, 68, -50, -55, -343, 
    53, 28, 69, -60, 69, 51, -72, -65, 
    18, -58, 66, -65, -20, 32, -49, -401, 
    -3, -38, -41, -37, -34, 50, 9, 11, 
    0, 24, 73, -49, 4, -20, -43, 496, 
    61, 58, -27, 10, 17, -30, -16, 55, 
    -60, -55, 22, 20, 17, -70, -1, -678, 
    55, 53, 33, 65, -31, 3, 71, 66, 
    7, 51, -52, -14, -36, 33, -39, 414, 
    -70, 31, -16, 25, -63, 66, -38, -19, 
    -61, 9, 69, -47, -45, 63, -27, -72, 
    -116, -6, -68, -114, -15, 119, 20, -110, 
    108, 4, 56, 83, -109, 77, -23, 632, 
    -112, 25, -96, -86, 120, 78, 75, 85, 
    15, -67, -96, 126, 78, -65, -123, 971, 
    111, 84, -44, 124, -101, -119, -60, -4, 
    -7, -3, 74, 10, -9, -14, 54, 216, 
    24, 0, 36, -93, 82, 24, 100, -112, 
    -79, -38, 7, -125, -115, 74, 122, 1530, 
    -11, -21, -12, 85, 31, -101, -52, -113, 
    85, -9, 62, -69, 105, -43, 123, 51, 
    30, 95, 13, 96, 46, -64, 13, 82, 
    124, 37, 6, -13, -65, 81, 45, -190, 
    56, -114, 108, 56, -32, 40, 11, 111, 
    -39, -64, -113, 96, 100, -81, -15, 962, 
    -93, -125, -43, 73, 52, 89, 69, -22, 
    -1, -115, -97, -17, -87, 3, 71, 111, 
    12, 123, 89, -79, 61, 116, 17, -101, 
    95, -78, 24, 9, -21, 74, -33, -47, 
    -93, 92, -37, -100, -33, 68, 43, 103, 
    -97, 107, -88, 15, 99, -18, 22, -542, 
