#ifndef WEIGHTS_BIAS_INT32_H
#define WEIGHTS_BIAS_INT32_H

#include <stdint.h>

static const int32_t WEIGHTS[] = {
44, -27, 19, 356, 336, 229, -28, 28, 
    -18, 227, 132, 30, -26, 8, 25, 229, 
    148, 195, -32, 29, 31, -120, -115, -20, 
    -22, -21, 12, -172, -102, -66, -14, -19, 
    -13, 135, 192, 200, 57, -61, -16, 53, 
    -3, -12, -43, 26, 29, 149, 200, 147, 
    18, 7, 40, -147, -148, -112, 14, 8, 
    32, 5, 16, 98, 6, -5, -12, 159, 
    162, 198, 7, -5, 33, -21, 6, -27, 
    17, 60, 59, -149, -131, -112, 7, 6, 
    6, -1, -23, 10, 34, -10, -39, -6, 
    10, -30, -28, -1, -8, 3, -3, -5, 
    -23, -1, 7, -186, -188, -199, -10, -4, 
    -13, -186, -190, -166, 10, -7, -55, -89, 
    -113, -69, 7, 20, -36, 62, 103, 89, 
    20, 3, 29, 162, 139, 203, 0, 11, 
    -27, -51, -86, -102, -2, -9, -15, -37, 
    -10, -38, 21, -19, -22, 34, -10, -11, 
    33, 32, 6, 89, 62, 34, -14, 3, 
    8, 16, -9, -17, 0, -39, -3, 12, 
    33, 63, 11, 22, 11, 18, 48, 50, 
    5, 8, 2, -20, -23, -19, -6, -24, 
    -11, -9, -5, -3, -53, -72, -37, -102, 
    -37, -99, -7, 5, -2, -1, 4, 5, 
    -68, -194, 867, 1662, -974, -1728, 637, 764, 
    1597, -1412, -148, 234, 447, 467, -2236, 1592, 
    744, -2818, -686, 870, 428, 1212, -90, 834, 
    232, -887, -2033, -1455, -557, 911, -350, -1874, 
    -2463, -727, 412, 755, 933, 547, -880, 475, 
    920, -3083, 1143, -936, -2230, -1646, 384, 13, 
    -166, -43, 300, -175, 180, -479, 4, -650, 
    190, 356, 592, -1881, 470, -417, -1185, 90, 
    484, 97, 402, -21, 416, -523, -2200, 263, 
    -118, 495, -192, -1705, 1391, -543, 424, 332, 
    -558, -889, -605, -542, -278, 186, 607, -645, 
    109, 369, -161, -714, 192, -1000, 225, 2816, 
    981, 585, -1033, 420, 1582, -348, 1449, 1036, 
    -6, 82, -935, -176, -909, 550, 1109, 293, 
    725, 1012, 340, 1108, -875, -1129, 1474, 860, 
    -2541, 816, 1401, 774, 46, -987, -501, -172, 
    188, 83, -908, -502, 658, 537, -1731, -357, 
    374, 1197, 227, 1379, 346, 1202, 826, -1101, 
    199, 411, 677, -585, 465, 582, -116, -1522, 
    -1949, -44, -1844, -2062, 1308, -467, -1419, 1448, 
    859, 1210, 1317, -78, -1854, 294, 913, 332, 
    -540, 534, -240, -1017, -709, -185, 367, 708, 
    751, -1832, 224, -667, 1044, -377, -1180, 767, 
    895, 264, 375, -504, 56, -583, -687, -1384, 
    -1169, 887, 285, 950, -816, -2446, 237, -490, 
    -434, -92, -89, 1723, 528, -1015, -2112, -621, 
    1157, 882, 1574, 194, -736, -1771, -893, 865, 
    -14, 374, 1596, -77, -501, 1148, -837, 518, 
    505, -513, 247, -575, -630, 385, -748, -1725, 
    1375, 1869, -2865, 795, 909, -473, 1129, 874, 
    -460, -449, -962, -789, 98, 193, -1316, -547, 
    -961, 253, -659, -379, -1307, -282, -274, -1065, 
    -602, 678, -260, -420, -558, -1054, 494, -303, 
    -162, 778, -170, -1889, -1338, -929, 242, 1062, 
    1304, -259, -711, -446, 279, -111, 247, -1802, 
    -1240, 769, -696, 498, 538, 17, -633, 241, 
    2903, -802, 581, 1330, 30, -232, -671, -793, 
    -1312, 1191, 336, -893, -219, -423, -1228, 1177, 
    533, -1060, 1915, -1119, 230, 580, 143, -809, 
    -481, 58, -851, 584, -168, -185, 330, -133, 
    -496, 1003, -323, 256, 842, -1025, -20, -750, 
    40, -805, -648, -5, -757, 1619, 357, -1080, 
    -145, -1016, 214, -1720, -1102, -1622, -914, -1649, 
    920, 132, -541, 1560, 854, -207, -1182, -351, 
    -2671, -3210, -784, 1279, 1242, 663, -1013, -541, 
    1005, 599, -142, -66, 129, 632, -239, -354, 
    -195, -37, -2232, -766, -1552, 1628, 1173, -612, 
    -547, -986, -813, -1336, -606, 533, 320, 1763, 
    -407, -488, 310, -566, 640, -440, 761, -133, 
    974, -107, -605, 12, -217, 1169, 1672, 645, 
    21, 139, -4062, -2542, 41, -396, -85, 787, 
    -1222, 358, 1404, -553, 169, -772, 336, -253, 
    796, 126, 920, 38, -1546, -2343, 756, -23, 
    -147, -153, -198, 156, 1656, -1478, -691, -722, 
    -31, -158, -410, -257, -119, 971, -695, 406, 
    -1464, -321, -1864, 1086, -1369, -658, -1332, -425, 
    -198, -145, 1525, 705, -910, 239, 698, -273, 
    -2327, 937, -1160, 348, 1812, -1267, -412, 775, 
    -1335, -1271, 768, -1731, 959, 407, -369, -180, 
    -1052, -603, 170, 867, -2076, 1058, 653, -418, 
    -790, -1345, -646, -529, 532, 409, -540, -955, 
    -220, -448, -1461, -1244, -1741, -111, -238, -269, 
    68, 271, -663, -669, 375, -51, -1226, 362, 
    -1222, -1512, 127, -171, -31, -957, -1412, -19, 
    754, -564, 262, -209, 381, -1083, 78, -763, 
    600, 653, 207, 113, 628, -16, 1146, -210, 
    -412, -503, 203, -770, 85, -203, -240, -1398, 
    283, 429, 260, -488, 465, 1386, -2001, -381, 
    699, -115, -1257, 209, -924, 414, -1268, 41, 
    1163, -1341, -705, -1094, -900, 1174, -539, 409, 
    158, 462, -527, 1793, -1544, 330, -654, -612, 
    199, -541, -252, -699, 285, -631, -414, 51, 
    -1678, -1997, 666, -1131, -21, -758, -1009, 276, 
    2013, 180, 1446, -1466, -316, -1164, 41, -1450, 
    -6, -5, 1516, 300, -283, -1072, -326, 589, 
    -1209, 849, 28, 1452, -87, -888, -17, 194, 
    1243, -33, -662, -723, 705, -299, -1310, -1519, 
    1217, -120, -3809, 125, 99, -1107, 1653, -1359, 
    -831, 48, -1750, -672, -1655, 311, 1612, -1162, 
    -1012, 2356, 1803, -1734, -664, 548, 840, -734, 
    -134, 430, -1158, 306, 1396, -815, -349, 864, 
    -1569, -859, 570, 1530, -268, -1600, -440, 493, 
    143, -177, -1339, -532, -1738, -1163, 1242, 1147, 
    387, -407, -297, -901, 325, -1057, 65, -746, 
    605, -947, -817, 895, 131, -1576, 686, 220, 
    -643, -834, 37, 495, 852, 1022, 1042, -1589, 
    -661, -537, -58, 1209, 313, -395, -354, -964, 
    622, 1057, -131, 177, -740, 345, -1117, -554, 
    -316, -448, -1897, -661, -114, -251, -328, -2087, 
    -815, 121, -311, -481, -593, 1817, -1841, -466, 
    -826, -1547, -488, 181, 369, 435, 116, -2133, 
    -858, -1017, -736, -106, -378, -1218, -527, -1164, 
    -66, -539, 417, -568, -326, -276, -2118, -243, 
    281, -277, 553, -1361, 151, -366, 314, 198, 
    213, -1737, -1449, 426, 738, -432, 851, -853, 
    189, -715, 299, -321, -355, 591, -981, -783, 
    932, -54, -902, -930, -1795, -1527, 244, 392, 
    -1374, -1477, -101, -48, -314, -1438, -576, 398, 
    -869, -664, -1438, -686, 1369, 718, 24, -130, 
    -36, -9, 304, 477, -1069, -656, 685, -1481, 
    -482, -124, -1646, -2169, -793, -288, 1440, -815, 
    -123, -954, 1001, 446, -1587, -199, 642, 225, 
    1400, -503, -1235, -1051, 101, -72, 1184, -656, 
    -2053, 727, 499, -728, -549, -317, -1282, -129, 
    -944, -1246, 510, -260, -1762, 596, 342, -1440, 
    -1332, 355, 390, 21, 386, -937, -96, 58, 
    -772, -720, 843, -82, 606, -785, -2032, 758, 
    -611, -1384, 924, -1139, -1460, -849, -1841, -196, 
    -1130, 378, 46, -338, 696, 1138, -246, 381, 
    -80, 855, 1397, -262, -662, 215, -661, -634, 
    827, 766, -118, 1091, 1294, -194, -1637, 410, 
    902, -956, 539, 1479, -797, 388, -534, 88, 
    1686, 723, 397, 736, -666, 86, 1176, -1802, 
    -107, -119, -1633, -722, 1134, 333, -648, -868, 
    -379, 1068, 382, 156, -246, -711, -345, -1820, 
    -317, 808, -1008, 469, -1419, -2465, -1171, 389, 
    1016, 772, 217, 1519, -117, -1109, 806, 579, 
    355, 1512, 329, -176, -62, 72, -398, 1481, 
    943, 730, 334, -437, -8, 1308, -409, 1692, 
    397, 394, 315, -458, -200, 3539, 1995, 1667, 
    203, -69, -890, -395, 339, -1082, 1091, 282, 
    170, 729, -1615, -958, -1480, -79, 384, 263, 
    -465, -191, 818, 209, -1477, -394, -1290, -1281, 
    -213, -2338, -1131, 92, 112, -845, 772, -976, 
    -1016, -775, -697, -704, 961, 1143, -452, 1033, 
    -630, -482, 1112, -878, -1223, 772, 925, -1362, 
    46, 688, -296, -471, 654, -740, 388, 80, 
    -145, 646, 1786, 1038, -971, -415, -570, -894, 
    -1042, -829, 9, -155, -551, -29, -608, -1839, 
    1498, 1107, -1054, -941, 728, 836, -471, -164, 
    -766, -966, 888, 210, 927, 1259, -946, -930, 
    -196, -85, 512, -474, -2499, 738, -671, 2017, 
    -2535, 2385, 1345, 2111, -2048, -1230, -1569, 1020, 
    -1585, -738, 696, 1141, 1333, 1049, -760, 723, 
    -1538, -11, 96, -523, -553, -591, 1616, 591, 
    2086, -443, -1484, 648, -1070, -1118, 696, 640, 
    328, -1211, -887, 216, -2074, 231, -36, 1841, 
    -40, -993, 203, -471, -1718, 1728, -1472, -946, 
    -628, -252, -21, -565, -952, 713, -466, 517, 
    -957, -1449, 254, -1240, -809, 221, 679, 688, 
    88, 1172, -527, -1864, -1381, 995, 340, -581, 
    1124, 202, 243, -917, -468, -2281, 352, 9, 
    1486, -990, -16, -2372, 106, -933, -821, 608, 
    475, 1431, 835, 296, 376, 8, 383, -1670, 
    442, -1258, -200, -386, 59, 407, 1029, 38, 
    -997, -52, 470, -1142, -1442, -181, -262, -869, 
    349, 958, -500, -313, -331, 1368, 9, -935, 
    465, -1530, -1579, 684, -80, 381, -486, -1920, 
    424, 469, -1632, 547, 522, 555, -605, -1277, 
    602, 971, 326, -178, -350, 408, 1578, -481, 
    490, -490, -202, -797, 249, -811, -129, -243, 
    -1181, -659, 449, -394, -215, 762, 471, 294, 
    955, -747, 532, 98, 889, 537, -791, -750, 
    841, -500, -399, -1434, 100, 120, 911, 610, 
    96, -151, -1292, -1627, 757, 733, 611, 408, 
    870, 322, 585, -710, -1544, -520, 7, 243, 
    596, -526, -344, -1462, -1380, 242, -459, 343, 
    1194, -2165, -58, 857, -1627, -1334, 1054, -230, 
    -908, 1238, -472, -1624, -214, 784, 905, 440, 
    -145, -491, -397, -75, -23, 552, -730, -1168, 
    -560, 171, -601, 605, -368, -834, 34, 98, 
    -692, 437, -305, -511, 467, 30, 1344, 371, 
    1178, 644, 50, -928, -129, 857, 615, 1274, 
    -1289, 474, -1157, 397, -452, -820, 492, 340, 
    -405, 295, 107, -368, -380, -729, 152, -1959, 
    -33, -1016, -308, 266, -1042, -762, -233, -1930, 
    -2826, -613, -625, -826, -179, -1004, 481, -1037, 
    -1181, 153, -855, -300, -560, -1312, -14, 1349, 
    -2171, 837, 743, -1371, -1751, -1079, -514, 174, 
    913, -15, -1316, -1056, 704, -2683, -1289, 699, 
    -188, -932, 338, 778, 1591, -237, -939, -82, 
    -383, -612, -756, 407, -2026, -205, -1927, -292, 
    1345, -107, -118, 77, -1223, -355, 858, 1136, 
    814, -869, -1642, -21, 1236, 2409, -514, -548, 
    -206, -1336, 299, -807, 184, -575, -703, -1026, 
    2362, -689, -896, 362, -1664, 817, -1058, -2271, 
    -1857, 2484, 932, -514, 495, -2908, 137, 699, 
    -1476, 90, 73, -338, -857, 725, -1389, 1676, 
    -1545, -1362, -1448, 4, 632, -585, -1173, -1653, 
    -1575, 4023, -202, 315, 1693, 998, -2872, 2487, 
    -295, -1803, 696, -258, -229, -1080, 691, -983, 
    876, -139, -189, 607, 332, 117, 1084, -18, 
    42, -434, 334, -87, 488, 147, -823, -1013, 
    -263, -560, -1446, -165, 214, 766, -1035, -1027, 
    93, -1539, -637, -291, 477, -143, -202, 113, 
    599, 63, 276, -709, -275, -530, 658, -327, 
    18, -49, 224, 160, 127, -94, 48, 820, 
    400, 364, 113, -57, 884, 614, 274, 692, 
    -92, -493, -1065, -160, 1052, 1716, 1417, -173, 
    1354, 1005, 177, 49, 342, -102, 1042, 237, 
    -435, -71, 63, -376, -332, 265, 929, 64, 
    298, 518, 1621, 2297, 563, 288, 396, -532, 
    419, 194, -755, -964, -528, -266, 818, -834, 
    210, -753, -206, 279, -285, -54, -106, -683, 
    -141, 511, -390, -874, -630, 123, -890, -163, 
    180, -1201, 572, 332, 843, -190, 771, 164, 
    240, -95, -1031, -1244, 114, 184, 298, -180, 
    -876, 527, -750, -1619, -214, 66, 367, -928, 
    312, -704, 350, 359, -453, -981, -297, 599, 
    -122, -432, 75, -597, 128, 206, 292, 801, 
    182, -913, -1686, 287, 316, 895, -768, -788, 
    446, 397, -212, -899, -1130, 823, 623, 430, 
    155, 201, -330, -397, -956, 308, 760, 623, 
    163, -794, -1423, -509, 203, -230, -634, -399, 
    -1158, -312, 791, 40, 277, -3, 646, -50, 
    347, 658, 1509, -520, 680, 354, -692, 1045, 
    -1416, 340, -1101, -852, 701, -1330, 642, 386, 
    -317, -198, -1322, 37, -479, -311, 718, -916, 
    -813, -62, -997, -2636, -316, 596, 226, 201, 
    244, 401, -464, 566, 473, 883, -969, 1316, 
    -282, 587, -237, -749, -722, -360, -367, -289, 
    455, 1310, 20, 179, -33, -510, -936, 234, 
    -308, 101, -234, 243, -1844, 471, 393, -655, 
    119, -486, -1276, 289, 230, 940, -804, -694, 
    -567, -814, 1061, -926, -689, 830, 703, 1205, 
    556, 627, 403, 112, 530, 599, -1019, 961, 
    410, -626, 981, -720, -80, -72, 143, -874, 
    -603, 268, -662, -453, 37, 247, 389, 244, 
    252, -351, -481, -1169, 533, -62, -161, 23, 
    7, 316, 731, -366, -788, 95, 612, 783, 
    -945, -575, -20, 6, -438, 486, -240, 875, 
    -793, 427, 840, -1374, 242, 893, 155, -1033, 
    396, -202, 142, 187, 399, -35, 566, -272, 
    -65, -31, -384, 926, 199, -463, -703, -812, 
    177, -195, 725, 484, -232, 411, -411, -725, 
    194, -237, 331, 109, -930, -131, -1605, 179, 
    -844, 551, -478, -598, 342, -62, 792, -349, 
    74, -85, 116, -260, 591, 0, 145, 103, 
    -232, -19, -342, -590, -1205, 33, -263, -217, 
    -141, -509, -531, 310, -143, 50, -862, 896, 
    642, 96, 1701, -1151, -260, 1, 641, 804, 
    -686, -152, 570, -113, 624, -233, -758, 358, 
    -229, -98, 558, 267, 1204, -776, 572, 819, 
    -820, 1008, -51, -168, -867, 1533, 224, 667, 
    -849, -234, -338, 97, -355, -294, 747, -1691, 
    117, 456, -929, 1215, 583, -491, 134, -339, 
    713, -73, 1336, 442, -723, -1156, 1004, -783, 
    314, 90, -149, 131, -412, -1258, 60, 546, 
    597, -384, 640, 97, -49, -162, 1301, -319, 
    1516, -342, -86, 287, -1206, 340, -400, 118, 
    583, -610, 94, 567, -357, 660, 74, 11, 
    60, 53, 408, 524, 1341, -260, 286, 89, 
    -492, -918, 882, 282, 137, -1597, 193, 760, 
    5, 155, -842, -521, 534, 803, 345, 393, 
    -26, -346, -1127, 601, -1059, 495, -705, -890, 
    37, -1040, -647, 107, 644, -497, -470, 756, 
    1077, 327, -788, -578, 935, -1308, 183, -1523, 
    1444, 676, -359, 1339, -223, 1814, 150, -398, 
    478, -108, -227, -333, 112, -387, 628, -1094, 
    -256, -291, 654, -386, 159, 431, -876, 374, 
    -111, 20, 1294, 504, 300, -167, 1367, 345, 
    -9, 64, -201, 465, 391, 520, 500, 86, 
    96, 194, -197, 29, -56, -271, -511, -1326, 
    243, 1415, -225, -442, -344, -752, 436, -135, 
    376, -53, -118, 201, 245, 104, 564, -180, 
    -773, -77, -659, -407, -1303, 389, 255, -270, 
    1038, -855, 710, -520, 214, -497, 679, -1957, 
    697, -213, -456, -1080, 574, -389, -618, 706, 
    -315, 42, -487, 906, -807, 865, -2387, -626, 
    -254, -1346, 161, 748, 439, 149, 1222, -247, 
    922, 471, 293, 266, -131, 720, -895, -721, 
    -1279, 660, 876, 132, -1583, 27, -322, -998, 
    -749, -18, -1108, 501, -1036, 688, 73, 1119, 
    -71, 305, -377, -1027, 1110, 415, -133, 475, 
    -1212, 116, -1437, -406, -926, 193, 423, -924, 
    685, 86, -918, -133, 81, 7, 879, 220, 
    60, 636, -240, -170, -720, -233, 339, -1101, 
    356, -237, 322, -578, -112, -268, -277, 99, 
    -206, -300, -1287, 51, -1387, -764, 739, -538, 
    547, 571, -1257, 673, 32, -741, -398, -274, 
    1020, 238, -1111, 295, 503, -648, -1191, -538, 
    56, 664, -479, 632, 276, 935, -583, 496, 
    173, -1029, -49, -1606, -590, -91, 89, -428, 
    987, -575, -326, -145, 615, -1574, 535, -12, 
    -522, -357, 679, -42, 270, -546, -173, -780, 
    -89, -79, 54, -10, -1265, 211, 279, -355, 
    331, 94, -395, 71, 794, -60, 216, 81, 
    -63, 874, 30, -118, -525, 170, -652, -762, 
    572, -2360, -90, -397, -111, 108, 1344, -1050, 
    248, -2282, -1033, 12, -1412, -741, 132, -459, 
    396, 947, 502, 273, 350, 151, 382, -663, 
    -431, 399, -123, 765, 211, -481, -23, -2038, 
    1034, 24, -540, -179, 756, -987, 419, 481, 
    10, 638, -2019, 464, -476, -1231, 28, -452, 
    221, 73, -110, -953, 250, 572, -3, -89, 
    24, 564, 126, 129, 344, -60, 210, -1346, 
    1, -262, -584, -32, -1391, 628, -95, -150, 
    558, -240, 1063, -537, 118, 744, -998, -378, 
    346, 1013, -1544, -997, -182, -185, 187, -490, 
    547, 655, 365, -383, 222, 862, 236, -258, 
    -266, 349, 9, 71, -408, -623, 124, 294, 
    -409, -220, 494, -369, -1560, -186, -27, -1037, 
    -62, -66, -770, -220, 29, 1328, 396, -1282, 
    -521, 849, 256, 1197, -19, -2004, -2142, 341, 
    892, -471, 446, -484, -309, 251, -585, -357, 
    781, 1413, -971, -1186, 300, 197, -160, -415, 
    48, 166, -648, -904, 651, 274, -411, -47, 
    -808, -779, -93, 876, 206, -46, -27, -87, 
    -1564, -131, 435, -452, -1266, -176, -240, -1112, 
    784, -162, 1360, 120, 1215, 1006, 297, -328, 
    530, -136, 64, 178, 383, -26, -274, -1733, 
    -654, -16, 53, -64, 175, 401, -673, 107, 
    241, 333, -835, -403, 220, 645, -560, 246, 
    436, -2, -1525, -197, -839, 144, 1118, 488, 
    -198, 267, 462, -387, 420, -288, 607, 130, 
    213, 286, -173, -323, 103, 1078, -507, 668, 
    59, 559, 75, -81, -93, -449, -798, -234, 
    -105, -81, -680, 459, -375, 14, 20, -353, 
    -808, -689, -1039, -701, -46, -753, -226, 318, 
    -727, 530, 365, -990, 388, -694, 149, -183, 
    1020, -860, 432, 419, -35, -630, 294, 431, 
    -507, -290, 385, 636, 161, -724, -140, -341, 
    1344, -335, -405, 497, 740, 833, 130, -1476, 
    708, 1159, 198, 212, -414, 798, -1593, 188, 
    407, 1163, -833, 150, 1068, 889, -1270, 94, 
    79, 222, -714, 340, 349, 682, 476, -103, 
    280, 302, 486, -78, 479, -940, -3, -1634, 
    242, -116, -277, 204, 647, 1255, 468, 682, 
    -61, 373, 353, -153, -196, 778, -988, -25, 
    292, 52, -1153, -398, -526, -541, 853, 296, 
    13, 715, 260, -163, 28, -372, 209, -264, 
    645, 572, 775, -365, 877, 455, -225, -945, 
    848, -117, 362, 290, -175, -672, -200, -585, 
    582, 325, -218, 232, -1420, -402, -283, -990, 
    -1544, 491, -617, 574, -1295, -328, -941, 365, 
    -393, 763, -491, -34, 1261, -420, -491, 1428, 
    426, 7, -648, -143, 100, 356, 312, -509, 
    141, -420, -1253, -1180, -562, -247, -1493, -1252, 
    789, -300, -1507, -23, -526, -127, -948, 107, 
    995, 87, 284, 557, -804, -502, 848, -231, 
    213, 1285, -244, 93, 648, -1267, 409, -154, 
    -1695, -448, 678, 296, -1227, -99, 607, 286, 
    629, -17, 308, 354, -1398, -141, -1806, -517, 
    -1530, 284, -100, 76, 494, 59, 812, 445, 
    -189, 7, 108, 1, 668, -567, 185, -318, 
    -23, 217, 842, 79, -273, -105, -15, -767, 
    -143, 142, 923, 458, -507, 997, 158, 350, 
    -19, 508, 685, -644, 675, 894, 1256, -168, 
    -726, -1033, -618, 91, 690, 487, -189, -792, 
    -517, -774, 46, -585, -391, -241, -248, 1083, 
    457, -493, -556, 310, -117, 547, 498, 334, 
    498, 896, 399, -772, -145, 253, -626, -844, 
    -1080, 117, -615, 4, -123, -441, -280, 11, 
    151, 308, -679, 612, 852, 549, -108, -79, 
    -433, -135, -117, 485, -410, 681, 604, -1284, 
    931, -113, -370, 250, -510, -1145, -114, 183, 
    824, 273, -114, 763, 98, 231, 678, -630, 
    365, 113, 1114, 532, 90, -1349, 296, 427, 
    -242, -566, 1077, 304, 613, -748, -125, -396, 
    140, 827, 724, -148, 1230, -805, -381, -196, 
    339, -265, 195, -869, 136, 712, 167, -358, 
    -1268, -609, 1153, -161, 236, 42, 332, 269, 
    279, -1222, 33, 513, -813, 327, -102, -888, 
    425, 792, -362, 402, -1026, 27, 1339, -385, 
    214, 188, 426, 29, -313, 736, -518, 583, 
    222, 624, 421, 190, 461, 93, -357, 667, 
    425, -215, -905, -277, 522, 497, -406, 255, 
    455, 102, 239, 1082, 184, -300, 811, -997, 
    1504, -901, 881, -16, -171, -731, -694, -6, 
    372, 1518, 431, 776, 357, -56, 31, 16, 
    -267, 873, -266, 532, -1176, 971, 157, -771, 
    159, -516, 908, -531, 54, -1180, 609, -529, 
    988, -707, -923, 891, -79, 1312, 73, -94, 
    -907, -532, 1486, -369, -22, 103, -285, -325, 
    605, 233, -278, -707, 18, -750, 445, 752, 
    117, 1607, 273, 384, -424, -382, 1683, -320, 
    693, 167, -124, -183, 111, -211, 423, 1122, 
    948, 484, 825, -6, 17, 468, 109, 625, 
    -1232, -207, -409, 1041, 845, 804, -108, 394, 
    330, -432, -468, -535, -775, 112, -49, -1266, 
    -541, -189, 98, 198, -516, 527, 806, 248, 
    -263, -657, -164, -520, -481, 883, -897, -162, 
    -797, 397, 491, 358, 92, 44, 400, -929, 
    488, 221, 320, 1991, 264, -995, -71, 801, 
    -12, 238, -165, -410, 635, 643, -606, -1279, 
    377, 894, 374, -190, 153, -291, 1211, 1651, 
    1080, -391, -1148, -388, -935, -265, -238, 843, 
    826, -1030, -1255, -952, 279, 557, 739, 544, 
    282, -601, -718, 905, 112, 1089, -335, 76, 
    -1075, -247, -13, 529, 211, 381, 178, -339, 
    -149, -633, -34, -629, -450, 494, 584, 410, 
    -438, 168, 801, -39, 1048, -242, -306, -322, 
    -378, -1357, -398, 188, 52, 931, -820, -573, 
    -731, -1017, 654, 588, -517, 681, -191, -48, 
    672, -909, 411, 99, -806, -529, 61, -879, 
    416, -286, -23, 137, -561, -772, -526, 316, 
    517, 166, -1568, -606, -73, -1190, 1023, 261, 
    339, -18, 372, 111, -650, 383, -921, -254, 
    -678, -8, -1003, 969, 304, 494, -566, 545, 
    -1351, -49, -470, -17, -1231, 9, 117, 158, 
    344, -577, -418, -408, 522, 306, 135, 552, 
    385, 193, 1089, -1563, 328, 49, 24, -1830, 
    543, -1294, 980, -649, -16, -356, -161, -36, 
    -693, 166, -1452, 882, -146, -1672, -1512, 937, 
    -885, 422, -411, 87, -569, 925, 653, 391, 
    -1144, 679, 223, -669, -549, 757, -294, -1415, 
    854, 610, -1109, 759, -367, -1044, -126, 837, 
    -556, -168, 471, -157, -316, -164, -311, -43, 
    -761, -953, -341, -1166, 19, 386, -205, -1180, 
    -983, 327, 87, -1135, 191, -1681, 131, 418, 
    70, -286, 557, -1587, 126, -1424, -760, 659, 
    -188, 372, -310, 982, 203, 179, 62, -1544, 
    624, -174, -920, 593, -258, -580, -314, 407, 
    -705, 681, -806, -1441, -32, 1459, -132, 460, 
    -618, 199, -366, -850, -81, -168, 764, 415, 
    -234, 699, -1230, 178, 651, 105, 70, -914, 
    -165, -64, 131, 207, -226, -279, 729, -70, 
    -92, 1268, -274, -108, 15, 516, -277, -446, 
    632, -218, 215, 525, -32, 115, -223, -202, 
    -317, 291, -711, -340, 842, -111, 637, 797, 
    -308, -304, -1157, 194, 536, 593, 257, 232, 
    109, -216, -214, 181, -391, -1306, -1368, -1189, 
    221, 395, -483, -328, 340, 1050, 617, -537, 
    -64, -35, 535, 1045, -385, 293, 395, -141, 
    439, -340, 20, 644, -1553, -174, 387, 760, 
    -204, -1090, 183, 471, 526, 1340, 11, -344, 
    -404, -252, 576, 161, 782, -74, -281, -646, 
    -106, -248, -535, 63, -829, -346, 14, -918, 
    -3, -1542, 685, -450, 392, 593, -130, 558, 
    968, 805, -340, -318, -634, 866, 46, 183, 
    280, 691, -870, -478, 754, 439, -904, -951, 
    34, -1, 1298, -521, -428, 166, 813, -135, 
    357, -505, 560, -1442, 501, 465, 546, 589, 
    488, -265, -788, -1, -750, -2332, 546, 101, 
    -950, -14, 719, -1188, -325, 488, -343, 936, 
    -337, 261, -1766, -34, 490, -1282, 27, 606, 
    307, -330, 13, -501, -668, -541, -921, 291, 
    164, 556, -307, -200, 67, -688, -1147, 196, 
    -1375, -431, -593, -194, 216, 951, 980, -145, 
    1343, 765, -1099, -102, -713, 760, 584, -263, 
    -864, 625, 540, -735, 75, 240, -320, 26, 
    176, 306, 730, 523, 793, 504, 598, 511, 
    251, -28, -332, -692, 462, -333, 242, -58, 
    -307, 95, -143, -243, -111, -79, 206, 389, 
    426, -644, -456, -355, -88, 156, 266, -268, 
    -287, 29, -954, 781, -348, -578, 339, 936, 
    -1594, -915, 476, -138, 76, 944, 230, 1068, 
    148, -159, -282, 54, 289, -400, 151, -85, 
    882, 915, -231, 258, -213, 529, 758, 1027, 
    -146, -250, 625, -1079, -181, -573, -473, 346, 
    67, 451, -631, 32, -34, 577, -372, -411, 
    618, 615, -828, -54, -1127, 346, 513, -436, 
    -223, 207, 521, -343, 588, 483, -105, 119, 
    -261, 291, 239, -893, 306, 979, 228, 92, 
    241, 353, -1370, 1511, -1009, 727, -698, -451, 
    612, -734, 493, 178, 384, -1776, 563, -759, 
    797, -390, -65, -523, 42, 1259, -813, 573, 
    -907, 956, -1428, 432, -1190, -719, -417, 246, 
    -676, -26, 564, -618, -1105, -465, 205, 741, 
    -381, -144, 1103, -595, 1368, 503, 43, 739, 
    -87, 19, -362, -181, 645, -539, -135, 441, 
    -421, 833, 354, -381, 93, 1269, -87, 766, 
    -389, 1382, 1083, -757, -9, -1395, 633, 213, 
    -209, -967, -636, 237, -446, 748, -390, -108, 
    -542, 101, 824, -166, -560, -882, -887, 526, 
    -1628, 1478, -270, -473, 1036, 104, 1149, -109, 
    -601, 781, 979, 516, -291, 67, -511, -53, 
    266, 124, -241, 390, 282, -125, -885, 424, 
    37, -132, -371, 251, 1036, -15, 236, -308, 
    -235, -328, 578, -441, -762, 1212, -545, 939, 
    -377, 717, -217, 989, 895, 84, 146, 57, 
    334, 279, 1335, 260, -417, 166, 938, -97, 
    -459, 479, -226, 560, 832, 685, -673, 507, 
    -506, -218, 55, 531, 301, 525, -233, 178, 
    -535, 432, -456, -231, -760, 182, -927, -651, 
    -269, -167, 1052, -348, -727, 482, -1650, 87, 
    930, 912, -73, -275, -919, -156, 328, 693, 
    157, -622, 519, 295, -927, -1027, -1398, 819, 
    -60, 187, -25, -187, 631, -1279, -22, -658, 
    -2372, -40, -230, -968, -378, 69, -1400, 283, 
    2, -1185, 593, -359, -415, -634, 299, 914, 
    -115, 671, 306, -161, -869, -432, -326, -154, 
    303, 437, -298, -52, -200, 211, -1261, 289, 
    906, -925, 674, 1194, 36, 88, -1365, -461, 
    -175, 758, 711, -549, 549, -310, -376, -308, 
    31, 741, 967, 985, 687, -449, 588, -430, 
    -396, 364, -43, 245, -569, -192, -2, 425, 
    -56, -793, -470, 453, 557, -526, -2296, -484, 
    153, 586, -1582, 481, -386, -173, 79, -469, 
    -1153, 214, 183, -396, 783, 114, 124, -304, 
    -758, 195, 1, 181, -266, 122, -281, -271, 
    -126, 151, 216, 429, -579, -775, -22, -21, 
    286, -800, -42, 504, -248, 233, -66, 467, 
    161, 462, -616, -273, -982, -8, 242, 258, 
    1159, -621, -565, -512, -590, -286, -241, -300, 
    -826, -639, -902, 190, 460, -32, 589, -501, 
    -139, 873, 703, -981, -81, -352, 395, -633, 
    50, 478, -585, -1600, -448, 936, -243, 265, 
    -320, 216, -324, -414, 233, -1099, 396, 632, 
    -318, 270, -765, 470, 135, 434, 419, 78, 
    73, -695, -233, 1142, 667, 1291, -299, -668, 
    -80, -245, -1194, -377, 663, -9, 463, -245, 
    -314, 184, 104, 204, -750, 204, -865, 427, 
    -255, 882, -1449, -63, 167, 343, -546, -2329, 
    -159, 1213, 441, 939, 351, -945, 274, -1357, 
    -832, -985, 658, 551, -1057, 115, 345, 223, 
    242, 490, -1780, -590, 371, -1304, 279, -1094, 
    576, 1224, 810, 1344, 503, 211, -384, -914, 
    201, 1412, 436, -912, 83, 798, 600, 190, 
    -837, 532, 388, -1074, 1846, -724, 1021, -521, 
    -369, 85, -68, -1176, -797, -102, -907, 535, 
    439, -1549, 1058, -368, -98, 80, -365, 75, 
    879, 566, 103, 1389, 541, 441, -372, -94, 
    -214, -1345, 1585, -1348, 550, -329, -25, 837, 
    -503, -104, -831, 206, -440, -559, -329, 1050, 
    157, -1014, 116, -90, 344, 150, -417, 753, 
    -166, 352, -190, 477, 730, 15, 539, 442, 
    156, 217, 295, -895, 1124, 876, 443, 541, 
    399, -20, -252, -386, 1065, -286, -217, 959, 
    308, -117, 453, -133, 539, 1078, 381, 165, 
    -918, 218, 85, 478, 671, -210, -578, -413, 
    36, -439, 363, -166, -120, 556, -154, 199, 
    -277, 452, 884, 454, -1454, -644, -355, -837, 
    669, 153, -227, -482, 101, 265, 52, -341, 
    721, 170, -778, 682, -251, 107, 719, 1148, 
    -582, 308, 142, -86, -1561, -345, 10, 957, 
    528, -505, -844, -532, -845, -652, 434, -452, 
    1358, -280, -252, 285, -978, 173, 549, -1352, 
    1238, -227, -258, -1059, -585, -669, -298, -789, 
    -748, -324, -1533, 1245, -695, -56, 732, 200, 
    -807, -798, 171, -1008, 260, -967, -720, -996, 
    -795, 345, 178, 10, 214, -590, 62, -620, 
    -947, 996, 450, 269, 468, -446, -524, -1715, 
    322, 756, -365, 328, 929, -163, 159, 776, 
    -65, 587, 180, -567, -596, 1763, -595, -49, 
    1040, -1362, 151, 1036, 144, -461, -288, -303, 
    -455, 1225, 17, -816, 289, -686, -551, 150, 
    846, 1552, 217, 828, 343, -514, 558, 934, 
    -183, -354, 356, -224, 297, -1179, -399, -469, 
    -81, -269, 546, -563, -152, 477, -255, 239, 
    -341, 720, 622, -448, 473, 244, -326, 145, 
    18, 297, 56, -1463, -204, 597, 96, 408, 
    34, -550, -253, -681, 289, 1388, 741, 90, 
    235, 534, -1367, 527, -156, -770, 505, 237, 
    381, -569, 597, 59, 183, 447, -350, -337, 
    641, -670, 808, 410, -428, 853, -370, -220, 
    323, 406, 56, -122, -332, -305, -536, -1723, 
    -311, 526, -701, -1214, 1959, -1086, -402, 40, 
    508, -380, -202, -889, -7, 947, 1146, -354, 
    -282, 234, -346, 1094, -2057, -503, -418, 275, 
    -927, -416, -681, -225, -219, 51, -1140, -606, 
    38, -1885, -908, -569, -6, 444, -1177, -402, 
    -1443, -507, -675, 193, 197, 371, -1375, 16, 
    -1266, -86, 41, 1252, -570, 29, -336, 91, 
    -38, -58, -77, 344, -501, -741, 758, -315, 
    390, -287, 626, -591, 982, 697, -497, -370, 
    374, 1110, -99, 260, 1085, -688, -789, 607, 
    943, 859, -38, 911, 612, 1713, 344, 80, 
    304, 597, -102, -769, -338, 516, -1317, 88, 
    990, -41, 486, 964, -236, -238, 418, 601, 
    -338, 388, 489, 326, 59, -471, 152, -1263, 
    -1513, -546, 241, -521, 36, -797, -336, 339, 
    204, -501, 222, -1050, -775, -89, -636, 1117, 
    -185, 246, 129, 321, -717, 384, 540, 152, 
    -291, -329, 297, 794, -84, -506, -497, -446, 
    206, -486, 371, -699, 604, 255, 268, -699, 
    702, -335, -806, 164, -143, 512, -213, -313, 
    930, -459, 258, 153, 366, 359, 528, 112, 
    -525, -674, 59, 1577, -23, -309, -1939, 493, 
    -470, 617, 426, 295, 956, 626, 293, 653, 
    -67, 156, 536, 204, 90, -35, -690, -604, 
    -5, 493, 402, -646, 598, 776, -375, -1093, 
    -35, -400, -107, 248, -4, 192, -202, -412, 
    -928, -181, 251, 265, -199, -1336, -425, 225, 
    -333, 1388, 55, -155, 498, 290, -577, 756, 
    779, 774, 1362, 993, -276, -1038, 37, -29, 
    -796, 1001, -1141, -58, 1037, -288, -84, 613, 
    426, -993, 801, 17, -478, 843, 20, -1462, 
    102, -635, 390, -412, 333, -1471, 182, -342, 
    1032, 803, -872, -1038, 227, -43, 65, 1186, 
    900, 965, 714, 477, 295, 203, -420, 726, 
    -991, 588, 322, 115, 22, 91, -1226, -111, 
    302, -863, -329, 87, 1121, -606, 789, -886, 
    -413, -148, 95, 601, -1041, 840, 585, 732, 
    115, 409, -916, -452, 649, -584, 270, -1344, 
    -361, -159, -920, -424, 730, -59, 515, 456, 
    293, 300, 227, 1403, 579, 643, -298, 384, 
    314, -26, 1264, 121, -12, 1279, -1360, -112, 
    -682, 216, -237, 388, -235, 86, 435, 1075, 
    171, 18, -215, 502, -488, 51, -499, -40, 
    272, 25, -817, 1468, 621, 2, 1239, -271, 
    -1000, -1181, 533, 968, -265, 439, -455, 190, 
    53, 1810, -183, -1015, 31, 36, -287, -778, 
    878, 432, 74, -138, -684, 998, -784, -581, 
    -323, 186, 920, 505, 500, 751, 668, 42, 
    2, 451, 948, 323, 346, 104, -88, -1167, 
    92, -184, 331, -353, -144, 1280, 861, 404, 
    49, 234, 463, -395, -1006, 627, -382, 43, 
    907, 570, -450, 437, 474, 9, 233, 132, 
    -601, -74, -730, 825, -412, 903, 1127, -188, 
    -995, 241, -1837, -461, -815, 621, -740, 323, 
    893, 221, 340, 54, -217, -442, -268, 266, 
    -1205, -209, -186, -246, -456, -416, 233, 304, 
    190, -1128, 87, -1505, 588, 1114, -301, -1633, 
    109, 46, -999, -449, 187, 61, -209, -1333, 
    -720, 201, 490, 171, 278, 474, -505, -1766, 
    136, 291, 113, 8, -789, 530, -1068, -252, 
    -177, 582, -1041, 585, 117, -1195, 882, 572, 
    405, 160, 626, -802, -718, -43, -1, -943, 
    -865, 217, 85, 889, 233, -373, 910, 191, 
    -874, 722, -808, 92, -278, 756, -682, 418, 
    -817, 363, -118, 1105, 903, -148, -121, 81, 
    -781, -32, 52, -209, 352, 600, -204, -608, 
    -211, -375, -452, -329, -50, -305, 480, -694, 
    -193, 239, 987, 395, -178, -63, 651, -444, 
    -882, 231, 119, 225, 655, 588, -1322, -187, 
    1020, 16, -797, 63, -764, -695, 323, -569, 
    631, -97, 369, 355, -558, 338, -264, -260, 
    -874, 46, 937, 68, -177, 661, -439, 645, 
    -22, 16, 816, -124, -437, -168, 609, -360, 
    -1041, 28, -1391, -1121, 1021, 120, 883, 938, 
    -670, -1174, -93, 693, -669, 669, 516, -767, 
    -70, 746, 607, -522, 192, -529, -235, -1362, 
    -786, -524, 145, -560, -439, 96, -294, 444, 
    -179, -1237, -205, 326, -227, 834, -468, -329, 
    -255, -553, -1322, 257, -133, -607, 439, 117, 
    -242, -486, 1040, 477, -284, -207, 600, 826, 
    -249, 78, 859, 248, -548, 322, 82, -468, 
    -555, 698, 196, -363, 304, 895, -407, 524, 
    -877, 102, -144, -622, 993, -277, 959, 204, 
    -571, 497, 5, -80, 669, 693, 16, 240, 
    690, 463, 277, 482, -938, -1250, 520, -303, 
    115, 116, 745, 865, -890, 982, 119, -63, 
    282, 893, 1317, 426, 449, -1057, -1149, 167, 
    -1148, -688, 588, -154, -226, 329, -130, 468, 
    402, -626, 498, -608, -669, -509, -363, -18, 
    218, -1420, -101, 528, 75, -173, -352, 104, 
    -603, -300, -543, -598, 592, 36, 1047, -1264, 
    -1080, -183, 647, 77, -622, -579, 167, -42, 
    137, 137, -84, -324, -233, 335, -1111, 614, 
    1083, -1, 915, -696, 661, -320, 907, -67, 
    -271, -768, -600, -197, -295, 144, -161, -745, 
    362, -393, -1956, -184, 191, -778, 569, 201, 
    1114, -192, 1039, -60, -118, 720, 292, -142, 
    -254, 1564, 1112, -1340, 1055, -441, -1094, 610, 
    -290, -820, -1120, -794, 683, -493, -1342, 776, 
    452, -873, -279, -5, 508, -313, -954, 19, 
    -289, -760, 203, -895, 902, 595, 320, 217, 
    542, 863, -987, -52, -805, 300, 1267, 352, 
    -816, -979, 171, 605, -888, 538, 416, -1038, 
    819, -892, 736, 461, 961, 615, -1536, -251, 
    121, -120, 903, -215, 277, -320, -39, 97, 
    1567, 327, 1068, -990, 220, 258, 481, 10, 
    -368, 383, -496, 379, 100, -986, -743, -115, 
    391, 1486, -1024, 1290, -117, 496, -159, 560, 
    -245, -1591, -304, 826, -614, 375, 903, -930, 
    -73, 306, -836, 488, 289, -252, -359, -567, 
    625, 32, 633, -69, -96, -88, -89, -166, 
    -576, -827, -963, -1768, 246, -1248, -214, -583, 
    -730, 198, 806, -214, -1202, -3, -212, 285, 
    -1448, 258, 416, -217, 424, -367, -313, -57, 
    -255, -359, -2508, -296, -182, 68, 455, -867, 
    307, -961, -339, -166, -241, 157, 685, -791, 
    -505, -25, -931, -150, -250, -15, 95, -359, 
    813, -867, -388, 989, 576, 372, -545, 475, 
    -305, 3, 893, -503, 1286, 747, 425, -7, 
    104, -1316, -1288, -141, 280, 1836, -664, -727, 
    -544, -915, 49, 488, -45, -804, -218, -690, 
    -905, -203, -736, -740, -17, -418, -409, -862, 
    -63, 200, -141, 113, -370, 166, -1321, 110, 
    156, 389, -675, -1527, 1223, -925, -448, 571, 
    -1396, 642, -572, 1668, -425, -78, -231, 721, 
    -970, 95, -556, 123, -128, -464, -85, -12, 
    -148, 512, -856, 60, -62, 751, -734, 180, 
    -1078, -1324, 1, 814, -18, -15, -355, 561, 
    82, -765, -561, -101, -632, -5, -1106, -1278, 
    719, -1268, 555, 780, -756, 1386, -1301, 120, 
    -1251, -38, 113, 262, 358, -1090, -588, 447, 
    306, 754, -1030, -650, -473, -56, 219, -22, 
    -521, -1095, 48, -708, 277, -402, 155, -3, 
    755, -545, 562, 388, -1651, 891, -3, -189, 
    187, -510, 617, 987, -176, 236, 268, -1920, 
    -323, -880, 674, 1094, -178, -76, -820, -398, 
    -1118, -589, 911, 71, -469, -671, -678, 179, 
    338, 373, 215, -1044, -296, 683, -901, 620, 
    -811, -776, -161, 499, -640, -300, 845, 595, 
    394, 457, -133, -914, -89, -329, -912, -603, 
    -135, -511, -652, 355, -209, 105, 817, 518, 
    232, -988, -58, 40, -115, 222, 87, 474, 
    -103, 107, 429, 188, 505, 124, 359, -754, 
    -500, -1594, 543, 339, -569, -275, 23, 80, 
    628, 531, -739, -438, 1601, -1173, -324, -1316, 
    1099, -352, -232, -185, 315, -752, 1539, 53, 
    -9, 529, 168, -155, -309, -130, -73, -601, 
    -198, 251, -359, -325, 524, -396, 98, 867, 
    -183, 551, 83, -1356, -481, -413, -1028, 229, 
    -166, 318, 599, 772, 847, -1107, 110, 34, 
    169, 323, -195, -362, 665, -484, 191, 69, 
    309, -918, -377, -61, -412, 249, 297, 487, 
    -341, 1513, -860, 341, 6, -90, -912, -77, 
    -231, 680, 695, 511, 305, 64, -270, -849, 
    81, 5, 296, -765, -60, -209, -232, -539, 
    4, 23, 133, 313, 166, 834, 270, 515, 
    385, -173, -202, -367, 628, -285, 772, -347, 
    -65, -137, 393, -293, -692, -772, 1436, -550, 
    71, -124, 199, 53, 287, 892, -913, 339, 
    -660, 505, -810, 763, 315, 51, -222, -267, 
    -868, 1083, 382, -359, 662, 637, 30, -217, 
    -383, 286, -5, -515, -253, 541, 432, -203, 
    -354, -531, 777, 141, -355, 527, -12, 58, 
    -387, 711, 627, 268, 94, -287, -623, 419, 
    -853, -2544, 446, 304, -122, -1129, -87, -77, 
    698, 640, 948, 451, 344, 104, 418, 433, 
    340, 319, -563, 58, 526, -724, 539, 634, 
    291, -363, -430, -728, -780, -13, 210, 297, 
    153, 204, -728, 368, 397, -655, 438, -580, 
    33, 265, -943, -263, 127, 131, -582, -332, 
    604, -17, 278, -254, -251, -980, -199, 29, 
    929, 169, 212, -228, 722, -598, -137, -295, 
    -581, -140, 15, -302, 190, 57, -1027, -399, 
    19, 1205, -1186, -372, -683, 1190, 633, -73, 
    -302, -965, -1794, 1554, -125, 692, -864, 237, 
    60, 337, 79, 98, 347, 1008, 1009, -42, 
    -278, -845, -433, 101, -481, -316, 182, 722, 
    812, 535, -84, -286, -269, 138, 532, -634, 
    2, 258, 673, -526, -525, 266, -45, -628, 
    -267, -60, -831, -1324, -310, 687, -512, 783, 
    242, 250, 997, 817, -34, -1072, 340, 168, 
    35, -60, -1081, 252, -228, 1414, -544, -116, 
    -910, 685, 150, -11, -346, 354, -471, 617, 
    -583, -27, -1035, 703, 877, -761, 696, 368, 
    -1058, -1202, -653, 725, 209, -969, -335, 41, 
    -969, 500, -1347, 1, -1978, -1202, 895, -200, 
    -363, 485, -258, 567, 1231, -922, 837, 76, 
    -1949, 307, -752, 870, -1199, 535, 116, -1044, 
    979, -367, -677, 310, -208, -109, 330, -174, 
    1409, -317, -193, 629, 245, -1162, 167, 563, 
    5, 1800, 85, -1244, -956, 137, -629, 289, 
    -1308, 221, 229, -255, 66, -513, -892, -535, 
    -305, -2040, 753, -139, 1159, -1060, 270, -731, 
    -739, 478, 507, 554, 153, 230, -148, -180, 
    629, -726, -1611, 861, 103, 1053, -294, -231, 
    -743, -900, -1316, -370, 199, -20, 401, 203, 
    431, -619, 1256, 158, 272, -238, -434, 698, 
    402, 668, 481, 96, -976, 789, 750, -19, 
    807, 398, -346, -227, -184, 882, 47, 247, 
    1056, 91, 216, -40, -49, 867, -737, -607, 
    319, -778, -774, 98, -238, -317, 700, 1416, 
    -712, -359, -116, 868, -117, -615, 659, -296, 
    -365, -721, 667, 48, -493, -267, 494, 1501, 
    1302, -420, -557, 596, -254, 111, 956, 908, 
    -322, -264, 455, -1560, 524, 303, -722, -411, 
    -1096, 195, -148, 532, 510, 764, -1257, 689, 
    -76, 106, 94, 441, -771, -541, 186, -849, 
    -806, -751, 611, 558, -516, -1186, -314, -705, 
    -78, -596, -455, 263, 702, -913, -514, 420, 
    -50, -707, -991, -40, -366, 95, 668, 357, 
    117, 306, -353, -181, -893, -1276, 765, -502, 
    -543, 122, -62, 229, 32, -134, -859, -958, 
    -529, 297, -614, -847, 280, 96, -383, 266, 
    405, 475, -522, -1589, 741, 686, -652, -1513, 
    -25, 795, 31, 234, -55, 218, 101, -495, 
    -108, 1385, -1336, -899, 1024, 40, -821, 901, 
    -62, -518, -306, 461, -1012, -656, -273, 474, 
    -256, -831, 889, -1184, -14, -210, 374, 881, 
    -1463, 262, 1076, -126, 107, 524, -659, 22, 
    294, -250, 784, 355, 418, -358, -316, -937, 
    884, 953, -13, -10, 359, -97, -59, -594, 
    144, -1709, 121, -64, -692, -120, 984, -1222, 
    -870, 300, -947, -571, -793, -179, -138, 674, 
    -1306, 144, -574, -171, -334, -959, -1090, -720, 
    -148, -103, 705, 411, -403, -470, 769, -2115, 
    -1091, 201, -1032, 1652, 644, -1029, -461, -437, 
    -46, -204, -17, -699, 399, 929, -278, -182, 
    -810, -1021, 79, 278, 253, -3, 909, -603, 
    -406, -896, -1514, -427, 251, 109, -1253, 851, 
    -810, 566, -1025, 220, -731, 143, 1047, 707, 
    -2111, 401, 64, -358, -438, -124, 1008, -1860, 
    -413, -209, -935, -1168, -904, -21, 210, 346, 
    -469, 1103, -943, 191, 660, -290, 844, -85, 
    -1151, 818, 253, 327, -794, 113, 446, 1018, 
    -1424, 815, -374, 1301, -194, -1290, -577, 738, 
    -1180, -55, -849, -636, 162, 39, 939, 2, 
    617, 1092, -398, 6, 1351, -123, -793, 858, 
    884, -750, 503, 853, -733, 544, 1217, 934, 
    -1137, 187, -112, -353, 3, 486, -349, 198, 
    228, 172, -428, 235, -291, -216, 1492, -641, 
    346, 215, -1338, -253, -395, -160, 157, 763, 
    -1063, 1258, 79, 22, 566, -1095, -158, 411, 
    -521, 942, 143, -61, 884, 444, -39, -549, 
    1048, -968, 291, 485, 26, -1482, -452, 4, 
    -258, -617, 162, -1037, 137, -506, -519, -655, 
    1389, -69, -171, -217, -1510, 133, 293, -2064, 
    819, 237, 581, -1253, 247, -36, 23, 99, 
    755, -1252, 636, 918, 104, 174, 138, 137, 
    -57, 1412, -374, 66, -89, -1471, 1019, -118, 
    1079, 396, 776, -340, 1235, 514, -378, 356, 
    912, 225, -176, -1595, -471, -188, -50, -69, 
    -38, -895, -261, -698, -470, 381, -540, 177, 
    293, 180, 645, 853, -1027, -124, 898, -369, 
    -221, 751, -220, 247, -323, 384, -46, -130, 
    51, 870, 331, -227, -312, 317, -1356, 524, 
    -237, 306, 152, -1497, -471, 78, 43, 958, 
    106, -80, 712, 176, -1593, -151, 1132, -52, 
    700, 840, 677, -337, -43, -700, -161, 844, 
    -790, 730, 314, -844, -122, 261, -536, -903, 
    -78, 1125, 733, 1019, -723, 740, -665, -68, 
    -89, 22, -179, -372, -39, -992, -141, 579, 
    -561, 742, -951, -1207, -359, -938, -55, 680, 
    813, 179, -1023, 237, 142, 353, -475, -249, 
    77, -797, -906, 362, 560, -1175, 789, -262, 
    744, 788, 185, -286, -450, 169, -716, 178, 
    -236, -282, 489, 197, -1069, 588, 878, -110, 
    252, 1068, -652, -708, -472, -996, 336, 805, 
    -135, -1166, 375, 1141, -164, 233, -530, 1613, 
    -469, -308, 403, -510, 518, 967, -1040, -993, 
    71, -359, 485, -400, -394, 673, 156, 1766, 
    -1414, -177, -575, 575, 506, -121, -36, 410, 
    -315, -402, -212, -66, 136, -924, -846, 490, 
    232, 136, -609, 410, 121, -185, -949, 168, 
    178, 908, 65, -229, -634, 450, -267, -614, 
    399, -200, 452, 208, 213, -73, -557, 958, 
    765, 1664, -274, 339, 277, -313, -165, -560, 
    703, 72, -1365, -502, 564, -26, 211, 219, 
    -649, 642, -424, -1262, -150, -20, 108, 181, 
    774, -69, 371, 479, -215, -512, 500, -310, 
    968, 31, -558, 376, 3, 54, 368, 191, 
    1083, -184, 160, -812, -1333, 157, -138, -287, 
    -121, 876, 460, 791, 14, 260, -751, -644, 
    -176, -424, 919, 142, -643, 600, -180, -715, 
    -1005, -472, -195, -437, 18, -15, -183, -879, 
    -169, -436, -310, 326, -413, 139, 477, 429, 
    248, -682, 236, 195, -1006, -260, -222, 524, 
    -269, -828, -1131, 744, 370, -673, 149, 550, 
    379, -1234, -249, 1010, -1554, -231, -276, 379, 
    -592, 240, 338, -470, 502, -677, 362, -719, 
    813, 101, -348, -636, -38, 1018, -787, 86, 
    433, 211, -1288, 95, -545, 679, 241, -366, 
    1037, -1065, -820, 57, -469, -260, -270, -3, 
    -1413, -865, -39, 216, -478, 205, 45, 752, 
    121, 455, -630, -143, -121, 296, 33, 1197, 
    404, -331, 42, 182, 300, -216, -632, -79, 
    -211, -303, 378, 1261, -739, 1430, -1035, 3, 
    683, -742, 527, -982, -151, -283, 378, 1104, 
    664, -1809, 950, 139, 592, 211, -47, -750, 
    -856, -1625, -27, -1044, -364, 968, -364, 310, 
    253, 185, 837, 475, 802, -99, 538, -236, 
    -772, -554, 28, -143, -1516, -227, -621, -396, 
    -190, -119, 632, -896, 344, 145, -365, 455, 
    3, 1380, -1257, 568, -449, 683, -119, 340, 
    91, 446, 199, -113, -361, -422, 514, -564, 
    31, 180, -417, 219, -115, 673, -48, 1086, 
    -1278, 564, -846, 174, -687, 129, 142, -263, 
    -122, 401, 1175, -69, -162, -94, -355, 283, 
    81, 231, -969, 262, 337, -984, 144, 168, 
    -715, -1433, 1033, -635, 199, 532, -405, -174, 
    286, 129, -1030, 93, 618, 59, 64, -199, 
    -349, -462, 99, -56, -269, 570, 214, -354, 
    491, 810, -32, -107, -1207, -460, -6, 163, 
    -1247, 696, -339, 373, 393, -153, -510, -322, 
    586, 1265, -663, 1244, 195, -987, 931, 647, 
    134, 819, 148, -360, 664, -1120, 169, -261, 
    652, -950, 1071, 591, 769, -350, -921, -653, 
    520, 701, 729, 1057, 228, 345, -882, 925, 
    -1732, 43, -1244, -663, 274, 111, -741, 95, 
    -461, -275, 1004, 315, 133, -77, -791, -65, 
    -80, 179, 510, -472, -579, 390, -412, -991, 
    406, -921, -429, -470, 69, -11, -168, 887, 
    -1217, -994, -353, -413, -17, 146, 197, -258, 
    241, -2046, 453, -185, -2083, 250, 403, 42, 
    245, -852, -445, -303, 522, 518, -519, 790, 
    -899, -247, -1311, -560, -992, -234, 328, -441, 
    -1109, -10, 183, 1011, -701, -108, 1077, 1056, 
    -11, -989, 439, -560, -796, 617, -1030, 601, 
    -394, 848, -207, 125, 418, 902, 88, -45, 
    -1034, 68, 233, -184, -325, 146, -420, 694, 
    173, 661, 1458, -130, 88, 255, 239, 931, 
    63, -269, -903, -50, 755, 1121, -56, -182, 
    671, 438, 312, 510, -671, 51, -686, -529, 
    264, -1209, -92, 558, 55, -479, -230, 451, 
    160, 115, 78, 99, 676, -6, 755, -22, 
    -264, -1115, 212, 572, 389, 690, 703, 991, 
    354, -246, -460, 546, -675, 521, 289, -62, 
    88, 177, 520, -477, 304, 629, 156, 357, 
    -609, 1001, 38, -84, 80, 60, 398, 232, 
    41, 174, 64, 48, -106, 126, -1088, -1081, 
    -430, 935, 859, -313, 32, -484, -674, -1364, 
    408, 665, -1128, 1006, -542, -26, 251, -363, 
    -148, -268, 131, 763, -557, -703, 962, -1077, 
    -284, -65, 710, 162, 305, 238, 676, 457, 
    -838, 8, 327, -45, 1396, -603, -384, 325, 
    660, -263, -187, -34, 933, 371, 506, -1223, 
    32, 1175, -33, -374, 530, -762, 609, -230, 
    434, 638, -154, -391, 750, -568, 422, -467, 
    652, -835, 149, -882, 371, -148, -1033, 397, 
    -186, -433, 644, -672, -4, 491, -45, -177, 
    999, 437, -558, 301, 610, -385, -1155, -496, 
    -12, -430, 518, -423, -128, -675, -930, 1238, 
    44, -943, 7, 741, -445, 98, -753, 266, 
    107, -314, -368, 920, -494, -57, 905, -362, 
    96, -1009, -546, -408, -412, 276, 17, -901, 
    463, 650, 660, -148, 183, 226, -451, -888, 
    -518, -435, -472, 255, -1251, 410, -107, 456, 
    4, -53, 313, 498, 549, -116, 96, -971, 
    327, 789, -433, -282, 670, -793, -867, -123, 
    126, 125, -1, -195, -288, 478, -457, -1188, 
    -352, -350, -270, -491, -102, 396, -927, 186, 
    -987, -316, -168, 629, 382, 132, -410, -288, 
    -119, 474, -955, 1241, 473, -238, -829, -928, 
    -489, 188, 444, 190, 1210, -116, 57, 1280, 
    1006, -1536, -435, 246, 156, 70, 484, 56, 
    71, 801, 416, -773, -404, -261, 6, 360, 
    535, 197, 107, 175, -238, 484, -676, 395, 
    651, 415, -154, 476, 37, 722, -227, 363, 
    -299, 184, -1638, -817, 354, -280, -99, -155, 
    -63, 1043, -93, -423, -282, 538, 171, -397, 
    30, -282, 362, 24, -916, 1076, 135, -318, 
    104, -142, 278, 480, 443, -171, 47, 592, 
    -900, 519, 644, -400, -666, 1028, 782, -1483, 
    -158, -592, -83, 534, -455, 67, -208, 517, 
    -737, -245, -595, 884, 101, -137, 65, -604, 
    -1119, -691, 445, -171, -736, -244, 623, -369, 
    -35, -739, 417, -934, -538, -602, 134, -978, 
    809, 243, 674, 258, 271, -1337, -1534, 21, 
    165, 23, -487, -1247, 481, -358, -378, -336, 
    170, -218, 816, 22, 433, 662, 251, -11, 
    -1279, 983, -56, -1273, -542, 253, -781, -1163, 
    671, -96, -1298, -580, 598, -555, -242, 686, 
    88, 25, 253, 596, 751, 1093, 359, 473, 
    -308, -500, -686, -81, 574, -363, -374, -774, 
    -575, 18, 506, 484, -469, 323, 212, 75, 
    33, -450, -387, -296, 861, -144, -274, -504, 
    279, 413, -410, -279, 245, 333, -511, 360, 
    -339, -1059, 23, 885, -137, 726, -920, -67, 
    -94, -1348, -841, -103, 715, 158, -242, 187, 
    -630, 247, 434, 266, -423, 407, 80, -661, 
    530, -333, -146, 1091, -32, 102, -653, 841, 
    -419, 812, -2817, 102, -149, -568, 205, 366, 
    -1398, 191, -221, -1330, -1023, 47, -503, -334, 
    -363, 743, -1157, 341, 416, -596, 38, -222, 
    439, -766, -419, -347, -80, 616, 586, 220, 
    639, -1914, 1479, -584, -418, 330, -558, 414, 
    949, 298, -834, -564, 96, 1030, 1090, -733, 
    -255, 628, -1527, 98, 520, -2, -742, -143, 
    -1172, 131, 327, 212, -860, -269, 640, -388, 
    -372, 662, 1031, -77, -531, 820, 134, -670, 
    491, 110, 138, -1151, 917, -602, -233, -832, 
    -695, -80, -559, 1200, 148, 795, -687, 453, 
    445, 427, -334, 9, -1133, -63, 1038, -295, 
    -103, 359, -221, -507, -1196, 169, 50, 1327, 
    -31, -504, 456, 550, -484, -429, -583, -559, 
    193, 641, 1036, -743, -1516, 691, 75, -723, 
    702, 708, -541, -127, -1187, 880, -861, 654, 
    -390, 860, -1061, -863, -17, 753, 29, -472, 
    -19, -143, 836, -759, -491, -93, -32, 100, 
    99, 702, -710, -272, 515, -2360, -518, 94, 
    -304, -184, 1432, 71, 629, 792, 628, 298, 
    243, 709, 298, -199, -450, 578, -785, -1281, 
    652, 213, 392, 275, 525, -735, -513, -1444, 
    -695, -445, 496, 48, -252, 932, 449, -12, 
    210, -599, -871, 303, -711, 1224, 488, -380, 
    -41, 113, -176, -357, -567, -304, 94, 655, 
    -1720, -550, 802, -575, 81, -558, -407, 206, 
    -541, 337, 940, 203, 939, 649, -600, 170, 
    -1114, 108, -269, 296, 97, 357, -147, -295, 
    116, -123, 317, -1097, 585, 956, -1919, -399, 
    -910, -1, -1219, 423, -221, -329, -486, -812, 
    -828, 210, -700, -45, -64, 738, -464, 914, 
    -45, -9, 404, -190, 1154, -244, 586, -194, 
    -1079, 697, 745, 220, 391, 358, -38, 919, 
    -27, -224, 2808, 39, -1443, -1716, 94, -923, 
    -1686, 132, 1778, -791, 189, -170, 20, 229, 
    -1493, 1319, -16, -570, -998, 190, 1145, 870, 
    -284, 1378, 2417, -164, 96, 433, 35, 2088, 
    1555, 33, -1800, 544, -190, 925, 1212, 133, 
    -1689, -391, -229, -2036, -1197, -196, -662, 866, 
    33, -1492, 389, 99, -14, -161, -134, 364, 
    -641, 48, 295, 661, -24, -2119, 2073, -91, 
    -104, 92, -124, -472, 560, 298, 1520, 398, 
    -88, 305, 180, 304, 945, -476, -34, 91, 
    -2620, 195, -406, -2533, 163, -948, -489, -20, 
    -990, 570, -212, -960, -646, -248, -310, -1625, 
    259, 667, -1983, -90, 1226, -1239, 40, 277, 
    -92, 106, 1210, 1832, 168, -903, 398, 60, 
    593, 1482, -48, 696, 184, -237, 1087, 246, 
    -130, -341, -1844, -222, 390, -241, -133, 1326, 
    -856, -66, 1332, 91, -163, -401, 1597, -210, 
    805, -700, 141, 28, 1118, 185, 1167, 168, 
    -203, -2052, -300, 246, 1926, -1789, 213, -111, 
    510, 184, -1052, 86, 293, -2126, 661, -10, 
    323, 1253, -52, -1638, 277, 11, -1142, 446, 
    225, -456, 1564, 24, -1287, 1153, 30, 677, 
    -1963, -273, 1074, 1164, 273, -1611, -190, -194, 
    591, 1020, 300, 1642, -974, -55, 2424, -804, 
    -261, 1733, 1014, -44, 69, 2053, -306, 898, 
    -59, -17, -1452, -1589, -7, -23, 240, 71, 
    265, 6, -101, -989, 1374, 142, -621, 1768, 
    133, -57, 1012, -255, 1647, -1170, -241, 1554, 
    -1251, -274, -103, 1250, 84, 783, -1093, 12, 
    -138, 2203, -243, -1326, 671, -38, 321, 319, 
    -55, 1856, -345, -51, -1894, 856, 145, 491, 
    421, -225, -1475, 2161, -113, -2793, 1844, -107, 
    357, 42, -56, -1121, 1616, -310, -191, -1260, 
    157, 2616, -954, -15, -681, -172, 229, 207, 
    -867, 228, 808, 2220, -270, 538, 1236, 198, 
    901, 1702, 252, -981, -520, 292, 910, -1101, 
    182, -197, 2034, -254, 266, -745, 278, 1032, 
    722, 72, -966, -317, 3, -202, -245, 71, 
    1196, -437, 308, -744, -1862, -225, -98, -735, 
    -218, 1478, -1493, 128, -331, 392, -21, 1024, 
    -1296, 172, -3, -796, 128, 265, -1611, -115, 
    -907, -849, -314, -650, 118, 107, 731, 858, 
    116, 2383, 2212, 184, -957, 1519, -95, -1577, 
    -1113, 182, -549, 812, 163, 813, -144, -225, 
    -1192, -243, 113, 1724, 683, -205, -687, -395, 
    54, 1212, -2095, -255, -643, 1590, -231, 756, 
    618, 140, 472, -1635, 117, 13, 1210, 195, 
    2452, 467, 72, -1501, 1419, -230, -396, -31, 
    177, 487, -819, -310, 0, -1173, -58, -708, 
    -210, -325, -324, -2291, 249, 1121, -326, 281, 
    -654, -2008, -340, 4, -1832, -242, -230, -825, 
    -234, 232, -2164, 43, 478, 373, 88, 2225, 
    1541, 20, 1058, 1654, 171, 26, -1510, 202, 
    -1125, 2433, 116, 229, -967, 150, 221, -1007, 
    276, -466, 1022, 146, -1030, -1960, -173, 719, 
    542, 334, -2345, -11, -110, -908, -783, 205, 
    829, -517, -137, -831, -2729, 109, -223, 966, 
    -307, -727, -1904, -44, 240, -946, -91, 2318, 
    -54, 174, 327, 3042, 216, 851, -1145, 88, 
    -685, 1438, 309, -83, -1466, 79, 398, 1465, 
    102, -510, 3090, -274, 139, -1241, -30, 679, 
    921, -1, -1274, -431, -2, -2009, -625, -39, 
    -630, -2062, -149, -2472, -2224, 128, 935, -799, 
    -299, 1574, 750, 27, -888, -744, -7, -238, 
    601, 326, -522, -497, 162, -400, -1800, 289, 
    72, -217, -123, -18, -296, -198, 915, 4, 
    287, 2499, 1561, 115, -179, 2232, 59, -1546, 
    -99, 171, -1787, 704, -35, 2199, 1054, -29, 
    -1722, -1425, 191, 705, 1393, -298, 1051, -972, 
    176, -1846, -108, 304, -1127, -284, -155, -150, 
    -641, -326, 1298, 292, -39, 1360, 908, 315, 
    350, -3414, -257, -74, 2181, 281, -189, 1809, 
    331, 2369, -985, -43, -1835, 3189, 43, 1530, 
    -491, -4, -318, -675, -311, -1489, 842, -133, 
    -498, -339, 321, 777, 1740, -90, 883, 3133, 
    222, -290, 2785, -73, 1839, 361, -160, -1676, 
    -795, -122, 984, 498, -313, 1083, 529, 298, 
    495, -1297, -39, 1351, -1010, -137, -244, -745, 
    172, 1510, 155, 313, 1815, 155, -175, -997, 
    -83, -196, -64, 2440, 274, -467, 1078, -80, 
    206, 801, 40, -110, 1311, 197, 603, -3838, 
    135, 3047, -104, 289, -1238, 1654, 171, 365, 
    473, -273, -591, -1251, 218, 590, 114, -144, 
    992, -1706, -302, -397, -147, 208, 1039, -586, 
    75, -1256, -1175, 33, 920, 487, -115, 1090, 
    -654, -13, -2324, -929, 30, -844, 37, 34, 
    -601, 922, -149, -54, 669, 277, 1603, -904, 
    -43, 1328, 903, 272, -427, 1582, -252, 910, 
    -2751, 34, 1802, -200, -158, 1138, 993, -340, 
    631, -203, 216, -402, -948, -300, 1192, -441, 
    -20, -1594, 1055, 261, -128, 1805, 102, -1377, 
    -687, -135, 2380, 1355, 134, 236, -1254, 263, 
    -2645, 1937, 144, 560, 99, -56, -132, 1364, 
    -176, 241, 236, 32, -817, 3043, 284, 591, 
    -108, 153, -2592, -1169, -270, -91, -20, -33, 
    1407, -518, 55, -2509, 976, 97, -570, 1623, 
    -102, 27, 148, -60, 1637, -326, -183, -213, 
    1567, 96, -3336, -2190, 16, -159, -2328, 73, 
    -50, -1124, -284, -1178, -1181, 287, -349, -1375, 
    361, 357, -1182, -334, 1364, -2166, 16, 2537, 
    -1314, -6, 1615, 2524, -157, -211, -2822, -113, 
    1162, 3305, -64, 431, 2548, 270, 397, -340, 
    109, -29, 432, 326, 492, -290, -138, 1825, 
    1633, 119, 1278, 2178, 310, -2226, 1047, -230, 
    -237, -1744, 292, 1245, -1146, 12, -437, 334, 
    -16, -840, -799, -159, -473, -769, -44, -992, 
    -1558, 16, 1165, 2460, 16, -1776, -1297, 14, 
    929, 2989, -186, -1285, -1439, 71, -196, 342, 
    -279, 1383, 2132, -367, -589, -81, -219, -3610, 
    1731, 91, 373, -1088, 329, -49, -2735, -140, 
    2513, -1332, 252, -1328, -1648, 215, -584, -1002, 
    -159, 1808, -2661, 268, 839, -774, -339, -528, 
    -1438, 226, -744, -662, -42, -783, -4283, -217, 
    -553, -1737, 55, -1122, 13, 259, 549, -1142, 
    -247, 821, -382, 269, 1410, 1503, -141, -349, 
    -1509, -178, 1763, -243, -319, 870, -386, 139, 
    -2625, 209, -393, 475, 1035, 168, 635, -2770, 
    -81, 655, -625, -180, -2758, -254, 183, -259, 
    -175, -235, 1575, -500, -336, 902, 601, -366, 
    610, -549, -51, 1, 1813, 83, -1225, -489, 
    -235, -2793, -245, 186, 3504, -690, 177, -143, 
    123, -258, -136, -281, -315, 188, 1914, -230, 
    1155, 209, 33, -1224, -600, -1, 264, -685, 
    -156, 49, 1673, -179, -122, -969, 92, 179, 
    -772, 6, 614, 3241, 253, 356, 62, 300, 
    118, 1770, 195, 1514, -360, 218, 867, 1573, 
    -330, 3, -747, 216, -740, 669, -15, 3461, 
    1683, 190, -121, -701, -57, 470, 492, 87, 
    472, -828, -36, -118, 1093, 282, -197, 75, 
    253, -275, 1936, -204, -570, -945, -227, 90, 
    -1326, 325, 98, 931, -203, -363, -1209, -150, 
    -41, 154, -47, 238, -366, -150, 904, -1545, 
    -337, 3772, -2186, -122, -337, 959, 134, -1606, 
    -650, 3, -2536, 1189, -319, 941, 860, 133, 
    179, -1304, 60, -2210, 3070, 311, -658, 1170, 
    89, -2716, -932, 335, 1460, 812, -327, 1621, 
    -249, 8, -3985, 892, -48, -392, -2150, -198, 
    -485, 1797, 154, -33, 1836, -170, -1042, -292, 
    110, 632, -1536, -29, 1075, -992, -157, 1010, 
    -811, -131, 1677, -2333, -167, -650, -347, -243, 
    -1931, -1679, 212, -1396, -1944, 275, 2068, -159, 
    -177, 1507, 260, -147, 1162, -143, -55, 2370, 
    1755, 186, 739, -303, -73, 587, 714, 327, 
    -214, -1350, 197, -438, 966, -259, 431, 1707, 
    194, -153, -148, 308, -1969, 2895, -80, 258, 
    18, -40, -168, -810, -306, 1609, 2784, 276, 
    720, 600, 80, -376, 1018, -188, 2601, 1121, 
    282, 1532, -537, 241, -178, 845, 11, -292, 
    1631, -153, -791, -1107, 244, 3039, 912, -102, 
    869, -1712, 266, -623, -195, 317, -890, -1463, 
    -224, 1103, 600, 10, -2644, 654, 127, -2067, 
    342, -273, -2359, -881, -198, 256, -116, -113, 
    898, 3151, -71, 2521, 59, 0, 1186, 789, 
    262, -299, -306, 337, 266, 2143, 333, 2173, 
    42, 70, -2874, -1099, 7, 798, 2748, -112, 
    449, -1385, 25, 1554, -650, 289, 1170, 579, 
    166, -280, -703, 265, -1212, -958, -165, 1715, 
    1, 303, 2268, 378, -300, -113, 419, 74, 
    16, 2217, -77, -184, -388, -27, 1610, 501, 
    59, -906, 1216, 193, -710, 1121, -122, -2614, 
    -1073, -173, 2861, -824, 44, 1362, 2601, -1, 
    -1229, -2047, -66, -2448, -1104, 144, 1472, 855, 
    -203, -1800, 119, 147, 2032, 900, -251, -841, 
    -452, 269, -883, 685, 130, 340, -1161, -286, 
    -437, 522, -302, -1144, 508, -316, -265, -188, 
    301, -881, -465, -192, 1356, 3732, -322, 306, 
    -1825, 60, -1528, -678, 90, 1403, -703, 245, 
    587, 983, 213, -1999, -3394, -88, 1639, 824, 
    -26, 1323, -250, 222, -279, 1787, 269, 2394, 
    37, 196, -333, -1364, 245, -853, -8, -135, 
    907, 512, -5, -298, 1167, -53, -2587, 1603, 
    -281, -780, 2852, -134, -59, 437, 98, -41, 
    -1194, 98, -2288, 1121, -207, 872, -788, -198, 
    -946, 1392, -85, 829, 370, 22, -322, -219, 
    -142, -854, -1048, -170, 122, 1229, 54, -1514, 
    -857, -18, -856, 1901, 129, -894, 2423, 143, 
    1123, 1988, -56, 945, -202, 47, 938, -650, 
    263, 1457, 1709, 254, -1074, 773, -62, 485, 
    513, -6, -493, 435, -212, -406, -218, -155, 
    -602, 2370, -226, -454, 1119, -105, 1073, -791, 
    -204, 38, 462, -259, 2275, 1189, 58, -170, 
    -1557, -262, -1564, -335, 103, -752, 640, -46, 
    158, 1243, -268, -1663, 1228, -86, 667, -1147, 
    211, 215, 200, 51, -995, 328, -56, 2026, 
    -1082, -12, -179, -1119, -70, -441, 195, -127, 
    -340, 805, -151, -116, 270, 259, 1189, -143, 
    91, 353, 1176, -64, 123, 1132, -130, -554, 
    -967, 249, 623, 1924, 18, 553, -488, -137, 
    -704, 1365, -82, -111, 218, 269, -1227, 2268, 
    -266, 616, -68, 8, -477, 834, -25, -246, 
    16, -116, -2055, -756, 12, -1117, 217, -202, 
    300, 1952, 18, -2138, -985, -76, -121, -639, 
    -189, 454, 288, -175, 1073, 1059, -279, 730, 
    445, 30, 717, 288, 275, 82, -1507, -141, 
    -46, -1288, 238, 199, -46, -17, 727, 1712, 
    63, -528, 1151, 285, 201, 2391, -135, 1340, 
    428, -200, 435, 815, 220, 1386, 48, -135, 
    1504, 203, -210, -515, -2063, -52, -466, -1474, 
    145, -1363, -1898, 243, -687, 2199, -255, 878, 
    519, -219, -376, 834, -58, 935, -200, -27, 
    712, 1560, -78, 561, 1078, -42, 702, -1454, 
    152, 888, -113, 248, -447, -681, -112, 692, 
    2627, -20, 1908, 421, 242, 2396, 1470, -165, 
    1477, -966, -278, -699, -589, -196, -61, -3, 
    28, 709, 332, -175, -62, 845, -53, 1529, 
    1764, -85, -37, 285, -179, -788, -1605, 182, 
    1795, 517, 143, -305, -821, 86, -222, 70, 
    -50, -11, 1673, -268, -316, 850, 219, -131, 
    -1317, 64, 458, -1034, -129, -73, -371, -178, 
    -605, -132, 88, -268, -2282, -16, 582, 1052, 
    48, 836, 703, -91, 1137, 2091, -80, -2040, 
    -1658, -90, 1444, 629, 60, 583, 74, -206, 
    -1001, 502, 276, 923, 1510, 241, -1606, -504, 
    -133, 285, -660, -242, 1790, -193, -96, 897, 
    -1147, 93, 371, -1244, -176, 805, -1486, 67, 
    -500, 330, 204, 402, -917, -89, 213, 137, 
    -30, 767, -345, -164, 1803, -1581, -216, 1992, 
    1721, -99, -2547, -1235, 176, -2115, -1486, 214, 
    -410, -842, 392, -196, 48, 391, -635, 349, 
    238, -1639, -269, 51, 2578, -2590, 107, 612, 
    -290, -95, 1352, 1792, 191, 681, -2591, -215, 
    -2029, 3259, -59, 2677, 2794, 249, 2730, -2060, 
    329, 1252, 618, 345, -770, 1826, -332, 1132, 
    1798, 136, -1289, 1702, -168, -2215, 585, 382, 
    -632, -3737, 276, -1781, -119, 182, -120, 897, 
    -172, 869, -2646, 126, -681, -687, -282, -164, 
    -710, -342, 551, 2977, -30, -1703, 366, 272, 
    709, 3268, 120, -1061, -407, -135, 1208, 284, 
    87, 1586, 886, 71, -2739, 107, 311, -1149, 
    504, 29, -797, -952, 21, -310, -2278, 19, 
    2480, -2366, -152, -137, -1285, 163, 967, -383, 
    -116, 1328, -3505, 51, -202, -991, 257, 3, 
    -1159, 57, -1676, 1113, -72, 792, -4510, 174, 
    -1029, -1308, 403, -676, 553, -364, 2004, -2, 
    -40, 282, 221, -39, 1075, 739, 135, -1110, 
    -836, -122, 1349, 940, -58, -755, -440, -211, 
    -3371, -777, -97, 2304, 2220, -343, 817, -2735, 
    87, 1082, -1982, 301, -2104, 834, -222, -328, 
    968, -77, 1327, -220, -36, 697, 339, -148, 
    937, -631, 131, 1803, 1178, -278, -953, -743, 
    -192, -883, 100, 150, 1319, -1633, 144, -258, 
    769, 153, -2584, -2086, 127, -731, -3540, -2, 
    -2057, -941, -288, -347, -1290, -51, -610, 20, 
    -143, 171, -557, -56, 1320, 1163, -194, 1457, 
    3961, 336, -1316, 1012, -58, -971, -1115, 273, 
    -1799, 2221, -30, -789, 1561, 193, 767, -1678, 
    -74, 1015, 2583, -344, -1689, -165, 257, 1139, 
    1204, 224, -636, 121, -138, 879, -635, 241, 
    1480, 1054, -279, -2603, -523, 183, -3623, 1397, 
    -367, -688, -1366, 162, 369, -500, 213, 2049, 
    -2064, 221, -932, 2848, 172, -513, -320, 328, 
    527, 1324, 328, 522, -716, 355, -69, -549, 
    -268, -200, 1889, 181, -819, -2027, 326, -1666, 
    42, -199, -1723, -126, -208, 177, 479, -2, 
    84, -450, 32, -1023, -3098, -111, -824, 1946, 
    -194, 2180, 247, -19, -1858, -2219, 264, -182, 
    608, -159, -1034, -516, -195, -25, -2738, -154, 
    487, -751, -201, 253, 1284, -63, 770, -1091, 
    -319, 3512, 1413, -19, -1015, 254, 73, -871, 
    -401, 265, -3196, 1247, -77, 1100, 1746, 282, 
    -1505, 45, 371, -92, 2019, 184, 460, -673, 
    -319, -1040, -859, 300, 108, 234, 179, -709, 
    561, 228, -686, 747, 147, 222, 1349, -335, 
    -231, -1486, -351, 464, 1291, 110, -364, 1072, 
    147, 2685, -81, -15, 304, 2089, -135, 902, 
    -114, 234, 1969, -10, 42, 362, 652, -60, 
    532, 514, -94, -456, 1170, -39, 2047, 1539, 
    95, 1033, 906, -195, 1278, 1176, -245, -148, 
    -447, 50, 697, -706, 43, 1503, 104, 217, 
    -644, -593, 31, -135, -144, 154, -169, -720, 
    79, -887, 1545, -231, 416, 1771, -74, -967, 
    1033, 33, 303, 876, 29, -528, 736, -150, 
    1578, 2231, 47, 1302, 318, 180, 423, -657, 
    -194, 1214, 801, -192, 463, 493, -176, 1900, 
    -114, 95, -819, 712, -187, -275, 1300, 220, 
    -315, 682, -3, 397, -645, 134, 514, -784, 
    100, 319, 8, -98, -759, 361, -49, 1072, 
    -443, -227, -43, -803, 197, 390, -1543, -13, 
    -85, 1272, -35, 212, 721, 11, 1048, -573, 
    -68, -73, 1209, -81, 350, 193, -237, -79, 
    -2210, -187, 250, 993, 98, -141, 1392, -215, 
    -474, -61, 9, -52, -1132, -250, 1511, 778, 
    -225, 331, 811, -231, -172, 8, -65, -2458, 
    -709, -38, 835, 1707, -192, 484, -212, -135, 
    -1197, 425, 133, -694, -49, -51, -1169, 1221, 
    -141, -476, -206, 24, 415, -67, -195, -14, 
    152, 155, -848, -11, 9, 436, -949, 157, 
    533, 1216, -96, -1093, -1382, 104, 332, 1913, 
    235, 379, -763, -178, 949, 918, -250, 400, 
    435, -142, -834, -537, -263, -1589, -1386, 128, 
    85, -1764, -247, 1016, 2129, 213, -504, 955, 
    263, -952, 1019, -194, 1704, 194, -47, 598, 
    -458, -97, -705, -1045, -34, -96, 171, -37, 
    -753, 1466, -261, -111, -1393, 224, 558, 151, 
    -143, -1187, -425, -229, 536, 885, -15, 1075, 
    -61, 53, -1282, 1208, -190, -294, 434, -45, 
    -53, 1205, -163, -544, 2433, -57, 301, -1090, 
    136, 1351, -1676, 241, -660, -692, 79, 1296, 
    403, 76, 360, 1707, -164, 813, 780, -263, 
    647, 1139, -22, 497, -276, -73, 899, -2499, 
    75, -1000, -40, 44, 1144, 1033, 264, 1188, 
    -309, 249, -480, -351, -201, -321, -3055, -77, 
    657, -1099, 5, 218, -693, -175, 756, 348, 
    136, 377, -535, -234, -508, -368, 161, 903, 
    -752, -20, 258, 727, 248, 881, 336, -238, 
    -624, -1166, -113, 1570, -840, -265, -988, 1273, 
    -9, 125, 1647, -172, 109, 394, 91, -2091, 
    -921, 243, 1454, 387, 217, -175, -272, 265, 
    -1986, 217, -207, 1440, 59, 55, -1085, -567, 
    113, -301, -2021, 225, -328, 1312, 184, -101, 
    267, 191, -376, -226, -158, 179, 474, -258, 
    1020, 976, -153, -1402, 999, -50, -278, 332, 
    -192, -504, 406, -111, 1248, 2550, -56, 1201, 
    -729, 19, 448, 824, 295, 1129, 1312, -79, 
    -656, 288, 185, 973, 1254, 75, -526, 450, 
    207, 203, 3134, 72, 1192, 786, -72, -489, 
    709, 145, 1624, -563, -100, 733, 872, 186, 
    -25, -1186, -298, -707, -1099, 224, 663, -1072, 
    156, -292, 199, -200, 1122, 87, -76, -1053, 
    187, 69, -392, 2105, -204, -1786, 1845, -129, 
    -599, 2310, 139, 1069, -1029, -268, -320, -1769, 
    232, 445, 684, -217, -99, 1951, 109, 631, 
    -427, -37, -1218, -507, 126, 293, -214, -268, 
    -417, -459, -98, 391, -1619, -13, 1373, 156, 
    -294, 813, -139, 220, 368, -133, -234, 904, 
    -388, -225, -1936, 350, -43, 1479, -295, 94, 
    -837, 1968, 37, -666, 2186, -30, 416, -1534, 
    34, -949, 497, 271, -438, 1900, -62, -331, 
    -1944, 179, 1, -897, -154, 940, 2262, -204, 
    112, -1199, -280, 1821, -1307, 130, 507, 677, 
    -30, -1225, -142, -114, -107, 104, -242, -380, 
    -1467, 61, 2279, 278, -175, -1292, -1371, -25, 
    881, 2748, 229, -852, 181, 162, 229, 2727, 
    130, 209, 888, 255, 127, -28, -129, 1691, 
    -1152, -68, 232, 318, 41, -644, 725, -178, 
    478, 1158, 13, -408, -1092, 59, 477, 1487, 
    255, -631, 5, 312, 1228, 1094, -321, -1274, 
    1517, -340, 1974, 1423, 225, -121, 1202, 21, 
    441, 2380, 263, 557, 3242, -37, 1807, 1972, 
    -46, 50, 2869, -112, -256, 1649, 361, -2685, 
    -915, 333, 1031, -1461, 250, 207, 1516, 364, 
    22, -1642, -43, 432, -3667, 18, -285, -2091, 
    -393, -1984, 291, 19, 131, -360, -110, -2110, 
    -1624, 49, 81, 677, -355, 946, -440, -373, 
    -1203, 3400, 193, 730, 2826, 321, -998, -56, 
    114, -1576, 219, 326, 1476, 1894, 192, 299, 
    1164, 275, -926, 160, -225, 410, 3244, -264, 
    -1122, -989, -22, -349, -2987, -76, -795, -1139, 
    -146, 459, -2294, -147, -2474, 411, -117, 3246, 
    -1784, -311, -532, -183, 38, -130, -810, -335, 
    3, -454, -368, 1302, 1844, -225, -76, -2389, 
    94, -261, 577, 187, -796, -786, 188, 164, 
    -1348, 22, 912, -67, -137, 1378, 1574, -320, 
    412, 509, -159, -705, -1529, 199, -1281, -412, 
    -293, -1307, -1999, -341, -4211, 1165, 69, -1153, 
    43, 94, 1697, -91, -323, -1427, -1183, -192, 
    -1567, 669, -354, 496, 1097, 89, 467, 2294, 
    126, -1751, 133, -63, 251, 228, -153, 1320, 
    1252, 352, -2365, -531, -16, 1261, -466, 116, 
    -1116, 1909, 104, -625, -1410, 33, -1021, 1915, 
    186, 329, 1545, -120, -268, -626, 101, -260, 
    -1609, 279, 317, 927, -70, 394, 137, 278, 
    -155, 1204, 48, -970, 350, -100, 285, -1548, 
    179, -775, 1077, 99, 799, -407, 97, 60, 
    -53, -83, 628, 2505, -76, -215, 623, -56, 
    -5, 396, -115, -12, -1092, -190, -31, -372, 
    -214, -623, -742, 77, -1728, -946, -226, -54, 
    -1518, -75, -652, -2429, 40, 1709, -1502, -83, 
    -1893, -589, 186, -1935, 39, 302, 465, -351, 
    -73, -947, 898, -183, -721, -1836, -95, 318, 
    -959, 156, -878, -520, -243, -2044, -1953, 49, 
    -729, -443, 183, -728, -841, 145, 388, -164, 
    -223, 1088, -1120, 257, -135, -516, -44, -853, 
    -1757, -221, -1031, 1151, -254, 1280, 1304, 206, 
    425, 706, -282, 121, 636, -175, 989, -1631, 
    34, -702, 1094, -216, 333, 541, 39, -705, 
    1673, 297, -2116, -941, -244, 161, -1713, -98, 
    560, 2202, -114, 1620, 1351, 95, -1666, -1049, 
    12, -1979, -1045, 259, -1088, -841, 249, -574, 
    2033, 205, -330, -1007, -199, -115, 459, -55, 
    -2817, -2194, -216, -280, -337, 282, 963, -278, 
    -164, 268, 1400, -23, -512, -1866, 297, 1588, 
    1656, -252, 1124, -1142, -269, 1061, 354, 287, 
    -1800, -2396, -70, 256, -222, 134, -1190, 331, 
    179, -169, 1514, -65, -487, 213, 253, -1388, 
    -1349, -138, 1012, -1380, -242, 766, 672, -48, 
    -1230, -286, -89, 507, 63, 196, 923, 1041, 
    56, -29, 364, 177, 1149, 1479, 69, 1361, 
    534, -130, -638, -346, 261, 282, 439, -35, 
    -1142, 1883, 217, -582, 1270, 48, -283, 1464, 
    -273, 300, 730, -159, -635, -614, -141, 332, 
    -689, -64, -424, -146, 53, 726, -309, 107, 
    -189, -2215, -19, 1318, -200, -6, -862, 904, 
    -137, -890, -1159, 252, 955, -1118, -230, 1635, 
    -1245, 134, 352, 41, 156, -740, -697, -220, 
    1076, 128, -219, -1787, -1305, -124, -1415, 602, 
    216, -1201, 239, 141, -633, -1191, -261, 753, 
    -1817, -53, 500, 1073, -245, 1740, 1499, 258, 
    -259, -269, 271, -1963, 679, -173, 1441, 120, 
    0, -558, -1488, -263, -1639, 214, 254, -1225, 
    707, 187, -313, -714, 188, -522, -24, 82, 
    954, -1384, -179, 1705, 1453, -278, 428, -483, 
    -148, -356, -1036, 62, 1488, -979, 205, -752, 
    1898, 229, 738, 945, 35, -747, 543, 80, 
    -2450, -1105, 104, -771, -423, -220, 778, -794, 
    -274, -1177, 573, -103, -377, -1854, -184, -238, 
    -900, -271, 375, -2690, -89, -84, 989, 221, 
    -750, -1542, 247, 2021, -162, 90, 1024, -27, 
    145, 254, 2001, 46, -538, -199, -303, -833, 
    294, 227, 239, 970, 268, 19, -141, -26, 
    151, 4055, 216, -1313, 195, 281, -1649, -1443, 
    -141, 261, 1420, 361, 430, -788, 285, -456, 
    -422, 80, 1054, 2248, -91, 1061, 1209, 173, 
    911, 58, -289, 807, -1926, 188, -145, -1018, 
    -128, -44, -1487, -250, 713, -658, 56, 1883, 
    -1977, 81, -521, -2093, -194, 2013, -1284, 269, 
    -1288, -116, -368, -951, 1167, 184, -2877, -749, 
    -296, -481, 1449, 316, -1206, -130, 87, 756, 
    -1861, 120, 44, -753, -106, -1708, -802, 177, 
    231, -1413, -241, -1180, -707, 301, 180, 1205, 
    -223, -31, -1848, -54, -659, 597, 352, -1847, 
    -1687, 258, -171, 121, -72, 1279, 1884, -263, 
    -1368, 372, -194, 1290, 1652, 180, -727, -2283, 
    -133, -835, 496, 191, 989, 2354, -328, 128, 
    316, -280, -850, 240, 125, 435, -957, 350, 
    1803, 2526, 236, 1841, 195, -295, -2252, -1492, 
    231, -833, -1165, 21, -1307, -2076, -256, -998, 
    1704, 121, 170, 63, 286, 448, -589, 41, 
    -1894, -2173, 234, -744, -1544, 187, 580, 1010, 
    -290, -981, 1740, 170, -2299, -2157, -348, 1519, 
    3002, 123, 402, 466, 28, 1392, 1399, -119, 
    -2751, -2214, -354, -1182, -683, 124, -836, -16, 
    -316, -236, -1365, 230, 472, 2325, -39, -140, 
    1881, 99, 1950, 197, 159, -112, -1840, 20, 
    -88, 162, 287, -213, -506, -299, -655, 783, 
    133, -254, 2876, 220, -1129, 2436, 221, -57, 
    -1141, -95, -1018, -813, -235, -512, -158, -115, 
    634, 977, -172, -46, -519, -54, 359, 203, 
    182, -3031, -2003, -250, 309, 371, 181, -3717, 
    -1379, -319, -2233, 1138, -161, -932, -807, 218, 
    1607, 2751, -51, -1373, 2036, -87, -402, -578, 
    -232, 167, 1501, 167, 754, -686, -226, 486, 
    2602, 180, 2410, 952, 142, -1195, 956, -233, 
    2420, 1181, 85, -363, -1710, 153, 334, -848, 
    -213, -295, -266, 306, -37, 1791, 116, -456, 
    -529, 292, -979, -250, -316, -1428, -603, 88, 
    200, 1229, 301, -1456, 704, 71, -1008, -284, 
    -215, -975, 1355, -278, -789, 726, -136, 991, 
    884, 314, 727, -1440, 180, -478, -1002, -223, 
    -1080, 1051, 223, 301, -529, -20, -399, -1885, 
    -173, 229, 362, -80, 174, -172, 147, -785, 
    -1243, -63, 1606, -261, -271, -314, -1727, 68, 
    -1138, 93, -180, 948, 2329, -101, -762, 1186, 
    -66, 861, 521, -208, 982, 604, -174, -202, 
    992, 81, -500, -1058, -251, -870, -1069, -36, 
    -284, 1493, 57, -41, -413, 296, 1177, 1331, 
    108, 639, -747, -170, 396, 1999, 69, 304, 
    -461, 49, -1732, -1532, 230, 372, -123, -245, 
    80, 574, 221, 930, -89, -200, -563, 1843, 
    -239, 622, 1284, -205, 422, 1110, -297, -660, 
    -2037, -78, 23, 842, -166, 614, -647, -5, 
    1711, 1089, 85, 90, 702, -66, 857, -1167, 
    -164, 1176, 840, 269, 510, 594, 49, -1258, 
    -527, 176, 322, -8, -97, -258, 1193, 4, 
    92, -1032, -52, -1983, -564, -128, 621, -884, 
    148, 1553, -490, -72, -1489, -142, -157, -913, 
    -944, -194, 446, 777, 48, 351, 1472, 45, 
    1217, 829, -145, -213, -2286, -268, 810, -1488, 
    -265, 597, 1756, -252, 673, -727, 27, -1965, 
    -1113, -29, 720, 124, 137, -1024, 916, -229, 
    1659, -1197, -223, 125, -1125, -28, 1240, -3021, 
    227, 1546, -29, -295, 80, 1464, 159, 1474, 
    -379, -149, 1255, -1814, -26, 275, -716, -23, 
    -1448, -1813, 248, -2314, 844, 292, 2181, -513, 
    -211, 2526, 1010, 85, -375, 1777, -260, -827, 
    -1372, -91, 1493, -593, -13, 1143, -497, -87, 
    12, 379, 4, -1149, 1814, 66, -277, -55, 
    -103, 748, -1778, -15, -336, 1831, -18, -1312, 
    462, -298, -44, -906, -52, 453, 412, 275, 
    1348, 988, -155, -1113, -362, 234, -520, 1191, 
    82, -641, 1242, 342, -2470, 779, -231, 794, 
    -2365, -180, 1330, -2831, 112, -161, 681, -167, 
    329, 2402, 155, 203, 2988, 357, 1095, 2397, 
    178, 2352, 2705, -12, 1820, 199, 228, -749, 
    -1456, -319, 1558, -818, -369, 1557, 832, 195, 
    -255, -955, 290, -3284, -2242, 240, -4036, -2621, 
    -268, -2639, 1847, -364, -499, 892, -322, -786, 
    -1234, 248, -867, 2118, 160, -943, -438, -352, 
    -2088, 1748, 38, 1870, -601, 371, 3383, 2024, 
    271, 665, -310, -28, 1030, 1924, -88, 842, 
    -142, 164, -1685, -2136, -53, 2134, 1116, 136, 
    467, -367, -256, -1514, 4, 17, -518, -1962, 
    191, -480, -500, 199, -321, -1497, 367, 2261, 
    113, 20, 658, -515, -288, 653, 314, -392, 
    -1316, 2790, -290, -1774, 260, 99, -1613, 1381, 
    -152, -2177, 1025, 223, -918, 793, 128, 88, 
    -1910, -249, 3230, 505, -92, -1314, 2215, 225, 
    -1069, 1213, -305, 1204, -3388, 308, -2211, -26, 
    117, 732, -119, 135, -1564, 924, -94, -1075, 
    465, 286, -1479, 1878, 394, 395, -1, -56, 
    879, 1373, -12, -1523, -641, -203, -963, 1669, 
    161, 352, -169, -161, -963, 46, 297, -377, 
    -568, 327, 359, -348, 163, -2440, -1715, -366, 
    690, 1167, -73, -2035, -1724, 297, 773, -654, 
    -315, 55, 2811, -190, -66, -2131, -107, -367, 
    -1521, 138, 922, -1617, -252, 43, 1295, -116, 
    -2768, 1022, 121, -1278, -352, 144, 833, 837, 
    310, 1367, 1042, -251, -1174, 147, 294, 84, 
    1895, -263, -1820, -1060, 12, 1958, -988, 225, 
    789, -713, -232, -1020, -1654, 141, -570, 122, 
    -236, -707, 734, 315, 551, 607, 170, -1694, 
    -1420, -112, 336, 210, -220, -347, -38, 106, 
    630, -326, 29, 324, -1213, 123, 3110, 1823, 
    -29, -1181, -1922, -279, 21, -747, 226, 1642, 
    -2037, -18, 184, -2488, 241, 259, -147, 153, 
    -824, -237, 255, -343, -17, -29, -1112, -1030, 
    55, -2012, -1495, 259, 544, -1649, -18, -1522, 
    -730, -207, 2316, 1467, 21, 1145, 1679, 319, 
    1007, 1125, -89, 533, 1047, -143, 1805, -192, 
    35, -44, 89, 26, -770, -1547, 78, -3120, 
    -132, -211, 1518, 471, 157, -1292, 1220, 239, 
    2038, -2152, -232, 517, 1550, 162, 243, 1169, 
    249, -1522, 521, 26, 812, -513, 92, 0, 
    1133, 35, -973, 1703, -1, -1697, -189, 101, 
    599, -90, -27, -1751, -422, -245, -976, -1175, 
    -213, -96, -731, -32, -1952, 301, -229, -588, 
    -875, 272, -774, -513, -130, -158, 1448, -240, 
    -291, 310, 306, 847, 170, -30, 3260, -670, 
    -179, 276, -70, -36, 1299, -2048, -218, 620, 
    115, -176, -1966, -2232, 243, 851, -2355, 109, 
    -805, 436, 86, 598, -985, 197, -505, 150, 
    316, -1569, -1392, -83, 1431, 245, 32, -789, 
    1226, 224, 484, -117, 249, 1329, -1683, -210, 
    -740, 2227, 163, 1155, 2430, -135, 1422, 493, 
    0, 1053, 1872, -246, -2283, 363, 320, 868, 
    -483, -26, -1147, -1058, 142, -1483, -2457, -135, 
    -1362, -956, 65, 205, 184, 222, -1682, 1066, 
    75, -284, -1780, -94, -2601, -1099, 303, 826, 
    -1071, 260, -39, 2005, 164, -452, -1248, 106, 
    1090, 2230, 66, -194, -430, -302, 778, -1128, 
    -333, -1239, 1278, 173, -939, -636, 240, -846, 
    680, -281, 495, -758, -79, -876, 393, 120, 
    -36, -1209, -127, 49, -489, -115, 742, 3063, 
    -273, 1941, -2749, -90, -309, -3343, -340, 862, 
    -1437, -303, -2389, -557, 142, -1997, -2664, 15, 
    -783, -1205, 296, 348, 1356, -123, 30, 1203, 
    290, 1226, 848, 182, 1357, 29, -27, 50, 
    188, -20, -594, -422, -271, 3, 253, -77, 
    -969, -1768, -207, -296, 1133, 58, 1384, -2081, 
    -324, -427, -1258, -324, -1048, -1276, -98, -1091, 
    -162, 82, -1045, 386, -168, 773, 1093, 44, 
    -211, -1357, -304, 670, 1657, 147, -1162, 193, 
    -60, 633, 666, -219, 316, -835, 246, -827, 
    -571, -236, -1378, -350, -20, 1896, -196, 178, 
    -513, 145, -191, -589, 610, 117, -541, -175, 
    -70, -437, -219, -225, 505, -1269, 19, 516, 
    378, 240, -1324, 679, -146, 1505, 469, -200, 
    -827, -332, 219, -531, 23, -81, -977, 214, 
    -287, 896, 166, 303, -210, -11, -108, -354, 
    -1712, -190, 56, -1002, 251, 1533, -2354, 276, 
    -2532, -1044, 279, -90, -809, -80, -289, 2186, 
    300, -2332, -222, 181, -1102, -949, -75, 527, 
    -138, 0, -1141, -87, 294, -1463, -1167, 206, 
    577, -1097, 27, -1642, -542, 70, -1570, 1554, 
    40, -1382, 186, -260, -2021, -2462, 59, 596, 
    -2326, -115, 1355, 552, 253, 1873, 1987, 103, 
    -708, 688, 191, -880, 377, -296, 181, -2417, 
    -289, 738, -1458, -228, -188, -243, 114, -469, 
    159, 244, -18, -561, -61, -321, -694, 56, 
    -44, -186, 152, 2651, 1068, 284, -839, 43, 
    -238, -728, -494, -300, -616, -650, 169, -2179, 
    1469, -278, -383, 1081, -157, -576, 1298, -142, 
    -963, -2306, -194, -649, -41, -35, 627, -4, 
    -255, -941, 718, -116, -2080, -1209, 260, -761, 
    -421, 25, -774, -1958, 255, -671, 810, -140, 
    -237, -2667, 193, -340, -2061, 113, 591, 1526, 
    -253, -760, 1446, -244, -1108, -547, 139, -3008, 
    173, -59, 1410, -1449, 50, 1333, 482, -17, 
    -642, -67, -273, 514, -660, 107, 1880, -376, 
    135, 532, -1287, 3, 967, 1257, -20, -565, 
    878, -243, -731, -1260, -70, 75, -1565, -128, 
    -411, 108, 19, 1131, 718, -145, -213, -2087, 
    -37, 210, 1594, 82, 32, -1011, 206, -45, 
    -503, 70, -859, -667, 8, 935, 84, -196, 
    -432, -915, 142, 1330, -2127, -22, 1711, 938, 
    -100, -782, 42, 79, 887, -733, -131, 169, 
    -669, 85, -89, -88, -38, 870, -574, 78, 
    565, 1396, -234, 254, -930, -99, 1374, 1302, 
    23, 725, 1127, 170, 575, -1630, -207, 441, 
    1120, 183, 88, 727, 176, -503, -472, -34, 
    204, 1079, 204, -1215, -155, 271, -1552, 2111, 
    -144, 570, 309, 104, -1110, -929, 28, -2319, 
    1221, -36, 459, 712, -185, -1001, 137, -181, 
    458, -2260, 215, 358, -1141, -115, 2111, 249, 
    -151, 271, -275, -270, 259, 1501, -112, -831, 
    367, -243, 308, 512, 174, 1518, 1614, -168, 
    -1234, 547, 2, -1342, -822, -186, 78, -1464, 
    -30, -1888, 210, 211, -532, -1182, -113, -326, 
    -691, -33, 1110, -676, -43, 899, 279, -145, 
    -11, -593, -172, -398, 1424, 104, 2309, -684, 
    82, 942, 1248, 61, 540, -349, 218, -351, 
    -360, -107, -78, -532, -234, 2124, 766, 252, 
    -1213, -1194, -92, 439, -336, -98, 698, 1059, 
    -252, 366, -2160, -27, 673, 1239, -77, 1116, 
    1576, 228, -175, 137, 86, 440, 168, -241, 
    383, -260, 180, -136, -183, 146, -21, 1208, 
    -225, 686, 1403, 278, -369, -2714, 54, -360, 
    -1367, 187, 109, -77, 201, 20, -646, -232, 
    565, 760, -147, 1355, -135, 209, 119, 1302, 
    108, -337, 21, -222, 363, -391, 56, 665, 
    -2491, -46, -387, -521, 199, -410, -50, -247, 
    1117, -611, 1, -1305, -606, -95, 586, 996, 
    261, 1461, 4, -215, 313, -2439, -129, 1663, 
    -1186, -98, 2073, -364, 4, 358, 982, 251, 
    380, 978, -48, -602, 490, 65, 1224, -1054, 
    -143, 939, -612, 198, -2505, -1153, 56, -1238, 
    833, 211, 2026, -577, -110, -190, 790, 137, 
    -92, -1859, 107, 1762, 1771, 162, 1120, -189, 
    -3, -142, -1671, 43, 1004, 1059, 70, -3546, 
    1213, 280, -354, 1418, 22, 902, 857, -171, 
    -337, 1006, 158, -1384, 773, -17, 246, -696, 
    -251, -1124, 1013, -227, -299, 203, 73, -493, 
    -1850, 201, 315, -890, 231, 1573, 809, 262, 
    899, -1350, -132, 1423, -1549, 5, 1149, -836, 
    284, -662, -1538, -112, 2692, 1021, 120, 707, 
    1303, -69, 392, 2020, 78, 897, -267, 112, 
    1091, 1328, 192, -470, 1517, -221, 253, 1419, 
    116, -204, 1794, -131, 299, 686, -91, -1050, 
    -1747, -144, -966, 1161, 106, 22, 907, -22, 
    -355, 255, 136, 436, -980, -64, 1547, 11, 
    -312, -1580, -1910, 305, 1287, 2763, -190, -614, 
    -273, -45, -589, 493, -100, -1332, -671, 227, 
    345, 1078, 87, -10, -32, 103, 236, -1449, 
    -161, -218, 1101, -114, 183, -651, 17, -441, 
    -1839, 90, 525, -252, 189, -2917, -196, -23, 
    47, 1375, 246, -3, 254, 105, 1390, -76, 
    -9, 411, -1966, -118, 1318, 1015, 195, 537, 
    -923, -4, -1047, -2573, 8, -1312, -1826, 75, 
    1710, 719, -80, 966, 3337, -130, -1077, -591, 
    -214, -141, -80, 106, 1301, 2197, 164, -178, 
    -740, -70, -1665, -1756, -184, -395, -22, 256, 
    630, 3195, -251, -1240, -248, -86, -2202, -798, 
    5, 1250, -1746, -270, 782, -505, -83, -816, 
    594, -106, 1732, -363, -308, 269, -1516, 212, 
    140, -2028, -126, -1785, 1689, -223, -601, 964, 
    -212, -7, -1015, 74, -1124, 365, -42, 58, 
    1668, 292, 2464, -502, -63, 208, 202, 57, 
    534, -617, 301, 1481, -178, 105, -1242, 1205, 
    -216, -2299, -607, 100, -1020, 2392, 270, 1214, 
    1825, 4, 664, -1330, -241, -1114, -1257, -76, 
    1475, 104, 263, 250, 2676, 315, -935, 1531, 
    133, -814, 1938, 187, -2432, -307, -4, -331, 
    -1957, -236, -752, -795, 180, -102, 1080, -160, 
    -1781, 1579, -121, 207, -1492, 173, 248, -1580, 
    283, 682, -726, 212, 312, 693, 201, -1453, 
    -1727, 195, -629, 2363, 256, 366, 1325, -215, 
    -515, 2318, -171, -1771, 3113, -57, -826, -1446, 
    2, 1081, 469, -247, -1563, 1428, 176, 612, 
    1228, -131, 22, 1033, -299, -25, 682, -31, 
    -798, 1250, -93, -776, -342, 162, -456, 219, 
    -40, 954, -646, -195, 739, 1498, -46, -508, 
    -2133, 279, -1594, -1860, -303, -1208, -21, 235, 
    -871, -144, 218, -368, -1637, 15, -1296, -1234, 
    -220, -1845, 849, 189, -386, -1020, 334, 494, 
    -264, 279, -970, 139, -166, -363, -217, 197, 
    -2061, -642, 4, 352, 738, -253, 1021, -551, 
    67, -250, 64, 295, -1495, -138, 149, -796, 
    -682, 39, 1592, 208, -244, -1274, -490, -189, 
    1156, 2814, -33, -421, 958, -126, -118, 3076, 
    331, 1494, -2666, -101, -525, 2381, -10, 1223, 
    754, -69, -870, -434, -228, 25, -520, -22, 
    2668, 1936, 192, -433, -1127, -349, 413, 1661, 
    278, -1499, 1257, 304, 29, -311, -55, -314, 
    -277, -216, 810, -1240, -81, 984, 1679, 48, 
    -299, -127, -289, 207, -1472, 24, 915, -1441, 
    -76, 1322, 1290, 64, 314, 1093, -295, 974, 
    313, 56, -403, 2234, -225, 769, 1995, -111, 
    1085, 1450, -221, -1001, 1029, 214, -286, 1523, 
    282, -805, 1366, -324, -1864, -1509, -104, 1238, 
    -914, -296, 133, -2584, 96, 1955, 445, -292, 
    -965, -516, -277, 513, 17, -221, -817, 869, 
    313, 98, 425, 95, -842, -210, -1, 1368, 
    803, -314, -1510, -813, 137, 444, -1743, 12, 
    -679, 507, 71, 273, -548, -272, -1811, 485, 
    -258, 1252, -853, 252, -447, -1414, 180, 128, 
    -1200, -29, -2595, 927, -287, -106, 2035, -154, 
    -839, -576, 232, -1482, 802, -70, -403, -396, 
    190, -3651, -407, 78, 2006, 1003, -162, -94, 
    -409, 318, -1268, -86, -90, 105, -552, 309, 
    -2, -397, -67, 915, 2163, 45, -2104, -1843, 
    117, -843, -1048, 152, 2832, -1010, -152, -163, 
    967, 139, 1048, -733, -137, -1968, 854, -17, 
    -2224, -1871, 227, -893, -821, 62, -7, 105, 
    -239, -132, -161, 192, 902, 537, 193, 2421, 
    318, 6, 430, -145, -295, 20, 3022, -282, 
    -920, 467, -160, 1651, 685, 153, 633, 485, 
    -132, 973, 274, -79, 792, 165, -275, 290, 
    864, 101, 424, -300, -21, -252, 1537, 282, 
    -20, 1797, -158, 577, 198, 170, -2023, -628, 
    241, 213, 2984, -264, 1126, -137, -328, 293, 
    -781, 104, -585, 1804, -286, 1441, 2314, 98, 
    5, -575, -167, 84, -1825, -224, 1438, 312, 
    -104, -1649, -1453, 182, -65, -1016, -206, 278, 
    -3018, 301, -727, -619, 105, 1403, 248, 208, 
    -1334, 464, 88, -211, -130, 108, -418, -1221, 
    -175, -421, 957, -100, -1180, -1667, 125, -291, 
    1935, 42, 307, -71, 33, -818, -1735, -13, 
    1276, -1697, -137, -114, -460, -29, -750, 93, 
    139, 778, -1822, 185, -222, -102, 124, 583, 
    -1458, 51, -2576, 219, -9, 729, 1972, -184, 
    68, 1029, 82, 1838, 1311, 122, 411, -1996, 
    281, -1981, -300, 265, 1227, 2749, -1, -636, 
    -648, -251, 936, -890, 174, 1125, 1283, -39, 
    2736, 990, -178, 1670, 857, 34, -1118, -815, 
    -174, -784, 52, 164, 1120, -2712, -163, -117, 
    1076, 74, 1208, -1007, 296, -659, -2008, -168, 
    247, 639, 313, -893, -116, 304, 1774, 2611, 
    262, -269, 314, 180, -1482, -1493, 234, 1544, 
    1387, 57, 874, 214, 78, 238, 618, -266, 
    -1611, -301, 48, -150, -1784, 258, 721, 664, 
    -167, 503, -787, -94, 344, 2329, 125, 1282, 
    777, -210, 583, -1176, 226, 801, 3, 100, 
    -346, 837, 157, -32, 874, -182, 1806, 1262, 
    61, 596, 1150, -163, 606, -207, 152, -326, 
    -1922, 60, 586, -364, -293, 1857, 215, 269, 
    1753, -154, -127, -1012, -596, -25, 1174, -2029, 
    -174, 1898, 268, 271, 387, 2099, 253, -117, 
    -84, -254, -633, -313, 190, -781, 1369, -211, 
    1669, 824, -3, 1157, 1247, -84, 968, -573, 
    -200, 1257, -189, 97, -1492, -794, 92, -1038, 
    749, 200, 677, -39, -95, 648, 796, 95, 
    1448, 192, -121, 375, -2130, 80, 1648, -1167, 
    -236, 321, 928, -86, 359, -871, -133, -757, 
    -10, 31, 750, -820, -211, -849, 32, -109, 
    1470, -640, 16, -256, 1412, -173, 943, -1477, 
    -55, 1215, 895, 205, 70, 1514, -256, -549, 
    -1009, -127, 234, -1643, -291, -504, 773, 254, 
    -3093, -1300, -73, -1431, -904, 21, 985, 1031, 
    -285, 582, -361, 42, -1347, 1494, 270, -1247, 
    -610, -265, 2716, -42, 166, 474, -365, 223, 
    1032, 1064, -236, -1021, 784, 81, 68, -252, 
    228, 1474, -1791, -172, 479, 2637, -33, 276, 
    -212, -276, 1408, -2985, -97, 1483, 744, 34, 
    -27, 1246, 263, -716, -495, 109, -395, 773, 
    -92, 1675, -578, 224, -1248, 656, 253, -192, 
    1511, 102, 1316, -1531, -246, -686, 434, -188, 
    -741, -15, -138, 396, 1613, -270, 423, 460, 
    265, 896, 74, -8, 1574, 1455, -97, -165, 
    505, -124, 994, 471, -237, 2440, 1734, 219, 
    -744, 818, -217, -1130, -1693, -89, -680, -161, 
    -218, -416, 1975, -209, -1138, 871, 0, 41, 
    -91, 122, -43, 1371, -61, 99, 497, -245, 
    1718, 2477, 183, 171, 736, -215, -358, -274, 
    14, -135, -866, 237, -236, 258, -60, 2301, 
    -689, -212, 1135, 817, 115, -1001, 2394, 41, 
    1707, -381, 256, 106, -1407, 150, 206, -1476, 
    -193, -294, 464, 63, -929, 398, 58, 1996, 
    198, -146, 429, 105, -78, -868, -2047, -122, 
    -2347, 141, 7, -1280, -168, -146, -228, 667, 
    -35, -581, 1652, -190, -1262, -1005, 4, 766, 
    -2014, -272, 1834, 398, 88, 288, 954, -226, 
    -922, 9, -145, -82, -1272, 216, 54, 2174, 
    254, 1380, 715, 130, 548, 1084, 10, -2862, 
    -997, -109, 270, 1409, -205, 1807, -456, 109, 
    -654, 1005, 206, 618, -579, -261, -562, -266, 
    47, -892, -421, 181, 695, 612, 128, 306, 
    493, 47, -1359, 510, -113, -1720, -438, -197, 
    264, 903, -300, -1353, -1234, 183, 698, 830, 
    -147, 949, 421, 106, 2197, 3313, -160, 2121, 
    488, 179, 384, 1116, -54, 870, -892, 62, 
    466, 879, 291, 1368, 809, -157, -677, 2035, 
    115, -169, 2563, 27, 813, 1274, -174, -883, 
    -1399, 270, 643, 324, 92, -517, 1101, -33, 
    -494, 448, -111, 128, -1149, -76, 390, 594, 
    55, 413, -236, -151, 1840, 562, -31, -2276, 
    -102, -55, -28, 1174, -91, -1085, 2353, -140, 
    -802, 1938, 233, 303, 421, 18, 521, -2554, 
    -326, 974, 124, -11, -1417, 1579, -271, -778, 
    1050, 12, -641, -149, -61, 875, 395, 297, 
    -411, 154, -314, -355, -1028, 173, 810, -22, 
    166, 1339, -1006, 57, 2501, 717, -203, 996, 
    -1927, 61, -836, 728, 263, 187, -480, -327, 
    704, 1820, -225, -572, -2, 71, -533, -606, 
    82, 1037, 410, -69, -443, 1725, -268, 1920, 
    -1461, 148, 1402, -1863, -37, 1461, 1086, -254, 
    -1013, -112, 46, 803, -149, 54, 493, -90, 
    -89, -1048, 178, 163, 1402, -1348, -67, 69, 
    -658, -201, 2323, 1734, 106, -341, -1121, 207, 
    -2339, 3275, 243, 1697, 2584, 113, -342, 2210, 
    -72, 469, 559, 41, 1066, 1659, 107, 1866, 
    -1372, 98, -2637, -5, -97, 553, 1097, 185, 
    610, 699, 199, -1064, 115, -155, -101, 754, 
    -168, 488, 1305, -40, 249, -946, -233, 70, 
    -102, -190, -326, -810, -112, 169, -436, 123, 
    -354, 767, 85, -631, -816, 234, 447, -815, 
    23, -507, 1122, 167, 430, -1487, 21, 93, 
    -57, 137, -518, 1985, 105, 674, 558, 130, 
    -1272, 157, 200, -472, 1192, 181, -70, 368, 
    -67, 444, -240, -29, 593, -357, 162, 421, 
    -1198, -246, -476, -2187, 241, 1112, -1868, -33, 
    -1584, -1697, 195, -563, -62, -136, -51, 583, 
    -159, -981, 525, 239, -1620, -1481, -176, 105, 
    -1252, -228, -691, 140, -230, -1792, -1037, -152, 
    365, 97, 7, -2484, 453, 123, -991, 1385, 
    -60, 631, -786, 94, 471, -621, 96, 225, 
    -1127, 107, 203, 293, 121, 1410, 1841, 120, 
    -181, 323, 119, -200, 212, -81, 896, -1085, 
    -25, -533, 292, -21, -108, -68, 206, -77, 
    1016, -111, -1821, -440, -147, -412, -28, -160, 
    895, -54, 52, 2415, 645, 136, -1016, -359, 
    152, -203, -743, 219, 446, -935, 137, -1773, 
    1783, -1, -31, 30, 236, 401, 994, -264, 
    -1983, -1646, -164, -521, -89, 106, 980, -57, 
    -250, 93, 1605, -2, 202, 16, 138, 662, 
    1158, -163, -755, -2638, -38, 187, 464, -180, 
    -764, -2084, 186, 216, -1865, -175, 415, 630, 
    -152, -293, 190, -89, 3242, 132, 371, 3, 
    1526, -346, -2847, -1749, 297, -289, 41, 128, 
    -284, 869, 386, -1635, -860, 331, 455, -1591, 
    -92, -1037, -1052, 55, 316, -1019, 198, -907, 
    -2697, -172, 1199, 3679, 364, 592, -1738, 98, 
    -1250, 702, -149, 1388, 2253, 201, 1622, 1701, 
    -293, 625, 1499, 279, 828, 1096, 206, 3413, 
    -1030, 47, 1255, -405, 13, 524, -331, -284, 
    -1003, -516, -340, 204, 896, 255, 722, 705, 
    6, -650, 816, 364, -721, -1063, 313, -1267, 
    -1758, -371, -703, 2730, 344, 215, -1769, 322, 
    -1033, 2313, 351, -2757, 1094, -176, 922, 133, 
    247, 2831, 132, 88, 900, 262, -267, -2830, 
    -1507, -229, -2039, 383, -304, 727, -783, -284, 
    -1221, -2505, -359, -3393, -837, -273, 62, 952, 
    318, -564, -3156, -221, 1049, -1426, -242, -991, 
    -974, 335, -2215, -132, -75, -3077, -3095, -340, 
    -2033, -945, 279, 660, 2143, 94, -3400, -2063, 
    132, 1435, -1345, 314, 849, 1282, 203, 1077, 
    -1347, 107, -833, 506, -61, 308, 274, 221, 
    -2882, -486, -132, 664, 1159, -375, 433, -1881, 
    -374, 376, -1643, 142, 578, -552, 236, -334, 
    1765, 28, 1356, -1231, -208, 1205, 494, 333, 
    1744, -457, 159, 261, 576, 31, 1543, 249, 
    300, 1348, 1037, 23, 623, -285, -239, 68, 
    -663, 49, 980, 208, 172, 559, -115, -67, 
    985, 2088, -167, -982, 619, -257, 406, -516, 
    -176, -1575, 1683, -300, 1676, -1738, -106, -971, 
    -287, 233, 771, 1339, 78, 1507, 1632, 186, 
    19, -332, -230, -1682, -1072, 148, 956, 68, 
    282, -868, -624, 272, 507, -496, 132, 303, 
    -1100, -242, 876, -971, -7, 2199, -1537, 270, 
    -841, -1031, -220, -418, -70, 243, -474, 1161, 
    123, -687, 1063, -177, -1573, -41, -282, 1020, 
    -1793, 293, -307, -2291, 296, -2215, -582, 235, 
    1103, -2356, 228, -2145, 216, 86, 108, 741, 
    -220, 381, -1436, 146, -2156, -1288, 126, -407, 
    -524, 270, -139, -148, 96, 1641, 490, -71, 
    -341, 1307, 123, 1025, 547, 3, 983, -3150, 
    19, 168, 1044, 228, -742, 1401, 290, -557, 
    997, 129, 202, -713, -76, -27, 1051, 62, 
    1753, 1438, -42, 1461, -140, 113, -303, -1, 
    -47, -1708, -47, -138, -2427, -1788, 247, -1180, 
    1550, 223, -787, -745, -284, 155, 364, -143, 
    -472, 147, -175, -772, -1114, -28, 1606, -554, 
    8, -1134, 494, -25, -966, -1518, 63, 1331, 
    1128, 235, 644, -928, -74, 168, 53, 262, 
    -1165, -1498, 183, -219, -2873, -264, 425, 970, 
    -269, 363, 2613, 92, -279, -1098, -111, -344, 
    -954, 158, -799, -721, 119, 1323, -85, 296, 
    21, -235, 162, 1234, -2674, -138, -139, -1921, 
    175, -1936, 456, -300, 660, 27, 341, 1163, 
    840, 242, 1084, 2908, -228, -1229, -937, -336, 
    -362, 1587, 62, 1296, 3142, -152, 871, 1788, 
    -67, 459, 357, -229, -322, -1034, 326, 490, 
    -1379, 82, -346, -680, 335, 283, -248, 311, 
    -991, -1740, 135, 1811, -207, 323, -400, 259, 
    347, 703, -1232, -321, -1474, -1755, 68, -726, 
    -2597, -54, 1585, 1794, -229, -282, -2167, 169, 
    1236, 3034, 338, -2268, 823, 246, -993, 1854, 
    290, -845, 1488, 202, 1177, -974, -197, -1119, 
    -473, -192, 1678, 1231, -319, 1525, -272, -226, 
    -685, -2189, -142, -555, 1206, -64, 935, 303, 
    -134, 732, -837, -296, 826, 195, 27, 773, 
    1385, -235, -1112, -1931, -84, -2615, -1324, -2, 
    -71, -673, 49, 1989, 1620, 238, -212, -746, 
    -83, -657, -1154, -195, 1875, 842, -26, -1278, 
    364, -160, 1971, 653, -187, 1084, 429, 226, 
    -3515, -2266, 176, -187, 232, -315, 82, 123, 
    211, 882, 861, -326, -243, -787, -207, -608, 
    384, 114, 669, -2983, -15, 1191, 1356, -257, 
    770, -1228, 64, 1501, -811, -256, 1268, 601, 
    -146, 2061, -812, -270, 1276, 2841, -10, 905, 
    -33, -70, 859, -136, -252, 1513, 46, -237, 
    -944, 241, 181, -256, 1483, 108, 1806, 1195, 
    261, 359, 1808, -178, 61, 684, -146, -706, 
    822, 70, 1095, -2278, -97, 1919, -81, -52, 
    106, -1773, 213, -2155, -928, 208, 284, -1739, 
    -96, 621, 81, 285, -443, 486, 45, -1391, 
    458, -63, 1201, 1907, 14, -315, 1087, -145, 
    -341, 2068, -109, 791, 1142, 278, 1581, 595, 
    50, 1397, -592, -173, 191, 674, 16, 728, 
    136, -44, -521, -1459, -5, 29, 3099, 57, 
    1007, 783, -195, -400, -1270, 55, 676, -38, 
    -158, 659, 45, -90, -1349, -1042, -25, 1196, 
    -1743, 67, -1102, -1362, -234, 92, -958, 142, 
    1187, -60, 2, -1205, 569, -185, 1412, -1805, 
    -70, 671, 1993, 98, 221, 675, -147, 493, 
    -217, -28, -792, -672, 129, 1321, -5, 147, 
    323, -645, 262, -311, -1900, 246, 40, 1173, 
    -48, 799, 226, -76, 19, 359, -200, -612, 
    -203, 61, 1524, 1332, 222, 535, -1403, -55, 
    -229, 696, -39, -207, 1574, -125, 559, -1238, 
    55, -840, 597, 50, 1794, 1074, -264, -272, 
    -1029, -188, -395, 348, -231, 779, 13, -66, 
    -125, 1220, 149, -227, -2253, 161, 199, 1122, 
    -152, 1519, 1801, -250, -1637, -484, -33, 113, 
    1386, 219, 1388, -907, -194, 785, -63, 145, 
    -1412, -857, -277, -971, -1285, -5, 1010, 563, 
    252, -183, -296, 222, -653, 524, 123, 1459, 
    1173, -103, -434, -879, -83, -588, -1294, -280, 
    -149, 911, 100, 2284, 60, -228, -1133, -400, 
    63, -728, 1544, 3, -861, -1787, 291, 992, 
    -448, -209, 376, -944, 65, 358, -6, 213, 
    94, -1103, -9, -1021, -706, 238, 1810, -6, 
    -97, 238, -247, 281, 487, -762, -183, -180, 
    -583, 86, 1334, 1209, 80, 203, -242, 29, 
    532, 481, 62, 1511, -556, -224, 996, 1713, 
    67, 1477, 2221, 153, -31, -843, -171, -819, 
    1164, -41, 640, 222, 13, 139, -791, -3, 
    -447, -1021, 153, -636, -759, 182, 277, 2230, 
    280, 1096, 1110, -8, 438, 544, 204, -129, 
    1270, -122, 1220, 425, 283, -1221, -922, 60, 
    293, -1487, 247, -55, -131, -82, 1562, 678, 
    69, 1674, 1700, -52, 786, 2536, 197, -361, 
    -389, -141, -768, 316, 144, 3125, 2656, 1, 
    -1590, -717, -25, 753, -154, 100, -413, -1403, 
    199, -1260, -409, -268, -632, -1191, 219, -435, 
    -238, 25, 2218, -19, 244, 728, 1286, 229, 
    -496, -1763, 182, 489, 1231, -55, 102, -1193, 
    34, 1741, 53, -206, -1108, 3361, 271, 842, 
    -1631, 29, 1540, -703, 176, 960, 1043, -32, 
    826, 34, 237, -201, 1791, 22, 2415, -370, 
    -134, 1596, 538, 13, 462, 1324, -167, -526, 
    749, -142, 1109, -912, 81, 2651, 1091, -159, 
    -214, -1820, -13, -1453, -1617, 246, -852, -1469, 
    -249, -517, 45, -136, -1081, 1696, -37, -982, 
    962, 239, 1163, 1170, -200, -102, -401, -78, 
    616, 2618, -29, 907, 271, 309, -142, -234, 
    268, 386, 1054, 264, -174, -461, 166, 1844, 
    205, 29, -1252, -1280, 113, -1079, 1825, 119, 
    1188, 412, -6, -620, -1238, 257, -1282, -1345, 
    151, -436, -532, -309, -955, 706, 233, 2364, 
    -79, 20, 68, -686, 251, -1043, -2076, 302, 
    -163, 172, 99, 76, 981, -301, 1138, -1137, 
    -253, 328, 1869, 57, 421, -128, 36, -1698, 
    -1591, 236, 689, 814, -270, 785, 2053, 150, 
    283, 244, -57, -355, -1970, -159, 1194, 1265, 
    54, -66, 188, -298, 152, 1169, 233, -1588, 
    171, -14, 1186, 673, 260, -1, -2276, 131, 
    1068, 1854, -312, -1451, -66, 224, 850, -203, 
    -308, -291, 53, 157, 407, -917, 295, 971, 
    419, 284, -229, -1257, 219, -915, -472, -219, 
    1709, 1563, -239, -486, -2422, -39, 2154, 1640, 
    -125, -1139, -1982, 247, 403, -1773, -219, -223, 
    640, -254, -529, -90, 34, -831, 268, 256, 
    1590, 408, -161, 885, -1748, 126, -319, -1132, 
    142, -601, 262, -128, 1468, -837, -362, -2662, 
    1057, 304, 728, 2061, 349, -434, 334, 108, 
    -75, 1087, -153, 3022, 966, -24, -919, 2630, 
    126, 2436, 1604, -256, 837, -1473, -336, 779, 
    788, -89, -2630, -3171, -315, -1363, -1015, -218, 
    -2208, -482, -118, -409, 1504, -79, 157, -1279, 
    -194, -163, 880, 144, -1288, -907, 173, 619, 
    -1110, 266, 139, -468, 278, -1045, -326, -155, 
    1457, 3330, 213, -967, 2210, 332, 527, 319, 
    -85, 1619, 2056, 12, 313, 643, 265, -1746, 
    -1121, -79, -123, 401, -114, 790, 653, 236, 
    318, -2749, -222, 316, 1704, -296, -928, 1659, 
    80, 334, -142, -180, 1664, -262, -274, -1190, 
    2009, -222, -1760, -278, 163, -2358, -1035, -278, 
    76, 1550, -126, -180, 300, -91, -2286, -2606, 
    -64, -396, -1388, -48, -978, -2914, -38, -281, 
    421, 179, 1421, -1712, 250, 464, -415, 284, 
    -1689, -86, -32, 1236, 1550, 286, -2022, -893, 
    290, 2527, 1594, 295, 1599, -999, -332, 270, 
    608, -58, 427, 1671, -349, 26, 2714, -262, 
    -421, -1173, 64, 676, 649, -10, 2111, 770, 
    116, -857, 1755, 240, -642, -964, 64, -548, 
    -839, -77, 1179, -653, 138, 1780, 1963, 72, 
    -1848, -413, 266, -233, -919, 132, 1920, 353, 
    165, -153, 702, -289, -815, 842, -11, -559, 
    1364, 172, 444, -102, -128, 41, -1248, 60, 
    -1075, 173, -285, -331, -600, 67, -1086, -876, 
    -139, -342, 1810, -158, -291, 20, -220, -2762, 
    -1367, 204, -20, -410, -65, -581, 216, -253, 
    -161, 133, 108, -344, -1265, 218, 2921, 1881, 
    95, -1386, -479, -110, 1403, -1388, -238, 942, 
    -1112, 86, 172, -1269, -84, 1152, -18, -167, 
    546, -179, 279, 775, -1189, 258, -878, 413, 
    -141, -1325, -507, -159, -490, -2800, 36, -1373, 
    -753, 52, 847, 1252, -7, -302, 65, -222, 
    1042, 688, -23, -749, 1246, 85, 5, 2509, 
    -266, 1336, 705, -128, 463, 187, 137, -1779, 
    1983, 268, -757, 1650, 53, -729, 333, -27, 
    1050, -685, -156, 1269, 1132, -258, 2218, 1700, 
    -125, 173, -12, -66, -861, 412, 32, 426, 
    1030, -254, -900, -61, 117, -590, 325, 57, 
    -461, 771, 135, -1282, -2593, -150, -339, -1442, 
    -110, -410, -83, 41, -1229, -710, 235, -499, 
    -868, 116, 1424, -700, 89, -984, 1407, 245, 
    -246, 338, -28, 352, 1222, -54, 2222, -435, 
    182, 813, -116, 168, 1163, 924, -24, -382, 
    986, 213, -580, -1462, -95, 558, 142, 276, 
    671, -1721, -110, 1303, 1, -89, 592, 471, 
    -141, 1127, 153, -56, 623, 1277, -76, 776, 
    1034, -46, -257, -591, -271, 1067, 349, 231, 
    1551, 1222, 289, 682, 569, -95, -230, -1561, 
    -238, 802, -1033, -262, -521, 1762, 106, 905, 
    -1560, -126, 131, 1038, 36, -526, 206, 51, 
    302, 198, -235, -409, 430, -279, -21, -1201, 
    -257, 956, 722, -134, -255, -1546, 10, -1827, 
    -1056, -90, 870, 2183, -28, 1847, 1871, -91, 
    2780, 2087, 214, -463, -3311, -142, -315, 165, 
    -284, 2428, 1856, 196, 334, 577, -215, -244, 
    -125, -258, -203, 32, 102, -1472, -984, 136, 
    1665, 19, -40, -677, -1475, 215, 47, -2462, 
    -285, 164, 187, -110, -34, -261, 291, 938, 
    165, 64, -594, -2379, -67, 358, -1468, -220, 
    -523, -814, -113, -1156, -815, 258, 1780, -554, 
    40, 1441, 932, 125, 718, 2236, 110, -1211, 
    -1411, -19, 1557, -373, 170, 2096, -230, 10, 
    -1008, 401, 121, -1174, 2251, -198, -38, -227, 
    269, 208, -428, -4, 682, 77, -123, -1710, 
    607, -242, 274, -1051, 17, 483, -183, -103, 
    1448, -1285, 283, 5, 350, -68, 773, 554, 
    -348, -2059, 166, 32, -1519, 1360, -277, -2640, 
    -2302, -111, -727, 28, -301, 1014, 1035, -144, 
