#ifndef WEIGHTS_BIAS_INT32_H
#define WEIGHTS_BIAS_INT32_H

#include <stdint.h>

static const int32_t WEIGHTS_BIAS[] = {
-7, 6, 6, 0, 0, -7, 2, -5, 
    15, -8, 0, 5, 0, 35, 51, -98, 
    1, -6, -3, 5, -5, -4, -8, 4, 
    -36, -41, -22, -51, -44, -10, -27, 14, 
    4, 6, -1, 0, 8, 3, 6, 5, 
    1, -4, 1, 26, -9, -3, -11, 9, 
    5, -6, -7, -1, -1, -3, 4, 4, 
    23, -23, 0, 22, 130, 42, 25, 134, 
    3, -2, 3, 1, -1, -1, -1, 3, 
    6, -27, -26, -13, 5, 4, 3, 7, 
    1, 3, -1, 3, 2, 1, 0, 1, 
    67, 25, 16, 72, 126, 99, -7, 66, 
    0, -1, 1, 1, 0, -1, -1, 2, 
    -3, 5, -3, 11, -1, -8, 40, -3, 
    -3, 0, 0, 0, -1, -1, 0, 0, 
    14, -12, -20, 13, 19, 12, -29, -40, 
    3, 0, 2, -1, 1, -2, 0, 2, 
    5, 20, -11, 2, 11, 16, -16, 3, 
    2, -2, -3, 2, 2, 1, 1, 0, 
    73, 70, 82, -52, -27, -29, -54, 0, 
    2, 3, 0, 0, 3, 0, 1, 1, 
    0, 0, -12, -8, -9, -8, 6, 7, 
    -1, 0, 0, 1, 3, 3, 0, -1, 
    -26, -25, -42, -5, 4, -27, -8, 22, 
    0, 4, -4, 1, -1, 4, -4, 3, 
    10, -2, 6, 10, 0, -10, -1, 54, 
    2, -1, 3, 3, 1, 2, 0, -2, 
    -154, -91, -13, -25, -16, -65, -62, -166, 
    -3, 4, -2, -3, -1, 2, 3, 4, 
    8, 1, 8, 0, 1, -2, 11, -10, 
    -4, 3, -3, 2, 4, 3, 1, 3, 
    66, 18, 1, 27, 10, 25, 25, 55, 
    1, 3, -3, -3, 3, 1, -1, 0, 
    10, 0, 14, 9, -21, 31, -14, 17, 
    -1, -2, 3, 2, 3, 2, 3, 0, 
    168, 158, 99, 75, 90, 72, 122, 199, 
    1, -1, -3, 2, 1, 4, 1, -4, 
    -2, -1, 0, 12, 10, 7, 7, 2, 
    0, 2, 2, 0, 2, -3, 0, 2, 
    5, -21, -33, -42, -24, 9, 32, -10, 
    -1, 2, 1, 0, -3, 3, 0, 0, 
    17, 1, -14, -4, -7, -20, -9, 18, 
    0, 3, -3, -3, -3, -3, 3, 0, 
    -21, -20, 37, 36, 44, 34, 30, 97, 
    2, 2, -2, 2, 2, -3, -2, 0, 
    6, 9, 3, 0, 8, -16, -9, -9, 
    3, 0, -2, 0, -1, 3, 3, -2, 
    39, 30, -12, -7, -3, 9, 38, 47, 
    -2, -2, -7, 2, 0, -6, 3, -5, 
    10, -14, 46, 4, 68, -17, -90, -4, 
    0, -4, -3, -7, 7, 3, 7, -7, 
    -101, -36, -18, -98, -270, -142, -210, -472, 
    2, -7, -1, 2, 5, -5, 7, 5, 
    2, 2, -5, 4, -4, -2, -3, 10, 
    -4, -5, 3, -2, -5, 3, 2, -2, 
    4, -12, 33, 8, -9, 39, 77, 32, 
    -1, 2, 1, 3, -1, 0, -5, -4, 
    -25, -7, 0, 3, 22, 6, 22, 48, 
    -2, 0, 0, 0, 1, 0, 2, 3, 
    -286, -136, -116, -89, -131, -156, -113, -148, 
    2, 4, -4, -2, -4, 2, 2, 1, 
    17, -10, 0, 11, -1, -3, 3, 5, 
    0, 0, 0, 4, -3, 2, -2, 3, 
    58, -8, 27, -2, -36, -33, -6, 17, 
    -6, 3, -1, -4, 0, 6, 4, -1, 
    0, 10, 18, 4, 12, -1, -6, 0, 
    3, 4, -1, 3, 3, 1, -1, 6, 
    -229, -137, -201, -154, -230, -147, -115, -259, 
    0, 3, -5, -6, 2, -4, 0, 6, 
    8, 10, 7, 1, -4, 15, -19, 7, 
    4, 5, -3, -5, 2, 1, 2, -2, 
    78, 17, 1, 15, 5, -16, -10, 187, 
    -3, -3, 3, -3, 3, 0, -3, -1, 
    -4, 3, 5, -8, 1, -1, -6, -4, 
    1, -4, 3, 3, -4, 0, 1, 0, 
    13, 8, -19, -25, -28, -74, -92, -63, 
    3, -3, 0, 2, 2, 3, 4, -4, 
    9, 3, -5, -3, -6, -25, -3, -5, 
    1, 1, 4, -2, 3, 2, -3, -3, 
    -21, -26, -13, 36, 29, 19, 22, 111, 
    0, 0, -1, 0, 1, 0, 3, 1, 
    0, 13, 2, -4, 26, -1, -8, -29, 
    2, 0, 0, -3, 0, -2, 2, 0, 
    -118, -78, -44, -54, -85, -99, -86, -45, 
    -3, -2, 0, 3, 2, -3, 0, -3, 
    10, 6, 0, 1, 0, 4, -3, -22, 
    -1, 0, 0, 0, 0, 0, 1, 0, 
    32, 1, 10, 22, -13, -1, 26, 75, 
    1, 0, 1, 0, 0, 0, 0, 0, 
    -34, -12, 2, 4, 0, -3, 9, 9, 
    -2, -2, 0, 2, 0, -2, 0, 1, 
    2, -16, -68, -58, -50, -36, -79, -24, 
    -2, 2, 0, 1, 2, 1, 0, 0, 
    1, -3, 2, -4, 0, -4, -9, -10, 
    2, -1, -1, -2, 2, 2, 2, -2, 
    -3, -23, -35, -17, -21, -7, -13, 27, 
    2, -4, 5, -2, 1, 3, -1, 1, 
    20, 11, 12, -2, 3, 15, -10, 8, 
    -4, -7, -7, 0, 4, 1, -7, 7, 
    -147, -3, 138, 172, 217, 189, 197, 265, 
    -3, -4, -6, 7, -4, 3, -2, 6, 
    -4, -5, 0, -21, 3, 12, -13, 18, 
    -3, 6, 7, 3, -4, -7, -7, 1, 
    -108, -40, -49, -4, -40, 9, 54, 224, 
    2, -1, 0, -1, -2, 0, 2, -2, 
    0, 4, 6, 12, 6, -13, -13, 24, 
    -3, 1, -2, -1, 3, 2, -1, -3, 
    46, 12, -92, -74, -94, -44, -71, -8, 
    0, -3, 1, 0, -2, -3, 2, 0, 
    -10, -1, 5, -10, -18, 0, 5, -6, 
    1, 0, -1, 2, 1, -2, 1, -1, 
    -5, -44, -3, 11, 9, 8, -45, -75, 
    3, -2, -4, 2, 3, 0, -1, 2, 
    12, -14, -24, 12, 1, 11, 4, -3, 
    -2, -2, -3, -2, -1, 0, 3, 1, 
    60, 46, -2, -106, -156, -136, -152, -115, 
    0, -3, -4, -1, 1, 0, 0, -1, 
    0, -17, -16, 2, 8, 2, -3, -6, 
    1, -3, 1, 1, -3, 2, -2, 0, 
    -14, -115, -80, -10, 38, 16, -33, 14, 
    0, -4, 1, 4, -1, -2, 3, 0, 
    3, -2, 10, -1, 39, -268, 8, -9, 
    3, -4, 0, 2, -1, 3, 1, -2, 
    -227, -203, -124, -190, -124, -209, -225, -194, 
    0, 0, 0, -2, 0, 1, -4, -2, 
    -2, 0, -2, 4, -1, 1, 0, -1, 
    -1, -1, -1, -1, 3, -1, 3, -2, 
    15, -10, 5, 8, -5, 55, 20, -24, 
    -5, -2, -6, -6, 0, -4, 0, 6, 
    49, 16, -4, -14, 2, 1, 3, 14, 
    6, 0, 0, -2, -2, -5, -5, 0, 
    5, -141, -94, -136, -225, -248, -277, -368, 
    6, 6, -4, 2, -6, -1, 6, -5, 
    -20, -1, 9, -14, 14, 1, 3, 9, 
    -5, -1, 0, 3, -4, 0, 5, 5, 
    -8, 108, 62, 60, 81, 2, -41, 10, 
    -1, 2, 3, -3, 4, 1, 0, -4, 
    17, -5, -9, 12, -14, -7, -11, -12, 
    2, 2, 0, 1, -4, -2, 1, 2, 
    199, 248, 183, 166, 103, 151, 134, 158, 
    4, -2, 3, 0, -4, 1, -3, 2, 
    15, -3, 4, 4, -1, -2, -1, 15, 
    -4, 5, 4, -4, 3, -4, -2, 3, 
    -26, -1, 10, 6, 12, -7, -3, 147, 
    0, -3, 1, 0, 0, 1, 2, -2, 
    5, -3, -2, -8, 21, 0, -1, 3, 
    0, 2, 2, -3, -1, 1, -1, 0, 
    43, 37, 137, 102, 125, 88, 90, 184, 
    2, 0, 3, 0, 1, 0, 0, 0, 
    5, 15, 3, 1, -5, -1, 2, -17, 
    0, -2, 2, -1, 2, 0, 0, -3, 
    43, 22, -17, 8, 39, 53, 26, 28, 
    -3, 2, 0, -3, 0, 3, 2, 2, 
    11, 10, -3, 9, 4, 1, 5, 4, 
    -2, 3, 1, 0, 0, 3, -1, 4, 
    -33, -3, -45, -123, -131, -203, -206, -267, 
    -2, 2, 3, 1, 2, 2, 1, -4, 
    0, -1, -1, -4, -7, 22, 5, 12, 
    0, -3, -2, 0, -3, 3, 2, 0, 
    53, 39, 29, 25, 29, 12, -28, 7, 
    -125, -93, 248, -94, 199, 132, 66, -151, 
    -79, -191, 218, 171, 156, 32, 1356, -248, 
    -223, 179, 178, 87, 88, 65, 129, 108, 
    -39, 21, 35, 123, -43, 108, 1300, -25, 
    -85, 61, 252, -191, 28, 67, 8, -139, 
    -217, 59, -62, 211, -173, 112, -619, -229, 
    200, 251, 168, -163, 141, -232, -114, 247, 
    -58, 34, 180, -53, -129, 213, -239, -249, 
    246, 110, -90, 54, 216, -124, 187, 56, 
    229, -191, 243, -207, 60, -252, -5784, 613, 
    128, -221, 225, -184, -155, -130, -18, -81, 
    236, 0, 30, -107, 186, 53, -252, -5330, 
    -121, 241, -128, -241, 116, 205, -38, 32, 
    -150, 138, -36, 38, 191, 70, 3391, 906, 
    57, 44, -196, 237, 57, -192, -2, 45, 
    57, -14, 107, -232, 222, -67, 2132, 779, 
    -238, 25, 170, -170, -119, -146, 179, 76, 
    213, -194, 115, -189, -219, -84, 1439, 964, 
    -244, 20, -214, -206, -124, -20, 68, 80, 
    133, 47, 81, 225, -86, -36, 3751, 2891, 
    193, 177, -135, 31, -198, -184, 90, -117, 
    -78, -70, -31, 135, -145, 179, 5762, -6215, 
    24, -249, 26, 46, 115, 212, -111, 56, 
    -110, -88, 222, 195, 219, 244, 581, -5042, 
    -12, -220, 219, -12, 188, -249, -204, -17, 
    202, -34, -53, 216, 15, -64, 531, -366, 
    196, 145, 44, 40, -222, 78, 227, 169, 
    242, 158, 188, 240, -23, -220, -2853, -2843, 
    -46, -58, 188, -48, 167, -29, 72, 75, 
    72, -204, -178, -103, -106, -174, 2147, -870, 
    -2, 227, -221, -103, 116, -239, 133, 80, 
    9, 62, -159, -142, 205, 104, -1455, -443, 
    -15, -252, 191, -233, 220, -154, -24, 245, 
    86, 208, -229, 142, -167, -246, -1095, 768, 
    170, -168, 157, 31, 31, 235, -190, -7, 
    63, -141, 238, -11, 234, 75, 2949, -942, 
    142, 134, -169, 128, 169, -230, 110, 136, 
    180, 116, 124, 13, -215, 114, 1890, -1111, 
    -200, 143, 203, 89, -189, 99, 116, 77, 
    66, -120, -113, 193, 132, -233, 331, -467, 
    -101, -48, -9, -18, 46, -46, -39, 10, 
    -5, 99, -120, 117, 8, 124, -223, 125, 
    109, 18, -139, 99, -20, 16, 146, 126, 
    -127, -54, 68, -37, -75, 23, -902, -1876, 
    -47, -136, -123, -28, 123, -3, 107, 96, 
    -118, 27, 132, -126, -97, 2, -868, 1227, 
    141, -131, -99, 96, -1, -96, 118, 80, 
    14, 115, 127, -135, 138, -107, 9, 1728, 
    114, 131, 49, 95, 29, -84, -136, 99, 
    11, -83, -135, -94, -63, -28, -736, -1333, 
    -39, -84, -132, 86, 50, -45, -37, -122, 
    3, 72, -107, 29, 99, -123, -3861, -351, 
    -95, 9, -51, -132, 74, -32, 100, -115, 
    -93, 47, -144, 3, -23, -124, 653, 350, 
    37, 50, -134, -83, 125, 67, -31, 38, 
    -99, -3, -54, 35, 5, 39, 1377, 44, 
    56, 74, -54, 55, 49, -48, 83, 109, 
    80, -80, 130, -32, 113, -87, -1000, 1742, 
    -136, 80, 66, -12, -82, -92, 86, 61, 
    57, -24, 135, -146, 25, 130, 689, 351, 
    -139, -65, -2, 62, -39, 31, -7, 48, 
    -134, 6, -140, -133, -100, 101, -4848, -110, 
    25, 29, -26, 82, 8, -139, 43, -41, 
    -28, -30, -106, -129, -81, 96, 616, -931, 
    141, 53, -68, 28, 36, 4, -38, -130, 
    136, 81, 109, 135, 43, -90, 540, 1413, 
    85, -9, 92, -114, 47, -121, 2, 123, 
    139, 101, -126, -135, -78, -34, -1254, -953, 
    -34, 57, -21, 89, -47, -78, 120, 131, 
    -112, 31, 100, -136, 118, -21, 748, -2216, 
    -117, -30, -108, -146, 107, -29, 20, 22, 
    -11, 97, 135, -55, 23, 124, 747, -835, 
    -92, -113, 113, 23, -10, -56, 44, 108, 
    13, -89, -64, 126, -137, -117, 1376, 1493, 
    -20, 112, 90, -72, 67, 132, 120, 125, 
    -123, -133, -94, 0, -5, 68, -2287, 6, 
    -120, 15, 133, 117, -121, -60, -24, -99, 
    -128, 126, 130, -126, -61, -93, 792, 490, 
    86, 23, -20, 145, 88, 67, 59, -145, 
    58, 61, 132, 39, -7, 25, 403, -138, 
    62, -93, -198, 207, -120, -154, -179, -87, 
    201, 121, -94, 205, -57, -4, 2068, -3636, 
    -87, -147, 160, 72, -39, 222, 16, 131, 
    -130, -184, 184, -192, 52, -160, 329, -728, 
    183, -198, -10, 115, 224, 31, -64, 130, 
    26, -194, 195, 119, -54, 211, -402, 700, 
    -90, -192, -55, 154, 28, 165, -179, -128, 
    -157, 32, 156, 146, 219, 173, -3695, 2943, 
    -184, 72, 38, -149, -138, -37, 98, 39, 
    92, -224, 148, 213, 176, -17, -3531, 417, 
    126, 221, -198, 38, 65, 115, -134, 172, 
    -105, -98, -137, -28, 215, 52, -810, 163, 
    191, 200, 143, 82, -182, -135, 122, -42, 
    81, 129, 131, 19, -155, 96, 2093, -544, 
    190, 173, -180, 16, 168, 29, -5, 60, 
    -77, -120, 59, 223, 89, 197, 1591, 1481, 
    -47, -74, -178, 128, -106, 221, -98, 79, 
    67, -19, -199, 128, 86, 99, -4534, 1751, 
    115, -152, -24, 42, -57, -42, 172, 31, 
    -5, -174, 127, -67, 0, -192, 314, 2336, 
    -192, -126, 63, -182, -181, 13, 39, 148, 
    95, -53, 168, -109, -44, -42, -4332, -2582, 
    -115, -50, 196, -112, -97, 38, -175, 87, 
    216, -128, 30, -188, -14, -129, 170, 2966, 
    -103, 24, 174, 204, 116, 87, 208, 123, 
    -80, -201, -29, -143, 1, -104, 492, 2682, 
    47, -148, 98, -1, 200, 111, 98, -175, 
    36, 13, -87, 47, 1, -53, 614, -23, 
    118, 224, 182, -83, 32, -155, -26, -208, 
    13, -6, 108, -160, 26, -24, -386, -700, 
    -159, 169, 38, 90, -173, -143, -219, -53, 
    104, 117, 140, 12, 182, 202, 1423, 554, 
    -80, 198, -74, -98, -88, -90, -78, -160, 
    -6, 187, 123, -5, -169, 197, -299, 160, 
    -82, -174, -64, -169, 115, 125, 222, 73, 
    -65, -15, 12, 127, -127, -161, -535, -950, 
    103, 103, 66, 92, 59, -71, -172, 143, 
    -128, -223, 97, -9, 117, 134, -306, 1066, 
    140, 79, -56, -17, -60, 94, -52, 49, 
    63, 100, 28, -180, -27, 7, -359, 2208, 
    -116, -86, 33, 143, -11, 157, -237, 233, 
    -114, 123, 15, 24, 94, -119, -3849, 3388, 
    43, -173, 34, 40, -73, -109, 200, 187, 
    18, 248, -156, -74, 175, 61, -695, -1371, 
    115, 87, -70, 232, 85, -250, 116, -134, 
    -102, 29, 43, -6, 244, -51, 883, 3096, 
    -75, 197, -156, -167, 245, 37, -89, -126, 
    -233, -104, -225, 72, 63, 137, 265, -1371, 
    32, -58, -229, -202, -221, 212, 109, -226, 
    -180, 61, 82, 0, -179, -12, -339, 336, 
    -131, -57, -100, -165, 59, 48, -2, -138, 
    -222, 127, -75, 47, -79, -85, -3185, -2576, 
    -49, 59, 30, 202, 79, 71, -151, -139, 
    -62, -24, -142, -65, 52, 60, 1956, 1082, 
    -176, -47, -115, -32, -113, 195, -123, 202, 
    227, 239, -58, -133, -29, 124, -3868, 2520, 
    135, 119, -41, 109, 103, -118, -139, 248, 
    122, 42, 231, 40, -89, -147, -5537, 2765, 
    -123, -241, -103, 119, 147, 191, 200, 33, 
    -182, 58, 168, -227, -25, -42, -292, 1541, 
    224, 17, -140, -99, 66, 22, -83, 156, 
    -32, 233, -233, 242, 3, -50, 535, 1564, 
    -242, 114, -2, -245, 229, 162, -68, 150, 
    29, 194, -65, 253, -183, 22, 1031, -875, 
    37, -150, -184, -2, 145, 131, 68, -89, 
    84, 41, 181, -32, -122, 251, -2299, 494, 
    156, -225, 110, -214, 136, -127, 244, 179, 
    52, -82, 247, -247, -113, 27, 764, -2239, 
    -91, 53, 113, 21, 84, -249, -3, -111, 
    218, -86, 30, -31, -211, 70, 370, -1496, 
    -31, 92, 152, -40, 18, -73, 73, 123, 
    194, -150, 252, -222, -186, -133, 1928, -190, 
    180, -72, 69, 35, 72, -14, 199, 204, 
    67, -109, -216, 26, -56, -96, -1327, 2017, 
    -186, 90, 240, -117, 112, -51, -209, -168, 
    -216, 0, -166, -184, -65, 214, -756, 1616, 
    -89, 213, 67, -91, -144, 124, 96, 65, 
    73, -105, -173, -108, 94, -7, -478, -801, 
    244, 177, 252, -80, -198, -251, -163, 38, 
    213, -94, -65, -225, -77, 84, 2968, 1123, 
    113, -218, 25, -139, 189, 87, -98, -10, 
    160, -111, -6, -164, 222, -190, -3749, 86, 
    127, 33, -228, 157, 39, 37, 15, -68, 
    -101, 62, -160, 174, -213, 70, -462, -2491, 
    -227, -93, 162, -231, 202, 121, -138, -142, 
    153, 204, -166, -150, -109, -16, -354, 3699, 
    -88, -181, -156, 38, 67, 87, 169, 20, 
    -126, -197, -10, 139, 195, 14, 704, 432, 
    177, -66, -137, 26, 30, 156, 66, -13, 
    -18, 216, 89, 110, -115, 177, 2700, 1493, 
    -125, -31, 33, -146, 132, 174, -89, -145, 
    -144, -128, 172, -51, 153, -127, 2714, 284, 
    160, 0, -77, -163, 47, 99, 147, 175, 
    -167, -232, 60, 109, 139, -97, 985, -1569, 
    -221, -48, -180, 91, -195, -163, 170, 176, 
    -46, -29, 216, -36, 182, 200, -2347, -930, 
    103, -209, 98, -157, -138, -18, 188, -193, 
    -220, -144, 40, -72, 158, -21, 1420, -171, 
    106, -9, -224, 143, -130, 153, -138, -122, 
    -213, -145, -226, -119, -91, 209, -1393, 2903, 
    -141, -76, 230, -111, 165, -113, 216, 69, 
    174, 4, 99, -215, 142, 231, 3100, -321, 
    -125, 218, -93, 125, 52, 8, 213, 3, 
    91, -191, -102, 206, -143, 69, -2732, 2055, 
    31, -119, -96, 98, 183, -28, -180, -59, 
    153, 117, 140, 153, 124, -113, 916, 929, 
    -134, 232, 86, -26, -111, -47, 61, 96, 
    -104, 138, -8, -127, -160, -187, -4, -28, 
    153, 102, 100, 203, 211, -87, 127, -215, 
    187, 38, 40, -217, 232, -109, -3241, 611, 
    190, 189, -52, 153, 40, 142, -207, 35, 
    -200, -126, 204, 214, -232, 117, -3161, -226, 
    173, -205, -45, 93, -40, -82, -148, 232, 
    214, 28, -137, -158, 143, 106, 2194, -615, 
    -171, -219, -5, -182, -178, 231, -2, 54, 
    -198, 115, 98, 94, 27, 20, 384, -161, 
    17, -136, 23, -150, 73, -59, 87, -54, 
    128, -185, 105, -153, 33, -208, -915, 247, 
    14, 169, 215, 197, 99, 226, 80, 40, 
    221, 172, -186, -20, 78, -183, 2918, -4304, 
    -17, 49, -75, 98, -139, -125, 8, 62, 
    3, 52, -89, 124, -4, 96, -942, -291, 
    125, -89, 64, 95, -67, -114, -28, 66, 
    85, 11, -114, -109, -109, -102, 157, -636, 
    124, 122, 36, -110, -102, 6, -80, -44, 
    53, 93, 69, 58, 28, 0, 318, 1236, 
    -43, -37, 44, -71, 104, -33, -109, 121, 
    53, 100, -34, -36, -107, -13, -2146, 157, 
    54, 123, 107, -138, 124, 143, -96, -102, 
    -37, -40, 126, 14, 2, 124, -1000, 239, 
    -57, -92, -49, -121, -128, 120, 58, 48, 
    53, 45, 144, 32, -93, 95, 788, 464, 
    -35, -1, 122, -22, 62, 28, -9, 107, 
    102, -115, 12, -114, -121, -65, -598, 249, 
    132, -5, -69, 66, 62, -143, -105, -78, 
    -42, 54, -56, 1, -118, -19, -4449, 501, 
    123, -46, 57, 99, -101, -70, -89, -88, 
    65, 129, -55, 130, -79, 45, 1012, -653, 
    26, -49, -98, -10, -96, -118, 70, -97, 
    -105, -131, -18, 18, 50, 84, 1094, 459, 
    15, 106, 33, 79, -133, 54, -56, -27, 
    50, 88, -42, 40, -105, 9, 1188, 837, 
    56, 64, 144, 105, -67, -2, -74, 51, 
    82, 107, -42, -2, -32, 102, 18, -513, 
    8, -131, -138, 121, 48, -17, 114, -15, 
    -32, -127, 56, 138, 139, 50, 1093, -1671, 
    -144, 45, -121, -102, -4, 89, -8, -120, 
    88, -111, -111, -138, 134, -37, 408, -1531, 
    -117, 118, -128, 26, 21, -126, 97, 50, 
    -20, -59, -68, -35, 115, 130, 148, -1177, 
    27, 89, -33, -4, 136, 129, -31, 143, 
    -58, -15, 42, 2, 140, 126, -327, 6734, 
    85, 5, 117, -98, 132, -47, -100, 76, 
    51, 144, -74, -32, -74, 70, 152, -1018, 
    -83, 143, -108, 144, -106, 136, 130, 72, 
    -40, 61, 97, -96, 26, -34, -298, 72, 
    -61, 49, -67, 143, 101, -43, 66, 43, 
    -104, 82, 80, -59, -4, -8, -1837, 328, 
    7, 26, 9, -135, 102, 9, -91, 124, 
    35, 52, -92, 116, 58, 32, -16, 127, 
    86, -31, 152, -110, -147, -71, -41, -54, 
    64, 12, -131, 141, 37, 128, -1488, -289, 
    143, -18, 81, 122, -88, 91, -82, 76, 
    49, 78, -81, -120, 59, 115, -1791, 1567, 
    -33, 78, -56, 69, 85, -128, 42, 88, 
    -46, -147, -87, -101, -150, 38, 310, 168, 
    60, -43, -142, -140, 144, 98, 98, 141, 
    -90, 40, -75, 57, 97, 139, 661, -1173, 
    130, 130, 128, 75, -106, -48, 73, -102, 
    109, -108, 81, 123, 148, 119, 5, -777, 
    -152, 24, 87, -81, -13, -10, -53, 12, 
    -75, -140, -10, 104, 94, 117, -145, 202, 
    -58, -144, -90, -145, -74, 64, 77, 91, 
    -93, -14, 72, -58, 26, 125, -1352, 167, 
    -21, -55, 23, -75, -157, 57, -23, 140, 
    -40, -44, -106, 157, 127, -113, 753, -246, 
    -19, 24, 24, -57, -113, 8, -89, -59, 
    16, -151, 111, 117, 10, -84, 2885, -574, 
    82, 156, -45, -124, 126, -34, -48, -98, 
    -74, 5, 65, -47, 60, -71, 469, -1633, 
    153, -126, 79, 151, 153, 31, -142, -13, 
    -82, 139, -71, 129, -69, 123, 657, 82, 
    37, 155, 151, 121, -43, 68, 64, -12, 
    98, -16, 38, -111, 147, 28, -187, 1710, 
    134, -122, -86, -137, -58, 6, -62, 27, 
    -64, -18, 148, -10, -26, 149, -446, 155, 
    75, 108, 124, 149, -70, 154, -116, -113, 
    81, 137, -28, -93, 71, 148, 85, -1232, 
    35, 64, 82, -3, 64, 90, 48, -69, 
    49, -45, 114, 155, -31, 71, 147, -1142, 
    124, -37, 20, 16, -9, -76, 109, -86, 
    2, 64, 28, 45, 124, 31, 6334, -657, 
    -106, 22, -18, -76, -40, 154, 99, 40, 
    3, -60, -83, -59, 153, -5, 110, 846, 
    93, -70, -75, 49, -117, 138, 28, 139, 
    29, -63, 0, 115, -83, 133, 688, -258, 
    -123, 19, 114, 70, 95, -132, -39, -131, 
    107, -83, 33, 148, -65, 148, -1565, 295, 
    -57, 85, -123, -157, -140, 122, -92, 40, 
    158, 137, -144, -141, 110, -112, 616, 498, 
    -78, 84, -11, -188, 64, -99, 167, 117, 
    58, -184, -156, 147, -108, 166, -1802, -1790, 
    -146, -80, -13, 19, 23, 82, 108, -125, 
    21, 100, 36, -127, 138, -148, 551, 4954, 
    130, -50, -114, -133, -90, -117, 27, 124, 
    180, 19, 65, -29, -143, -101, 205, 1376, 
    99, -129, -154, 51, 196, 162, 68, 32, 
    -179, -122, 32, 31, 63, 76, -3846, -1566, 
    -172, -113, -40, -43, -7, 128, -193, -153, 
    -175, -54, 172, -133, 200, -154, -2014, -515, 
    -13, -93, -148, -8, 16, 45, -80, 156, 
    -160, 151, -4, -187, 1, -200, -761, 6, 
    -119, -13, -2, 55, 15, 132, -110, 75, 
    112, -193, 153, 150, 14, -120, -347, -2146, 
    89, -56, -114, -44, 195, 37, -77, -117, 
    -133, 85, 135, 136, 182, 25, 404, 36, 
    55, -124, -195, 9, 104, 153, 115, 195, 
    -153, -83, -150, -186, 129, 60, 1630, -1169, 
    -97, -111, -101, 50, 154, -137, 47, -98, 
    40, 25, 176, 178, -181, 1, 220, 762, 
    -126, 139, 91, 150, 118, 135, -156, -74, 
    -115, -63, 134, 27, -81, 157, 2896, -659, 
    -153, 76, -76, -73, -131, -65, -36, -144, 
    -74, -67, -168, 31, 68, -162, -200, -868, 
    -64, -146, 105, -20, 33, -108, -143, 103, 
    40, -47, -200, 6, -191, 85, -391, -907, 
    111, 35, 175, -12, 167, 137, -162, 150, 
    -130, 182, -67, -145, -72, 99, 610, 602, 
    42, 183, 158, -75, 49, -40, -102, -152, 
    -33, -62, -162, -159, 43, 10, 100, -454, 
    -113, -145, 154, -91, 196, 200, -42, 14, 
    -190, 40, -168, -130, -99, 87, 886, -2257, 
    70, 164, -18, -155, 151, 144, 115, 170, 
    -32, 33, -150, 5, 33, 189, 698, -380, 
    -95, 73, -108, 45, 71, -111, -116, -14, 
    30, -187, 59, -186, 154, -183, -186, 1205, 
    7, -165, -62, -155, -30, 96, 135, -112, 
    83, 48, 61, -184, -101, -154, 1283, -2216, 
    -137, -172, -61, 43, 8, -95, -20, -20, 
    -92, -133, 145, 66, 66, -186, -744, 756, 
    128, -89, -178, 91, 103, 134, -85, -125, 
    -60, 129, 75, 94, 13, 54, -303, -479, 
    81, -183, 132, -96, -45, 145, -162, 163, 
    132, 124, 83, -135, 117, -190, -840, 1690, 
    20, -76, -120, -4, 180, -25, -200, 173, 
    24, 74, -197, -149, -14, -139, -2800, -2652, 
    -93, -80, 60, -164, 112, 169, -158, -206, 
    -166, 136, -132, 113, -88, 153, 1325, 1356, 
    -66, -43, 118, -137, 152, 181, 191, 206, 
    -53, -156, 174, 6, 99, 141, -1235, -1194, 
    -86, 57, -149, -199, -84, -32, 21, 20, 
    -23, -56, -15, -148, 113, -170, 3876, 786, 
    55, 203, 155, 202, -42, 108, -208, 100, 
    32, -168, -78, -17, 57, 9, 763, 147, 
    -13, 126, -88, 178, 31, -111, -75, 101, 
    8, 140, -176, -27, -168, -143, 1147, 473, 
    128, -87, 12, -62, -94, -5, 138, -9, 
    166, 192, -65, 78, 37, -186, 3319, 9, 
    133, -168, 182, 186, 94, 47, 101, 12, 
    79, 81, -125, -99, -172, 124, 1239, 149, 
    141, -162, -166, -44, 34, -112, -104, 25, 
    64, 128, -134, 124, 67, 61, -61, 3833, 
    16, -183, 112, 153, 16, -130, -103, -148, 
    -57, 14, -44, 161, 4, 158, -36, -1476, 
    -142, -175, 98, -96, 195, 17, 64, 180, 
    -70, 208, 47, 42, 129, -133, -243, 1875, 
    -191, -34, -10, -12, -191, -8, 175, -184, 
    -23, -19, -186, -177, 106, -163, 2506, -1667, 
    -58, -49, 185, 103, -24, -12, 53, -185, 
    143, 135, 48, -79, 77, -77, -913, -2212, 
    -193, -78, -64, 80, 20, -33, -204, 78, 
    -48, -173, -142, 41, 186, -142, 1196, -54, 
    -83, -145, -100, 180, 169, -7, 26, 202, 
    -182, 150, 128, 196, 171, 132, 2156, 441, 
    34, 75, -29, 195, -98, -120, -158, 135, 
    -119, 201, -53, -116, -48, 69, 526, -1590, 
    108, -85, -109, 188, -182, -56, 103, -118, 
    152, -11, 191, 149, 126, -152, 2708, 2866, 
    -119, 209, 77, 172, -161, 170, -111, 85, 
    -208, -54, -136, 0, -45, 165, 579, -695, 
    122, 174, 159, 0, -6, -120, 91, -124, 
    -165, 76, -123, 121, 152, 128, 1465, 838, 
    -161, -50, 0, -152, -38, -155, -23, 51, 
    -170, 0, 132, -188, -149, -77, 515, 14, 
    -18, 67, -66, 137, -52, -11, 137, 71, 
    -170, -190, -38, -1, 109, 188, -1078, 550, 
    161, 188, 77, -37, -96, 1, -46, 9, 
    -175, -66, -79, -77, -63, -60, 606, -911, 
    -174, 76, -96, -66, -64, 143, 47, -145, 
    81, 123, -102, -45, 72, -87, 1087, 1816, 
    48, -143, -71, 112, 122, 188, -98, -45, 
    -124, -13, -97, -127, -159, 170, -1921, -1755, 
    145, 185, 32, 157, 6, 163, 3, -71, 
    170, -159, 18, 94, -169, -81, -512, 1369, 
    -1, 147, 138, 160, 162, -135, -87, 15, 
    -123, -88, 138, -164, 157, 74, 627, -942, 
    -151, 60, 122, 165, -36, -169, -109, -170, 
    56, -5, 181, 130, 63, -131, -4142, -3209, 
    84, -39, 41, -165, 61, 142, 83, -99, 
    -51, -99, 162, -3, 121, 24, -102, 100, 
    77, -88, -71, -119, 22, 16, 25, -19, 
    -157, -74, -60, -126, -76, 101, -3987, -3415, 
    137, 59, 174, 137, -124, 22, 2, -72, 
    -95, -111, 38, -76, -13, 141, 97, -455, 
    144, 8, 29, -146, -42, -4, 113, 183, 
    -137, -101, 102, 121, -187, -69, -663, -3779, 
    92, -24, -98, 119, 104, -45, 51, 102, 
    15, 39, -138, -27, -125, 5, 2070, 529, 
    -21, 149, 5, 12, 124, 31, -73, -183, 
    -80, 21, 115, 87, -177, -12, -1531, 2559, 
    -181, 20, 42, -46, -140, -140, -34, 43, 
    130, -90, 62, 61, -31, -89, -458, 234, 
    -102, -131, 31, -19, -64, 19, -99, 144, 
    -63, -153, 30, 69, 32, 52, 1180, 188, 
    54, 38, -143, -34, -73, -121, -148, 41, 
    139, 43, -156, 57, 128, -119, -777, -2282, 
    21, 28, 83, -176, 78, -42, 95, 38, 
    123, 59, 99, 7, -97, -117, 2778, -1047, 
    -148, 145, -177, -63, -90, 78, -59, -8, 
    88, 138, -119, -129, -104, 69, -191, -698, 
    -8, 152, -2, -31, -130, -123, -138, 8, 
    -79, -46, 182, 116, -108, 20, 341, 1127, 
    -6, 36, 184, 136, 56, 20, -108, 55, 
    -1, 40, 63, -54, 90, 130, -1079, -697, 
    122, 118, 47, -127, 13, -87, 23, -188, 
    134, 117, 112, 37, 36, -143, 567, 1233, 
    117, 77, 6, 119, -172, -150, -87, 19, 
    -86, -4, 173, 115, 104, -121, -2283, -588, 
    -107, -6, 57, -49, 167, 14, -173, 21, 
    -15, 183, 125, -128, 85, -109, 299, 1964, 
    177, 79, 70, -58, -88, -159, -155, 74, 
    -96, -71, 157, 84, 168, 89, -933, 640, 
    122, -14, 29, -151, -112, -68, 91, -121, 
    17, -158, 59, 132, 32, 186, -88, 1586, 
    -99, -5, -123, 107, 130, 87, 52, 150, 
    51, 130, -137, -156, 40, 65, -1561, -11, 
    -185, -106, 169, 148, -13, -58, -19, 95, 
    -159, 97, 163, -80, -121, 111, -858, 331, 
    -112, -80, 112, -94, 76, 7, -91, -52, 
    -182, 121, -167, -174, -154, 154, 631, 231, 
    58, -35, -160, -21, 180, 162, -126, 50, 
    -63, 136, -73, 122, 126, -78, 1531, 1818, 
    -26, -28, 41, 59, -169, 180, 39, -152, 
    -133, 91, 39, 164, 170, -100, 1567, -2572, 
    18, -19, -135, 75, -105, 0, 27, -21, 
    186, -137, 189, -12, 97, 101, -210, 2159, 
    -125, 108, 119, -108, 54, -105, -154, -132, 
    69, -139, -127, 40, 143, 55, 876, -2181, 
    -165, -80, -41, 180, 65, 119, -42, 93, 
    -136, 140, 157, -68, -91, 79, -622, -49, 
    -8, 24, -134, -173, -126, 15, 22, -134, 
    -129, -37, -75, -102, -35, 33, -2923, 2726, 
    41, -79, 70, 39, 52, -57, -18, -32, 
    -30, 135, -41, 113, -119, 72, -2022, -92, 
    86, -12, 103, 139, -101, 145, 143, 27, 
    -82, -138, 148, -155, -59, 168, 329, 1731, 
    -72, 32, -169, -56, -176, 149, 34, -56, 
    -155, 183, 111, -20, -144, -5, 1807, -1203, 
    -78, -132, 185, 60, 153, -141, -166, -146, 
    -167, 131, -54, -75, 73, -163, 1341, 279, 
    -158, 63, 111, -185, 82, -27, 32, 43, 
    3, 23, 190, -84, 211, -33, 1484, -894, 
    139, -189, 181, -112, 38, -134, 183, 122, 
    58, -97, -177, -112, -194, -4, 1381, -1373, 
    -144, -103, 174, 192, -213, -74, -60, 76, 
    17, -9, 17, -6, -175, 69, -2643, 1130, 
    40, -101, 134, -99, 72, -164, -34, 115, 
    124, 84, -42, -124, 175, 101, -1761, 457, 
    -144, 124, 181, 87, -174, -80, -164, -46, 
    162, 128, 93, -99, -105, 130, -302, -2391, 
    151, -127, -148, 157, 64, 117, -56, 207, 
    -181, 75, -12, -206, 129, 209, 556, -289, 
    77, -62, 207, -177, -76, 155, 126, 197, 
    97, -155, 37, 165, -11, -96, 1129, -2719, 
    117, -188, -5, -123, 38, 66, -173, 214, 
    146, 99, -88, -177, 84, -78, 601, 749, 
    -19, 89, 0, 118, -115, 68, -151, -80, 
    -160, 196, -91, 85, 203, 133, -2007, 362, 
    186, 56, 182, 60, 54, 54, 37, 167, 
    -169, -70, 92, -116, 91, 81, -1209, 2563, 
    -122, -72, 91, -79, 35, 11, -50, 29, 
    -170, -31, -171, 141, -17, -129, -4857, 698, 
    96, 40, -159, -191, 55, 137, -167, -129, 
    -52, 172, 110, 131, 17, 207, -1289, 1703, 
    -80, -207, 206, 172, 97, 180, 23, -19, 
    1, -143, 6, 95, -54, -87, 628, 2458, 
    9, -163, 47, -120, 107, 149, -66, -164, 
    -126, -108, -27, 121, -191, -112, -1270, -123, 
    187, -176, -158, 194, 45, 67, 159, -31, 
    143, 35, -104, 198, 169, -65, -364, -2025, 
    -11, 85, -159, 97, -194, -114, -80, -94, 
    134, 39, 20, -57, -152, -205, -49, -2557, 
    -140, -131, 165, -139, 64, 31, 107, 149, 
    22, -56, -141, 192, 32, -29, 2780, -1641, 
    -43, 104, 21, -82, 114, 120, -20, 99, 
    -88, -12, -62, -56, -113, 100, 3237, -2174, 
    141, 121, -39, 174, 134, 116, 120, -156, 
    190, 120, 53, 169, -126, -60, -1831, -369, 
    -175, -4, 125, 180, -113, 135, 170, 174, 
    128, 178, -6, 150, 152, 42, 1374, -2930, 
    98, 14, 26, 155, -78, -150, -94, -91, 
    147, 88, -50, -147, -90, -143, 3624, 1027, 
    0, -28, -21, 69, 149, -101, 41, 53, 
    -173, -23, 84, 73, -9, 120, -2155, -1574, 
    25, -15, 135, 149, -82, 161, 0, -167, 
    -109, -6, -49, 116, 81, 144, -2232, 1858, 
    -33, 99, -166, -58, -101, -91, -102, 66, 
    -89, 84, -125, -149, -64, -80, 714, -1763, 
    -104, 126, 105, -127, 89, -57, 22, 122, 
    92, 148, 115, 46, 151, -48, -1092, 594, 
    84, -30, 37, -172, -143, 97, 134, 109, 
    104, 13, 106, 58, -131, -5, 932, 483, 
    -63, 113, 40, 138, -11, 36, -50, 58, 
    58, 111, 40, 4, 22, 123, -1065, 706, 
    -113, 19, -13, -152, 10, -53, -162, -88, 
    158, 45, 12, 145, -171, 59, 242, -71, 
    143, -164, -12, 22, 45, 71, 75, -143, 
    11, -5, 103, 106, 43, 114, -437, -1089, 
    171, -33, -6, 139, -7, -144, 18, -122, 
    131, -76, 144, -111, -85, 124, -215, 2521, 
    -66, -17, -36, 164, 63, 40, -10, -94, 
    -86, -85, -139, 14, 164, -66, 2178, -2296, 
    -103, -32, 71, -86, 111, 93, -93, -75, 
    -46, 73, -111, 36, -129, 130, -346, -22, 
    120, 144, -130, -55, 119, -156, 7, -97, 
    18, -115, -90, 159, 148, 87, -347, -1313, 
    108, 110, -42, 119, 85, -11, 19, 4, 
    50, 69, 61, 55, 120, -163, -934, -652, 
    114, 113, -133, 34, 150, -72, 169, 140, 
    -167, -154, -52, -79, 12, 36, -838, 1335, 
    144, -28, 9, -8, 0, -116, -117, 60, 
    -93, -47, 57, 115, 107, 147, 1034, -299, 
    120, 117, -23, 6, 67, -36, 54, 105, 
    -115, -173, 122, -163, -164, 84, 1216, -2675, 
    -79, -130, -145, -107, -60, 0, -131, 93, 
    -120, -170, -22, 129, 68, -42, -1433, -396, 
    169, 165, -130, 150, 68, -141, 105, -32, 
    19, 3, 109, 87, -62, 7, 117, -451, 
    -112, -46, -100, 3, -19, -95, 54, -69, 
    110, -40, 64, -14, 62, 38, 2640, -1410, 
    -159, -9, -107, 128, -182, 173, -71, 12, 
    -52, -72, 3, -20, -110, 24, -1812, -1376, 
    -106, 162, -39, -79, 80, -158, -47, 121, 
    60, -19, 162, 160, -121, -187, -1341, 2122, 
    52, 35, 164, -143, 93, -118, 10, -124, 
    177, -185, -59, -42, -53, -29, -95, -830, 
    167, -158, 94, -186, 88, 194, 130, 134, 
    173, 184, -4, 14, 81, 147, -2142, 599, 
    -103, -76, -89, -82, 141, -121, 186, -109, 
    -37, -192, 6, -120, 84, -42, -1960, 1606, 
    -146, 123, -72, 103, 5, -114, 137, -28, 
    189, -66, -102, 142, -137, -20, -1282, -1815, 
    68, 118, 35, 186, -154, 47, -80, -105, 
    -162, -1, -20, -156, -154, 164, 369, 2096, 
    -11, 11, -107, -142, -83, -45, -184, -160, 
    -64, -184, -32, 129, -66, 120, -2146, 1397, 
    -145, 124, -129, -131, -139, 145, 66, -174, 
    55, -38, 144, -149, 34, -172, -4269, -884, 
    -78, 171, -189, 50, 74, -35, -15, -82, 
    -8, -166, -59, 160, -142, -174, -1408, 1071, 
    18, 189, 73, -154, 19, 29, -66, 144, 
    71, 157, -53, -107, 183, -129, -2984, -749, 
    -45, -63, -136, 16, 183, 160, 178, -30, 
    112, 163, -41, 192, -185, -10, -1782, -519, 
    54, -6, -148, 82, 53, 180, -87, 38, 
    -54, -8, 104, -29, -166, 186, -103, -1449, 
    -116, 175, -130, -50, -63, -64, -15, 142, 
    150, -132, -170, 168, 4, -63, -30, -793, 
    -48, 157, 168, -28, 98, -161, -192, 188, 
    111, 163, 88, 187, 17, 42, -1332, -1295, 
    75, -106, 22, 4, 13, 24, -169, 140, 
    175, 78, -170, 52, 172, -150, 1822, 4618, 
    -172, -181, -140, 104, 26, -131, 14, 185, 
    -35, 148, -163, -33, -180, 160, 217, 192, 
    -88, -149, -71, 112, -31, 184, -103, 167, 
    8, 189, -93, -67, -160, -26, -690, -297, 
    0, -161, -72, -131, -176, 8, -77, 39, 
    -118, -122, -24, 15, -160, 66, 475, 400, 
    103, -49, -134, -177, -181, 172, 116, -157, 
    98, 90, -153, 153, -190, -150, -966, -1534, 
    154, 39, 84, -165, -122, -171, -96, -92, 
    -109, 145, -119, -18, 104, -111, 3214, 1535, 
    128, 94, -3, -26, -15, -49, 123, 190, 
    -146, 22, 17, 75, -17, -183, -1310, 314, 
    -119, 43, 157, 116, -114, -33, -182, 149, 
    -120, 110, -151, -70, -49, -184, -971, -2651, 
    -27, -14, 40, 177, 8, -113, -81, 114, 
    174, 136, 132, -17, -172, -154, 2218, -180, 
    46, 137, 163, -166, 92, -120, -176, -186, 
    73, 95, -179, -2, -70, 116, 242, -764, 
    128, -29, 95, -11, -112, 4, -15, -147, 
    -21, -1, -187, 104, -130, -95, 2204, 966, 
    79, -121, -100, -27, -134, 13, 132, 188, 
    -34, -142, -16, -142, 7, 46, 1933, 596, 
    2, -8, -111, -25, 120, 69, 9, -68, 
    -22, -43, 40, -43, 12, -169, -538, -488, 
    118, -15, 115, 107, 120, -102, 147, -187, 
    -32, -59, -169, 83, 4, -151, -642, -930, 
    -52, 27, -166, 170, -182, 4, -83, 15, 
    -13, 46, -8, -160, -77, -183, 1223, 496, 
    -5, 67, -37, 180, -113, 145, -61, -31, 
    -116, 169, -177, -132, 98, -10, 413, 427, 
    6, -190, -34, -84, -32, -118, 78, -189, 
    -17, 19, -92, 178, 12, 118, -727, -1834, 
    -42, 80, -113, -141, 60, 94, -83, -149, 
    -111, -186, 109, 146, -183, 60, -241, -1492, 
    -153, -102, -134, -57, 60, -12, 30, -180, 
    -40, 137, 164, -22, 28, -77, -329, -4313, 
    39, -75, 30, 70, 115, -11, 84, -48, 
    26, -139, 119, 98, 45, -54, -58, -3185, 
    -8, -182, 72, 132, 120, -40, -63, -90, 
    6, 143, 80, -80, -162, 3, 863, 874, 
    121, -26, 99, -19, -30, 138, -112, 33, 
    -185, -99, 14, -14, 172, -141, -1907, -1551, 
    91, 164, -187, 33, -44, 25, -50, -105, 
    -119, -127, -157, 4, 124, 132, 1924, -1163, 
    -188, -143, 183, 33, -86, 47, 178, -21, 
    73, 31, 138, 0, -183, 144, -1625, 473, 
    169, 66, -83, 92, -45, 118, 163, 61, 
    -159, -171, -177, -160, -20, -23, -1422, -2278, 
    -47, -158, -154, -146, -61, -104, -92, -24, 
    161, -27, 121, 84, 120, 3, -2209, 504, 
    96, 19, 0, 146, -202, 155, -57, -26, 
    15, 18, 204, 83, 149, -184, 528, -148, 
    83, -163, -176, 130, 141, 106, 79, 54, 
    -162, 53, -123, 176, 180, 171, 90, 365, 
    150, -61, 55, -107, -168, -12, -124, -97, 
    65, 151, -88, 78, 184, 41, -305, 608, 
    -131, -158, -178, -29, 140, -126, -188, -60, 
    191, -151, 96, 43, -128, -31, -935, 2887, 
    42, -134, -41, -35, -208, -195, -180, -210, 
    -90, -16, -196, -175, 89, 199, -1621, 342, 
    170, 2, -183, 44, -200, 71, 140, 180, 
    -192, 198, 25, 140, -23, 88, -2241, -770, 
    70, -161, 46, -39, -186, -128, 23, 36, 
    -95, 123, 173, -141, 82, -143, 291, 419, 
    -72, 196, 136, 70, 11, -169, -11, -193, 
    88, 36, -61, -153, 154, -185, 1876, -342, 
    -96, -154, -83, 71, -205, -46, -9, -188, 
    -78, -98, -104, 208, -143, -114, -2303, -775, 
    191, 202, -209, -162, -117, 157, -40, 138, 
    205, 108, -25, 55, -129, 21, 2378, 746, 
    47, 16, 152, -139, 173, 31, -200, 106, 
    174, -119, -100, -40, -178, -175, 932, -2560, 
    43, -48, 208, -177, 100, -47, 9, 107, 
    -207, 88, -173, 153, 0, 60, 2806, 1399, 
    25, -109, 53, -62, -87, 8, -118, -115, 
    43, -128, -92, -191, -11, -98, -364, 333, 
    21, -196, -13, 78, -131, -144, 82, -103, 
    80, 119, 74, -145, 37, 24, -949, -2943, 
    86, -5, -75, -176, -115, 131, 150, 3, 
    -191, -27, -94, -51, -17, 69, -75, 216, 
    146, 4, -137, 0, -51, -120, 31, -2, 
    135, 0, -95, -52, 87, -45, -1426, -1423, 
    126, 66, 41, -210, 182, -90, 87, 17, 
    199, 79, 120, -112, 60, 86, 128, 2913, 
    -153, -128, -36, 95, 49, -118, 187, 189, 
    158, -42, -173, -170, 44, -160, -4573, 2464, 
    68, 168, -123, 135, -206, 46, 107, -119, 
    -85, 179, -92, 1, 87, 203, -3219, 186, 
    -220, -223, 185, -20, -190, -224, 155, -198, 
    215, -88, -160, -144, -222, -65, -45, -996, 
    -144, 199, 222, -207, 191, -153, 83, -210, 
    -148, 133, -211, -8, -230, -167, 80, 73, 
    178, 234, -70, -76, 72, -143, 1, 197, 
    -181, 116, -47, -218, -220, 43, 57, -506, 
    137, 0, 0, 104, -60, 87, 106, 109, 
    137, 203, -85, 198, 168, 64, 14, -194, 
    118, 221, 79, 78, -120, 65, 202, 158, 
    131, -196, 194, 217, -122, 14, -178, -2810, 
    114, -196, 222, -128, -170, 225, 31, -42, 
    67, 78, -184, -193, 220, -191, -62, 2983, 
    -12, -128, -206, -31, -36, -91, 197, 108, 
    -46, -97, -15, -7, 132, -198, 157, -27, 
    154, 95, -95, 30, -25, -168, -231, 207, 
    -227, -168, 1, -144, 225, 149, -28, -2011, 
    211, -83, -1, -96, 154, 228, -175, 222, 
    73, -22, 29, -192, 177, -184, -55, -476, 
    -210, 108, 21, -88, -8, -157, -26, 54, 
    -39, 73, 10, -107, -195, 166, -28, -1249, 
    222, -203, 63, 121, -87, 44, -208, 170, 
    15, -171, -151, 104, 29, 123, 152, 297, 
    -151, -177, -171, -38, -148, 207, 150, -42, 
    -222, 66, -107, -25, -145, 71, 169, 2509, 
    5, -132, -157, -170, -223, 0, 117, -63, 
    140, 110, 121, 10, 178, 129, 108, -3990, 
    -188, 78, -41, -86, 83, -66, -99, 232, 
    53, 194, -148, 1, -63, 140, 80, -558, 
    43, 4, -184, 44, -140, -36, 177, 68, 
    116, -222, 128, 207, -216, -80, 194, 2829, 
    -215, 200, -152, -119, -95, 73, 71, 55, 
    -159, -156, 229, -140, -193, -101, -81, -382, 
    148, -33, 151, 92, -91, 149, -231, 60, 
    223, -130, 110, 238, -159, -15, 201, -776, 
    -123, -46, -139, -175, 225, -187, 239, 62, 
    -196, 117, -39, 221, -132, -122, -13, -4131, 
    -13, 43, 176, 63, -74, -240, 188, -70, 
    -213, 217, -204, 95, 44, -196, 105, -244, 
    -85, 204, -155, 105, 181, 181, 181, 174, 
    118, -24, 214, -157, -133, -93, 127, -168, 
    221, -76, -162, 181, 156, -63, -212, 79, 
    -62, -58, -238, -1, -98, 88, -173, 2270, 
    203, -98, -69, -179, 56, -50, 199, 205, 
    187, 194, -164, 124, 17, -168, -39, 1119, 
    78, -176, -185, -6, -77, -141, 163, -63, 
    -124, -28, 192, 32, -225, -237, -202, -4816, 
    -152, -95, 135, 207, -240, -61, 32, -178, 
    120, -86, -162, -116, -189, -166, 11, -50, 
    -200, -28, 110, 103, 140, -24, 101, 138, 
    120, -175, 100, 243, -232, -61, -224, -2075, 
    76, 14, 8, -33, -141, 172, 220, -25, 
    94, -193, -232, 180, -59, -68, -31, -1647, 
    227, -204, 146, 140, -115, 237, 63, 185, 
    139, 8, -92, -229, 87, 108, -169, 2853, 
    226, 79, 207, -109, -229, 50, 139, 63, 
    196, 3, -118, 199, 177, 142, 160, 1760, 
    -96, 154, 138, -208, 154, -92, -147, -127, 
    97, -98, 82, 141, -236, 31, -243, -1301, 
    -131, -66, 119, -25, -235, -158, -53, 32, 
    -115, -198, -133, -49, 30, 135, 124, -79, 
    -231, 145, -236, 195, 175, -59, 77, 100, 
    -59, 171, 81, -29, -134, -61, 4, -1418, 
    1, 16, 110, 117, 232, -29, 171, -31, 
    34, -73, -245, 29, 48, 187, -100, -99, 
    41, 349, -85, -11, -342, 69, 83, 88, 
    229, -237, 304, 167, 19, 373, 83, -2770, 
    -165, 156, 115, 24, 226, 368, -364, 93, 
    303, 163, -2, 270, 137, 186, 194, 1515, 
    -271, 36, -372, -297, -92, -214, -377, -289, 
    -220, 373, 57, -300, 255, 16, -84, 706, 
    -272, 151, 150, -351, 368, 167, -150, 16, 
    -132, -363, 26, 12, 172, 135, 112, 3466, 
    38, 212, 19, -147, -33, 0, -86, 240, 
    -154, -178, 241, 156, 218, 104, -94, -2524, 
    369, 56, -376, -258, 333, -55, -173, 144, 
    210, 256, 276, -114, -360, -380, 200, -126, 
    -367, -279, 342, -186, -193, 363, 5, -173, 
    -27, 160, 46, -349, 128, 140, 184, 5603, 
    366, -183, -116, 159, -11, 200, -43, -77, 
    -198, -127, 51, -224, -243, -114, 122, -1359, 
    286, -216, -209, 282, -375, -315, 68, 156, 
    293, -373, -6, -286, -70, -39, 309, 600, 
    96, 51, 97, 32, -312, 166, -375, -30, 
    -24, 148, 259, 74, -184, -283, -275, -3132, 
    -371, 343, -54, 229, -153, -169, -370, -7, 
    224, -122, -82, -106, -132, -366, -269, 2027, 
    -138, -119, 359, -9, -280, 142, 182, 112, 
    262, -194, 82, -365, 132, 328, 126, 3073, 
    200, 211, 256, -103, -96, 17, 151, 192, 
    52, 3, 243, 228, -100, -224, -225, -482, 
    -14, -220, 314, -169, 118, -352, 174, -215, 
    185, -294, 228, -311, -86, 90, 237, 571, 
    325, 75, -109, -24, -92, -184, 160, -197, 
    321, -40, 17, -281, -48, 166, 225, 2434, 
    382, 342, -306, -190, 193, 141, 177, -233, 
    373, 72, 329, 318, 135, 195, 278, -3687, 
    -86, -98, 232, 84, -36, 94, -11, 115, 
    103, 86, -31, 284, -300, 108, 0, -2426, 
    -214, 12, 103, 191, -56, 293, -37, 2, 
    -20, -224, -70, 225, 4, -51, 181, -3859, 
    -297, 283, -211, 289, -138, -288, 24, 273, 
    122, 207, -109, -60, 181, 106, 205, 2728, 
    -210, 63, -180, -229, -282, 103, -208, -211, 
    -166, -127, -215, 177, 280, 119, 143, 1512, 
    300, -291, -274, 236, -103, 282, 277, 109, 
    3, -38, -66, -180, -268, -176, 95, 431, 
    288, -86, 162, 79, -75, 263, -279, 275, 
    -189, 204, -288, -271, -203, 32, 103, 36, 
    53, -124, 19, 265, -132, 264, -6, -179, 
    191, 278, 131, 254, -257, -295, 57, 1167, 
    -22, -186, 85, -284, -292, -141, 127, 44, 
    -135, 261, -232, -30, 127, -8, 209, 1163, 
    271, -36, -231, -125, 175, 9, -147, 245, 
    -54, 0, -22, 97, 287, -23, 63, -3159, 
    132, -97, 115, 266, -95, -264, 2, 109, 
    107, -72, 177, 41, 111, -6, 292, 570, 
    -36, 280, 14, 180, 151, -165, 104, 167, 
    -7, 133, -275, -125, 232, 222, -267, -929, 
    -150, -277, -3, 117, 249, -176, 251, -44, 
    163, 167, 147, 216, -108, 271, 204, 3652, 
    -50, -272, 251, -118, -233, 193, 12, 20, 
    111, -10, 55, 80, 82, 261, -120, 2538, 
    -175, -80, -25, -64, -270, -47, -110, 304, 
    52, -9, 263, 179, -305, 54, 216, -1859, 
    -260, 257, -117, -257, 165, -38, -205, 219, 
    -233, 287, 225, -253, 52, -170, 163, -927, 
    162, -86, -151, 299, -82, 290, 302, -59, 
    -50, -94, 125, -86, 29, -163, -166, -49, 
    -66, -85, 112, -55, -127, -45, 65, 14, 
    128, -119, -119, 96, -55, -32, 20, 442, 
    -16, 3, -113, -3, -62, -93, 90, -67, 
    75, -15, 113, -13, -37, 80, 111, 1023, 
    4, 92, 55, 15, -16, -129, -80, 57, 
    -108, 126, -80, 70, -50, 115, -12, 1142, 
    9, -11, 103, 76, 100, -130, -12, -90, 
    45, 90, 129, -20, 4, 119, -34, 641, 
    34, -58, -85, -39, 99, 1, 4, 67, 
    56, 46, 91, 79, 119, 25, -98, -1401, 
    118, 0, 25, 91, 110, -25, 41, 110, 
    -25, 85, -64, -129, 126, 86, 104, 672, 
    -50, 120, -98, -16, 26, 113, -18, 114, 
    75, 115, 36, -64, -81, -73, -130, 577, 
    123, -75, 17, -107, 20, 13, -61, 72, 
    37, -106, -5, -88, 127, -98, 27, -958, 
    -80, 84, -71, -31, -55, -41, 0, -12, 
    -49, 15, -81, 65, 78, 40, 10, 348, 
    -13, 44, -113, -64, 46, 43, 108, 6, 
    -115, 123, -119, -55, 52, 103, -117, -1899, 
    -23, 62, -125, 124, -112, -89, -129, 75, 
    -49, 113, 102, 87, -108, -130, -78, 340, 
    -113, 62, -13, 90, -130, -94, -64, -40, 
    86, -28, 31, -86, -118, -104, 0, 213, 
    -76, 14, -97, 82, 122, -71, 105, -66, 
    95, -101, -17, -21, 56, -106, -128, -686, 
    -76, 1, 6, -85, -110, -122, -34, 92, 
    -60, -93, 70, 19, 102, -70, 122, 832, 
    -8, 105, -63, -120, -95, 69, 120, 45, 
    34, 96, 106, 1, 31, 68, -112, 377, 
    43, -98, 78, 104, -111, 43, 65, -65, 
    -76, 50, 16, 38, -40, -6, -38, -920, 
    203, 179, -249, 349, 173, -182, 29, -212, 
    -156, -8, 205, 343, -95, 89, -143, 2702, 
    355, -35, 257, -209, -174, 26, -160, 361, 
    -354, 176, 199, -315, 113, -194, 9, -5664, 
    353, 165, -149, 36, 142, -277, -371, 94, 
    -264, 53, -288, -257, -224, -180, -39, -469, 
    -231, -378, 301, 28, -270, -137, 30, 263, 
    -80, 293, 177, -137, -163, 294, -274, 1097, 
    -270, -108, 45, 185, -124, 185, -190, -74, 
    141, 359, -348, -40, 229, -247, 307, 1940, 
    279, 81, 0, -176, 16, -83, -290, -10, 
    373, 272, 210, -225, 146, -188, -280, 34, 
    -75, 323, 157, 195, 302, -174, 260, -244, 
    102, -111, -48, -106, 129, -58, 364, -4475, 
    208, 361, 322, 13, 286, 100, 31, 213, 
    -87, 1, 229, 308, -153, 341, 0, -5904, 
    302, -189, 204, 35, 111, -326, 216, -138, 
    -163, 267, -53, 224, 217, 42, -262, 1486, 
    154, -257, -236, -300, -110, 262, 116, -191, 
    -99, 358, -323, 98, 198, -74, -199, -581, 
    -85, -75, -58, 27, -215, 109, 148, 96, 
    -56, 136, -321, -353, -260, -12, -284, 1762, 
    308, 140, 73, -193, 137, 194, -326, -235, 
    -172, 275, -240, 198, 113, -328, -179, 3531, 
    -201, 355, -86, 323, 64, -21, 19, 310, 
    255, 11, 9, 108, 65, -173, -276, -2037, 
    -12, -269, -304, -233, -133, 107, -379, -26, 
    -319, -304, -267, -43, -340, -304, 224, 323, 
    -2, 50, 159, 70, 379, -289, -245, -61, 
    -213, 199, -297, -231, 312, -159, 115, 2916, 
    -141, 120, -70, -20, 12, 252, -30, 62, 
    258, -272, -32, 130, 98, -205, -217, -855, 
    -8, -4, 119, -131, 208, 21, -219, -143, 
    -4, -174, 184, -198, -9, 193, 185, 602, 
    -62, 25, 68, 66, 82, -154, -41, -38, 
    48, -193, -48, -21, 139, -198, -99, 1145, 
    -205, -6, -87, 141, -144, 76, 124, -150, 
    7, -7, 64, -33, 212, -196, 153, 449, 
    50, -189, -5, 39, 61, -155, 127, -60, 
    109, 60, -55, -78, 16, 222, 119, 399, 
    109, 165, 109, -93, -18, 25, 131, -66, 
    38, 103, 205, 219, 12, -130, -128, 991, 
    -21, 67, -49, -53, 118, -209, -157, 73, 
    -187, 116, 212, -94, -192, 92, -179, 1132, 
    -81, 164, -159, 83, -38, -117, 166, 5, 
    93, -189, -136, -200, -177, 172, 139, 1587, 
    -143, -77, -21, -67, -126, 17, 93, 145, 
    8, 30, 78, -164, 151, -182, 210, -307, 
    -119, 25, 116, 29, 198, -15, -152, -105, 
    3, -16, -175, 58, -44, -162, -166, 81, 
    -76, -160, -53, 79, -138, -195, -147, -169, 
    -80, 13, -148, -75, -74, 190, 51, -1706, 
    151, 98, -179, 163, 222, 160, 48, 24, 
    -30, 62, 138, -108, 221, 16, -137, -206, 
    63, -197, -49, -70, 218, -60, -175, -7, 
    58, -194, 128, -110, -16, 147, 217, 2933, 
    137, -69, 169, -94, 108, 8, -150, 211, 
    -199, 62, 210, -206, -142, -51, -63, -6360, 
    -49, 149, 1, 17, 114, 78, 184, -111, 
    27, -12, 14, 62, 34, -96, 177, -1208, 
    122, -112, -135, 207, 49, -43, 213, 41, 
    -150, -155, 131, 44, -57, -141, 163, 1797, 
    -185, 84, -116, 145, -205, -178, -60, -168, 
    -93, 86, -16, 211, 59, 223, 101, -573, 
    -35, 31, -150, 238, -197, 109, 165, 209, 
    6, 180, 249, 44, 137, 16, -147, 3568, 
    256, -216, 33, -209, 181, -51, -66, -27, 
    156, -226, 31, -191, 194, -25, -91, 818, 
    -207, 61, -48, 122, -27, 171, 90, -103, 
    -238, -55, -56, 88, -166, 116, -191, -532, 
    164, -82, -169, 240, -119, 19, 192, -147, 
    -165, 136, -2, 96, 131, 222, -165, -1312, 
    -111, -50, 167, -199, 135, -104, -105, -58, 
    247, 198, 113, -186, -234, -107, 133, -1363, 
    261, -85, 122, 207, -178, -3, -140, -7, 
    107, 141, -233, -93, -27, -250, 75, 1286, 
    261, -111, -252, 112, -139, 207, -132, 89, 
    -16, -175, -178, -149, -58, -95, 39, -6277, 
    47, 216, 72, -140, 251, 167, -35, -85, 
    -57, -247, -198, -51, 48, 237, -192, 1514, 
    -226, -105, 23, 130, 240, 21, -42, -149, 
    -11, 203, 89, 247, -28, -185, 44, -782, 
    -173, -136, -84, 91, -167, -142, 165, 149, 
    22, 194, 103, -142, -105, -52, -242, 1555, 
    -107, -53, -150, 95, 57, 60, 38, -37, 
    -186, -176, 223, -2, -162, 219, 164, 1104, 
    58, -224, -101, -15, 124, 194, 18, -245, 
    140, -19, -94, 28, -42, -193, -168, -1609, 
    174, 154, 86, 34, -85, -143, -195, 3, 
    151, 192, 197, -200, 147, 152, -272, 153, 
    93, -39, 244, -213, 49, 181, -221, 221, 
    -65, 25, 177, 264, 175, 157, 258, 153, 
    55, -6, 79, -264, 154, -183, -21, 217, 
    -202, -117, -97, 239, 120, 10, -214, -1543, 
    -250, 207, 0, 9, 14, 44, 228, -117, 
    -180, 64, -208, -128, 269, 165, -63, 1696, 
    190, 3, -95, 67, 255, -150, 4, 97, 
    124, -125, 273, -167, 231, 269, 153, -751, 
    -158, -67, 18, -69, 201, -237, -3, -207, 
    278, 243, 115, 236, -19, 180, 131, 415, 
    195, -35, 175, -285, -10, 280, -145, 227, 
    -93, -82, 30, 167, -218, -192, 43, -411, 
    -220, 40, -278, -137, 107, -36, 49, 70, 
    -59, -243, 87, -155, 135, -209, 258, 101, 
    272, 199, -264, -139, -107, 258, -103, -27, 
    82, -121, 178, 67, 234, 254, -205, 649, 
    116, -234, -73, -173, -177, 92, -152, -182, 
    99, 11, -156, -41, 92, 54, 165, 7298, 
    62, -187, -55, 49, -49, 232, 214, 116, 
    165, 251, -20, -186, 67, 99, -54, 1750, 
    -283, 141, 76, -201, 76, -130, 262, -11, 
    -92, 111, -222, 147, 18, 256, -103, -1493, 
    -83, -23, -235, 135, -37, -236, 5, 138, 
    -259, -54, -43, -3, 35, 68, -228, -366, 
    -101, 39, -22, -241, -214, 259, 145, 133, 
    233, -284, 93, 90, 238, -286, 162, 267, 
    89, 242, 248, -5, -57, -55, -53, 253, 
    7, -33, 260, -246, -126, 57, 86, -1178, 
    268, 228, 58, 220, 43, 83, 90, -236, 
    76, -169, -273, -63, 240, 219, 250, -1346, 
    167, -246, 148, 285, -97, 103, -176, 259, 
    170, -273, -248, -131, 259, -111, 271, -220, 
    -43, -226, -169, 77, 28, 42, -21, 173, 
    -254, -114, -135, -259, -206, 53, 48, 3029, 
    209, -35, 186, 80, 13, -172, -199, 266, 
    162, 3, -231, 187, -7, 82, -234, -1810, 
    -8, 177, 22, 266, 185, 157, -76, 127, 
    -158, 162, 263, -265, -8, 69, -220, 637, 
    -278, 118, -195, -140, -49, -22, 120, -292, 
    -32, -53, 167, -299, -302, 334, -70, 2826, 
    -287, 126, 111, -197, -175, 186, 222, -51, 
    -245, -89, -9, -69, -344, -227, 179, -2152, 
    -258, 136, -18, -276, 313, -139, -274, -149, 
    -114, -137, 169, 223, -275, -42, -43, 2628, 
    -263, -191, -293, -303, 239, 27, -140, -245, 
    -139, 332, -113, 254, -77, 262, 334, 786, 
    -265, 270, -232, 257, 297, 203, -302, -191, 
    -126, 248, 110, -88, 183, 197, 259, 1035, 
    -246, -172, 151, 237, 23, -48, 166, -248, 
    -38, -111, -223, 270, -232, -168, -94, 4280, 
    -68, 69, 143, -1, 98, -122, -42, -268, 
    120, 99, 285, 116, 81, 283, 216, -6351, 
    210, 71, -250, -142, -256, 312, 174, -145, 
    -307, 58, -54, -282, 311, -164, 31, -2967, 
    -130, 153, -304, 19, 295, 10, 168, 170, 
    -90, -29, -43, -341, -343, -301, -250, -2198, 
    119, -134, -9, 60, 281, 340, 217, -131, 
    -343, 138, -217, 135, 51, 240, -256, 2325, 
    -271, -8, -313, -234, 344, -190, 177, -112, 
    152, -156, 238, 266, 128, -105, -124, 865, 
    335, -193, 246, -321, -139, 32, -52, 290, 
    -205, 300, 142, 285, 31, -67, -203, -1463, 
    90, 229, 195, -21, 89, 289, -97, -134, 
    -2, -95, 122, -84, 339, -137, 99, 2021, 
    317, -268, -304, -182, 203, -321, 156, 189, 
    -172, -316, -311, 310, -33, -165, 0, 1814, 
    94, 308, 106, 203, -193, -139, -278, 226, 
    9, 131, 250, 195, 166, 93, 311, 1014, 
    -186, -235, 213, 332, 124, 255, -331, 234, 
    -162, 89, -123, -101, -96, 244, 25, 39, 
    46, -58, 77, -11, -85, -166, 189, -169, 
    234, 63, -183, 131, -28, -151, -158, 140, 
    -200, -107, 236, -139, -189, 196, 227, 101, 
    103, 125, 36, -186, -118, -26, 44, 1924, 
    31, -51, -203, 62, 94, -44, -107, -145, 
    21, -209, 149, -221, -30, -189, 66, 238, 
    117, -231, -41, -153, -212, 16, 60, -88, 
    102, -53, 159, 105, 225, -70, 191, -1589, 
    -156, 25, 139, -103, 81, 59, 150, -1, 
    115, -152, -195, 30, 99, -231, 70, -2564, 
    -116, 125, 235, 154, 9, -41, -163, -57, 
    -130, 60, -158, 0, 126, -194, -8, 1155, 
    126, -227, -173, 175, 99, 120, -160, 141, 
    -132, 104, -157, -24, 26, 0, -105, 1418, 
    -184, 30, -208, -49, -137, -29, -223, 118, 
    -212, 224, 234, -98, -196, 221, -101, 2419, 
    -225, 36, 31, -188, 93, -101, 91, -208, 
    90, -148, -56, 101, 152, 224, 177, 852, 
    -135, -210, 120, 175, -234, 182, 139, 235, 
    -190, -25, -227, -123, 184, -47, -62, -2124, 
    -102, -66, -148, -43, -75, 181, 24, 27, 
    -65, -70, -47, 175, -233, -13, -164, 204, 
    -228, -109, 76, 29, 219, 156, 114, 80, 
    -58, -18, -94, 73, 129, -72, 122, 1928, 
    -2, -157, -64, -69, -148, -235, 88, -102, 
    -52, -227, -225, -129, -188, -51, -109, -1108, 
    189, -11, -222, -125, -17, -147, 132, -132, 
    127, -2, 46, 125, -119, -174, -61, -3079, 
    -64, 224, 150, 165, -173, 28, 231, -204, 
    19, 131, -116, -53, 68, 236, 83, 670, 
    -77, -176, 120, 171, -97, -113, 190, -150, 
    221, 64, -25, 120, 174, 192, 101, -456, 
    -75, 22, 192, 191, -308, 164, -50, 188, 
    -220, -239, 113, -76, -244, 286, -178, 729, 
    175, -81, 139, -258, -300, -272, -143, 138, 
    189, 150, -12, 114, -11, 319, 3, 1108, 
    98, -136, 307, 38, -148, 229, 251, -156, 
    36, 190, 253, -122, 208, 40, 109, 1785, 
    36, -266, -113, 121, 17, 24, 69, -201, 
    216, 53, -290, 42, 120, -12, -4, 3483, 
    172, -155, 169, 255, 19, 239, 73, 109, 
    -272, -211, -73, 114, 210, 58, 23, -1035, 
    168, 35, -39, 38, 269, -296, -18, -282, 
    -174, 288, 211, 40, 154, 30, 119, -1262, 
    177, -199, 133, -155, -220, 282, -295, 289, 
    -209, -261, -96, 196, -77, -283, 248, 1794, 
    -25, -3, 7, 273, 94, 225, 299, -198, 
    50, -120, 305, -236, -89, 84, 14, 772, 
    219, 44, -130, 186, 93, -280, 182, -178, 
    -154, 83, 174, 41, 282, -137, -268, -4444, 
    167, -210, -199, -95, 54, -58, 173, 253, 
    22, 80, 25, -212, 90, -46, -228, -2199, 
    87, -157, -199, -62, -6, -21, 317, 248, 
    -277, -151, -40, 201, 13, 274, -63, 1554, 
    -31, -278, -210, -178, 91, 265, -132, 266, 
    182, -297, 17, -206, -311, -22, -318, -3371, 
    85, -307, 74, -202, -303, 211, 49, -94, 
    -272, 7, -311, -279, -275, -237, 223, -616, 
    145, 142, 74, 45, 284, -237, -170, -94, 
    316, -114, -44, 96, 213, -273, -51, 2282, 
    -147, -273, 206, -47, -222, -93, 67, 40, 
    -254, 101, -260, -23, -258, 37, -237, -207, 
    -189, -5, 282, -166, -126, -249, -46, 108, 
    255, 185, 318, -287, 44, -176, 57, 321, 
    -167, 233, 95, -253, 32, 186, 224, -144, 
    -167, 36, 243, 126, -228, -83, 191, 2537, 
    86, -40, 149, 174, 187, -162, 0, -185, 
    157, 75, -168, -165, 151, 105, -15, -3294, 
    -24, -236, 52, 244, 255, 144, -183, -57, 
    -57, -11, -248, -153, 45, 62, -141, -1994, 
    46, 249, 60, -66, 54, 189, -158, -84, 
    -251, 51, -207, 197, -257, 229, -104, -1716, 
    -186, 36, 192, 193, 12, 62, 131, -155, 
    -152, -68, 195, 249, -138, 218, 162, -972, 
    -131, -76, -87, 208, -30, 73, -216, -3, 
    -154, 235, -111, 32, 214, 101, -38, -799, 
    152, 249, -146, 140, 94, -41, -68, -123, 
    172, -185, 207, -17, -175, 182, -142, -2242, 
    -71, 251, -59, 179, 174, 117, -1, 120, 
    -70, 182, 133, -122, 195, -205, 81, 572, 
    -154, -165, 97, -186, -221, -56, -150, -80, 
    -124, 96, -134, 249, -48, 64, 41, 286, 
    86, 236, -30, -144, 228, 200, -117, -40, 
    172, 90, 261, 246, -62, 188, 8, 1042, 
    -218, 236, -22, 165, -143, -74, -73, -138, 
    136, -98, 258, 88, 7, 119, 179, 1977, 
    59, -93, 86, 13, 160, -240, -29, -224, 
    -129, -207, -254, -127, 214, -110, -160, -82, 
    119, 208, 2, 127, 118, -221, -36, 184, 
    -91, -81, -227, -185, 26, -29, -191, -361, 
    -5, 18, 131, 58, 197, -124, 146, 227, 
    -102, -10, -246, -78, 255, -60, -191, 3241, 
    37, 237, -197, -235, -75, -129, -1, -153, 
    -141, -59, 178, 35, 175, 17, 97, -336, 
    -119, 210, 154, 121, -224, 199, 169, 256, 
    37, 113, 170, 190, 44, -203, 73, -1958, 
    -204, -101, 35, -18, 139, 258, -202, 274, 
    286, 94, -244, -52, -184, 48, -1, 1168, 
    -1, 39, -3, 199, -154, 52, -194, -55, 
    -171, -141, -188, -31, -119, 183, 148, -542, 
    214, 52, -240, 187, 162, 264, -288, 102, 
    -99, -193, -11, 207, -75, -275, -130, 1164, 
    -18, -2, -247, 316, 60, -203, -265, 296, 
    245, -242, 26, 113, 40, 247, -103, -2492, 
    32, 177, -74, 291, 171, 100, -200, -49, 
    -190, 0, 266, 4, 276, -165, -78, -3737, 
    185, -69, -237, -314, -258, -59, 42, -286, 
    -48, -303, -274, -75, 190, -291, -287, 696, 
    205, 60, 268, 154, -177, 85, -111, -220, 
    277, -32, -245, -60, -276, -174, -285, 2128, 
    -53, -152, 314, -11, -116, 51, 235, -13, 
    140, 131, 17, 224, 135, -177, -47, -1266, 
    -136, 276, 60, -281, 287, -154, -153, 163, 
    276, -304, 13, -1, 104, 238, -198, 1005, 
    -23, -139, -245, 263, 67, 231, 1, -114, 
    126, 247, -174, -16, -269, -222, -147, -2773, 
    203, -293, -66, -253, -141, -169, -100, 108, 
    77, -19, -202, 4, -201, 120, -58, 3723, 
    -12, 145, 179, -190, -46, 30, 314, -132, 
    -115, -277, -126, -263, 212, -268, 209, 1519, 
    -316, 245, -307, 228, 209, 301, 6, 316, 
    -209, -228, 171, -13, 225, 277, 307, -1597, 
    -260, -187, -16, -108, 278, 76, 184, -4, 
    103, -259, -164, 72, 302, -142, -302, -1518, 
    -85, 228, -44, -310, -210, 54, 73, -226, 
    -43, 19, -211, -18, -86, -39, -287, 319, 
    -197, -295, 282, -20, 173, 181, -176, 67, 
    47, 125, -100, 120, -277, 183, -309, -4200, 
    -113, 172, -78, -22, -6, 115, 79, 69, 
    -54, 101, -49, -93, 62, -114, 94, 3032, 
    17, 112, -184, 156, 161, -20, -149, 24, 
    110, 187, 40, 38, -96, 188, -49, -602, 
    30, 93, 20, 184, 136, -141, -195, -124, 
    -145, 45, 134, 191, 14, -126, 92, 32, 
    10, -69, 118, 190, -129, -39, 54, -89, 
    -150, -3, -4, 187, -124, 183, 121, 1051, 
    -187, 71, 13, -179, -104, -164, -167, 12, 
    171, 190, 97, -175, 168, 40, 190, -435, 
    163, 113, 62, -50, 178, 179, 191, -53, 
    67, -118, 19, -196, 170, -41, -50, 1003, 
    133, 67, 143, -40, 176, -62, -8, -155, 
    -83, 55, -112, 101, 70, 110, 155, 145, 
    -102, 25, 165, -152, 8, 189, 62, -163, 
    8, -18, 164, -80, -142, -62, -158, 272, 
    -184, -38, 45, 33, -21, 86, 29, 162, 
    112, -144, 119, 128, -98, -23, -136, -850, 
    -11, 152, 44, -185, -122, -120, -119, 48, 
    132, 113, -46, 29, 90, -83, 167, -334, 
    -2, 64, 1, -141, -192, 77, 0, -156, 
    -160, 182, 1, -91, -35, -13, 125, 186, 
    55, -155, -139, 95, 42, -174, 110, -93, 
    -143, -110, -114, -109, 13, 137, -147, 1430, 
    -140, 65, -86, -63, -32, -8, 192, -131, 
    -123, -164, -20, 48, -40, 7, -80, -146, 
    -144, -177, 31, 136, -14, 63, 152, -103, 
    -53, -54, 150, -57, -46, 117, -32, 682, 
    24, -81, -81, -128, 92, 63, 175, -180, 
    189, 4, 173, 105, -183, 182, -43, 1619, 
    125, -48, -76, -153, 93, 118, -172, 128, 
    -43, -152, -142, -87, -145, -163, 125, 1778, 
    -138, -39, -31, -254, -21, -54, -5, 90, 
    240, -45, 87, -47, 254, -238, 108, -818, 
    -53, -86, 210, 236, 118, -174, 158, 58, 
    -222, 69, -238, 149, 231, -52, 121, 694, 
    193, 198, 0, -12, 246, -193, 203, -152, 
    229, -162, -244, -241, 52, -246, 128, 2796, 
    87, -131, -129, -118, 149, -67, -167, 53, 
    -221, -97, 3, -98, 176, 146, 22, 1831, 
    239, 96, 228, 160, -217, -148, 1, 28, 
    -145, 248, 175, -261, -90, -241, -218, -1526, 
    -69, 22, 170, 183, -257, -114, -256, -36, 
    -165, -229, 154, 136, -13, 162, -203, 1678, 
    264, 203, -269, 119, 19, 133, 258, 33, 
    -13, 166, 95, -77, 105, 103, 258, 2725, 
    97, 11, 38, 205, -232, -124, -248, 120, 
    -184, -42, -237, -73, -64, -169, 141, 543, 
    231, -76, -12, -157, -72, 169, -200, -122, 
    -88, 239, -183, 168, 50, -24, 212, 2609, 
    29, -199, 3, -189, -110, -39, -82, -216, 
    222, 125, 169, -53, 200, -159, 69, 680, 
    -250, 9, 60, -129, -57, 135, 219, -59, 
    -3, -65, -188, -56, -266, 255, 197, 1448, 
    -161, -171, 41, -267, 183, -21, -27, -174, 
    -111, 154, -35, 94, 45, -131, -141, 2141, 
    226, -24, 155, -98, 207, 131, 225, 219, 
    217, -208, 173, 183, 178, -193, 124, -677, 
    -38, -37, -261, -132, -113, -169, 213, 123, 
    1, 195, -202, 114, 49, 78, -207, -322, 
    -118, 128, 2, 183, 15, 0, -250, -51, 
    -194, 88, -86, -80, -86, -159, 218, 1754, 
    -179, 77, -156, -28, 242, -116, -107, 218, 
    68, -99, -191, -154, 149, 45, -79, 1300, 
    -57, -11, 98, 85, -58, -59, 34, -108, 
    -102, -118, -87, 3, -27, -12, 36, -473, 
    -8, 4, 112, -84, -81, 62, -26, -39, 
    -45, 62, 110, 81, 1, -60, 89, 1284, 
    -61, 119, 13, 47, 23, -103, -43, 4, 
    28, 117, -26, 4, 89, -43, -118, -565, 
    -17, -1, 52, -62, -10, -52, 106, 45, 
    -1, -33, 75, -19, -99, 12, 81, -173, 
    54, -121, -42, 54, 19, -98, -47, -31, 
    52, -26, 52, 120, -52, -29, 30, -699, 
    58, 109, 47, -18, -118, -65, 6, 122, 
    -78, -91, -51, -74, -93, 30, 51, 512, 
    62, 94, 49, 82, -31, -55, -41, -18, 
    95, -113, 56, -71, 56, -72, 83, -1867, 
    -97, -35, 66, 85, 49, -78, 91, -64, 
    -6, -42, 87, -78, 17, -109, 114, -384, 
    47, -71, -113, 25, 11, -36, 10, -66, 
    -109, 75, -56, -1, 122, 29, 15, 932, 
    34, 113, -80, 54, 56, -9, -113, 85, 
    -38, 62, -62, -47, 4, 60, -92, 677, 
    -56, -28, 7, -92, 114, -20, 81, 26, 
    40, -109, -65, 66, -118, -55, 30, 681, 
    -110, -7, 33, 68, -77, -70, 6, -25, 
    0, -60, -114, -59, 109, 42, -26, -1857, 
    -57, -36, -51, 42, 109, -115, -3, -2, 
    112, -33, 67, 44, -71, -119, -76, -21, 
    -93, 25, 102, 104, 31, -62, -106, 64, 
    58, -90, -40, -111, -122, 62, 102, -105, 
    -101, 113, -99, -39, -97, -68, -70, -98, 
    -28, 2, -23, 46, -14, 75, -27, -233, 
    0, 28, 76, 109, -63, 60, -116, 12, 
    -76, -40, -15, 8, 97, 46, -18, -673, 
    -143, -22, -90, -98, 206, -198, 163, 243, 
    -178, -198, 52, 84, 209, -193, 82, -1880, 
    -62, -37, 206, 90, -200, 39, -5, 95, 
    -45, 0, -114, -170, 224, 221, -147, 1229, 
    7, 211, 37, 83, 69, -11, -13, -56, 
    76, 191, 174, -108, 80, 56, -163, -968, 
    96, -120, 177, 0, -122, -129, -206, -134, 
    7, 13, 193, 92, -31, 209, 234, 616, 
    -35, 121, 156, -239, -88, 82, 85, -14, 
    -104, 71, 186, -217, 128, -37, -74, -3824, 
    69, 4, -32, -202, -221, -196, 121, 91, 
    176, 142, 177, -208, 125, 138, 15, -334, 
    177, -35, -58, 189, -159, 154, -1, -3, 
    33, 6, -44, -220, -141, -145, 93, -1790, 
    -245, -93, 198, 165, -62, 230, -179, -35, 
    -149, 126, 1, 190, 125, -1, 182, 1601, 
    -150, 136, 81, 236, 245, 183, 46, -97, 
    74, 2, 92, -198, 68, -135, 153, 610, 
    -188, 206, 174, -61, 67, 111, -69, 111, 
    143, -75, 187, -94, -93, 0, 223, 114, 
    -229, 197, 233, 106, -141, -12, 198, -241, 
    233, -160, 207, -237, -186, -90, -155, 2557, 
    210, 237, 44, 61, -198, -21, -184, 118, 
    145, -131, 198, -124, 122, -219, 218, -641, 
    48, 130, -209, 167, 2, 214, -152, 49, 
    -62, -165, -184, 20, -126, 226, 16, -1839, 
    70, 134, -234, 112, 229, 146, -179, 181, 
    163, -42, -132, -88, -117, -65, -15, -2013, 
    160, 53, 215, 73, 199, -46, 181, 136, 
    -63, 10, 71, -210, 217, 69, 176, 43, 
    102, -123, 166, -159, -148, 105, 197, -2, 
    -206, -96, 181, -40, -63, 160, -61, 574, 
    -90, 147, -19, 121, -73, 26, 128, 85, 
    -32, 5, 158, -80, 53, 29, -70, 1540, 
    -24, 90, 58, -121, 150, -119, 101, -151, 
    157, -37, -10, -144, -135, -162, 25, 427, 
    -1, 159, -77, 164, -130, 35, 107, 120, 
    131, -99, 71, 137, 30, 147, -148, 685, 
    -158, -17, -57, 1, 140, -30, -141, -84, 
    -79, -32, 150, 100, 48, -79, 167, 734, 
    56, 31, -136, 2, -3, -129, -165, 171, 
    114, 95, 113, -84, 98, -104, 157, 596, 
    -11, 83, -22, -10, -142, -82, -33, -43, 
    55, 131, 105, 37, 143, 99, 28, 3446, 
    -24, -35, 125, 8, 136, -71, -137, 115, 
    -34, 170, 112, 115, -18, 42, 99, -431, 
    40, 107, 7, 67, -28, -2, 122, 148, 
    -141, 52, 157, 135, 57, -33, 150, 1211, 
    5, 104, 10, -79, 132, -119, 152, -109, 
    69, -44, -18, 167, -67, 54, 105, 973, 
    -43, 62, -79, -132, -147, -169, -114, -103, 
    69, 127, -150, 47, -60, -67, -102, 63, 
    -67, -64, 104, -112, -124, 75, -11, -25, 
    -33, -102, 143, 81, 144, 151, -132, -1023, 
    92, 110, 115, 102, -40, 150, -62, -55, 
    44, -88, -50, -60, -16, 72, -95, 135, 
    2, -157, -110, -167, 170, -18, -146, -142, 
    -106, -101, -124, -62, -152, -39, -62, 699, 
    -1, -164, -90, 162, 91, 71, -72, -38, 
    90, 64, 32, -22, 106, 48, -30, 1110, 
    153, 42, -143, -88, -85, -19, -89, -84, 
    -65, 50, 68, -66, 156, 131, -82, 643, 
    -115, -126, -31, -26, -130, 108, 153, 151, 
    -57, -114, -116, -75, 167, -46, -144, -540, 
    -310, -127, 162, -25, -236, 143, -181, 34, 
    -75, -107, 5, 85, -280, -65, 180, 891, 
    -258, 67, -266, -133, 109, -67, 172, 32, 
    -295, -134, -155, -161, -245, -49, -161, 3009, 
    241, -231, 15, -181, -192, 105, -17, -67, 
    -298, -172, -118, 11, 297, -47, 125, 1426, 
    -35, -296, 68, -295, 232, -273, -120, 205, 
    222, -75, -20, 153, 115, -307, -38, 1887, 
    -220, -125, 74, -25, -100, 35, -8, -39, 
    276, -283, 115, 281, -59, 86, -5, -2843, 
    -250, 9, -172, 244, 314, 302, 299, 243, 
    -273, -230, 305, 281, 135, 259, 188, 1169, 
    4, -186, 225, 20, 212, -43, 38, 156, 
    -26, 57, -186, -159, -230, -136, 9, -1434, 
    305, 164, 228, 0, -313, -216, -53, -107, 
    -126, -280, 70, 262, -128, -158, -115, 648, 
    226, -315, 36, 174, -157, 146, 183, 305, 
    48, -27, 180, 11, 139, 27, -79, -646, 
    -101, 300, 208, 215, -208, 192, 87, 280, 
    265, -271, 128, -267, 108, 99, 306, 1539, 
    -59, -225, 296, 184, -296, 63, 239, -154, 
    6, 290, -242, 14, 161, -171, -5, 2871, 
    106, 165, 235, -71, -148, -101, 116, 200, 
    -232, -52, -172, 47, 121, 70, -220, 850, 
    -42, -25, -136, -153, 51, -66, 127, 77, 
    72, -160, -81, 39, -243, 100, -43, -1704, 
    -109, 132, -150, 116, -271, 8, 301, 313, 
    73, 288, -85, -247, 121, 219, 159, -3189, 
    170, 274, 136, 248, -230, -198, 311, -76, 
    -19, 41, -24, -264, 91, 9, 223, -1208, 
    28, 108, -237, 241, 248, -3, 167, -259, 
    -296, -190, -63, 71, 3, 284, -35, -3503, 
    -183, -71, -102, 380, -366, -229, -144, -352, 
    -68, -45, -114, 93, -83, 304, 125, 2369, 
    129, -150, 301, 79, -87, 118, -254, -287, 
    -169, 249, -172, 39, 26, 348, 372, 138, 
    -111, -345, 246, -245, -184, -78, 359, 253, 
    273, 68, 194, 92, 124, 248, -94, 502, 
    -295, 81, 88, -228, 226, 305, 258, 213, 
    -240, -337, -284, -84, -117, 362, -1, -4457, 
    58, 119, -193, 374, 291, 123, 305, 253, 
    14, 280, 245, -54, -361, -68, 23, 450, 
    7, -327, -366, 308, -101, -253, 198, 173, 
    -310, -338, -144, -44, -93, -107, -133, 1530, 
    -49, 100, 382, 96, 263, 318, 1, 101, 
    -221, 33, 70, 125, 323, -166, 92, -2324, 
    380, 346, -78, -130, -163, -326, -214, -315, 
    322, 142, 196, -57, -214, -44, 136, -572, 
    345, -230, 350, -186, 230, 283, 199, -288, 
    300, -223, 285, -317, -34, -190, 19, -3293, 
    134, 107, 331, 258, -349, -98, -45, 16, 
    263, 199, -158, -176, -143, -296, -298, -3559, 
    190, -29, -118, 231, 353, -356, 316, -301, 
    -94, -274, 131, -178, -69, -79, -365, -3247, 
    -377, -177, -80, 183, -197, -305, -272, -154, 
    337, -152, -260, -136, 281, 88, -54, -1434, 
    -194, -374, 91, 89, -215, 69, -385, -259, 
    -300, 360, -195, 67, 112, 328, 130, 3320, 
    125, -175, -276, 290, -373, 111, -236, 60, 
    341, -56, 304, -86, 250, -324, 333, -1703, 
    -295, -265, -244, 77, -137, 171, -233, 106, 
    -311, 144, -268, 335, -1, -102, 299, 1480, 
    242, 96, 221, -197, 194, 225, 193, -151, 
    -254, 298, -71, 38, -380, 56, -315, -6137, 
    217, 158, 152, 105, -219, -82, 202, -212, 
    58, 98, -28, -5, -160, 2, 120, -1958, 
    95, 136, 80, -106, -175, 167, 57, 99, 
    152, 29, 58, -215, 192, -76, -241, -1971, 
    -180, 241, 5, -87, 114, 238, 198, 244, 
    129, -115, -26, 155, 57, 111, 70, -3264, 
    -8, -104, 84, -157, 77, 62, 195, -165, 
    -8, -248, -180, 111, -83, -34, 13, 1405, 
    -248, 50, 129, 163, 88, -203, 12, 43, 
    -143, 109, 48, -44, -74, -3, -26, -1960, 
    -122, 225, 113, 98, -170, -11, 106, -29, 
    -125, 36, -214, 124, 175, 64, 124, -323, 
    103, 84, 14, 170, -8, 44, -90, 155, 
    99, 92, 36, -99, -93, -119, 142, 374, 
    162, -204, -70, -136, 170, -189, 117, 91, 
    -103, -206, -19, -248, -123, -171, -174, 3756, 
    -91, -20, 199, -94, -239, 145, 92, 70, 
    -31, 226, 83, 122, 211, 153, -148, -211, 
    164, -118, -216, -108, -130, 75, -33, -172, 
    221, 29, -176, -211, -79, 198, 151, 398, 
    105, -124, 229, 227, 223, -10, -172, -189, 
    -34, 5, -11, -164, -42, 174, 210, 1520, 
    -83, -66, -35, 43, -249, 26, -46, -66, 
    69, -48, -219, 72, 166, 200, -224, -705, 
    -224, -130, -172, 202, -108, 207, 23, 113, 
    -13, -9, 38, -61, -15, -177, -201, 530, 
    -120, -67, -181, 58, -15, 99, -23, -228, 
    -189, 250, 104, 68, -17, 152, -85, 522, 
    200, 182, -11, 137, -7, 172, 58, -151, 
    190, -73, 38, 194, 63, 33, -75, 1976, 
    68, -125, 166, -243, -229, 180, -16, -123, 
    -2, 162, 86, -65, 200, -107, -184, 1649, 
    151, 44, 92, -70, 13, -22, -125, -5, 
    -71, -109, 30, -147, -103, -19, 129, -181, 
    -1, -153, 36, 54, -60, 120, 60, 72, 
    46, -150, -114, -106, -83, 38, 17, 593, 
    93, -126, -97, -29, -99, -30, -25, 29, 
    103, 36, -19, 64, 29, -131, -52, -1183, 
    -21, 51, -56, -17, -98, 29, -2, 37, 
    -27, 98, -100, -32, -46, 5, 64, 793, 
    -116, 37, 71, -83, -131, 65, -121, 119, 
    -135, 38, 146, 35, 130, 69, -89, 107, 
    -141, 64, -67, 96, 47, 126, 92, 16, 
    -149, 54, -19, 12, -101, 97, -105, 298, 
    -126, -38, 148, -66, 0, 15, 47, 41, 
    -27, 9, 70, 25, -48, 50, 132, -1551, 
    -105, -9, 75, -77, 90, -103, -138, -126, 
    -89, -87, 26, -25, -125, 49, 103, 1845, 
    -28, 146, 105, -124, -136, -93, -25, -130, 
    48, 144, -141, 148, -152, -54, -72, 1139, 
    2, 5, -61, 8, -31, 69, 91, 30, 
    -47, 46, 22, -13, 80, -29, 93, 1920, 
    -29, 55, 149, -17, -36, -23, -78, -115, 
    50, -82, -144, 96, -67, -75, -137, -1321, 
    -61, 83, 114, -109, -89, 150, 119, -36, 
    84, -59, -105, 13, -71, 131, 75, 989, 
    1, -72, 90, 109, -122, -150, 152, -87, 
    -34, 71, -100, -61, -21, 130, -23, -367, 
    -18, 122, 143, -94, -47, -112, -107, 119, 
    -145, 19, -27, -110, 147, 124, -40, -982, 
    -53, 6, 123, 82, -63, 115, -124, 24, 
    126, -29, 98, -140, 141, 26, 57, 1308, 
    -13, -126, 59, 124, -90, 94, -5, 81, 
    -25, 117, 53, -116, 47, -25, -25, 479, 
    -192, 214, -105, 55, -2, -176, 162, 20, 
    -72, 60, 103, -132, 47, 106, 61, 2403, 
    51, 56, 203, -120, 180, -177, 191, -77, 
    -18, -131, -57, -86, -219, -21, 83, -1444, 
    78, 133, 100, -2, 108, -179, -41, -43, 
    172, -194, 8, -195, -143, -216, -38, -127, 
    -111, -61, -62, -202, -183, -23, 140, -111, 
    35, -211, 31, 160, 174, 28, 73, -3013, 
    188, 8, 160, 69, -63, 71, -170, 74, 
    -71, -189, -52, 49, -75, 64, -125, -296, 
    -64, 40, -138, 28, 4, -207, 154, 88, 
    -196, 182, -185, -95, 220, 207, 89, -3802, 
    -80, 211, 100, 196, -111, 173, 186, -201, 
    39, 93, -119, 91, -148, 45, -128, 2463, 
    196, -16, -117, 55, 101, 154, 183, -134, 
    -168, 199, 143, -41, -162, 138, -56, 129, 
    0, 149, 39, 88, -217, -114, 134, 189, 
    12, -195, -26, -41, -161, 47, 184, 1026, 
    -124, -218, 209, 134, 99, -224, -197, -88, 
    -158, -61, 202, 157, 182, -133, 121, -1137, 
    205, 215, -157, 63, 98, -225, 128, 137, 
    -91, 116, -53, 40, -97, 158, -109, 632, 
    205, 74, 138, -87, -193, 16, -12, -53, 
    -69, 144, 39, 155, 23, -160, 222, 1770, 
    -139, 58, -45, 218, -30, 98, -136, -34, 
    63, 186, 121, 205, -29, 102, -53, -1197, 
    -185, -57, -143, -155, 107, 158, -143, -184, 
    -136, 30, -15, 49, 97, -93, -112, 294, 
    -161, 158, 154, -174, -71, 35, 10, -191, 
    -41, -163, 53, -127, 197, 36, -12, 233, 
    -42, 114, -214, -219, -188, -178, -17, -67, 
    92, 223, -5, 10, -36, -23, -212, 14, 
    23, 40, 14, -18, -137, 126, -23, 84, 
    -114, 88, -37, -153, -38, 46, -76, -284, 
    -16, -143, -74, -136, -67, 61, 0, -50, 
    -23, -166, -19, -132, -133, 115, 19, 412, 
    12, -63, -144, -137, 157, -107, 78, 118, 
    -15, -7, 57, 55, -141, -102, -60, 1121, 
    153, -155, -95, -164, 160, -167, -145, 41, 
    -16, -92, 10, -55, -155, -33, -77, -215, 
    131, 137, 149, 9, 125, 97, 82, 43, 
    124, 150, -133, -155, -154, 165, 85, 414, 
    -163, -121, -136, -62, 52, 12, 22, 107, 
    -69, -45, 32, -21, 66, 86, 135, -361, 
    -126, -97, -16, 59, -81, -56, -2, -141, 
    19, -163, -140, 67, 64, 93, 144, -205, 
    165, 70, -18, -129, -132, 104, 77, -19, 
    56, 135, 105, -110, 91, 71, -61, -1604, 
    -56, -171, -58, 164, -53, -120, 12, -84, 
    23, 162, 122, 25, -76, 37, 28, 1191, 
    79, 93, -105, 151, -105, -105, -56, 162, 
    -97, 27, 54, 144, -66, -86, 11, 959, 
    -67, 106, -158, -123, 157, -35, -12, -41, 
    -13, -16, -71, 54, 36, 0, -115, 663, 
    -10, 3, -124, 124, 160, -78, -167, -29, 
    -155, 70, 3, -40, 10, -154, -107, 848, 
    -14, 119, -80, 62, -12, -8, 37, -130, 
    108, 146, -23, 121, -149, -69, 99, -4109, 
    -2, -77, -79, 112, -14, 84, 89, -92, 
    150, 1, -66, -39, 122, -55, -86, 1007, 
    -113, 150, 91, 147, 85, -124, 125, -162, 
    -150, -3, -65, 4, 1, 86, -24, -3470, 
    107, -128, 137, -65, -20, -114, 60, 138, 
    144, -58, 56, -93, -128, -65, 163, 872, 
    -159, 112, 128, 181, 17, -91, -127, 5, 
    179, 68, 57, -148, 1, 117, -57, 443, 
    -121, -77, -165, 46, 80, 181, 35, -167, 
    164, 98, -175, 151, 168, -7, -187, -260, 
    36, 50, -111, -41, -98, 173, 81, 74, 
    90, 170, 90, 1, 77, -129, 42, 2255, 
    -57, 58, 76, -181, -142, -54, 19, 71, 
    -176, 174, -130, 104, -35, 56, 67, -949, 
    154, 59, -144, -161, -93, 50, -73, -160, 
    168, 160, 170, -153, 186, 186, 80, 726, 
    26, 180, 87, -66, 23, -66, 54, -129, 
    167, 59, 171, 0, 151, 136, 158, -531, 
    125, 187, 23, -146, -185, 183, 15, -155, 
    -8, -33, 52, 49, 12, 191, 107, 422, 
    114, -133, -27, 109, -167, 107, 85, 29, 
    -66, -110, -8, 38, 133, -1, -89, 832, 
    113, -91, -28, -43, 52, 9, -166, -178, 
    -78, -148, -40, 23, -161, -98, -155, 1196, 
    -50, 167, 27, -55, -176, 170, 71, 69, 
    -107, 129, -71, 38, -166, 160, -97, 1419, 
    38, 189, -5, 50, -15, 101, -107, -8, 
    20, -106, -74, -1, -90, -57, -39, -335, 
    63, -123, -116, 19, 171, -51, -191, 75, 
    104, 185, -8, 71, 59, -184, 66, 1619, 
    -106, 101, 117, 2, 26, 41, -4, -7, 
    -39, 8, -168, -55, -130, 89, 27, -1173, 
    127, -93, 172, -107, -136, -158, 180, 25, 
    -166, 143, -34, -18, -39, 29, 82, 2071, 
    140, -122, 167, -62, 156, 64, -67, -56, 
    156, 125, -35, -34, 104, -134, -55, 42, 
    -33, -71, 45, -130, 105, 63, -16, -67, 
    126, 9, -178, 135, 90, -176, -128, 1190, 
    -45, 60, 163, 17, -206, 148, 69, 152, 
    206, 36, -67, -78, -97, 145, -6, 575, 
    230, -94, 171, -209, -62, -176, -132, 127, 
    75, -96, 165, -42, 68, 192, 55, 27, 
    -141, -186, 64, 125, 125, 68, -10, -58, 
    101, -156, 111, 123, -23, 142, 75, 2757, 
    -27, 102, 176, 148, -139, 0, 179, 131, 
    -131, -118, 9, -90, 1, 198, 74, 352, 
    2, -73, -161, 43, 139, 103, 216, -197, 
    -216, -202, 167, 7, 111, -194, 23, 1691, 
    -147, 231, 67, -77, 89, -1, -94, 155, 
    -202, -27, -92, 136, 103, -225, 101, 213, 
    36, 74, 60, -119, 192, 187, 142, -151, 
    145, 25, -173, 187, -206, 123, -50, -169, 
    -16, -11, 65, -45, 45, -209, 155, 41, 
    -38, -207, 145, -27, 162, -219, -35, 1720, 
    -57, 78, -103, -92, 75, -172, 226, -225, 
    -129, 148, 210, 4, -192, -30, -105, 4207, 
    -57, -2, 205, -145, 61, 132, -165, -175, 
    -110, -218, 201, 74, -204, -189, 52, 1885, 
    -141, 233, -142, 40, -189, -54, -204, -77, 
    221, 155, 151, 218, 132, 34, -220, -168, 
    -37, -74, 180, -84, -45, -29, -35, -116, 
    -113, 51, 45, 31, -74, 33, 127, 80, 
    -62, 135, -108, -173, 22, -137, 109, 95, 
    218, -152, -48, 91, 103, 85, 193, -522, 
    -168, 40, -113, -160, -208, 69, 77, 200, 
    97, -32, 49, 184, 10, -50, -141, 1995, 
    194, -44, -86, 191, 39, -112, -20, -29, 
    -177, 25, 43, -94, -93, -74, -11, 913, 
    223, 213, -142, 26, 25, 114, -178, 140, 
    -173, 48, -143, 13, 46, -28, -211, -854, 
    -10, -138, -238, 78, -31, -125, -27, 99, 
    85, -82, -135, -287, -201, -307, -12, 682, 
    174, -310, -265, -109, -238, 253, -1, 163, 
    7, -180, -276, -9, 301, 280, -27, -3291, 
    -134, -3, 73, -318, -246, -270, -4, -5, 
    323, 265, -51, -14, 193, -191, -273, -1812, 
    -158, 48, -169, -138, 255, 148, -248, -182, 
    -182, 22, -10, 323, -109, 14, 315, 1545, 
    -148, -233, -305, -131, 255, 153, 119, 28, 
    -252, 232, -95, 46, -55, 251, -248, -960, 
    298, 201, -273, 116, -54, 302, -19, 97, 
    51, 218, 14, 317, 54, -209, 294, 1027, 
    -216, 108, -170, -1, 170, -117, 134, 39, 
    85, 165, -143, 208, 258, 155, -136, -1263, 
    310, -245, -114, 9, 46, -284, -11, -132, 
    -153, 64, 50, 307, -3, -272, -14, 2471, 
    6, -264, -308, 295, 65, 83, -4, 106, 
    98, -64, 211, -184, 74, -267, -292, 3476, 
    317, -149, -171, 134, -98, -90, 136, 167, 
    141, -71, -79, 272, -16, -143, 67, 1857, 
    -225, -74, -274, 109, -35, 16, -217, 45, 
    197, -67, -98, 167, 292, 215, -212, 755, 
    185, 138, -103, -91, 289, 93, -70, -229, 
    -138, -80, 303, -183, -32, 211, 152, -5163, 
    198, -34, -132, -51, 153, 99, 294, 162, 
    -147, -212, 37, 1, 118, -17, -271, 2101, 
    89, 236, 220, 309, -224, -163, -260, -314, 
    285, 284, 50, -87, -140, -64, 97, -301, 
    -279, -111, -131, -68, 323, 290, 204, -132, 
    237, 138, -143, 324, 249, 169, -58, 1289, 
    125, 308, -59, -119, 307, 94, 308, -121, 
    -39, -73, 214, 47, -62, 178, -307, 2261, 
    -32, -154, 102, 247, -124, 276, 207, -126, 
    -277, 209, -249, 272, 16, 267, 131, 493, 
    -70, -7, 71, -83, -158, 200, -130, 187, 
    -22, 266, 88, -153, 210, 67, 86, 1766, 
    233, 260, -282, 110, -128, 79, -254, 128, 
    16, -14, 49, -170, -241, 105, -22, -2487, 
    -146, -215, -190, -66, -142, 255, 204, 222, 
    170, -198, -102, 92, -234, -205, -113, -1284, 
    269, 24, 187, 105, 129, -20, 156, 15, 
    1, 118, -175, -263, -6, 97, -141, -1464, 
    -250, 24, 110, 36, 72, 219, 242, 158, 
    186, 206, 222, 119, -135, -131, -235, 2101, 
    -23, -232, -47, -23, -196, 149, -61, -170, 
    -283, -92, -122, -245, 46, -281, -124, -2235, 
    169, 197, -259, -245, 52, 165, 256, -80, 
    281, 55, -89, -37, -218, 41, -209, 124, 
    -64, -19, 209, -51, -39, -185, 143, -249, 
    169, 89, -91, -200, 183, -21, 88, 900, 
    -235, 27, -224, -159, -256, 41, 92, -111, 
    -74, -109, -88, 126, -64, 0, 0, 3322, 
    164, 84, -137, 20, 233, 60, 5, -12, 
    -84, -106, -120, -143, -118, 169, -199, -2454, 
    -107, 62, 272, -71, 187, -272, -34, 172, 
    165, 29, -258, 67, -60, 61, -246, -1574, 
    23, 58, -281, 37, -234, -51, 210, 238, 
    -249, -196, 153, 149, 73, 262, 85, 1074, 
    64, -14, 208, 5, 10, -112, 22, -57, 
    -211, -172, -76, -73, 60, -43, 262, -2658, 
    -175, 227, -133, 227, -121, -37, -44, 37, 
    -37, -114, -261, -253, 121, 134, -5, -738, 
    93, 229, -10, -91, 24, -100, -47, 220, 
    -64, 85, 241, 263, 209, -3, 45, 992, 
    -141, 107, 108, 9, 171, 30, 28, 40, 
    -164, 41, -77, 121, 113, -107, -90, 1363, 
    -101, 141, -38, 60, -20, -40, -103, -151, 
    -88, -142, 114, -85, 172, -47, 97, -1, 
    -22, -123, -8, 92, 53, -144, 9, 35, 
    50, 124, -110, -27, 77, -14, 171, -712, 
    -17, 10, -55, -49, 175, -92, -2, -15, 
    153, 66, -66, -23, 135, -143, 146, 690, 
    -133, -134, -64, 120, 166, 56, -56, -64, 
    -86, 131, -173, -99, 103, -33, 112, 457, 
    141, 107, 40, -132, -14, -3, -21, -176, 
    95, 159, -45, 88, -23, -98, -175, -1095, 
    98, -157, -82, 142, 128, 22, -69, 65, 
    147, -141, -13, -138, 57, 96, 17, 3752, 
    -153, -160, -158, -141, 162, -178, 39, -169, 
    174, -143, 125, -172, 123, 130, -9, 1005, 
    167, 142, -142, 77, 132, -136, -83, -14, 
    175, 66, 29, -55, 21, -70, -10, 713, 
    172, -114, -172, -108, 144, 167, 161, -112, 
    50, 19, 34, 74, -57, 122, -150, -723, 
    87, -33, -25, -93, -76, -128, 95, -32, 
    167, 49, -109, 161, -179, 55, 59, 812, 
    146, -174, 137, -124, 160, 13, 168, 6, 
    77, -91, 129, 43, -67, 119, -143, 1013, 
    84, -20, -153, -169, -103, -82, 24, 174, 
    -125, 140, 33, -20, -150, -176, 159, 315, 
    -122, 85, -48, 147, -41, 44, 102, 98, 
    114, -46, 156, -83, 12, 61, -50, 1211, 
    -1, 134, 130, -102, -69, 127, -158, 129, 
    -101, -85, -48, 147, 20, -164, 98, 504, 
    32, -134, -22, -86, -159, -79, -178, -123, 
    -151, -125, -19, -122, -66, -104, 84, 1786, 
    -11, 31, 16, -41, 177, -70, 28, -24, 
    85, 159, 174, -157, -55, -36, -95, -498, 
    -105, 141, -112, 133, 117, 173, -36, 149, 
    -171, 38, 73, 71, -85, 186, -27, 3013, 
    179, -183, -103, -14, -97, -16, -142, 14, 
    29, -164, -12, 57, 101, -19, 58, -1199, 
    -83, -158, 129, -188, -122, 110, -109, 128, 
    140, -189, -99, -161, 73, 123, -49, -45, 
    86, 101, 127, 85, -20, 63, 101, -190, 
    -121, 65, 41, 197, 49, -99, -129, -1324, 
    -68, 54, 122, 88, 18, -70, -27, -2, 
    -97, -42, -159, 57, 76, -75, -160, -207, 
    181, -183, -94, 3, 179, 35, -98, 36, 
    3, 124, 23, 103, -191, 149, -18, -1517, 
    -111, -191, -186, 140, -52, -96, -174, -174, 
    -152, -169, 105, 25, -96, -5, 37, -1192, 
    129, -91, 54, -16, 151, -190, -133, 26, 
    23, 144, 64, -43, -18, -154, -23, -598, 
    36, -90, 143, 109, -177, 182, -192, 26, 
    -190, -84, 52, 51, -79, 95, 91, 1624, 
    87, -79, 4, -177, -122, -33, -95, 139, 
    -28, -172, -115, 57, -2, 47, -95, 849, 
    -29, -187, -15, 162, 40, 59, -172, 103, 
    -142, 30, -8, 194, 42, 123, -17, -515, 
    25, -10, 37, -4, -86, -193, -26, -83, 
    -147, -164, -11, 41, 132, -96, 182, -488, 
    -103, -22, -87, -191, 172, 178, 2, 90, 
    47, -12, 68, -68, -126, 37, -169, -1568, 
    -86, -154, 77, 166, 4, -138, 13, 48, 
    -93, 3, 85, 36, 79, -42, -191, -2183, 
    -64, -188, 133, 57, 146, 125, 63, -109, 
    -117, 184, -157, -120, -34, 11, -179, -1015, 
    -67, 0, -126, 144, -153, -21, 74, -162, 
    -100, 20, 105, -26, -154, -167, 124, -1775, 
    93, -19, 180, 105, 51, 162, 57, -52, 
    105, 118, -153, 165, -132, 69, -48, 298, 
    -44, -160, 116, -109, 65, -184, 162, -118, 
    9, -20, 81, 62, -62, 57, 44, 327, 
    46, 180, 71, 111, 52, 59, -97, 38, 
    75, 41, -172, 147, 9, -123, -120, -916, 
    30, -110, -14, 117, -48, -114, 143, -8, 
    -62, 49, -53, -6, -88, -154, 78, -31, 
    165, -105, 5, 52, 13, 97, -132, -40, 
    161, 121, 57, 122, 64, -56, -51, 444, 
    34, -144, 183, -86, -168, 47, -148, -149, 
    147, -37, -62, 100, 141, -72, -161, -235, 
    51, 62, -8, 179, 41, -157, -56, -156, 
    43, 37, -65, 0, -128, 49, 62, -292, 
    81, -156, 72, -185, 44, 25, 143, -114, 
    79, 139, -129, 87, 57, 118, 10, 708, 
    -138, -115, -108, -70, 171, 151, 28, -107, 
    -111, 116, -130, -92, -86, 162, 102, -1617, 
    35, -83, 93, -38, 26, -154, -51, 105, 
    85, -171, 175, -89, -166, -130, 18, 623, 
    149, -110, -143, 107, 58, -101, 162, 134, 
    -8, 5, -32, 17, 6, 12, -165, 4483, 
    -65, -80, -58, 57, 134, 8, -154, 145, 
    -141, 27, 77, 179, -83, 133, 157, -411, 
    -139, 91, 120, -157, -119, -27, -124, 144, 
    -41, -101, -169, 55, -103, -122, 156, -1008, 
    87, -71, 2, 94, 32, -178, 44, 169, 
    -25, 157, -12, 131, -173, 116, -81, 989, 
    105, -166, -113, 67, 168, 173, 151, 159, 
    22, 37, 119, 95, -87, 47, -23, -784, 
    -51, 176, -197, -79, 87, -71, -171, 202, 
    99, -71, 149, 62, -192, 119, 177, -441, 
    95, -176, -111, 205, -122, 210, -177, -47, 
    65, 78, 113, -121, -25, -128, -68, -202, 
    24, 116, 10, 107, 47, 141, 6, 107, 
    -174, 94, 21, -172, 210, -21, -185, 1404, 
    -183, -23, 184, 104, -59, -103, -55, -4, 
    -123, 26, -108, 146, -95, 83, -5, 1710, 
    13, 169, 32, 125, 157, -128, -125, 195, 
    26, -107, -156, 38, 170, -112, 66, 966, 
    -48, -164, 10, 20, 49, 61, -172, 191, 
    33, -193, -116, 145, -140, -93, -176, 602, 
    52, -99, 208, -121, 169, -109, 159, -169, 
    -203, -175, -143, 69, -125, 65, 69, 75, 
    -172, 133, -169, -25, 175, -117, 98, 198, 
    -66, -72, 84, 37, 207, -78, 8, -850, 
    -25, 62, -111, -9, 49, -157, -51, 81, 
    -137, 44, 174, 21, -171, 53, 142, -568, 
    -206, 113, 184, -36, 62, -92, 86, 45, 
    208, 69, -63, -39, 143, -72, -42, 38, 
    -200, -26, -95, -16, 44, 63, 155, 167, 
    155, 61, 206, -43, -28, -158, -142, 1837, 
    -30, -63, 32, -44, -81, 130, -211, -46, 
    197, 146, 124, -44, 89, 27, -126, 2918, 
    187, 127, -42, 109, -162, -75, 158, 132, 
    65, 9, 35, 181, 92, 58, -61, -1216, 
    0, 29, 45, 70, -119, 25, 39, -26, 
    182, 45, 91, -153, -51, 121, -12, -1960, 
    -12, 120, -116, -118, 101, -17, -166, -4, 
    60, 190, 116, 141, -77, -87, -46, -30, 
    124, -18, -111, -53, 134, -141, 199, -209, 
    -179, -202, 62, -14, -141, -20, -69, -2343, 
    132, 234, 156, 162, 54, 65, -173, 178, 
    168, -3, 102, -122, 52, -251, -17, -318, 
    138, -190, 100, -53, 1, 143, 125, 135, 
    67, -156, -95, 240, 34, -155, -169, -300, 
    -29, 18, -108, 157, -73, 250, 90, -125, 
    -116, 27, 51, -137, -189, -167, 227, -446, 
    219, 129, 103, 28, 148, 200, -34, -151, 
    -13, 14, -130, -71, -149, -21, -78, -1587, 
    -13, -247, 42, 81, 217, -77, 207, -145, 
    110, -79, 10, -235, 218, -126, -77, 3874, 
    -30, 73, 104, 162, -252, -225, 4, -55, 
    -236, 50, 8, 134, -50, -235, 212, -602, 
    -24, 241, -212, -194, -118, -89, -199, -220, 
    216, 222, 252, 162, -172, -142, 53, 213, 
    -205, 20, -158, 154, -84, -4, 116, 36, 
    -183, 38, -55, -147, -138, -1, -119, 469, 
    -235, 223, 188, -215, 0, -1, 155, -31, 
    46, -15, 157, 55, -225, -18, -129, -1941, 
    43, -139, 159, 170, -191, 3, 71, -138, 
    153, 26, -179, -190, 24, -41, 107, -653, 
    29, 139, 235, 197, 31, -18, -244, 73, 
    -155, -149, -51, -169, 140, -24, -51, -1242, 
    133, -130, -26, -136, 116, 176, 150, -179, 
    128, 228, 0, -96, -94, -33, 121, -1442, 
    -210, 205, -47, -192, 207, -179, 192, -17, 
    240, 253, -3, -208, -74, 133, -168, -2397, 
    -154, -129, 41, -29, -223, 1, -163, -28, 
    150, -37, 250, -215, 79, 249, -93, -1302, 
    84, -169, 107, -137, 149, -217, 149, -247, 
    -139, 10, 218, 168, -8, 85, 167, -1092, 
    -2, -48, 116, 204, -179, -69, -100, -131, 
    -99, -202, -153, 13, 27, 221, -33, -1324, 
    158, -125, -25, 24, 298, 169, -222, -164, 
    265, 129, -188, -246, -144, 79, -127, -4175, 
    -203, 133, 67, -137, 211, -278, 41, 4, 
    57, -236, -250, 75, -193, 168, -312, 955, 
    -317, -114, 82, -202, -266, 137, 281, -287, 
    105, -226, -79, 221, -15, 23, -276, 1966, 
    191, 93, 236, -2, -73, 216, -81, 277, 
    260, 55, 203, -3, 125, -156, 75, 420, 
    153, -306, 83, -245, 110, -293, -67, 200, 
    -151, -247, 110, 99, -124, 249, -301, 27, 
    -224, 226, 25, 277, -145, -239, -215, 281, 
    -128, -315, 305, -56, -96, 256, 53, 2883, 
    78, -258, 186, -232, 223, -161, 223, -200, 
    -147, -84, -165, -33, -93, 297, -92, 846, 
    -167, 304, 272, 195, 216, -35, 144, -67, 
    176, 242, -62, -161, 164, 77, -177, -4196, 
    -291, -225, 319, 315, -12, -39, 229, 9, 
    -257, 91, 191, -313, -45, 90, 36, -594, 
    -38, 64, 72, -111, -271, 72, -84, -207, 
    -29, 224, -72, 279, 26, 271, 191, -367, 
    -63, 187, 26, -214, 46, 320, -18, -205, 
    269, -149, 19, -94, -122, 257, 74, 1016, 
    -62, 123, -127, 323, 183, 274, -304, -106, 
    -158, 32, 286, 267, -19, 27, 217, 487, 
    78, -9, -101, -280, 21, -91, 171, 122, 
    -55, 301, -6, 287, 110, 291, -110, -3515, 
    -306, -178, 219, 250, -121, 10, 250, -257, 
    38, -99, -218, 39, 134, -165, -257, -3908, 
    -78, 87, -301, -29, -231, 115, 222, -166, 
    174, -9, -89, -277, 296, 207, -206, -2627, 
    -129, 251, 0, -175, 195, -71, -271, -165, 
    170, 281, 28, -196, 121, 153, 21, -243, 
    -58, -2, 94, -92, -33, 0, -11, -22, 
    -4, 70, 76, 60, -19, 76, -33, 383, 
    -66, 68, -89, 46, 77, -22, 53, 78, 
    69, 6, 44, 61, 78, -6, -7, 605, 
    81, -46, -5, 32, -24, 42, -69, 62, 
    16, 27, 39, 25, -62, -26, -74, -309, 
    -88, -25, 18, -70, -38, 19, 92, -88, 
    77, -30, 56, 63, 81, 46, 75, 1168, 
    -79, 87, -68, 38, 56, 82, 70, 66, 
    -16, -52, -81, 72, 67, -19, 83, -202, 
    -16, -73, 48, -16, 34, -12, 74, -39, 
    -91, 8, -9, -81, -37, 79, 40, -243, 
    -9, -49, -3, -42, 49, 35, 82, -55, 
    55, -84, 6, -75, -36, 12, 57, 719, 
    -75, -31, -76, 96, 61, -18, -42, -15, 
    70, 42, -22, -1, 0, -3, 0, 259, 
    -74, 65, 43, 18, -16, 64, -12, 37, 
    -8, -55, -24, 47, -58, -70, -59, -406, 
    -86, -72, 50, 15, -4, -64, 91, 40, 
    -10, 45, -43, 25, 45, -74, -40, -592, 
    29, -51, 72, 82, -82, -3, -94, 74, 
    65, 71, 79, 63, -71, 39, 69, -1124, 
    -50, 21, -94, 77, 4, -88, -1, 90, 
    82, -79, 3, -8, -86, 3, -35, 214, 
    10, -26, -3, 23, 3, -55, 6, -10, 
    32, 55, -13, -25, -21, 27, -14, 780, 
    -23, 78, 11, 94, 81, 13, 62, 23, 
    71, -66, 81, -26, -73, -97, 30, -809, 
    -30, 42, 9, 12, -21, -95, -86, 57, 
    -33, -39, -71, -14, 63, -50, -8, 1045, 
    85, -6, -2, 19, 68, -45, 11, -27, 
    -49, 3, 5, 70, 22, 0, 20, 51, 
    13, -33, 97, 15, -75, 28, 31, 48, 
    -4, -50, 13, 76, -78, -38, 0, 249, 
    95, 85, 66, -32, 5, 11, -83, 85, 
    -5, -80, -45, -36, 90, -51, 33, 549, 
    -91, -13, -58, -82, 73, 32, -86, -10, 
    84, -74, 46, -74, -46, 11, 85, 107, 
    -21, 78, 62, 91, -51, 18, -94, -86, 
    70, -32, -97, -94, 64, 42, 25, 1416, 
    32, -18, 82, 43, -43, -41, -30, 20, 
    -40, -64, -25, -77, 76, 44, -2, 61, 
    37, 61, -80, -73, 8, -19, 87, 43, 
    -13, 24, 15, -7, 8, -53, 5, -410, 
    67, 34, -91, 33, 28, 67, 87, 77, 
    90, 12, -29, 82, -18, 2, 70, 859, 
    -27, -14, 7, -30, -30, -25, 1, -69, 
    -9, 93, -63, 39, -57, 76, -24, -86, 
    19, 33, -17, -69, 3, 23, 18, -26, 
    -91, -26, 46, 42, -22, 7, -49, -235, 
    22, 73, -5, -74, 66, 79, -68, 29, 
    -92, -65, -76, -54, 78, -88, 22, -518, 
    44, -81, 16, -18, 19, 42, 6, -3, 
    7, 33, 2, -44, 65, 28, -34, -514, 
    -19, -9, 49, 91, -94, 30, -91, -51, 
    56, 77, -5, -73, -91, 58, 73, -23, 
    57, 8, -6, 61, -1, -64, -10, 49, 
    -32, -61, 2, -65, -7, 67, 66, 1022, 
    -91, 61, 21, -10, -42, -8, -3, 13, 
    -91, 77, -90, 87, 9, -28, -96, -759, 
    -94, 8, -84, -10, -17, 2, -19, -46, 
    33, 48, -31, 12, -31, -95, 76, 1824, 
    38, 90, 81, 25, 33, 38, 47, -51, 
    71, -65, 93, -24, 62, -67, -36, -103, 
    49, 168, -186, 69, 95, 92, -29, -125, 
    -30, -166, 210, 22, -203, 89, -169, -790, 
    -8, 176, 40, 86, -165, -78, 71, -187, 
    -143, -138, -87, 61, -182, 47, 102, -737, 
    59, 38, -179, -39, 66, 176, -155, 152, 
    108, 175, 147, -56, 124, -90, 110, 2242, 
    -141, -128, 186, 96, -181, -52, 21, -109, 
    -149, 149, 2, 62, -80, -135, 124, 510, 
    152, -192, -57, 7, -102, 110, -69, 137, 
    186, -21, 58, 137, 33, -176, -191, -685, 
    36, 89, 195, 196, 106, -46, 168, -153, 
    210, 121, 56, -191, 29, -15, 72, -79, 
    -77, -42, -42, 24, -185, 65, -70, -172, 
    11, -12, 27, 206, 99, 121, -94, 3726, 
    185, 136, 211, -141, -40, 58, 146, -95, 
    -166, 43, -73, -28, -51, 116, 126, -878, 
    31, 35, 182, -115, -103, 21, 0, -81, 
    -162, 3, -74, -7, -211, -114, -12, -1427, 
    -180, -154, 199, -188, 14, 73, 132, -153, 
    -114, -54, -203, -118, -34, -128, 89, -321, 
    -72, -97, 100, 32, 113, -138, 116, 169, 
    -190, -151, 38, 90, -88, -23, -163, 130, 
    97, 180, 161, 65, 181, -136, 41, -33, 
    155, -57, 172, 123, -77, 168, 149, 2605, 
    105, -153, -169, -129, -199, 135, -149, 206, 
    -81, -87, -21, -119, 109, -56, -65, 172, 
    168, 140, 40, 170, 43, -136, -209, -162, 
    -97, 34, -153, 143, 35, -168, -135, -735, 
    -53, 134, 196, -76, -116, 70, 114, 83, 
    195, 72, -171, -105, 199, -122, -112, -228, 
    -88, 99, -48, -183, -63, 202, 117, -165, 
    109, 148, 151, 171, -162, -43, 189, 2441, 
    -24, -11, -66, -15, -86, -76, -8, 6, 
    50, -65, -29, 57, 101, 146, 55, 657, 
    -89, -23, -115, -86, 143, -43, 126, 48, 
    -68, -128, 78, -141, 101, -3, 111, 1080, 
    -42, -82, -54, 49, -88, -16, -19, -96, 
    -142, 116, -76, -83, -52, -92, 38, -725, 
    30, 26, -88, 68, -87, 118, 148, 44, 
    -98, 91, -125, -136, -115, 110, -20, 1666, 
    55, -21, 0, -46, 18, 136, 118, 119, 
    -69, -46, 101, 37, -7, 34, 29, -332, 
    -142, -102, 38, 80, 43, -135, 123, 131, 
    130, 7, -101, -117, 65, 91, 65, -690, 
    -46, 113, 25, 77, 39, -118, 140, -132, 
    59, -26, -34, -85, 148, -99, -39, 1051, 
    103, -111, 46, -77, 39, 90, -17, 90, 
    57, 133, -145, -74, 47, -41, -92, 433, 
    100, -34, 144, 34, -40, -41, -128, -69, 
    135, 71, 80, -47, -89, -39, 2, -358, 
    -30, 93, 31, 144, -117, 82, -86, 136, 
    24, 101, 10, 8, 63, 119, 132, -601, 
    44, 32, 79, 74, -126, 12, -139, -96, 
    111, -103, 119, -78, -77, 132, -57, -1825, 
    120, 86, 83, 111, 104, 127, -88, 17, 
    -100, 103, 108, 11, 36, 68, 6, 601, 
    -4, 146, 71, -56, -52, 90, -115, 33, 
    -127, -34, 15, 124, 13, -69, -70, 909, 
    -55, 132, 36, -70, -102, -100, 133, 57, 
    73, 109, 39, 126, -95, 19, -15, -791, 
    123, 50, 15, 52, -52, -107, 97, -35, 
    -92, 57, 77, -139, -88, -56, -76, 1653, 
    -44, -36, -140, 141, 101, -70, 66, 112, 
    107, -147, -122, 3, 40, -37, -144, 650, 
    64, 97, -80, -26, 72, -101, -6, 39, 
    101, 11, -92, 0, 50, 10, 17, -580, 
    0, 22, 106, -70, 79, 10, 85, -83, 
    -78, 28, -51, -92, 37, -22, 74, -1816, 
    2, -16, -43, 55, 89, 21, 72, -111, 
    51, 66, -8, -46, 69, 73, 43, 23, 
    -17, -64, 45, -108, 55, -40, 60, 44, 
    -17, 0, 110, -57, -44, -67, -97, -1231, 
    -65, 76, 28, -63, 79, 46, 39, 22, 
    -79, 65, -7, -7, -42, 73, 103, -377, 
    76, -112, -47, 111, -49, 42, -99, 100, 
    -72, 38, 63, 69, 32, 41, 2, 116, 
    -9, -37, 3, -94, -81, -111, -104, 68, 
    13, 95, -42, -74, -60, 83, 73, 231, 
    54, 78, 102, -104, -16, 57, -21, -30, 
    -28, -10, -92, 65, 26, -99, -95, 650, 
    20, 49, 65, 100, 98, -56, 26, 0, 
    -60, 83, 85, -43, 30, 28, -19, 673, 
    68, -100, 76, -5, 37, -67, -31, -36, 
    -65, 54, 57, 6, -111, -38, -48, 1899, 
    -88, 52, 76, -17, -25, -34, 70, -36, 
    -28, -71, -56, 39, 18, -17, 38, 725, 
    -22, 45, 10, -59, -19, -27, -29, -29, 
    -92, -61, 59, -88, -40, -55, -74, -646, 
    106, -42, 82, -90, 3, 4, 46, 69, 
    -67, -65, 93, -64, 49, -108, -36, -12, 
    -31, 54, -56, -47, 37, -49, -37, -28, 
    -26, -9, 28, -23, -44, 49, -20, 503, 
    15, 88, 22, 108, -50, -56, -84, -26, 
    103, 95, -45, -9, 55, -92, -73, -514, 
    -15, 77, -90, 89, -82, -21, 48, -102, 
    84, -111, 48, -2, -39, -72, 104, 154, 
    119, -90, -78, 45, -41, -141, 126, -96, 
    164, -137, -14, -124, -84, 77, 90, -836, 
    -158, -105, -43, -169, 75, -150, 143, -20, 
    -137, -46, 32, -71, 30, -129, -48, -1755, 
    -5, 104, 161, -149, -120, -95, 76, 87, 
    95, -118, 145, 19, 19, 82, -124, -2259, 
    69, 114, 76, 112, -55, 7, 19, 128, 
    -14, -144, 95, -41, 95, -34, -158, -1010, 
    36, 81, -121, 72, 141, 140, -18, -85, 
    143, 19, -60, -109, -117, -152, 113, -950, 
    83, 43, 57, 128, 144, -18, 132, -33, 
    16, 19, -50, -12, 50, 149, -5, 777, 
    76, 154, -31, -76, -22, -13, 21, 142, 
    111, -129, 19, -140, 149, -137, 29, 1074, 
    -30, -156, -38, 45, -91, -14, 68, -64, 
    50, -98, -53, 157, 78, 64, -22, 3253, 
    -133, -105, 55, -98, -29, -17, 143, -85, 
    -132, -101, -88, -121, -4, 130, 34, -39, 
    154, -28, -27, -81, 86, -1, -106, 103, 
    88, 128, -2, 156, 100, -116, 15, 116, 
    40, -28, 156, -155, 157, -123, 75, -138, 
    -122, 1, 118, 25, -53, 26, 40, 192, 
    90, 77, 20, -42, 133, 79, 41, 80, 
    116, 47, -142, -121, -85, 88, -65, -172, 
    169, -159, 38, -153, 20, 137, -139, -166, 
    100, 11, -160, 111, -46, -22, -69, -581, 
    13, -74, 146, -73, 99, -126, 6, 115, 
    -79, 137, 3, 1, -61, -155, -125, 1117, 
    -128, 132, 166, 33, 35, -36, 84, -93, 
    153, 85, 136, 71, 55, -97, 81, -252, 
    -44, 157, -153, 169, 138, 124, 0, 138, 
    16, -111, -13, 20, -6, 123, 21, 1133, 
    -30, 122, 29, -144, -57, 34, -63, 74, 
    130, -33, 68, -16, -18, -191, -77, -15, 
    76, -106, 171, 120, -108, 16, -118, -95, 
    -54, 186, 92, -18, 9, -47, -102, -1048, 
    -96, 38, 16, -147, -122, 92, -153, 44, 
    -188, -157, 51, -134, 100, 164, 126, -376, 
    -50, -84, 33, -152, -2, 168, -152, 162, 
    -56, 143, -28, -168, 122, 102, -13, -1314, 
    96, 35, -56, -97, -130, -189, -67, -117, 
    150, 23, -161, -8, 169, -39, 134, 617, 
    29, 34, -90, -181, 134, 46, 135, -138, 
    11, 81, 27, 99, -45, -125, -47, -1530, 
    -95, 95, 62, 93, 113, 19, -147, 44, 
    1, 7, -84, 19, -48, -55, 186, 2374, 
    -27, -175, -126, 112, 111, 47, -91, 84, 
    145, -34, 38, 9, -159, 8, 105, 543, 
    141, 177, -88, 64, -28, 27, -70, -167, 
    130, -100, 51, -111, -142, 112, -123, 1144, 
    102, 101, 178, -30, 17, -113, -52, 159, 
    -113, -73, -161, -14, 109, -131, -60, -1134, 
    109, -35, 22, 24, 59, -84, 32, -112, 
    156, 21, -108, -50, 176, 35, 70, -3597, 
    -101, 3, -179, 141, 55, 161, 194, -57, 
    -101, 148, 48, -126, 7, 193, 184, -149, 
    125, 89, 143, -142, -1, 131, 130, 158, 
    -8, 38, -104, -28, 18, 43, 129, -833, 
    148, -97, -79, -131, 160, 171, -94, -7, 
    -14, 70, 81, 54, -114, -89, 71, 1110, 
    77, 168, -9, 162, -110, 165, -139, -165, 
    116, 46, -59, -23, 137, 189, -165, -384, 
    -47, 104, -160, -112, 4, -164, 188, -118, 
    2, 78, 90, 103, -26, 65, 120, -1992, 
    -41, 187, -274, 243, 26, -147, -19, 229, 
    181, -116, 126, 129, 148, -188, 66, -1068, 
    36, -259, 179, -211, -101, 6, 126, -18, 
    134, 54, -11, 228, 92, 77, 115, -562, 
    115, -73, 12, -110, 126, -159, -94, -156, 
    193, 145, -290, 255, -251, 197, 160, 740, 
    10, 51, -262, 199, 0, -190, -184, 214, 
    -58, 129, -196, 132, 241, -16, -154, -829, 
    -166, 136, -255, -126, 161, 212, -132, -44, 
    -95, 203, -239, -249, -88, -150, -91, 2024, 
    185, 242, -88, -16, -282, 233, -258, 203, 
    85, 97, 252, -170, 192, 92, 17, -2741, 
    -11, -250, -252, 207, 186, -175, 3, 60, 
    -64, -38, -30, 251, -281, -240, -72, -4263, 
    185, -191, -282, -83, -187, -24, 5, -124, 
    -12, -249, 177, -233, 138, -140, -233, -625, 
    -165, -250, -144, 170, 223, -35, 132, -197, 
    29, 279, -46, 35, -100, 33, -186, 2728, 
    -65, -51, 112, -226, -145, 186, -179, -204, 
    279, -240, -126, -189, -290, 91, 20, 2125, 
    -3, 44, 188, -270, 13, 251, 41, -208, 
    -220, -124, 20, -37, 288, -1, -1, 1548, 
    137, 149, -140, 31, -102, 44, -151, -95, 
    262, 137, -185, -101, 147, 269, 284, -4109, 
    17, 154, -268, -13, 269, -57, -76, -276, 
    270, -226, 215, 42, 18, -44, -62, -322, 
    -85, 208, -2, -193, 186, -125, 273, 144, 
    -34, -38, 187, 288, -64, -234, 215, -3, 
    -222, 49, -20, 192, -29, 28, -32, 176, 
    -270, -233, 59, 2, 175, 273, 181, -919, 
    94, 191, 237, 242, -204, 5, 92, -16, 
    289, 181, 31, 270, -243, 163, 19, -808, 
    -11, 50, 1, 19, 37, 49, -19, 53, 
    10, 11, 45, 10, 51, -19, -16, 172, 
    -36, 34, -45, 23, -12, -1, 13, -31, 
    51, -28, 47, 13, 8, 15, 43, 28, 
    30, 21, -33, -37, 10, -5, -52, -34, 
    3, 2, -39, 14, 2, -53, -2, 194, 
    -48, 40, -10, 32, -26, 27, -33, -11, 
    -13, 45, 34, -11, -46, -9, 9, 375, 
    33, 42, 14, 11, -10, -10, 41, -10, 
    -33, -8, -36, -35, -51, 19, -52, -125, 
    -35, 30, -5, 9, 41, 17, 51, 45, 
    3, 25, -6, -25, -13, 52, -42, 200, 
    -10, 10, -14, -45, 11, -7, 16, 9, 
    20, 27, 12, -7, 35, -38, 2, 798, 
    -42, -16, -51, -24, -3, 37, 29, -49, 
    -27, 38, -32, 24, 36, 36, -12, 40, 
    -5, -49, -17, -15, 28, 41, 12, -34, 
    -20, 35, -18, 53, 13, -48, 26, -485, 
    29, 6, -36, -5, -37, -6, -42, 13, 
    45, -29, -1, -11, -46, 36, 53, -357, 
    -26, -5, 6, -42, 16, -53, -47, 30, 
    41, -40, -38, 42, 49, -36, -40, -167, 
    38, 21, 51, -44, 51, 38, -53, -48, 
    13, -43, 48, -48, -14, 23, -36, -266, 
    -2, -27, -30, -27, -25, 37, 7, 8, 
    0, 17, 53, -36, 2, -15, -32, 455, 
    45, 42, -20, 7, 12, -22, -12, 41, 
    -44, -40, 16, 14, 13, -51, 0, -724, 
    40, 38, 24, 47, -23, 2, 52, 49, 
    5, 37, -38, -10, -27, 24, -29, 270, 
    -51, 22, -12, 18, -46, 48, -28, -14, 
    -45, 7, 51, -34, -33, 46, -20, 13, 
    -96, -5, -56, -94, -12, 98, 17, -91, 
    90, 3, 47, 69, -90, 64, -19, 431, 
    -92, 21, -79, -71, 100, 64, 62, 70, 
    12, -55, -80, 104, 64, -53, -102, 566, 
    92, 69, -37, 102, -83, -98, -50, -3, 
    -5, -3, 61, 9, -8, -12, 45, -73, 
    20, 0, 30, -77, 68, 20, 83, -93, 
    -65, -31, 6, -103, -95, 61, 101, 1319, 
    -9, -18, -10, 71, 26, -84, -43, -93, 
    71, -8, 51, -57, 87, -35, 102, -66, 
    24, 78, 10, 80, 38, -53, 11, 68, 
    102, 31, 5, -10, -53, 67, 37, -472, 
    47, -94, 90, 46, -27, 33, 9, 92, 
    -33, -53, -93, 80, 83, -67, -12, 959, 
    -77, -103, -36, 60, 43, 73, 57, -18, 
    -1, -95, -81, -14, -72, 3, 59, 79, 
    9, 101, 73, -66, 50, 96, 14, -83, 
    79, -65, 20, 8, -18, 61, -27, -95, 
    -77, 76, -30, -83, -27, 56, 35, 85, 
    -81, 88, -73, 12, 82, -15, 18, -574, 
    -98, 52, 37, -84, -9, -33, -15, 38, 
    -90, -25, -89, -51, 32, -90, 2, -1013, 
    -102, -95, 82, 32, -24, 38, 2, 17, 
    -16, 42, 76, 70, 23, 91, 70, -70, 
    34, -33, 88, -74, -18, -8, 77, -53, 
    -66, 97, 0, -12, -52, 78, 93, 995, 
    43, -48, 6, 42, 0, 18, 19, 69, 
    -88, -19, 1, 46, 25, -69, -68, -953, 
    73, -65, 54, -25, 70, -43, 76, -50, 
    -61, -70, -21, 40, 16, 46, 11, 1480, 
    -84, 26, 78, 16, -52, -35, 18, 103, 
    -32, -15, 97, -77, 60, -93, -33, 352, 
    60, -132, 66, -71, 119, -109, 48, 4, 
    -31, 178, 148, -58, -2, -175, 97, -791, 
    -59, 82, -82, -144, 39, -87, 111, 159, 
    8, -181, -138, 120, -127, -100, -42, -460, 
    143, 140, 190, -111, 47, 193, 59, 156, 
    28, -177, -44, 190, 85, 143, -18, 1552, 
    0, 29, -12, 176, 37, -192, 110, 32, 
