#ifndef WEIGHTS_BIAS_INT32_H
#define WEIGHTS_BIAS_INT32_H

#include <stdint.h>

static const int32_t WEIGHTS[] = {
10, -29, 31, 76, 27, 31, 35, 23, 
    -28, 8, -2, 7, 24, 44, 32, -18, 
    -90, -86, -17, -5, 23, 72, 50, 7, 
    44, -18, -15, -3, -13, 69, -39, 27, 
    39, -36, -17, -11, 32, -11, 37, 39, 
    32, -9, 32, -15, 22, -18, 35, -31, 
    -25, 16, 49, -73, -54, -68, -30, 19, 
    -18, -23, 27, 20, 24, -2, 13, -33, 
    -57, -65, 39, -6, 9, 3, 27, 54, 
    11, 1, -33, -16, 20, 44, 27, 22, 
    -16, -18, 34, 7, 86, 78, -97, -186, 
    -160, -39, 40, -21, -12, 76, 50, 57, 
    12, -1, -21, 62, 80, 147, -24, -3, 
    50, -58, 48, 32, -71, 108, -138, -90, 
    25, -12, 15, -21, 1, 37, 172, 188, 
    -16, 46, 42, -15, -10, -12, 11, -38, 
    50, -50, -65, -68, -84, 10, 111, -144, 
    -198, -20, -9, -21, 17, -143, -20, 51, 
    20, -6, 12, -37, -52, -20, 22, 15, 
    7, -4, 0, 6, 25, 16, 14, -40, 
    -38, -26, 18, -31, -10, -24, 12, -28, 
    10, -7, 14, -8, -17, -26, 4, 19, 
    19, 38, 40, 9, 7, -21, -6, -28, 
    -49, 8, -21, -20, -1, -14, 16, 1, 
    -67, -38, 15, -6, -8, 13, 14, 23, 
    -28, 38, 27, -24, -22, -52, -23, 23, 
    -3, -12, 9, 4, -3, -25, 16, -18, 
    8, 19, -22, 110, 129, 90, 55, -7, 
    -47, -25, -39, -14, 5, 28, -33, 57, 
    7, 140, -30, 69, -38, -8, -113, -12, 
    28, 22, 45, -28, 14, -9, -13, 16, 
    -10, -13, 0, -32, 27, 45, -36, 48, 
    22, 4, 42, -44, -8, -27, 19, -29, 
    -18, 59, 45, -61, -55, -96, 43, -3, 
    -12, -31, 40, -42, 1, 14, -27, -11, 
    -2, 2, -15, -11, -18, -10, -45, -27, 
    28, 3, 37, -8, -28, 56, 47, -3, 
    -11, -28, 20, -37, -9, -19, 4, 27, 
    40, -34, 7, -43, -1, -56, -33, 17, 
    -40, -39, -41, 14, 13, -33, -13, 20, 
    -8, 1, -11, 5, 12, 17, -3, 11, 
    19, 0, 19, 15, 9, -13, 27, -8, 
    -63, -48, 25, -31, -3, -85, -32, -3, 
    -2, 0, 59, 66, -23, 23, 6, -44, 
    -9, -16, -1, 23, 20, -19, 37, 21, 
    -13, -10, -33, 92, 57, -5, -49, 35, 
    -18, -62, -29, -52, 5, 25, -8, 45, 
    38, 26, 3, 12, 23, -14, -35, 1, 
    207, -267, -489, -319, 816, 366, 445, -407, 
    150, -720, -134, 715, 330, 583, -455, -574, 
    -98, 704, 129, -744, 386, -1227, -1013, 779, 
    538, 276, 462, 285, 36, 580, -380, -4, 
    387, 730, -54, 407, 218, 547, 88, -116, 
    325, -114, 278, 572, 700, -32, -608, -233, 
    15, -392, -460, 236, -211, 28, -783, -143, 
    261, 370, -217, -394, -293, 408, -373, -189, 
    6, -220, -1145, 558, 15, 386, -666, 67, 
    -833, 407, -510, 378, -412, -36, 40, 77, 
    -400, 230, 155, 799, 213, -384, 265, 490, 
    382, 483, -132, -427, -289, -717, -184, 383, 
    534, -99, 383, -414, -452, 409, -786, -507, 
    153, 302, 183, 217, 257, -225, 335, 330, 
    -552, 124, 628, -42, -208, 359, -271, 447, 
    38, 219, 472, 118, -378, 222, 382, 103, 
    -270, 68, -402, -374, 198, 244, -689, -309, 
    352, 129, -166, -387, -198, -585, -327, 278, 
    -256, -25, 73, 273, -80, -10, 1040, 905, 
    1016, 130, 864, 384, -369, -299, -266, 264, 
    456, 179, 126, 38, -97, -461, -427, 235, 
    335, 450, -52, -561, 35, 66, -510, 455, 
    355, 54, -165, -200, -370, 120, 374, 49, 
    -52, -740, -631, 288, 164, 55, -73, -579, 
    -54, -336, -1104, 145, -92, 492, -335, -316, 
    -660, 707, 175, -545, 276, 87, -484, 384, 
    565, -87, -27, 303, 143, 1070, -325, -91, 
    -943, -852, 670, -77, -176, 852, -517, 176, 
    -294, -473, -279, -570, 487, 181, -647, 557, 
    525, -482, -525, -145, -616, 281, -108, 12, 
    100, -756, 282, -276, 538, 231, -240, -440, 
    -1145, 392, -20, -559, 219, -313, -495, -223, 
    281, 211, 715, 96, -363, -361, -708, -8, 
    319, -455, -356, -657, 37, -653, -274, -19, 
    754, -267, -638, -470, -273, -663, -457, -709, 
    239, 196, 369, -680, -296, -536, -259, -377, 
    228, -216, -366, 572, 583, -479, -700, 173, 
    354, -528, 539, 384, -585, -20, -52, 307, 
    -512, 377, 116, -61, -1054, -398, 192, -137, 
    -835, 340, -13, -517, -1028, -1149, -335, 715, 
    -279, -649, 10, -464, -327, 187, 41, 691, 
    -378, -272, -799, -786, -910, 115, 227, -1069, 
    337, 630, -52, 876, -331, -319, 209, -561, 
    -559, -364, -165, 422, -149, 301, 9, 895, 
    98, -872, 589, 649, 445, 401, -1021, -988, 
    -522, 385, 524, 123, 318, -1623, -57, 435, 
    -741, -750, 186, -391, -512, 118, -134, 424, 
    -697, 34, -625, 434, 489, -895, -54, -510, 
    -25, -170, 52, -672, -702, 7, -306, -568, 
    9, 463, 362, -226, -458, -505, 351, -83, 
    442, 95, 866, 418, 226, 600, 3, 505, 
    -39, -138, -177, 585, 186, 42, -501, 169, 
    -150, -238, -94, -483, 144, 201, -533, -648, 
    44, -475, -14, 252, -394, 60, -47, 82, 
    331, -139, -135, 283, 518, 589, 34, -240, 
    124, 47, 285, 29, 165, -423, -148, -223, 
    278, 243, 36, 247, -705, -486, 357, -255, 
    530, 15, -619, -413, -54, 564, -492, -222, 
    869, 547, -292, -416, 53, -299, 577, 338, 
    -633, -217, -286, 6, 336, 204, -216, -374, 
    -934, -474, -26, 136, 11, -991, 319, 884, 
    723, 127, 546, -334, -731, -791, -163, -365, 
    -718, -192, -1079, -854, 237, 265, 383, -1084, 
    947, 763, -173, -570, -47, 394, -193, 216, 
    1222, -880, -904, 128, -483, 12, 29, -651, 
    -192, 68, 433, 411, -191, 66, -263, 470, 
    -959, -1244, 414, -988, 159, 160, -66, -813, 
    -434, -574, 761, 74, -878, -900, -944, -148, 
    425, 10, -1118, -645, -473, -754, -37, 775, 
    27, -855, 401, -1147, 223, 524, -209, -1004, 
    288, -134, 145, -385, -771, -895, -336, 42, 
    85, 432, 84, -329, 750, -100, 595, 978, 
    -253, -11, 337, 327, 709, 515, 87, -69, 
    38, 117, 135, -69, 31, -13, 203, 140, 
    73, -100, 243, 220, -358, -247, -24, 469, 
    -22, -277, -37, 50, -781, -785, 56, 539, 
    386, 43, 87, -30, -398, 270, 16, 776, 
    733, 482, -197, -36, -296, -102, 84, -80, 
    -5, 159, -50, -195, 525, -146, -338, -516, 
    351, 438, 299, -346, 966, 728, 353, 440, 
    102, 159, -64, 62, 261, -95, 321, -35, 
    206, 235, -20, 170, 338, 249, 126, -168, 
    207, 50, -156, -161, -96, -338, -466, -138, 
    73, -59, -210, 289, -242, 84, 180, -42, 
    1000, 974, 294, 402, 140, 37, -456, -83, 
    -1245, 345, -268, 440, -28, -605, 119, 98, 
    236, -88, -55, 356, -559, 1006, 762, 453, 
    -265, -1039, -1377, -381, -998, -464, -671, -872, 
    -651, -615, -289, 412, 597, -296, -313, -96, 
    -485, -379, 449, -490, 297, 60, -215, -396, 
    851, -137, -25, 649, -442, 116, -102, -114, 
    327, 653, -193, -1014, 96, 410, 529, 879, 
    258, -975, -426, -411, 119, -693, -264, -775, 
    -211, -476, 500, -550, -909, -47, 450, -263, 
    -877, 6, 505, -356, -5, -254, -682, 494, 
    236, -506, 175, -494, -133, 219, -984, -27, 
    657, -517, -1036, 286, 812, -363, -450, 1190, 
    1339, 79, -453, 344, -687, -370, -697, -786, 
    -1115, 188, 64, 248, -295, -648, -1149, -886, 
    120, 377, 1188, 356, -137, -26, -266, 278, 
    801, 340, -1144, 707, -620, -1212, -1015, -278, 
    -44, -329, -617, -382, -113, -779, -67, -433, 
    -179, -824, -124, -353, -108, -864, 1391, 1384, 
    126, 628, -50, 699, -114, -795, -24, 319, 
    -451, 273, -946, 146, -690, -947, -121, 503, 
    -72, -732, 213, -67, 251, 162, 346, -150, 
    -573, -1171, -1093, -164, 528, -928, 14, -303, 
    -610, 477, 322, -383, -426, 500, -19, -321, 
    196, -806, -772, -344, -180, 178, -520, -583, 
    -23, -264, -601, -372, -289, -565, -97, -594, 
    311, 149, -284, -436, -493, -29, 212, -193, 
    -13, -268, 443, 132, 786, 909, 204, 334, 
    352, -41, 27, 36, -637, -545, -887, -817, 
    -173, -656, -296, 177, 71, -350, -289, -19, 
    296, 397, 470, 292, 566, 14, 69, -228, 
    -566, -504, -511, -322, -349, 197, -114, -571, 
    374, -475, 523, 463, 484, 396, -421, -4, 
    -586, -158, 346, -471, 47, -199, 236, 296, 
    671, -21, -207, 16, -393, 128, 382, -66, 
    -711, -218, 318, 526, 351, -618, -183, -42, 
    562, 360, -770, 110, -296, -134, 133, -838, 
    319, 728, -11, -524, -110, -439, -314, 1133, 
    174, 286, -194, -609, 304, 714, 663, 987, 
    -804, -751, -79, 201, 1110, 631, 373, -125, 
    -395, -530, 25, -1015, 1008, -170, 549, -52, 
    -621, 161, -318, 338, 428, -313, 446, 790, 
    188, -322, -1289, 214, -690, 536, 367, -528, 
    161, -893, -149, 310, 21, 124, -321, 96, 
    -215, -527, 380, 745, 135, -706, 341, 323, 
    575, 521, 542, -548, 696, 454, -78, -317, 
    49, 381, 805, 6, 106, 678, 860, -569, 
    -135, 196, -376, 177, 802, 260, 198, -524, 
    350, 531, 527, -369, 79, -154, 437, -39, 
    124, 106, 90, 196, -187, -94, 67, -109, 
    210, -24, 508, 245, 183, -293, 81, -90, 
    498, 114, 49, -263, 487, 206, -17, 259, 
    4, -517, 115, -299, 19, 382, 175, -421, 
    -92, 185, 469, 472, 281, -132, 131, 389, 
    -69, -47, 90, -39, -29, 388, 243, 78, 
    36, 154, -11, 380, 42, -372, 23, -357, 
    -268, -40, 22, 142, -265, 117, 315, 164, 
    252, 139, 191, -329, 324, 18, 183, 400, 
    73, 412, 421, 334, -151, -195, -26, 289, 
    45, 641, 38, -35, -121, 29, -118, 295, 
    400, 305, -374, 16, 236, 261, -404, -49, 
    200, -109, 227, 432, 35, -48, 32, 111, 
    87, 673, 230, -138, 441, 698, 468, 628, 
    -62, -97, 359, 57, 831, 870, -5, -454, 
    -410, -726, 210, -98, 461, 178, 373, 295, 
    -533, 297, 601, 371, 436, -121, 140, 148, 
    33, 146, 28, 327, -18, 286, 236, -302, 
    -223, 14, 500, -409, -144, -74, -246, -258, 
    -514, 61, -351, 401, -347, -125, -463, 0, 
    368, 525, 434, -371, 167, -445, -236, 373, 
    0, 204, 462, 140, -359, 548, 536, -163, 
    720, 479, -349, 90, 380, -190, 378, 313, 
    269, -627, 506, -620, 104, -803, 624, -307, 
    508, -576, 576, -137, -174, -114, 79, -154, 
    773, 432, -11, -72, 600, 878, 941, -148, 
    127, 1071, -74, -315, 933, 1141, 12, -146, 
    -724, 787, -352, -385, 563, 316, -247, 295, 
    235, 738, -520, 833, 700, -457, 125, 195, 
    -530, -233, 208, -847, 707, 132, 124, -285, 
    -1710, -137, 732, -765, -574, -288, 648, 484, 
    736, -52, 390, -808, -617, -220, 861, 133, 
    -520, -97, -453, -629, -383, -4, -404, 138, 
    477, 151, 355, 872, -254, -92, 711, 749, 
    801, 1025, -758, 67, -599, -360, 353, -111, 
    2, -62, 135, 1115, 283, 1221, 271, 352, 
    818, -756, 200, 620, 818, 913, -316, 305, 
    -598, -317, 1303, 973, 814, 1205, -1076, 6, 
    -388, -336, 1199, -948, 105, -1649, -926, 92, 
    911, 231, -234, 178, 454, -126, -310, -8, 
    1092, 709, 399, 336, -473, 355, 852, 613, 
    1072, 848, 1027, 1279, 453, -287, 47, 147, 
    -53, -720, 593, 144, 1032, 412, 617, 441, 
    529, -588, -953, -886, -657, -404, 719, -339, 
    -480, 10, -1070, -373, 406, -899, 413, 437, 
    288, 610, -435, -220, 342, -185, -1205, -6, 
    -32, -809, -355, -1518, 593, -346, 8, 969, 
    674, 903, -853, 456, -383, -584, -639, 679, 
    1223, -504, 801, 122, -321, 689, -240, -527, 
    -59, -637, 822, -275, 652, -33, -798, 7, 
    425, 982, -29, 119, 387, -805, 596, 1039, 
    985, 326, 1141, 301, -824, 126, -674, 14, 
    -327, 561, 175, -32, -788, -90, 113, -34, 
    1362, 265, -74, 1361, 619, -784, 254, 524, 
    -872, -679, -335, 495, 307, 52, 267, 166, 
    108, 532, 121, 1130, 335, 330, -508, -302, 
    1041, 447, -766, 469, -128, -280, 1500, 696, 
    -766, -309, 161, -207, -329, 137, -784, -1162, 
    -673, -733, -1229, -560, 673, 27, 519, 755, 
    -463, -27, 297, -538, -365, -2, 95, -175, 
    297, -337, -336, 385, -339, -491, 134, 209, 
    8, 410, 412, -335, 312, 9, 158, 236, 
    314, 296, 68, 607, 523, -49, -406, 194, 
    56, -351, -204, -66, -156, -80, 7, -583, 
    -319, -373, -312, 309, 266, -244, -89, -273, 
    72, 556, -15, 369, 606, -29, -96, -782, 
    -844, -68, -108, -593, -51, -182, 136, -391, 
    -484, -190, -743, -20, -85, -433, -54, 282, 
    10, 54, -312, -281, 416, 213, 164, 535, 
    107, -25, -157, 127, 51, 324, 434, 171, 
    245, 331, -305, 174, 127, -133, 198, 312, 
    357, -138, 276, -110, 363, -289, -643, -1126, 
    -589, 173, 43, -495, -327, -427, 119, 272, 
    124, -402, 685, -392, 126, 580, -58, 432, 
    -774, -556, 200, 123, -147, 547, -437, -238, 
    -769, -328, -686, -672, -295, 285, -357, -502, 
    83, 82, -94, 179, -236, -689, -19, 30, 
    -203, -209, -447, -432, -188, 464, 922, 1008, 
    943, 115, -425, 213, 158, -3, -204, -545, 
    533, 443, 364, 309, -94, -588, -64, 516, 
    312, -152, -155, -586, 92, -257, -142, 319, 
    664, 405, -542, -707, -478, -404, -286, 285, 
    -325, -36, -172, 216, 51, -319, 132, 148, 
    -93, 172, 342, -566, 372, 66, -64, 452, 
    -254, -219, -275, -594, 536, 456, 482, -213, 
    -124, 267, 475, -47, 259, 239, 200, -402, 
    -40, -205, 344, 170, 201, 69, 153, 447, 
    22, 439, 517, 682, -428, -298, 401, 530, 
    234, 559, 248, -98, 318, 583, 721, 729, 
    -114, -256, -428, -46, 56, 235, 130, -236, 
    -397, 251, 560, 318, -318, -24, 172, -172, 
    -113, 515, 658, -75, -16, 46, 751, 228, 
    333, 120, -59, 839, 819, 411, 223, -447, 
    5, 114, 403, 260, 150, 217, -21, 287, 
    277, -68, -261, 528, -219, -354, -270, -89, 
    487, 229, -306, 404, -182, 55, -794, -491, 
    -1054, -776, 214, 7, -49, 618, 244, 177, 
    -527, -567, 557, -645, 111, -603, -320, -644, 
    475, -444, -591, 657, 648, 383, -426, 385, 
    -149, -507, 844, 687, -181, 426, -432, 297, 
    -176, -417, -305, 386, 132, 559, -476, -376, 
    -12, 420, 785, 776, 830, 580, -652, -2, 
    -1031, 178, -60, -617, -350, 26, 464, -13, 
    152, -649, 537, 610, 588, 169, -280, 373, 
    250, 389, -805, 111, 252, 270, 223, 865, 
    -151, -321, -527, -147, 839, 376, -384, 52, 
    557, 647, 509, 101, -620, -623, 109, -350, 
    -22, 432, 205, -258, -836, 140, 319, 297, 
    340, 688, -878, -64, 553, 95, -85, 487, 
    -311, -529, 423, 1044, 402, 1757, 1632, 817, 
    -200, -232, -411, 897, 237, 1505, -354, -511, 
    -12, 22, -1116, 442, 449, 286, -172, -164, 
    83, -695, -188, -21, -343, -144, 545, -14, 
    -948, -1234, 369, -683, -32, -507, 124, 607, 
    -827, -435, 422, -593, -950, -226, -195, 634, 
    185, -234, 486, -835, -432, -168, -822, -624, 
    -193, -247, 361, -409, -659, 33, -1425, -70, 
    803, -235, 70, -826, -78, -483, 543, 437, 
    -509, -79, 271, 508, 125, 371, 529, 102, 
    -51, -266, 487, -524, -344, -390, 822, 991, 
    240, -583, 82, -93, 85, 62, 292, -749, 
    -198, -98, -213, 176, 189, -446, -369, -443, 
    494, 716, 309, -614, -791, -968, 64, -640, 
    45, -297, 176, 178, -60, -92, 210, 96, 
    -302, 597, -31, 263, -379, -556, -925, -233, 
    169, 514, 969, 96, 699, 762, 643, 488, 
    42, 659, 16, -289, -222, -246, -108, -369, 
    68, 568, 670, 115, -138, 64, -518, -525, 
    -180, -385, 13, -777, 24, 391, 758, 515, 
    47, -178, -53, 384, -600, -661, -661, -540, 
    331, 398, 186, 183, -93, -118, -270, 484, 
    -867, -1133, -145, 186, 680, 711, 373, -533, 
    279, -52, -116, -215, 162, 411, 75, 20, 
    289, 286, -121, -811, 43, 18, 871, 1172, 
    -329, -224, 255, 509, 121, 1072, -665, 833, 
    -245, 420, 140, 221, 98, -411, -176, 185, 
    54, -573, -74, 66, -233, -310, 318, 150, 
    18, 451, -687, -272, 168, -75, -602, -1156, 
    286, 163, -702, 809, 207, -765, 338, -493, 
    -291, 34, -263, 81, 575, -217, -879, -302, 
    -542, 497, -542, -703, 394, -342, -578, -736, 
    -1102, -454, -702, 125, 135, 306, -226, 224, 
    82, -135, -764, -1146, -1000, 312, 159, -694, 
    -556, -8, 163, 254, 75, 141, -13, 308, 
    -660, -381, -570, -354, -121, -174, -240, -443, 
    -682, 61, -135, 74, -220, -187, -54, -321, 
    -136, 48, -225, 811, 525, 506, -327, -433, 
    -91, -197, -427, -36, -70, -65, 81, 91, 
    -416, -142, -327, -183, -364, 198, -383, 338, 
    658, 876, 420, 105, 319, 475, 259, 355, 
    225, 118, -49, 15, 204, -107, -134, 422, 
    136, 93, 446, 88, -29, -490, -176, -415, 
    -528, -721, -163, 96, 115, 390, 959, 781, 
    161, -89, 87, -636, -117, -98, 53, 289, 
    288, -119, -401, -239, 89, -93, -333, 95, 
    -40, 576, -370, 665, 180, 19, -360, 511, 
    -872, 373, -113, -677, 122, 159, -446, 522, 
    45, 359, 69, 692, -151, 545, -27, 154, 
    313, -299, -557, 246, 528, 924, 282, -610, 
    -80, -198, -102, -421, -120, 536, -247, 147, 
    213, -538, 217, -432, 164, -412, 341, 257, 
    62, 226, 1225, -199, 224, 531, 147, 162, 
    129, 19, 619, 158, 212, -404, 79, -48, 
    414, -79, 275, -175, -478, -140, -184, 341, 
    132, 129, 260, -200, -220, -178, 279, 809, 
    1012, -142, 533, -447, -491, -291, -145, 281, 
    387, -224, -160, 113, -58, 87, 387, 316, 
    -36, -269, -599, 269, 127, 59, 399, 300, 
    -112, 246, 499, -57, 536, 24, -308, -297, 
    -448, -37, -637, -496, -156, 511, 660, 633, 
    -298, 264, 225, -440, -578, -41, 327, 312, 
    394, 147, -131, -284, 93, 17, -253, 48, 
    840, 502, 381, -225, -401, -612, -281, 109, 
    489, -99, -237, -278, -86, 353, -111, -546, 
    -271, -300, 23, -323, 775, 454, 137, 178, 
    532, -90, 523, 187, 516, -399, 312, 135, 
    476, 312, -336, 295, 113, 16, 165, -92, 
    -287, 55, -252, 350, -208, 208, 23, -212, 
    -492, -216, 365, -594, 303, 245, -177, -144, 
    -104, 254, -1027, -532, -61, 449, -435, 449, 
    -560, -860, -568, 31, 455, 495, 811, -219, 
    -635, -869, -127, 223, 467, 82, 1191, 881, 
    531, 57, -362, 854, 548, 918, 392, 38, 
    191, 981, 597, 876, -917, 40, -683, -527, 
    -406, -74, -447, -700, 352, 658, -365, -678, 
    -595, -415, 678, -162, 472, -514, 49, 213, 
    243, 292, -115, -279, -19, 246, 500, 121, 
    -610, -774, 23, 577, 599, -320, -762, -622, 
    -968, -123, -713, 360, -615, -675, 689, 610, 
    -217, -538, 248, -435, 1004, 1063, -247, -645, 
    2, -823, 483, -647, -810, -384, 411, -825, 
    -533, -522, 76, 282, 663, 4, -56, 143, 
    250, 75, -288, 438, 101, 352, -364, -234, 
    -290, -158, -1001, -662, -419, 525, 776, 1094, 
    -350, -232, 384, -673, 593, 113, 733, 491, 
    241, 236, 117, -1058, 180, 499, -226, -21, 
    -162, 486, -254, 224, 88, -162, 307, -107, 
    386, -554, -536, 423, -527, -148, -365, 156, 
    -147, -155, -337, 304, 669, 55, -359, -177, 
    505, 292, 539, 629, 365, -404, 167, -273, 
    -248, 667, 379, -153, -263, -289, 79, -25, 
    -438, 174, 14, -256, -157, -308, -338, 104, 
    243, 161, 521, 425, 705, -294, 309, -439, 
    421, 237, 353, -648, 435, -359, -157, -338, 
    289, 477, -30, 413, -247, 120, -733, 84, 
    -372, -169, 430, 429, -568, -480, -877, -218, 
    385, -619, -324, 54, 90, -92, -148, 691, 
    572, 236, -205, -346, 454, 372, 17, -343, 
    -635, -597, 147, -313, -380, 554, -51, 202, 
    -99, 673, 435, 491, 274, 59, 85, -106, 
    155, -325, 65, -665, 154, -77, 333, -445, 
    -36, -439, 87, -256, 274, -405, 312, -233, 
    7, 440, 695, 480, 130, 524, 560, 421, 
    520, 431, -271, 105, 463, -142, 93, 266, 
    146, 209, -191, 324, -626, -244, 223, 325, 
    -86, -63, -515, 756, 162, 544, 373, 329, 
    340, -540, 277, 517, -100, -173, -90, 50, 
    375, 249, -726, -749, -575, -403, -305, 285, 
    438, 219, -36, -336, -724, -133, -311, -72, 
    377, 486, 476, 181, -83, 25, 30, 154, 
    -303, -226, 216, -3, 581, -51, -394, 414, 
    181, -266, -686, -518, -804, -353, -944, -1042, 
    -207, 128, 148, -788, 273, 452, -388, -595, 
    -288, -128, 34, -99, -76, 443, -226, -202, 
    -693, -515, -186, -473, -457, 433, -381, -413, 
    -273, 14, 515, 352, -445, 116, 20, 229, 
    -22, 139, 183, -97, 51, -5, 70, 630, 
    958, -395, 336, -609, -700, -651, -126, 937, 
    1163, 73, -512, 65, -10, -1024, -713, -474, 
    -651, -50, -248, -56, -342, -14, -671, 85, 
    530, 57, 395, -119, -1214, -881, -256, -247, 
    257, 319, -329, 202, -445, 109, -433, -25, 
    131, -397, -665, -186, -596, -722, 204, -733, 
    -736, -963, -338, -59, 59, 445, 1568, 1239, 
    743, 142, 392, 1013, -463, 214, -152, 301, 
    464, 594, 142, 315, -481, -100, 326, -419, 
    691, 330, 716, 433, -500, -296, -850, -44, 
    166, 471, -334, -54, -448, 104, -747, -335, 
    60, -647, -930, 572, 304, -123, 615, 19, 
    -191, -331, 180, 692, 582, 301, 212, -66, 
    -382, 476, -173, -75, 301, 508, 64, -236, 
    357, -313, -543, -496, 337, 150, 393, 655, 
    -248, 307, -297, 552, 419, -102, 501, 132, 
    48, -264, -385, -283, 239, 349, -242, 43, 
    341, 398, -106, -71, 238, 483, 104, 635, 
    -55, -135, 6, -13, 285, 253, -281, 401, 
    212, 346, 394, -318, 682, 69, -280, 651, 
    484, 572, -2, 16, -312, 320, 281, -2, 
    3, 636, -277, 661, -180, 500, 421, 181, 
    -107, 140, 327, -269, 219, 140, 265, -397, 
    -292, -16, 20, 488, 387, -74, 174, 207, 
    -9, -80, -317, 170, 19, 406, -85, 213, 
    375, 5, 191, 139, -383, -206, -432, 93, 
    -41, -97, -369, -384, 208, 320, 166, 130, 
    -70, 150, -54, 117, 210, -73, -80, -74, 
    -264, -445, -421, -125, -242, 101, 54, 216, 
    152, -3, -121, -200, 202, 55, 45, 92, 
    -299, -168, 77, 381, 526, 550, 344, 162, 
    451, 349, 400, 371, 74, 195, 463, 120, 
    395, -195, 141, 253, 254, 258, -131, -298, 
    -368, -76, 108, -174, -21, -27, -28, 220, 
    -253, -378, -173, 4, -31, 503, 375, 5, 
    36, -87, -348, -326, -13, 247, 287, -78, 
    -395, -179, 52, -20, 199, 332, -22, 252, 
    258, -234, -104, -325, -453, 5, 15, 397, 
    169, 271, 177, 302, 254, -144, -68, -71, 
    -63, 46, 33, -136, -201, 141, -139, -203, 
    -164, -445, 135, 202, 134, 57, 573, 36, 
    131, 266, -45, -240, 111, -161, -193, -288, 
    -345, 89, 196, -28, 151, -81, 134, -244, 
    286, -214, 80, 76, 70, 5, -193, 1, 
    -231, 171, -159, 94, -191, 286, 170, 145, 
    249, 440, 52, -15, -350, -186, -108, -98, 
    82, -52, 17, -256, 295, 119, 14, -4, 
    223, -83, -100, -236, -180, -118, -176, -29, 
    -127, -53, 149, 236, 160, 378, 125, 303, 
    258, 275, 206, 235, -135, 142, -230, -209, 
    59, 109, 97, 29, 300, 412, 376, 402, 
    437, 446, 443, 315, 318, 333, 283, 99, 
    239, -68, 125, 167, -63, 115, -28, -150, 
    145, -48, 14, 11, 34, -128, 128, -108, 
    -5, 53, -4, -14, 84, 218, 8, -51, 
    16, 241, -10, -58, -10, 307, 231, -62, 
    -120, -103, -77, 36, 351, 92, 179, 36, 
    299, -197, -156, 51, -131, 270, -79, 138, 
    11, -43, -2, 93, -147, 151, -49, -87, 
    -96, 116, 208, 163, 233, -338, -210, -372, 
    -44, -211, -7, 158, -91, 279, 88, 101, 
    -114, 149, -125, -200, -40, 282, -13, 169, 
    284, 236, -154, -248, 95, -251, 219, 102, 
    23, 204, 115, -169, 136, 53, 382, 349, 
    -104, -309, -291, -6, -204, 212, -222, -118, 
    -248, -76, -64, -26, -19, -16, 28, -78, 
    29, 91, 51, -85, 92, -201, -6, 43, 
    -10, 17, -31, -112, -142, -198, 65, 134, 
    198, 88, 134, -321, -459, -455, -299, -486, 
    147, -42, -90, 96, 262, 211, 140, 117, 
    -85, -37, 117, 46, 24, -48, -221, -62, 
    -358, -286, -271, -282, -158, -68, -372, -404, 
    -445, -138, 15, -273, -32, -334, -53, -139, 
    -24, -100, -112, -43, -34, 13, -49, 176, 
    -135, 129, 4, -139, 12, -171, -89, -37, 
    -246, -183, 7, 68, 27, 120, -79, 83, 
    161, -65, 246, 247, -27, -169, 40, -70, 
    -28, -225, -242, -192, 4, -141, -25, -60, 
    -78, 106, 163, 137, 160, 19, -23, 83, 
    11, -154, -230, -77, 12, 160, 114, 198, 
    -95, -17, -120, -110, 187, 155, 68, 59, 
    -71, -64, -47, 89, 95, -200, -44, -132, 
    10, -120, 5, -6, -266, -102, 23, -10, 
    -223, 0, -12, 171, 129, 161, -70, -1, 
    -357, -318, 25, -12, -50, 328, 233, 160, 
    -215, 34, 61, 49, -35, 33, 32, 70, 
    18, -42, -233, -25, -63, -315, 10, 89, 
    -115, -172, 325, 251, 327, 76, -468, -190, 
    -256, -315, -406, -29, -378, -46, -116, -428, 
    431, 388, 537, 307, 511, 157, -219, 157, 
    -203, 170, 57, -52, -45, 113, -184, -388, 
    -168, 125, 170, -40, -46, -176, -238, -336, 
    -113, -360, -393, -282, -11, -1, -371, -396, 
    -262, -174, 195, -131, 306, 283, 7, 94, 
    -434, -115, -304, -218, -124, 80, 177, -323, 
    -138, -16, -100, -242, 147, 194, 182, 201, 
    -80, -2, -241, -30, -3, 283, -87, 99, 
    -88, 39, -187, 26, 88, -162, -129, -25, 
    36, -279, 37, -292, 130, -337, 74, 15, 
    -226, -423, -255, -317, -159, -58, -45, -410, 
    -168, -188, 106, -160, 64, 69, 116, -326, 
    -420, -515, -473, -260, 12, -141, -8, -45, 
    -140, -347, 30, -13, 36, -276, 58, 471, 
    394, 151, -37, 93, 80, 51, -285, -345, 
    -206, 30, -18, 12, -107, 35, -312, -353, 
    -148, -572, 94, -103, 73, 445, 68, 318, 
    174, 129, 28, -251, -143, -405, -274, -184, 
    -71, -218, -126, 159, 494, 264, -401, 64, 
    -202, -113, -463, -211, -83, -214, -146, -87, 
    -369, -372, -221, -373, 50, 157, -237, -248, 
    -212, 228, 102, 324, -6, 273, -103, -28, 
    -159, -114, 98, -227, 169, 196, 229, 288, 
    -40, -197, 336, 177, 342, 334, -223, -412, 
    -487, -159, -460, -107, -41, -174, -216, -250, 
    -209, -263, -133, -256, 166, -330, 40, -131, 
    -33, 133, 218, 225, -231, -123, -605, 163, 
    -10, -264, -189, -19, 54, 232, 336, 695, 
    385, 85, -214, 163, -57, -271, -48, 256, 
    91, 271, -113, -184, -341, -319, -249, 190, 
    112, -73, 46, -30, -35, 80, 258, 29, 
    234, 193, 118, 400, 291, -4, 39, -109, 
    323, -114, 297, 292, 54, -132, 8, -105, 
    105, 148, -175, -161, -319, 7, 8, 129, 
    46, -241, -319, -47, 82, -225, -190, -78, 
    9, 270, -237, 115, -72, 209, 139, 327, 
    84, -242, 98, 300, 137, -56, 124, -65, 
    -174, -220, -484, -348, -172, 145, 25, 265, 
    -171, -316, 148, -120, 463, 74, 55, 245, 
    -161, 293, 46, 153, 215, -155, -242, 149, 
    -418, -319, -553, -661, -945, -94, 104, -655, 
    -401, -330, 126, -58, 234, -240, 278, -306, 
    -211, -170, 223, -22, -124, -213, -164, -603, 
    -71, 336, 175, 36, 276, -70, -357, -608, 
    -550, -251, -98, 224, -17, -54, -378, -98, 
    -187, -442, -415, -26, 314, -51, -23, 355, 
    -25, -143, 379, 1001, 986, 640, 640, 622, 
    39, 584, 441, 438, 177, 229, 224, -109, 
    260, 115, -19, 409, -37, 40, -703, -177, 
    -473, 59, -379, -390, -274, -9, -231, -220, 
    -14, -304, -242, 248, -329, 8, 194, -200, 
    205, -8, 440, 428, 373, -168, 251, 308, 
    -189, 238, -3, -17, -296, 249, -253, -120, 
    -516, -590, -568, -395, -484, -191, 619, 92, 
    329, 362, 230, 215, 306, 85, 385, -72, 
    -206, 210, -105, 409, 523, 220, 135, -345, 
    -271, -73, 112, -427, -320, -629, -418, 369, 
    -118, 37, 154, -488, -484, -343, -7, -56, 
    -88, 225, 161, 550, 144, 81, 16, -101, 
    -550, -504, -160, -244, -5, 134, 32, 341, 
    910, 806, 472, 41, -374, -200, -281, -227, 
    -651, -565, -184, -325, -360, -311, -131, -36, 
    -396, 171, -121, -51, -367, -27, -153, -382, 
    101, 202, -129, -12, 258, -33, 66, 207, 
    92, -375, -323, 495, 496, 520, -79, -138, 
    -277, -68, -119, -155, -210, 168, -367, -309, 
    63, 109, 214, 351, 81, 350, 84, -54, 
    330, -214, 47, 179, -615, -394, -268, -120, 
    -17, 439, 501, 510, 433, -106, -117, 4, 
    -168, -87, 298, -302, 94, -140, -493, -344, 
    -495, -70, 223, 367, 77, -322, -294, -448, 
    -73, -171, 422, 272, 140, -209, -225, -162, 
    90, -164, 4, -279, -60, -71, -164, -302, 
    -122, -39, 446, 167, 299, 84, 147, 221, 
    183, -116, -169, -130, 53, -19, 19, 21, 
    -167, 40, 97, -30, -28, 129, -192, 23, 
    49, -132, 207, 136, -354, -250, -252, -126, 
    -142, -102, 137, -32, -7, 273, -81, -132, 
    224, -296, -235, -563, -478, -381, 37, 121, 
    -354, -251, 81, 267, -219, -43, -7, 105, 
    163, 45, 9, 386, 493, -176, -46, -34, 
    -221, -161, -628, -462, -582, -402, -334, -183, 
    -71, 122, -195, -235, -30, -126, -203, -297, 
    -147, -307, -76, -54, -503, -322, -227, -244, 
    -348, -129, -68, -121, -289, -244, -15, 171, 
    250, -166, 29, 2, -127, -91, 114, 152, 
    -206, -302, -209, -378, -433, -280, -479, 173, 
    -177, -314, -77, 14, -88, 10, 166, -143, 
    -230, -269, -600, -415, -449, -383, -352, -19, 
    205, 141, -129, 10, 87, -273, -314, -391, 
    -87, -26, 27, -480, -166, -225, -26, -136, 
    9, -49, 272, 78, -82, -40, 441, -496, 
    -427, 49, -382, -171, -33, 149, -74, -27, 
    112, 204, -196, -205, -109, 231, -90, 229, 
    -14, 242, -25, -202, -484, -572, -629, -423, 
    -193, -334, -26, -97, -303, 147, 102, -41, 
    -35, -7, 460, 327, 197, 72, -225, -142, 
    -334, -348, -331, -278, 244, 348, 226, -135, 
    198, 424, 343, 78, 95, -89, 47, -243, 
    154, 142, 118, -110, -76, -338, -87, -49, 
    -170, -448, -489, -308, -623, -277, -195, 12, 
    -29, 114, 417, 307, 130, -312, 56, 42, 
    -252, -67, 74, -29, 268, 101, -170, 31, 
    5, 380, 364, 28, 306, 4, 170, -192, 
    114, 65, 67, -41, -161, -331, -423, -13, 
    -269, -155, 230, 202, 396, 330, 16, 108, 
    192, -47, 22, -214, -203, -220, -13, -330, 
    -134, -211, 239, 393, 426, 587, 297, 300, 
    -144, 13, -103, 273, 350, 334, 172, 216, 
    66, 170, -202, -193, 136, 197, 219, 322, 
    -112, 51, 403, 344, 103, 17, 22, 132, 
    -196, 117, 74, -254, -270, 78, 210, -45, 
    -109, -99, 112, -196, -215, -232, -270, -83, 
    -121, 75, -407, -470, -484, -26, 245, 133, 
    24, -211, -419, -79, 228, 221, -102, 96, 
    -129, 157, -38, 182, 214, -112, 64, -66, 
    -75, -23, 22, 10, -263, 92, -97, -167, 
    -111, 205, 198, 343, 238, -154, 88, -219, 
    13, -116, -330, -96, -255, -112, 16, -29, 
    188, -189, 181, 67, 114, 86, 152, -30, 
    -49, 244, 307, 131, 272, -365, -375, -328, 
    -77, -289, -186, -34, 104, -21, 26, -283, 
    -404, -345, -200, 43, -101, 19, -140, 1, 
    -222, 76, 33, -294, -358, -83, 105, 304, 
    149, 163, -78, 30, 132, 332, 333, 185, 
    -473, -432, -481, -456, -278, -11, 26, -23, 
    -59, -285, 299, 241, 231, 80, 95, -4, 
    -22, 109, -115, 3, -95, 48, -206, 1, 
    76, 35, 139, 174, -55, 190, 139, -21, 
    -112, -171, 88, -196, -157, 57, -155, -167, 
    -20, 75, -192, -69, -253, 136, -4, -117, 
    -242, 105, 181, -32, -218, -70, 51, -74, 
    -134, -189, 179, 92, 106, -131, -263, -340, 
    -354, 167, 23, 28, 222, -24, 7, 291, 
    36, 275, 401, -161, 105, -53, -55, -48, 
    -354, -159, 175, -143, 426, 79, -394, -74, 
    37, -358, 345, 14, 327, 20, 402, 160, 
    -111, -322, -460, -309, -193, 51, 307, 64, 
    -286, -85, 365, 386, -102, 111, -333, -185, 
    -196, -196, -110, -85, -373, -96, -311, -389, 
    169, 45, 344, -51, 234, -27, 202, 475, 
    519, 466, -51, -210, 214, 101, -83, -482, 
    -407, -11, 139, 81, -352, -192, -318, -130, 
    217, 229, 174, -99, -78, 270, -384, -211, 
    8, -441, -379, 60, -91, -18, -277, 80, 
    -329, 129, 94, -79, 419, 377, 103, 160, 
    141, -100, 236, -329, -189, 101, 30, 312, 
    226, -92, 173, 340, 233, 78, 446, 31, 
    324, -287, -25, -186, 55, 189, -176, 454, 
    444, 465, 202, -203, 232, 13, 232, 261, 
    -107, 31, -91, 97, -190, -41, -385, -232, 
    -358, 192, 163, 578, 756, 733, 575, -303, 
    73, -32, 109, 28, -39, -32, -10, 215, 
    -356, -319, -42, -358, -149, -10, -274, -345, 
    -132, -122, 162, -169, -30, 9, -90, 52, 
    -142, 132, 43, 397, 192, -114, -164, -126, 
    90, 15, -789, -921, -595, -384, -616, -280, 
    -226, 81, 122, 144, -152, 62, -332, -437, 
    -311, -164, 385, 422, 495, 562, -216, -188, 
    -64, -173, 110, -115, -289, -272, -48, -208, 
    61, -56, 111, -121, 43, 384, 157, 10, 
    -9, -77, -102, 107, -182, 29, 400, 57, 
    231, -105, -30, 378, 117, 176, 306, 131, 
    318, 213, 83, 439, 451, 158, -131, -508, 
    -216, 61, -143, 164, -85, -42, 40, -69, 
    167, 73, 120, 62, -38, -422, -353, -217, 
    -475, -334, 18, -271, 53, 165, 319, 153, 
    13, -63, -97, 382, -46, -96, -176, -207, 
    -120, 215, 90, -22, 178, 95, -1, 210, 
    -20, 111, 23, -117, -207, 33, -219, -84, 
    206, 186, -46, 223, 230, -17, 46, -234, 
    267, 272, -95, 120, -249, -237, -59, 58, 
    -162, 140, 348, 456, -254, 127, 243, 319, 
    349, 388, 268, 445, 447, 212, -74, -266, 
    -30, -51, -10, 106, -180, -372, -339, -173, 
    181, 37, -191, -336, -258, -462, -478, -215, 
    -205, -162, 116, 259, 275, -244, -132, -134, 
    -332, 12, 328, 362, -22, 219, -111, 291, 
    120, 296, 532, 437, 27, 373, 170, -156, 
    -53, 95, 33, 28, 95, 337, 278, 285, 
    -291, -11, -317, -175, -289, -294, -298, 23, 
    -196, 47, -305, -340, -303, -327, -87, -169, 
    -206, 218, 232, -197, 73, -152, -81, 33, 
    43, 691, 577, 266, 287, -100, 140, 388, 
    555, 336, 436, -396, -365, 96, 180, 197, 
    186, 91, 311, 306, -4, -174, -20, 25, 
    -322, 2, 104, 266, -32, 46, -35, 30, 
    54, 206, 170, 153, 293, 489, 194, -192, 
    -126, 397, 410, 166, 402, 179, 91, 57, 
    318, 101, 153, 288, -180, 121, 90, -304, 
    396, -37, 217, 249, 313, 184, 171, -125, 
    74, 47, 320, 249, 32, 60, -121, -92, 
    116, -243, -293, -92, -134, -165, 171, 22, 
    519, -220, 164, -251, -171, 1, 104, 301, 
    -101, -113, -30, 484, 323, 158, -9, -197, 
    -403, -321, -275, -33, 108, 79, 269, 93, 
    -87, -82, 118, -121, 44, 65, -157, -202, 
    -141, 21, -246, -91, 18, 328, 71, -75, 
    138, 271, -93, -76, 188, -116, -181, -324, 
    -232, -441, -436, 387, 298, 106, -153, -307, 
    270, 245, -30, 163, 91, 39, 106, 81, 
    127, 152, 375, 355, 438, -1, 270, -61, 
    205, 185, -122, 105, 338, 44, 367, 298, 
    -137, -153, -4, -67, 49, 117, -175, 33, 
    70, -133, -113, -2, 55, -59, -77, 179, 
    -235, -168, -3, 77, 104, 394, 302, -13, 
    222, 148, -39, 25, 115, -27, 94, 84, 
    -177, -213, 196, -94, 140, 438, 254, -4, 
    -4, -299, -282, -205, -89, 22, -233, 90, 
    -130, -140, 101, 134, 56, -42, -14, 236, 
    327, 283, -147, 206, 87, -239, 47, -203, 
    -157, -208, 111, 227, 81, 241, 469, -201, 
    -329, -312, -381, -279, -108, -192, 66, -75, 
    116, -278, -123, -174, -33, -114, 179, -41, 
    -197, -60, -272, 99, -215, 208, -39, 65, 
    -428, -457, -385, -299, -222, 138, 209, -209, 
    -161, 186, 153, 127, 255, 23, 168, 344, 
    333, 234, 425, 355, -34, -139, 41, -90, 
    -34, 28, 93, -253, -127, -485, 22, -85, 
    219, -110, 65, 140, 175, 217, 129, 73, 
    205, -128, 79, -205, 61, 184, 138, 169, 
    233, 242, -7, -64, -22, -19, -284, -248, 
    -217, -245, -337, -359, -22, -308, -11, -328, 
    -247, -371, -197, -291, -77, -155, -100, -152, 
    -261, -30, -242, 59, -64, -167, 91, -58, 
    110, -142, -155, 102, -160, -78, -163, -279, 
    -34, 62, 66, 172, -197, -47, -203, -6, 
    -7, 151, 137, -3, -172, 80, -84, -7, 
    -195, -73, -162, -163, -59, -24, -221, -169, 
    -33, -126, 47, 140, -79, 77, -160, 131, 
    -226, 19, -274, -311, -305, 205, 94, -155, 
    85, 4, 236, -20, 232, 107, 324, 61, 
    -83, 162, -135, 135, 194, 73, 4, -134, 
    -26, -301, -256, -112, -389, -404, 314, -108, 
    24, 174, 58, -132, 25, 21, -63, 162, 
    35, 139, -176, -228, 201, -373, 89, -69, 
    -3, 25, -350, -133, 176, 233, 274, 96, 
    218, 314, 95, 430, -498, -208, -203, 28, 
    57, 253, 118, 478, 403, 496, -392, -138, 
    -191, -65, 195, -292, -437, 18, 123, -118, 
    -134, 243, -129, -22, -104, -182, -157, 99, 
    131, -149, -299, 105, -205, -286, -147, -86, 
    -46, 268, 333, 136, 130, -256, -306, 218, 
    99, 423, 346, 520, 307, 208, -193, -451, 
    -101, -257, -28, -95, -149, -222, -509, 45, 
    128, 37, -177, 193, 399, -538, -281, -454, 
    -389, -479, -389, -122, -161, -353, -34, -135, 
    -535, -180, -495, -173, -249, 228, -60, 82, 
    -131, -184, 40, 361, 109, 323, -74, 204, 
    -130, -41, -428, -240, -382, -186, -332, 92, 
    -123, -300, -136, -144, -160, -178, -268, -26, 
    -91, -104, 181, 198, -91, 123, 6, -270, 
    89, -174, -395, -439, -404, 21, 41, -168, 
    309, 88, -220, 144, -334, -303, -96, 119, 
    108, 30, 146, -455, -306, -295, -126, 8, 
    -109, 134, -307, -149, -14, -31, 92, 118, 
    509, 471, 130, -108, -3, 81, 388, 323, 
    -271, -110, -197, -32, 58, -270, -30, 260, 
    142, 197, 462, 265, -158, -92, -522, 3, 
    -346, 114, -234, -220, -150, -385, 179, -119, 
    8, -15, 174, 399, 204, -293, -233, 166, 
    333, 333, 145, -114, -214, -254, 44, 5, 
    32, 199, 257, -208, 17, -323, -354, -365, 
    137, -51, -512, -258, -336, -39, -60, -225, 
    151, -13, 264, -66, -233, -25, -75, -207, 
    -138, -141, -460, -36, -415, 96, 423, 523, 
    464, 277, -266, -201, -410, -199, 119, 59, 
    -393, -548, -308, -390, -7, 157, 238, 162, 
    17, 154, 35, 183, 371, 194, -85, -380, 
    -421, -478, -267, -112, 18, -195, -65, 269, 
    -48, -161, 102, 201, 267, -408, -85, -533, 
    -238, -241, -349, 79, -124, -395, -163, -502, 
    -379, -201, -441, 169, -500, -176, -220, 15, 
    -38, 223, 102, -88, -73, -289, 262, 444, 
    155, 234, 144, 152, -295, 19, -215, -143, 
    -298, 114, -207, -110, 165, 243, 432, 333, 
    185, -121, 145, 68, 152, 23, 243, -300, 
    -127, -76, -201, 73, 133, 306, 367, 127, 
    -114, -4, -225, -243, 165, 248, 65, -28, 
    9, -84, 277, 332, -151, 114, -203, -253, 
    -6, 185, 86, 169, 346, 63, 131, -151, 
    4, 232, 328, 99, 183, -24, 205, -183, 
    -23, -108, 27, 26, -48, -231, -53, -250, 
    -157, -199, 156, 197, 65, -112, 271, 377, 
    273, 76, 360, 259, 352, 168, 144, 65, 
    -57, 105, 59, -162, -270, 321, 533, 214, 
    287, -22, 199, 127, 99, 304, -16, -21, 
    -328, -234, -154, -155, 135, -123, 38, -117, 
    154, 504, -57, 213, 139, 233, -223, -418, 
    -437, -398, -550, 111, 290, 305, 204, -82, 
    -207, -224, 130, -131, -301, 363, 514, 252, 
    313, 181, 45, -63, -319, 122, -223, 38, 
    205, -25, -265, -56, -40, 202, 245, 50, 
    -291, -576, -506, -359, -52, -4, 539, 552, 
    342, 177, 48, -112, 23, 58, 89, 172, 
    224, 13, 230, 126, 116, 38, -233, -189, 
    108, 78, -83, 168, -185, 308, 57, -143, 
    -160, -117, 136, 24, 59, -289, -72, -106, 
    235, -580, -559, -79, 29, 62, -48, -70, 
    -369, -55, -261, 542, 464, 412, 118, 195, 
    -229, -497, -234, -288, -213, -183, -373, -313, 
    -99, 37, -95, 185, 234, 22, 14, -31, 
    -338, -355, -427, -235, 214, -108, -213, -66, 
    267, -343, 14, -51, -248, -123, -170, -80, 
    -55, -246, -165, -107, -377, -454, -536, -493, 
    -125, -130, -386, -368, 0, 326, 24, -56, 
    368, 238, -91, 153, -317, -77, -41, 275, 
    -341, 65, -283, -113, 91, 355, 84, 477, 
    388, -510, -398, -562, -745, -647, 94, 139, 
    -27, 284, 367, -495, -257, -523, -226, -199, 
    -143, 169, 103, -7, -95, -261, -49, -312, 
    30, -76, -275, -340, 77, -340, -265, 286, 
    -111, -213, -86, 95, -153, -58, -70, -387, 
    -256, -68, -91, 319, -148, -125, -153, -27, 
    175, 234, -207, -49, -108, 116, -177, 37, 
    404, 300, 212, 308, 91, -153, 33, 50, 
    90, 116, -189, -557, -155, -255, -442, 132, 
    240, -34, -69, -66, -405, -462, -313, -147, 
    -67, -33, 307, -45, 269, 115, -21, 47, 
    -280, 63, -194, -140, -253, -148, -75, 163, 
    168, 80, 254, 113, 106, 188, 91, 75, 
    157, -37, -348, -338, -69, -88, -52, -82, 
    -176, -296, -5, 131, -171, -113, 139, -38, 
    188, 75, 83, -90, 104, 102, 66, -58, 
    32, -108, -243, -240, -122, 144, 118, 1, 
    -267, -106, -184, -167, -129, -238, -84, -402, 
    82, 41, -287, -163, -148, -201, 19, -36, 
    89, -89, -289, -239, -42, -101, 54, -1, 
    238, -11, -111, -358, 29, -327, 313, 224, 
    417, 294, 310, -297, -128, -59, -67, -36, 
    -254, -126, -8, 161, 179, -266, 56, 110, 
    80, -118, -242, -264, -25, -189, -204, -35, 
    151, 323, 48, 360, -353, -118, -80, -404, 
    -361, 520, 258, 329, 362, 408, -70, -34, 
    -13, 46, 274, 267, 245, -72, -208, -21, 
    475, 471, 516, 488, 169, 411, -148, -112, 
    -276, -323, 111, -125, -331, -405, 75, -471, 
    -177, -418, -493, -435, -456, -127, -31, -125, 
    -184, 536, 565, -130, 223, -290, -62, -459, 
    -270, 179, -224, -288, -505, -347, 133, 99, 
    673, 544, 50, -99, 43, -119, 9, 264, 
    -294, 91, -224, -380, -255, 135, 170, 43, 
    314, 229, 250, 341, -70, 214, 337, 367, 
    448, 431, 94, 515, 531, 477, -122, -395, 
    96, 134, -60, 125, -281, 144, 390, 274, 
    195, -188, 411, 455, -9, -27, -238, -244, 
    205, -300, 404, -61, -62, 533, 290, -51, 
    153, 247, 2, -12, 323, -60, 130, -8, 
    110, -288, -449, -252, -275, -325, 595, 476, 
    332, 296, 392, 117, 274, -206, 266, -13, 
    -12, 9, -213, 51, 2, -294, -522, 90, 
    -557, -324, 250, 126, 658, 551, 324, 2, 
    98, -317, -169, -136, -43, 24, -509, 173, 
    29, 168, 213, -118, 268, -238, 144, -198, 
    -245, 145, 76, -348, -238, -443, -269, -97, 
    20, 265, 195, -39, -232, 273, 69, 91, 
    386, -287, -5, 178, -39, 386, 98, 296, 
    122, -77, 26, 304, -278, -196, -284, -380, 
    -392, -308, -257, 25, -20, 507, 479, 221, 
    -139, 174, -134, -167, -240, 112, 278, 143, 
    92, -83, -150, -237, -289, -11, 151, -136, 
    165, 100, 159, -70, 217, 398, 485, 17, 
    -334, 112, 9, -82, 41, -165, -154, 417, 
    265, 176, -280, 47, 147, 506, -399, -502, 
    -327, -339, -588, 137, -211, -199, -6, -171, 
    137, -309, 211, 340, -192, -92, 395, 204, 
    -83, 444, -180, -245, -311, 3, 57, 72, 
    -160, -96, 472, -30, -496, -395, -364, -482, 
    178, 185, 378, 235, 61, 268, -235, 158, 
    386, -85, 264, 126, -304, -68, 216, -140, 
    -417, -292, -339, -342, 259, -125, 606, 476, 
    203, 521, 210, 637, 128, 42, 54, 595, 
    617, 756, 771, 478, -266, -407, 163, -192, 
    -317, 415, -128, 211, 104, -243, 187, 138, 
    -66, 321, -146, 206, 331, 306, 225, 108, 
    165, -79, 42, -323, -303, -16, 115, 27, 
    158, -141, -104, 226, 229, 130, 104, 51, 
    -84, -94, -288, -61, -56, 70, -213, 4, 
    136, -64, -50, -122, 45, -64, 128, 146, 
    151, 181, -133, -227, -363, -471, -337, -217, 
    121, -180, -248, -86, -66, -117, 107, -131, 
    -163, -43, 52, -153, -376, -467, -456, -193, 
    -225, -262, -56, 21, -370, -225, -131, -338, 
    -67, -117, -195, -217, -279, -230, -24, -168, 
    -227, -44, 133, 209, 210, 32, 122, 164, 
    69, -236, -25, 112, -280, -5, -202, 153, 
    -9, -79, -53, -77, -163, 95, 104, 168, 
    252, -31, -104, 236, -233, -216, -128, 99, 
    156, -362, -83, -104, -356, -17, 165, 301, 
    230, 87, 20, -238, 14, 40, -203, 146, 
    37, -120, -23, -287, -399, 46, 131, 110, 
    247, 90, 187, 428, 387, 335, 322, -116, 
    -97, 134, 120, -199, 85, -140, -165, -179, 
    48, -219, -159, -127, -446, -175, -202, 11, 
    -152, -154, -28, -110, -248, -161, -56, -17, 
    -191, -142, -72, 5, 26, 254, 235, 45, 
    -284, -17, -115, 274, 178, -175, -178, -85, 
    -266, -145, -235, -429, 43, 179, 209, 21, 
    -47, 139, 282, 293, 393, 137, 0, -160, 
    -160, -177, -311, -78, -173, -118, -373, -387, 
    36, 253, -150, -239, -587, 123, 184, 152, 
    190, -124, 201, 209, 105, 291, 36, 63, 
    -181, 48, 56, 20, 199, 318, -95, 227, 
    333, 258, 319, 599, 533, 529, 65, -35, 
    -145, 113, -202, -261, -85, -184, -243, -194, 
    -165, 301, 198, 56, 480, 231, 153, 47, 
    -234, -184, -11, -204, 240, 154, -9, -149, 
    -280, -349, 45, 171, 380, 379, 219, 255, 
    140, 57, -26, -63, 87, 162, 52, 361, 
    173, 105, 251, 120, 216, 188, 112, 100, 
    142, -24, -260, -167, 251, -25, -111, 73, 
    17, -36, 143, -44, -162, -147, 212, -235, 
    -346, -283, 99, -289, -425, -65, -224, -254, 
    -71, -82, -57, -303, -2, -105, 170, -47, 
    255, -79, -22, -42, -154, 11, -18, 21, 
    -167, -53, 141, 77, 68, -80, 25, -167, 
    158, -84, -55, 242, -143, -148, 105, 99, 
    140, -207, 65, -107, -117, -161, 86, 48, 
    85, 112, 96, 45, -167, 162, -100, 97, 
    77, 182, 236, -141, -369, -384, -442, -382, 
    -203, 285, 46, 293, 81, -165, -302, -34, 
    120, -74, -156, -249, -316, -276, -160, -335, 
    -221, -75, 243, 46, -184, 73, 132, 158, 
    291, -149, -51, -305, 85, 270, 195, 370, 
    306, 290, 278, -118, -68, 58, 244, 264, 
    -24, -59, 132, 122, -81, -334, -434, -447, 
    -232, -325, 387, 142, 252, -29, 233, -93, 
    234, -63, 190, -197, 33, 145, 149, -150, 
    221, -58, -246, -86, -199, -218, 348, 180, 
    472, 274, 257, -134, -25, 78, 91, 234, 
    203, 178, -200, -127, 224, 119, 144, -137, 
    216, 28, 138, 148, 37, 79, 118, -143, 
    -144, -115, 174, 68, -106, -48, -138, -80, 
    -99, 192, 114, 394, 20, 316, -125, -209, 
    -268, -20, 153, 295, 101, 347, 28, 36, 
    -314, -408, -224, 186, 26, -147, -22, -115, 
    -586, 146, -157, 362, -79, -358, -148, 423, 
    330, 435, 295, 373, 437, 186, 204, -255, 
    -452, -91, -454, -566, -577, -214, -190, -182, 
    -85, -16, -66, 505, 524, 332, 273, -7, 
    172, -287, -225, 308, -21, 527, 602, 485, 
    408, 385, -116, -141, -164, -114, 181, -137, 
    82, -345, -129, -178, -111, 165, -432, 96, 
    -354, 183, -420, -492, -466, -259, 122, 37, 
    -18, -273, -185, 41, -317, 42, -77, -284, 
    353, 453, 263, 368, -212, -165, 46, 269, 
    -155, -223, 2, -349, -427, -333, -140, 240, 
    85, 441, -58, 115, 373, 109, 229, -145, 
    100, -48, -223, -159, 128, -83, -339, 67, 
    -160, -21, 1, 184, 398, 97, 129, -157, 
    277, -56, 85, 170, -271, -266, -15, 75, 
    48, -87, -11, -83, -49, -122, 145, 148, 
    -105, 258, 87, 334, 385, 15, 272, 286, 
    88, -244, -548, -291, 208, 258, -413, -175, 
    -305, -556, -368, 265, 376, -37, 364, 111, 
    -35, -7, -88, -57, -263, 106, 71, 187, 
    26, -74, 273, -6, -12, 276, 171, -96, 
    -154, -207, -69, -54, 142, 160, -1, 258, 
    121, -35, -37, -185, -406, -397, 48, 246, 
    124, 75, 259, 123, -138, 197, 365, 202, 
    -465, -1, -250, -343, 35, 54, -13, 333, 
    34, 424, -14, -361, -136, -286, 61, 147, 
    38, -109, -145, 110, -201, -16, -34, -268, 
    -239, -52, 25, -149, -75, -227, -122, 66, 
    -121, -180, 155, -187, -332, -162, 116, 111, 
    293, -128, -171, 181, -56, -104, -28, 274, 
    181, 263, -260, -74, -181, -212, 134, -6, 
    245, 144, 360, 166, -150, 24, 62, -239, 
    -37, 238, 193, 121, 69, -165, -431, -219, 
    -416, -15, -324, 240, 118, 429, 255, 488, 
    172, 122, 363, 306, 343, -129, 38, -37, 
    132, 223, 107, -78, -61, 104, -213, 70, 
    78, -85, -194, -74, 231, 152, 159, 245, 
    214, -61, -15, -135, -105, -232, -121, 125, 
    240, -38, 41, 155, 172, -7, 85, 208, 
    78, 258, -92, -364, -25, 40, 5, -268, 
    -155, 196, -366, -177, -57, 91, -146, 272, 
    221, 281, 82, -173, -453, -501, -596, -299, 
    4, -151, 89, -77, 201, 170, -240, -19, 
    -87, -334, -155, -86, 344, -50, 178, 163, 
    -111, 43, -310, -316, -303, -125, -108, -185, 
    -372, -334, -99, 138, 196, 136, 58, -80, 
    -26, 103, -162, -107, 44, 66, 189, -7, 
    -279, 152, -246, -153, 15, 52, -537, -569, 
    -298, -208, -702, 297, -260, -313, -516, -214, 
    -135, 136, 84, 39, -373, -484, -410, -253, 
    -126, 305, 103, 174, -272, -284, -229, -363, 
    -161, -319, -333, -506, -159, -205, -150, -167, 
    -153, -31, -168, 180, 218, -121, 265, -99, 
    196, -128, -33, -197, -170, -507, -590, -194, 
    -234, -128, -136, -213, -207, -282, -136, 136, 
    -135, -200, -120, -153, 59, -274, 109, 102, 
    14, 249, -69, -194, -146, 130, 212, 91, 
    59, 319, 380, 123, 35, 3, -124, 229, 
    51, -175, 196, 320, -215, 15, -13, -143, 
    -108, 345, 395, 400, 90, -106, -126, 14, 
    141, 145, -235, 246, 73, -299, -233, -94, 
    -29, -15, 148, 288, 12, 154, -62, -199, 
    437, 99, 282, -91, -118, -67, -114, 236, 
    -257, 78, 26, -315, -4, -103, 151, 84, 
    603, 508, 275, 420, 485, -139, -96, 303, 
    19, 156, -678, -472, -358, -183, -52, 47, 
    -102, -166, 296, 55, -248, -150, 27, 217, 
    39, 319, 252, -17, -58, 352, -68, 439, 
    -39, 0, 142, 43, -163, 107, -116, 105, 
    132, 307, -173, 1, 174, -263, 189, 137, 
    367, 307, -85, -272, -308, -403, -637, 44, 
    435, 339, 335, 8, -20, -327, -430, -275, 
    -40, 534, 454, 407, 414, -92, 209, -115, 
    247, 123, 174, 94, 356, 194, 506, 170, 
    220, 395, 439, 239, 480, 17, -28, 101, 
    -175, -121, 365, 376, -19, 259, -62, 199, 
    267, -22, 243, 104, 109, -268, 125, -115, 
    -81, 265, 59, 317, 354, 211, -135, 18, 
    35, -240, -266, -281, -172, 78, -42, -323, 
    -192, 182, -321, -68, -10, 18, -32, 275, 
    35, -37, 331, 301, 63, 329, 345, 323, 
    109, 148, -168, -212, -182, -9, -158, -6, 
    320, 157, 251, 161, 497, 544, -360, -358, 
    -431, -45, -396, 227, 101, -320, -244, -254, 
    87, 534, 265, 543, 402, -63, -16, 252, 
    244, 80, 9, 96, 10, -59, -194, -327, 
    -144, -338, -272, -181, -330, -91, -355, -84, 
    -332, -528, -398, -164, -303, -336, 8, -426, 
    -149, -26, 105, -128, 88, -364, -365, -273, 
    -353, -27, -348, -264, 179, 159, 364, 398, 
    146, 137, -214, -215, -177, -18, -138, -103, 
    -25, -445, -323, -145, -86, -103, -107, -116, 
    18, -56, 147, -122, 320, 107, -197, -246, 
    -186, -430, -52, -325, -50, 233, 258, -205, 
    -425, -214, -49, 22, 86, -225, -158, -252, 
    -140, -536, -263, -171, -10, -383, -237, 186, 
    -240, -207, -381, -153, -340, -113, -23, -267, 
    35, 66, 187, 94, 362, -138, 386, 165, 
    313, 5, 166, -74, -86, -407, -62, -322, 
    229, 109, -230, -293, -174, 103, 107, -34, 
    133, 270, 73, 47, 173, 235, 257, -301, 
    -102, 68, 311, 290, 65, -30, -61, -140, 
    -68, -400, -462, -265, -103, -589, -266, 56, 
    -272, 135, 333, -114, -271, 109, -355, 98, 
    -299, 240, -120, 187, 38, -295, 59, -203, 
    -76, -397, -378, -418, -378, 31, -100, -315, 
    -289, -198, -96, -157, -223, -70, 2, 89, 
    -144, 129, 59, -339, 103, -375, 150, 116, 
    -271, -94, 48, -44, 175, -82, -229, -119, 
    -104, -238, -482, -215, -355, -268, -236, -66, 
    -95, -201, -330, -186, -464, -515, -489, -164, 
    -118, -135, -380, -340, -37, 397, 200, -177, 
    145, -196, -570, -96, 72, 16, 314, 286, 
    352, 639, 708, -301, 184, -39, -204, -103, 
    92, -213, -85, -224, 172, -26, -96, 139, 
    274, -5, 496, 182, 268, 472, 561, 76, 
    132, -142, 223, -17, 95, -30, -239, 224, 
    -237, 104, 298, -336, -331, -216, -394, -406, 
    -227, 6, -106, -108, -69, -118, 93, -170, 
    -160, -157, -188, -164, -233, 58, 238, 33, 
    161, -24, -191, 116, -40, -71, 221, 258, 
    96, 113, 333, 182, 221, 53, 303, 121, 
    -142, -124, -236, 70, -269, -407, -64, -210, 
    -200, -43, -137, 432, 299, 393, 251, -84, 
    68, 175, -29, 317, 16, 27, 67, 74, 
    -151, -22, 237, 125, 240, 44, -198, 228, 
    226, -187, -62, -359, 39, -142, -161, -180, 
    -101, -395, -151, -298, -22, -241, 48, 206, 
    -142, 14, -160, 193, 51, 247, 230, 91, 
    -496, -445, -441, -440, -606, 201, -90, -46, 
    134, -104, -113, 247, -31, 78, 230, -122, 
    -115, 171, 39, 171, 131, 253, 3, 81, 
    78, -175, 0, -199, 103, 10, -196, -88, 
    173, 129, 28, -153, -211, -134, 57, -192, 
    258, -84, 1, 33, -369, 47, -86, -2, 
    42, 67, -238, -38, 102, 47, 463, 205, 
    298, -18, -184, 80, 57, 249, -99, -3, 
    -142, -181, -180, -315, -303, -438, 289, 409, 
    217, 441, 376, -106, 169, 94, -82, -86, 
    515, 533, 55, -111, -180, -848, 35, -360, 
    -410, -355, -378, 970, 760, 320, 460, 541, 
    -526, -708, 852, 204, -96, 294, 272, 610, 
    157, -586, -694, -310, 358, 428, 114, -1336, 
    427, 422, -233, 456, -309, -459, -707, -441, 
    420, -9, 275, 130, 128, -268, -1100, 982, 
    -146, 558, 994, -609, 205, 520, -675, 930, 
    -131, 63, 632, -1074, 765, 106, -767, 1362, 
    -367, -219, 903, 564, 372, 379, 548, 486, 
    90, -68, -782, -791, 398, -1224, -324, 410, 
    -1182, -321, -191, 829, 542, -441, -790, -57, 
    -563, 1671, 174, 119, -430, -210, 550, -388, 
    -384, 445, -382, -166, 822, 587, 375, 311, 
    230, 123, -35, -627, -32, -137, -175, 274, 
    188, -332, 519, -116, -172, 951, -37, -798, 
    -734, -6, 56, -36, 635, -459, -75, -76, 
    525, 634, 657, 484, -342, 333, 561, -271, 
    725, 25, 653, -567, -95, 253, -334, 242, 
    -281, -407, -366, 493, -804, -537, -199, 324, 
    -463, 109, -386, -476, 55, 380, -51, 98, 
    -102, 31, 437, -287, -81, -861, 785, 359, 
    776, 793, -510, -62, -334, 927, -297, -112, 
    365, -169, 516, 89, 591, 408, -223, -381, 
    236, -855, -118, -692, -639, 114, -375, -536, 
    367, 161, -462, -32, 354, 45, 31, 139, 
    164, -1076, -221, 58, 446, 417, 459, -370, 
    145, 950, -696, -734, 289, 93, -140, -775, 
    -820, 585, 237, -556, -578, -332, 263, 10, 
    -135, 452, -482, 108, -619, 306, -7, -346, 
    93, 67, -1129, 445, -345, -892, 379, 324, 
    -695, 533, -342, -152, 197, 201, 80, -233, 
    88, 409, 206, -638, -1022, 655, 389, 1048, 
    439, -863, 73, -291, 86, -994, 438, 228, 
    -10, 81, 496, -418, -148, 41, -680, 646, 
    6, 451, 698, -890, -740, -59, -15, -653, 
    1014, 90, 364, 341, -512, 18, 227, -455, 
    492, -436, -440, 120, 214, 291, 542, 1007, 
    526, -687, 151, 484, -269, 24, -804, 621, 
    227, -631, -597, -918, 943, -415, 629, 451, 
    -73, -566, -555, 148, -324, 71, 117, 468, 
    -252, -210, -404, -121, -879, -90, 147, 644, 
    294, -171, 233, 449, -26, -484, -182, 480, 
    398, -375, -830, 715, -747, -573, -468, 282, 
    -564, 368, -258, 710, 341, 125, 156, 340, 
    -433, -2, 398, -451, 139, 319, -517, -51, 
    -195, 183, -90, -291, 73, 238, 100, -616, 
    -1, -232, 399, -375, -689, 200, 190, -185, 
    -397, -29, 178, -227, -30, 582, 91, -441, 
    -537, -352, -195, -143, -717, -442, 352, -72, 
    -333, 601, 349, -289, 222, -480, -268, 22, 
    175, -538, 400, 748, -407, -59, -102, 390, 
    -841, -499, -287, -222, 760, 205, -265, -539, 
    -232, 320, -421, 672, -381, 213, 501, -201, 
    -705, 345, -324, 219, 572, 182, -635, -485, 
    248, 629, 175, 19, 385, 214, 356, -232, 
    -268, -259, 238, 601, -199, 166, 371, -761, 
    -557, -348, -262, 533, -407, -964, -590, 194, 
    -50, 491, 417, -54, -416, -150, 11, -502, 
    153, 39, 215, 229, -233, 140, 362, 429, 
    459, 320, -458, -251, -106, 892, 613, -287, 
    -970, 65, -486, -828, 299, -605, -14, 106, 
    -404, -293, -630, -51, 611, 285, 755, 671, 
    -7, -320, 38, -171, -570, -1225, -425, -179, 
    485, 199, -45, -26, 719, 807, 945, -616, 
    -866, -527, -242, 486, 524, 968, -438, -507, 
    -283, -279, -943, -57, 1073, -568, 788, -666, 
    665, -462, -426, 1209, -338, -1212, -397, 494, 
    741, -716, 979, -210, -176, 136, -363, 638, 
    -1136, 691, 324, 646, 276, -39, 117, -620, 
    256, 820, 97, 595, 98, 600, 461, -414, 
    451, -1104, 339, 136, 1274, -589, 469, -697, 
    274, -1111, -533, -170, 1038, -848, 319, 493, 
    -435, -660, -1061, 128, -505, -753, -13, -373, 
    103, 554, 515, 169, -399, -35, -1045, 447, 
    80, 97, 343, 593, 143, 250, 339, -380, 
    -669, -134, 333, 733, 190, 559, -474, 229, 
    -379, -168, -250, -340, -369, 245, -140, -290, 
    -167, -226, 399, -183, -244, -398, 669, -517, 
    755, 163, -468, 422, 196, 80, -356, 450, 
    -551, -270, 545, -492, -756, 237, 271, 222, 
    584, 21, 244, -630, -518, -595, 185, -2, 
    119, -434, -420, 194, -95, 43, -332, -573, 
    291, -644, 480, -632, -365, -578, 303, 692, 
    487, -560, 203, -183, -997, 346, 246, -204, 
    0, -214, 243, 252, 733, -425, 219, -627, 
    -471, -82, 740, -430, 534, -76, 301, -498, 
    -23, -285, -410, -254, 950, -1021, 575, -1024, 
    -588, 351, 902, 571, 44, -273, -961, -58, 
    -675, 246, -1423, 267, 615, -558, 286, -265, 
    700, -895, -1045, 283, 54, 379, -1176, 908, 
    -69, 304, -349, 266, 386, -202, -245, -301, 
    -666, 580, -761, -155, -245, -530, -352, 818, 
    -1260, 414, 506, -231, -501, 450, -632, 22, 
    -717, -131, -249, -618, 354, -128, 680, -298, 
    551, -295, -1052, 271, 928, 564, 882, 301, 
    -298, -644, 615, 672, -1212, 483, 731, 326, 
    -1001, 233, -567, -369, 648, 110, -109, -444, 
    -494, -548, -203, -395, -548, 663, -248, 334, 
    -183, -795, 273, 442, -322, -167, -188, 72, 
    -640, -335, 449, 4, 544, 500, 41, 301, 
    15, -158, -137, 318, 523, -448, 724, -280, 
    195, -263, 8, -345, -607, -673, -87, -357, 
    6, -920, -801, 337, -304, -464, -625, 803, 
    324, -77, -214, 3, -455, -310, 282, -235, 
    263, 79, 85, 527, -479, -637, -133, 151, 
    -5, 748, 498, 815, -689, 473, 1067, -837, 
    297, 288, -293, -142, 663, 339, 711, 176, 
    -696, -872, 370, 741, -79, -412, 628, -443, 
    1229, 255, 131, 940, 491, 591, 335, 445, 
    174, 355, 918, 432, -432, 257, -112, 647, 
    -171, -244, -24, -663, -839, 490, 198, 230, 
    512, -225, 334, -1646, -788, -873, -101, 516, 
    630, 507, -8, -135, -254, 404, 238, 450, 
    223, -36, 723, 176, -175, 731, 341, -312, 
    -20, 306, 409, -355, 291, 166, 398, 232, 
    106, -845, -210, 266, 279, 1, 512, -307, 
    289, -62, -623, 167, 386, 225, -135, 613, 
    -408, -568, 560, 200, 4, 544, -25, 202, 
    -143, 149, -59, -141, -61, -268, -44, 121, 
    526, 13, -184, 59, 860, -41, 111, -677, 
    -995, 612, -253, -580, 424, -404, -28, -352, 
    142, -616, 914, -470, 124, 627, -220, 637, 
    -752, -855, -346, 943, 73, -1447, 1158, 167, 
    151, 179, 53, 402, 89, 796, 695, -337, 
    -193, -945, 687, -96, 418, 280, 428, -539, 
    734, -422, -425, 541, -237, -474, 962, -16, 
    218, 452, -926, 124, 756, -1182, -564, -466, 
    591, -1091, -397, 231, 17, 430, 18, 472, 
    -1163, -11, -255, -494, 494, 6, -171, -592, 
    119, -302, -244, 211, 120, -571, 1097, 531, 
    -974, -959, -272, 1045, 232, 572, -408, 1058, 
    331, -1543, -798, -211, 1012, 335, -455, 367, 
    214, -871, -293, -739, -1171, -989, -965, -522, 
    -104, -1174, 130, -495, -933, 567, -295, 112, 
    -76, -556, 32, -741, -804, -867, 406, -334, 
    746, 650, 146, -1, 510, -1328, -1038, -520, 
    1045, -462, -279, -197, 816, -410, -273, -96, 
    -285, -515, 298, -92, -549, -346, 183, 83, 
    -36, 79, -578, 240, -702, -641, -317, 516, 
    -296, -20, 623, -610, -992, -1445, -696, -327, 
    291, 554, 145, -845, -3, -136, 162, -37, 
    -420, 450, -185, -169, -139, 514, 957, -468, 
    -711, -190, 689, 451, -329, -1154, 210, 30, 
    -86, -279, -43, 366, 433, -688, 245, -744, 
    332, 301, -529, -108, 200, 29, -52, -460, 
    -136, -570, 94, 923, 265, 670, -215, 469, 
    135, 69, -329, 1, -26, -131, -479, -89, 
    -200, 223, -326, -64, 339, 970, -285, -462, 
    -498, -83, -292, 204, -451, 220, -146, -690, 
    -878, -351, 311, 422, 525, 43, 524, -373, 
    -295, -157, 659, 938, -539, 663, 26, 9, 
    -209, -502, 209, 78, -359, 155, -542, -148, 
    -135, 289, -148, 164, 484, -478, -123, -619, 
    358, 647, -391, 219, -590, -107, -193, -639, 
    272, -674, 536, -26, -338, 68, -845, -310, 
    -105, 871, 62, 766, 449, 656, 176, 697, 
    -363, 161, 41, -459, 453, -304, 226, 599, 
    104, -1025, -102, -229, -400, -333, -637, -280, 
    -288, 748, -911, 573, 216, -245, -373, 42, 
    741, 581, -198, -474, 339, 545, -387, -278, 
    405, 32, 1054, 405, 225, 474, -213, 571, 
    -345, 779, -331, 238, -14, 303, -684, -825, 
    354, -227, 162, -24, 93, 408, 521, -259, 
    -302, -122, 904, 34, 368, -575, -606, -908, 
    -252, -510, -433, -555, 687, 277, -257, 92, 
    497, 744, 242, 460, 389, -480, 191, 1029, 
    -161, -397, -834, -1106, 127, 350, -880, -170, 
    -243, -475, 693, -96, 377, -808, 103, 675, 
    -948, 892, -1076, -239, 1529, -142, -137, -819, 
    329, 655, -395, -1328, -1076, -155, -14, -163, 
    -458, -194, 1141, -61, -16, 44, 922, -302, 
    -626, 699, 406, 722, -538, 950, -506, 942, 
    -212, 456, 811, 421, 232, -1032, 695, -224, 
    94, -240, 533, -419, 594, 669, -876, 686, 
    780, 271, -1099, 333, -543, 97, -677, 511, 
    -124, 255, 302, 187, -848, 141, -331, -572, 
    -280, -119, -721, 537, 27, 157, 358, 705, 
    736, 300, -592, 595, -113, 942, -450, 26, 
    -252, -850, 344, 339, 571, -1132, -211, 271, 
    -326, -826, -1006, 1442, 188, -329, -328, 1191, 
    608, -91, 103, 378, 388, 470, -67, -559, 
    182, 443, -202, 832, 364, 439, -905, 98, 
    -306, 145, 279, -534, 564, -264, -91, 134, 
    766, -240, -529, -713, -738, -177, 328, -342, 
    23, -96, -548, -538, 830, -299, -773, 38, 
    669, 225, 562, 379, -357, 875, -501, -300, 
    378, 21, -479, -83, -172, -158, -832, -217, 
    -9, -739, 507, -652, 174, 71, 424, -592, 
    297, -833, -176, 241, 430, 475, -61, -135, 
    -279, 353, 37, -530, 780, -513, -268, 672, 
    68, -710, 169, -266, 300, 496, -884, 507, 
    -286, -149, -309, 649, 68, 92, -55, -289, 
    193, 82, -146, -156, -812, -200, -604, 389, 
    311, -381, -398, -845, -348, -479, -210, -284, 
    -49, 195, -212, -518, -1001, 465, -31, 221, 
    187, -477, 1109, -253, -87, 33, -171, -608, 
    23, -560, -307, -368, 562, -1225, 815, -178, 
    -1204, 881, -102, 228, 29, 695, -437, 1063, 
    -278, -479, 586, -469, 331, 566, 680, 231, 
    -575, -520, -142, -574, 48, -230, 722, -570, 
    544, -439, -701, 189, 779, -33, -1154, 1010, 
    -442, 270, 145, -387, -579, -431, -207, -1209, 
    -106, 41, -236, -440, -708, -591, -460, 1027, 
    -452, -843, -83, -73, 332, 48, -447, -87, 
    445, 128, -496, 518, -387, 66, -611, 342, 
    -326, 454, -250, 349, 221, 399, -152, -254, 
    -175, 267, -507, -1014, 826, -146, 231, 135, 
    193, 647, -460, 43, 109, -524, -430, 99, 
    692, 870, -153, -200, -1182, 330, 120, 525, 
    238, 210, -113, 806, 318, -155, -553, -224, 
    102, 242, 897, 487, 13, -425, 681, 782, 
    -360, 381, 143, 342, -88, -543, -91, -52, 
    -395, -415, -108, 394, -454, 514, 285, -686, 
    -643, 30, -286, -786, -284, -398, -319, -27, 
    986, 1092, 438, -752, 338, -501, 903, 740, 
    554, 763, 311, -161, 571, 393, 384, -630, 
    79, -413, -418, -810, 302, -376, -224, 239, 
    269, 429, 317, -192, 718, -217, -14, -740, 
    -69, 222, 85, -62, 534, 377, 348, 245, 
    -518, -3, 298, -457, 32, 621, 143, -574, 
    -196, 100, 244, 49, -565, -303, -582, -631, 
    -420, -466, -35, 114, -171, 308, 13, 684, 
    176, -419, -44, -203, -308, -255, 239, -216, 
    -348, 711, -108, -570, -233, -551, -423, -113, 
    193, 84, -120, 89, 275, -209, 424, 54, 
    -85, -24, 20, -321, -899, -129, -545, -617, 
    -767, 768, 8, -206, -263, -459, 246, 597, 
    50, -482, -205, 94, -55, -735, 539, -623, 
    34, -372, -513, -235, 293, 687, -301, 318, 
    -518, 673, -200, 716, 236, -27, 159, -509, 
    -441, -628, 450, -69, -104, 469, -296, -1083, 
    -518, -500, -63, 191, -208, 316, 1251, -484, 
    -373, 42, 505, -839, -642, 417, -108, 100, 
    291, -217, -152, -279, 303, 253, 307, -947, 
    609, -29, 1279, 426, -243, 1318, 213, 563, 
    -51, 221, -133, -609, 829, 508, -649, 679, 
    -303, -704, 50, -237, -682, -452, 429, -664, 
    -659, -242, -16, -853, 177, -342, -418, 558, 
    959, 190, 333, -822, 812, -488, 567, -43, 
    -131, 425, 898, 362, -358, -324, 585, 682, 
    -451, -12, -836, 468, 510, -622, 318, -290, 
    375, 340, 66, 238, 724, -873, 221, -278, 
    752, 82, -624, -703, 569, -337, 421, -427, 
    321, -572, -606, -561, -94, -485, -581, -60, 
    -744, 436, -564, -309, 556, 220, -52, -83, 
    192, -397, 384, 265, -520, 146, -147, 677, 
    -515, 631, 245, -887, 226, -947, -384, -296, 
    -225, 301, 78, 390, -339, -737, -579, 230, 
    -82, -925, 174, 290, -163, 348, -929, -243, 
    476, 294, -492, 250, 275, 63, 627, 205, 
    -267, 629, -178, 153, 143, -50, 129, -164, 
    108, 287, 30, 384, -664, -486, -275, -108, 
    -520, -461, -427, -445, -214, -165, 268, -63, 
    763, -43, 361, -657, -126, 114, -471, -349, 
    -664, 862, 91, -21, -473, -223, 633, 118, 
    -153, 73, 652, -91, -219, 165, -316, -404, 
    845, 653, 268, -705, 720, 32, 209, -796, 
    -193, 564, 168, -201, -81, 345, 553, -405, 
    -471, -44, -936, -1067, -1159, 608, 442, -134, 
    -113, 67, -102, -1106, 637, 114, -55, -852, 
    -729, 268, -34, 274, 287, -344, 47, 458, 
    690, -228, 507, -100, 648, 456, 249, 437, 
    700, 52, 432, -402, 177, -338, 171, -31, 
    143, -544, -509, -462, -370, -727, -105, 285, 
    -598, -8, -771, 115, 63, -145, 39, 392, 
    -427, 248, -297, 537, -23, -214, -720, -41, 
    -99, -94, -41, -641, 623, -304, 268, 55, 
    -636, -33, -443, 122, 500, -189, -103, -46, 
    -84, -155, -666, 306, 498, 174, -41, 226, 
    -400, -486, 390, 372, -369, 215, -764, 1020, 
    51, -371, 78, -460, -749, 242, -209, 65, 
    -517, -62, 515, 672, -139, -606, 442, -265, 
    -405, -1013, 43, 167, -449, -243, -246, -381, 
    335, 353, 512, -60, -603, 59, 11, -342, 
    -385, 242, 561, 469, 251, -743, 680, 307, 
    -447, 1013, 122, 411, -109, -855, 23, -114, 
    -107, 349, 69, -314, 259, -481, -637, -391, 
    -159, -210, 541, -408, -367, -433, 1087, 595, 
    -214, -567, 708, -11, -249, -186, 660, -424, 
    478, -972, 328, 446, 175, -485, -647, -178, 
    655, -274, 455, 625, 35, -236, 471, 126, 
    -2, 552, 32, 299, -821, -285, -157, 965, 
    -241, -580, -705, 205, -1178, -682, 56, -90, 
    386, 443, 375, 466, -391, -364, 0, -181, 
    350, -323, 92, -279, 377, -194, 19, 724, 
    -234, 39, 473, 635, 352, -523, 681, -623, 
    -373, -404, 735, -199, 293, -587, 497, -324, 
    232, -481, -881, 302, 374, -188, 16, -531, 
    -619, 696, -637, -421, 749, -244, -152, 120, 
    87, 694, -877, 206, 490, 248, -890, 347, 
    -102, -38, -743, -910, 280, 593, -38, 331, 
    -171, 131, -243, -613, 370, 106, 769, 127, 
    -41, -617, -619, 518, -766, -244, 466, -279, 
    -495, -354, -25, 383, -234, -189, 375, 592, 
    -95, -343, -755, -1130, 297, -1006, 210, 139, 
    -555, -599, -309, 84, 557, -42, 140, -577, 
    630, -1264, 253, 305, -160, -150, 188, -248, 
    -651, 10, 554, 455, 125, -271, -1107, 4, 
    252, -211, -53, -210, -1079, 147, 411, 405, 
    -822, 1005, -38, 78, -523, -476, -164, -675, 
    -203, 3, 164, 340, -79, 504, 171, 67, 
    -113, -61, 842, 680, -364, 323, -173, 76, 
    -751, 16, -907, -269, 666, 633, 325, -81, 
    -1270, -420, -107, -59, 407, -506, 622, 850, 
    -318, -250, -151, 588, 309, -884, -182, -568, 
    -456, -339, 755, 477, -622, -232, 42, 129, 
    -605, 437, -434, -1003, 556, 643, -131, 41, 
    184, 719, -4, 513, 298, 285, 310, -3, 
    -15, 764, 684, -396, 4, -107, -902, -789, 
    206, -575, 247, -43, -125, -436, -755, -595, 
    58, 155, 274, 722, -94, 304, 657, 239, 
    605, 289, 510, -688, -397, -85, 531, -104, 
    -459, 26, 562, -453, 285, -40, -173, -683, 
    76, 153, -379, -921, -772, -300, 467, 167, 
    513, 289, 519, -803, 248, 633, 220, -59, 
    311, -401, 523, 889, -344, 364, -168, 169, 
    350, -106, -458, -468, -328, -642, 757, 740, 
    -1015, -24, 863, 446, -383, 742, -771, 80, 
    -649, 175, -559, 784, 303, -273, 51, 199, 
    -234, -161, 167, 623, 531, 435, 749, 327, 
    819, -60, 533, -361, -45, -273, 40, 1044, 
    -632, 357, 585, -655, -112, 585, -739, -69, 
    354, -166, 601, -765, -612, -378, 886, -402, 
    -994, 202, 855, 394, -765, 759, 614, -809, 
    704, -334, 328, -554, -246, -622, -395, -503, 
    119, 679, 167, 1089, -99, 63, -766, 959, 
    203, -950, 889, -177, 947, -880, 743, -494, 
    -132, 286, -812, 661, -135, 1025, 42, -109, 
    -634, -174, -363, 151, -513, 331, -276, -343, 
    140, -37, -756, 337, 876, -16, -1269, 1138, 
    256, -314, 775, -22, -576, 375, -255, 698, 
    -191, 84, 594, -469, 904, -154, 202, 1050, 
    -242, -462, 419, -853, 199, -343, 125, 214, 
    334, -544, 48, -684, -315, 73, 413, -111, 
    -644, -328, 621, -245, 74, 297, -522, 338, 
    -347, 1948, 3, 185, -1331, 230, 481, 734, 
    198, -332, 924, -176, -158, 365, -89, 617, 
    -334, -4, -59, -350, 839, -561, 581, -73, 
    451, -297, -402, -522, -559, -648, -35, -460, 
    -37, 973, -637, 464, -251, -40, 114, 613, 
    595, -870, -102, 262, -456, 647, -704, -164, 
    -471, -28, -152, -376, 191, -70, -232, -267, 
    -499, -308, 570, 478, 53, -470, 612, -662, 
    488, -14, -618, 187, -368, -386, 101, 1101, 
    -151, 384, 751, -160, 282, -581, 719, 162, 
    -101, 486, -27, -682, -439, -376, -695, -234, 
    -132, 596, 63, 196, -309, 347, -341, 18, 
    -432, -295, 477, -71, 466, 86, -813, 488, 
    -206, 557, 37, 249, 228, 250, 795, -254, 
    323, 461, 216, 526, -136, -406, 318, 903, 
    -1298, 732, 347, 637, 538, -29, 1102, 603, 
    -59, 623, 86, -673, 861, -159, 1035, -839, 
    -69, -566, 146, 794, -955, 465, 476, 835, 
    -358, -136, 99, -343, -671, -1211, -429, -240, 
    -86, 1241, -932, 64, -330, -1011, 206, 340, 
    -735, -768, 797, -446, -446, 415, -164, -806, 
    -234, -967, 877, 329, 1273, 899, -720, -605, 
    316, 453, 593, 838, -379, 275, -488, 23, 
    -210, 2, -141, -390, -705, 701, -754, 414, 
    253, -790, -651, -779, 1354, 212, -379, -488, 
    -1153, -653, -120, -758, -872, 52, 10, -312, 
    -143, -541, -4, 777, -209, -28, 16, -274, 
    67, 104, -108, 135, 660, 381, 93, -219, 
    410, -245, -692, -268, -470, -20, -100, -397, 
    -639, -214, 443, 113, 557, 448, -250, 245, 
    -606, -628, 62, 282, -275, 237, 961, 701, 
    -307, -329, -203, -364, 399, 204, -833, -118, 
    -732, -482, 303, 347, -761, 358, -161, -850, 
    -718, 132, 208, -90, -632, -279, 87, -876, 
    -409, -256, -502, 73, 362, -326, 443, -20, 
    -451, -468, 133, 198, -344, -77, -557, 521, 
    755, -363, 93, -528, -181, -90, -255, 287, 
    -914, -367, -262, -328, 302, -214, -43, 296, 
    -233, -853, 185, -631, 423, -663, -132, 903, 
    506, -551, 8, 478, 240, -1062, 221, 167, 
    -598, -10, 18, -19, 322, 659, -121, -143, 
    758, -1141, 15, 586, 104, 289, 31, -1087, 
    -847, -63, -706, 215, 616, 775, 343, 298, 
    -702, -856, 469, 1012, -20, 327, -1, 387, 
    -28, -766, 613, 335, 274, 263, 269, 544, 
    -982, 82, -380, -85, -351, -458, 212, -409, 
    708, 866, 780, 39, -1099, -188, -4, -278, 
    -278, -721, -195, 525, 48, -149, -314, 22, 
    51, -539, 84, 622, 157, 357, 53, 829, 
    -74, -9, 630, 108, 20, 85, 85, -165, 
    -348, 214, 327, 902, -291, 581, -446, 885, 
    122, -944, 403, -1308, 156, -66, 747, 320, 
    97, -681, 297, 524, -789, -648, 217, -252, 
    153, 892, -665, 123, 286, -839, -487, 348, 
    43, 185, 179, 23, -211, -252, -429, 526, 
    -986, -223, 833, -39, -182, 131, -462, 1156, 
    -275, 223, -106, -188, 59, -551, 163, 249, 
    -95, -498, -184, -35, -839, 122, -336, -503, 
    -39, 303, -1086, 235, -477, -58, 563, -69, 
    232, 776, -33, -28, 245, -320, 364, -939, 
    411, 1358, 57, 313, -1057, -625, 548, -325, 
    -435, -308, -442, -950, -478, -813, 160, 8, 
    182, 57, -506, 419, 363, -29, 167, -538, 
    -1167, -647, -103, -257, -183, 593, 578, -300, 
    -65, 116, -208, 205, -655, -146, -264, -219, 
    131, -766, -569, 85, -130, 580, 455, -38, 
    133, -353, 195, 442, 259, 191, -431, -479, 
    -117, 41, -394, -466, -316, 209, 919, -83, 
    -412, -857, 163, -166, -813, -318, 531, -105, 
    274, 251, 328, 340, 219, 253, -7, 423, 
    -578, -66, 284, -370, 623, 732, 133, 354, 
    -262, -799, -1006, -378, -534, 806, 305, -504, 
    -40, 305, -190, 944, 446, -131, 271, 609, 
    -388, 154, 635, -824, -548, 185, 219, 64, 
    346, -582, -492, 168, -46, -834, 185, 190, 
    -1008, 379, -439, 16, -52, 38, 225, 389, 
    -143, -100, 1012, 121, 385, 669, -274, -398, 
    -451, -572, 286, 266, 144, -962, 176, -603, 
    275, 997, 217, -509, -183, -732, -421, -327, 
    569, 656, 458, -191, -330, 99, 252, -9, 
    477, -689, 1049, -455, -238, 176, 632, -1119, 
    178, -751, 591, -533, 289, -360, -342, 931, 
    165, 107, 894, 658, -882, -710, -335, 24, 
    332, 74, -80, -555, -572, -71, -787, 159, 
    484, -582, -105, 477, 516, -603, 242, -263, 
    -34, -349, -77, -503, 20, -587, -513, 46, 
    -703, -231, -31, 440, -38, -568, -552, -727, 
    683, -496, -544, -298, 885, 82, -236, -1272, 
    -361, -500, 731, 177, -161, 174, -1475, -311, 
    -767, 965, -1360, 65, -28, 415, 198, -632, 
    415, -367, -1227, 303, -1104, 257, -1020, 437, 
    486, 72, 989, -196, 446, 299, 1320, 1107, 
    -996, 261, -331, 6, 211, -127, -790, 456, 
    -885, -80, -246, 680, -148, -248, 110, 535, 
    544, 598, 507, -729, 328, 369, -2, -371, 
    -186, 860, -666, -123, -153, -117, -200, 305, 
    1001, 1216, 653, 637, -1095, -599, 709, -1331, 
    64, 442, -171, 104, -376, -73, 97, -233, 
    -114, 122, 21, -629, -506, 680, -91, 554, 
    499, -216, 43, -718, 1175, -621, -799, -447, 
    -1125, 779, -21, 104, 388, 1040, 207, 614, 
    81, -530, -497, 614, -135, 202, 450, -448, 
    139, -340, 394, -980, -135, -322, 574, -670, 
    107, -840, -479, 744, -11, 118, -415, 797, 
    -1201, -300, 248, 761, 458, -499, -16, 411, 
    -343, 55, 62, -148, -473, -480, 246, -65, 
    -349, 670, 743, 222, -1083, 230, 530, -517, 
    51, 32, -901, 207, 582, -155, 997, -953, 
    -99, 200, -104, 542, -113, 296, -227, 371, 
    477, -145, 232, -187, -254, -376, 388, -127, 
    879, -276, -136, -29, 554, -488, 719, 158, 
    -81, 125, 101, -945, -821, -192, -545, 751, 
    -107, -583, 667, -574, -1059, 552, 252, -167, 
    -118, 973, 171, 43, 948, 585, -456, 557, 
    31, -27, -131, -314, -428, 488, -47, -1114, 
    695, 491, -949, -855, 30, 829, -5, 9, 
    604, -248, 749, 774, 1044, -90, -442, -728, 
    345, 125, -245, -440, 441, 711, 126, 48, 
    -174, -316, 233, -3, -957, -602, 245, 161, 
    150, 74, -350, 230, 679, 412, -1023, 129, 
    -519, -976, -118, 917, 181, 66, 201, 559, 
    -343, -557, -126, -276, -114, -726, -178, 573, 
    -138, -179, -414, 484, 5, 95, 313, -1098, 
    -932, 603, 319, -201, 455, 667, 31, 428, 
    673, 618, -162, 676, 64, 547, 255, -321, 
    110, -191, -250, 290, 434, 489, -1, -524, 
    396, -263, 295, -494, -544, 857, -336, -109, 
    -22, 50, 165, -705, 189, -247, -503, -710, 
    599, -114, 148, -55, 522, -56, -39, -1018, 
    -1029, -964, 766, -480, -183, 233, 572, -83, 
    201, -828, 58, -294, 249, 411, -92, 667, 
    27, -813, -849, -573, -448, 524, -167, -68, 
    300, -404, 514, -42, -322, -381, -141, 204, 
    -247, -294, -45, -236, 172, -449, 237, -302, 
    -96, 183, -331, 482, -527, -361, -339, -155, 
    -1089, -220, -822, -717, 192, 313, 590, 507, 
    -606, 206, -392, -224, -1055, 381, -276, 594, 
    -732, -132, 280, 76, 503, 343, -430, -121, 
    -654, 343, -327, 557, 776, 403, 581, 313, 
    -1071, 21, 148, -334, -870, 532, -843, -954, 
    -1129, -445, 128, 141, -45, -80, 360, -199, 
    -623, -550, 1053, 289, -429, 195, 574, -472, 
    -164, -207, 292, -550, 710, -213, -959, -520, 
    -357, -745, -248, -64, -862, 278, 340, 276, 
    -181, 1228, 905, -519, -574, -530, -666, -259, 
    115, 186, 105, 482, -816, -90, -280, -800, 
    -429, -414, -697, -77, 42, 72, 977, 392, 
    -1212, 438, 596, -957, 660, -526, 388, -530, 
    -396, 433, 1207, 74, -371, -519, -830, -527, 
    764, -963, -821, 958, -513, -378, -503, -495, 
    -147, 571, 586, -890, -983, 586, 217, -88, 
    371, 87, -392, 257, -382, 305, 389, 547, 
    624, -698, 151, 742, -987, -1496, 1354, -632, 
    -378, 630, -329, -460, -429, 323, -374, 921, 
    56, 319, 625, -619, -55, -419, -962, 687, 
    -939, 57, -301, -254, 374, 459, -22, 45, 
    -96, 145, 73, 209, -454, 366, -831, 107, 
    35, -273, 301, -561, 524, 275, 301, -354, 
    153, -101, 274, 27, -810, 205, 5, 322, 
    -318, 1139, 788, 154, -317, 593, -242, 168, 
    -1120, 782, -531, -139, -616, -208, 213, 229, 
    -171, 233, 693, -145, 222, 475, 363, 96, 
    275, -89, 830, -922, 358, -555, 1119, -303, 
    -379, -426, -590, -406, -951, 166, -255, -355, 
    92, 530, 371, -189, -165, -346, 32, -285, 
    172, -179, -134, -568, -289, -1603, 68, -600, 
    -564, -428, -197, 253, -385, 66, 633, -289, 
    216, -680, 167, 369, 595, 117, 92, -159, 
    589, -728, 583, -123, -11, 540, -1209, 767, 
    20, -1228, 172, 40, -234, 206, -686, -616, 
    99, 13, -619, 283, 238, -1498, 1126, 694, 
    -1166, 1345, -361, -1072, 1423, 431, 450, -811, 
    127, 440, 1073, 384, -1284, 497, 626, -924, 
    212, 215, -691, 414, -264, 319, -371, 783, 
    599, 22, -573, 526, -549, 223, 176, -231, 
    -1099, 1005, -345, 119, -290, 141, 42, -547, 
    146, 571, 44, 327, -709, -278, 675, 828, 
    -359, -675, -143, -420, -140, 522, 189, 247, 
    -326, -1073, 1134, 642, 816, -2167, -387, 142, 
    -1259, -696, 94, 547, 504, -330, -434, -815, 
    823, -342, -684, 31, 465, -705, 224, 195, 
    187, 388, -35, 195, -297, 207, -359, 382, 
    454, 456, 509, 203, 33, 257, 150, 84, 
    -70, 298, 437, 433, 79, -411, 545, 8, 
    -109, 31, -487, 539, 156, 469, -259, -196, 
    288, 483, 329, 616, -342, -213, -786, -227, 
    -438, -296, -483, -492, 390, 283, -702, -281, 
    -196, 32, 415, 2, 416, 15, 243, 685, 
    -500, 439, 502, -659, 229, -30, -437, -388, 
    57, -386, 178, -277, 688, 123, -587, -564, 
    28, 411, -643, -1100, -941, -1233, -524, -352, 
    62, 499, 221, 223, -298, -553, -856, 832, 
    223, 548, 168, 68, -518, 527, 91, 472, 
    -257, 453, 150, -373, 71, 213, -339, -299, 
    -189, -1094, -726, -709, -465, 223, 337, 44, 
    -416, -479, 235, -356, -662, 172, -113, -248, 
    240, 103, 0, -226, 301, -294, 165, 304, 
    -5, -129, 212, -11, -101, -93, 72, -264, 
    571, -156, -594, -389, 303, -365, -428, -96, 
    -105, -375, -307, 115, -739, -314, -275, 444, 
    588, 424, 531, -33, 48, 266, 148, 217, 
    269, 633, -293, -562, -433, 347, 335, 229, 
    -118, -57, -512, -35, 264, 190, 275, 375, 
    -298, -347, 57, -127, 425, 219, 155, -804, 
    -554, -612, 55, 205, -95, -243, -70, -287, 
    667, -880, -179, 693, -119, 485, 786, 101, 
    613, 174, -72, -231, -351, -259, 331, 17, 
    270, 681, 558, -1445, 237, 360, -156, -355, 
    455, -1576, 247, 931, -390, -911, -159, -386, 
    636, 840, 413, -226, -486, -281, 365, 270, 
    -51, 511, -614, 1289, -890, -612, -747, 1254, 
    -507, -41, 1531, 936, -303, -432, -238, 419, 
    -39, 1003, -1137, -891, 211, -281, 392, 39, 
    45, -201, -358, 277, -192, 227, -1198, 1156, 
    -15, -270, -419, 372, 1293, -898, -509, -128, 
    -1319, 331, -302, -302, 163, -1119, -1156, -840, 
    -63, 1020, -186, -48, -691, 174, 440, -911, 
    397, -181, -189, 897, -937, -532, 29, 953, 
    -242, -998, -361, 563, -105, -160, 238, -716, 
    436, -246, -475, -335, 859, -603, -290, 363, 
    -590, 456, 338, 433, 137, -622, -17, -696, 
    -1439, -160, -913, -61, 36, 263, -216, 710, 
    394, -1263, -57, 53, -253, -969, -161, 849, 
    443, -608, 513, 201, -523, -411, 1032, -484, 
    -541, 329, -97, 381, 207, -458, -455, 109, 
    235, -391, 53, -306, -175, 290, -603, -251, 
    -777, -486, -942, 104, 685, 323, 424, -563, 
    605, 227, -1119, 842, 732, -245, -664, -788, 
    194, 568, -364, -281, -292, 629, 139, -212, 
    567, 815, -102, -469, 366, -802, 380, -162, 
    -141, 469, 509, -1015, -360, -454, -331, -317, 
    -505, 1258, -1013, 596, -334, 1053, 748, -20, 
    373, 181, -511, -1444, -399, 281, 494, -638, 
    681, 192, 931, -1214, 141, 722, 86, 193, 
    -409, 603, 776, -140, -662, -311, 401, -942, 
    730, 185, 394, -383, 434, 459, 1219, 50, 
    1161, 1096, 455, -928, -343, 1426, -447, -1072, 
    -425, -245, 856, 479, 627, 588, 443, -163, 
    250, -29, 589, 509, -379, 325, -114, -329, 
    -871, -129, 41, -142, 262, 308, -998, 1286, 
    636, -529, 756, 53, 122, 47, -828, -693, 
    -913, -649, -751, -482, -961, -747, -736, -187, 
    -196, 621, 58, -442, -704, 889, -128, -57, 
    -361, 354, 169, 284, -468, 507, -546, 182, 
    -199, 986, -111, 330, -279, 226, -937, -29, 
    -28, -463, -98, -179, -532, -106, -192, -289, 
    115, -589, -217, -203, 562, -549, -162, 503, 
    357, 917, -295, 14, 230, -634, 538, 32, 
    -608, 394, 396, -388, -467, -242, -313, -383, 
    94, -533, -472, -159, -298, -401, 289, -255, 
    129, -516, 464, -60, -794, -278, 305, 139, 
    -590, 629, 131, -257, -543, 235, 223, 511, 
    802, -397, 589, -280, 365, 390, -489, -543, 
    529, 361, -438, -119, 421, -294, -168, -489, 
    -124, -205, -339, -688, 323, 237, -476, 51, 
    585, -38, -526, 334, -174, -670, -635, 196, 
    -396, 467, 467, 372, -491, 337, 228, 318, 
    221, 119, -404, -290, -512, 467, 290, -84, 
    580, -119, -113, -871, -566, -408, -99, 298, 
    158, -397, 191, 165, 402, 587, 166, 18, 
    -811, -425, -186, -28, 303, 364, -224, -84, 
    434, -440, 325, 207, -148, 321, 314, 481, 
    156, 430, 429, -215, -406, 64, 68, 268, 
    207, -171, -429, -1000, -285, 442, 486, -620, 
    -641, -731, -261, 113, 167, 269, 442, -415, 
    -377, -790, 759, 193, 75, -248, 305, 728, 
    -161, 335, -48, -161, 357, 264, 109, 826, 
    -752, -119, -279, -203, 425, -919, 567, 133, 
    -205, 42, -128, 76, 418, 515, 453, -217, 
    690, 398, -539, 629, -1073, 127, -391, -222, 
    -288, -453, 277, 44, 199, -1187, 218, -198, 
    -432, -835, 285, 342, -243, -1075, -282, -471, 
    67, -285, -320, 353, 538, -445, 1150, 21, 
    -149, 563, 360, 313, 63, -106, -298, -26, 
    -393, -172, 685, -533, -264, 76, -451, -614, 
    -622, -135, 519, 371, -195, -329, 197, -704, 
    -563, 458, -869, 316, 142, 361, -411, -179, 
    614, -358, 257, 437, -178, -554, -590, 727, 
    -486, -114, 528, -356, 282, -610, 119, 155, 
    -577, -334, 578, -45, -229, -196, 757, 202, 
    88, 676, -743, -605, 36, -182, 359, -126, 
    62, -723, -528, 554, 294, 409, -25, 480, 
    -264, -605, -225, -106, -948, -86, 304, 456, 
    495, -584, -601, 835, -436, -462, -33, -411, 
    910, -439, -397, 1141, -12, -697, -432, -174, 
    -1501, 274, 166, -253, -348, -78, 31, -694, 
    628, 686, -534, 432, 464, 46, -180, 281, 
    -902, -14, -632, 727, 195, -365, -999, -253, 
    -168, -653, -572, -33, 120, -157, -424, 282, 
    22, 73, 212, -326, -314, -744, -216, 319, 
    291, -984, -617, -68, -1268, 739, 413, 1180, 
    486, -1389, -432, 79, 385, -29, -165, 971, 
    -537, 200, 358, -524, -34, -633, -906, -58, 
    1331, 424, -555, -427, 472, -412, -578, -844, 
    -110, 205, -521, -469, 820, 187, -697, -956, 
    -262, -586, -485, 1219, -313, -476, 590, 219, 
    -66, -882, -825, 115, 133, -94, 416, -73, 
    -343, 575, -392, 292, -2, 533, -517, 601, 
    949, 892, -492, 467, -354, 1105, 13, -50, 
    170, 234, -121, 696, 27, -1064, 1024, -471, 
    -723, 373, -1407, 138, 1025, -184, 509, -295, 
    145, 232, -533, 375, 354, -411, -504, 602, 
    974, -460, -106, 28, -226, -581, -271, -196, 
    -44, 125, -71, -37, -218, -773, -64, 81, 
    -136, -499, -589, 115, -58, 8, -150, 256, 
    587, 140, -161, -229, 171, -658, -502, 418, 
    592, -240, -375, 293, -67, -125, -57, 15, 
    280, -93, -737, 410, -5, -1007, -51, 422, 
    -756, -180, -578, 70, -296, -234, -410, -18, 
    317, -678, -479, 166, 854, 343, -349, -377, 
    135, 23, 23, 101, 288, 258, 3, -300, 
    -224, -57, 334, -329, 109, 64, 215, -70, 
    181, -308, -497, -378, 368, -127, 640, -329, 
    -550, -204, 112, -193, 301, 52, -644, 405, 
    172, 566, 340, -24, -671, -544, -569, -932, 
    486, 370, 466, -501, -1181, -116, 328, 490, 
    -694, -299, 288, -320, 821, 5, 630, -295, 
    854, 387, 148, 641, 633, 233, 115, 465, 
    290, 869, 146, -65, 753, 598, 439, -70, 
    -69, -604, 242, -969, -822, -99, -440, 939, 
    -66, -333, 308, 564, -43, 676, 578, -1243, 
    -419, 1053, -1060, 335, -106, 624, 364, 693, 
    -290, -7, 9, 102, -48, 921, -202, 253, 
    246, 927, 679, -472, 822, 120, 584, 508, 
    608, 600, -1067, -263, -510, -446, -507, -150, 
    -408, -284, -128, -717, -725, -245, 273, -351, 
    -318, -1055, -828, 252, -702, 749, 559, 958, 
    579, -978, -479, -206, -900, -836, -291, -264, 
    773, 38, 543, 516, 328, -273, 81, -355, 
    355, -129, -403, -865, 237, 128, -729, 327, 
    -621, 273, -223, 401, 653, 657, -184, -454, 
    36, -174, 634, 520, -1166, -736, -701, 893, 
    352, -586, 151, 135, -843, 22, -751, -248, 
    -467, 86, -163, -543, 70, -263, -259, -393, 
    616, 623, -1081, -521, 598, 821, 586, -194, 
    461, -279, -42, -87, -246, -315, -557, -1190, 
    -923, 665, 222, -164, 40, -413, 189, -773, 
    -102, 186, -312, -1212, 111, 13, 350, 465, 
    -413, 538, -843, -433, -901, 163, 133, -541, 
    -108, -680, -297, 74, -41, 221, -78, 420, 
    187, -121, -264, 267, 714, 243, 208, -163, 
    -630, -401, -205, 194, -537, 449, 180, -649, 
    -587, 46, 937, -288, 514, -350, -205, 936, 
    506, -78, -1057, 40, -487, -609, -1383, -1049, 
    -339, 164, -556, 415, -610, -13, 1296, 284, 
    -554, -989, 346, 567, 327, 775, 241, 276, 
    293, 229, 749, 211, -136, -318, -62, -264, 
    -418, -873, -343, -208, 206, 47, 703, 300, 
    -590, 654, -303, 975, -203, 51, -52, -311, 
    -727, -617, -813, -1139, 300, 714, 225, 296, 
    -53, 1034, -130, -186, 190, -471, -425, 684, 
    -298, -553, 1515, 123, 675, -314, 357, -331, 
    -1294, 407, 835, 2, 847, -285, 343, -194, 
    -1203, 440, -1415, 1070, 753, -454, -347, -188, 
    -204, 430, 127, -129, -727, 121, -1178, -332, 
    -409, -419, 909, -216, 871, -441, 399, 732, 
    142, -332, -562, 1302, 687, -1210, 376, 569, 
    -249, 608, -269, 410, -4, -141, 285, -87, 
    -45, 367, -143, 202, 876, -1168, 149, -170, 
    795, 524, -1119, 226, 1302, -605, 789, -373, 
    -408, -126, -648, 456, 1113, 75, -374, -224, 
    94, 210, -690, -149, -150, -676, 343, -15, 
    1073, 42, -286, -696, -86, -188, 164, -403, 
    825, 852, 134, 67, -366, -438, -831, -331, 
    358, -567, -352, 540, 375, -385, -835, 142, 
    981, 93, -243, -832, 503, 338, -464, 563, 
    -603, -315, -1111, -364, 998, -435, 337, -961, 
    648, -960, 138, -555, 633, 153, -330, 189, 
    1111, 1221, -424, 347, 491, -1112, -907, -22, 
    990, 314, 184, -482, 220, -51, 3, -337, 
    1025, -222, -484, -288, 647, 1091, 991, -296, 
    393, 169, -26, 361, 95, 139, -632, -383, 
    -139, -242, -161, -576, -100, -917, 736, -246, 
    881, 195, -176, 904, -583, 508, 451, 223, 
    1, -425, 555, -191, 879, 32, 741, 127, 
    289, -393, 724, 420, -668, 538, -415, -87, 
    560, -365, -248, -537, -324, -108, 478, 798, 
    -649, 377, 220, -326, -1082, -562, 438, 416, 
    -698, 565, -211, 407, -599, -417, 594, 586, 
    -13, -467, 961, -522, -358, 721, 338, 313, 
    -3, 565, 250, -767, -659, 509, -482, 744, 
    -758, -361, 265, 648, -318, -840, 209, 492, 
    166, -491, -425, -374, -418, -702, -443, -575, 
    -333, -389, -75, -674, -475, -468, 217, -320, 
    -152, 374, 290, -381, 162, -399, -431, 455, 
    422, 53, 1236, -596, -378, 166, -360, 33, 
    -367, 353, -792, 292, 698, 427, 197, 898, 
    -1495, 562, 943, -193, 8, 367, -14, 257, 
    946, -478, 380, 119, -961, -157, -866, -79, 
    287, -862, 30, 339, 416, -74, 256, 491, 
    -595, 229, 554, -704, -1116, 436, -135, 472, 
    742, 44, -649, 234, -69, 694, -139, 659, 
    655, -7, 344, 479, -514, -196, 856, -297, 
    -433, 345, -127, 447, 222, -188, -532, 1605, 
    -361, -87, 483, 357, 413, -643, 134, 32, 
    -577, -128, -314, 232, 189, -31, -618, -168, 
    987, -1086, -704, -43, 668, 702, -1096, 348, 
    117, 398, 366, 231, -753, 596, -10, 83, 
    -1301, -491, -396, 1036, -350, -123, -766, -468, 
    -952, -491, 547, 32, 484, 494, 271, 50, 
    444, -655, 109, -408, 346, -624, -130, -293, 
    -440, 507, 354, 126, -120, -607, -168, -138, 
    -164, -870, 621, 179, -1117, 183, -778, 735, 
    -949, -223, 948, 237, -155, 222, 642, -165, 
    72, 9, 339, -273, -72, -216, -149, -4, 
    -33, -984, -479, 125, -505, -9, -814, -370, 
    -229, -513, -16, 1226, 269, -458, -256, 235, 
    -906, 44, 11, 875, 249, 291, -191, 411, 
    211, 569, 148, 80, -625, -914, -292, -342, 
    -1036, -810, -115, 46, 413, -467, 524, -369, 
    -593, 157, -342, -1158, -105, 455, -32, 597, 
    181, -91, 764, -165, -345, 7, -448, -914, 
    -38, -264, 144, 428, -214, -252, -191, -659, 
    -203, -521, -87, 696, 504, 127, -904, -116, 
    -417, -387, 520, 113, 185, 196, 533, -799, 
    127, 1041, -1553, 4, -35, -470, -446, 274, 
    95, -113, -537, 885, -1073, -364, 403, -1115, 
    -668, 36, 263, -240, -762, -684, 433, -127, 
    483, -244, 847, 915, -108, 698, 525, -345, 
    52, 217, -584, 1110, -202, -3, -211, 278, 
    23, -1009, 229, -371, 140, -769, 628, -615, 
    327, 113, -166, 371, -280, -84, -73, 988, 
    570, 471, 184, 565, -345, 314, -718, 266, 
    328, -30, -888, 152, -201, -856, -510, 1008, 
    -258, -829, -407, 107, -91, -104, 598, 129, 
    -237, 603, -38, -60, -179, -546, 134, 420, 
    509, -508, -19, 396, 218, 512, -744, -652, 
    235, -384, -282, 448, -303, -931, -1162, -461, 
    -236, -842, 830, -248, -585, 656, -837, -645, 
    878, -863, -667, 390, 788, -84, -329, 138, 
    -157, 236, -27, 1007, 208, -466, 76, -757, 
    63, 154, 83, -172, -355, -248, -70, -694, 
    -169, -633, -221, -661, 174, -139, 596, -477, 
    -69, 265, 113, -76, -35, 149, 100, -265, 
    -617, -77, 480, 314, -67, -83, 110, -112, 
    50, -125, -213, 343, -522, -173, 399, -705, 
    -221, 41, -251, 193, -282, -366, -64, 250, 
    -198, -42, -63, 637, -233, 189, -73, 203, 
    -187, -553, -873, 414, -48, 200, 31, 198, 
    -31, 183, 321, -25, -116, 159, 0, 191, 
    293, 75, -334, -714, 71, 78, -252, 324, 
    -403, 72, -464, -126, 46, -141, 49, -6, 
    -130, 498, -436, 223, -98, -203, 38, 376, 
    -97, -204, 421, 303, -357, 286, 706, -469, 
    256, 120, -138, -31, -566, 180, -227, -111, 
    51, 76, 32, -504, -226, -91, -393, -429, 
    210, 48, -97, -137, -140, 214, -197, 439, 
    -606, 123, -20, -493, -10, -213, -760, 76, 
    -505, 31, 529, -37, -285, -409, 177, -164, 
    -376, 193, 73, 182, -87, 386, 301, 295, 
    -57, 254, -150, -21, 760, -147, -595, 323, 
    -204, -45, -487, 170, 376, -546, -107, -342, 
    647, -523, -340, 347, 276, 217, 561, 137, 
    409, -6, -312, 25, -141, -282, -140, 743, 
    -424, -410, 433, -221, 359, 42, 620, -513, 
    -273, -64, -276, 173, -359, -16, 108, -83, 
    -514, 45, -256, -219, 139, -167, 391, 340, 
    156, -112, 99, -233, 72, 84, 9, 325, 
    152, 36, -18, 76, -426, -82, 293, -125, 
    -390, 249, 437, 462, -219, 214, -38, -512, 
    -331, -61, 529, -122, -256, -451, 74, 117, 
    268, 629, -219, 1, 281, -208, -12, -178, 
    -547, -91, -69, -294, 224, 298, 110, -162, 
    108, 304, 997, -444, -510, -758, -146, 108, 
    208, -719, -224, -330, 120, -260, -936, 296, 
    351, 602, 262, -328, 80, 69, -297, 553, 
    200, 434, 113, 433, -252, -411, 310, 492, 
    630, 82, 129, 175, 34, 439, 52, -276, 
    185, 443, 71, 76, -499, 8, -138, 107, 
    429, -412, 75, -221, -145, 207, -305, -505, 
    292, 104, -316, -175, -134, -234, -120, 242, 
    -238, 190, 102, 205, -478, -110, -409, -703, 
    -5, -155, 193, -147, 36, -517, 367, -314, 
    163, -146, 174, -54, -79, 258, 202, 82, 
    72, 396, 301, 279, -166, 188, 110, 272, 
    -100, 186, -61, -325, -342, -550, 24, 29, 
    488, -364, 238, -133, 125, -346, 229, 192, 
    164, -223, -259, 95, 210, -31, -522, 274, 
    -371, -154, 234, 30, -90, 899, 389, -31, 
    -343, -92, 330, -347, -484, -192, 609, 103, 
    54, 14, 326, 270, 308, 109, 78, -52, 
    305, 160, -235, -643, -651, 184, -72, 97, 
    260, -135, -113, -415, 219, -107, 37, -321, 
    31, 88, -85, -538, 347, -709, 106, 235, 
    -166, 341, 327, 243, -172, -285, 110, 221, 
    -300, -83, -128, 73, -240, -425, 172, -252, 
    12, 556, -143, -145, -4, 6, -141, -378, 
    238, 311, 530, 559, -167, -568, 353, 73, 
    -27, 424, -236, -246, -305, 87, 88, -232, 
    -380, -9, -7, 48, -244, -160, -185, -66, 
    -161, 312, 329, 9, 117, 19, 7, 84, 
    179, 220, 210, -206, -247, -115, -194, 268, 
    104, -45, -160, -9, -518, -460, -42, -135, 
    532, 192, -348, -75, 149, -19, 78, -95, 
    140, 396, 603, 140, -161, 88, -278, -278, 
    -433, -225, -171, -423, -19, -311, -416, -213, 
    -164, -125, -24, -455, -114, 353, 73, 56, 
    35, 391, -58, -385, -560, -528, 52, -546, 
    -637, 59, -226, -52, 173, -139, 110, -41, 
    726, 509, 282, -684, -47, 200, -215, 26, 
    -456, -133, -50, -68, -422, -229, -650, -79, 
    -32, -36, 454, -492, -114, 11, -591, -625, 
    267, 93, 432, -76, 295, -441, -611, -972, 
    -631, 39, 226, 205, -123, 192, 282, -151, 
    -189, -215, -94, 346, 42, -152, -364, -139, 
    444, -274, -403, -278, 235, 436, -440, -444, 
    86, 55, 167, -106, 280, 371, 15, -484, 
    269, 431, 201, -36, -231, 109, -146, -69, 
    -271, 234, 343, -1, 54, -316, 165, 438, 
    138, 90, -313, 39, -353, 73, -115, 123, 
    -510, 152, -63, -310, 112, 414, -11, -406, 
    334, -215, 240, 146, -231, -478, -70, -80, 
    372, 258, 519, 20, 127, 35, -435, 334, 
    410, 265, 360, -434, -72, 213, -34, 103, 
    153, -399, -41, -45, 31, -446, 170, 226, 
    241, 104, -130, -213, -522, 471, -365, -68, 
    -163, 348, 406, 292, -227, -576, -321, 448, 
    302, -744, -24, 261, -152, 39, -658, -554, 
    261, -445, 242, 110, -85, -232, 333, -224, 
    -120, 457, -158, 29, -247, 323, -324, -336, 
    -446, -79, 663, -56, 317, 30, -8, -588, 
    417, 297, -262, -397, -201, -118, 43, 293, 
    -334, -230, 295, 385, -314, 223, 613, -134, 
    -269, 74, -1, -789, -379, 186, -25, -36, 
    86, -109, 173, 133, -440, -207, -280, 56, 
    117, 56, 71, 340, 66, 8, -179, -478, 
    39, 212, 379, -477, 140, 887, 135, -923, 
    -90, -36, 127, -478, 313, -18, 461, -87, 
    -319, -22, 3, 387, 718, 271, -239, -82, 
    -69, 128, 424, 84, -191, 17, 370, 298, 
    -75, 105, 109, -196, -666, -177, 450, -313, 
    -125, 628, 221, 753, 82, 274, -267, -82, 
    -441, -341, 520, 369, -408, -301, -78, -148, 
    65, -157, -684, 222, 63, -174, -127, -136, 
    -155, -159, -470, -471, -9, 250, 233, -616, 
    123, 105, 327, -403, 113, -211, -158, 405, 
    239, -114, -184, -625, 608, -372, -599, -175, 
    55, 439, -80, -668, 579, 196, -41, 170, 
    -23, 179, 586, 208, -382, -252, 329, 27, 
    141, 214, 383, 452, -232, 227, 47, -602, 
    161, 555, -325, 55, 161, -264, 102, 503, 
    389, -495, 333, 363, 289, -288, -565, -39, 
    491, -480, -485, 93, -239, 195, -178, 126, 
    -82, 190, 61, 26, -535, 9, -670, -649, 
    -715, -184, 381, -489, -234, -117, 294, 147, 
    500, -136, 280, -91, 327, 300, 482, 95, 
    -409, 356, -166, 7, -98, 82, 469, 73, 
    -377, 51, -349, 308, 154, -321, 272, 95, 
    516, -613, 174, 118, 142, -744, 547, 83, 
    -95, -36, -335, -537, 31, 7, -190, 333, 
    -462, -243, 444, -335, 138, 517, 583, -693, 
    -90, -86, 192, -147, -565, 237, 403, -79, 
    -581, -104, -307, 93, 448, 20, 123, 22, 
    532, 115, 462, -281, -437, -83, 191, 106, 
    -386, 384, 63, -66, -70, 140, -160, -104, 
    -300, -124, 10, 121, -151, 117, -111, 203, 
    -515, -364, 198, 37, -31, -454, -42, 516, 
    -12, 5, -361, -147, 279, -349, 22, -545, 
    206, 99, -336, 387, -98, -165, -253, 255, 
    -13, 198, 112, 437, -277, 397, 242, -341, 
    -180, 297, -405, 429, 128, -452, 208, 287, 
    196, -633, 253, -225, -81, 1, -202, -371, 
    40, -283, -69, 153, 110, -358, -284, -131, 
    -42, 422, -148, 268, -238, 269, -180, 23, 
    193, 257, -110, 252, 156, -123, -98, -205, 
    756, -615, 622, -283, -411, -361, 71, 579, 
    -330, 834, 177, 452, -259, -644, -274, -13, 
    -307, -285, -293, 133, -99, -333, -276, -530, 
    154, 124, -197, -216, 311, -306, 421, 631, 
    -424, 238, 133, 425, -19, -106, -39, 405, 
    -624, 79, 581, -95, -88, -325, 302, -95, 
    -22, 105, 216, 274, -289, 50, 90, -207, 
    89, 413, 403, -201, 138, -286, -608, 347, 
    -42, -86, -137, -187, 186, 26, -145, -65, 
    -494, -73, 103, -13, 216, 390, -474, -292, 
    232, -68, 67, -274, -379, 362, 201, 372, 
    -283, 309, 191, 385, -344, 99, -430, -80, 
    283, -45, -484, -683, 318, 175, -96, 150, 
    296, 200, 133, 152, -165, -304, -39, 33, 
    -734, -430, -757, -397, 249, 317, 151, 31, 
    -84, 264, -532, -141, -130, -157, 643, 32, 
    -192, -114, -287, -385, -217, -107, -446, -344, 
    152, 46, -484, 465, -297, 167, 381, 106, 
    -54, 27, -198, 599, -137, 103, -59, -54, 
    -63, 369, 235, -71, -201, 117, -251, -683, 
    -301, 23, -260, 419, -211, 213, 89, -334, 
    -95, 360, -67, -93, 53, 338, 41, 452, 
    -151, -557, -15, -203, 161, -257, -156, 334, 
    42, 331, -515, -292, 339, 227, -702, -546, 
    -390, 61, -185, 8, 429, -541, 171, 468, 
    237, -154, 153, -100, -138, 55, -8, -227, 
    -370, 251, -96, -90, 250, -200, -134, -72, 
    203, 336, 536, 183, -342, 403, -217, -63, 
    672, -62, -339, -421, -515, 266, 454, -864, 
    196, 252, 92, 258, 235, -731, 69, 407, 
    -251, -694, 395, -444, -21, 136, 503, 270, 
    -408, 458, -18, 618, 10, -222, -354, 145, 
    -471, 380, -945, -23, -407, -137, -448, -40, 
    -325, 160, -633, 302, -26, 148, -489, -296, 
    390, 365, -49, -13, 100, -216, 504, 142, 
    593, 214, 88, -30, 125, 15, -194, -176, 
    72, -381, 448, -174, 281, -437, -456, -391, 
    -305, 422, -224, -224, 357, 147, 20, 34, 
    67, -516, 212, 28, -310, 39, -520, -183, 
    -147, 205, -291, 136, -96, -126, 332, 257, 
    -50, -420, 165, 366, -566, 289, 409, 343, 
    -215, -11, -602, 242, 53, 526, -300, 236, 
    41, -43, 62, -11, -77, -311, 283, -121, 
    -91, -211, 398, 431, 40, 277, 131, -43, 
    -45, -142, 200, 117, -38, -203, 257, 1, 
    316, -250, -216, 296, 110, 441, -38, -334, 
    -11, -78, 106, 225, -222, -530, -415, 67, 
    468, -668, 450, 670, 754, -63, 381, -326, 
    295, 381, 137, -524, 0, 167, 56, -145, 
    -134, -209, -230, 95, -347, -123, -463, -77, 
    -210, 27, 125, 338, 355, 315, 76, 490, 
    238, 21, 366, -502, 49, 107, 214, -72, 
    109, -117, -224, 42, -157, 11, 58, -116, 
    -253, 176, 438, 63, 113, 96, -137, -397, 
    -241, -126, -225, -58, -290, -672, -32, 101, 
    -735, 50, 451, 132, -81, 346, -147, -351, 
    -419, -614, -248, 59, -317, 225, 398, -395, 
    97, 31, -90, 317, 196, -372, 590, 556, 
    -197, -301, -170, 60, 230, -113, 122, -101, 
    387, 844, 324, 409, -9, 114, -177, -678, 
    118, -107, -139, 191, 69, 336, 523, 320, 
    384, -199, -35, -57, -382, -135, -274, 378, 
    -562, -451, -328, -256, 151, 136, -288, -42, 
    347, 56, 348, -80, 62, 6, -107, -528, 
    -358, 225, -174, 154, -13, -314, -576, -160, 
    -280, 45, 404, -118, -51, -397, -208, 152, 
    268, 98, 124, -159, 345, -174, -207, -68, 
    -117, 37, 21, -376, -140, 45, 73, -412, 
    -82, 29, 198, 284, -316, 264, 383, 293, 
    -131, 34, 269, -8, -121, -160, 82, 248, 
    387, -24, 0, -259, 331, 270, 97, -150, 
    -280, -22, -201, -236, 175, 48, -6, -305, 
    -189, -35, 382, -197, 239, -16, 437, 72, 
    114, -207, -163, 85, -126, -68, 22, -412, 
    -434, 321, -613, -370, -243, -529, 49, 247, 
    217, 121, -80, 191, 71, 252, 236, 57, 
    277, 143, -33, -277, -143, 329, 139, 104, 
    467, 467, 107, 10, 23, -195, 123, 112, 
    -347, -199, 270, 65, -132, 9, 245, 166, 
    -247, 90, 60, 307, 237, -222, 135, 257, 
    136, 68, -497, -326, -31, 354, 137, -397, 
    -33, -62, -128, 159, -91, -305, 451, -258, 
    -95, 86, 125, -153, 520, -13, 282, 95, 
    325, -178, 126, -308, -40, -17, -231, 211, 
    322, 475, -543, -190, 206, -504, -451, 55, 
    359, -343, 461, 631, -326, -455, -578, -320, 
    582, -73, -180, -83, -173, -258, 434, -230, 
    -319, 117, -261, 290, -327, 200, -688, 363, 
    38, -32, 515, 188, -207, 162, 333, 53, 
    101, -67, 188, 395, -624, -200, -392, -101, 
    149, -567, 126, -582, 152, 782, -356, -79, 
    283, 233, 23, -87, 335, 661, -409, 348, 
    -290, 164, -34, 86, 254, -18, 107, 286, 
    -61, 482, 77, -20, -319, 307, -182, -68, 
    -433, -246, 95, 260, 84, -450, -150, 117, 
    -256, 491, 119, -105, -73, -568, 377, -57, 
    92, 531, -2, 75, -475, -72, 284, -332, 
    406, 131, 467, 374, -589, -259, 47, 248, 
    -68, 30, -33, -585, -521, -341, -384, 436, 
    64, 157, -122, 500, 56, -58, 287, 206, 
    772, -544, -348, 60, 235, 63, -529, 134, 
    356, 861, -547, 362, 756, -10, -27, 163, 
    319, 91, -111, -235, 114, -265, -184, -243, 
    129, 287, 586, 375, 178, 105, 260, -390, 
    -178, 271, 1, -248, 106, 282, 966, 147, 
    -290, -302, -285, 723, 316, -105, 578, -118, 
    247, 284, -216, -141, 771, 27, 413, -51, 
    -114, 57, 569, 105, 542, -63, -14, 271, 
    345, 126, 594, -311, -329, -375, -116, 327, 
    -232, 234, -587, -313, 159, 80, 255, -51, 
    -340, -39, -76, 61, -19, 121, 549, 59, 
    262, -281, -74, 46, -404, -166, -480, 394, 
    -412, 128, 375, 121, 193, -102, 7, -420, 
    -89, -296, -244, -124, -130, -312, -279, 147, 
    145, 319, 71, -172, -211, 249, 201, 143, 
    32, 450, 128, -123, -33, 231, 105, -155, 
    -163, -383, -199, -61, 144, -188, -295, 182, 
    -81, -27, 238, 286, 294, -363, 104, -39, 
    -227, 545, 75, 205, -4, 38, -93, 57, 
    371, -653, 3, -68, 95, -177, -214, -173, 
    111, 25, 409, -14, -309, 0, -49, 200, 
    -554, 337, 306, 350, -238, -239, 130, -368, 
    -331, -756, -336, 18, -91, -169, 20, -56, 
    16, 36, -213, -183, -94, -181, 87, 130, 
    -303, -67, 217, -219, -288, -318, -330, 287, 
    24, 335, 300, -355, 198, -273, 19, -131, 
    -187, 188, 308, -449, 11, -392, 28, 41, 
    -336, 99, -363, -467, 28, -448, -595, -296, 
    -218, -194, -205, -367, -315, 201, -208, -394, 
    88, 83, 228, 403, -75, -301, -757, -277, 
    -175, 339, -239, -34, -262, -390, -418, -48, 
    7, 349, -159, 429, -219, -20, -43, -352, 
    -316, -439, -149, 73, -181, -402, 189, 101, 
    -218, -39, 115, 459, -254, -276, 224, -310, 
    224, -137, 102, -83, -215, 53, 214, -139, 
    -530, -342, -486, -136, -45, -571, 118, -216, 
    -158, -277, -148, -195, -173, -353, 1, -151, 
    -133, 73, 54, -547, -553, 34, 157, 257, 
