#ifndef WEIGHTS_BIAS_INT32_H
#define WEIGHTS_BIAS_INT32_H

#include <stdint.h>

static const int32_t WEIGHTS[] = {
-1, -11, -17, 105, 159, 311, 52, 15, 
    20, -51, -55, -19, -35, -28, -7, 26, 
    -36, 31, -10, -39, -11, 17, 60, 83, 
    4, 3, 16, -68, -51, -18, 2, -34, 
    -32, 3, 34, -3, -30, -19, 15, 246, 
    451, 196, 22, -48, 22, 218, 299, 339, 
    67, 70, 92, -347, -295, -492, 0, 13, 
    20, -30, 18, 111, -32, 30, -9, 632, 
    611, 651, -67, 15, 53, -27, 77, -74, 
    11, 36, 2, -330, -331, -302, -34, -22, 
    16, 140, 79, 74, 1, -39, 46, -428, 
    -258, -371, 48, -16, 12, 288, 269, 236, 
    41, 6, 29, -320, -226, -122, 26, -38, 
    10, -234, -161, -207, -84, -79, -73, -226, 
    -133, -114, -17, -4, -13, -4, 37, 32, 
    -75, 18, 91, -146, -98, -79, -1, -8, 
    1, -114, -3, 79, 25, -10, 12, 91, 
    49, 76, -31, 23, -31, -251, -293, -87, 
    29, -190, -49, -223, 63, 58, -8, 7, 
    15, 58, 65, 8, 42, -5, 24, 342, 
    320, 390, 39, -5, -30, -46, 25, 90, 
    107, -65, -123, 15, -1, 133, 5, 6, 
    -17, 120, 45, -59, 16, 1, 38, 10, 
    40, -14, 44, 5, 17, -123, -66, -41, 
    -41, -494, -835, 294, 116, -1073, -772, 598, 
    -204, -1405, 75, 658, -43, 504, 76, -103, 
    -79, -648, -1389, -329, 694, -2430, 983, 1703, 
    -1391, -793, -214, 2290, -1252, -2595, 238, 1166, 
    803, -1095, 454, 461, 558, -203, 654, -1407, 
    367, -229, 229, -841, -192, 307, -635, -498, 
    366, 779, -1939, 508, -379, -174, 283, -1839, 
    -792, -439, -1818, 1036, 1108, 784, 1519, -23, 
    -568, -3509, 160, 660, -928, -680, 126, 253, 
    920, 752, -982, -690, -1099, -1122, -320, -860, 
    -498, 646, 161, -736, -1144, 818, -532, -807, 
    -1087, -762, -520, -379, -111, 1056, 1176, 509, 
    953, 1485, -77, -725, 1040, 1455, -371, 268, 
    879, 20, -1403, 694, -26, 860, 414, -146, 
    -693, -563, -30, -961, 502, 639, 59, -1021, 
    1110, -502, -593, 356, 1210, 1724, -254, -174, 
    -590, 348, 215, 81, 448, -382, -526, -1227, 
    -835, 225, -447, 167, 218, -44, 1328, 635, 
    147, -1050, 1400, 213, 567, 1085, 669, -278, 
    -1580, -337, -1256, 907, 1751, 50, 441, -325, 
    -1766, -293, 698, 242, -429, 1499, -1589, 1114, 
    -31, 198, -1416, -1429, 1234, 1548, 514, -52, 
    2398, 595, -1131, -898, -1302, 1093, 1911, -418, 
    361, -1080, -367, 506, 966, -249, 1324, -1472, 
    1083, 1466, 488, -269, 129, -533, -448, -125, 
    958, -557, -63, 74, -2127, -299, 1265, 110, 
    -971, -1373, -520, 635, 1811, 816, -192, -2171, 
    1436, 263, 26, 541, 393, -1954, -983, 1272, 
    379, 563, 446, -22, 1312, 2097, -3575, 176, 
    -742, 755, 499, 1269, -2180, 549, -302, -490, 
    2383, 311, -1821, 731, 1040, -360, 331, -53, 
    -1773, 440, -803, -671, -1945, 72, -385, -388, 
    530, -502, -369, -1389, -2317, 103, -91, -695, 
    1361, 311, 353, -16, 895, 524, -80, -758, 
    -1806, 821, 536, -715, -853, -218, -495, 24, 
    -149, 1125, -1229, 482, -443, 2012, 654, -1504, 
    281, 73, 60, -1246, 91, 220, -811, 362, 
    173, 954, -2613, -678, -71, -489, -1963, -999, 
    -266, -3186, 917, 573, 86, 681, -1056, -438, 
    -1458, -889, 156, -307, -124, -707, -728, -269, 
    -364, -1282, -6, 386, -879, -1444, -316, 1347, 
    -210, -1941, -450, -419, 1, -345, 701, -42, 
    -1704, 465, 284, -138, -801, -768, -568, 735, 
    -114, -1691, 253, -132, 730, -1018, 75, -1010, 
    -142, -2554, -2630, -200, 1230, -1409, -483, 741, 
    538, 1347, -1027, 2271, 862, -396, -3793, 150, 
    1107, -484, -820, -958, 355, 1102, -111, -981, 
    -1181, -2002, -1073, -397, 490, -816, 937, 2094, 
    190, 463, -1504, 1505, 1137, -1752, 1283, -320, 
    -1149, -19, 427, 93, -2280, -211, 1196, -1104, 
    67, -599, 626, 1120, -1119, -1068, 302, -267, 
    -2531, -188, 585, -605, -633, 531, -198, 877, 
    651, -866, -605, -1651, -1630, -1341, 563, -747, 
    -1086, -36, 114, -674, 163, -2016, 496, -501, 
    -526, -921, 496, 206, 136, 1131, 419, 221, 
    -292, 2341, -408, -26, 642, -147, -70, -184, 
    -171, -440, -837, 551, 650, 616, -1319, -2341, 
    761, 552, -2278, 407, -906, -2204, 884, 421, 
    -1440, 269, -976, -2078, -192, -548, -763, -15, 
    449, 805, -860, -423, -220, 675, 508, -55, 
    -255, -1110, -275, -769, -881, -63, -1705, -47, 
    -533, 697, 622, -1909, 1067, 342, -1183, -564, 
    -2290, 708, -1143, 390, 227, 500, 1292, -1918, 
    -5, -530, 851, 968, -998, 42, -179, 872, 
    -846, -518, -596, -666, -372, 256, 133, 264, 
    3, -452, 307, 831, 928, 390, -85, -522, 
    -1843, -1757, 827, -940, -12, 691, -548, -638, 
    -5, -1861, 347, 1007, 414, 1158, 92, -116, 
    37, 563, 269, -1472, -19, -837, -984, 996, 
    -358, -542, -377, -243, -351, 343, -678, -572, 
    -1476, -1594, -941, -705, -1145, -282, 666, 64, 
    -290, -169, -1209, -874, 1431, -870, 755, 1714, 
    -902, -791, -1643, -741, 337, -836, 1066, -1817, 
    -795, -645, 805, 630, 1733, -205, -284, -765, 
    766, 312, 550, -1760, -422, 825, -84, -1342, 
    -465, -335, 672, 1223, 519, -1835, -559, -628, 
    554, 114, -1213, 1513, 1193, 867, -688, -766, 
    412, 1780, 1088, 393, -50, 272, -64, -1123, 
    290, -87, -1019, -291, -709, 270, -914, 1639, 
    -1678, -1006, 790, -442, -158, -677, -46, 772, 
    -783, 715, 36, 229, -493, -1341, -138, 699, 
    -2056, 1242, -1438, -211, -721, -20, 1126, 5, 
    -1073, -1823, 903, -770, -636, 1177, -996, -1709, 
    2262, -1319, -2613, -1353, 1628, 93, 795, -2139, 
    -700, -1111, 474, 445, 607, 1679, -1852, -1452, 
    -461, -374, 218, 1303, 1130, -287, -748, 781, 
    2537, 1646, -1419, -870, 183, 237, 154, 640, 
    874, -391, -835, 5, -23, 186, -1340, 1292, 
    749, -1000, 715, 282, -1226, -1099, -1001, 129, 
    -342, -635, -352, 93, -289, 322, -197, 562, 
    728, -1308, -1778, 637, -1496, -266, 160, 343, 
    187, 821, 303, 550, 22, -3091, -2114, 318, 
    -1035, -311, 199, -810, -349, -313, 1158, 1155, 
    434, -939, -34, -860, -2184, -544, 280, -923, 
    961, 442, -663, 1088, 346, -652, -298, 725, 
    -1267, 1952, 243, -419, 1635, 1420, -884, -549, 
    216, 1544, 343, 2019, 441, -11, 433, 1507, 
    -1016, -1393, 209, 883, -112, -751, -417, 628, 
    -1061, 1377, 157, 778, 4, -259, -182, 1215, 
    315, -809, 401, 197, -385, -1573, 1080, 264, 
    -927, 1427, -7, 622, 835, 1353, -1962, -198, 
    98, -661, -1756, 454, 190, 59, 405, 858, 
    623, -166, -1726, -1817, -1773, -1836, -673, -484, 
    -576, -1414, -1124, -811, -277, 3, 1065, 293, 
    -395, 236, 1340, -579, -47, 228, -403, -8, 
    -884, -1656, 157, -471, 405, 90, -290, 723, 
    893, -592, -247, -867, 458, 462, 301, -876, 
    -29, -56, 491, -64, -1531, -429, -1310, -361, 
    -6, -396, -2387, -598, -1478, -138, 758, -527, 
    -1303, -746, -923, 368, -73, 341, -309, -1546, 
    -121, -430, 484, -720, -1346, -1764, -351, 432, 
    872, -302, 26, -598, -432, 302, 717, 357, 
    -213, 1167, 249, -715, 623, 471, -1835, -920, 
    344, 333, -366, -734, 221, -292, -1846, -2729, 
    -342, -907, -9, -810, -196, 1356, -235, 82, 
    406, 156, 515, -803, 766, 244, -112, -526, 
    -193, 187, 190, 1086, 557, -628, -377, -1908, 
    -298, -2736, 1359, 136, -347, 462, -604, -163, 
    305, -2081, -2926, 1277, -97, -124, 644, 170, 
    1348, 125, 725, 751, -582, -388, -2133, -780, 
    -644, 318, -272, -1322, -1048, 192, -573, 154, 
    571, 1125, -301, 472, 1287, 1084, 940, 471, 
    -608, -408, -364, -67, 1552, 1165, -129, 370, 
    568, 780, 813, 1143, -198, 599, -621, 295, 
    173, 442, 16, 1020, -708, 828, 1076, 1475, 
    -215, 1081, 79, -1008, 214, -162, -323, -1075, 
    -1003, -323, 419, 1265, -1408, 596, -388, -1870, 
    1426, 109, 543, -683, -402, -988, 995, 784, 
    606, -718, -672, -1693, 897, -441, 856, -1131, 
    690, -377, -213, 1486, -789, 534, -95, -579, 
    1291, 930, -595, -107, 729, -1096, 58, 830, 
    -1446, 707, -559, -828, 313, -622, -565, 1825, 
    633, 1083, 976, -375, -587, 711, 640, -412, 
    -1645, -837, 1023, 516, -638, 821, 423, -1095, 
    702, 1432, 942, 1153, -74, -554, 542, 1004, 
    296, 358, -328, -346, -377, 1532, 699, 1956, 
    521, 291, -477, -167, 919, 1700, 2064, 607, 
    506, -777, 591, 297, 944, -248, -398, 11, 
    -151, 681, 1480, -412, 340, -13, -2, -540, 
    591, 684, 90, -852, 312, -633, 684, -2240, 
    -20, -592, 737, 367, -120, 781, 1283, -375, 
    -1277, -223, 1430, -404, 269, -984, -64, 922, 
    1511, -1213, 116, 253, -51, -412, 438, -734, 
    -988, 610, 277, -231, -527, 383, -187, 2630, 
    -370, -148, 485, -739, 900, 308, 207, -142, 
    -675, 112, 431, 273, 485, 708, 423, -168, 
    -719, -751, 394, 221, 921, 660, 730, 927, 
    -1737, -1451, -1644, 741, -36, 197, -1076, 229, 
    -1451, -765, -1418, -1117, 693, 345, 63, -439, 
    -675, -598, -1310, -24, 693, -520, 632, 16, 
    1442, 1276, 395, 322, -454, 1239, -36, 124, 
    1517, -1701, 424, -1512, -942, -537, 1053, -515, 
    409, 87, -469, 565, 1155, -1455, 450, 162, 
    -26, 695, 716, 486, -990, 49, 788, 820, 
    -212, 88, 1245, 2950, -29, 908, 272, -890, 
    -126, -6, -172, -487, 793, 673, 645, -425, 
    -787, -1040, -340, -215, -76, -588, -2064, 810, 
    -978, 674, -1865, 175, -132, 629, 534, 221, 
    -276, -518, -806, -360, -658, 510, -426, 244, 
    1685, 582, 1799, 430, -1146, 134, -54, -856, 
    74, -380, 701, 1268, 2651, -2127, 2832, -379, 
    -502, -1835, 2718, -1990, 2370, -37, 822, 356, 
    -2128, -928, 1872, -1116, 548, 612, -1489, 765, 
    2494, 142, -1158, -487, -599, 999, -915, -3419, 
    -1000, -324, -2306, 98, 133, -1076, -1127, -1670, 
    1593, -192, -1121, 261, 843, -678, -1085, 6, 
    -535, -2020, -42, 426, -119, 1111, -139, -388, 
    320, 28, -948, -1354, -1262, -1436, -618, 786, 
    188, -750, -518, 1112, 1322, -554, -197, 229, 
    -778, 10, 392, 1253, -1111, -1368, -1285, -745, 
    73, 156, -119, -1106, -865, 226, 1154, 330, 
    221, 651, 1135, 1409, 1041, -688, -1252, -193, 
    -948, -977, 487, 396, 150, -744, -850, -491, 
    -339, 634, 85, 393, -1229, -245, -242, -1145, 
    -902, -150, 258, 856, 399, -982, -265, 680, 
    -313, 890, 339, -759, 1000, -181, 53, 233, 
    -127, -640, -1097, 771, -702, 228, -817, 368, 
    424, 97, -886, 342, 1552, 607, 463, -321, 
    44, -112, 58, -267, 765, 1377, -34, 1408, 
    -709, -1246, 1467, 302, -1667, 916, -39, -1019, 
    599, 464, 974, -563, -683, -670, 907, -465, 
    -1263, -1046, 870, -2014, 854, 1345, -3052, -646, 
    323, -354, 171, 104, -513, -350, 476, -306, 
    1058, 73, -1679, 787, -110, -1916, 761, -835, 
    -1092, 860, -376, -82, 878, -170, -1383, -48, 
    -293, -210, 208, 140, 350, -999, 838, -369, 
    -291, 0, 903, 944, 569, 617, 1141, 1474, 
    1209, 188, -169, -1296, -381, 1672, -537, -2031, 
    -468, -810, 1287, 1328, 1427, 248, 638, -451, 
    93, -281, -681, -473, -181, 297, 751, 230, 
    -1492, 190, 567, 284, -339, -433, 601, -256, 
    580, -1355, -374, 815, 219, 51, -208, 86, 
    -41, 15, 186, 794, 612, 311, -183, -858, 
    -2590, -620, -172, 507, -94, -945, -527, -324, 
    -922, -399, -600, 684, 738, 234, 1189, -647, 
    560, 364, -373, 25, -225, 22, 418, -599, 
    856, 52, 121, 964, 420, -676, 89, 54, 
    -1894, 661, -145, -1335, 915, -458, 1030, 1005, 
    347, -549, 672, -371, -293, -302, -864, -693, 
    977, 110, -134, 1280, 11, -1383, 1126, 159, 
    801, -10, -611, -457, 688, 165, -450, -712, 
    -1267, 248, 589, 557, -158, -322, -26, -99, 
    -51, 452, 630, 245, -527, 1055, 501, 476, 
    -66, -821, 230, 31, -861, 1083, -1318, 120, 
    766, -896, -590, 373, -340, -553, 799, -720, 
    -246, -321, -84, 210, 211, -802, -739, 393, 
    -53, 612, 147, 417, 316, 179, 530, -1856, 
    -759, -186, 271, -522, -658, 108, -1411, -744, 
    1722, 245, -565, -857, -1624, -216, -28, 208, 
    -1153, 33, 101, -581, 381, 537, -30, 447, 
    21, -411, 659, 787, 843, 2, 710, -241, 
    52, -107, -227, 250, 134, -156, 39, -903, 
    214, -424, 145, 61, -334, -633, -293, 833, 
    503, -514, 66, 618, 407, -445, -840, 69, 
    -349, 17, 13, -1084, -766, -469, 33, -496, 
    129, -784, 238, -589, 381, -19, -2229, 108, 
    324, 232, 305, 421, -214, -83, -581, -625, 
    1269, 31, -757, -456, 114, -1340, 305, -1230, 
    481, -806, -1115, -267, -558, 1020, -267, 300, 
    -367, 623, 1213, -446, -645, -672, 89, -161, 
    82, -1128, 596, 160, 163, -948, -179, 722, 
    -1124, 369, -142, 1353, 475, -1102, 1034, 448, 
    739, -323, -246, 933, -775, -2321, -178, 1171, 
    -270, 397, 411, -508, -783, -868, 779, -304, 
    109, 558, 590, -331, -254, 501, 190, 100, 
    -637, -519, 693, 275, -692, -204, 340, 177, 
    -373, 990, -200, -529, -1132, -485, 449, 373, 
    -210, 962, 646, 188, 581, 671, -2415, 1103, 
    -647, -122, -869, 766, -128, 289, -1427, 226, 
    -396, -112, 572, -410, -145, -756, -660, 1063, 
    429, 587, -139, -290, -233, -836, 173, -552, 
    168, 78, -246, -492, 260, -604, -205, -280, 
    349, -1397, 89, -1107, 257, -1080, 48, -514, 
    -478, -166, -782, 324, 262, -484, -576, 546, 
    -735, 484, -11, 511, -598, 193, 759, -586, 
    578, -84, -608, 673, 50, 277, 270, -785, 
    166, -13, 55, 186, 604, -1010, -162, 37, 
    19, 821, -232, -469, -429, 189, -163, -615, 
    -526, -381, -649, 172, 217, -814, 49, 303, 
    815, -190, -409, 1155, 254, 453, 775, 581, 
    453, 301, 475, -842, -948, -302, -1015, -373, 
    721, -82, 763, -294, -440, 656, -1249, 574, 
    139, -242, 136, -554, 267, -532, 996, -846, 
    483, 728, 57, 608, -397, 8, 515, -196, 
    -303, -172, -642, -180, 397, -915, -304, 470, 
    -300, 426, 35, -1229, -323, 638, -955, 876, 
    -1353, -612, -611, 577, -120, -748, 429, 95, 
    182, -317, 178, 369, -1093, -617, 263, -90, 
    -458, -78, 335, 147, -37, -136, -326, 332, 
    -20, 317, 354, -519, -351, -711, 269, 1580, 
    -2144, -177, -1476, -163, 27, 334, 543, -117, 
    -778, -1014, 1005, 582, -1073, -319, 273, 407, 
    -706, -405, 160, 1241, -1151, -546, -186, 158, 
    644, -1197, -165, 65, 832, -199, 389, -460, 
    652, 239, 643, -45, 1328, -288, -903, 173, 
    771, 634, -294, -401, 195, -627, -43, -388, 
    -138, -589, 895, -677, -1814, -453, 687, -1023, 
    -699, 140, -571, -1355, 710, -221, -1187, 17, 
    -15, -616, -2084, 25, 250, 757, 390, 13, 
    973, 36, 325, 757, -746, 237, -113, -1126, 
    119, -377, -429, -818, -315, 929, 310, -527, 
    1368, 1425, -250, -127, -82, -2122, 433, -393, 
    867, 300, 216, -841, 892, 26, -66, 83, 
    726, -130, -164, -1253, -347, 18, 791, -359, 
    -26, -454, -111, 172, 66, 903, -279, 6, 
    -210, 227, -734, 303, 892, 1246, -89, 1229, 
    808, 231, -331, -333, -349, -674, -534, -106, 
    -61, 420, 789, 593, -102, 184, -33, 1510, 
    317, -367, 4, 378, -250, 19, 1046, -378, 
    195, -62, 583, -222, 708, 738, 237, 356, 
    6, -1229, -602, -738, 823, 85, -1446, 122, 
    38, -901, 355, -224, 941, -862, -1220, 253, 
    85, -720, 540, 203, -1586, -393, -560, -632, 
    612, -283, -413, 436, -155, 839, 677, 973, 
    111, -1218, 309, -404, -339, 261, 610, 877, 
    214, 700, 728, -398, -103, 369, -280, -292, 
    -145, 841, -16, 421, -287, -1202, 261, -747, 
    -1278, -22, -61, -663, 58, -446, 232, -434, 
    -961, 313, -1420, 1406, -912, 315, -107, 1532, 
    407, -1204, 332, -230, -1002, 1264, -622, 902, 
    96, -1252, -816, -1299, 258, 625, -1508, -185, 
    -178, -231, -476, -259, -450, 484, -573, 672, 
    37, 224, -334, 8, 854, 110, 793, 326, 
    -118, 784, -216, 420, -322, -236, 458, -1300, 
    -203, -193, -142, 249, 236, 1132, 474, -2070, 
    165, -355, 349, -1164, -710, -928, -821, 352, 
    -864, -328, 991, -287, 421, -901, 4, 131, 
    -1157, -705, -1024, 1095, -70, 784, -749, 376, 
    -565, -643, -1314, 1093, 330, 711, 141, 396, 
    -133, -434, -1386, -704, -1071, -302, -1156, -271, 
    340, -864, -856, -355, 179, 1092, -72, 618, 
    -961, 395, -723, -1158, 781, -106, 1380, -1205, 
    8, 646, -275, 3, -394, -624, -48, 1449, 
    -702, -1001, -83, -180, 50, -1176, -281, 64, 
    -551, -401, 258, 683, -499, -260, 308, 456, 
    -41, 781, -913, -435, -1654, -435, 819, 75, 
    -297, 521, 1093, -234, 202, -861, -1620, 16, 
    1287, -478, -1171, -144, 375, -158, 824, -6, 
    27, -713, -7, 663, -380, -209, 374, 961, 
    -570, 475, 20, -358, 467, -1529, 512, -261, 
    -11, -758, -185, 293, -317, 108, -1258, -756, 
    -744, 377, 1, 238, -978, -515, -536, -659, 
    -334, -1087, -563, 380, 80, 752, -193, -995, 
    472, -777, 210, 688, -535, 114, 595, -245, 
    -466, 328, 637, -24, 559, -1702, -4, 187, 
    792, -506, -216, -414, 240, -1431, 751, -620, 
    497, -751, -300, 333, 37, -1221, 610, -808, 
    16, 576, -541, 516, 203, 9, -135, -940, 
    -296, -562, -287, -183, 485, -271, 16, -630, 
    -64, 406, 96, 221, 235, -85, 259, -549, 
    -300, -93, -36, -276, -222, 96, -228, -33, 
    -270, -342, 217, 142, -1011, -192, 80, 26, 
    776, 467, -1388, -850, -682, 204, -898, -249, 
    988, 750, -336, -187, -1189, 729, -1323, 316, 
    819, 432, -548, -1211, 533, -51, 138, 1120, 
    389, 988, -18, 38, -322, -543, -630, -335, 
    450, -1002, -351, 142, 674, 346, 547, 188, 
    -906, -469, -458, 311, 477, -421, -811, -1293, 
    308, 219, -713, 892, -529, -39, 1283, -185, 
    308, 529, -271, 274, 51, 688, 96, -546, 
    855, 255, -170, 177, 448, 644, -260, -358, 
    -650, 193, -1148, 618, -1089, -201, 337, -310, 
    665, -735, -140, 351, -814, -186, 134, -368, 
    404, 286, 770, 492, 755, 685, 296, 239, 
    -1034, 1191, 745, 231, -240, 1474, 212, 299, 
    -649, -127, 459, 1450, -190, -94, -1557, -370, 
    -57, 395, 839, 902, -38, 254, 574, 154, 
    196, -290, -238, 1231, -1367, -2310, 1257, 1335, 
    -366, 894, -414, 39, -26, -522, -235, -557, 
    127, -866, 44, -149, 455, 8, -400, -767, 
    -145, 38, 556, 511, 1065, -1359, -797, 340, 
    -1054, 422, -1564, 840, 852, 832, -1387, 166, 
    -56, 507, -379, -108, 476, 185, 460, -35, 
    598, -1296, 1261, 1847, 584, 698, -360, -1283, 
    -151, -99, -24, -587, 1118, -422, 388, 262, 
    -1505, 923, -386, 240, 448, 298, 176, -202, 
    -140, -709, 769, 855, -901, 579, -189, 72, 
    -508, 304, -1552, 98, -440, 215, 586, -320, 
    -582, -660, 286, 216, -579, -184, 290, 515, 
    -400, -300, 836, 325, -495, -12, 217, -277, 
    -526, 636, -496, -33, 108, 336, 366, -738, 
    -107, -195, 97, -1324, 116, -7, 398, -774, 
    162, -257, -260, -180, 410, 819, -264, 610, 
    -225, 287, -74, -881, 408, -471, 534, 237, 
    -139, 352, 714, 250, -865, 601, -225, 879, 
    650, -746, -43, 539, 221, 301, 287, 165, 
    -460, 315, 718, -483, -120, -179, -400, 89, 
    97, -971, -190, -89, 197, 181, -634, 122, 
    287, -462, 1082, -153, -197, 663, -611, 411, 
    -322, 971, -448, 875, -334, 409, 630, -1460, 
    774, 496, 277, -506, -2160, -249, 466, -487, 
    -207, 532, 1045, 446, 319, 126, 47, -832, 
    124, 297, 585, -792, 548, 6, 898, -448, 
    -21, -1300, -1298, 1139, -410, 825, -65, 287, 
    357, -569, -152, 19, 221, 1, -389, -697, 
    -559, -464, 284, 397, -722, 764, -816, -196, 
    326, -26, -1006, 315, 699, 134, -196, -812, 
    1636, -195, 625, 417, 87, -274, -583, 416, 
    -635, 579, -396, -1386, 649, -519, 1270, -332, 
    316, -247, -492, 837, -960, 240, 812, -416, 
    -260, -164, -496, -386, 521, -296, 151, -80, 
    -144, 1230, 357, -1060, 63, 277, -1928, -1004, 
    -204, -772, 1131, -1232, 287, 299, -863, -34, 
    -560, 188, 819, 21, 323, -1078, 1359, -593, 
    -1144, -229, -828, -560, 1602, 215, 563, 237, 
    -589, -1452, 150, -1082, -30, -519, -330, -666, 
    796, -2311, 73, -1624, 1100, -506, 206, 860, 
    -1810, -521, 567, 726, 332, -113, -241, -208, 
    -106, 219, -1112, 12, 830, 454, 588, 322, 
    -69, -309, 1, 787, -960, 135, -501, -508, 
    226, 914, -21, 288, -44, 164, 598, -290, 
    -712, 963, -822, -1374, -404, -88, -1353, 103, 
    -1211, 1475, 290, 461, 171, -645, 1294, -570, 
    384, -710, -301, 725, -2371, 796, 944, -139, 
    1066, -291, 1125, -572, 50, -307, 31, 30, 
    981, -1024, -2, -218, -628, 939, 76, 823, 
    346, -474, -1217, 984, 600, 380, -991, 249, 
    653, 469, -177, 342, 39, -417, 595, 555, 
    -1078, 528, 11, 695, 263, -369, 460, 37, 
    -700, 125, 417, 39, 967, -474, -439, 271, 
    -1156, 1177, -329, -1217, 43, -311, 96, 267, 
    -554, -504, -1025, -747, -1709, 1495, -646, -844, 
    162, -529, -1326, 1469, 716, -735, -600, 179, 
    -1073, 486, -483, 875, -120, -1022, 692, 86, 
    -175, -61, 244, -367, 1163, 214, 780, 1029, 
    -278, -94, 73, 88, 285, 323, -125, 355, 
    -876, 417, 170, 218, 985, -462, 674, -534, 
    -32, -145, -948, 862, -185, 449, -27, -201, 
    101, 706, -799, 523, 571, 528, -415, 1141, 
    -406, 312, 427, -347, -253, 387, 777, 829, 
    -976, 762, 17, 285, 190, 761, 386, -418, 
    114, 1781, -847, 824, -611, 215, 168, -705, 
    623, 684, -749, -412, 1059, -510, 299, -1160, 
    -1249, 1148, -1061, -15, 699, -20, -1010, -79, 
    352, 536, 568, 749, 917, 483, -307, 597, 
    -152, 73, 735, -304, 45, -167, 376, -60, 
    -132, -412, 85, 906, -724, 205, -745, 354, 
    390, 778, 447, -645, -1410, -561, 488, -670, 
    724, 1174, 344, -88, -730, -895, 392, -614, 
    865, 618, 166, 52, 31, 519, -437, -740, 
    352, 223, 315, -226, 53, -1505, 261, -2065, 
    607, 589, -479, 283, 637, -143, 486, 971, 
    -313, -487, -926, 791, 530, 364, -440, 1014, 
    -1002, -522, 228, 784, -1477, -87, -565, 242, 
    -860, 19, 276, -271, 470, -718, 341, -678, 
    1007, -333, 279, -1581, 1151, 905, -831, 541, 
    -94, -1245, 1486, -77, 35, -171, 556, -722, 
    -195, 425, 155, -673, -451, -1738, 1018, 870, 
    706, 254, 866, -528, 105, 885, -517, -860, 
    452, -328, -744, 133, 222, 452, 416, -26, 
    -1681, -379, -28, -708, 7, 1713, 1628, -908, 
    -123, -694, -1, -192, 63, 846, -1264, -348, 
    -189, -764, 117, 910, 516, 290, 337, -263, 
    -1844, 1203, 417, -103, 701, 30, -551, -2, 
    122, 748, -316, -108, 128, 5, 435, 98, 
    -639, -211, 385, -267, 430, 485, 1425, -419, 
    525, -331, 868, 355, 649, 463, -878, -59, 
    -157, 883, -1873, -244, 105, -163, -1049, -996, 
    -183, -78, 1073, 601, 16, 648, -993, -1705, 
    383, 579, -29, -496, -735, -1072, 826, -194, 
    298, -60, -118, -18, 134, 59, 798, -55, 
    343, 256, 325, -816, -296, 746, -584, 937, 
    -313, 376, 314, 217, 226, 19, 337, -477, 
    -526, 460, -191, 588, -703, 28, 254, 576, 
    -59, -474, 814, -367, -154, -234, -452, 641, 
    -270, -401, -194, -724, -404, 46, -671, -24, 
    -227, -113, -840, 445, 990, 701, 533, 400, 
    177, 145, -975, -1375, 597, 586, -1241, -686, 
    -347, -358, -198, 357, -294, -143, 215, -1129, 
    194, 953, -449, 397, 498, 995, 255, -174, 
    157, -182, -816, -76, 146, -91, 63, -319, 
    -473, 240, -184, 80, -647, 240, 937, -715, 
    -218, -13, 380, 849, 96, -30, 525, 719, 
    -561, 244, -39, -177, 1165, -313, -925, 763, 
    1052, 309, 1496, -970, -1146, -299, 331, 917, 
    -1387, -1118, -46, -43, 325, -382, 3, 345, 
    -708, 1157, 170, 464, 646, 752, 679, -1081, 
    -460, -79, -609, -217, -332, 15, -1746, 564, 
    -975, -999, -572, -7, 937, -987, 636, -758, 
    92, -580, -1225, -994, 666, 207, 827, -489, 
    540, 1001, -568, -61, 363, -463, 203, 643, 
    15, 82, -88, 1222, -34, -1177, 727, -1334, 
    -406, 371, -420, -269, 753, -153, -866, -562, 
    -845, -673, -169, 31, -942, 86, 329, 567, 
    1210, -33, 589, 668, -425, 41, -70, 605, 
    -379, 835, 77, 239, -713, -638, -242, 1174, 
    151, 860, 1157, 394, 586, -1156, -137, 35, 
    1083, -487, -477, 308, -603, 816, 731, 50, 
    1296, -528, -1563, 993, -545, -355, -185, -1811, 
    808, 673, 428, 233, -533, -160, 325, 758, 
    311, 277, -1702, -1152, 1098, -312, -170, 320, 
    -1640, 665, -539, 696, 206, -60, 252, -1201, 
    -247, -715, -441, -372, -319, 19, -839, 1059, 
    301, 33, 218, -736, 1211, -1267, 607, -1022, 
    560, -1457, -262, -1370, 401, -224, -1109, 377, 
    537, -902, 4, -55, 29, 22, 299, -432, 
    -187, -1232, -9, 172, 275, 13, 241, -1106, 
    863, -97, 175, -33, 528, 315, 330, -725, 
    523, -221, 444, 1027, 115, 882, -729, -617, 
    -947, 855, 991, -674, 490, 728, -258, 789, 
    289, 246, 596, -911, -177, 55, -172, 914, 
    730, 30, -195, 188, 991, 452, -974, 57, 
    87, 552, -421, 275, 875, 402, 902, -334, 
    -209, -2414, 671, 103, 170, -689, -539, -150, 
    -13, 580, -1212, 306, -308, 36, 35, 507, 
    162, -964, -831, 160, 283, -727, -1138, 188, 
    1215, -1237, 440, -838, -286, 1102, -452, -591, 
    -465, -231, 451, 30, 1329, 831, -1360, 792, 
    -929, -481, -172, -71, -1079, 450, -223, -845, 
    -838, -732, -260, -103, -333, -511, 279, 661, 
    665, 336, 256, -33, 783, 616, 444, 260, 
    432, -10, -1339, -339, 326, 20, -735, 517, 
    -236, -667, -272, 706, -250, -101, 138, 269, 
    -486, 57, 574, -232, -217, 2680, -1014, -413, 
    625, 207, -7, -285, -554, 324, -1270, 31, 
    -392, 775, -226, -1959, -1425, 1152, 392, 796, 
    418, -158, 230, 399, -899, -361, 149, -3, 
    -196, 731, -638, -1701, 418, 584, -362, 344, 
    368, -685, 230, 14, 733, 669, -1442, -487, 
    183, -472, 618, 603, -9, -386, 665, 44, 
    -650, 928, 1340, -164, 589, -48, 498, 467, 
    666, -33, -238, 356, 403, 728, 809, -5, 
    1267, 271, 557, 999, 44, 243, -76, 43, 
    -579, 739, 161, 721, -71, -278, 377, 179, 
    290, -107, 961, 764, -265, -157, -525, 0, 
    -328, -710, -560, -497, 1032, 48, -436, -127, 
    256, 10, -351, 954, 515, -1752, 1066, 671, 
    -1881, -1289, 180, 845, 103, 1080, -79, -515, 
    -330, -319, -45, -404, 169, 872, -438, -155, 
    518, 484, 750, 1166, -707, -1023, 794, 777, 
    965, -567, 1069, -1077, -483, -206, 671, -359, 
    -18, 483, 801, -30, 514, -679, 254, -332, 
    -105, -1408, 782, 1294, -1365, 17, 4, -621, 
    1411, -715, 607, -601, 302, -170, 400, -31, 
    -1476, 166, 994, -983, -480, -237, 520, 342, 
    45, 241, 365, -713, 57, -334, -453, 37, 
    -65, -413, -772, -410, 902, 1182, -711, -1102, 
    -1147, 875, 119, 353, 270, -22, -597, -273, 
    612, 67, -1250, 507, 972, 16, 753, -1619, 
    945, 139, -709, 180, -496, 108, -785, -816, 
    404, 1093, -762, 764, -448, -245, -566, 575, 
    -46, 764, -1138, -563, -299, 649, -2, 1061, 
    -402, -541, -806, 455, -277, 1275, -752, -290, 
    -39, 459, 461, -1303, 431, -671, -421, 34, 
    367, -606, -180, 48, 1244, 96, 416, 428, 
    -239, 168, 722, -682, 592, -481, 1531, -359, 
    -662, 718, 761, 21, -1404, -352, 31, -460, 
    -21, -260, 495, -433, 225, 967, -161, 357, 
    17, -1116, 762, -876, 187, 460, -623, 345, 
    -812, -832, 27, 662, -887, -179, 626, 45, 
    59, -594, -126, -1152, -775, 123, 649, -1006, 
    215, -399, 632, -183, 233, 535, -1348, -974, 
    -433, 309, 181, -576, -699, 83, -261, 951, 
    265, 309, 301, 346, 281, 592, -859, 104, 
    -422, 444, 487, -623, -451, 877, 183, 986, 
    -1121, -520, -113, 440, -150, 675, -306, 8, 
    -256, -170, 714, 240, 332, -611, -256, -257, 
    -1170, -435, -134, -771, 1180, 312, 652, -606, 
    557, 167, -578, 136, -810, -518, -684, -1760, 
    -1071, 966, -88, 25, -232, -251, -130, -495, 
    -570, 615, -487, -751, -787, -294, 976, 201, 
    -220, 353, -113, -208, 190, 809, 195, 480, 
    -1127, -259, -713, -355, 312, -332, 284, 44, 
    168, 91, 9, 12, -413, -205, 12, 650, 
    -99, 411, -416, -973, -1071, 218, -746, -337, 
    -97, 374, -1093, 25, -614, -165, 1006, -560, 
    -633, 107, -50, -457, -544, 302, -295, -239, 
    -502, -711, -462, -88, 708, -93, 247, -40, 
    501, 259, -359, 48, 137, 669, -96, 699, 
    -281, 603, -378, 808, -1059, 642, 851, -45, 
    107, -332, -460, 526, -364, -758, 340, 245, 
    129, 902, -712, 19, -892, 891, 697, -833, 
    -675, 469, 743, -52, 265, 445, 41, -693, 
    349, 164, -508, 483, 474, 319, 39, -135, 
    1323, -931, -768, -358, 697, -798, 472, 317, 
    -387, 60, 641, -136, -704, -60, 420, 1723, 
    -134, -348, -94, 569, -371, -27, 806, -551, 
    450, 139, -30, -1957, -943, 212, 360, -469, 
    221, -867, 1342, 441, -770, -510, 79, 7, 
    719, -396, 569, -455, -46, -474, -200, -15, 
    1370, 881, -1284, -60, 1363, -1118, 793, 1293, 
    -253, -446, 331, -485, -65, 230, -1442, 1290, 
    194, 13, -235, -1057, 208, 154, -445, 124, 
    639, -311, -424, -1348, -605, 1102, -374, -175, 
    1298, -1217, 731, -626, 1077, 727, -948, -159, 
    36, -941, 1134, 481, -837, -547, -342, 793, 
    -248, 226, 710, -183, 824, -1402, 514, -1565, 
    1342, -46, 692, -457, 797, -666, 861, 335, 
    -353, 157, 597, -1740, -1042, -1444, -550, 44, 
    662, -396, 69, 312, -831, -521, -14, 273, 
    1125, -1159, -53, 433, -226, -1743, -415, 424, 
    964, -1982, -98, -322, 722, -1522, 1150, 21, 
    482, 556, 889, -555, 1038, -939, 11, 5, 
    -179, -603, -496, 381, -95, -1048, 686, 291, 
    358, 250, 30, -37, 1171, -1058, -815, -95, 
    145, -1526, 216, 319, -1131, -266, 14, -277, 
    502, -662, 363, 711, 404, -59, 581, 756, 
    584, 491, -742, 255, -360, 657, 583, -128, 
    892, -529, -396, -216, -2379, -202, 258, -397, 
    -70, -430, -996, 242, 753, 95, -368, 958, 
    -218, 791, -1212, -49, -997, -842, -760, 39, 
    331, 761, 102, 1205, -1043, 1064, 542, -238, 
    702, 171, 24, 225, 633, 1074, -311, 498, 
    710, 447, 492, 808, -195, 516, -420, -964, 
    -599, -1046, -724, -321, -309, 219, 21, 900, 
    -824, -742, -1699, -110, -297, -274, 280, 970, 
    -566, -177, -568, -56, 973, -990, 714, -188, 
    1383, 586, -265, -756, 391, 1353, 1320, -775, 
    429, -217, -236, 419, -245, 409, 137, -113, 
    116, -1002, -823, -877, 284, -503, 834, 17, 
    -986, 1309, 779, -184, 522, -156, 353, 582, 
    954, 84, 770, -326, 336, -294, 1094, 28, 
    565, -1852, 844, 620, 518, 572, 73, -454, 
    914, -32, 1095, -337, -697, -339, 1651, -541, 
    -456, 288, -819, 70, -528, -368, -1078, 492, 
    -365, 498, -569, -210, 125, -108, 122, 140, 
    539, -661, 152, 582, -906, 274, -1909, -176, 
    -1940, 1212, 803, 1560, 116, -882, 41, -1899, 
    -194, 223, 420, 179, -895, -35, 643, -668, 
    660, -575, 412, -134, 139, -968, 94, 136, 
    -144, -175, -782, 909, -45, 469, -495, 1482, 
    73, 378, -1521, 318, 434, 248, 230, 964, 
    -289, 194, -599, 209, -176, -8, 654, -372, 
    483, -112, -158, 127, 105, 602, -337, -778, 
    -37, 379, -97, -351, 496, -1050, -812, -200, 
    -609, 675, 600, -499, 806, 453, 1129, -619, 
    85, -335, 588, -391, -396, -154, -683, 512, 
    43, 126, -1341, 852, -633, -18, 653, -1366, 
    -450, -1210, -900, -367, 661, -401, -1160, 563, 
    -683, 145, 297, 806, 591, -513, 221, -293, 
    -68, -152, 47, -486, -174, 999, 133, -675, 
    -501, -1387, -475, -355, -51, -547, 59, -126, 
    558, 551, 289, -246, -585, -506, 405, -24, 
    -657, -974, -1228, 218, 202, 522, -423, -1223, 
    289, 120, -172, 1206, 751, 1027, 476, -567, 
    1301, 80, -523, -248, 1013, -592, -179, -1382, 
    178, 364, -454, 349, 979, -102, 786, -74, 
    371, 337, -962, -203, 1096, -831, -558, 684, 
    389, 169, -601, 1947, -828, 1003, -516, -15, 
    -189, 999, -141, 678, -888, -173, -476, -53, 
    101, -216, -1062, 1158, 179, 37, 616, -405, 
    -875, 509, -672, -48, 220, 502, -263, -413, 
    524, 822, 1611, 113, 520, -884, 17, 323, 
    1465, -986, 47, 864, 758, -332, 630, -631, 
    -161, 174, 19, -593, -71, -143, -148, 50, 
    335, 93, -265, 1117, -117, 166, 1165, 820, 
    211, 108, -97, 693, 996, -75, -749, -55, 
    480, -385, 311, 1038, 532, -474, -15, 725, 
    561, 600, -483, 93, 200, 311, 194, -230, 
    134, -353, -1405, 869, -40, 612, 20, -62, 
    40, 103, 65, 146, -341, 234, 1081, -241, 
    -734, 266, 41, -207, -162, 507, -1060, 182, 
    948, 254, 456, -86, 847, -447, 320, 543, 
    -59, -478, 452, -216, 192, -439, 1036, 215, 
    -498, 552, -476, 697, 124, -57, -1319, 74, 
    -506, 433, -392, 900, -566, 124, -317, -170, 
    336, 245, -363, -1744, -60, 818, -207, 338, 
    928, -633, -652, -1502, 170, -495, -274, 899, 
    -1093, -266, 394, -267, 762, -344, -811, -19, 
    -220, 495, -271, 217, -223, -53, 362, 858, 
    -367, -19, 322, 904, -430, 165, -959, -245, 
    859, -45, 402, -432, 354, 433, -269, -735, 
    37, 445, 597, 1319, -497, -176, 457, -134, 
    -367, 551, -667, -371, 36, -289, 616, 171, 
    -696, 801, 891, -580, 589, 103, 119, 339, 
    989, 974, -213, -568, 358, 44, 63, 25, 
    -448, -254, 1615, -68, -206, -142, -422, 78, 
    -184, -112, 698, -138, 4, -532, -692, 566, 
    -432, -898, -101, 542, -267, 309, -782, -108, 
    -345, -153, -1013, -510, 177, -237, -440, 18, 
    175, 410, -72, -1109, 240, 169, 496, 6, 
    -910, -153, 677, -297, -1444, 1217, -179, -865, 
    121, 496, 11, -332, -1556, 445, 16, -565, 
    -515, 583, 78, -49, -605, -355, 458, -133, 
    -746, -161, -783, 962, -212, 9, 818, -97, 
    120, 365, 672, 707, 180, -165, 876, -508, 
    761, 1047, 23, -525, 411, 527, 256, 133, 
    349, 555, -1265, 830, -64, -750, 576, 337, 
    -388, 556, 442, -331, 224, 579, 610, 640, 
    289, -969, 1081, -264, 1190, 154, 732, -912, 
    -668, -65, 230, -1406, -466, 140, -44, -358, 
    79, -451, 110, 552, -1362, 114, 615, -387, 
    1241, -577, -29, 208, -289, -831, -191, 745, 
    -16, -1054, 937, -387, -163, 211, -939, 1158, 
    808, -492, 347, 18, -270, 96, -660, 364, 
    -1251, 143, -136, -80, -189, -136, 306, 305, 
    1075, -435, -381, -478, -554, 220, -1134, 231, 
    -488, -953, 468, 608, -197, -258, -234, 213, 
    -671, 777, -134, -641, 445, -89, -230, -184, 
    199, -310, 993, 241, -222, -126, -371, 957, 
    192, 166, 407, -267, -299, -702, -617, 218, 
    -274, 437, -194, 340, -684, 741, -1281, 220, 
    218, -1331, -292, 238, -125, 102, 187, 729, 
    -354, -164, -686, -721, -58, 403, 329, 201, 
    -307, 321, -465, 840, 30, -519, -1262, -7, 
    670, 197, -521, 87, 480, -459, 480, -335, 
    887, -898, 391, -327, -163, -428, -379, -1876, 
    326, 181, -365, -723, -291, -461, -56, -48, 
    514, -529, -400, -545, -68, -173, 1065, -462, 
    -150, 1092, -345, 389, -1239, -92, -1033, 617, 
    -79, 48, 19, -667, 849, 68, -562, 15, 
    198, 186, 40, 250, -356, 198, 362, 309, 
    10, -2160, 349, 708, -249, -485, 996, -256, 
    371, 517, -405, -1785, 189, 437, -72, 361, 
    -1050, -221, 95, -373, 14, -440, 269, -1621, 
    546, 1466, -958, 112, 775, -1086, -235, -371, 
    233, 2, -299, 72, 740, 491, 815, -557, 
    837, -1937, -18, 960, -374, 835, 150, -1291, 
    -58, 31, 192, -1052, 128, -278, -817, -711, 
    1106, -674, -103, -337, -659, -891, 757, 1265, 
    -134, -78, 816, -61, 591, -891, -223, 510, 
    946, -1133, 283, -131, -659, 137, 952, -1269, 
    738, -124, -337, -1187, 111, -530, -602, -555, 
    -237, -418, -474, -637, 677, -700, 568, 555, 
    -217, 257, 263, -639, 591, -364, -97, 511, 
    870, -46, 466, -211, -1001, -639, 435, -338, 
    396, 48, -22, 149, -746, 0, 218, -735, 
    -138, -208, -251, -328, -209, 240, 235, 123, 
    -797, -358, -554, 547, -69, -419, 348, 325, 
    333, 810, -354, -1680, -262, 431, 235, -650, 
    -101, 633, 14, 180, -1225, -967, 92, -316, 
    498, 326, -684, 80, -1423, -480, -218, -845, 
    842, 461, 38, -432, -4, -884, 9, -673, 
    -488, 419, 78, 397, 208, 641, -138, 149, 
    -1015, 834, -1668, 426, 536, -699, 743, -642, 
    501, -256, -34, 787, -396, -321, -417, 225, 
    868, -1366, -759, 467, 858, 232, 189, 184, 
    588, 639, -33, -384, 51, 547, -5, -1096, 
    9, -332, 201, -367, 721, -1036, 859, -211, 
    28, 498, 26, -547, -430, 886, -941, 426, 
    -586, 220, 346, 2, -118, -517, -177, 344, 
    -1106, 1105, -360, 572, -244, -350, -647, -51, 
    -577, -225, -52, 339, 758, 338, 60, 129, 
    -359, -400, 191, -751, 35, -884, 178, 338, 
    335, 1, -973, -520, 12, -1575, -1377, -1149, 
    -184, -404, 172, -604, 1033, 214, -5, -671, 
    154, -532, -637, 1465, -272, 706, 862, -9, 
    273, 147, 377, -1638, 507, -510, -1732, 254, 
    -664, 210, -557, 596, 959, -203, -227, -407, 
    366, 235, 387, -686, -315, -272, 432, -482, 
    -781, 645, -885, 635, -431, -901, -79, 130, 
    -27, -279, 374, -617, 536, -1020, 201, 424, 
    89, 341, 712, -46, 228, -354, -128, 80, 
    -73, -231, -910, -139, 849, 55, -450, -2321, 
    801, -953, 450, 173, 179, 188, 510, 765, 
    530, -480, -636, -67, 1408, -581, -338, -814, 
    -821, 1678, 568, -135, 557, -486, 991, -829, 
    -633, -2305, -447, 295, 1346, -509, 215, -327, 
    -858, -1006, -481, -266, 154, 895, -767, -88, 
    1077, -519, -1045, -1150, 205, -148, -1967, -332, 
    212, 586, 138, 67, -88, -114, -196, 610, 
    247, -1265, 165, 811, -366, 1043, 1099, -507, 
    247, 474, -956, -52, 98, 1318, 453, -210, 
    -422, 282, 50, 108, -211, 441, -185, 139, 
    -232, -146, -90, 345, 498, 1027, -42, -156, 
    -133, 296, 179, -55, 884, -396, -176, 1127, 
    -3, 135, -883, -197, 480, 89, -513, -2079, 
    162, -162, -638, 330, -253, -651, 974, -624, 
    -162, 518, -953, -276, 20, -129, 748, -108, 
    -402, -451, 400, 376, 1718, 64, -1580, -1225, 
    -519, 124, 79, -558, 1014, -2194, -883, -444, 
    -427, -1193, -8, 186, 137, -339, -241, 245, 
    -1080, -829, 833, -923, -304, -300, 1466, 498, 
    -1057, -209, 308, 860, 642, 700, -125, 167, 
    475, -62, -134, 77, -93, -1311, 123, 375, 
    -1060, 142, 150, -492, -717, 656, -1291, 400, 
    433, 260, -1285, -483, -1799, -837, 1293, -940, 
    -134, -83, -1028, 489, -1211, 1488, 359, 149, 
    -378, 326, 827, -723, -456, 1043, -1904, 227, 
    -451, -1227, 1561, 172, 901, -1741, 87, -424, 
    408, 250, 931, -193, -339, -211, -309, 596, 
    111, 488, -230, 553, -101, 628, 590, -1275, 
    810, -1450, 444, -428, -255, -270, 49, 685, 
    -593, -269, -218, -76, -559, 630, -647, -65, 
    -210, -190, 32, 104, 288, 139, -366, -1245, 
    315, -1506, -448, 470, -692, -608, 1449, -448, 
    159, 63, 998, -310, 229, -1147, 646, -327, 
    -628, -608, -136, 97, 567, -239, 215, 718, 
    1298, -990, -1019, -583, 108, 135, 1034, 89, 
    -336, -99, 727, -70, -557, -617, -802, -121, 
    -243, 556, 10, 708, -556, -360, -1021, 438, 
    63, -49, -515, 6, 745, -335, -476, -160, 
    -277, 669, 685, -341, 828, -522, 53, -728, 
    -294, -245, 1033, -710, -370, -791, -43, -1127, 
    -7, 486, 51, 551, 449, -565, 518, -224, 
    -397, -911, -715, -897, 111, -150, -80, -70, 
    331, -251, 416, 333, -828, 1226, -1278, -1247, 
    514, -570, -1107, 91, 658, 868, -1716, -2, 
    -219, -118, -996, 248, 3, -576, 929, -862, 
    337, 86, -992, -326, -5, -1647, 1192, 308, 
    -313, -18, -270, 49, 339, 1027, -223, -115, 
    1105, 77, -12, 452, 764, 397, -1322, 265, 
    363, 393, -593, -192, -696, 935, -557, -449, 
    154, 1625, -705, -46, -471, 468, -169, 525, 
    -270, -397, -474, -702, 765, 179, -941, 284, 
    441, -527, -15, -476, 851, 674, 40, -843, 
    -426, 323, 669, 581, 1738, -515, -40, 113, 
    -1049, -510, -781, -662, -10, 373, 884, -717, 
    -1009, -1097, 56, 932, 378, 551, 507, -662, 
    -445, -66, 401, -428, -437, -404, -349, 931, 
    1012, -192, -275, 867, -318, -62, -674, -717, 
    -552, -262, -117, -216, -121, -236, -628, -608, 
    -455, 337, -736, 198, 74, 253, 969, 121, 
    910, 362, -215, 953, -825, -474, 1391, 320, 
    -548, -346, -656, 125, 240, 553, -105, -1711, 
    616, -118, -327, 391, -6, -1115, 325, 1145, 
    -1315, -445, 1189, 176, -942, 527, 602, 168, 
    161, -1594, 508, 242, -181, 820, 786, 221, 
    -104, -637, -40, -803, -15, 245, 470, 154, 
    -786, -103, -300, 1025, -384, 1028, 350, -521, 
    1215, -977, -219, -188, 874, 577, -204, -1242, 
    402, 601, -125, 28, -1115, 429, -879, 332, 
    -554, -198, -1288, 502, -9, -1299, 86, -277, 
    -165, -1786, 166, -101, -920, -679, -195, -1089, 
    -69, 417, 132, -205, 532, -1727, -91, 112, 
    -181, -280, -1465, -554, 203, 102, 160, 860, 
    856, -1816, -493, 778, -769, 355, -187, 163, 
    -644, -169, 230, 474, 67, -585, -230, 900, 
    670, -655, -1222, 155, -460, 604, -379, -1285, 
    738, -478, 318, -133, -1332, -442, -12, 344, 
    337, -351, 319, 696, -200, -1130, -1393, -569, 
    -494, -449, -380, 1024, 55, 255, -302, -1020, 
    -484, 292, -959, 219, 112, -207, 1541, -29, 
    -175, -733, 530, -710, 678, 112, 0, -198, 
    -155, 477, 1363, 52, 893, 262, 403, 314, 
    -1405, 264, -1292, -1526, -551, -357, 570, -410, 
    -190, -196, -1171, -1180, -328, -479, 565, 308, 
    3, -266, -330, 427, 270, 99, -677, -176, 
    665, 132, 487, -782, -55, -539, -2117, -413, 
    493, -554, 416, -98, -472, -353, 1128, 15, 
    1480, 145, 186, -134, 715, 232, 430, 532, 
    27, 478, 235, 538, 471, 630, -121, -458, 
    756, -496, -543, -2483, -638, -847, 98, 668, 
    -238, -231, 91, 551, 68, 336, -466, 243, 
    266, -459, -177, 281, 202, 707, 114, -119, 
    -821, -554, 1261, -231, -291, 70, 1031, -499, 
    -298, -851, 735, -351, 372, 647, -1308, -186, 
    -62, 23, -176, 250, -285, 884, 390, 653, 
    -182, 17, 337, -141, 152, -9, 347, 1027, 
    139, -8, -797, 449, 514, -551, -1076, 388, 
    -839, -1314, -66, 1578, 514, -1068, -118, -722, 
    807, -442, 75, -210, 852, 213, -843, -401, 
    371, 421, 229, -769, 47, 482, -944, 123, 
    29, -295, 595, 1843, 1401, 820, 772, 335, 
    -991, -74, 639, 408, -572, -884, 15, -350, 
    86, 546, -187, 675, -414, 37, -880, -1040, 
    881, 21, -377, -331, -197, 482, -290, 466, 
    9, 23, -143, -190, -1485, -193, -20, 1514, 
    62, -511, -339, -117, 483, -312, 395, -1800, 
    189, 505, -812, -1135, -311, -843, 533, 69, 
    -344, -300, -251, 233, -142, 224, 800, 688, 
    840, -478, 844, -2347, 92, 287, 463, -145, 
    -331, 626, 434, -250, -1024, 252, 137, 443, 
    262, 98, 1073, 638, 367, -65, 193, -572, 
    -334, -31, -720, 254, 3, 754, 525, 518, 
    -37, -688, -273, 609, 168, -688, -587, 864, 
    -688, -1052, 370, 656, 1538, 307, -518, 861, 
    -814, -1276, 519, -185, -1042, -166, 300, 857, 
    -491, 182, 51, 1853, -134, -230, 11, 74, 
    -102, 316, -648, -524, -1141, 1098, -627, 298, 
    355, 420, 1217, 133, 469, -109, 884, 67, 
    258, -550, -168, -31, -176, -177, -87, 408, 
    -657, 602, 498, 1215, -43, -521, 1345, -198, 
    -1193, -1017, -140, 888, 102, 309, -176, -506, 
    486, -1026, 1227, -4, -39, 1146, 477, 388, 
    264, -156, 435, -98, -191, 1235, -256, -153, 
    180, -338, 457, 401, -20, 1948, -801, 44, 
    623, -516, -1131, -237, 397, -21, -995, 285, 
    -238, 212, 868, 538, -179, 211, 485, -653, 
    -1301, -199, 127, -50, 541, -274, -476, 584, 
    699, -647, -833, 541, -356, -85, -922, 337, 
    -648, 1025, 249, -368, 1212, -1331, 275, 309, 
    -73, 490, 75, 502, -388, -632, -1443, 310, 
    274, -954, 143, 66, -791, -689, -52, -374, 
    165, 116, -931, 438, -857, 30, 559, 738, 
    -318, -1516, -259, -347, -946, -218, -572, -287, 
    339, -324, -540, -664, 1151, -484, -36, 543, 
    -22, -319, 264, 217, 367, -547, -769, 194, 
    971, -904, 329, 863, -76, 685, -819, 958, 
    -893, 70, -797, 500, 164, 493, 818, -1456, 
    -1009, -70, -166, -567, -122, -491, -380, -229, 
    -515, 200, 1337, 221, 11, -54, -131, 199, 
    97, -251, 248, 456, 585, 40, -1136, -1017, 
    -196, -448, 329, 532, -254, 969, 7, -64, 
    -536, 438, 1093, 809, 1317, -203, 590, 156, 
    845, 1004, -805, -998, 73, -791, 1357, -277, 
    211, -1519, -634, 433, 285, -1546, -549, 549, 
    -506, 205, -703, -756, 463, -127, -249, 31, 
    968, 799, -220, 531, -1352, 242, -626, 113, 
    442, 755, -380, 858, -1534, 156, -416, -968, 
    548, 444, 159, -834, -202, 237, -58, 779, 
    -1235, -1528, -767, 717, -300, -36, -759, -433, 
    496, -447, 364, 184, 823, -722, -627, 164, 
    309, 1861, 1612, -901, -2110, -11, -705, 43, 
    -645, 422, 188, 619, -1196, 317, 117, -1162, 
    415, 1430, -475, -297, 392, -532, -1119, -63, 
    1342, 582, -646, 1135, 1199, 1024, 316, -47, 
    321, 542, 1007, -1262, 149, 568, -553, -812, 
    -304, -823, -697, -246, -70, -704, -522, -1460, 
    458, -510, -1278, 969, 446, -123, -509, -378, 
    1140, 287, -727, -158, -856, -570, 238, 1329, 
    -27, -1095, 104, -388, 223, -573, 64, 239, 
    -995, 416, 527, -520, 498, -605, -338, -107, 
    371, -283, -322, -670, 1018, -1000, -36, -799, 
    -254, -197, 181, 365, 711, 1142, 32, 440, 
    -364, -261, 989, 489, -1569, -786, -405, -587, 
    965, -135, -219, -519, -368, -613, -434, -404, 
    -102, -1332, -423, -365, 1326, -504, 416, -375, 
    -239, 543, -352, -55, 1062, -400, -640, -359, 
    603, -1028, -328, 190, 965, 194, -407, -172, 
    -2346, -231, -33, -149, -675, -210, 62, 276, 
    559, 534, 1269, -701, -480, -17, 509, 826, 
    -523, 718, -2232, -304, 762, -301, 1106, 155, 
    -706, 322, -572, -818, -800, 497, -757, 1089, 
    -118, 889, -388, 485, 1060, -248, 493, 264, 
    -300, -41, 755, 134, 665, -300, 318, 20, 
    -63, 219, -1183, 469, 389, 783, -23, -1504, 
    920, 219, 369, 126, 119, 118, -572, 175, 
    -539, 410, 855, 17, -179, 483, -507, 423, 
    -589, 1045, -368, 745, 851, -1056, -108, -745, 
    62, 457, -24, -376, -401, 418, -899, -987, 
    -371, 523, 204, -89, -437, -70, 775, 211, 
    -103, -797, -902, 760, 329, 181, -759, 679, 
    -3, -194, -159, 172, -79, 545, -184, 18, 
    -838, 27, 902, 290, 207, -34, -466, 56, 
    398, 751, -222, -899, 229, 127, -650, 585, 
    -59, 495, -729, -10, -1054, 301, -93, 1184, 
    -506, 752, 551, -727, 108, -818, -325, 466, 
    -1176, -222, -345, -488, -554, -1926, -177, 52, 
    335, -29, -474, -839, 526, -878, -59, 427, 
    -371, -122, 116, -706, -655, 797, -50, 748, 
    -470, 975, 35, -598, 31, 619, -1060, 230, 
    -514, 158, -1766, -406, -478, 182, 769, 1001, 
    104, 131, 210, 1042, -681, -722, 401, 491, 
    36, 377, 66, 171, -291, 175, 198, -949, 
    -506, -220, 212, -332, -24, 235, -799, -71, 
    -427, 205, 514, -794, 87, 717, -840, -624, 
    483, -942, 143, -605, -351, -731, -265, -14, 
    -1555, 272, -208, -660, -213, -494, 134, 612, 
    -907, -765, 308, 252, 132, -1075, 565, -1893, 
    69, -91, -265, -932, -384, -391, 2, -368, 
    540, 360, -547, -430, 415, -737, -294, 223, 
    419, 699, -700, 685, -10, -128, -788, 72, 
    402, 584, -194, -586, 517, 256, -548, 960, 
    -417, 546, 373, 638, 504, -396, -151, -190, 
    408, 460, 542, -1411, -377, 347, -799, 448, 
    122, -523, 1102, 72, -1, -63, -711, -236, 
    650, 391, -438, 1, -328, 455, -503, -841, 
    -170, 778, 332, -372, 121, -68, -236, 233, 
    40, 519, 642, 141, 11, 102, 938, 518, 
    136, 257, -752, -985, -399, -84, -585, -75, 
    70, -345, -214, -115, 629, -99, -21, -350, 
    583, 500, -569, -824, 952, -77, 821, 272, 
    -1104, 428, 475, 51, 598, 636, -18, -823, 
    969, -1591, 548, 1523, -450, 638, 470, -424, 
    567, -412, -369, -70, 65, -261, 34, 100, 
    -237, -38, 259, 360, -561, -576, -58, 646, 
    -180, -419, -1430, -801, 160, -651, 31, 365, 
    -416, 695, -877, 602, 97, 745, 452, 757, 
    897, 422, -316, 468, -252, -351, -437, -545, 
    49, -938, 1526, -331, 1296, 97, 599, -667, 
    285, 43, -219, -452, -218, 395, 90, 304, 
    541, -689, -598, -26, 236, -270, -832, 351, 
    287, -175, 539, 645, -1832, 1166, -177, 458, 
    156, -545, 208, 697, 310, -106, 624, 131, 
    270, 412, -1190, -616, -1492, -1145, 1253, -3, 
    -360, -656, 211, 50, -93, 382, -950, 721, 
    -1640, 4, -1272, 77, 358, 545, 37, 39, 
    -283, -918, 531, -151, -549, 587, -505, -873, 
    5, -781, -678, 32, -275, 473, -29, -700, 
    -608, -1150, -412, 907, -41, 670, -578, 73, 
    335, -1121, -293, -101, 973, 106, -222, -672, 
    -545, -1046, 1099, 200, 136, -777, -951, 647, 
    996, -242, 975, -527, -73, -749, -716, 558, 
    572, 993, 490, -256, 62, 1985, -896, -387, 
    -329, -1039, 139, -399, -62, 248, -874, 684, 
    -53, -370, 874, 550, -484, -274, -79, -46, 
    499, -155, -363, -1511, 152, 712, 544, -782, 
    -703, 71, -162, 574, -264, -25, 837, -220, 
    357, -1388, 103, -1055, -786, 1203, -762, 738, 
    381, -801, 520, -1078, -442, 571, 1417, -1327, 
    450, -992, -20, -1399, -835, 576, -318, -359, 
    75, -502, 27, -436, 742, 197, -368, 106, 
    155, 1001, -1690, -48, 457, -2161, 714, -867, 
    21, -182, 426, 745, 855, 483, -321, 769, 
    228, -127, -877, -315, -566, 349, 533, 182, 
    921, 419, -1503, 1130, 679, -689, -204, 617, 
    100, -1940, -89, -474, -576, 409, -535, 322, 
    -1748, 938, 1236, 339, -1463, 711, -243, -492, 
    -708, -519, 925, -62, -213, 526, -542, 348, 
    -301, -1540, 421, 573, 798, 788, 50, 529, 
    -924, 57, -637, 541, -331, -568, 492, 620, 
    648, -751, -335, 780, 143, -579, 1157, -184, 
    -464, -887, 312, -608, 742, 402, -562, -247, 
    -457, -360, -90, -642, -150, 301, 27, -876, 
    3, 66, -658, 384, -1173, 871, -1012, -471, 
    1067, -759, -534, 1107, -1771, 341, -1756, 470, 
    -384, 534, 374, 1121, 121, -989, -700, 389, 
    -90, -183, 617, -1006, -491, -1320, -1058, -178, 
    997, -518, 927, -517, 1115, -664, 13, -932, 
    -22, 74, -674, -38, -1537, 168, -64, -856, 
    671, -15, 846, -47, -17, -236, 332, 5, 
    114, -1094, 29, -147, 780, 27, -699, -368, 
    -51, 545, -1381, -39, -291, -463, 15, -1204, 
    -1547, 38, 930, 1849, -34, 1428, 1328, 39, 
    184, 21, -35, -126, 221, 70, 459, -277, 
    13, -967, -1500, 61, 1132, -944, 2, 401, 
    166, -34, 1364, -1800, -3, -1200, -438, -46, 
    -1299, 513, -75, 135, 876, -60, -823, -1037, 
    -67, 275, 1339, -58, -479, -755, 31, 608, 
    707, -57, -3, 99, -42, -2265, -99, -46, 
    -988, -1344, 23, 781, 1599, 24, 107, -1239, 
    2, -620, 1092, 12, 536, -164, -6, 1199, 
    111, -41, 760, 598, -3, 811, 973, -44, 
    367, 694, -74, 1007, 447, -58, 1919, 32, 
    -3, 537, -383, -73, -708, 694, 23, -512, 
    84, -52, -832, -419, 16, -852, -555, -7, 
    -942, -160, -33, -43, 114, -2, 555, 34, 
    -48, -8, 1062, -50, 224, -691, 22, 444, 
    1320, -66, -358, 423, 17, -359, -569, 13, 
    633, -715, 43, 1329, 1717, 20, 1324, 908, 
    6, 337, 64, -6, -1058, -424, 37, -970, 
    -38, 9, -3026, 45, 13, -2952, -203, 73, 
    2393, 1711, -43, -1346, 179, 23, -1263, 63, 
    41, -1477, -905, 26, -88, -304, 75, -1022, 
    -1927, 32, -45, 908, -29, 831, 1294, 29, 
    1041, -465, 58, 577, 276, -66, 603, 643, 
    -62, 302, 389, -68, 423, -125, -8, 1104, 
    -1083, 6, 1722, 315, 3, 1251, 1124, -58, 
    806, 412, 74, 1323, 291, 9, 596, 675, 
    70, 504, 557, -37, 1122, 579, -62, -2841, 
    -173, -57, 513, -158, -27, 1892, -1508, 28, 
    2172, 1202, -52, -519, 137, 5, -1103, -171, 
    -26, 712, 1558, -60, -511, 1069, -63, -544, 
    -1053, 56, -311, 207, -11, -688, 733, -38, 
    1951, 885, -48, 1027, 287, -69, -1086, 943, 
    77, 488, 93, -3, 1064, 503, 45, 760, 
    -3088, 52, -316, -488, 48, -2445, -160, -33, 
    309, -275, -53, -4, 279, 22, 160, -1402, 
    -50, 171, 2207, -78, 796, 360, 1, -770, 
    -1400, 28, -661, -1418, 10, -365, 48, 22, 
    681, -31, 62, -941, -127, -39, 1373, 1442, 
    17, -685, 1642, 15, -638, -1155, 46, -413, 
    -2478, -50, 372, -568, -65, -780, 1208, 51, 
    276, 834, -21, -1324, 103, 30, -645, -1141, 
    21, 924, -1223, -55, 1058, 723, -43, -1326, 
    -463, 31, 22, -83, 2, 1682, 753, 13, 
    410, -236, -43, -526, 1434, -62, -1091, 225, 
    61, -215, 652, -9, 1811, 1900, 11, 206, 
    736, -9, -343, 1529, -69, 1011, 1418, 41, 
    -319, 1246, 30, -673, -10, -18, 515, 295, 
    -56, -967, -507, -15, -368, 841, -57, -1000, 
    -55, 6, -300, -380, -56, 798, 925, 32, 
    -188, -780, -56, -1538, -386, -17, 1648, -54, 
    45, -627, 412, -20, -586, -2110, 38, 1354, 
    -1147, -36, 1863, -1893, 87, -801, 877, 70, 
    352, 586, -47, 2018, 308, 47, 519, 167, 
    -9, 909, -842, 51, -418, -716, -85, -468, 
    -1044, 69, 587, 1824, -6, -535, -924, -50, 
    -1242, -2036, 13, 1218, -1956, 73, -226, -124, 
    84, -2155, -2362, -29, 952, -1025, -67, -489, 
    1564, 80, 219, 1723, -76, 391, 595, 44, 
    297, -556, -14, 398, -1463, 68, 1204, 1929, 
    -10, -31, -613, 37, 50, -23, -28, 163, 
    69, -48, 2037, 425, 8, 517, -353, -48, 
    -1101, -1085, -81, 1333, -710, -18, -1970, 69, 
    19, 93, -1534, -12, -745, 2279, 75, 1259, 
    376, 73, 1255, 372, 20, 213, -307, -5, 
    877, -1146, 6, -1197, 2083, -7, 1790, 988, 
    -14, 1086, -1880, -39, -641, -628, 29, 755, 
    -315, -48, 384, -997, 51, -107, 448, -67, 
    -1996, -862, -91, -34, -1368, -13, -1252, -820, 
    16, -991, 142, 72, -1333, 364, 58, -970, 
    -751, 52, -195, -85, 18, 2718, 398, -86, 
    1214, -9, -7, 1282, -356, -39, 169, -483, 
    39, 1426, -524, 25, -360, -430, 0, -2042, 
    628, 15, 2476, 2407, -59, 83, 2008, -42, 
    827, -1447, -21, -957, 320, 1, 467, -868, 
    79, 527, -6, 30, -624, -1559, 85, -32, 
    415, 84, -79, -2168, -49, -2224, 1537, -22, 
    665, 1142, -1, -317, 255, 76, 638, -932, 
    -6, 1989, 452, -21, -100, 57, 55, -177, 
    203, 87, 428, -462, -29, -1561, 124, 52, 
    -947, 162, 14, -943, 945, 13, -1546, 465, 
    33, 648, 1510, 22, 280, 214, 27, 502, 
    -1234, -65, -102, 1632, 85, -351, 1019, -43, 
    -156, 1151, -32, -686, -791, -38, -470, 477, 
    73, 1994, -898, -67, 626, 1704, -23, 101, 
    -1275, 29, -886, 209, 31, -882, -1065, -13, 
    -713, -211, 51, -482, 421, -58, -2113, 1069, 
    -15, 715, 1016, 36, 556, -499, -6, -1404, 
    896, 31, 21, -1583, -88, -798, 32, -63, 
    -1516, 795, 82, 1094, 783, 35, -296, 1996, 
    6, 1198, -895, -33, -914, -639, -73, 993, 
    -1444, -74, 133, 1353, -81, -3432, -708, -1, 
    -624, -664, -71, 1565, 856, 12, -1147, -3562, 
    -55, -865, -383, 34, 243, -204, 24, 211, 
    -1147, -73, -862, 821, 23, 1577, 1289, -1, 
    127, 892, -14, -957, 553, -9, 1242, 1791, 
    -32, 1104, 427, -73, 1337, 1084, 15, -51, 
    826, 21, 1731, 284, 19, 244, 1211, -16, 
    1076, 1026, 64, 480, -348, -63, 465, -1498, 
    -25, 791, 903, 66, -2938, 400, -63, 1439, 
    537, -29, 182, 140, -11, -1941, 1690, 20, 
    146, 979, -5, 363, 169, -29, -577, -1232, 
    -53, 650, 75, 49, -823, 292, 47, 308, 
    -562, -44, 540, -1317, 41, -411, -1480, 48, 
    -1094, 658, -60, -1065, -1112, 45, -491, -2085, 
    47, 1171, 232, 33, -34, 316, 67, 500, 
    -783, 18, 332, 287, -59, 185, -2043, -30, 
    -383, 896, 26, -1002, -716, -11, 1128, 1358, 
    -64, 692, -1168, 5, 602, 357, 24, -1232, 
    -754, 39, -66, -377, -52, -952, -647, -15, 
    -264, -579, 38, -957, -14, 29, -846, -2, 
    67, 238, -582, -32, -940, 175, 36, 661, 
    558, -9, -154, -191, -56, -641, 298, -65, 
    62, -1737, -30, 669, -34, 71, 905, 854, 
    -17, 1418, 3, -20, 194, -1867, -49, 715, 
    -23, 43, -322, -1590, -27, 171, -663, -19, 
    947, -1129, 55, 639, -146, -37, 1521, 215, 
    5, -309, 311, -53, 809, -1095, -47, 239, 
    -551, -36, -73, 343, -15, -968, 658, 0, 
    711, 373, -9, -685, -352, 21, 2086, 4, 
    17, 855, 756, 3, -275, -3385, -53, 1205, 
    1711, 66, 1048, -223, -65, 633, -401, -60, 
    347, 857, 7, -1104, -387, 33, -767, 1288, 
    63, -150, -105, 36, -754, -117, -9, 2020, 
    214, -64, -202, 577, 25, 860, 436, 13, 
    1147, 659, 46, -1009, 1173, 29, -1528, -935, 
    11, 174, -546, -69, 805, -892, -67, -1474, 
    -1038, -41, 1236, 1370, 32, -700, -1408, 57, 
    1493, -1307, -26, -1147, 101, -41, -4, 311, 
    -30, 31, -1689, 62, -940, -685, 30, 1143, 
    -954, -14, 350, -804, 19, -1288, -1098, -5, 
    101, 1892, -21, 146, 1619, -20, 908, 74, 
    72, -830, -410, -13, -1493, 1008, -65, -574, 
    199, -68, 743, -911, -37, 1059, -803, 66, 
    -870, -750, 0, 1421, 290, 66, -46, -154, 
    -41, -686, -151, 48, -404, -376, 53, -1275, 
    368, 20, -370, 428, -40, 489, -1690, 71, 
    261, -357, -70, 70, -336, 19, 1135, -709, 
    -21, 400, 404, 34, 517, 573, 24, 1458, 
    94, -51, 1046, 1235, 72, 212, -670, 40, 
    143, 46, -49, -535, -1352, -33, 818, 365, 
    -70, 72, 2265, 37, 1035, 553, 14, -794, 
    310, -10, -29, -767, 12, 225, -262, 23, 
    242, -240, -39, -323, -2452, -77, -421, -1945, 
    -11, -32, -1072, 55, 945, 399, -15, -1066, 
    546, 6, 162, 136, 38, -1167, -217, 39, 
    -574, -1178, 71, -40, -832, 10, -3358, 84, 
    30, -1060, -1515, -1, -36, 121, -72, 475, 
    -1209, -85, 1269, 73, -43, -750, -2101, 57, 
    -1048, -1167, -60, -2448, -490, 22, -2627, 537, 
    47, 404, -35, -8, -431, -22, -64, -540, 
    273, 44, 1048, -476, -49, -202, 1618, -9, 
    -467, 725, -39, -1073, -149, 11, 786, 1370, 
    -50, 521, -1631, 44, 1718, -1392, 87, 268, 
    -731, 82, 1286, -380, -83, -2005, 2205, -69, 
    -318, -148, 34, 634, -3204, -55, 595, -1366, 
    56, -131, 375, 45, 1059, -905, 44, 2765, 
    1449, 67, -186, -597, -70, 268, 65, -46, 
    885, -799, -23, 997, -199, -24, -658, -84, 
    -28, 330, -2952, 10, 1061, 970, -18, 168, 
    -9, -5, 171, 415, -84, 1221, 692, 11, 
    1052, 1998, 42, 283, 12, -7, -991, -401, 
    48, 1, 1777, -57, 664, 409, -24, 1004, 
    341, -87, -353, 473, -19, 1026, 662, -48, 
    -550, 1232, -40, 1111, 1234, -4, 1501, 955, 
    -5, 297, 817, -42, -612, 405, 15, -191, 
    42, -55, -695, -498, -20, 1308, 960, 52, 
    -400, 67, 73, -1200, -988, 42, 1028, 111, 
    22, 504, -225, 43, 617, 1429, 38, -870, 
    -771, -36, -383, 1131, 70, -134, -879, 38, 
    1001, -613, 32, 1574, -570, 5, 637, 993, 
    -72, -559, 46, 44, 58, -879, 26, 229, 
    -840, 67, 1574, -867, 41, 314, 1888, -60, 
    -1217, 946, -33, 243, 1742, 35, 1983, 110, 
    -3, 684, -1038, 10, -103, -2087, 72, 1428, 
    1690, 54, -1044, 196, 9, -1079, -1202, -29, 
    -1095, 1004, 25, 895, -1378, -62, -513, -283, 
    4, 714, -32, -47, 900, -1186, -68, -535, 
    254, -3, -260, 948, 40, 1187, 355, 60, 
    -118, -927, 17, -775, -711, -49, 1069, 513, 
    49, 528, -2177, 20, 421, 256, -9, 951, 
    -73, -69, 577, -833, -41, -666, 60, 9, 
    -1200, 529, 28, -200, -1069, -47, 342, -730, 
    -51, 421, 1361, 68, 352, 1825, -22, 1397, 
    1586, -66, -735, -619, -6, 903, -391, 64, 
    185, -17, 70, -2314, 1403, -28, 1618, 217, 
    -21, 1442, -914, -52, 504, 583, -31, 334, 
    1110, -66, -576, -430, -36, -868, 91, 10, 
    1089, 1584, -63, -265, 781, -49, -328, -574, 
    13, -123, 789, 62, 338, 1286, 6, -680, 
    -491, -11, -1309, -787, 21, 563, -3191, -15, 
    926, -431, 77, -94, -48, -37, -376, -274, 
    3, 27, -1506, 75, -849, -1477, -51, 656, 
    790, 64, -538, -313, 44, -1470, -1577, -50, 
    339, 443, -77, -879, -2038, -75, 599, 204, 
    -74, 256, 573, -23, -225, -1099, -76, -296, 
    -1498, -58, 452, 577, 36, 1487, -1623, 11, 
    -1268, 359, -42, -135, -254, -28, 472, 563, 
    52, -549, -1037, -37, 692, -2481, 50, 94, 
    -965, -23, -145, 1814, -62, 961, 321, -6, 
    -295, -1933, -58, -1726, -589, -1, 276, -484, 
    -31, -1157, -1079, 26, -60, -444, 77, 1132, 
    887, -43, -1125, -1409, -50, 689, -690, -75, 
    113, -696, 67, 248, 1563, 11, -324, -317, 
    -68, 707, 185, 61, -501, -1347, 45, -783, 
    352, -48, -50, 372, 47, 750, -54, -49, 
    723, 1130, -5, 1684, 1565, -70, 66, -251, 
    76, -403, -1220, -17, 1761, -54, -74, 794, 
    135, 19, 394, 342, 14, 343, 1403, -20, 
    -408, -2560, -47, -10, -1926, 15, -1206, 621, 
    -77, 1365, -295, -55, -612, -483, 57, 721, 
    728, 18, 504, 219, -45, -992, -877, 74, 
    -1030, 567, 48, -33, -1108, -23, -74, 308, 
    -9, 732, 10, -1, 393, -2098, -32, 1259, 
    329, 29, -153, -461, 43, -293, 750, 40, 
    808, -1149, -20, 1627, -566, -53, -52, -1196, 
    -50, -418, -290, -60, 1628, -703, -17, -429, 
    1385, 33, -591, -689, -20, -613, -223, -35, 
    326, 857, 23, -769, 152, -47, 64, -775, 
    -63, -70, -1694, -23, -927, 356, -38, 491, 
    -1119, 18, -429, 1514, 25, 1229, -729, -41, 
    -1114, -295, -33, 144, 840, 26, -67, 52, 
    -18, 62, -1397, 46, -621, -977, -6, 495, 
    -503, -21, 1473, 1269, 39, -1449, -530, 25, 
    -962, -1454, 51, -2724, 135, -27, 935, -32, 
    46, -487, -280, -64, -736, -1088, -72, 797, 
    1016, -31, 990, -929, 34, 34, 1765, 36, 
    -299, -1218, -10, -618, -673, -23, -1288, -547, 
    7, 449, 348, -7, 890, -911, 37, 999, 
    -436, -35, 1207, 1109, -29, -1375, 822, -22, 
    -116, 67, -54, 351, -309, 67, -2950, -728, 
    -21, 681, -1526, -44, 407, 16, 51, 1236, 
    151, 5, 851, 1325, -34, 999, -786, 35, 
    622, 653, 48, 565, -88, 32, -980, -694, 
    13, -433, 1131, 17, -747, 632, 8, 975, 
    192, 61, -766, 423, 67, -868, 974, -12, 
    182, 659, 0, 506, -476, 9, 1241, 291, 
    -39, -709, -268, -14, 1105, -2150, -48, 880, 
    -1743, 47, 190, -144, 55, 1180, 1120, 48, 
    883, 898, -73, -171, -971, -49, 1291, -600, 
    -19, -538, -1631, 42, 678, -1520, -63, 1694, 
    923, -52, -1396, 311, 63, -162, 388, 29, 
    1046, 607, -27, 298, -467, 45, -1680, 2181, 
    44, -1388, -727, -13, -1245, -1642, 68, 1505, 
    286, -42, 427, 142, 47, 1941, -536, -80, 
    230, -690, 11, -994, 471, -77, -969, -668, 
    49, -977, -943, -26, -796, -2681, 68, 446, 
    -1080, 22, 1312, 1199, 71, -1414, -328, -15, 
    917, -612, -73, -827, 590, -39, 296, 698, 
    -30, 620, -704, -4, -1161, 270, 4, 1799, 
    -295, -45, -68, -1699, -35, 522, 175, -72, 
    -963, 788, -39, 709, 1542, -78, 57, 566, 
    27, -178, -179, 64, -670, 632, -63, -717, 
    434, 59, 528, 271, 32, 400, 265, -4, 
    347, 946, -38, 1474, 1090, -75, -269, -502, 
    -36, 773, -1154, 28, -1381, -445, -52, 1409, 
    618, 31, 59, 1336, -3, -135, -1450, -48, 
    -350, -997, 80, -1156, 992, -71, 1758, -1277, 
    54, 1208, 1924, -69, -33, 903, -78, 1117, 
    1320, 77, 352, -310, -53, 79, 14, -3, 
    566, -157, 78, 240, -363, -48, 940, 368, 
    82, 142, 2429, -1, 1564, -70, -48, 96, 
    -1973, -42, 328, -1520, -25, -1121, 718, -91, 
    -1025, -216, 22, 1331, -2510, 6, -959, -760, 
    -25, -606, -1065, 86, 966, 966, 83, 372, 
    258, 54, -2870, 451, 14, -436, -1390, 35, 
    1654, 1042, -91, 768, -1121, 81, 996, 539, 
    -3, 315, -2486, 33, -71, 1398, -23, 1229, 
    -1548, -53, 1559, 273, 8, -149, -1649, 73, 
    -1521, -99, -70, -1776, 187, 88, 842, 1165, 
    -45, 903, 202, 18, 1572, -1036, 10, 1017, 
    -1004, -66, -1022, -453, -68, -179, 254, 89, 
    689, 212, 43, -1284, -105, -33, 1556, 435, 
    -60, 185, -2071, -42, 1189, -2225, -2, 1647, 
    803, 86, -80, 568, -88, 1866, -107, -84, 
    -408, -1667, -78, -1143, -1090, 89, 835, -262, 
    79, 369, 1847, 66, 746, 570, 29, -961, 
    1214, 84, 884, -678, 31, 957, 1407, -92, 
    -1264, -701, -23, 2000, 489, 32, -2048, -494, 
    82, -432, -1118, -73, 1358, 1493, -52, -2741, 
    260, 52, 340, -1432, -48, 1121, 1249, -71, 
    1999, 1167, 29, -1224, 516, -9, -750, -386, 
    -67, 1372, 851, -83, 1066, -1337, 21, -1275, 
    1413, 41, -2293, -2369, 53, -630, 773, 60, 
    -960, -417, -64, -74, 286, 71, 1113, 250, 
    -48, -1200, 224, 19, 1563, -136, -18, 1159, 
    -1129, -33, 534, 776, -1, 95, 891, -55, 
    804, 1533, 0, 323, 616, 71, 2024, 1812, 
    -14, 172, -183, 63, 1418, -2662, -55, 1147, 
    58, -68, 557, -2376, -56, 889, 473, -43, 
    889, 800, -58, 143, -601, 26, -628, 1425, 
    -13, -2118, 810, -52, -755, 226, -8, 1107, 
    1424, 3, 698, 523, -56, 740, -105, 54, 
    -62, 1326, 60, -77, -683, -21, -1891, 125, 
    -18, -146, -527, -8, 931, -1363, -32, -1224, 
    -954, 25, 1346, 476, 74, 809, -467, 41, 
    925, -575, -17, 697, -678, -19, -710, -748, 
    36, 408, -1051, 50, -793, -1241, -56, 772, 
    -678, -64, -467, -232, -40, 148, -748, -73, 
    479, 790, -2, -782, 1403, -13, 697, 297, 
    73, 731, 199, -12, 226, -765, 61, -2790, 
    -112, -50, -2592, -1869, -64, -515, 735, 43, 
    1350, -1184, 35, 725, 520, 57, -1169, 671, 
    71, -2215, -1199, -44, -2195, -510, -70, 1162, 
    -360, -71, 106, 603, 25, -45, -486, -34, 
    -337, -103, -48, 9, 790, -28, 1035, 57, 
    51, -1097, 15, 20, -487, 429, 66, 1088, 
    1550, -43, 63, -222, -42, 2071, -404, -75, 
    94, -366, -63, -399, -683, 6, 675, 151, 
    -58, -828, 250, -8, -215, -717, 35, 604, 
    518, 37, -1142, -171, 60, 1294, 974, 27, 
    -42, 851, 58, 307, -409, 38, 680, 36, 
    24, 140, 1067, -20, -955, 1402, 9, 663, 
    -781, -28, 1772, 1884, -42, 1419, -610, -16, 
    936, 533, 32, 1103, 593, -17, 1036, -1076, 
    -16, 184, -376, -28, -271, -161, -41, 744, 
    748, -6, 148, -633, 7, -931, 742, -43, 
    1460, 212, -19, 250, -124, 28, 118, -36, 
    45, 696, 1263, -56, -306, 1009, 14, 812, 
    815, 30, 578, -51, -1, -491, 362, -13, 
    -283, 157, 44, 487, 517, -39, 683, -10, 
    41, 503, 78, -39, 919, 753, -8, -749, 
    178, -30, -181, 1254, 51, -1233, -573, -22, 
    648, 1121, 51, -157, 85, -47, 367, 248, 
    40, 568, -4, 30, 1372, 893, -59, -2014, 
    -1681, -38, 616, -831, 0, 4, -80, 26, 
    -950, -376, -47, -290, 375, 29, 1604, -379, 
    3, 660, -49, -12, 1050, -621, -19, 1206, 
    -494, -36, 1186, -56, -40, 266, 857, -6, 
    -1259, 103, -24, 1139, 106, -22, 478, 1657, 
    34, -100, 157, 51, 1266, -502, 36, -1065, 
    28, 43, -105, -719, 36, 393, -591, -31, 
    290, 446, -21, 777, -191, -6, 427, -38, 
    -38, 290, 1538, -70, 1463, 1157, -56, 102, 
    -804, -8, -243, -775, -6, 394, -473, -55, 
    690, 632, -17, 431, -2267, 41, 419, -910, 
    1, -756, -1531, 66, 982, -365, 9, 0, 
    272, -67, -2043, 1294, 18, -22, -634, 3, 
    994, -331, -76, 1186, 407, -1, 1000, 1295, 
    -7, 1102, 697, 29, -241, -656, 48, 146, 
    -1525, 8, 250, 644, 35, 983, -215, 35, 
    -3414, -81, -30, 662, 1264, -17, -323, 1627, 
    -34, -187, -892, 8, 888, -375, 31, 603, 
    -1803, -42, 1373, 12, -50, -1480, -3, -48, 
    -8, -813, 33, -1108, -718, 61, 1659, 597, 
    -20, 393, -756, -12, 821, -774, 36, 191, 
    866, -46, 172, 1263, -63, 1540, 1437, 55, 
    -1058, -1991, 59, 1514, -1126, -27, 687, 1056, 
    12, -1174, -264, -34, 1952, 1304, -73, 955, 
    268, -24, 1180, 539, -71, 1181, -305, -1, 
    -2186, -1112, 10, 960, -666, 73, -400, 683, 
    37, 209, 119, 55, -1049, 89, -40, 1524, 
    706, 39, 1488, 532, -36, -378, 314, -60, 
    -35, -165, 52, -692, 216, -71, 977, -2144, 
    -76, 980, 178, -42, -259, -75, 21, 1054, 
    567, -46, -1319, -366, -1, -1219, 764, -38, 
    -102, 1876, -17, 523, 551, -23, -93, 1088, 
    91, 2460, 2600, -2, 1489, 1316, 56, -1584, 
    -2305, -99, -771, -1363, -78, -132, -261, 87, 
    180, -3793, -89, 334, -1604, -75, -1003, -1168, 
    -102, -503, -2676, 26, 517, 675, -83, 1034, 
    420, -57, -1044, -566, -24, -1483, -596, 38, 
    1064, 879, -23, 1877, 913, 24, -403, 850, 
    -53, -201, -1607, 10, 808, 469, -13, -1860, 
    -1327, 38, 2261, -51, -60, 2337, -880, -41, 
    -1082, -272, 68, -1394, 374, -83, 1092, 1155, 
    88, -2709, 485, -66, 1077, 1116, 86, -96, 
    -1822, 17, -325, -1079, -19, -197, -25, -71, 
    1232, 912, -62, -1213, 912, 88, 1717, 1430, 
    29, -1606, -844, -24, 1282, 76, 73, 2022, 
    -1546, 24, -755, -628, 40, -476, 547, 0, 
    -628, -171, -86, -262, -976, 6, 787, -345, 
    -13, 1385, 2585, 86, -1038, 708, 65, 1948, 
    1617, 34, -1596, 1342, -44, -369, 1551, -91, 
    93, -530, -31, 1529, 1129, 2, -931, -782, 
    -92, -995, -713, 38, 1407, 867, 74, 795, 
    -760, 58, -1115, -1139, 74, 3290, 1546, 79, 
    541, 1370, -1, -392, -1409, 3, -1234, -1162, 
    -59, -1048, 396, 78, 1177, -785, 83, -321, 
    -835, 96, 981, -1437, -63, 1070, 563, 80, 
    218, -1075, 76, 150, 895, 57, 902, 1469, 
    82, -290, -10, -33, -2028, -630, 31, 584, 
    -440, -45, -501, -571, -63, 1050, 212, -21, 
    -1146, 883, -23, -1338, 1279, -25, -959, -1464, 
    -31, 651, 488, -26, -1258, 112, 78, 48, 
    -910, -4, -370, 372, 78, -156, 708, -80, 
    -605, -955, -52, -2256, -2187, 80, -419, 1425, 
    -66, -1276, 531, 40, 1249, -1393, 67, -147, 
    1027, -74, -1589, -14, 16, -1465, 158, 56, 
    -2289, -204, -51, 33, -561, -56, -1868, 286, 
    -42, 1554, 1011, -6, -75, 523, -79, 493, 
    1416, 49, 142, -227, 55, 82, -1491, -30, 
    1729, -75, -5, -1911, 839, 18, -482, 344, 
    67, 3, 1430, 46, 1936, 510, 24, 1703, 
    -990, 23, -327, 1341, 34, 1072, 738, -53, 
    -1876, 1053, 66, -613, 157, -32, 1028, -37, 
    -21, -239, -49, 45, -1423, -849, -10, 213, 
    -1161, 13, 655, -1077, -16, -1760, -75, -39, 
    474, -1661, -34, 1209, 80, 44, 442, -1549, 
    72, -1558, 1144, -73, 261, 781, -5, -868, 
    -223, -78, -1113, 1644, -1, -799, -1157, 79, 
    -215, -403, 52, -521, 2382, -48, 644, 688, 
    15, -261, 123, 14, -257, -371, -28, -976, 
    -94, -15, -479, -1220, -39, -2050, -125, 48, 
    -85, 1542, 81, -2465, 75, 15, -622, -619, 
    -2, -1201, 1155, 78, 804, -413, 51, -645, 
    -2101, -47, -2482, 239, -5, -956, -141, -5, 
    141, -300, -15, -1210, 864, 59, 1913, 678, 
    65, 770, -26, 76, -1041, -631, 57, -971, 
    223, -33, 1498, -636, -16, 1176, 263, 52, 
    1593, -1415, 45, 379, -1481, 49, -666, 122, 
    -13, 421, -643, 67, 331, -514, 72, -606, 
    889, -15, 752, 193, 3, 1927, -1479, -36, 
    -269, 173, 69, -1292, -1618, -20, -297, -782, 
    -31, -41, -348, 42, 1580, -401, -36, -733, 
    -82, -77, 1622, 1253, 32, 1410, -1249, 22, 
    1120, -3038, -46, -400, -963, -29, 447, -741, 
    -56, -470, 302, -12, -2018, -1225, 65, 1263, 
    -241, 69, -122, -751, 42, 873, -283, 47, 
    -1338, 231, -28, 660, 676, -40, -1284, -651, 
    -8, 819, 365, 36, -1177, -1355, -50, 1163, 
    802, -9, -1481, 271, -48, 686, -290, -28, 
    1210, 703, -28, -324, 1128, -75, 119, 544, 
    42, -934, -414, -17, 12, -658, 15, 1212, 
    -16, 22, -363, 832, 70, 1329, -22, -40, 
    -5, -223, -41, 286, -357, 23, 15, 680, 
    71, -718, -487, 36, 50, 409, -14, -860, 
    1426, 49, 479, 1268, -26, 472, -493, -34, 
    275, -1548, -66, -400, -1624, -31, 328, 1776, 
    -64, 110, 2088, 9, 1358, 1705, 1, -1177, 
    -2463, -18, -15, -1373, -70, -368, 562, -36, 
    -211, -666, 47, 821, -2678, -36, -179, -1646, 
    -66, 88, -1106, 77, 1503, 1122, 4, -1644, 
    1374, 29, -2813, 21, -81, 103, -1282, 3, 
    1311, -475, 34, -166, -593, -80, 13, 1170, 
    63, 911, -869, 56, 66, 467, -6, 1064, 
    -1557, -83, 1860, 270, -60, -791, -487, -7, 
    -2741, -967, -2, -437, -428, -77, 649, 2011, 
    -16, 623, 387, -65, 1291, -1530, -47, 454, 
    -1024, 82, 359, -546, -74, -349, -281, 76, 
    1374, 259, 51, -1821, 1043, -50, 1037, 869, 
    57, 768, -242, 42, 659, -1125, -51, 774, 
    919, -37, 1642, 861, 83, 65, 1213, 0, 
    148, -884, -14, 778, -1642, -76, 758, -835, 
    -35, -899, 991, 24, 664, 819, 10, -111, 
    395, 40, 1333, 39, 13, 1161, 613, 3, 
    -996, 406, -21, 1934, 1204, 81, -506, 4, 
    -56, -174, -811, 76, 1414, 1401, 35, 222, 
    368, 27, 856, 522, -16, 594, 668, 50, 
    1040, 48, 65, -1859, -453, 78, -1266, -1700, 
    44, 735, 724, 83, -909, -879, 64, -1203, 
    1500, -27, -2076, 913, -63, -176, 804, 13, 
    -899, 1200, -60, 186, 540, -7, 702, 543, 
    14, -702, 810, 21, -1571, 552, -23, -1247, 
    212, 28, -380, 98, -30, 2567, 853, 32, 
    479, -691, 84, 368, -436, 80, -116, -996, 
    34, 1197, -285, -44, 550, 2636, 38, -320, 
    35, -55, -1383, 702, -6, 1743, -1243, -73, 
    2138, -1725, 62, 1471, -808, 30, 1074, -1172, 
    69, 275, -856, -72, -1477, -423, -18, -315, 
    -489, 79, 1408, -843, -42, -540, 1200, 87, 
    339, 320, -33, 378, 2470, -10, 1641, 811, 
    -19, 659, -776, 38, -1234, 354, 69, 1067, 
    769, 27, 94, -317, -39, -2480, -213, 9, 
    327, 1286, 85, -1368, -183, -79, -237, -319, 
    -42, 210, 198, 58, 767, 843, 44, 883, 
    872, 57, 634, 726, -68, -2015, 654, -52, 
    -765, -1864, 59, -1297, -1967, -77, -52, -609, 
    -27, 1149, -278, -65, 2696, 215, -44, 483, 
    -520, 28, 401, -1637, 3, -1703, -2182, -12, 
    -451, 356, 5, 1699, 732, -75, -436, -1086, 
    -23, -1041, 1023, 40, 1712, 1828, -33, -623, 
    1366, -25, -1573, -2104, -11, 535, -657, 22, 
    985, 1810, 0, -814, 1310, 8, 539, -333, 
    74, 711, 590, -72, 649, -534, -18, -716, 
    -529, -75, -133, 85, 74, 831, -324, -13, 
    213, -1270, 31, 602, 1188, -53, -262, 750, 
    48, -1337, -773, -61, 1391, 380, 60, 91, 
    419, -40, 513, 421, 28, 355, 1494, 54, 
    -197, 1031, -9, -1089, -770, 42, 526, -363, 
    -30, -1072, -598, 10, 720, 137, -25, 484, 
    475, -75, 827, 126, -20, 1933, 638, -37, 
    720, 564, -77, -673, 966, -37, 1765, 773, 
    -41, -3092, 1254, -32, 40, -1039, -55, 804, 
    -1521, 19, 967, -638, -41, 363, 292, 19, 
    1278, 306, -81, 806, 954, 76, -1784, -713, 
    24, 256, -538, -18, -848, -90, -58, -258, 
    -2946, 23, 1287, 45, 72, 194, -941, -18, 
    79, -106, 70, -523, -2388, -56, -383, 497, 
    -29, -111, 543, 22, -21, 595, -56, 533, 
    1781, -22, 55, 1054, 51, 61, -394, -42, 
    508, -294, 41, -675, 996, 63, 2492, 2519, 
    -80, -457, 231, 19, 235, 2430, 49, -761, 
    -605, -27, 1070, -1385, 19, 682, -147, -2, 
    -1684, 402, 39, -924, -2247, 44, 727, 153, 
    -57, 1496, -805, 32, -1866, 209, 19, 442, 
    -725, -25, -665, 374, -58, 385, -754, -28, 
    1174, -463, 64, 207, -356, -37, 807, 779, 
    19, 266, 815, -40, 1589, -1564, 27, 1177, 
    1669, 20, -333, 192, -3, -968, -750, 36, 
    1521, 865, 4, -337, -1270, 16, -837, -336, 
    29, 810, 1117, 14, 390, 1811, 16, 231, 
    -338, -1, 533, 954, -40, 536, -1126, 33, 
    1106, 859, 35, -89, 659, 12, -1076, -2864, 
    58, 104, -879, -72, -635, -1650, 5, 1346, 
    1007, 14, -355, -827, 33, 233, 398, -33, 
    817, 1789, 47, -1971, -694, -67, 1243, 173, 
    56, 1447, 1185, 30, -1516, -254, -6, -763, 
    286, -57, 1470, 25, -30, 2109, -785, -31, 
    615, -174, 30, -1519, 1484, 74, -894, 896, 
    70, 451, -1129, 82, 1707, -1741, -71, 632, 
    -309, 25, 896, 2422, 73, 592, -218, -70, 
    213, -2374, 50, 230, -1224, -41, 324, -157, 
    74, -620, -1074, -62, -431, -1952, -4, 214, 
    1102, 57, 533, -1192, -27, 56, 1609, 14, 
    849, -465, -15, 755, 678, -16, -849, 1098, 
    55, -915, 5, -10, -184, 161, -57, -2576, 
    301, 68, -792, 1680, -4, 2285, 119, -20, 
    -297, 594, -66, 469, 230, -22, -851, 1543, 
    -5, -976, -738, -75, -492, 564, 35, 358, 
    99, 50, -89, -271, 66, -405, -243, 45, 
    -463, -2203, 19, -29, -1210, -24, -1273, 239, 
    21, 613, 353, -50, -680, -2143, 55, -805, 
    649, 59, -395, 845, -1, 1293, 557, -22, 
    419, 1222, -61, 19, -1158, 24, -414, -416, 
    7, -2016, 1781, -3, -1198, 1556, 17, -1608, 
    -655, -11, -570, 120, -1, 1406, 1731, 30, 
    -355, 806, 34, -209, -2564, -83, 350, -687, 
    -46, 105, -1241, -4, 1246, 1588, -54, -1758, 
    860, -17, -3295, 91, 57, 196, -1065, 36, 
    1601, -116, -29, 1473, 1075, 29, 314, -1386, 
    -55, 275, 118, 21, 429, 943, -56, -1281, 
    -673, 3, 1645, -554, -65, -189, 691, -46, 
    -211, -576, -67, -905, 1063, 21, 776, 314, 
    72, -998, 677, 36, 1312, 1174, -38, -44, 
    -939, 70, 1156, -1273, -83, -1300, 295, 7, 
    1072, 243, -58, -1191, -84, -21, 1676, 17, 
    0, 530, -566, 23, 1291, 6, 39, 444, 
    711, 28, -610, 2181, -59, -1799, -808, -43, 
    -1120, -1755, -77, -71, -1210, -48, 423, 303, 
    -69, 245, 214, 72, 2136, 699, 59, 722, 
    -33, -52, 915, 1197, 27, 1193, -1213, 82, 
    -1300, 24, -40, 1948, 152, 3, 1535, -844, 
    -18, 159, 802, 17, 564, 170, 12, 1130, 
    1721, -16, -109, -1610, -16, 1521, -677, -10, 
    89, 1287, -44, -581, 292, -46, 1335, -2585, 
    -38, -882, -799, -64, 822, 57, 63, 118, 
    -798, 84, -80, -827, 47, -92, 1569, 7, 
    100, 1031, 42, -975, 328, -40, 496, 712, 
    -70, -359, 386, -50, 145, 45, -57, -432, 
    -1563, 74, -193, -745, -11, 1330, 215, -54, 
    -193, -1560, -61, 804, -35, 11, 249, 1642, 
    84, 751, 1600, 34, -114, 292, 71, 1209, 
    -1362, 66, 2125, 128, 72, 1362, -2629, -80, 
    -2127, -190, 33, 1003, 674, -72, -2273, -967, 
    -52, 684, -997, 47, 408, -1070, 30, -1068, 
    60, -14, -534, -1107, -74, 2134, -1059, 21, 
    424, 1463, 63, 879, 290, 23, -1599, -440, 
    18, -434, 761, 79, -823, 430, 78, 1120, 
    1250, -68, -95, -865, -7, -2429, 41, -34, 
    -361, 1182, 32, 1172, 1441, 52, 904, 1552, 
    42, 902, 249, -17, -455, 941, 3, -1337, 
    -2134, -84, 539, -978, -43, -1093, -1555, -78, 
    -597, -293, 54, 654, -417, -82, -714, -311, 
    67, 1549, 1074, -24, -631, 640, 62, 533, 
    644, 27, -862, -1139, -28, -1305, 1402, 19, 
    -21, -633, -48, 972, 254, 16, 1805, 671, 
    2, -16, 730, 34, -589, -292, -72, -892, 
    -1677, 80, -622, -3081, -31, -1449, 1253, 76, 
    -1215, 790, 72, 1203, 354, 36, -42, 785, 
    -57, -148, -1293, 80, 1815, -182, -45, -1338, 
    -454, 60, 1460, -228, -65, -295, 1917, -16, 
    -290, 550, -22, 2545, 989, 58, 241, 411, 
    -76, -1390, -732, 66, -1594, 1011, -9, -234, 
    -1553, 17, 972, 767, -44, 845, -679, 47, 
    1746, -390, -69, -1686, 2280, -22, -792, 1919, 
    64, 1525, 1791, -37, -341, 709, -55, -1080, 
    -205, -79, 838, 1542, -32, 354, 507, 14, 
    -504, 1539, -38, -207, -979, 26, -485, -2249, 
    -68, 671, 402, -19, 391, -1229, 14, -889, 
    1890, -56, -916, -2176, -49, -1042, -462, 77, 
    1300, 510, -48, -1295, -312, 65, -139, -930, 
    -10, 1010, 1532, -48, 409, -1112, -50, -1230, 
    1061, 56, 955, -984, -48, -1330, 129, 17, 
    -200, 622, -39, -834, 143, 56, 827, -1066, 
    -25, 1084, 1341, -67, 689, 1193, 19, -78, 
    -1035, 13, -675, -1229, -15, -11, -102, -77, 
    -746, 1019, -6, 999, -534, 79, 134, 266, 
    -13, 136, 536, 74, -627, 762, 7, 408, 
    -193, 58, -704, 327, -53, -1057, -1010, -71, 
    -308, 383, -36, -1304, 433, -66, -67, 1375, 
    -31, -228, -1327, -24, -2141, -797, -9, 297, 
    -838, 54, 136, -743, 6, 650, 305, -64, 
    -929, -218, 36, 847, 50, -4, 170, 568, 
    -66, 653, -445, -42, 1413, -1065, -44, 877, 
    -913, -78, 657, 654, -8, -1983, 16, -26, 
    -38, 85, -36, -334, 1128, 64, 1735, -686, 
    51, 75, 200, 18, -1115, 437, -54, -563, 
    825, 67, 112, 229, -66, 1807, 1661, -25, 
    1012, -661, 9, 408, -401, -19, -615, 61, 
    27, 148, 54, -38, -1069, 1221, -7, -1084, 
    -1088, -23, -518, 1347, 8, 1088, -128, 27, 
    1957, 1299, 59, 182, 1835, 29, 965, -573, 
    -54, 152, 67, -8, -1386, -1321, 43, -6, 
    -447, 29, 1301, -1106, -23, 79, 291, 67, 
    738, 199, 5, 270, -856, 66, 641, 1061, 
    -31, 1676, -64, -9, 156, -1014, -43, 398, 
    1242, -43, 477, 159, -40, -511, -400, 59, 
    -2363, 155, 5, -562, -957, 43, 396, -194, 
    64, 661, -42, -17, 1759, -705, -29, 1329, 
    340, 0, 623, 1102, -4, 603, 1355, 51, 
    1340, -396, -68, 683, 612, 28, 1132, 1528, 
    4, 811, -598, -61, 471, 643, -33, -1091, 
    -1071, -3, 547, -1266, 44, -400, 846, 49, 
    254, -527, 40, 586, -1024, -31, -816, 514, 
    -6, -529, -16, -37, 1328, 10, -27, 890, 
    -1288, -23, 781, -212, -46, -1707, 585, 60, 
    667, -64, 51, 1124, 993, -1, 1407, 851, 
    1, 734, -1076, 61, -988, -108, 56, 1035, 
    -1730, -46, -1765, -991, 59, -373, 611, -38, 
    604, -760, 66, -1333, 921, 41, 219, 641, 
    6, -761, -922, 2, -317, 456, 20, 390, 
    -407, 42, 522, 842, -43, 643, -203, 17, 
    1439, 18, 13, -344, 1440, 35, -1466, 220, 
    60, 559, 853, -24, 5, -658, -39, 24, 
    223, 61, -80, 115, 32, 385, 893, 1, 
    448, 59, 15, -155, 1170, 21, -240, 8, 
    -50, 1234, -448, 25, 768, 174, -46, 790, 
    1533, 20, 253, -754, 55, -509, -1132, -57, 
    1252, 1140, -26, -2470, -117, 57, 385, -929, 
    66, 524, 2277, 30, 779, 1037, 31, 1110, 
    522, -24, 365, -1348, 59, -884, -205, 0, 
    -42, 495, 56, 1840, 874, 66, 158, -941, 
    -66, 376, 1261, -55, 125, 709, 19, 186, 
    -1304, 68, 655, -13, 41, -1025, -810, 39, 
    -274, 1419, 30, 755, 321, -39, -1497, 271, 
    47, 323, 613, 65, -510, 642, -10, 296, 
    -1327, 3, -322, -341, -28, -1433, -216, 8, 
    -596, 557, -55, 233, 703, 59, -209, 1889, 
    -63, 690, 446, 24, -236, -1291, -25, -295, 
    -811, 57, -303, -464, 14, -670, 303, 18, 
    -1356, 1027, -38, 817, 1198, -38, 851, 1283, 
    -32, 1067, -478, 23, 470, 272, -41, -1344, 
    -323, -18, 433, 468, 37, -806, -51, 25, 
    -606, 337, 23, 1191, 1341, 36, -389, -1581, 
    11, -1272, 2093, -3, 1370, 1175, -66, -467, 
    -711, 35, -199, -1131, 50, -770, -148, -42, 
    -2430, -131, 71, 794, -1611, 56, 1306, -859, 
    -16, -1639, -763, 20, 760, 1311, 65, -803, 
    -104, 25, -1414, 689, 61, -603, -896, -14, 
    -42, -312, -22, 163, -1386, -28, 130, 16, 
    41, 341, -297, -26, 337, 1128, -70, 896, 
    -981, -69, 1292, -151, -15, 12, -706, 6, 
    -2077, -1148, 22, -19, 1195, 12, 692, 1645, 
    -31, -132, 590, -14, 455, -754, 55, -165, 
    -966, -56, 13, 61, 24, -401, 381, -14, 
    376, -11, 18, -1438, -995, -60, 682, -357, 
    40, 1264, -985, -19, 208, -685, 36, 1548, 
    1590, 46, 745, 578, -9, -833, 1282, 48, 
    446, -1819, 58, 3, -1139, -38, -257, -1090, 
    1, -878, 595, -55, 862, -301, -52, -480, 
    1161, 33, 1506, -508, -69, -780, 741, 2, 
    671, -43, 8, 701, 436, 74, 226, -471, 
    29, -848, -785, 50, 1215, 1222, -30, 1482, 
    1038, -72, 725, 84, 12, -134, 404, -38, 
    608, 220, 46, -1024, 1103, 8, -769, -1111, 
    -66, 1259, 768, -72, 1604, 33, 21, 342, 
    691, -67, -2255, 0, -13, -1539, 182, -9, 
    -120, 1045, -12, -664, 339, 25, 596, 575, 
    28, 798, 854, -83, 1674, 1446, 78, 385, 
    121, -11, 421, 450, -21, 968, -135, -54, 
    245, 931, -61, 1293, 673, -80, 676, -1842, 
    -75, -495, -437, -10, 391, 240, -53, -667, 
    -143, -20, -297, 226, 82, 1278, -1329, 80, 
    1071, 1800, -81, 649, 1544, -27, 685, 164, 
    -17, 732, 1399, -43, -597, -977, 17, 1613, 
    -1617, 12, -350, -1541, -23, 261, -647, -64, 
    -134, -874, 40, 946, 1492, -56, -480, 554, 
    38, 243, -2200, 49, 482, -1830, -42, 1003, 
    737, 26, -208, 980, 36, -314, 1016, 68, 
    -642, -1102, -52, -872, -1057, -17, 600, -328, 
    15, 256, -672, -11, -841, 567, 16, -2460, 
    500, -27, 1046, 1589, 82, 496, 175, 10, 
    -493, 876, -66, -663, -515, 18, 16, 514, 
    17, 443, -1284, 11, -668, 2636, -63, -685, 
    584, -33, 1817, -150, 22, 1372, -117, -75, 
    -2852, 63, -3, -2446, -878, -81, -711, -579, 
    -62, 1403, -988, 43, 367, -1361, -72, -103, 
    469, 73, -341, 2137, -35, -1880, -1828, -83, 
    -25, -2317, -1, 984, 458, 70, 94, 964, 
    51, 755, 613, -83, -2082, -31, -44, -22, 
    1163, 39, 472, -486, -48, -2374, 358, 85, 
    1052, 1900, 83, -284, -584, -61, -1428, -1527, 
    57, -922, 737, 6, -672, 654, -21, -545, 
    -723, 56, 178, 1028, 67, 989, -3, 26, 
    655, 1300, -4, -318, 574, 49, 221, -379, 
    12, -571, 449, -4, 822, -1803, -38, 1173, 
    -83, -26, 497, -1118, 19, 76, -367, 47, 
    333, 1404, -31, -432, 205, -55, -541, 829, 
    11, -158, -719, -30, -1661, -1084, 11, 483, 
    1087, -61, 680, 609, 2, 1164, -3, 66, 
    47, -231, -1, -1205, 246, -15, -342, -988, 
    17, 689, -1104, 53, 617, -1058, -38, -433, 
    -1718, -20, 291, 1649, 32, 1449, -1114, 61, 
    483, -1506, 15, 804, 68, -17, -261, 265, 
    -8, -1011, -516, 10, -496, -1032, -22, 867, 
    -298, 48, -211, 177, 42, 1141, 24, -20, 
    468, 429, -16, 846, 1106, -18, 730, 1689, 
    -7, -110, 0, -7, 858, 448, -30, -1576, 
    1036, 22, -983, -114, -33, 1618, -1485, 0, 
    804, 50, -61, 1582, 1472, 53, -531, 912, 
    -50, 191, -1473, -70, 585, 501, 11, 2150, 
    -499, -14, 91, 711, -63, 940, -794, -15, 
    -341, -1812, 46, -1260, -124, 31, -1052, 113, 
    56, 991, 1233, 63, 167, -495, -13, 1633, 
    1476, 21, -982, -392, -9, 731, -327, 11, 
    -1170, -1054, -69, 877, -1572, -40, -2213, 73, 
    -36, 1338, -374, -37, -1912, -310, -72, -538, 
    395, 78, 28, 1254, -20, 176, 57, -24, 
    -709, 73, -38, -321, -315, 77, -81, 1505, 
    61, 427, 1136, 39, -1042, -385, -82, -379, 
    -1812, 23, -2513, 2303, 5, 930, 1260, -49, 
    438, 1737, -6, -841, 1071, -62, 167, -1190, 
    -41, -144, -838, 64, -382, 1898, -30, 483, 
    -103, -60, 1497, 440, 78, 16, 830, 31, 
    473, 691, 45, 419, -1054, 34, -247, -1179, 
    -2, -459, 945, 63, -160, 1625, 32, -2614, 
    581, 64, -1469, -282, 54, -1432, 567, 35, 
    -996, 1200, -68, 96, 1452, -67, 1375, -1336, 
    -57, 542, 2036, -49, 264, 1156, -36, -301, 
    -1464, -82, 466, 140, 49, -806, -372, -71, 
    -73, -54, 74, -115, -654, 16, 528, -2356, 
    -63, 394, 929, -71, 938, -1453, 61, -283, 
    784, -54, -381, 377, 49, -749, -46, -58, 
    -436, 2, 26, 864, -545, 8, 1053, 610, 
    -74, 1588, -159, -32, -1431, -430, -26, -1159, 
    170, 0, 84, -596, 48, -1066, 207, 6, 
    1191, 1337, 2, -634, 1188, -31, -132, 76, 
    -34, -1177, -1020, -67, 1996, 1665, 79, -518, 
    -1145, -79, 781, 1889, 48, 780, -159, 20, 
    -642, 134, -71, 1625, 1339, 17, -565, 871, 
    -67, 260, 935, 68, 946, 2113, 44, -1232, 
    1067, 75, -856, -136, 18, 1264, -564, 1, 
    -54, 680, 7, -449, -575, -49, 335, 260, 
    17, -610, -818, -32, 422, 821, -38, 933, 
    508, -11, 108, -2277, -11, -1084, -127, -72, 
    -893, -531, -2, 41, -413, 66, 1171, 1165, 
    7, 464, 181, 63, 707, -624, 69, 498, 
    272, -1, 1126, -340, -65, -187, 780, 4, 
    -721, -731, 13, 1266, 1880, 19, 131, 1645, 
    52, -435, -1043, 22, -1648, -976, -18, 379, 
    965, -18, 1631, 1048, -40, 539, -2198, -39, 
    -980, -1970, 45, -750, -1006, -56, -185, -1372, 
    24, -864, -1527, 16, -410, -1038, -50, 110, 
    790, -7, -117, 1116, -8, -1918, 471, -23, 
    1382, -91, -1, -516, -674, 30, -558, -318, 
    61, -509, -258, -62, 1394, -758, -29, -137, 
    -249, 26, 1028, 1526, -39, -347, -1069, -45, 
    534, -682, 51, 699, 578, 49, -827, -699, 
    -7, 219, -712, -80, 2445, 1721, -21, 1467, 
    -2582, -45, 992, 1422, 45, -81, 1322, 65, 
    920, -1500, -32, 394, -743, -64, 910, 435, 
    26, -1391, 103, 78, -1079, -209, -72, 650, 
    711, -81, -238, -141, 79, -1918, 506, -79, 
    -1556, 480, -4, -753, -645, 65, -903, -469, 
    66, -961, 1277, -7, -712, 1170, 15, -1592, 
    -1331, -35, -911, -45, 87, 916, 1102, -55, 
    507, -406, 81, -232, -2352, 10, -225, -1385, 
    -29, -1016, -2593, -8, 1712, 1238, -13, -1327, 
    614, -65, -2369, 848, 84, -430, -2612, 81, 
    1176, -1086, 30, 892, 834, -88, 789, 1264, 
    81, -1221, 773, 3, -1105, 637, 65, 234, 
    -157, 60, 1771, 673, 42, 669, -146, -85, 
    -1360, -707, 12, 90, 844, 70, 1189, 2188, 
    -75, -196, -68, -43, 390, 169, -24, -656, 
    -494, 22, 994, 61, 58, -860, 255, -42, 
    1720, 767, -25, -782, 427, 68, 2285, 255, 
    -35, 1804, -1395, 65, 487, 572, -25, 2252, 
    1041, -83, 529, 838, 16, 6, -774, -44, 
    -1619, -1445, -90, 1111, -759, -63, 1086, 97, 
    -33, -1966, -394, -7, 871, 1713, 8, -1627, 
    1704, -32, 506, 912, 39, 1924, -709, -72, 
    -785, 37, -44, 3052, 268, 65, -595, -154, 
    54, 1282, -354, 68, -567, -249, 33, 505, 
    -314, 85, 500, -1054, 82, 1485, -91, -7, 
    89, 516, -65, -938, 358, -75, 1777, -2018, 
    46, 426, 996, 10, 1090, 306, 59, 736, 
    -2150, 51, -265, 138, 64, -239, -928, -74, 
    212, 1412, -23, 209, -527, 46, -28, 1057, 
    -10, 677, -405, -90, 981, 624, 20, -615, 
    1424, -47, -2382, 27, -32, 1432, 86, 42, 
    -1276, 985, -13, -182, -44, -20, -42, -2629, 
    36, 611, -591, -46, 400, -141, -45, 297, 
    536, 17, -119, 461, 1, -1855, -995, 49, 
    -262, 199, -9, 714, -1618, -91, 1392, 1965, 
    -25, -772, 774, -83, -816, -2346, 50, -114, 
    259, -2, -2489, 282, 61, 538, 639, -8, 
    611, -389, -63, 740, 1034, 68, 86, 939, 
    -9, -645, 450, -47, -1892, 216, 68, 575, 
    -205, 86, 209, 280, -90, 723, -1241, 25, 
    -304, -2165, 43, -2180, -2020, -37, -7, -1454, 
    -58, -38, 563, 66, -1446, -643, -55, 1779, 
    235, 22, 299, 1871, -14, 466, -46, 77, 
    10, -296, -81, 289, -121, 14, 1255, 1039, 
    20, -101, -1027, 69, -824, 2972, 18, -1632, 
    -460, -91, 689, -627, -70, 311, -165, 19, 
    -551, -781, 86, -1229, -862, -10, 733, -587, 
    81, 1428, 543, 43, -924, 707, 32, 1855, 
    -75, 18, -451, 1505, -41, -705, -713, 79, 
    728, -981, 6, 1022, 2116, 2, 1190, 818, 
    38, -1770, 521, -81, -2394, -1598, 63, 356, 
    115, 59, -93, -1422, -55, -1774, -306, -57, 
    -597, 2672, -85, -138, -252, 0, -3540, -1968, 
    -68, -3348, -755, -71, 793, 967, 46, 659, 
    496, -73, 504, 10, 41, 225, 1747, 46, 
    -275, 968, 25, -407, -661, 52, 1273, 577, 
    -58, 437, -235, -50, 1683, 461, 51, 188, 
    613, -81, 1003, 86, 4, 1049, -95, 28, 
    37, 627, 19, -115, -148, 79, 1237, 1035, 
    23, -755, 242, 17, 202, -1879, -76, 768, 
    1550, -54, 1872, 52, 14, -656, 761, 52, 
    602, -1961, 63, 542, 157, 22, -2539, -1005, 
    -39, 328, -770, 23, -731, 430, 3, -1305, 
    -1356, 43, 706, 151, 71, -373, -958, 54, 
    -1728, 27, -23, -615, -1254, -63, 165, 99, 
    -74, 376, 106, -66, -148, -847, -28, 512, 
    1137, -32, 475, 2035, 23, -376, -2521, 79, 
    861, 212, -25, -2144, 71, 16, 22, 1838, 
    -56, -6, -1496, -75, 1126, 222, 32, -782, 
    -1903, 11, 682, -863, 35, -1475, -505, 39, 
    -1450, -332, 5, 199, -750, -51, 45, -54, 
    76, -382, 221, -47, -1707, 1195, -57, -1085, 
    1072, 72, -175, -122, 15, -1502, -1873, -17, 
    933, -2071, -23, 457, -250, -76, 1794, 465, 
    -73, 961, 1028, 19, -121, -958, -63, 779, 
    662, -45, -656, -1099, -4, 239, -1975, 8, 
    678, -951, -73, -1214, -20, -35, -1039, -78, 
    58, -2090, -2354, 62, 735, -50, 33, 161, 
    -942, 57, 331, 1320, -60, 408, 336, -67, 
    2315, 763, -53, -755, 379, -44, 1739, 1930, 
    -44, -521, 1268, -57, 648, 609, 1, 592, 
    969, -76, 1563, 898, -11, 350, 844, 56, 
    575, 605, -35, 159, -1638, -72, 769, 46, 
    72, 972, 783, 68, 3, -828, 51, -81, 
    1511, 20, -1050, -369, 54, -1895, 631, -36, 
    1588, 2208, 5, -900, -2367, -22, -1735, -1442, 
    -51, -1706, -1235, -56, 408, -966, -74, -1819, 
    -16, -27, -351, 84, 38, 1232, 208, 23, 
    1544, 507, 67, 131, 165, -67, -606, -1428, 
    -46, 983, -1446, -18, -893, 564, 43, 513, 
    631, -48, -2286, -406, 9, -317, -1327, 41, 
    -250, 398, 3, -809, 77, 35, -598, 907, 
    79, 47, -929, 68, -654, 66, 69, -1254, 
    -716, -39, -785, -437, -47, -1851, -711, 55, 
    -1037, -221, -2, 536, -729, 64, 1619, -121, 
    59, -615, 47, 74, -236, -1556, -59, 250, 
    43, -42, 1237, -146, -18, 387, -179, 8, 
    318, -1161, -65, 277, -801, -73, 720, 896, 
    -53, -596, -61, 34, -495, -121, 79, 596, 
    1145, -41, -965, -1129, -77, 378, -1532, 26, 
    -390, -448, 26, -1147, -354, 50, 871, 286, 
    60, 657, -22, 68, -1072, -492, 29, 395, 
    -35, -27, 456, -359, -9, 196, -120, -3, 
    615, -1185, -17, -29, -1877, 15, -427, 679, 
    -58, 55, 163, -50, 483, 324, 63, -251, 
    -751, -32, -1526, 1490, 71, -153, -675, -13, 
    904, 1561, -14, 510, 1021, -9, 491, -2555, 
    15, 23, 69, 57, -287, 994, 70, -497, 
    -1650, -54, 409, -1208, -10, 201, -232, -15, 
    -1381, -566, -72, -1686, -473, 50, 973, -1728, 
    30, -686, 586, 43, 754, -18, -14, -1722, 
    616, -25, -772, -541, 22, 149, -164, 61, 
    -219, 64, -21, 388, 571, 10, 1204, 326, 
    -41, 1456, 1059, -9, 532, 226, 31, 963, 
    -696, 41, 293, 531, -4, -39, 720, -40, 
    490, -1286, -56, 900, -714, 65, 1223, -641, 
    -26, 1239, 1284, -59, 448, -1947, -38, 1733, 
    1183, -48, -1015, 14, -61, -2046, 768, -5, 
    -940, -107, -23, 114, -729, 67, -329, 633, 
    15, -63, 415, 50, 1142, 850, 29, -1580, 
    164, -71, 768, -1104, 39, 1162, 696, -15, 
    1179, 1235, 35, 37, 2089, -44, -301, 172, 
    10, 619, -2459, 7, 1587, -118, -31, -120, 
    -1280, 71, -99, -147, -33, 1750, 160, -39, 
    1274, 471, 64, -189, 1030, 37, 257, 1867, 
    47, 1442, 1853, -48, -42, 787, -41, -999, 
    -473, -7, -898, -1846, -4, 304, 5, 26, 
    -533, -491, 65, -601, 578, -25, 369, -229, 
    69, -1635, -1444, 32, 1343, 199, 33, 541, 
    1386, -71, 1637, -328, -74, 363, 262, 42, 
    -88, -237, 67, 1624, 472, 76, -1142, 178, 
    -37, -596, -959, -69, 352, 857, 79, -1258, 
    128, -45, -290, 1283, -65, 1818, 437, 49, 
    -3378, -261, 37, -125, -796, 12, 188, 315, 
    -44, -598, 768, -4, 1348, 469, 59, -948, 
    -712, 0, -310, 983, 15, 463, 1909, 17, 
    -117, 374, -41, -1055, 441, -44, 1583, 1810, 
    -60, -516, -198, -43, 691, 1005, -57, 815, 
    -455, -13, -2050, -262, 9, 1031, -815, 62, 
    566, 1136, -77, -242, -883, -47, 30, -1129, 
    44, 341, 1720, 4, -728, -1384, -8, 937, 
    311, 55, -748, -165, 40, 1124, 2124, -30, 
    736, 301, 38, 591, 737, 65, 1360, 540, 
    65, -2256, -950, -5, 1690, -397, -1, -1226, 
    -1212, 42, -1556, -1201, -49, 1279, 2331, -9, 
    -684, -138, -51, 864, -86, -12, 725, -148, 
    25, 587, -762, -56, 990, -751, 34, -1021, 
    803, -68, 1460, -12, -44, 455, 603, 53, 
    -555, -454, 53, -566, 115, -15, 1317, -475, 
    -68, -819, 198, -50, 477, -291, -58, -606, 
    1991, 84, -1639, 0, 47, -569, 700, 7, 
    -2019, 1760, -66, -2167, 547, 38, 25, -1158, 
    -43, -2955, -326, -37, 766, -841, 20, 305, 
    311, -83, -568, -1838, 17, -1857, -451, 22, 
    -2673, -2229, -92, 605, -2192, -34, 83, 1374, 
    -79, -1313, 1082, -85, 626, -2271, -24, 709, 
    -444, 7, -600, 273, 57, 381, 305, -1, 
    2, -309, -24, 636, 55, 16, 709, -7, 
    37, 177, 1779, -30, -391, 1864, 25, -273, 
    1773, -87, 1151, 927, -45, -168, -848, 29, 
    -1925, -426, -89, 454, -1906, 67, -1700, -2931, 
    -43, -788, 907, 83, -1330, -639, 91, 1220, 
    -782, 76, 69, 1126, 23, 18, 457, -69, 
    994, -380, 66, -278, 448, -25, 1248, 828, 
    -28, -1677, -213, 48, 30, 2174, 81, -698, 
    -995, -11, 530, -1542, 52, -667, -799, -48, 
    -648, -1121, -53, -357, -1751, -67, 693, -496, 
    -4, 526, 959, 3, 482, 1341, 57, 1485, 
    -693, 27, 129, 1857, -12, -165, -203, -33, 
    984, -263, -25, -6, 2597, 66, 789, 437, 
    8, 1692, 259, -62, 2635, -1343, 8, -1792, 
    373, 95, -473, -1395, 80, -896, -43, -28, 
    1791, 2198, 22, -2379, -365, 37, -1873, -1616, 
    51, -1980, 34, -29, 6, 618, 79, 753, 
    1381, 7, 75, -82, 22, 923, 631, -77, 
    376, 1182, 47, -1718, -290, 83, -369, 599, 
    30, 985, 685, -40, -353, -263, 61, -456, 
    1228, 3, -396, 31, 11, 84, 1491, 11, 
    484, -705, -71, -360, -1587, 24, 771, 394, 
    -64, 1002, 322, -46, -1034, -676, -25, 1192, 
    -297, 57, 880, 1417, -36, -4163, 2264, -48, 
    800, -1909, -75, 618, 120, 78, -135, -2063, 
    34, 72, -72, -44, -283, 1721, 87, -1789, 
    716, 0, 117, -426, -4, -941, -934, 56, 
    -2177, 1147, -31, -811, -83, 62, -2164, -2276, 
    71, 200, 322, 72, -1671, -717, 41, 287, 
    -1671, -6, -771, 896, 75, 751, -34, 30, 
    -562, -285, -63, 455, 510, 25, -228, 757, 
    -57, 1100, -2765, -43, 1258, 444, 17, -607, 
    -1121, 18, 178, -46, 71, -2744, -687, 58, 
    -378, -1106, 69, 7, -937, 80, -2276, -589, 
    52, -1442, 1750, 61, 1033, -59, -74, 823, 
    -1460, -18, -1552, -71, -15, -1101, -234, -15, 
    1277, -305, 68, 933, 510, 8, -89, 1370, 
    -34, 1203, -103, -8, -878, -1604, -3, 1250, 
    286, 32, -925, -159, 51, 1646, -1626, -69, 
    -102, -1460, 53, -2484, 203, -28, -614, -1732, 
    64, -2634, 1842, -16, 43, 1212, -23, -1566, 
    -934, -3, -259, 626, -78, 1331, 1794, 19, 
    -838, -704, -13, 46, -3897, -58, 907, -1501, 
    -61, -1041, -3196, -22, 1095, -317, 52, -1069, 
    -332, -67, -3577, 23, -11, -172, -1900, 27, 
    1493, -709, -42, 1077, -710, -54, -1148, -1604, 
    -86, -218, -793, 77, 941, 1212, 82, -92, 
    -146, 41, 1470, -1217, -53, -501, -1111, 81, 
    119, -1022, -1, -22, -313, -83, 780, 1692, 
    -90, -1088, 780, -54, 1104, -34, -3, 191, 
    -1685, -58, 1091, -1147, 33, -1410, -212, -27, 
    1706, -151, -15, -740, 849, 81, 2601, 1289, 
    84, 1004, -1990, 24, 242, -1181, 85, 1629, 
    77, -101, 1249, 915, -32, 1567, -1384, 13, 
    -1809, -2294, -90, 1184, -1757, -41, 1228, 1783, 
    66, -1458, 1704, -82, 1348, 357, -2, 553, 
    2322, -47, 912, 1793, -52, 2089, -327, 74, 
    -1819, 96, 21, 1727, -2077, -34, 584, -687, 
    -78, -50, -322, 50, -1308, 1245, 14, 540, 
    249, -40, -289, -2425, 99, 694, 116, -34, 
    660, 1399, -87, -259, 546, -83, 876, -1445, 
    93, -205, -1857, -22, 2061, -183, -61, -443, 
    -496, 33, -110, -780, 87, -129, -210, -77, 
    -149, 1042, 88, -1357, -320, 81, -332, -411, 
    -42, -132, -64, -70, 871, -1289, -79, -417, 
    -399, 35, 700, -72, 27, -365, -565, 35, 
    1429, 60, -25, -1177, 317, -53, -318, 1908, 
    62, 2012, -174, 47, 1400, 40, -66, -1513, 
    -190, -16, 670, -366, -11, 516, -901, -6, 
    1165, 801, 5, -1177, -1944, 28, -689, 677, 
    23, 349, 279, 63, 324, 608, -24, -485, 
    1087, 2, -2898, -233, -22, -813, -480, -25, 
    -397, -224, 1, -15, -832, 77, -138, -744, 
    -47, -1527, 566, -64, -629, -828, -14, -423, 
    383, 19, 1646, 304, -75, 145, 392, 35, 
    -1322, -1581, -41, -1040, 1528, 60, -205, 1160, 
    54, 1782, -1481, 24, 837, -1445, -63, 244, 
    472, -72, -1513, -1278, 37, 99, -694, -15, 
    -2109, 65, 5, 842, 864, 28, -1839, 52, 
    54, 906, 414, -5, -824, 1391, 41, 70, 
    -2524, 25, 411, -68, 46, -2480, 220, -60, 
    198, -97, 60, -908, 1032, 7, 787, -475, 
    -2, 362, -616, 40, -30, -98, 2, 1176, 
    -617, 55, -936, -4, -74, 158, 1944, -9, 
    -722, 364, -3, -862, -1527, 63, 1205, -2209, 
    8, -193, 139, -8, 1509, -1166, -69, 630, 
    1364, 2, 1760, -928, 28, 801, -915, 10, 
    178, -536, 62, 287, 384, 74, 1264, 206, 
    24, 335, 260, -37, -501, -132, 67, -464, 
    -499, -48, 57, 36, 16, -1171, -714, 23, 
    959, -1126, -10, 399, -330, -56, 342, 532, 
    -68, 1394, 820, -29, -84, 969, 13, 1819, 
    -1017, -26, 1329, 1796, -48, 2318, -1296, 20, 
    1037, 1458, 34, 1183, 2120, 13, 620, -1704, 
    22, 438, -1443, 51, 1158, 224, 49, -878, 
    1480, -30, 86, -318, -47, 362, 244, 32, 
    354, -652, 7, -343, -898, 50, -241, 532, 
    -27, 350, 1472, -18, 667, 851, -19, 244, 
    811, 37, -4, 348, 62, -142, 546, 46, 
    -249, 1188, -64, 1021, 819, 30, 473, 1187, 
    35, 480, 1589, -51, 551, 1564, 19, 303, 
    -1346, -5, -646, 201, -26, -568, 625, 8, 
    720, -361, -23, -377, 251, -4, 460, -795, 
    33, -67, 1816, 53, 1584, -47, 70, -118, 
    -670, 19, -1647, -76, -56, 197, 64, -9, 
    392, -194, 42, 174, -797, 12, -208, 1676, 
    -35, 113, 407, -27, -564, -216, -25, 116, 
    -581, -38, 453, -1606, -60, 763, 1097, -63, 
    -1097, -855, 44, 288, 1058, -18, -507, 157, 
    -11, 505, -87, -33, 1044, -13, 33, -944, 
    -1893, -46, 231, 584, -63, 544, 1190, 30, 
    -404, -129, -54, 987, 1352, 60, 1331, -661, 
    69, 656, 201, -13, 289, 431, 66, -143, 
    -585, 64, -2568, -575, 40, -1078, -1724, -50, 
    -1269, -1628, -57, 147, -825, -33, 248, 541, 
    42, 514, -858, 31, 468, 368, 16, -1152, 
    232, -52, 882, -761, -37, -378, -1770, 55, 
    481, -98, -52, 613, 618, 52, -1500, -1643, 
    -45, -1663, -331, 32, 748, 1394, -66, -1034, 
    -3730, -47, 498, -449, -34, 127, 743, -70, 
    -896, -2674, 45, -869, 740, 57, 596, 521, 
    -62, -809, 177, 4, -433, -1331, -36, -539, 
    1258, -42, -230, 137, 27, 1552, -2187, 31, 
    567, -1045, 30, 335, -966, -13, 466, -788, 
    78, -1019, -114, 26, 1574, -558, 43, 793, 
    -682, -2, 85, -1344, -23, -1130, 446, 27, 
    452, 162, -11, -1323, -795, 64, 622, -2232, 
    -29, -251, 1103, 70, 1138, -180, -48, -162, 
    1327, 65, -542, 787, -54, -746, 804, -75, 
    1017, 724, -11, 2313, 1361, -12, -681, -1272, 
    10, -479, -163, 65, 1822, 679, 55, 521, 
    389, 19, -261, 311, -78, 607, 842, 44, 
    660, 340, 67, -139, -697, 4, -906, -711, 
    36, -1843, -464, -52, 895, 1976, 14, -349, 
    344, -65, -632, 1238, 33, 850, 985, -47, 
    422, -1124, -21, -434, 1151, -61, -851, 1798, 
    25, -841, 3255, 58, 386, -230, -93, 739, 
    -1296, -27, -1826, -957, 64, -2135, 889, 22, 
    421, 188, -82, 794, -1481, 46, -1085, 269, 
    -57, -595, -1565, -71, 1824, 920, 20, 723, 
    392, 53, -1906, 2004, 16, -560, -1383, 5, 
    -195, -672, 85, -62, -439, 21, 262, 1, 
    -81, -2596, -90, -62, -455, 2269, 77, 1013, 
    -501, 85, 1651, 832, 77, 1454, -1448, 72, 
    -1509, -909, -56, 340, 446, 66, 89, 849, 
    24, 610, -960, 54, 558, 528, 46, 1169, 
    1774, 58, 1581, 508, -82, 334, -392, 80, 
    -670, 148, -45, -847, -276, 85, 1631, 291, 
    -66, -970, -1432, 37, -208, -1006, 25, 76, 
    1791, 13, 481, -1082, 79, 1131, 588, 34, 
    262, -1629, 63, -755, -1042, 37, 388, -2329, 
    -57, 1188, 109, 44, -40, 1030, -90, -1456, 
    1750, -45, 570, 310, 69, 2322, 2798, 2, 
    244, 651, -93, 1798, -351, 82, -2986, -766, 
    61, -1126, -527, 34, -160, 1432, -78, 1626, 
    538, 9, 2080, 401, 1, 449, 2201, -60, 
    2485, 108, 72, -645, 353, 24, -1379, -1843, 
    31, -98, -1200, -50, 603, -14, -37, 160, 
    1505, 18, 650, 148, 43, 393, 1256, -39, 
    -382, 2084, 36, -291, -187, -55, 115, 865, 
    37, -2514, 417, 29, -1832, -487, 73, 40, 
    -389, -45, -523, -34, -43, 1623, 1709, -42, 
    265, 1232, 26, -654, -715, 43, 1290, -1082, 
    -28, 1235, -704, -65, -111, 2110, -31, -1276, 
    351, 28, -132, 1209, -48, 344, -1506, 46, 
    2040, 525, 1, -759, 337, -25, 772, -530, 
    -54, 911, -17, 45, -747, -209, -28, -100, 
    -226, 55, 617, -1612, 36, -1239, 897, -69, 
    831, 1111, -14, -58, 2, -7, 1238, 1102, 
    17, -787, 142, 63, 34, 929, 43, 957, 
    -534, -37, 126, 626, -40, -2925, 569, -29, 
    -98, 289, -13, -824, 22, -66, -1362, 450, 
